{
	"model": "NK_GM07",
	"rule": "Model",
	"data": {
		"AC": {
			"dp": [1,0.9652855491,0.9521730603,0.9395376596,0.92733998,0.9155445075,0.904119197,0.8930351261,0.8822661838,0.8717887901,0.8615816435,0.8516254942,0.8419029397,0.8323982407,0.8230971556,0.8139867917,0.8050554706,0.7962926081,0.787688605,0.7792347496,0.7709231297],
			"mc": [1,0.03751235962,0.03526542489,0.03322814062,0.0313796922,0.02970134496,0.02817623623,0.02678918811,0.02552653905,0.02437599219,0.02332647896,0.02236803618,0.02149169563,0.02068938451,0.01995383591,0.01927850828,0.01865751285,0.01808554841,0.01755784254,0.01707009877,0.01661844898],
			"omega": [1,0.9033022476,0.8162500642,0.7378703188,0.6672960952,0.603747166,0.5465213228,0.4949865753,0.4485741286,0.4067720645,0.3691196534,0.3352022354,0.3046466137,0.2771169082,0.2523108236,0.2299562915,0.209808447,0.1916469092,0.1752733321,0.1605092015,0.147193852],
			"lambda": [1,0.9894984552,0.9796024344,0.9698054775,0.9601065834,0.9505047622,0.9409990347,0.9315884325,0.9222719975,0.9130487819,0.9039178481,0.8948782682,0.8859291242,0.8770695078,0.86829852,0.8596152715,0.8510188817,0.8425084795,0.8340832027,0.8257421979,0.8174846204],
			"xi": [1,0.9892021909,0.9792996443,0.9694971757,0.9597936789,0.9501880696,0.9406792837,0.9312662762,0.9219480201,0.912723506,0.9035917404,0.8945517456,0.8856025584,0.87674323,0.8679728252,0.8592904218,0.8506951098,0.8421859918,0.8337621816,0.8254228046,0.8171669969],
			"w": [1,0.9885114578,0.9786251579,0.9688378395,0.959148501,0.9495561519,0.9400598127,0.9306585146,0.9213512995,0.9121372196,0.9030153372,0.8939847246,0.885044464,0.8761936474,0.8674313762,0.8587567611,0.8501689223,0.8416669891,0.8332500995,0.8249174009,0.8166680489],
			"n": [1,0.782841774,0.7627861145,0.7441537357,0.7268081325,0.7106263919,0.6954978347,0.6813227924,0.6680115068,0.6554831399,0.6436648819,0.6324911491,0.621902862,0.6118467954,0.6022749932,0.5931442424,0.5844155993,0.5760539626,0.5680276904,0.5603082542,0.5528699283],
			"m": [1,0.9761670425,0.9540533859,0.9333960645,0.9140569951,0.8959118272,0.8788485708,0.8627663608,0.8475743454,0.8331906852,0.8195416533,0.8065608243,0.7941883448,0.7823702772,0.7710580087,0.7602077195,0.749779904,0.7397389406,0.7300527032,0.720692213,0.711631324],
			"c": [1,0.98946777,0.9795176566,0.969672588,0.9599309592,0.950291237,0.9407519533,0.9313116996,0.9219691218,0.9127229159,0.9035718235,0.8945146284,0.8855501529,0.8766772551,0.8678948258,0.8592017866,0.8505970868,0.8420797022,0.8336486329,0.8253029014,0.8170415518],
			"q": [1,0.9895054429,0.979608475,0.9698106682,0.9601110116,0.9505085066,0.9410021661,0.9315910145,0.9222740875,0.9130504314,0.9039191034,0.8948791711,0.8859297122,0.8770698146,0.8682985761,0.8596151039,0.8510185151,0.842507936,0.8340825021,0.825741358,0.8174836572],
			"p": [1,"_NaN_","_NaN_","_NaN_","_NaN_","_NaN_","_NaN_","_NaN_","_NaN_","_NaN_","_NaN_","_NaN_","_NaN_","_NaN_","_NaN_","_NaN_","_NaN_","_NaN_","_NaN_","_NaN_","_NaN_"],
			"h": [1,"_NaN_","_NaN_","_NaN_","_NaN_","_NaN_","_NaN_","_NaN_","_NaN_","_NaN_","_NaN_","_NaN_","_NaN_","_NaN_","_NaN_","_NaN_","_NaN_","_NaN_","_NaN_","_NaN_","_NaN_"],
			"b": [1,"_Inf_","_Inf_","_Inf_","_Inf_","_Inf_","_Inf_","_Inf_","_Inf_","_Inf_","_Inf_","_Inf_","_Inf_","_Inf_","_Inf_","_Inf_","_Inf_","_Inf_","_Inf_","_Inf_","_Inf_"],
			"a1": [1,0.99,0.9801,0.970299,0.96059601,0.9509900499,0.9414801494,0.9320653479,0.9227446944,0.9135172475,0.904382075,0.8953382543,0.8863848717,0.877521023,0.8687458128,0.8600583546,0.8514577711,0.8429431934,0.8345137615,0.8261686238,0.8179069376],
			"a2": [1,0.99,0.9801,0.970299,0.96059601,0.9509900499,0.9414801494,0.9320653479,0.9227446944,0.9135172475,0.904382075,0.8953382543,0.8863848717,0.877521023,0.8687458128,0.8600583546,0.8514577711,0.8429431934,0.8345137615,0.8261686238,0.8179069376],
			"a3": [1,0.9,0.81,0.729,0.6561,0.59049,0.531441,0.4782969,0.43046721,0.387420489,0.3486784401,0.3138105961,0.2824295365,0.2541865828,0.2287679245,0.2058911321,0.1853020189,0.166771817,0.1500946353,0.1350851718,0.1215766546],
			"CEFP": [1,0.9759545943,0.9538958116,0.9332875404,0.9139922832,0.8958862167,0.8788578253,0.8628066708,0.8476422854,0.8332831757,0.8196559258,0.8066943902,0.7943389676,0.7825359472,0.7712369199,0.7603982498,0.7499805964,0.7399484867,0.7302699284,0.7209160631,0.711860853],
			"UEFP": [1,0.9759545943,0.9538958116,0.9332875404,0.9139922832,0.8958862167,0.8788578253,0.8628066708,0.8476422854,0.8332831757,0.8196559258,0.8066943902,0.7943389676,0.7825359472,0.7712369199,0.7603982498,0.7499805964,0.7399484867,0.7302699284,0.7209160631,0.711860853],
			"rT": [1,0.5563526034,0.5498752242,0.5435540041,0.537378243,0.5313382616,0.5254253,0.5196314258,0.5139494525,0.5083728648,0.5028957524,0.4975127494,0.492218981,0.4870100144,0.4818818151,0.4768307077,0.4718533404,0.4669466527,0.4621078473,0.4573343639,0.4526238558],
			"rIB": [1,0.7956867259,0.7828343751,0.7706000962,0.7589287535,0.7477706585,0.7370810252,0.7268194808,0.7169496254,0.7074386345,0.698256903,0.6893777234,0.6807769966,0.672432972,0.6643260131,0.6564383868,0.6487540733,0.6412585959,0.633938867,0.6267830496,0.6197804333],
			"rL": [1,0.7375724593,0.7265441401,0.7159913637,0.7058728484,0.6961513785,0.6867933975,0.6777686429,0.669049818,0.6606122952,0.6524338501,0.6444944216,0.6367758964,0.6292619146,0.6219376948,0.6147898774,0.6078063821,0.6009762815,0.5942896855,0.5877376388,0.5813120276],
			"rB": [1,0.7586623128,0.7437710392,0.7297591434,0.7165447851,0.704054247,0.6922211234,0.6809855891,0.6702937425,0.6600970134,0.6503516307,0.6410181431,0.6320609876,0.623448101,0.6151505709,0.6071423211,0.5993998281,0.5919018671,0.5846292819,0.5775647793,0.5706927427],
			"interest": [1,0.7956867259,0.7828343751,0.7706000962,0.7589287535,0.7477706585,0.7370810252,0.7268194808,0.7169496254,0.7074386345,0.698256903,0.6893777234,0.6807769966,0.672432972,0.6643260131,0.6564383868,0.6487540733,0.6412585959,0.633938867,0.6267830496,0.6197804333],
			"inflation": [1,0.9953060428,0.9857353762,0.9730603507,0.959044541,0.9468108468,0.9349638145,0.9234731448,0.912311485,0.9014541347,0.8908787814,0.8805652628,0.8704953525,0.8606525671,0.8510219927,0.8415901289,0.8323447481,0.8232747691,0.8143701431,0.8056217511,0.7970213121],
			"inflationq": [1,0.9652855491,0.9521730603,0.9395376596,0.92733998,0.9155445075,0.904119197,0.8930351261,0.8822661838,0.8717887901,0.8615816435,0.8516254942,0.8419029397,0.8323982407,0.8230971556,0.8139867917,0.8050554706,0.7962926081,0.787688605,0.7792347496,0.7709231297],
			"output": [1,0.98946777,0.9795176566,0.969672588,0.9599309592,0.950291237,0.9407519533,0.9313116996,0.9219691218,0.9127229159,0.9035718235,0.8945146284,0.8855501529,0.8766772551,0.8678948258,0.8592017866,0.8505970868,0.8420797022,0.8336486329,0.8253029014,0.8170415518],
			"outputgap": [1,0.03751235962,0.03526542489,0.03322814062,0.0313796922,0.02970134496,0.02817623623,0.02678918811,0.02552653905,0.02437599219,0.02332647896,0.02236803618,0.02149169563,0.02068938451,0.01995383591,0.01927850828,0.01865751285,0.01808554841,0.01755784254,0.01707009877,0.01661844898],
			"fispol": [1,"_NaN_","_NaN_","_NaN_","_NaN_","_NaN_","_NaN_","_NaN_","_NaN_","_NaN_","_NaN_","_NaN_","_NaN_","_NaN_","_NaN_","_NaN_","_NaN_","_NaN_","_NaN_","_NaN_","_NaN_"],
			"AUX_ENDO_LEAD_227": [1,0.9867299327,0.9739195727,0.9615316225,0.9495324272,0.9378916117,0.9265817535,0.9155780881,0.9048582442,0.894402005,0.8841910938,0.8742089809,0.8644407093,0.8548727386,0.845492804,0.8362897895,0.8272536137,0.8183751275,0.8096460211,0.8010587414,0.7926064163],
			"AUX_ENDO_LEAD_231": [1,0.9872803149,0.9749597952,0.9630072523,0.9513945293,0.9400961987,0.9290892898,0.9183530448,0.9078686974,0.8976192751,0.8875894207,0.8777652309,0.8681341126,0.8586846521,0.8494064981,0.8402902564,0.8313273948,0.8225101577,0.8138314893,0.8052849643,0.7968647255],
			"AUX_ENDO_LEAD_235": [1,0.9877404761,0.9758294999,0.9642409906,0.9529513878,0.9419394003,0.93118578,0.9206731186,0.9103856642,0.9003091566,0.8904306792,0.8807385251,0.8712220774,0.8618717003,0.8526786426,0.8436349496,0.8347333842,0.825967356,0.8173308576,0.8088184066,0.8004249944],
			"AUX_ENDO_LEAD_262": [1,0.9422299809,0.889814664,0.8422228019,0.7989762299,0.7596445581,0.723840394,0.6912150433,0.6614546409,0.6342766676,0.6094268168,0.5866761729,0.565818673,0.5466688219,0.5290596358,0.5128407913,0.4978769601,0.4840463095,0.4712391536,0.4593567384,0.4483101498],
			"AUX_ENDO_LEAD_266": [1,0.9465148598,0.897913085,0.8537109905,0.8134732134,0.7768078807,0.7433622615,0.7128188524,0.6848918561,0.6593240106,0.6358837362,0.614362568,0.5945728445,0.576345628,0.5595288326,0.543985539,0.5295924788,0.5162386697,0.5038241872,0.4922590591,0.4814622708],
			"AUX_ENDO_LEAD_270": [1,0.9507724131,0.9059598607,0.8651259167,0.8278777467,0.7938617494,0.7627596341,0.7342848897,0.7081796076,0.6842116216,0.6621719345,0.6418724014,0.6231436449,0.6058331793,0.5898037212,0.5749316703,0.5611057414,0.5482257329,0.5362014196,0.5249515551,0.5144029742],
			"AUX_ENDO_LEAD_297": [1,0.9899490646,0.9800037322,0.9701624372,0.9604236809,0.9507860254,0.9412480884,0.9318085383,0.9224660907,0.9132195038,0.9040675754,0.8950091396,0.8860430641,0.8771682478,0.8683836182,0.8596881297,0.8510807613,0.8425605152,0.8341264155,0.8257775062,0.8175128505],
			"AUX_ENDO_LEAD_301": [1,0.9899579005,0.980020432,0.9701861271,0.9604535753,0.9508214181,0.9412883446,0.9318530877,0.9225144208,0.9132711542,0.9041221324,0.8950662319,0.8861023583,0.8772294446,0.8684464491,0.8597523536,0.8511461621,0.8426268994,0.8341936094,0.8258453544,0.8175812138],
			"AUX_ENDO_LEAD_305": [1,0.9899652042,0.980034236,0.970205709,0.9604782858,0.9508506734,0.9413216202,0.931889912,0.9225543702,0.9133138481,0.904167229,0.8951134242,0.8861513706,0.8772800296,0.8684983847,0.8598054406,0.8512002221,0.8426817721,0.8342491515,0.8259014373,0.8176377225],
			"AUX_ENDO_LAG_0_1": [1,0.9652855491,0.9521730603,0.9395376596,0.92733998,0.9155445075,0.904119197,0.8930351261,0.8822661838,0.8717887901,0.8615816435,0.8516254942,0.8419029397,0.8323982407,0.8230971556,0.8139867917,0.8050554706,0.7962926081,0.787688605,0.7792347496,0.7709231297],
			"AUX_ENDO_LAG_0_2": [1,0.9652855491,0.9521730603,0.9395376596,0.92733998,0.9155445075,0.904119197,0.8930351261,0.8822661838,0.8717887901,0.8615816435,0.8516254942,0.8419029397,0.8323982407,0.8230971556,0.8139867917,0.8050554706,0.7962926081,0.787688605,0.7792347496,0.7709231297],
			"AUX_ENDO_LAG_25_1": [1,0.98946777,0.9795176566,0.969672588,0.9599309592,0.950291237,0.9407519533,0.9313116996,0.9219691218,0.9127229159,0.9035718235,0.8945146284,0.8855501529,0.8766772551,0.8678948258,0.8592017866,0.8505970868,0.8420797022,0.8336486329,0.8253029014,0.8170415518],
			"AUX_ENDO_LAG_25_2": [1,0.98946777,0.9795176566,0.969672588,0.9599309592,0.950291237,0.9407519533,0.9313116996,0.9219691218,0.9127229159,0.9035718235,0.8945146284,0.8855501529,0.8766772551,0.8678948258,0.8592017866,0.8505970868,0.8420797022,0.8336486329,0.8253029014,0.8170415518],
			"AUX_ENDO_LAG_25_3": [1,0.98946777,0.9795176566,0.969672588,0.9599309592,0.950291237,0.9407519533,0.9313116996,0.9219691218,0.9127229159,0.9035718235,0.8945146284,0.8855501529,0.8766772551,0.8678948258,0.8592017866,0.8505970868,0.8420797022,0.8336486329,0.8253029014,0.8170415518],
			"AUX_ENDO_LAG_26_1": [1,0.03751235962,0.03526542489,0.03322814062,0.0313796922,0.02970134496,0.02817623623,0.02678918811,0.02552653905,0.02437599219,0.02332647896,0.02236803618,0.02149169563,0.02068938451,0.01995383591,0.01927850828,0.01865751285,0.01808554841,0.01755784254,0.01707009877,0.01661844898],
			"AUX_ENDO_LAG_26_2": [1,0.03751235962,0.03526542489,0.03322814062,0.0313796922,0.02970134496,0.02817623623,0.02678918811,0.02552653905,0.02437599219,0.02332647896,0.02236803618,0.02149169563,0.02068938451,0.01995383591,0.01927850828,0.01865751285,0.01808554841,0.01755784254,0.01707009877,0.01661844898],
			"AUX_ENDO_LAG_26_3": [1,0.03751235962,0.03526542489,0.03322814062,0.0313796922,0.02970134496,0.02817623623,0.02678918811,0.02552653905,0.02437599219,0.02332647896,0.02236803618,0.02149169563,0.02068938451,0.01995383591,0.01927850828,0.01865751285,0.01808554841,0.01755784254,0.01707009877,0.01661844898],
			"AUX_ENDO_LAG_22_1": [1,0.7956867259,0.7828343751,0.7706000962,0.7589287535,0.7477706585,0.7370810252,0.7268194808,0.7169496254,0.7074386345,0.698256903,0.6893777234,0.6807769966,0.672432972,0.6643260131,0.6564383868,0.6487540733,0.6412585959,0.633938867,0.6267830496,0.6197804333],
			"AUX_ENDO_LAG_22_2": [1,0.7956867259,0.7828343751,0.7706000962,0.7589287535,0.7477706585,0.7370810252,0.7268194808,0.7169496254,0.7074386345,0.698256903,0.6893777234,0.6807769966,0.672432972,0.6643260131,0.6564383868,0.6487540733,0.6412585959,0.633938867,0.6267830496,0.6197804333],
			"AUX_ENDO_LAG_22_3": [1,0.7956867259,0.7828343751,0.7706000962,0.7589287535,0.7477706585,0.7370810252,0.7268194808,0.7169496254,0.7074386345,0.698256903,0.6893777234,0.6807769966,0.672432972,0.6643260131,0.6564383868,0.6487540733,0.6412585959,0.633938867,0.6267830496,0.6197804333],
			"AUX_ENDO_LAG_24_1": [1,0.9652855491,0.9521730603,0.9395376596,0.92733998,0.9155445075,0.904119197,0.8930351261,0.8822661838,0.8717887901,0.8615816435,0.8516254942,0.8419029397,0.8323982407,0.8230971556,0.8139867917,0.8050554706,0.7962926081,0.787688605,0.7792347496,0.7709231297],
			"AUX_ENDO_LAG_24_2": [1,0.9652855491,0.9521730603,0.9395376596,0.92733998,0.9155445075,0.904119197,0.8930351261,0.8822661838,0.8717887901,0.8615816435,0.8516254942,0.8419029397,0.8323982407,0.8230971556,0.8139867917,0.8050554706,0.7962926081,0.787688605,0.7792347496,0.7709231297],
			"AUX_ENDO_LAG_24_3": [1,0.9652855491,0.9521730603,0.9395376596,0.92733998,0.9155445075,0.904119197,0.8930351261,0.8822661838,0.8717887901,0.8615816435,0.8516254942,0.8419029397,0.8323982407,0.8230971556,0.8139867917,0.8050554706,0.7962926081,0.787688605,0.7792347496,0.7709231297]
		},
		"VAR": {
			"dp": 0.006366877908,
			"mc": 0.0559252017,
			"omega": 3.268732472,
			"lambda": 20.79378541,
			"xi": 21.01840347,
			"w": 20.48815144,
			"n": 0.118453469,
			"m": 66.44331279,
			"c": 19.35251618,
			"q": 21.25785968,
			"p": "_NaN_",
			"h": "_NaN_",
			"b": 0,
			"a1": 50.25125628,
			"a2": 50.25125628,
			"a3": 5.263157895,
			"CEFP": 0.001467170887,
			"UEFP": 0.0119769052,
			"rT": 0.02429540102,
			"rIB": 0.05798957164,
			"rL": 0.04347186599,
			"rB": 0.04853694337,
			"interest": 0.9278331463,
			"inflation": 0.09855596469,
			"inflationq": 0.1018700465,
			"output": 19.35251618,
			"outputgap": 0.8948032271,
			"fispol": 0,
			"AUX_ENDO_LEAD_227": 0.09699791395,
			"AUX_ENDO_LEAD_231": 0.09446816691,
			"AUX_ENDO_LEAD_235": 0.09210266467,
			"AUX_ENDO_LEAD_262": 0.031555616,
			"AUX_ENDO_LEAD_266": 0.02807864984,
			"AUX_ENDO_LEAD_270": 0.0252121871,
			"AUX_ENDO_LEAD_297": 18.9561313,
			"AUX_ENDO_LEAD_301": 18.57707942,
			"AUX_ENDO_LEAD_305": 18.2059174,
			"AUX_ENDO_LAG_0_1": 0.006366877908,
			"AUX_ENDO_LAG_0_2": 0.006366877908,
			"AUX_ENDO_LAG_25_1": 19.35251618,
			"AUX_ENDO_LAG_25_2": 19.35251618,
			"AUX_ENDO_LAG_25_3": 19.35251618,
			"AUX_ENDO_LAG_26_1": 0.8948032271,
			"AUX_ENDO_LAG_26_2": 0.8948032271,
			"AUX_ENDO_LAG_26_3": 0.8948032271,
			"AUX_ENDO_LAG_22_1": 0.9278331463,
			"AUX_ENDO_LAG_22_2": 0.9278331463,
			"AUX_ENDO_LAG_22_3": 0.9278331463,
			"AUX_ENDO_LAG_24_1": 0.1018700465,
			"AUX_ENDO_LAG_24_2": 0.1018700465,
			"AUX_ENDO_LAG_24_3": 0.1018700465
		},
		"IRF": {
			"interest_": {
				"dp": [0,-0.0115854043,-8.199512591e-17,-4.220594424e-17,-4.216285849e-17,-4.201424552e-17,-4.20153754e-17,-4.201649394e-17,-4.201760126e-17,-4.201869746e-17,-4.201978266e-17,-4.202085699e-17,-4.202192054e-17,-4.202297343e-17,-4.202401577e-17,-4.202504767e-17,-4.202606923e-17,-4.202708056e-17,-4.202808176e-17,-4.202907294e-17,-4.203005419e-17],
				"mc": [0,-0.2317080859,2.240154594e-16,1.154601445e-16,1.18365387e-16,1.225849712e-16,1.225845205e-16,1.225840745e-16,1.225836331e-16,1.225831961e-16,1.225827636e-16,1.225823355e-16,1.225819117e-16,1.225814922e-16,1.22581077e-16,1.225806659e-16,1.22580259e-16,1.225798562e-16,1.225794575e-16,1.225790628e-16,1.22578672e-16],
				"omega": [0,0.005687118085,4.09056966e-17,-3.262618942e-17,-3.214017813e-17,-3.179847052e-17,-3.180183285e-17,-3.180516654e-17,-3.180847137e-17,-3.181174719e-17,-3.181499388e-17,-3.181821137e-17,-3.182139963e-17,-3.182455865e-17,-3.182768846e-17,-3.183078912e-17,-3.183386071e-17,-3.183690331e-17,-3.183991705e-17,-3.184290206e-17,-3.184585849e-17],
				"lambda": [0,0.1025191547,-5.623923229e-17,-4.268321525e-17,-4.378899738e-17,-4.594936322e-17,-4.603685766e-17,-4.612347712e-17,-4.620923033e-17,-4.629412598e-17,-4.637817264e-17,-4.646137881e-17,-4.654375288e-17,-4.662530319e-17,-4.670603798e-17,-4.678596539e-17,-4.686509352e-17,-4.694343035e-17,-4.702098379e-17,-4.709776169e-17,-4.717377179e-17],
				"xi": [0,-0.1291889312,1.677762271e-16,7.277692922e-17,7.457638964e-17,7.663560794e-17,7.654766288e-17,7.646059742e-17,7.637440275e-17,7.628907015e-17,7.620459097e-17,7.612095669e-17,7.603815883e-17,7.595618903e-17,7.5875039e-17,7.579470053e-17,7.571516551e-17,7.563642588e-17,7.55584737e-17,7.548130108e-17,7.540490023e-17],
				"w": [0,-0.1754373889,1.275074269e-16,7.896026391e-17,8.098875961e-17,8.447290789e-17,8.455971515e-17,8.464565438e-17,8.473073427e-17,8.481496339e-17,8.489835026e-17,8.498090329e-17,8.506263082e-17,8.514354111e-17,8.522364231e-17,8.530294252e-17,8.538144975e-17,8.545917192e-17,8.553611688e-17,8.561229241e-17,8.56877062e-17],
				"n": [0,-0.1521871605,1.379483718e-16,7.982548997e-17,8.161239876e-17,8.431434398e-17,8.431135656e-17,8.430839939e-17,8.430547212e-17,8.430257443e-17,8.4299706e-17,8.429686649e-17,8.42940556e-17,8.429127302e-17,8.428851844e-17,8.428579158e-17,8.428309212e-17,8.428041979e-17,8.42777743e-17,8.427515538e-17,8.427256273e-17],
				"m": [0,-0.08534535046,1.039337613e-16,-1.888778591e-17,-1.720670351e-17,-1.467301913e-17,-1.459505408e-17,-1.451787761e-17,-1.444148094e-17,-1.436585548e-17,-1.429099279e-17,-1.421688459e-17,-1.414352275e-17,-1.407089927e-17,-1.39990063e-17,-1.392783611e-17,-1.385738108e-17,-1.378763372e-17,-1.371858663e-17,-1.365023254e-17,-1.358256426e-17],
				"c": [0,-0.09591646346,4.904467677e-17,4.196369789e-17,4.296173793e-17,4.496065001e-17,4.504492046e-17,4.512834852e-17,4.521094259e-17,4.529271099e-17,4.537366193e-17,4.545380358e-17,4.5533144e-17,4.561169119e-17,4.568945306e-17,4.576643746e-17,4.584265213e-17,4.591810477e-17,4.599280298e-17,4.606675431e-17,4.61399662e-17],
				"q": [0,-0.102828828,-1.104996474e-18,8.160797478e-17,8.201275015e-17,8.359410307e-17,8.368253178e-17,8.377007615e-17,8.385674501e-17,8.394254714e-17,8.40274912e-17,8.411158577e-17,8.419483937e-17,8.427726039e-17,8.435885717e-17,8.443963796e-17,8.451961092e-17,8.459878412e-17,8.467716557e-17,8.47547632e-17,8.483158482e-17],
				"p": [0,-0.0115854043,-0.0115854043,-0.0115854043,-0.0115854043,-0.0115854043,-0.0115854043,-0.0115854043,-0.0115854043,-0.0115854043,-0.0115854043,-0.0115854043,-0.0115854043,-0.0115854043,-0.0115854043,-0.0115854043,-0.0115854043,-0.0115854043,-0.0115854043,-0.0115854043,-0.0115854043],
				"h": [0,-0.1075018678,-0.0115854043,-0.0115854043,-0.0115854043,-0.0115854043,-0.0115854043,-0.0115854043,-0.0115854043,-0.0115854043,-0.0115854043,-0.0115854043,-0.0115854043,-0.0115854043,-0.0115854043,-0.0115854043,-0.0115854043,-0.0115854043,-0.0115854043,-0.0115854043,-0.0115854043],
				"b": [0,1.278942157e-18,8.963600926e-19,7.983330437e-21,1.69752147e-20,2.129142672e-20,2.129142672e-20,2.129142672e-20,2.129142672e-20,2.129142672e-20,2.129142672e-20,2.129142672e-20,2.129142672e-20,2.129142672e-20,2.129142672e-20,2.129142672e-20,2.129142672e-20,2.129142672e-20,2.129142672e-20,2.129142672e-20,2.129142672e-20],
				"a1": [0,0,-3.022417228e-18,-2.919172488e-18,-2.799577369e-18,-2.662148841e-18,-2.526094598e-18,-2.391400897e-18,-2.258054134e-18,-2.126040838e-18,-1.995347675e-18,-1.865961444e-18,-1.737869075e-18,-1.61105763e-18,-1.485514299e-18,-1.361226401e-18,-1.238181383e-18,-1.116366815e-18,-9.957703918e-19,-8.763799334e-19,-7.581833796e-19],
				"a2": [0,0,9.388111721e-22,9.960224854e-22,1.05276203e-21,1.108875113e-21,1.164427066e-21,1.219423499e-21,1.273869968e-21,1.327771972e-21,1.381134956e-21,1.43396431e-21,1.486265371e-21,1.538043421e-21,1.58930369e-21,1.640051357e-21,1.690291548e-21,1.740029336e-21,1.789269746e-21,1.838017753e-21,1.886278279e-21],
				"a3": [0,0,3.382413573e-21,3.284121212e-21,3.196019615e-21,3.116515372e-21,3.044961554e-21,2.980563118e-21,2.922604525e-21,2.870441791e-21,2.823495331e-21,2.781243517e-21,2.743216884e-21,2.708992915e-21,2.678191342e-21,2.650469927e-21,2.625520653e-21,2.603066307e-21,2.582857395e-21,2.564669375e-21,2.548300156e-21],
				"CEFP": [0,-0.0007500297277,8.299254899e-19,8.252774796e-20,9.486340688e-20,1.131467695e-19,1.135129984e-19,1.138755231e-19,1.142343849e-19,1.145896241e-19,1.149412804e-19,1.152893926e-19,1.156339989e-19,1.15975137e-19,1.163128436e-19,1.166471551e-19,1.169781072e-19,1.173057353e-19,1.176300739e-19,1.179511572e-19,1.182690191e-19],
				"UEFP": [0,-0.002142942079,2.371312926e-18,2.366452576e-19,2.718066214e-19,3.237166966e-19,3.247630648e-19,3.257988497e-19,3.26824169e-19,3.278391382e-19,3.288438704e-19,3.298384767e-19,3.308230663e-19,3.317977464e-19,3.327626224e-19,3.337177981e-19,3.346633757e-19,3.355994558e-19,3.365261375e-19,3.374435186e-19,3.383516954e-19],
				"rT": [0,0.1030395042,-5.963817941e-17,-4.987781613e-17,-4.892334134e-17,-4.906584782e-17,-4.906785147e-17,-4.906983504e-17,-4.907179872e-17,-4.907374274e-17,-4.907566727e-17,-4.907757254e-17,-4.907945872e-17,-4.908132602e-17,-4.908317462e-17,-4.908500471e-17,-4.908681649e-17,-4.908861013e-17,-4.909038582e-17,-4.909214374e-17,-4.909388407e-17],
				"rIB": [0,0.1051824463,-6.258505253e-17,-5.515556189e-17,-5.374275223e-17,-5.199514713e-17,-5.199819715e-17,-5.20012165e-17,-5.20042055e-17,-5.200716449e-17,-5.201009376e-17,-5.201299363e-17,-5.20158644e-17,-5.201870638e-17,-5.202151985e-17,-5.202430512e-17,-5.202706248e-17,-5.20297922e-17,-5.203249457e-17,-5.203516988e-17,-5.203781838e-17],
				"rL": [0,0.1044324166,-6.175512704e-17,-5.507303414e-17,-5.364788883e-17,-5.188200036e-17,-5.188468415e-17,-5.188734097e-17,-5.188997112e-17,-5.189257486e-17,-5.189515248e-17,-5.189770423e-17,-5.19002304e-17,-5.190273124e-17,-5.190520701e-17,-5.190765797e-17,-5.191008437e-17,-5.191248647e-17,-5.19148645e-17,-5.191721872e-17,-5.191954936e-17],
				"rB": [0,0.104613212,-6.181023637e-17,-4.974019284e-17,-4.881700513e-17,-4.900265071e-17,-4.90054171e-17,-4.900815565e-17,-4.901086664e-17,-4.901355038e-17,-4.901620714e-17,-4.901883721e-17,-4.902144087e-17,-4.902401839e-17,-4.902657006e-17,-4.902909612e-17,-4.903159685e-17,-4.903407251e-17,-4.903652336e-17,-4.903894964e-17,-4.904135162e-17],
				"interest": [0,0.4207297852,-2.504841002e-16,-2.218825227e-16,-2.1610791e-16,-2.086319842e-16,-2.086441842e-16,-2.086562616e-16,-2.086682177e-16,-2.086800536e-16,-2.086917707e-16,-2.087033702e-16,-2.087148533e-16,-2.087262212e-16,-2.087374751e-16,-2.087486161e-16,-2.087596456e-16,-2.087705645e-16,-2.087813739e-16,-2.087920752e-16,-2.088026692e-16],
				"inflation": [0,-0.0115854043,-0.0115854043,-0.0115854043,-0.0115854043,-2.052947461e-16,-1.699751734e-16,-1.710788455e-16,-1.709335883e-16,-1.709380403e-16,-1.709424475e-16,-1.709468106e-16,-1.709511298e-16,-1.709554058e-16,-1.709596389e-16,-1.709638296e-16,-1.709679783e-16,-1.709720854e-16,-1.709761514e-16,-1.709801767e-16,-1.709841617e-16],
				"inflationq": [0,-0.04634161719,-2.851524839e-16,-1.792290238e-16,-1.795921567e-16,-1.801025343e-16,-1.801070538e-16,-1.80111528e-16,-1.801159572e-16,-1.80120342e-16,-1.801246828e-16,-1.801289801e-16,-1.801332343e-16,-1.801374459e-16,-1.801416153e-16,-1.801457429e-16,-1.801498291e-16,-1.801538744e-16,-1.801578792e-16,-1.801618439e-16,-1.80165769e-16],
				"output": [0,-0.09591646346,6.165152969e-17,4.396346105e-17,4.516225951e-17,4.698950087e-17,4.707377132e-17,4.715719938e-17,4.723979345e-17,4.732156185e-17,4.740251279e-17,4.748265444e-17,4.756199486e-17,4.764054205e-17,4.771830392e-17,4.779528832e-17,4.787150299e-17,4.794695563e-17,4.802165384e-17,4.809560517e-17,4.816881706e-17],
				"outputgap": [0,-0.9268323437,9.38444208e-16,4.628974336e-16,4.743220094e-16,4.912392563e-16,4.912374539e-16,4.912356699e-16,4.912339041e-16,4.912321562e-16,4.912304262e-16,4.912287137e-16,4.912270186e-16,4.912253406e-16,4.912236796e-16,4.912220354e-16,4.912204078e-16,4.912187966e-16,4.912172017e-16,4.912156228e-16,4.912140598e-16],
				"fispol": [0,0,0,0,0,0,0,0,0,0,0,0,0,0,0,0,0,0,0,0,0],
				"AUX_ENDO_LEAD_227": [0,-2.893068059e-16,-1.792571478e-16,-1.795927411e-16,-1.801031195e-16,-1.801076386e-16,-1.801121127e-16,-1.80116542e-16,-1.801209268e-16,-1.801252676e-16,-1.801295649e-16,-1.801338191e-16,-1.801380307e-16,-1.801422e-16,-1.801463276e-16,-1.801504139e-16,-1.801544592e-16,-1.80158464e-16,-1.801624287e-16,-1.801663537e-16,-1.801702394e-16],
				"AUX_ENDO_LEAD_231": [0,-1.792571478e-16,-1.79620576e-16,-1.801036975e-16,-1.801082174e-16,-1.801126911e-16,-1.801171203e-16,-1.801215051e-16,-1.80125846e-16,-1.801301432e-16,-1.801343975e-16,-1.80138609e-16,-1.801427784e-16,-1.80146906e-16,-1.801509922e-16,-1.801550375e-16,-1.801590424e-16,-1.801630071e-16,-1.801669321e-16,-1.801708178e-16,-1.801746646e-16],
				"AUX_ENDO_LEAD_235": [0,-1.79620576e-16,-1.80131247e-16,-1.801087891e-16,-1.801132636e-16,-1.801176924e-16,-1.801220772e-16,-1.80126418e-16,-1.801307153e-16,-1.801349695e-16,-1.801391811e-16,-1.801433505e-16,-1.801474781e-16,-1.801515643e-16,-1.801556096e-16,-1.801596144e-16,-1.801635791e-16,-1.801675041e-16,-1.801713899e-16,-1.801752367e-16,-1.80179045e-16],
				"AUX_ENDO_LEAD_262": [0,9.36328273e-16,4.628860843e-16,4.743217658e-16,4.912390123e-16,4.912372101e-16,4.912354261e-16,4.912336603e-16,4.912319124e-16,4.912301824e-16,4.912284699e-16,4.912267748e-16,4.912250968e-16,4.912234358e-16,4.912217916e-16,4.91220164e-16,4.912185528e-16,4.912169579e-16,4.91215379e-16,4.91213816e-16,4.912122687e-16],
				"AUX_ENDO_LEAD_266": [0,4.628860843e-16,4.743105471e-16,4.912387723e-16,4.912369697e-16,4.912351859e-16,4.912334201e-16,4.912316723e-16,4.912299422e-16,4.912282298e-16,4.912265346e-16,4.912248567e-16,4.912231957e-16,4.912215515e-16,4.912199239e-16,4.912183127e-16,4.912167177e-16,4.912151389e-16,4.912135759e-16,4.912120286e-16,4.912104969e-16],
				"AUX_ENDO_LEAD_270": [0,4.743105471e-16,4.912276813e-16,4.912367332e-16,4.912349491e-16,4.912331835e-16,4.912314356e-16,4.912297056e-16,4.912279931e-16,4.91226298e-16,4.9122462e-16,4.91222959e-16,4.912213148e-16,4.912196872e-16,4.91218076e-16,4.912164811e-16,4.912149022e-16,4.912133392e-16,4.912117919e-16,4.912102602e-16,4.912087439e-16],
				"AUX_ENDO_LEAD_297": [0,6.724196696e-17,4.44856215e-17,4.517299417e-17,4.70002517e-17,4.708451262e-17,4.716794068e-17,4.725053476e-17,4.733230315e-17,4.74132541e-17,4.749339574e-17,4.757273617e-17,4.765128336e-17,4.772904523e-17,4.780602962e-17,4.78822443e-17,4.795769693e-17,4.803239515e-17,4.810634647e-17,4.817955837e-17,4.825203821e-17],
				"AUX_ENDO_LEAD_301": [0,4.44856215e-17,4.568994676e-17,4.701087998e-17,4.709515692e-17,4.717857555e-17,4.726116963e-17,4.734293802e-17,4.742388897e-17,4.750403061e-17,4.758337104e-17,4.766191823e-17,4.77396801e-17,4.781666449e-17,4.789287916e-17,4.79683318e-17,4.804303002e-17,4.811698134e-17,4.819019323e-17,4.826267308e-17,4.83344282e-17],
				"AUX_ENDO_LEAD_305": [0,4.568994676e-17,4.752267541e-17,4.710567979e-17,4.718911428e-17,4.727169902e-17,4.735346742e-17,4.743441836e-17,4.751456001e-17,4.759390043e-17,4.767244762e-17,4.77502095e-17,4.782719389e-17,4.790340856e-17,4.79788612e-17,4.805355942e-17,4.812751074e-17,4.820072263e-17,4.827320248e-17,4.83449576e-17,4.841599522e-17],
				"AUX_ENDO_LAG_0_1": [0,0,-0.0115854043,-7.984928466e-17,-4.034731116e-17,-4.159734787e-17,-4.14487349e-17,-4.144986478e-17,-4.145098332e-17,-4.145209063e-17,-4.145318683e-17,-4.145427204e-17,-4.145534636e-17,-4.145640992e-17,-4.145746281e-17,-4.145850515e-17,-4.145953705e-17,-4.146055861e-17,-4.146156994e-17,-4.146257114e-17,-4.146356232e-17],
				"AUX_ENDO_LAG_0_2": [0,0,-1.184147577e-16,-0.0115854043,-8.077033096e-17,-4.43482046e-17,-4.55982413e-17,-4.544962833e-17,-4.545075822e-17,-4.545187676e-17,-4.545298407e-17,-4.545408027e-17,-4.545516548e-17,-4.54562398e-17,-4.545730335e-17,-4.545835625e-17,-4.545939859e-17,-4.546043049e-17,-4.546145205e-17,-4.546246338e-17,-4.546346458e-17],
				"AUX_ENDO_LAG_25_1": [0,0,-0.09591646346,6.165152969e-17,4.396346105e-17,4.516225951e-17,4.698950087e-17,4.707377132e-17,4.715719938e-17,4.723979345e-17,4.732156185e-17,4.740251279e-17,4.748265444e-17,4.756199486e-17,4.764054205e-17,4.771830392e-17,4.779528832e-17,4.787150299e-17,4.794695563e-17,4.802165384e-17,4.809560517e-17],
				"AUX_ENDO_LAG_25_2": [0,0,0,-0.09591646346,6.165152969e-17,4.396346105e-17,4.516225951e-17,4.698950087e-17,4.707377132e-17,4.715719938e-17,4.723979345e-17,4.732156185e-17,4.740251279e-17,4.748265444e-17,4.756199486e-17,4.764054205e-17,4.771830392e-17,4.779528832e-17,4.787150299e-17,4.794695563e-17,4.802165384e-17],
				"AUX_ENDO_LAG_25_3": [0,0,0,0,-0.09591646346,6.165152969e-17,4.396346105e-17,4.516225951e-17,4.698950087e-17,4.707377132e-17,4.715719938e-17,4.723979345e-17,4.732156185e-17,4.740251279e-17,4.748265444e-17,4.756199486e-17,4.764054205e-17,4.771830392e-17,4.779528832e-17,4.787150299e-17,4.794695563e-17],
				"AUX_ENDO_LAG_26_1": [0,0,-0.9268323437,9.38444208e-16,4.628974336e-16,4.743220094e-16,4.912392563e-16,4.912374539e-16,4.912356699e-16,4.912339041e-16,4.912321562e-16,4.912304262e-16,4.912287137e-16,4.912270186e-16,4.912253406e-16,4.912236796e-16,4.912220354e-16,4.912204078e-16,4.912187966e-16,4.912172017e-16,4.912156228e-16],
				"AUX_ENDO_LAG_26_2": [0,0,0,-0.9268323437,9.38444208e-16,4.628974336e-16,4.743220094e-16,4.912392563e-16,4.912374539e-16,4.912356699e-16,4.912339041e-16,4.912321562e-16,4.912304262e-16,4.912287137e-16,4.912270186e-16,4.912253406e-16,4.912236796e-16,4.912220354e-16,4.912204078e-16,4.912187966e-16,4.912172017e-16],
				"AUX_ENDO_LAG_26_3": [0,0,0,0,-0.9268323437,9.38444208e-16,4.628974336e-16,4.743220094e-16,4.912392563e-16,4.912374539e-16,4.912356699e-16,4.912339041e-16,4.912321562e-16,4.912304262e-16,4.912287137e-16,4.912270186e-16,4.912253406e-16,4.912236796e-16,4.912220354e-16,4.912204078e-16,4.912187966e-16],
				"AUX_ENDO_LAG_22_1": [0,0,0.4207297852,-2.504841776e-16,-2.218825227e-16,-2.1610791e-16,-2.086319842e-16,-2.086441842e-16,-2.086562616e-16,-2.086682177e-16,-2.086800536e-16,-2.086917707e-16,-2.087033702e-16,-2.087148533e-16,-2.087262212e-16,-2.087374751e-16,-2.087486161e-16,-2.087596456e-16,-2.087705645e-16,-2.087813739e-16,-2.087920752e-16],
				"AUX_ENDO_LAG_22_2": [0,0,0,0.4207297852,-2.504841776e-16,-2.218825227e-16,-2.1610791e-16,-2.086319842e-16,-2.086441842e-16,-2.086562616e-16,-2.086682177e-16,-2.086800536e-16,-2.086917707e-16,-2.087033702e-16,-2.087148533e-16,-2.087262212e-16,-2.087374751e-16,-2.087486161e-16,-2.087596456e-16,-2.087705645e-16,-2.087813739e-16],
				"AUX_ENDO_LAG_22_3": [0,0,0,0,0.4207297852,-2.504841776e-16,-2.218825227e-16,-2.1610791e-16,-2.086319842e-16,-2.086441842e-16,-2.086562616e-16,-2.086682177e-16,-2.086800536e-16,-2.086917707e-16,-2.087033702e-16,-2.087148533e-16,-2.087262212e-16,-2.087374751e-16,-2.087486161e-16,-2.087596456e-16,-2.087705645e-16],
				"AUX_ENDO_LAG_24_1": [0,0,-0.04634161719,-2.851524839e-16,-1.792290238e-16,-1.795921567e-16,-1.801025343e-16,-1.801070538e-16,-1.80111528e-16,-1.801159572e-16,-1.80120342e-16,-1.801246828e-16,-1.801289801e-16,-1.801332343e-16,-1.801374459e-16,-1.801416153e-16,-1.801457429e-16,-1.801498291e-16,-1.801538744e-16,-1.801578792e-16,-1.801618439e-16],
				"AUX_ENDO_LAG_24_2": [0,0,0,-0.04634161719,-2.851524839e-16,-1.792290238e-16,-1.795921567e-16,-1.801025343e-16,-1.801070538e-16,-1.80111528e-16,-1.801159572e-16,-1.80120342e-16,-1.801246828e-16,-1.801289801e-16,-1.801332343e-16,-1.801374459e-16,-1.801416153e-16,-1.801457429e-16,-1.801498291e-16,-1.801538744e-16,-1.801578792e-16],
				"AUX_ENDO_LAG_24_3": [0,0,0,0,-0.04634161719,-2.851524839e-16,-1.792290238e-16,-1.795921567e-16,-1.801025343e-16,-1.801070538e-16,-1.80111528e-16,-1.801159572e-16,-1.80120342e-16,-1.801246828e-16,-1.801289801e-16,-1.801332343e-16,-1.801374459e-16,-1.801416153e-16,-1.801457429e-16,-1.801498291e-16,-1.801538744e-16]
			}
		}
	}
}
