{
	"model": "US_YR13AL",
	"rule": "Taylor",
	"data": {
		"AC": {
			"ewma": [1,0.006684776665,-0.0352092107,0.01089619213,-0.003465385596,-0.0007060238414,-0.008240180555,-0.001021340944,-0.0170626361,0.01821522241,-0.0100217782,-0.0004284345797,-0.0159229738,0.006422567576,-0.02541950145,0.01480696883,-0.005044347679,-0.008589910861,-0.002193398772,0.005351495528,-0.01536402087],
			"epinfma": [1,-0.01320464251,-0.01367535394,-0.02264649849,-0.01396699237,-0.01558085333,-0.001027521311,0.01475912153,-0.005360638543,0.01239564125,0.005887489041,-0.00446504235,-0.01436951242,-0.01320717848,-0.01087671969,-0.009006486269,0.002737252786,0.02020464739,0.002628200458,0.01501915833,-0.003737549577],
			"mc": [1,0.762826284,0.6877252355,0.560146188,0.5119088459,0.4281086777,0.4016579389,0.3498059343,0.3421773419,0.3139182602,0.3043970971,0.2780468469,0.2739287287,0.2533940916,0.2535182728,0.2463323743,0.2601826112,0.2490314254,0.2591608628,0.2443202584,0.2410296352],
			"zcap": [1,0.9547313496,0.9418733035,0.907800617,0.8943716285,0.8584745384,0.8437216269,0.8111074263,0.7963809176,0.7632005426,0.7485927809,0.7177014471,0.703794875,0.6722480495,0.6567544756,0.6277112972,0.6126880203,0.5830313176,0.5697168438,0.5439424654,0.5314847825],
			"rk": [1,0.9547313496,0.9418733035,0.907800617,0.8943716285,0.8584745384,0.8437216269,0.8111074263,0.7963809176,0.7632005426,0.7485927809,0.7177014471,0.703794875,0.6722480495,0.6567544756,0.6277112972,0.6126880203,0.5830313176,0.5697168438,0.5439424654,0.5314847825],
			"k": [1,0.8907035595,0.8670063872,0.7959704581,0.7709990377,0.7105237955,0.6969802277,0.6572512733,0.6457118589,0.6078888755,0.5990317357,0.5643630759,0.5573275977,0.5247514521,0.5124244953,0.4844572301,0.475852541,0.4456477513,0.4415245629,0.4169740102,0.4110529662],
			"pk": [1,0.5372526805,0.3671375878,0.2455784697,0.2058917305,0.1522081564,0.149514979,0.1228058353,0.1260135562,0.1161904214,0.1177532992,0.1013824459,0.1012757364,0.06895195116,0.08243336751,0.06560700344,0.06139762695,0.04289134831,0.05042918038,0.04637064034,0.06651922218],
			"c": [1,0.8764974824,0.8779593608,0.8083865162,0.8000926029,0.7524655796,0.7410512841,0.7071200206,0.7012316282,0.6801428462,0.6727634829,0.6482162372,0.6364925701,0.6149148033,0.6034386108,0.5897143781,0.577762233,0.5585116632,0.5493215319,0.5406401114,0.531867254],
			"inve": [1,0.926043355,0.8783582558,0.8219555704,0.7774678837,0.733514034,0.7005769596,0.6645306107,0.6400760396,0.6138150575,0.5824235486,0.5549131017,0.5243457175,0.4933701663,0.4680573587,0.4446010167,0.424974879,0.4063676467,0.390597927,0.3723726866,0.3571403092],
			"y": [1,0.9134588982,0.8594995383,0.7906731878,0.737064686,0.6764350946,0.6416687633,0.5983317975,0.5743999729,0.5370088115,0.5160477411,0.4838881769,0.4631766319,0.4296478606,0.4108680329,0.381003218,0.3646311655,0.3439202573,0.3359582922,0.3138585203,0.3038519401],
			"lab": [1,0.8758999312,0.782982434,0.6926664908,0.6149991659,0.5469544771,0.4959153654,0.4495322682,0.4150873332,0.3834004258,0.3601085134,0.3386030604,0.3248752739,0.3038548151,0.2852203338,0.273497784,0.2593585337,0.2468830278,0.2327186854,0.2195423362,0.208106274],
			"pinf": [1,0.5255266066,0.5924679468,0.4335591783,0.4762451454,0.3808195465,0.4210608013,0.3603533938,0.3822264687,0.339958761,0.3639033471,0.3112261196,0.3361456004,0.2810910057,0.2974001348,0.2664258008,0.2795085102,0.2529038543,0.2599897757,0.2479166413,0.2496958267],
			"w": [1,0.904782019,0.8903283593,0.8246427747,0.8112243324,0.7543454845,0.7428097784,0.7032891301,0.7000886206,0.6649548791,0.6573542944,0.6218615806,0.6153013182,0.5843184426,0.5798502254,0.5548853453,0.5511221582,0.5246397485,0.5238860547,0.4995877544,0.4957275091],
			"r": [1,0.864574631,0.8104529967,0.7003878302,0.6357190459,0.553089219,0.5152508117,0.4637086239,0.43844923,0.4013444048,0.3826741842,0.3441880939,0.3316156446,0.2947240709,0.2807251521,0.2550012927,0.2424069708,0.2140474583,0.2080374272,0.1908078613,0.1821950987],
			"a": [1,0.9381246575,0.8939233085,0.853596678,0.8188554529,0.781948974,0.7457728013,0.7143970451,0.6882155484,0.6635549772,0.6411501115,0.6177164408,0.5975010726,0.5785047414,0.5607619723,0.5425536512,0.5280810363,0.5164540833,0.5061221792,0.4923364678,0.4812318269],
			"b": [1,0.3634904794,0.1450186789,0.06096424751,0.02463148533,0.007973072414,-0.01472043892,-0.01123924739,-0.02678812468,-0.02330823586,-0.007196880682,-0.005203131105,-0.0111176321,-0.02143499145,0.002972422794,-0.002601776704,-0.01073335325,-0.03316385733,-0.04262457545,-0.03825447525,-0.02647771267],
			"g": [1,0.8643060064,0.7754667937,0.6931054925,0.6203765845,0.551017609,0.493412249,0.4380437111,0.3918536872,0.3466833532,0.3078521971,0.2672414312,0.2335529738,0.2047479836,0.1735365555,0.1461924418,0.1287827692,0.1104242946,0.09713775914,0.08447244689,0.07802222569],
			"qs": [1,0.3621430664,0.1265208259,0.0315779944,0.003870486385,6.941111011e-05,0.004137886418,-0.001133808801,0.0005197865742,-0.009393244081,-0.02529250548,-0.003821276644,-0.008085709726,-0.004591470729,0.005865830549,-0.01897120519,-0.01879173036,-0.008813496692,-0.01624350737,-0.0223622329,-0.01728561482],
			"spinf": [1,-0.1502405439,-0.04989211762,-0.02958862822,-0.0106138686,-0.01203310989,0.0006631968649,0.0166340092,-0.008313462817,0.01322495554,0.007709701974,-0.001598770318,-0.0090284152,-0.006240352955,-0.004985218107,-0.006391758393,0.003162429451,0.02098124548,-0.000727291368,0.01544810083,-0.004846739344],
			"sw": [1,0.1133156019,0.02757157627,0.03993264076,0.01403202717,0.008392026311,-0.003575927807,-0.0005053330943,-0.01509308547,0.0150585712,-0.009941139616,-0.002753054051,-0.01715743725,0.001727947618,-0.02415763459,0.01073309055,-0.00572414961,-0.009755300935,-0.004581710605,0.002712894563,-0.01812357736],
			"kp": [1,0.9825738246,0.9644090623,0.9455282406,0.9261051721,0.9065176477,0.8868627853,0.8669443794,0.8470728978,0.8265382615,0.8055113357,0.7829044747,0.7603038529,0.7377874015,0.7152211159,0.6926864764,0.6715595342,0.6496525027,0.6283355693,0.6066950187,0.585610773],
			"rr": [1,-0.1302001104,-0.09006405871,-0.04585630854,0.006543884029,0.007564778997,0.009038316011,0.01874298962,0.02103078641,0.0170505539,0.04376467462,0.01631181876,0.03319769449,-0.001352673867,0.0453714929,0.009030675806,0.02523625883,-0.0008125883983,0.01794580149,0.006962716455,0.03300349091],
			"er": [1,0.4055797318,0.2259209042,0.1091732154,0.08941405344,0.05628833812,0.04432295771,0.02628224953,0.01804495779,0.00731160975,0.02962819211,0.01989796193,0.01694926198,0.0004221513813,0.01911520164,0.01055041171,0.003039384557,-0.01536203006,-0.02311817352,-0.01738400164,-0.01001794623],
			"ec": [1,0.4055797318,0.2259209042,0.1091732154,0.08941405344,0.05628833812,0.04432295771,0.02628224953,0.01804495779,0.00731160975,0.02962819211,0.01989796193,0.01694926198,0.0004221513813,0.01911520164,0.01055041171,0.003039384557,-0.01536203006,-0.02311817352,-0.01738400164,-0.01001794623],
			"nw": [1,0.8029635529,0.7133989172,0.6314000642,0.5793013456,0.5146924188,0.4806863699,0.4335604719,0.4083785585,0.3732083623,0.3456485858,0.3145733289,0.293465875,0.2524920536,0.2397968377,0.2121056472,0.1913369835,0.1698343648,0.1614966479,0.1469226428,0.1503842479],
			"prem": [1,0.859491403,0.7832979556,0.70935742,0.6533064652,0.5901522341,0.5490973588,0.500678186,0.4670487361,0.4296633539,0.3962044707,0.3635858202,0.3363912493,0.2970771212,0.2770187354,0.2493160083,0.2249410488,0.2045086675,0.1921850098,0.1774517678,0.1742683594],
			"pinf4": [1,0.8463268019,0.7847987028,0.6687180277,0.6055027703,0.5324321367,0.5077342604,0.4694421627,0.4581677154,0.4315428948,0.4227616298,0.3896533269,0.3837295851,0.3481593341,0.3380129753,0.3158834134,0.3066870256,0.2849686645,0.2816755142,0.2689124399,0.2622737818],
			"eg": [1,-0.005929169763,0.01267623815,0.00800388172,0.02230523067,-0.01557516439,0.01019338099,0.002742009748,0.004451166998,0.002733418758,-0.002433565801,-0.003684725007,-0.001505731595,0.00106092867,-0.01191334137,-0.004226830182,-0.01522978343,-0.0002983208595,-0.01677478827,0.0006475727686,0.002419538827],
			"interest": [1,0.864574631,0.8104529967,0.7003878302,0.6357190459,0.553089219,0.5152508117,0.4637086239,0.43844923,0.4013444048,0.3826741842,0.3441880939,0.3316156446,0.2947240709,0.2807251521,0.2550012927,0.2424069708,0.2140474583,0.2080374272,0.1908078613,0.1821950987],
			"inflation": [1,0.8463268019,0.7847987028,0.6687180277,0.6055027703,0.5324321367,0.5077342604,0.4694421627,0.4581677154,0.4315428948,0.4227616298,0.3896533269,0.3837295851,0.3481593341,0.3380129753,0.3158834134,0.3066870256,0.2849686645,0.2816755142,0.2689124399,0.2622737818],
			"inflationq": [1,0.5255266066,0.5924679468,0.4335591783,0.4762451454,0.3808195465,0.4210608013,0.3603533938,0.3822264687,0.339958761,0.3639033471,0.3112261196,0.3361456004,0.2810910057,0.2974001348,0.2664258008,0.2795085102,0.2529038543,0.2599897757,0.2479166413,0.2496958267],
			"inflationql": [1,0.7843134122,0.6426312427,0.5670150284,0.5017944926,0.4625458664,0.4387316447,0.4173734398,0.396795206,0.3895831781,0.3715247792,0.350174671,0.3348923083,0.3072979982,0.2932534008,0.2828596889,0.2652666659,0.251791914,0.2456481862,0.2385999767,0.2307778447],
			"inflationql2": [1,0.8172405183,0.6788056909,0.5679754408,0.504765379,0.4623897828,0.4307482939,0.4098065245,0.3911917355,0.3812070741,0.3620827114,0.3399284783,0.3208850216,0.295389455,0.2809850574,0.2685095421,0.255056107,0.2433392454,0.2269584452,0.2191861132,0.2072320678],
			"inflationqls": [1,0.875434687,0.7196533582,0.6176567121,0.5463189231,0.5001555972,0.4689900068,0.4448203245,0.4258071225,0.4133503416,0.395321157,0.372299974,0.3521519176,0.3272266842,0.3086527477,0.2968925848,0.2807733989,0.2653923258,0.2558903748,0.2465784928,0.2366273603],
			"outputgap": [1,0.8523253561,0.7558483429,0.6499212249,0.5663979624,0.4847901547,0.4327804661,0.3781593903,0.3430553093,0.3043014891,0.2837107746,0.2576369495,0.2456151541,0.2189725873,0.2003139399,0.1836524176,0.1711774478,0.1547739521,0.1442567484,0.1284161821,0.1197186179],
			"output": [1,0.9134588982,0.8594995383,0.7906731878,0.737064686,0.6764350946,0.6416687633,0.5983317975,0.5743999729,0.5370088115,0.5160477411,0.4838881769,0.4631766319,0.4296478606,0.4108680329,0.381003218,0.3646311655,0.3439202573,0.3359582922,0.3138585203,0.3038519401],
			"fispol": [1,-0.005929169763,0.01267623815,0.00800388172,0.02230523067,-0.01557516439,0.01019338099,0.002742009748,0.004451166998,0.002733418758,-0.002433565801,-0.003684725007,-0.001505731595,0.00106092867,-0.01191334137,-0.004226830182,-0.01522978343,-0.0002983208595,-0.01677478827,0.0006475727686,0.002419538827],
			"newv_long": [1,-0.007002054659,-0.03847279708,0.006806292723,-0.0133994305,-0.01081047583,0.003072162495,0.008069772927,-0.01817498222,0.02457006618,0.00442642426,0.007580793114,-0.01198105087,-0.01534277332,-0.01620020151,0.002849403231,0.003408172739,0.01620908025,0.004742681101,0.01129468272,-0.008614978876],
			"newv_short": [1,-0.007002054659,-0.03847279708,0.006806292723,-0.0133994305,-0.01081047583,0.003072162495,0.008069772927,-0.01817498222,0.02457006618,0.00442642426,0.007580793114,-0.01198105087,-0.01534277332,-0.01620020151,0.002849403231,0.003408172739,0.01620908025,0.004742681101,0.01129468272,-0.008614978876]
		},
		"VAR": {
			"ewma": 0.02880608561,
			"epinfma": 0.0192966894,
			"mc": 1.833642113,
			"zcap": 92.50198745,
			"rk": 2.2763599,
			"k": 6.74726579,
			"pk": 24.64444878,
			"c": 71.23761574,
			"inve": 456.4304908,
			"y": 7.646880365,
			"lab": 1.984140721,
			"pinf": 0.2923905154,
			"w": 5.85620052,
			"r": 0.3978244315,
			"a": 2.118341093,
			"b": 2.108855669,
			"g": 0.8819553172,
			"qs": 0.1059321846,
			"spinf": 0.02002547425,
			"sw": 0.0292438015,
			"kp": 126.6045729,
			"rr": 13.03278417,
			"er": 3.054557903,
			"ec": 3.054557903,
			"nw": 701.7541231,
			"prem": 0.2390015412,
			"pinf4": 2.420830198,
			"eg": 0.1174829194,
			"interest": 6.365190903,
			"inflation": 2.420830198,
			"inflationq": 4.678248246,
			"inflationql": 2.987658414,
			"inflationql2": 2.744715369,
			"inflationqls": 10.54260138,
			"outputgap": 4.295034234,
			"output": 7.646880365,
			"fispol": 0.1174829194,
			"newv_long": 0.04931938083,
			"newv_short": 0.04931938083
		},
		"IRF": {
			"interest_": {
				"ewma": [0,-4.783062958e-17,1.248897174e-17,6.384865493e-18,1.564562456e-17,1.866610782e-17,-1.33628665e-17,1.124534554e-17,-6.137575657e-18,1.945156211e-18,1.780712275e-19,-1.55377868e-17,3.403190856e-18,-1.412783344e-17,-5.080507884e-18,8.582626278e-18,8.096808004e-18,5.132421732e-18,1.662603507e-17,-4.934082117e-18,-5.562275841e-18],
				"epinfma": [0,4.783062958e-17,-1.248897174e-17,-6.384865493e-18,-1.564562456e-17,-1.942460713e-17,1.33628665e-17,-1.124534554e-17,6.137575657e-18,-2.127277455e-18,-1.780712275e-19,1.55377868e-17,-3.403190856e-18,1.412783344e-17,5.080507884e-18,-7.548582658e-18,-8.096808004e-18,-5.132421732e-18,-1.662603507e-17,4.934082117e-18,5.562275841e-18],
				"mc": [0,-0.002080876866,-0.001795019902,-0.001400633594,-0.001139011785,-0.001024148966,-0.001028429125,-0.001114170143,-0.001246761412,-0.001398822147,-0.001550622485,-0.001689100941,-0.001806490777,-0.001898976975,-0.001965540809,-0.002007031604,-0.00202545518,-0.002023449377,-0.002003912232,-0.001969749878,-0.001923715356],
				"zcap": [0,-0.01051225764,-0.01281739193,-0.01001474871,-0.006712755703,-0.003108869526,0.0006919134214,0.004634513919,0.008678043929,0.01278369492,0.01691242885,0.0210259137,0.02508811212,0.0290666056,0.03293342031,0.03666537902,0.04024408499,0.04365565265,0.04689028383,0.04994176595,0.05280694663],
				"rk": [0,-0.001649076973,-0.002010687582,-0.001571031842,-0.001053042195,-0.0004876940163,0.0001085417167,0.0007270246268,0.001361340533,0.00200540147,0.00265308347,0.003298373321,0.003935617773,0.004559731282,0.005166325537,0.005751764686,0.006313162801,0.006848341624,0.0073557641,0.007834455649,0.008283921753],
				"k": [0,-0.01051225764,-0.0152541687,-0.01575851866,-0.0163778908,-0.01711118781,-0.01790979355,-0.01870713493,-0.01944717688,-0.02009199066,-0.02062071599,-0.02102588486,-0.02130947437,-0.02147952441,-0.02154752155,-0.02152650561,-0.02142977506,-0.02127005622,-0.02105901494,-0.0208070116,-0.02052302185],
				"pk": [0,-0.3101028512,-0.04756897354,-0.03713886989,-0.02893609197,-0.02316695522,-0.01871581028,-0.01506742346,-0.0119996345,-0.009405607821,-0.007221379035,-0.005397806445,-0.00389080998,-0.002658767936,-0.001662425525,-0.0008654539673,-0.000234977668,0.0002581285499,0.0006391833414,0.0009298333122,0.001148316238],
				"c": [0,-0.03274947295,-0.01302901145,0.0006269446657,0.009705757561,0.0152232767,0.01811690073,0.01916145554,0.01895544697,0.01794239205,0.01644100542,0.01467418489,0.01279351548,0.01089875516,0.009052783616,0.007292791132,0.005638490652,0.004098039509,0.002672234577,0.001357427633,0.0001475066251],
				"inve": [0,-0.08358498873,-0.1158714546,-0.1402523001,-0.1584368293,-0.1717680424,-0.18118861,-0.1874251273,-0.1910730741,-0.1926333151,-0.1925295423,-0.1911186476,-0.1886986654,-0.1855159016,-0.1817716782,-0.1776287083,-0.1732170059,-0.1686392419,-0.1639754944,-0.1592873819,-0.1546216005],
				"y": [0,-0.01601381517,-0.02457538207,-0.0253046774,-0.02588134603,-0.02633062063,-0.02664530616,-0.02679323254,-0.02675055445,-0.02651018672,-0.02608006215,-0.02547861908,-0.02473031735,-0.02386206854,-0.02290070985,-0.02187138302,-0.02079661214,-0.01969588412,-0.01858556931,-0.01747905773,-0.0163870202],
				"lab": [0,-0.009972912279,-0.01552355126,-0.01597135684,-0.01627050935,-0.01644112168,-0.01648964511,-0.0164073663,-0.01618949272,-0.01583990021,-0.01537002157,-0.01479621428,-0.01413721788,-0.01341218959,-0.01263936973,-0.01183527866,-0.01101431418,-0.01018862854,-0.009368187641,-0.008560939248,-0.007773037951],
				"pinf": [0,-0.003118516801,-0.004470768198,-0.004972123053,-0.005135193896,-0.005168296972,-0.00515190315,-0.005114232656,-0.005063353404,-0.005000475044,-0.004925184858,-0.004837292068,-0.004737297032,-0.004626347031,-0.004506037961,-0.004378203859,-0.004244743427,-0.004107494337,-0.003968151368,-0.003828219822,-0.003688995194],
				"w": [0,-0.00218842233,-0.001741305019,-0.001358193661,-0.001160423647,-0.001157760153,-0.001311606724,-0.001572744009,-0.001896343636,-0.002246688983,-0.002597610953,-0.002931297254,-0.003236638722,-0.003507603537,-0.003741826281,-0.003939462257,-0.00410229808,-0.004233086056,-0.004335063194,-0.004411616706,-0.004466062145],
				"r": [0,0.2468288293,-0.005917904633,-0.007873612694,-0.009871393984,-0.01069622087,-0.01099098217,-0.01106276407,-0.01103048912,-0.01093750994,-0.010798725,-0.0106196919,-0.01040388304,-0.01015505394,-0.009877704016,-0.009576880083,-0.009257826121,-0.008925665359,-0.008585168535,-0.008240610574,-0.007895700295],
				"a": [0,0,5.125527362e-19,3.311778105e-19,6.830926045e-19,7.801626287e-19,4.55762063e-19,4.029166489e-19,-9.540952214e-20,-1.025476091e-19,1.712437862e-19,-1.880348803e-19,3.167174666e-18,3.087940353e-18,3.192071228e-18,3.087457393e-18,1.995052042e-18,1.913231685e-18,6.927874892e-19,6.469936418e-19,-7.128321812e-19],
				"b": [0,-4.642253683e-17,-5.111825684e-17,-3.307108475e-17,-2.286679539e-17,2.341627447e-17,1.159645553e-18,2.096287161e-17,3.185236274e-17,-2.69063004e-18,-1.6970857e-17,-4.918219708e-18,-9.516797688e-19,5.799307769e-18,4.008467315e-18,-7.343046396e-18,3.25086529e-18,9.553218988e-18,1.166537892e-17,-2.310622198e-18,1.635815146e-18],
				"g": [0,0,0,0,0,0,0,0,0,0,0,0,0,0,0,0,0,0,0,0,0],
				"qs": [0,0,0,0,0,0,0,0,0,0,0,0,0,0,0,0,0,0,0,0,0],
				"spinf": [0,4.783062958e-17,-2.116544794e-17,-6.901044291e-18,-1.465289688e-17,-1.626822235e-17,1.78984272e-17,-1.221526876e-17,7.866523951e-18,-2.686332856e-18,2.858374139e-20,1.563634251e-17,-6.190148423e-18,1.385167366e-17,2.429182075e-18,-9.320201843e-18,-7.29547622e-18,-3.40675379e-18,-1.514176463e-17,8.425901983e-18,5.786710794e-18],
				"sw": [0,-1.025958121e-16,3.155315793e-18,9.583628025e-18,4.346665525e-17,5.457863226e-17,3.216502106e-18,2.802564985e-17,-7.744774195e-20,1.316525302e-17,9.211065291e-18,-2.16613623e-17,-7.335463749e-18,-3.166127734e-17,-2.21861875e-17,5.316715188e-18,1.099345289e-17,1.164683181e-17,3.738477661e-17,2.670025304e-18,-5.746081968e-18],
				"kp": [0,-0.002436776769,-0.005743769951,-0.009665135096,-0.01400231829,-0.01860170698,-0.02334164885,-0.02812522081,-0.03287568558,-0.03753314484,-0.04205179856,-0.04639758649,-0.05054613001,-0.05448094186,-0.05819188462,-0.06167386005,-0.06492570887,-0.06794929877,-0.07074877755,-0.07332996848,-0.07569988637],
				"rr": [0,-0.3000573816,0.2640175825,0.01158844783,0.009110850226,0.006507736324,0.005064200997,0.00416276746,0.00350291823,0.002965651074,0.002505812183,0.002106782641,0.001761881146,0.001467128207,0.001218735575,0.001012475708,0.000843730768,0.0007077308728,0.0005997948854,0.0005155140486,0.000450869474],
				"er": [0,0.2642820829,0.01136964979,0.008895589364,0.006292137827,0.004848544204,0.003947193239,0.003287456927,0.002750290314,0.002290524458,0.001891535971,0.001546642848,0.001251865967,0.001003417526,0.0007970701884,0.0006282060227,0.0004920547818,0.0003839347502,0.0002994364312,0.000234540081,0.000185676279],
				"ec": [0,0.2642820829,0.01136964979,0.008895589364,0.006292137827,0.004848544204,0.003947193239,0.003287456927,0.002750290314,0.002290524458,0.001891535971,0.001546642848,0.001251865967,0.001003417526,0.0007970701884,0.0006282060227,0.0004920547818,0.0003839347502,0.0002994364312,0.000234540081,0.000185676279],
				"nw": [0,-0.986315179,-0.6883094686,-0.6437879942,-0.6037667254,-0.5681405098,-0.5355954072,-0.5054679993,-0.4774125136,-0.4512129452,-0.426706593,-0.4037543633,-0.3822301861,-0.3620178211,-0.343010205,-0.3251094294,-0.3082266732,-0.2922819113,-0.2772034079,-0.2629270603,-0.2493956611],
				"prem": [0,0.01311429138,0.01232208063,0.01164054493,0.01100151903,0.01039888862,0.009829705127,0.009292360785,0.008785524334,0.00830779233,0.00785763061,0.007433414238,0.007033489064,0.006656226716,0.006300065081,0.005963534156,0.005645269834,0.005344018677,0.005058636454,0.004788082676,0.004531412823],
				"pinf4": [0,-0.003118516801,-0.007589284999,-0.01256140805,-0.01769660195,-0.01974638212,-0.02042751707,-0.02056962667,-0.02049778618,-0.02032996425,-0.02010324596,-0.01982630537,-0.019500249,-0.01912612099,-0.01870697409,-0.01824788588,-0.01775533228,-0.01723647958,-0.01669859299,-0.01614860895,-0.01559286072],
				"eg": [0,0,0,0,0,0,0,0,0,0,0,0,0,0,0,0,0,0,0,0,0],
				"interest": [0,0.9873153172,-0.02367161853,-0.03149445078,-0.03948557594,-0.04278488349,-0.04396392869,-0.04425105628,-0.0441219565,-0.04375003974,-0.04319490002,-0.0424787676,-0.04161553218,-0.04062021575,-0.03951081607,-0.03830752033,-0.03703130449,-0.03570266144,-0.03434067414,-0.0329624423,-0.03158280118],
				"inflation": [0,-0.003118516801,-0.007589284999,-0.01256140805,-0.01769660195,-0.01974638212,-0.02042751707,-0.02056962667,-0.02049778618,-0.02032996425,-0.02010324596,-0.01982630537,-0.019500249,-0.01912612099,-0.01870697409,-0.01824788588,-0.01775533228,-0.01723647958,-0.01669859299,-0.01614860895,-0.01559286072],
				"inflationq": [0,-0.0124740672,-0.01788307279,-0.01988849221,-0.02054077559,-0.02067318789,-0.0206076126,-0.02045693062,-0.02025341362,-0.02000190017,-0.01970073943,-0.01934916827,-0.01894918813,-0.01850538812,-0.01802415184,-0.01751281544,-0.01697897371,-0.01642997735,-0.01587260547,-0.01531287929,-0.01475598078],
				"inflationql": [0,0,-0.0124740672,-0.01788307279,-0.01988849221,-0.02054077559,-0.02067318789,-0.0206076126,-0.02045693062,-0.02025341362,-0.02000190017,-0.01970073943,-0.01934916827,-0.01894918813,-0.01850538812,-0.01802415184,-0.01751281544,-0.01697897371,-0.01642997735,-0.01587260547,-0.01531287929],
				"inflationql2": [0,0,0,-0.0124740672,-0.01788307279,-0.01988849221,-0.02054077559,-0.02067318789,-0.0206076126,-0.02045693062,-0.02025341362,-0.02000190017,-0.01970073943,-0.01934916827,-0.01894918813,-0.01850538812,-0.01802415184,-0.01751281544,-0.01697897371,-0.01642997735,-0.01587260547],
				"inflationqls": [0,0,-0.0124740672,-0.03035713999,-0.037771565,-0.0404292678,-0.04121396347,-0.04128080049,-0.04106454322,-0.04071034424,-0.04025531379,-0.03970263961,-0.0390499077,-0.0382983564,-0.03745457625,-0.03652953997,-0.03553696728,-0.03449178914,-0.03340895105,-0.03230258282,-0.03118548476],
				"outputgap": [0,-0.01601381517,-0.02457538207,-0.0253046774,-0.02588134603,-0.02633062063,-0.02664530616,-0.02679323254,-0.02675055445,-0.02651018672,-0.02608006215,-0.02547861908,-0.02473031735,-0.02386206854,-0.02290070985,-0.02187138302,-0.02079661214,-0.01969588412,-0.01858556931,-0.01747905773,-0.0163870202],
				"output": [0,-0.01601381517,-0.02457538207,-0.0253046774,-0.02588134603,-0.02633062063,-0.02664530616,-0.02679323254,-0.02675055445,-0.02651018672,-0.02608006215,-0.02547861908,-0.02473031735,-0.02386206854,-0.02290070985,-0.02187138302,-0.02079661214,-0.01969588412,-0.01858556931,-0.01747905773,-0.0163870202],
				"fispol": [0,0,0,0,0,0,0,0,0,0,0,0,0,0,0,0,0,0,0,0,0],
				"newv_long": [0,0,0,0,0,-7.584993147e-19,0,0,0,-1.821212443e-19,0,0,0,0,0,1.034043621e-18,0,0,0,0,0],
				"newv_short": [0,0,0,0,0,-7.584993147e-19,0,0,0,-1.821212443e-19,0,0,0,0,0,1.034043621e-18,0,0,0,0,0]
			},
			"fiscal_": {
				"ewma": [0,-7.996155059e-17,1.755795575e-16,3.113388831e-17,-1.214070681e-16,-1.506695955e-17,1.350869614e-16,-1.710963144e-16,-2.408506341e-17,-1.251285127e-16,1.448935706e-17,-1.467084754e-16,-3.267617315e-17,-2.150171016e-17,5.229766908e-18,-3.475767138e-17,-5.304368728e-18,-2.688432343e-17,-3.555279034e-17,1.860760392e-17,3.886270777e-18],
				"epinfma": [0,7.996155059e-17,-1.755795575e-16,-3.113388831e-17,1.104435033e-16,8.111332045e-18,-1.350869614e-16,1.710963144e-16,1.376278047e-17,1.478341394e-16,-1.448935706e-17,1.467084754e-16,3.267617315e-17,1.977112388e-17,-5.229766908e-18,3.475767138e-17,4.550337301e-18,2.688432343e-17,3.555279034e-17,-1.860760392e-17,-1.577869057e-17],
				"mc": [0,0.07116716694,0.09458978625,0.1010710124,0.09732048292,0.08786186233,0.075656664,0.06260511118,0.04988256263,0.03816876532,0.02780861234,0.01892623586,0.01150589388,0.005448700591,0.0006116677994,-0.003166158682,-0.006046877193,-0.008183523686,-0.00971446378,-0.0107608933,-0.01142636242],
				"zcap": [0,0.6365800405,0.5832099771,0.5374867578,0.5035166926,0.4829130821,0.4753549357,0.4793798642,0.4930445524,0.5142982583,0.5411867904,0.57195706,0.6051019794,0.6393695886,0.6737513575,0.7074592315,0.7398975606,0.7706337874,0.7993702421,0.8259183644,0.8501759878],
				"rk": [0,0.09986146864,0.09148920973,0.08431652517,0.07898757926,0.07575545341,0.07456979325,0.0752011911,0.07734479558,0.08067890308,0.08489695601,0.08972394416,0.09492344794,0.1002990701,0.1056926007,0.1109804162,0.1160690759,0.1208907237,0.1253986636,0.1295633158,0.1333686533],
				"k": [0,0.6365800405,0.5600354202,0.4735973791,0.3861743855,0.3034467665,0.2284660394,0.1624764253,0.1056454156,0.05752250315,0.01732883703,-0.01585898521,-0.04299410223,-0.06499046634,-0.08268457658,-0.09681746623,-0.1080297343,-0.1168646148,-0.1237756428,-0.1291365939,-0.1332521794],
				"pk": [0,-1.031536121,-0.8937685286,-0.768542091,-0.6474680565,-0.5284621997,-0.4202986481,-0.3264938609,-0.2476028691,-0.1827619366,-0.1304774709,-0.0890407214,-0.05674770866,-0.03201289384,-0.01342258261,0.0002465985666,0.01002939655,0.01678482415,0.02121466239,0.0238840798,0.02524222812],
				"c": [0,0.2506915182,0.3591193799,0.3818002228,0.3525911277,0.296324343,0.2285936697,0.1588952852,0.09273721267,0.03302586055,-0.01900090659,-0.06314071743,-0.09979889953,-0.1297034897,-0.1537200051,-0.172735532,-0.1875903654,-0.1990416232,-0.2077477662,-0.2142662478,-0.2190589245],
				"inve": [0,-0.7949210205,-1.419752186,-1.897402596,-2.248286191,-2.492158936,-2.648489578,-2.735008448,-2.767118092,-2.757792761,-2.717713563,-2.655509003,-2.578032232,-2.490638482,-2.397443735,-2.301555692,-2.205273856,-2.110258925,-2.017673529,-1.928297306,-1.842619648],
				"y": [0,1.05685482,0.8847466926,0.7257406179,0.5843529781,0.462823292,0.3612145473,0.2781201818,0.2114548105,0.1589118533,0.1182191333,0.0872756555,0.06421669559,0.04743544222,0.03557885172,0.02752902205,0.02237736724,0.0193962223,0.01801072801,0.0177726455,0.01833694992],
				"lab": [0,0.6724210369,0.5561626041,0.4526699656,0.3632754302,0.2883250966,0.2271084692,0.1782097253,0.1399474803,0.110620352,0.08863578641,0.07257182705,0.06119969501,0.05348364,0.04856815006,0.0457588202,0.0445008092,0.044357278,0.04498919281,0.04613721212,0.04760594676],
				"pinf": [0,0.02408938072,0.03190275052,0.03087586494,0.02583255148,0.01926189097,0.01246828291,0.006124945694,0.0005542406476,-0.00412198568,-0.007896967254,-0.01082804646,-0.01300529237,-0.01453198257,-0.01551262392,-0.01604590284,-0.0162208891,-0.01611536951,-0.01579554071,-0.0153165294,-0.01472337566],
				"w": [0,0.06402047226,0.09536202577,0.1052439387,0.1018865346,0.09087712331,0.07592736351,0.05946789117,0.04304273094,0.02758105427,0.01359000663,0.001293131892,-0.009270349289,-0.01817503621,-0.02556012589,-0.0315958702,-0.03646146756,-0.04033116912,-0.043366172,-0.04571049022,-0.04748947277],
				"r": [0,0.1411403703,0.1315903858,0.1232930758,0.1153068276,0.09830530822,0.07831628978,0.05864789937,0.0408353614,0.02549853801,0.01277497919,0.002549672405,-0.005417522465,-0.01141892797,-0.01575687303,-0.01871979788,-0.0205696035,-0.02153601673,-0.02181529731,-0.02157154259,-0.02093943699],
				"a": [0,0,-7.467179467e-17,-1.38025818e-16,-1.375447941e-16,-1.416118166e-16,-1.467754447e-16,-1.440260882e-16,-1.443250136e-16,-1.418426233e-16,-1.386914331e-16,-1.709282152e-16,-1.20448859e-16,-7.180853562e-17,-6.788887919e-17,-8.937617665e-17,-8.79630068e-17,-1.022388099e-16,-1.203431905e-16,-1.183421745e-16,-1.300069065e-16],
				"b": [0,-1.9587108e-16,-8.666080678e-17,7.463049174e-18,2.01815226e-16,1.289118155e-16,1.632186827e-16,-1.450081306e-17,-7.239734865e-17,-1.297347269e-16,-6.960054116e-17,-6.873111936e-17,3.655013457e-17,3.101539318e-17,7.048839728e-17,5.76106895e-17,4.451802753e-17,-8.423760063e-17,-8.294991218e-17,6.552715025e-18,-4.333041612e-17],
				"g": [0,1,0.9249,0.85544001,0.7911964652,0.7317776107,0.6768211121,0.6259918466,0.5789798589,0.5354984715,0.4952825363,0.4580868178,0.4236844978,0.391865792,0.3624366711,0.3352176771,0.3100428295,0.286758613,0.2652230412,0.2453047908,0.226882401],
				"qs": [0,0,0,0,0,0,0,0,0,0,0,0,0,0,0,0,0,0,0,0,0],
				"spinf": [0,7.996155059e-17,-1.900845828e-16,-3.934067678e-18,1.248114531e-16,-7.316754733e-18,-1.415046016e-16,1.935435937e-16,-1.007749321e-17,1.376943793e-16,-4.455727704e-17,1.396970696e-16,3.81539902e-18,4.590901883e-18,-1.368302795e-17,3.299623561e-17,-2.319420596e-18,2.385644786e-17,2.970523717e-17,-2.693160563e-17,-1.507194617e-17],
				"sw": [0,-2.558529371e-16,2.068414237e-16,5.187516063e-17,-1.642222786e-16,-6.609908132e-17,2.898882303e-16,-2.560224387e-16,-1.277219462e-16,-3.252569284e-16,-9.656417997e-17,-3.61393064e-16,-2.290730094e-16,-9.812708874e-17,-4.960053739e-17,-9.031213324e-17,-6.926580766e-17,-8.795279459e-17,-7.503636324e-17,5.072333062e-18,-5.784646572e-18],
				"kp": [0,-0.02317455688,-0.06388937871,-0.1173423071,-0.1794663156,-0.2468888963,-0.3169034389,-0.3873991367,-0.4567757551,-0.5238579534,-0.5878160452,-0.6480960816,-0.7043600549,-0.7564359341,-0.8042766977,-0.8479272948,-0.8874984023,-0.9231458849,-0.9550549583,-0.9834281672,-1.008476419],
				"rr": [0,-0.9946896925,0.1698546588,0.1530016376,0.1447326459,0.1386835217,0.1242800212,0.1068868623,0.08947362087,0.07342045768,0.05929860344,0.04725861053,0.03723251459,0.02904384236,0.02246955683,0.01727546934,0.0132362113,0.01014586315,0.007822817355,0.006111092107,0.004879521059],
				"er": [0,0.1667790323,0.1520995756,0.1439142169,0.1379007014,0.1235145287,0.1061350469,0.08873480448,0.0726941579,0.05858430722,0.04655586393,0.0365409657,0.02836322786,0.02179966885,0.01661612684,0.0125872451,0.009507113902,0.007194142258,0.005492375501,0.004270685135,0.003420765528],
				"ec": [0,0.1667790323,0.1520995756,0.1439142169,0.1379007014,0.1235145287,0.1061350469,0.08873480448,0.0726941579,0.05858430722,0.04655586393,0.0365409657,0.02836322786,0.02179966885,0.01661612684,0.0125872451,0.009507113902,0.007194142258,0.005492375501,0.004270685135,0.003420765528],
				"nw": [0,-3.269633084,-2.944084489,-2.655253988,-2.388329641,-2.140036262,-1.917392656,-1.722007825,-1.552593319,-1.406608842,-1.281091869,-1.173078612,-1.079812224,-0.9988361677,-0.9280240793,-0.8655745022,-0.8099868871,-0.7600286542,-0.7146992222,-0.6731945205,-0.6348739725],
				"prem": [0,0.05663113696,0.0514239222,0.04649809273,0.04190260861,0.03772591032,0.03399353293,0.03069241067,0.02778952655,0.02524297734,0.02300848173,0.02104312443,0.01930738714,0.01776610631,0.01638876333,0.0151493716,0.01402613502,0.01300099261,0.01205912336,0.01118845753,0.01037922122],
				"pinf4": [0,0.02408938072,0.05599213124,0.08686799618,0.1127005477,0.1078730579,0.08843859029,0.06368767104,0.03840936022,0.01502548357,-0.005339766593,-0.02229275875,-0.03585229177,-0.04626228866,-0.05387794532,-0.05909580169,-0.06231139842,-0.06389478537,-0.06417770217,-0.06344832873,-0.06195081529],
				"eg": [0,1,0,0,0,0,0,0,0,0,0,0,0,0,0,0,0,0,0,0,0],
				"interest": [0,0.5645614811,0.5263615432,0.4931723032,0.4612273105,0.3932212329,0.3132651591,0.2345915975,0.1633414456,0.101994152,0.05109991675,0.01019868962,-0.02167008986,-0.04567571187,-0.06302749211,-0.07487919151,-0.08227841401,-0.08614406691,-0.08726118925,-0.08628617034,-0.08375774797],
				"inflation": [0,0.02408938072,0.05599213124,0.08686799618,0.1127005477,0.1078730579,0.08843859029,0.06368767104,0.03840936022,0.01502548357,-0.005339766593,-0.02229275875,-0.03585229177,-0.04626228866,-0.05387794532,-0.05909580169,-0.06231139842,-0.06389478537,-0.06417770217,-0.06344832873,-0.06195081529],
				"inflationq": [0,0.09635752288,0.1276110021,0.1235034598,0.1033302059,0.07704756387,0.04987313163,0.02449978278,0.00221696259,-0.01648794272,-0.03158786902,-0.04331218586,-0.05202116948,-0.05812793026,-0.06205049567,-0.06418361135,-0.06488355641,-0.06446147806,-0.06318216285,-0.06126611759,-0.05889350266],
				"inflationql": [0,0,0.09635752288,0.1276110021,0.1235034598,0.1033302059,0.07704756387,0.04987313163,0.02449978278,0.00221696259,-0.01648794272,-0.03158786902,-0.04331218586,-0.05202116948,-0.05812793026,-0.06205049567,-0.06418361135,-0.06488355641,-0.06446147806,-0.06318216285,-0.06126611759],
				"inflationql2": [0,0,0,0.09635752288,0.1276110021,0.1235034598,0.1033302059,0.07704756387,0.04987313163,0.02449978278,0.00221696259,-0.01648794272,-0.03158786902,-0.04331218586,-0.05202116948,-0.05812793026,-0.06205049567,-0.06418361135,-0.06488355641,-0.06446147806,-0.06318216285],
				"inflationqls": [0,0,0.09635752288,0.223968525,0.2511144618,0.2268336657,0.1803777698,0.1269206955,0.0743729144,0.02671674537,-0.01427098013,-0.04807581174,-0.07490005488,-0.09533335534,-0.1101490997,-0.1201784259,-0.126234107,-0.1290671678,-0.1293450345,-0.1276436409,-0.1244482804],
				"outputgap": [0,1.05685482,0.8847466926,0.7257406179,0.5843529781,0.462823292,0.3612145473,0.2781201818,0.2114548105,0.1589118533,0.1182191333,0.0872756555,0.06421669559,0.04743544222,0.03557885172,0.02752902205,0.02237736724,0.0193962223,0.01801072801,0.0177726455,0.01833694992],
				"output": [0,1.05685482,0.8847466926,0.7257406179,0.5843529781,0.462823292,0.3612145473,0.2781201818,0.2114548105,0.1589118533,0.1182191333,0.0872756555,0.06421669559,0.04743544222,0.03557885172,0.02752902205,0.02237736724,0.0193962223,0.01801072801,0.0177726455,0.01833694992],
				"fispol": [0,1,0,0,0,0,0,0,0,0,0,0,0,0,0,0,0,0,0,0,0],
				"newv_long": [0,0,0,0,-1.096356487e-17,-6.955627504e-18,0,0,-1.032228294e-17,2.270562667e-17,0,0,0,-1.73058628e-18,0,0,-7.540314269e-19,0,0,0,-1.189241979e-17],
				"newv_short": [0,0,0,0,-1.096356487e-17,-6.955627504e-18,0,0,-1.032228294e-17,2.270562667e-17,0,0,0,-1.73058628e-18,0,0,-7.540314269e-19,0,0,0,-1.189241979e-17]
			}
		}
	}
}
