{
	"model": "US_YR13",
	"rule": "CEE",
	"data": {
		"AC": {
			"ewma": [1,-1.900969601e-17,-2.587014397e-18,-1.289535369e-18,-3.707110325e-19,2.547969746e-19,6.426701978e-19,8.360082306e-19,8.730375895e-19,7.89550961e-19,6.188834674e-19,3.910637924e-19,1.319666588e-19,-1.371984799e-19,-3.999941864e-19,-6.445145567e-19,-8.628997983e-19,-1.050710956e-18,-1.206253511e-18,-1.329915928e-18,-1.423566938e-18],
			"epinfma": [1,-2.286331455e-17,-7.159289256e-18,3.110672287e-18,6.600911494e-19,2.537904665e-19,2.945553528e-19,3.728260046e-19,4.076236138e-19,3.993464218e-19,3.628710602e-19,3.116501983e-19,2.552212244e-19,1.997289825e-19,1.48834297e-19,1.044671384e-19,6.738150827e-20,3.755694308e-20,1.448959335e-20,-2.597423464e-21,-1.460442939e-20],
			"mc": [1,0.7982345454,0.6123719982,0.4550761723,0.3283661743,0.2298761404,0.1556244653,0.1012859651,0.0627746578,0.03649082095,0.01939913954,0.009021679763,0.003389678676,0.0009779228105,0.0006346906765,0.001514248082,0.003015470749,0.004728182134,0.006387628306,0.007836833178,0.008996197741],
			"zcap": [1,0.9986749516,0.9966393223,0.9941325804,0.9912698077,0.9881080314,0.9846759894,0.9809884156,0.9770533424,0.9728760101,0.9684609913,0.9638133134,0.9589389899,0.9538451982,0.9485402476,0.943033431,0.9373348185,0.9314550337,0.9254050367,0.9191959274,0.9128387765],
			"rk": [1,0.9986749516,0.9966393223,0.9941325804,0.9912698077,0.9881080314,0.9846759894,0.9809884156,0.9770533424,0.9728760101,0.9684609913,0.9638133134,0.9589389899,0.9538451982,0.9485402476,0.943033431,0.9373348185,0.9314550337,0.9254050367,0.9191959274,0.9128387765],
			"k": [1,0.9844154837,0.963803559,0.9419651628,0.9206772285,0.9007425873,0.8824658612,0.865886597,0.8509031618,0.8373433721,0.8250066481,0.8136895306,0.8032007697,0.7933695876,0.7840494026,0.775118567,0.7664792082,0.7580549567,0.7497881099,0.741636618,0.7335711449],
			"pk": [1,0.5236642132,0.3074801214,0.1982390187,0.135622542,0.09539834592,0.06741385452,0.04706969679,0.03201256247,0.02084774871,0.01263254456,0.006671233841,0.002426655059,-0.0005229278654,-0.002508926589,-0.003789860994,-0.004565016016,-0.004985779092,-0.005165223096,-0.005186191688,-0.005108049536],
			"c": [1,0.9948935384,0.9848659374,0.9723350844,0.9585593064,0.9442864198,0.9300022376,0.9160309669,0.9025819873,0.8897774478,0.8776726203,0.8662727781,0.8555475887,0.8454432005,0.8358920671,0.8268206171,0.8181549608,0.8098248909,0.8017664617,0.7939234338,0.7862478518],
			"inve": [1,0.9948973866,0.9845522471,0.9713723606,0.9566326791,0.9410702414,0.9251416184,0.9091411307,0.8932603133,0.8776214585,0.8622987869,0.8473329856,0.8327416831,0.8185271352,0.8046818508,0.7911926451,0.7780434813,0.7652173896,0.7526976935,0.7404687297,0.7285162101],
			"y": [1,0.9786370874,0.9480015859,0.91339478,0.8775045321,0.8418093751,0.8071621893,0.7740504631,0.7427269632,0.7132860007,0.6857143733,0.6599283457,0.6358013632,0.6131847477,0.5919227544,0.5718630531,0.5528635485,0.5347963506,0.5175496074,0.5010277984,0.4851509866],
			"lab": [1,0.9694550231,0.9341491623,0.8993402778,0.8671312046,0.8382266613,0.8126885461,0.790280301,0.7706354877,0.7533460399,0.7380103983,0.724259571,0.7117700281,0.7002683739,0.6895308521,0.6793797244,0.6696779315,0.6603230148,0.6512409613,0.6423803984,0.6337073887],
			"pinf": [1,0.7366589,0.6261576789,0.5517237961,0.4888916304,0.4343367563,0.3879935601,0.3494684659,0.3178138737,0.291842021,0.2703756436,0.2523752705,0.2369831071,0.2235227959,0.2114794842,0.2004732413,0.1902321931,0.1805681923,0.1713560572,0.1625165365,0.1540027514],
			"w": [1,0.9886767087,0.9741672485,0.9584578652,0.9425225944,0.9268353076,0.9116101335,0.8969238929,0.8827817772,0.8691535141,0.8559934099,0.8432513424,0.8308786037,0.8188308011,0.8070690789,0.7955603928,0.7842772649,0.7731972711,0.7623024094,0.751578439,0.7410142418],
			"r": [1,0.9891772364,0.9620330888,0.9239968582,0.8795937303,0.8322513447,0.7843978062,0.7376457021,0.6929825197,0.6509386358,0.6117248243,0.5753396419,0.5416502382,0.5104510668,0.4815049272,0.4545703203,0.4294185101,0.4058430824,0.3836642277,0.3627294795,0.3429122194],
			"a": [1,0.9828,0.96589584,0.9492824316,0.9329547737,0.9169079516,0.9011371349,0.8856375761,0.8704046098,0.8554336505,0.8407201917,0.8262598044,0.8120481358,0.7980809079,0.7843539163,0.7708630289,0.7576041848,0.7445733928,0.7317667305,0.7191803427,0.7068104408],
			"b": [1,0.3881,0.15062161,0.05845624684,0.0226868694,0.008804774014,0.003417132795,0.001326189238,0.0005146940431,0.0001997527581,7.752404543e-05,3.008708203e-05,1.167679654e-05,4.531764736e-06,1.758777894e-06,6.825817005e-07,2.649099579e-07,1.028115546e-07,3.990116426e-08,1.548564178e-08,6.009977501e-09],
			"g": [1,0.9249,0.85544001,0.7911964652,0.7317776107,0.6768211121,0.6259918466,0.5789798589,0.5354984715,0.4952825363,0.4580868178,0.4236844978,0.391865792,0.3624366711,0.3352176771,0.3100428295,0.286758613,0.2652230412,0.2453047908,0.226882401,0.2098435327],
			"qs": [1,0.4265,0.18190225,0.07758130963,0.03308842856,0.01411221478,0.006018859603,0.002567043621,0.001094844104,0.0004669510105,0.000199154606,8.493943944e-05,3.622667092e-05,1.545067515e-05,6.589712951e-06,2.810512573e-06,1.198683613e-06,5.112385608e-07,2.180432462e-07,9.299544449e-08,3.966255707e-08],
			"spinf": [1,-0.1636401803,-0.0524630418,-0.0168196512,-0.005392380175,-0.001728797084,-0.0005542523452,-0.0001776933019,-5.696847258e-05,-1.826409231e-05,-5.855467994e-06,-1.877263039e-06,-6.018505303e-07,-1.9295328e-07,-6.186082157e-08,-1.98325794e-08,-6.358324954e-09,-2.03847898e-09,-6.535363605e-10,-2.095237569e-10,-6.717331616e-11],
			"sw": [1,0.1273675442,0.0726249737,0.04141076,0.02361241535,0.01346379924,0.007677058324,0.004377458656,0.002496026926,0.001423234553,0.0008115283422,0.0004627334607,0.0002638506193,0.0001504476231,8.57852347e-05,4.891474083e-05,2.789118522e-05,1.590355381e-05,9.068206384e-06,5.17069128e-06,2.948328168e-06],
			"kp": [1,0.9997509856,0.9990313312,0.9978650342,0.9962748771,0.9942830694,0.9919113125,0.9891806864,0.9861115181,0.9827232819,0.9790345451,0.9750629529,0.9708252428,0.9663372792,0.9616140998,0.9566699674,0.951518423,0.9461723369,0.9406439563,0.9349449485,0.9290864394],
			"rr": [1,-0.2721227535,-0.1115361762,-0.0483223316,-0.02293685029,-0.01231120726,-0.007506780257,-0.005056311005,-0.00360984312,-0.002636082494,-0.001920027851,-0.001368950318,-0.000937683037,-0.0005999998752,-0.0003377378176,-0.0001367030073,1.486585224e-05,0.0001268964585,0.0002077565234,0.0002644264836,0.0003026478983],
			"er": [1,0.4476203376,0.2194513843,0.1199400721,0.07276594565,0.04788270466,0.03324406809,0.02384344426,0.01746090857,0.01300827023,0.009880659675,0.007698399677,0.006200648158,0.005198524255,0.004552001111,0.004156716545,0.003935294686,0.003831025082,0.003802997752,0.003822275016,0.003868869107],
			"ec": [1,0.4476203376,0.2194513843,0.1199400721,0.07276594565,0.04788270466,0.03324406809,0.02384344426,0.01746090857,0.01300827023,0.009880659675,0.007698399677,0.006200648158,0.005198524255,0.004552001111,0.004156716545,0.003935294686,0.003831025082,0.003802997752,0.003822275016,0.003868869107],
			"nw": [1,0.9047488078,0.8387092672,0.7863036972,0.7411928243,0.7006660961,0.6634606924,0.6289099395,0.5966076129,0.5662728744,0.5376936479,0.5107010317,0.4851563172,0.4609434053,0.4379637636,0.4161327529,0.3953768145,0.3756312646,0.3568385546,0.3389468989,0.3219091987],
			"prem": [1,0.9431215216,0.8923253707,0.8455992096,0.8019982851,0.7610161386,0.7223369444,0.6857362585,0.6510396705,0.6181042566,0.5868092164,0.5570504027,0.5287366656,0.5017871785,0.4761293852,0.4516973972,0.4284307389,0.4062733705,0.3851729361,0.3650801886,0.3459485557],
			"pinf4": [1,0.9575068987,0.8745036575,0.7716996605,0.667455675,0.5914815363,0.5287953081,0.4761311853,0.4322101501,0.3957921704,0.3655410776,0.3401720601,0.3185601966,0.299781702,0.2831119999,0.2680030462,0.2540534946,0.2409786889,0.2285836377,0.2167401063,0.2053679691],
			"eg": [1,-2.355835983e-16,-9.699530698e-17,2.930879158e-19,6.740043765e-17,1.108104538e-16,1.364554898e-16,1.493290284e-16,1.53429012e-16,1.518378261e-16,1.468519125e-16,1.4012161e-16,1.327834858e-16,1.25577614e-16,1.189472402e-16,1.13120789e-16,1.08177455e-16,1.040982323e-16,1.008044813e-16,9.818613607e-17,9.612153998e-17],
			"interest": [1,0.9891772364,0.9620330888,0.9239968582,0.8795937303,0.8322513447,0.7843978062,0.7376457021,0.6929825197,0.6509386358,0.6117248243,0.5753396419,0.5416502382,0.5104510668,0.4815049272,0.4545703203,0.4294185101,0.4058430824,0.3836642277,0.3627294795,0.3429122194],
			"inflation": [1,0.9575068987,0.8745036575,0.7716996605,0.667455675,0.5914815363,0.5287953081,0.4761311853,0.4322101501,0.3957921704,0.3655410776,0.3401720601,0.3185601966,0.299781702,0.2831119999,0.2680030462,0.2540534946,0.2409786889,0.2285836377,0.2167401063,0.2053679691],
			"inflationq": [1,0.7366589,0.6261576789,0.5517237961,0.4888916304,0.4343367563,0.3879935601,0.3494684659,0.3178138737,0.291842021,0.2703756436,0.2523752705,0.2369831071,0.2235227959,0.2114794842,0.2004732413,0.1902321931,0.1805681923,0.1713560572,0.1625165365,0.1540027514],
			"inflationql": [1,0.7366589,0.6261576789,0.5517237961,0.4888916304,0.4343367563,0.3879935601,0.3494684659,0.3178138737,0.291842021,0.2703756436,0.2523752705,0.2369831071,0.2235227959,0.2114794842,0.2004732413,0.1902321931,0.1805681923,0.1713560572,0.1625165365,0.1540027514],
			"inflationql2": [1,0.7366589,0.6261576789,0.5517237961,0.4888916304,0.4343367563,0.3879935601,0.3494684659,0.3178138737,0.291842021,0.2703756436,0.2523752705,0.2369831071,0.2235227959,0.2114794842,0.2004732413,0.1902321931,0.1805681923,0.1713560572,0.1625165365,0.1540027514],
			"inflationqls": [1,0.8923673725,0.7314902351,0.6387255729,0.5654086169,0.5025623348,0.4490784985,0.4044387662,0.3676422107,0.3373931286,0.3123723889,0.291395533,0.2734746243,0.2578250061,0.2438461017,0.2310926342,0.2192444987,0.2080790404,0.197447191,0.1872537784,0.1774417924],
			"outputgap": [1,0.9441147779,0.8777736011,0.8118835282,0.7509718819,0.6966849162,0.6493069706,0.6084632642,0.5734713078,0.5435302162,0.5178278027,0.4956014455,0.4761706497,0.4589514117,0.4434587647,0.4293018664,0.4161747118,0.4038446653,0.392140336,0.380939813,0.3701598909],
			"output": [1,0.9786370874,0.9480015859,0.91339478,0.8775045321,0.8418093751,0.8071621893,0.7740504631,0.7427269632,0.7132860007,0.6857143733,0.6599283457,0.6358013632,0.6131847477,0.5919227544,0.5718630531,0.5528635485,0.5347963506,0.5175496074,0.5010277984,0.4851509866],
			"fispol": [1,-1.311212839e-16,-6.082609391e-17,-1.125603059e-17,2.315397763e-17,4.56510084e-17,5.920606821e-17,6.632036544e-17,6.899700283e-17,6.878099435e-17,6.682409525e-17,6.395474377e-17,6.074424687e-17,5.756543792e-17,5.464252602e-17,5.209211562e-17,4.995601633e-17,4.822677162e-17,4.686695419e-17,4.582328157e-17,4.503654449e-17],
			"neww": [1,-0.08696309046,-0.0278803668,-0.008938445596,-0.002865665658,-0.00091873241,-0.0002945456106,-9.443132277e-05,-3.027468208e-05,-9.706063075e-06,-3.111763822e-06,-9.976314813e-07,-3.198406529e-07,-1.025409133e-07,-3.287461681e-08,-1.053960215e-08,-3.378996449e-09,-1.083306261e-09,-3.473079871e-10,-1.113469405e-10,-3.569782895e-11]
		},
		"VAR": {
			"ewma": 0.05184729,
			"epinfma": 0.03429904,
			"mc": 0.8592314775,
			"zcap": 175.8471538,
			"rk": 4.327381719,
			"k": 12.58576767,
			"pk": 19.58899182,
			"c": 41.45152126,
			"inve": 386.3255309,
			"y": 14.10662002,
			"lab": 4.580471947,
			"pinf": 0.1536444888,
			"w": 11.70956818,
			"r": 0.3269019517,
			"a": 6.90578774,
			"b": 3.779878647,
			"g": 2.031717783,
			"qs": 0.1915868978,
			"spinf": 0.03555697933,
			"sw": 0.05292063572,
			"kp": 256.1064011,
			"rr": 18.07490607,
			"er": 5.02561958,
			"ec": 5.02561958,
			"nw": 792.4643261,
			"prem": 0.2263831544,
			"pinf4": 1.848040783,
			"eg": 0.21483225,
			"interest": 5.230431227,
			"inflation": 1.848040783,
			"inflationq": 2.458311821,
			"inflationql": 2.458311821,
			"inflationql2": 2.458311821,
			"inflationqls": 8.538498204,
			"outputgap": 6.0624248,
			"output": 14.10662002,
			"fispol": 0.21483225,
			"neww": 0.1384540993
		},
		"IRF": {
			"interest_": {
				"ewma": [0,1.346653716e-17,-3.725942242e-17,-3.562518778e-17,-3.363080906e-17,-3.190971381e-17,-3.040227084e-17,-2.906147867e-17,-2.784984294e-17,-2.673769275e-17,-2.570198928e-17,-2.472529585e-17,-2.379481929e-17,-2.290151697e-17,-2.203928663e-17,-2.120425495e-17,-2.039417337e-17,-1.960792168e-17,-1.884511341e-17,-1.810579284e-17,-1.739021141e-17],
				"epinfma": [0,0,3.006115185e-18,2.443181417e-18,1.832038507e-18,1.455274864e-18,1.234250664e-18,1.115599663e-18,1.061953311e-18,1.046959321e-18,1.052259386e-18,1.065431478e-18,1.078469177e-18,1.086607785e-18,1.087404917e-18,1.080023106e-18,1.064678255e-18,1.042224983e-18,1.013853816e-18,9.808781758e-19,9.445918549e-19],
				"mc": [0,-0.0407612509,-0.06548693196,-0.07903392549,-0.08474527691,-0.08490210891,-0.08122272083,-0.07505565683,-0.06745971869,-0.05924687517,-0.05101562432,-0.04318307343,-0.03601688256,-0.02966604581,-0.02418920707,-0.01957955378,-0.01578580033,-0.0127291779,-0.01031664165,-0.008450689734,-0.007036283794],
				"zcap": [0,-0.1008247601,-0.1670599435,-0.1904011837,-0.1842589572,-0.158760422,-0.1215179998,-0.07814971073,-0.0326808689,0.01212334751,0.05447627967,0.09333216391,0.128188795,0.1589271662,0.1856843768,0.2087556786,0.2285213435,0.2453940895,0.259783066,0.2720707944,0.2825999305],
				"rk": [0,-0.01581656347,-0.02620699715,-0.02986857995,-0.02890503771,-0.02490503612,-0.01906274962,-0.01225948724,-0.005126707338,0.001901811571,0.008545793062,0.01464118629,0.02010920939,0.02493119359,0.02912864588,0.03274788295,0.03584855874,0.03849541709,0.04075264201,0.0426802403,0.04433196503],
				"k": [0,-0.1008247601,-0.1823373253,-0.2302178631,-0.2535281608,-0.2593650521,-0.2533219167,-0.2397520827,-0.2219627199,-0.2023837686,-0.1827238043,-0.1641134132,-0.1472338213,-0.1324287874,-0.1197989062,-0.1092786202,-0.1006971253,-0.0938249192,-0.08840802574,-0.08419199782,-0.08093771476],
				"pk": [0,-1.158904225,-0.8475282059,-0.5990188177,-0.4067347734,-0.2619910501,-0.1560421746,-0.08090111399,-0.0296359012,0.003572858247,0.0234853508,0.03390616372,0.03780778099,0.03745781084,0.03454096627,0.03027080867,0.02548869722,0.02074896947,0.01639043492,0.01259495553,0.009434312218],
				"c": [0,-0.173960993,-0.2889103211,-0.353963345,-0.3796378019,-0.3761526309,-0.35258861,-0.3165351162,-0.2740174472,-0.2295838928,-0.1864775925,-0.1468453827,-0.111953243,-0.0823897117,-0.05824676776,-0.03927329036,-0.02499998246,-0.0148370735,-0.008147547488,-0.004299359227,-0.002700319028],
				"inve": [0,-0.5240364236,-0.8570109954,-1.050081114,-1.144119928,-1.170785559,-1.153934284,-1.111048779,-1.054545146,-0.9929089338,-0.9316499557,-0.8740841748,-0.8219592712,-0.7759439076,-0.7360013875,-0.7016676032,-0.6722515369,-0.6469745126,-0.6250621617,-0.6058008361,-0.5885680958],
				"y": [0,-0.1205430834,-0.2272609705,-0.2876200294,-0.3140470323,-0.316715972,-0.3036798666,-0.2811121635,-0.2535877551,-0.224366051,-0.1956557679,-0.1688509493,-0.1447337388,-0.1236431971,-0.1056118012,-0.09047265005,-0.07794111049,-0.06767487504,-0.05931632568,-0.05252081228,-0.04697405358],
				"lab": [0,-0.06966726888,-0.1332742041,-0.1688072392,-0.1837801728,-0.1844249163,-0.175680184,-0.161315698,-0.1441048492,-0.1260051941,-0.1083278296,-0.0918872582,-0.0771287851,-0.06423338468,-0.05320153803,-0.04391834449,-0.03620254743,-0.02984216253,-0.02461926274,-0.0203262346,-0.01677552537],
				"pinf": [0,-0.04422978404,-0.06102390687,-0.06519996784,-0.06346584348,-0.05898491584,-0.05333428756,-0.04734952351,-0.04149475829,-0.03603060954,-0.03109557301,-0.02674972917,-0.02300124503,-0.01982424282,-0.01717167011,-0.01498480002,-0.01320019553,-0.01175466163,-0.01058858446,-0.009647994823,-0.008885650368],
				"w": [0,-0.04697405464,-0.07527011832,-0.09127920391,-0.09865302571,-0.099845172,-0.09670448233,-0.09069587194,-0.08298457812,-0.07447676293,-0.06585018168,-0.05758496874,-0.04999582677,-0.04326420911,-0.03746872228,-0.03261239276,-0.02864601916,-0.02548733958,-0.02303612099,-0.02118552292,-0.01983022436],
				"r": [0,0.2292819663,0.1593203633,0.102664137,0.05815489418,0.02418930964,-0.000927006675,-0.0188122761,-0.03093075884,-0.0385606,-0.04278651411,-0.04450660378,-0.04444723065,-0.04318214949,-0.04115339562,-0.03869222816,-0.03603900322,-0.03336127542,-0.03076974529,-0.02833190759,-0.02608342443],
				"a": [0,3.75970264e-18,-5.645478839e-17,-1.131289083e-16,-1.662215929e-16,-2.158245444e-16,-2.620641469e-16,-3.050871046e-16,-3.450503072e-16,-3.821137641e-16,-4.164358134e-16,-4.481700155e-16,-4.774632864e-16,-5.044549173e-16,-5.292762163e-16,-5.52050563e-16,-5.728937244e-16,-5.919143189e-16,-6.092143482e-16,-6.248897448e-16,-6.390308984e-16],
				"b": [0,0,-4.641279103e-17,-5.912200276e-17,-6.124188324e-17,-6.036267149e-17,-5.907750995e-17,-5.81263339e-17,-5.759829973e-17,-5.738479876e-17,-5.734396351e-17,-5.735491565e-17,-5.733069902e-17,-5.72165343e-17,-5.698362684e-17,-5.662237782e-17,-5.613635664e-17,-5.553741761e-17,-5.484196631e-17,-5.406824239e-17,-5.323444479e-17],
				"g": [0,-3.405747837e-17,2.292321863e-16,4.385828358e-16,5.950908041e-16,7.013212729e-16,7.664318732e-16,8.009587558e-16,8.146006514e-16,8.153906247e-16,8.095168781e-16,8.014424412e-16,7.941514198e-16,7.894342031e-16,7.881665677e-16,7.905602648e-16,7.963753597e-16,8.050919257e-16,8.160429027e-16,8.285122204e-16,8.41803347e-16],
				"qs": [0,-1.049457917e-16,2.703344948e-17,7.802083797e-17,9.72274821e-17,1.033069316e-16,1.040104219e-16,1.025225582e-16,1.001350003e-16,9.736749932e-17,9.443268392e-17,9.142506918e-17,8.839539211e-17,8.537817892e-17,8.240091411e-17,7.948646553e-17,7.665339745e-17,7.391589217e-17,7.128382434e-17,6.876308318e-17,6.635608643e-17],
				"spinf": [0,0,2.21222197e-18,5.833785944e-19,-1.073819941e-18,-2.193686583e-18,-2.901318751e-18,-3.309950188e-18,-3.509870064e-18,-3.57026595e-18,-3.543017003e-18,-3.466145581e-18,-3.366676418e-18,-3.263006213e-18,-3.166884687e-18,-3.085067855e-18,-3.020680845e-18,-2.974319604e-18,-2.944920096e-18,-2.930424757e-18,-2.928276683e-18],
				"sw": [0,1.346653716e-17,-9.987916861e-17,-1.367686298e-16,-1.532695569e-16,-1.590877431e-16,-1.592819111e-16,-1.566187792e-16,-1.525857426e-16,-1.479628763e-16,-1.431448452e-16,-1.383208718e-16,-1.335742616e-16,-1.289365026e-16,-1.244158843e-16,-1.200119889e-16,-1.157224946e-16,-1.115459222e-16,-1.07482354e-16,-1.035332301e-16,-9.970081268e-17],
				"kp": [0,-0.01527738177,-0.0398166794,-0.0692692036,-0.1006046302,-0.1318039169,-0.161602372,-0.189281851,-0.2145071161,-0.237200084,-0.2574455771,-0.2754226162,-0.2913559536,-0.305483283,-0.3180342988,-0.3292184688,-0.3392190087,-0.3481910918,-0.3562627922,-0.3635376452,-0.3700980215],
				"rr": [0,-1.121677083,0.3381241342,0.2670450064,0.2045888932,0.1524649462,0.1104099091,0.0773765248,0.05206340812,0.03315433817,0.01942595329,0.009793406929,0.003325224704,-0.0007579267427,-0.003093108587,-0.004189486273,-0.004444719976,-0.004161776002,-0.003565126166,-0.002815686511,-0.002024125173],
				"er": [0,0.3381241342,0.2670450064,0.2045888932,0.1524649462,0.1104099091,0.0773765248,0.05206340812,0.03315433817,0.01942595329,0.009793406929,0.003325224704,-0.0007579267427,-0.003093108587,-0.004189486273,-0.004444719976,-0.004161776002,-0.003565126166,-0.002815686511,-0.002024125173,-0.001262373429],
				"ec": [0,0.3381241342,0.2670450064,0.2045888932,0.1524649462,0.1104099091,0.0773765248,0.05206340812,0.03315433817,0.01942595329,0.009793406929,0.003325224704,-0.0007579267427,-0.003093108587,-0.004189486273,-0.004444719976,-0.004161776002,-0.003565126166,-0.002815686511,-0.002024125173,-0.001262373429],
				"nw": [0,-3.687051879,-3.188478493,-2.781465755,-2.453417056,-2.190712035,-1.980633532,-1.812070756,-1.67568428,-1.56383529,-1.470415706,-1.390642958,-1.320850461,-1.258289291,-1.200948769,-1.147399317,-1.096658458,-1.048079239,-1.001259416,-0.9559692276,-0.9120952836],
				"prem": [0,0.04781826103,0.04252467534,0.03845891276,0.03532513621,0.03288631188,0.03095400797,0.02938092592,0.02805448747,0.02689098028,0.02583019187,0.02483058346,0.02386506108,0.0229173708,0.02197910933,0.02104731266,0.0201225656,0.01920756479,0.01830606396,0.01742213205,0.01655966006],
				"pinf4": [0,-0.04422978404,-0.1052536909,-0.1704536587,-0.2339195022,-0.248674634,-0.2409850147,-0.2231345704,-0.2011634852,-0.1782091789,-0.1559704644,-0.13537067,-0.1168771567,-0.10067079,-0.08674688713,-0.07498195798,-0.06518090848,-0.05711132728,-0.05052824163,-0.04519143644,-0.04087689128],
				"eg": [0,-2.270498558e-17,1.738212987e-16,1.510439911e-16,1.262970261e-16,1.006145254e-16,7.851988529e-17,6.139061084e-17,4.91959321e-17,4.131098816e-17,3.690805954e-17,3.514685376e-17,3.526487066e-17,3.661570324e-17,3.867924888e-17,4.105667088e-17,4.345744718e-17,4.568290371e-17,4.760892039e-17,4.916942646e-17,5.034159626e-17],
				"interest": [0,0.9171278651,0.637281453,0.4106565479,0.2326195767,0.09675723854,-0.0037080267,-0.0752491044,-0.1237230354,-0.1542424,-0.1711460564,-0.1780264151,-0.1777889226,-0.172728598,-0.1646135825,-0.1547689126,-0.1441560129,-0.1334451017,-0.1230789812,-0.1133276304,-0.1043336977],
				"inflation": [0,-0.04422978404,-0.1052536909,-0.1704536587,-0.2339195022,-0.248674634,-0.2409850147,-0.2231345704,-0.2011634852,-0.1782091789,-0.1559704644,-0.13537067,-0.1168771567,-0.10067079,-0.08674688713,-0.07498195798,-0.06518090848,-0.05711132728,-0.05052824163,-0.04519143644,-0.04087689128],
				"inflationq": [0,-0.1769191362,-0.2440956275,-0.2607998714,-0.2538633739,-0.2359396634,-0.2133371502,-0.189398094,-0.1659790332,-0.1441224382,-0.124382292,-0.1069989167,-0.09200498011,-0.07929697129,-0.06868668042,-0.05993920008,-0.05280078211,-0.0470186465,-0.04235433784,-0.03859197929,-0.03554260147],
				"inflationql": [0,-1.741672327e-16,-0.1769191362,-0.2440956275,-0.2607998714,-0.2538633739,-0.2359396634,-0.2133371502,-0.189398094,-0.1659790332,-0.1441224382,-0.124382292,-0.1069989167,-0.09200498011,-0.07929697129,-0.06868668042,-0.05993920008,-0.05280078211,-0.0470186465,-0.04235433784,-0.03859197929],
				"inflationql2": [0,-1.887194921e-17,-1.456626986e-16,-0.1769191362,-0.2440956275,-0.2607998714,-0.2538633739,-0.2359396634,-0.2133371502,-0.189398094,-0.1659790332,-0.1441224382,-0.124382292,-0.1069989167,-0.09200498011,-0.07929697129,-0.06868668042,-0.05993920008,-0.05280078211,-0.0470186465,-0.04235433784],
				"inflationqls": [0,-1.930391819e-16,-0.1769191362,-0.4210147636,-0.5048954988,-0.5146632453,-0.4898030373,-0.4492768136,-0.4027352443,-0.3553771272,-0.3101014713,-0.2685047302,-0.2313812087,-0.1990038968,-0.1713019514,-0.1479836517,-0.1286258805,-0.1127399822,-0.09981942861,-0.08937298434,-0.08094631713],
				"outputgap": [0,-0.1205430834,-0.2272609705,-0.2876200294,-0.3140470323,-0.316715972,-0.3036798666,-0.2811121635,-0.2535877551,-0.224366051,-0.1956557679,-0.1688509493,-0.1447337388,-0.1236431971,-0.1056118012,-0.09047265005,-0.07794111049,-0.06767487504,-0.05931632568,-0.05252081228,-0.04697405358],
				"output": [0,-0.1205430834,-0.2272609705,-0.2876200294,-0.3140470323,-0.316715972,-0.3036798666,-0.2811121635,-0.2535877551,-0.224366051,-0.1956557679,-0.1688509493,-0.1447337388,-0.1236431971,-0.1056118012,-0.09047265005,-0.07794111049,-0.06767487504,-0.05931632568,-0.05252081228,-0.04697405358],
				"fispol": [0,-1.135249279e-17,8.691064936e-17,7.552199557e-17,6.314851307e-17,5.030726272e-17,3.925994265e-17,3.069530542e-17,2.459796605e-17,2.065549408e-17,1.845402977e-17,1.757342688e-17,1.763243533e-17,1.830785162e-17,1.933962444e-17,2.052833544e-17,2.172872359e-17,2.284145185e-17,2.38044602e-17,2.458471323e-17,2.517079813e-17],
				"neww": [0,-3.241773806e-33,5.218337155e-18,3.026560011e-18,7.582185656e-19,-7.384117194e-19,-1.667068086e-18,-2.194350525e-18,-2.447916753e-18,-2.523306629e-18,-2.490757617e-18,-2.400714103e-18,-2.288207241e-18,-2.176398428e-18,-2.07947977e-18,-2.00504475e-18,-1.95600259e-18,-1.932094621e-18,-1.93106628e-18,-1.949546581e-18,-1.983684828e-18]
			},
			"fiscal_": {
				"ewma": [0,-5.665202853e-17,-4.947923877e-18,-6.057049704e-18,-7.041773503e-18,-7.691821029e-18,-8.115296299e-18,-8.39029724e-18,-8.571879725e-18,-8.697544811e-18,-8.791655321e-18,-8.868988209e-18,-8.937555478e-18,-9.000800429e-18,-9.059265796e-18,-9.111823653e-18,-9.15654982e-18,-9.191317011e-18,-9.214171504e-18,-9.223548275e-18,-9.218369924e-18],
				"epinfma": [0,0,3.65686257e-17,3.315611237e-17,3.015350351e-17,2.738892119e-17,2.487143617e-17,2.259680002e-17,2.055278195e-17,1.87225389e-17,1.708689068e-17,1.562590083e-17,1.431996797e-17,1.315055069e-17,1.210061225e-17,1.115485292e-17,1.029978544e-17,9.52369933e-18,8.8165512e-18,8.169810423e-18,7.576282629e-18],
				"mc": [0,0.07414418359,0.09866883314,0.1046676412,0.09909719546,0.08690738611,0.07156963354,0.05544207299,0.04004468655,0.02627574176,0.01458415215,0.005105883223,-0.002229899748,-0.007620175032,-0.01132859099,-0.01364323686,-0.01484811372,-0.01520519593,-0.01494442919,-0.01425946137,-0.01330732693],
				"zcap": [0,0.6528554479,0.6100232243,0.5639110967,0.5224787297,0.4903224338,0.4696079966,0.4607958568,0.4632097111,0.4754767337,0.4958596606,0.5224982612,0.553576403,0.5874296696,0.6226069923,0.6578980201,0.6923361014,0.7251849276,0.7559151765,0.784175972,0.8097646662],
				"rk": [0,0.1024146214,0.09569545258,0.08846175927,0.08196218851,0.07691777189,0.07366826045,0.07228588406,0.07266454977,0.07458889992,0.07778640672,0.08196525245,0.08684053708,0.09215116057,0.09766949116,0.1032056589,0.1086080233,0.1137610784,0.1185817884,0.1230151108,0.1270292558],
				"k": [0,0.6528554479,0.5905790016,0.5093142645,0.4205618798,0.3321718819,0.2492104123,0.1746478543,0.1099166061,0.05536155345,0.0105978459,-0.02521179389,-0.05314856156,-0.0743865378,-0.09008840447,-0.1013381019,-0.1091017677,-0.1142095609,-0.1173522459,-0.1190876247,-0.1198529911],
				"pk": [0,-0.6671515353,-0.6471369549,-0.6069743476,-0.5515959591,-0.4866500793,-0.4173490046,-0.3479886642,-0.281813359,-0.2210575832,-0.1670736631,-0.120493584,-0.08139538079,-0.0494575193,-0.02409280751,-0.004558512832,0.009957425417,0.02027228267,0.02716370383,0.03134087427,0.03342843397],
				"c": [0,0.2908415016,0.4269541447,0.4589950104,0.4253978703,0.3544020458,0.2660159804,0.1737889333,0.08634126522,0.008643731991,-0.05694258073,-0.109843001,-0.1506349237,-0.1805731646,-0.2012466447,-0.2143402446,-0.2214786357,-0.2241321785,-0.2235682927,-0.2208348319,-0.216764839],
				"inve": [0,-0.6669651281,-1.225229878,-1.677742292,-2.03081465,-2.293314329,-2.475732599,-2.589322716,-2.645387513,-2.65473953,-2.627327324,-2.57200732,-2.496434751,-2.407046434,-2.309109987,-2.206817454,-2.103405139,-2.001285412,-1.902179845,-1.80724622,-1.71719459],
				"y": [0,1.082036582,0.9334702897,0.7833519766,0.6408839302,0.5118187504,0.3992295397,0.3042036596,0.2264334351,0.1646976469,0.1172388396,0.08204733817,0.05706549105,0.04032628979,0.03003991395,0.02464044711,0.02280335104,0.02344251504,0.02569397143,0.02889178479,0.03254023368],
				"lab": [0,0.6881670115,0.5868650614,0.4890720938,0.3991591731,0.3196942223,0.25183173,0.1956868389,0.1506608769,0.1157077415,0.0895414564,0.07079041598,0.05810604352,0.05023416617,0.04605708909,0.04461355404,0.04510275015,0.04687746679,0.04943043909,0.05237699209,0.05543627038],
				"pinf": [0,0.02120818125,0.02675920619,0.02462382265,0.01898184663,0.01211119577,0.005269094455,-0.000872279723,-0.005993067724,-0.009990330545,-0.01289315653,-0.0148066983,-0.01587449189,-0.01625323854,-0.01609646323,-0.01554459189,-0.01471963834,-0.01372312292,-0.01263616585,-0.01152095207,-0.01042297065],
				"w": [0,0.06710305781,0.09940939282,0.10870393,0.1033648952,0.08939543142,0.07104694281,0.05124689946,0.03192027895,0.01424271186,-0.001157203782,-0.01403695743,-0.024414068,-0.03246954341,-0.0384760024,-0.04274599705,-0.04559649458,-0.04732594924,-0.04820089659,-0.04844950596,-0.04826000568],
				"r": [0,0.0296684935,0.04979134739,0.06119467143,0.06540677448,0.06414252293,0.05903692522,0.05151569305,0.04274412398,0.03362130516,0.02479981143,0.01671844834,0.009640096934,0.003689664376,-0.001110847788,-0.00481176079,-0.007510278489,-0.009330222246,-0.01040658399,-0.01087432269,-0.01086073301],
				"a": [0,-9.063387878e-17,-1.645552561e-16,-2.33751441e-16,-2.982926169e-16,-3.5824906e-16,-4.137256969e-16,-4.648567054e-16,-5.117998051e-16,-5.547306463e-16,-5.938375605e-16,-6.293168294e-16,-6.613685626e-16,-6.901932172e-16,-7.15988751e-16,-7.389483765e-16,-7.592588587e-16,-7.770992935e-16,-7.926402956e-16,-8.060435279e-16,-8.174615052e-16],
				"b": [0,0,-1.071872834e-16,-1.435496688e-16,-1.519924383e-16,-1.499182402e-16,-1.442506506e-16,-1.377576518e-16,-1.31531784e-16,-1.259731325e-16,-1.211867009e-16,-1.17148663e-16,-1.137796936e-16,-1.109795831e-16,-1.086447035e-16,-1.066771664e-16,-1.049895224e-16,-1.035068393e-16,-1.021671623e-16,-1.009209684e-16,-9.973002504e-17],
				"g": [0,1,0.9249,0.85544001,0.7911964652,0.7317776107,0.6768211121,0.6259918466,0.5789798589,0.5354984715,0.4952825363,0.4580868178,0.4236844978,0.391865792,0.3624366711,0.3352176771,0.3100428295,0.286758613,0.2652230412,0.2453047908,0.226882401],
				"qs": [0,1.277680307e-17,1.047557268e-16,1.320308129e-16,1.33743533e-16,1.269735306e-16,1.184780595e-16,1.107000953e-16,1.043227514e-16,9.934923665e-17,9.555364826e-17,9.26637465e-17,9.043009193e-17,8.864758489e-17,8.715766423e-17,8.584323627e-17,8.462145218e-17,8.343645214e-17,8.225289417e-17,8.105052027e-17,7.981976747e-17],
				"spinf": [0,0,8.991202132e-17,9.244456157e-17,8.791298488e-17,8.12502161e-17,7.420645592e-17,6.737833345e-17,6.097090843e-17,5.504844175e-17,4.961960883e-17,4.466849575e-17,4.016734141e-17,3.60827242e-17,3.237907241e-17,2.902085028e-17,2.597394909e-17,2.320653637e-17,2.068951644e-17,1.839671154e-17,1.630484765e-17],
				"sw": [0,-5.665202853e-17,-2.029915661e-17,-2.529564327e-17,-2.980884603e-17,-3.348084395e-17,-3.64266199e-17,-3.881705994e-17,-4.081637873e-17,-4.255700924e-17,-4.413361104e-17,-4.560614026e-17,-4.7006546e-17,-4.834625128e-17,-4.962303044e-17,-5.082670285e-17,-5.194349863e-17,-5.295917585e-17,-5.386106943e-17,-5.46392848e-17,-5.528724457e-17],
				"kp": [0,-0.01944422264,-0.0545968322,-0.1019168499,-0.1581505519,-0.2203975842,-0.2861480025,-0.353293105,-0.4201151803,-0.4852618147,-0.5477100551,-0.6067249646,-0.6618162074,-0.7126953968,-0.759236122,-0.8014378691,-0.8393944884,-0.8732674225,-0.9032635967,-0.9296176573,-0.95257811],
				"rr": [0,-0.6420889358,0.04420653702,0.06281100014,0.07601159064,0.08329969547,0.08529212224,0.0830474972,0.07771965105,0.070384148,0.06195832208,0.05317359247,0.04457717259,0.03654965685,0.02933016648,0.02304386985,0.01772871002,0.01335952369,0.009868650367,0.007162741793,0.005135874505],
				"er": [0,0.04420653702,0.06281100014,0.07601159064,0.08329969547,0.08529212224,0.0830474972,0.07771965105,0.070384148,0.06195832208,0.05317359247,0.04457717259,0.03654965685,0.02933016648,0.02304386985,0.01772871002,0.01335952369,0.009868650367,0.007162741793,0.005135874505,0.003679303483],
				"ec": [0,0.04420653702,0.06281100014,0.07601159064,0.08329969547,0.08529212224,0.0830474972,0.07771965105,0.070384148,0.06195832208,0.05317359247,0.04457717259,0.03654965685,0.02933016648,0.02304386985,0.01772871002,0.01335952369,0.009868650367,0.007162741793,0.005135874505,0.003679303483],
				"nw": [0,-2.110603179,-1.967394268,-1.813333476,-1.654085691,-1.495528643,-1.342671194,-1.199274326,-1.067820279,-0.9496483337,-0.8451602201,-0.7540420459,-0.6754739612,-0.6083130356,-0.5512434326,-0.5028931867,-0.4619199388,-0.4270696011,-0.3972125885,-0.3713623112,-0.3486802958],
				"prem": [0,0.04129724971,0.03764347541,0.03379876583,0.03000411676,0.02641869377,0.02313829225,0.02021089028,0.01764969347,0.01544386039,0.01356708274,0.01198423236,0.01065632137,0.009544038877,0.008610125746,0.007820832467,0.007146679251,0.006562706761,0.006048373714,0.005587226546,0.005166438051],
				"pinf4": [0,0.02120818125,0.04796738744,0.0725912101,0.09157305673,0.08247607125,0.06098595951,0.03548985713,0.01051494278,-0.01158658354,-0.02974883452,-0.04368325309,-0.05356467726,-0.05982758525,-0.06303089195,-0.06376878554,-0.062613932,-0.06008381638,-0.05662351901,-0.05259987918,-0.04830321149],
				"eg": [0,1,-2.355835983e-16,-9.699530698e-17,2.930879158e-19,6.740043765e-17,1.108104538e-16,1.364554898e-16,1.493290284e-16,1.53429012e-16,1.518378261e-16,1.468519125e-16,1.4012161e-16,1.327834858e-16,1.25577614e-16,1.189472402e-16,1.13120789e-16,1.08177455e-16,1.040982323e-16,1.008044813e-16,9.818613607e-17],
				"interest": [0,0.118673974,0.1991653896,0.2447786857,0.2616270979,0.2565700917,0.2361477009,0.2060627722,0.1709764959,0.1344852207,0.09919924574,0.06687379338,0.03856038774,0.0147586575,-0.004443391151,-0.01924704316,-0.03004111396,-0.03732088898,-0.04162633595,-0.04349729075,-0.04344293204],
				"inflation": [0,0.02120818125,0.04796738744,0.0725912101,0.09157305673,0.08247607125,0.06098595951,0.03548985713,0.01051494278,-0.01158658354,-0.02974883452,-0.04368325309,-0.05356467726,-0.05982758525,-0.06303089195,-0.06376878554,-0.062613932,-0.06008381638,-0.05662351901,-0.05259987918,-0.04830321149],
				"inflationq": [0,0.08483272499,0.1070368248,0.09849529062,0.07592738652,0.04844478309,0.02107637782,-0.003489118892,-0.0239722709,-0.03996132218,-0.05157262611,-0.05922679319,-0.06349796755,-0.06501295416,-0.0643858529,-0.06217836756,-0.05887855336,-0.0548924917,-0.0505446634,-0.04608380827,-0.04169188259],
				"inflationql": [0,5.486263847e-17,0.08483272499,0.1070368248,0.09849529062,0.07592738652,0.04844478309,0.02107637782,-0.003489118892,-0.0239722709,-0.03996132218,-0.05157262611,-0.05922679319,-0.06349796755,-0.06501295416,-0.0643858529,-0.06217836756,-0.05887855336,-0.0548924917,-0.0505446634,-0.04608380827],
				"inflationql2": [0,-1.18472503e-17,-1.734453772e-16,0.08483272499,0.1070368248,0.09849529062,0.07592738652,0.04844478309,0.02107637782,-0.003489118892,-0.0239722709,-0.03996132218,-0.05157262611,-0.05922679319,-0.06349796755,-0.06501295416,-0.0643858529,-0.06217836756,-0.05887855336,-0.0548924917,-0.0505446634],
				"inflationqls": [0,4.301538817e-17,0.08483272499,0.1918695498,0.2055321154,0.1744226771,0.1243721696,0.06952116091,0.01758725893,-0.02746138979,-0.06393359308,-0.09153394829,-0.1107994193,-0.1227247607,-0.1285109217,-0.1293988071,-0.1265642205,-0.1210569209,-0.1137710451,-0.1054371551,-0.09662847167],
				"outputgap": [0,1.082036582,0.9334702897,0.7833519766,0.6408839302,0.5118187504,0.3992295397,0.3042036596,0.2264334351,0.1646976469,0.1172388396,0.08204733817,0.05706549105,0.04032628979,0.03003991395,0.02464044711,0.02280335104,0.02344251504,0.02569397143,0.02889178479,0.03254023368],
				"output": [0,1.082036582,0.9334702897,0.7833519766,0.6408839302,0.5118187504,0.3992295397,0.3042036596,0.2264334351,0.1646976469,0.1172388396,0.08204733817,0.05706549105,0.04032628979,0.03003991395,0.02464044711,0.02280335104,0.02344251504,0.02569397143,0.02889178479,0.03254023368],
				"fispol": [0,1,-1.311212839e-16,-6.082609391e-17,-1.125603059e-17,2.315397763e-17,4.56510084e-17,5.920606821e-17,6.632036544e-17,6.899700283e-17,6.878099435e-17,6.682409525e-17,6.395474377e-17,6.074424687e-17,5.756543792e-17,5.464252602e-17,5.209211562e-17,4.995601633e-17,4.822677162e-17,4.686695419e-17,4.582328157e-17],
				"neww": [0,3.942465844e-32,1.26480647e-16,1.256006739e-16,1.180664884e-16,1.086391373e-16,9.907789209e-17,8.997513346e-17,8.152369038e-17,7.377098065e-17,6.670649951e-17,6.029439658e-17,5.448730938e-17,4.92332749e-17,4.447968467e-17,4.01757032e-17,3.627373453e-17,3.27302357e-17,2.950606764e-17,2.656652197e-17,2.388113028e-17]
			}
		}
	}
}
