{
	"model": "US_YR13AL",
	"rule": "GR",
	"data": {
		"AC": {
			"ewma": [1,0.007009963746,-0.03608509579,0.002414592649,-0.01029918911,0.009617359913,-0.004353175731,-0.004573632183,-0.02299700846,0.0151408238,-0.008251552019,-0.007074747801,0.0007227151597,0.005507789759,-0.02868908996,0.01384628583,-0.0001409399731,-0.013880904,0.002991821711,-0.006992171758,-0.01646148905],
			"epinfma": [1,-0.01431737668,-0.01542516127,-0.01057560403,-0.01925017066,0.00160876747,0.001933305528,0.01043153415,-0.0101630177,0.006511091272,0.004731211997,-0.0006270209432,-0.005254823186,-0.02098411702,-0.006549524317,-0.001054191183,0.0003694002255,0.006416812534,0.0002288259417,0.01371750449,0.005290297117],
			"mc": [1,0.8305339872,0.7065231555,0.5974731007,0.5161508225,0.4418727746,0.389370308,0.3456696287,0.3161213252,0.2940315399,0.2730107215,0.2633327955,0.251985139,0.2498145327,0.246183869,0.2470703976,0.2548022063,0.2535412055,0.2479260767,0.2361276482,0.2222345443],
			"zcap": [1,0.9722287969,0.9445127581,0.9167710455,0.8889238813,0.8603537914,0.832745665,0.8060851053,0.780563694,0.756749652,0.7333774682,0.71105996,0.6887527488,0.6671805779,0.6465150712,0.6271566334,0.6081247321,0.5885118738,0.5694977585,0.5512417144,0.5341201154],
			"rk": [1,0.9722287969,0.9445127581,0.9167710455,0.8889238813,0.8603537914,0.832745665,0.8060851053,0.780563694,0.756749652,0.7333774682,0.71105996,0.6887527488,0.6671805779,0.6465150712,0.6271566334,0.6081247321,0.5885118738,0.5694977585,0.5512417144,0.5341201154],
			"k": [1,0.9362236618,0.8739770908,0.8119532336,0.7573718704,0.7050549861,0.6611018166,0.6211943665,0.5898705502,0.5611690795,0.535233741,0.5119475689,0.4899812414,0.4743431908,0.4595292395,0.4432482319,0.4298077833,0.4166477601,0.4056479784,0.3959082473,0.3843714796],
			"pk": [1,0.5701693741,0.3792150498,0.2457578177,0.1982134418,0.1461331892,0.1186020161,0.08926787775,0.08576032422,0.08462301654,0.08767052305,0.08256514592,0.07622564083,0.07040251527,0.07949941723,0.0689459766,0.05912150385,0.05458126433,0.05400071923,0.0494044815,0.04772816659],
			"c": [1,0.9367622262,0.8890028482,0.8388594766,0.8010641479,0.7557488628,0.7199491538,0.6841927696,0.6580875347,0.6383533962,0.6198983453,0.6041812129,0.5892426712,0.580098797,0.5656642547,0.5486911767,0.5339179855,0.5208403912,0.5096303198,0.4970504796,0.4862107959],
			"inve": [1,0.9367574372,0.8848098305,0.8336617586,0.7924725172,0.7486086399,0.7094973327,0.6719408362,0.6455584854,0.6182859515,0.5906006962,0.5646599046,0.5378260815,0.5155189266,0.4940878491,0.4668995153,0.4467555832,0.4266746289,0.4128263927,0.3974606532,0.381676943],
			"y": [1,0.934284811,0.8665306063,0.7954254448,0.7291778055,0.6667774622,0.6108551217,0.5595924769,0.5169182305,0.4783628066,0.4437991752,0.4139536574,0.3854346857,0.3634481915,0.3435827999,0.3212950207,0.3037475287,0.2899790361,0.2807264558,0.2725410841,0.2609708128],
			"lab": [1,0.8947064759,0.7972657116,0.7050300238,0.6240370054,0.5508144049,0.4923067754,0.4429725575,0.4059992258,0.3752379503,0.3479906715,0.3257780783,0.3034060926,0.2862800946,0.2713837603,0.2532308414,0.2384790718,0.2246727595,0.2128791887,0.2012332105,0.1884776111],
			"pinf": [1,0.600497908,0.5375143629,0.4329315144,0.4027834433,0.3485253058,0.336089476,0.3000024441,0.2949224685,0.2839821435,0.2763451564,0.275295935,0.2563350788,0.259322236,0.2582003299,0.2461283202,0.2521456853,0.2397278062,0.2229294228,0.2187450938,0.2109156213],
			"w": [1,0.9474932473,0.8988738275,0.8495412878,0.8055465564,0.7613922517,0.7229092297,0.6869616962,0.6578888611,0.6325656113,0.6101355543,0.590997211,0.5729785315,0.5580773844,0.5415432192,0.5251789354,0.5108413295,0.4941645902,0.4790841731,0.4649239829,0.4534453492],
			"r": [1,0.9489279269,0.8790169282,0.7950640465,0.7089832971,0.6301069043,0.5622142868,0.5027019938,0.4541901186,0.4137727806,0.3841895631,0.3593010854,0.3391016934,0.3252042576,0.3151796456,0.3022013459,0.2911204308,0.2780714897,0.2656565622,0.2557890899,0.2478863366],
			"a": [1,0.9482067242,0.9049114067,0.8628417536,0.8230565536,0.7858563994,0.7527816366,0.7226907297,0.6924533467,0.6645463508,0.6364454218,0.6105246453,0.5855877749,0.5642241566,0.5434218874,0.5244466329,0.5077954549,0.4907229889,0.4739832767,0.457206216,0.4411647994],
			"b": [1,0.3721428478,0.1541365968,0.06811484417,0.02200614878,0.01188977652,-0.004708057703,-0.006970515654,-0.0306014558,-0.01971462227,-0.00791934918,-0.007460537088,-0.008537173474,-0.0140773982,0.001909858443,-0.0100065803,-0.01319666436,-0.02354640973,-0.02585133588,-0.03044365147,-0.01952364559],
			"g": [1,0.8804798956,0.7889426857,0.7052023079,0.6279415744,0.5590140212,0.500722599,0.4444260697,0.3945903528,0.3502881225,0.309615797,0.2723155763,0.2361084786,0.2064708624,0.1775920528,0.1492433307,0.1275477295,0.1105944302,0.09660912419,0.08753170989,0.0774257841],
			"qs": [1,0.3836828823,0.1340083658,0.04079115927,0.01305834033,0.006566809292,0.009462296705,0.008061299163,-0.0009723417937,-0.01700380389,-0.03064767428,-0.009933251249,-0.003604934335,-0.01034007153,-0.0008021072724,-0.02157455675,-0.02576896945,-0.01559901056,-0.01245098709,-0.01823661117,-0.007308098614],
			"spinf": [1,-0.1565134337,-0.05588029184,-0.01771048552,-0.02000513343,0.004651692813,0.002634526935,0.01342784835,-0.01226660011,0.007964093065,0.005515095167,0.001340057982,-0.000707134998,-0.01807615278,-0.003269071452,0.002059098825,-4.373226619e-05,0.007853544006,-0.00216496144,0.01268001731,0.004089267478],
			"sw": [1,0.1180872844,0.02892959808,0.03285660422,0.008242386117,0.01714583779,-0.0006730961203,-0.005161602518,-0.02204950455,0.01073030311,-0.009993900094,-0.009029997672,-0.001435116168,0.001498644847,-0.0275835596,0.008894172549,-0.002872033295,-0.01576743098,-0.0009043740255,-0.01124175616,-0.020950479],
			"kp": [1,0.9764659111,0.9526410041,0.9284893679,0.9042305534,0.8798324411,0.8553233568,0.8309967147,0.8068060742,0.7829515592,0.7586617659,0.7346989482,0.7104912398,0.6876661654,0.6656325266,0.6442510587,0.6241339105,0.6043030249,0.5859982215,0.5687316895,0.5527517464],
			"rr": [1,-0.1282890031,-0.07574721062,-0.04737075081,-0.005860725719,0.01689251383,0.007178040805,0.02488277108,0.001403600059,0.01548022414,0.02399542361,0.01998258497,0.01488143997,-0.0004569661695,0.03450794749,0.009630172869,0.01264452712,0.008389800885,0.01210898308,0.01201350192,0.004487827756],
			"er": [1,0.4415646843,0.2329696045,0.1283581054,0.07008611048,0.0443683129,0.0184918346,0.005175239504,-0.02163378049,-0.01956238286,-0.01205849375,-0.01178457322,-0.01186768492,-0.0110268426,0.002726138339,-0.00506185717,-0.008629445395,-0.02080387472,-0.0244439566,-0.03337945236,-0.02436637444],
			"ec": [1,0.4415646843,0.2329696045,0.1283581054,0.07008611048,0.0443683129,0.0184918346,0.005175239504,-0.02163378049,-0.01956238286,-0.01205849375,-0.01178457322,-0.01186768492,-0.0110268426,0.002726138339,-0.00506185717,-0.008629445395,-0.02080387472,-0.0244439566,-0.03337945236,-0.02436637444],
			"nw": [1,0.8103848522,0.7067762232,0.6174656347,0.5638505323,0.5016024688,0.454592405,0.4045411406,0.3711109849,0.3384540611,0.3118045564,0.2837968975,0.2597123611,0.2364827819,0.2195410685,0.1924547857,0.1683649477,0.1476770967,0.1299391698,0.1120329979,0.0988877339],
			"prem": [1,0.8692903654,0.7855316249,0.7069809105,0.6517477679,0.5897701779,0.5391496745,0.4857806587,0.445761267,0.4065257951,0.3727301417,0.339682768,0.3115999766,0.2842774636,0.2619637379,0.2332771569,0.2072356719,0.1844814356,0.1640470141,0.1443539352,0.128452272],
			"pinf4": [1,0.8872186781,0.7847205198,0.6673357126,0.5643950429,0.4907841379,0.4424638817,0.4013635606,0.3772494529,0.355931973,0.3450759011,0.3351791223,0.3251866231,0.3220993572,0.3219328091,0.3123889382,0.3081582088,0.2947631374,0.2817602954,0.2729945072,0.2664120741],
			"eg": [1,-0.009926043344,0.01060357106,0.009476756182,0.019664491,-0.02311583543,0.006071473799,0.003914920052,0.003701296133,0.0005868109047,-0.009555771642,0.007833461166,-0.004949519622,-0.007315525559,-0.003446817365,0.006961061352,-0.01455279658,-0.006397347648,-0.01569918878,0.003005558283,0.006717912613],
			"interest": [1,0.9489279269,0.8790169282,0.7950640465,0.7089832971,0.6301069043,0.5622142868,0.5027019938,0.4541901186,0.4137727806,0.3841895631,0.3593010854,0.3391016934,0.3252042576,0.3151796456,0.3022013459,0.2911204308,0.2780714897,0.2656565622,0.2557890899,0.2478863366],
			"inflation": [1,0.8872186781,0.7847205198,0.6673357126,0.5643950429,0.4907841379,0.4424638817,0.4013635606,0.3772494529,0.355931973,0.3450759011,0.3351791223,0.3251866231,0.3220993572,0.3219328091,0.3123889382,0.3081582088,0.2947631374,0.2817602954,0.2729945072,0.2664120741],
			"inflationq": [1,0.600497908,0.5375143629,0.4329315144,0.4027834433,0.3485253058,0.336089476,0.3000024441,0.2949224685,0.2839821435,0.2763451564,0.275295935,0.2563350788,0.259322236,0.2582003299,0.2461283202,0.2521456853,0.2397278062,0.2229294228,0.2187450938,0.2109156213],
			"inflationql": [1,0.7690425156,0.6192697137,0.5237006423,0.4444007629,0.3930433703,0.3590290815,0.3312891031,0.3038515107,0.2922114729,0.2865642924,0.2754807366,0.2661374977,0.2644468216,0.266445252,0.265521995,0.2623901833,0.2480213801,0.2314841183,0.2228697196,0.2149234551],
			"inflationql2": [1,0.7838887359,0.6363701206,0.5261560792,0.4448862209,0.3917275385,0.3498174395,0.3200676021,0.2939977304,0.2830819136,0.2710806887,0.2604219355,0.2507297484,0.2501264854,0.2562083853,0.2600430498,0.2528897209,0.2382221261,0.2220382347,0.2095387401,0.2074682555],
			"inflationqls": [1,0.871682084,0.6993534341,0.5810339781,0.4923618496,0.4310305451,0.3905813297,0.3566903998,0.3310705524,0.3151406495,0.3063075671,0.2952529341,0.284369618,0.2840180192,0.2868175729,0.2853787905,0.2798758204,0.2645730798,0.2490323999,0.2366802643,0.2318131997],
			"outputgap": [1,0.8854264701,0.7803066926,0.6792174706,0.5912747247,0.5108663253,0.4468700337,0.3920262688,0.3503962407,0.3161705895,0.2857811592,0.2603991981,0.2352224041,0.2175995603,0.2027831059,0.1850241758,0.1720072168,0.1608789308,0.1521773637,0.1445054295,0.1354520125],
			"output": [1,0.934284811,0.8665306063,0.7954254448,0.7291778055,0.6667774622,0.6108551217,0.5595924769,0.5169182305,0.4783628066,0.4437991752,0.4139536574,0.3854346857,0.3634481915,0.3435827999,0.3212950207,0.3037475287,0.2899790361,0.2807264558,0.2725410841,0.2609708128],
			"fispol": [1,-0.009926043344,0.01060357106,0.009476756182,0.019664491,-0.02311583543,0.006071473799,0.003914920052,0.003701296133,0.0005868109047,-0.009555771642,0.007833461166,-0.004949519622,-0.007315525559,-0.003446817365,0.006961061352,-0.01455279658,-0.006397347648,-0.01569918878,0.003005558283,0.006717912613],
			"newv_long": [1,-0.008558691917,-0.0331935003,0.006234285079,-0.02270675171,-0.004798617356,-0.002247592172,0.005015042922,-0.01967776146,0.01840737068,-0.001014845703,0.003006825039,0.0005775099923,-0.02188529719,-0.02335008411,0.009442784595,-0.001797149958,0.004704309964,0.006126994699,0.007136366096,-0.003545667889],
			"newv_short": [1,-0.008558691917,-0.0331935003,0.006234285079,-0.02270675171,-0.004798617356,-0.002247592172,0.005015042922,-0.01967776146,0.01840737068,-0.001014845703,0.003006825039,0.0005775099923,-0.02188529719,-0.02335008411,0.009442784595,-0.001797149958,0.004704309964,0.006126994699,0.007136366096,-0.003545667889]
		},
		"VAR": {
			"ewma": 0.0283665452,
			"epinfma": 0.01924054277,
			"mc": 1.39246707,
			"zcap": 52.8081787,
			"rk": 1.29954419,
			"k": 8.557954261,
			"pk": 24.36990557,
			"c": 56.69993364,
			"inve": 365.1227678,
			"y": 9.452537881,
			"lab": 2.329939958,
			"pinf": 0.174872273,
			"w": 4.982031814,
			"r": 0.2876030366,
			"a": 2.132372563,
			"b": 2.091966454,
			"g": 0.8915138611,
			"qs": 0.1046708436,
			"spinf": 0.02000770801,
			"sw": 0.02878707988,
			"kp": 87.26418917,
			"rr": 12.73624871,
			"er": 2.960604944,
			"ec": 2.960604944,
			"nw": 486.0853246,
			"prem": 0.1370500023,
			"pinf4": 1.607060719,
			"eg": 0.1166733499,
			"interest": 4.601648586,
			"inflation": 1.607060719,
			"inflationq": 2.797956368,
			"inflationql": 2.058538823,
			"inflationql2": 1.895731757,
			"inflationqls": 7.140634187,
			"outputgap": 5.713880531,
			"output": 9.452537881,
			"fispol": 0.1166733499,
			"newv_long": 0.04857885295,
			"newv_short": 0.04857885295
		},
		"IRF": {
			"interest_": {
				"ewma": [0,-1.847001002e-17,-5.489196377e-17,-1.763545898e-17,-4.000951874e-17,3.532533869e-18,8.131322071e-18,-3.910877938e-17,-2.74211967e-18,2.401131397e-17,2.534295106e-18,1.413687214e-17,1.743825374e-17,-1.044117716e-17,-6.842440822e-18,6.186615621e-18,-7.525335184e-18,2.517448271e-17,4.439836144e-18,-6.077371447e-18,1.215068096e-17],
				"epinfma": [0,1.757726602e-17,5.976714669e-17,1.36795349e-17,3.796678699e-17,1.632220207e-18,-8.652978394e-18,3.696616288e-17,4.052660683e-18,-2.275011634e-17,-2.534295106e-18,-1.431196743e-17,-1.832785394e-17,8.901633259e-18,6.842440822e-18,-6.863038142e-18,9.361971438e-18,-2.349582223e-17,-5.032077075e-18,6.118209547e-18,-1.097014117e-17],
				"mc": [0,-0.01646682779,-0.02535885275,-0.02878554061,-0.02882037014,-0.02688279611,-0.02394193578,-0.02064067582,-0.01738368382,-0.01440434194,-0.0118166506,-0.009655109119,-0.00790462388,-0.006522200858,-0.005452037185,-0.004635476496,-0.004017108471,-0.00354808639,-0.003187527818,-0.002902668842,-0.002668271444],
				"zcap": [0,-0.04923705759,-0.07905380466,-0.08334896066,-0.07254679055,-0.05370066791,-0.03138999095,-0.008423400801,0.01360497807,0.03389946488,0.05216460026,0.0683988539,0.08275692394,0.09546156473,0.106750141,0.1168447912,0.1259380672,0.1341882536,0.1417203406,0.1486299485,0.1549884598],
				"rk": [0,-0.007723906766,-0.0124013141,-0.01307510304,-0.01138054697,-0.008424121435,-0.004924204966,-0.001321394202,0.002134237652,0.005317870705,0.00818315571,0.0107298526,0.01298222916,0.01497522927,0.01674608876,0.01832965489,0.01975613364,0.02105035538,0.02223192757,0.02331585032,0.02431332156],
				"k": [0,-0.04923705759,-0.08775657029,-0.1054291748,-0.110096461,-0.1072502812,-0.1005913499,-0.09248451596,-0.08434280289,-0.07692910351,-0.07058161743,-0.06537606123,-0.06123838896,-0.05802022379,-0.05554705138,-0.05364710258,-0.05216698678,-0.05097858697,-0.04998048496,-0.04909621682,-0.04827092168],
				"pk": [0,-0.7856097319,-0.5042726267,-0.3078450314,-0.175535535,-0.09056602229,-0.03871837829,-0.009029858318,0.006447604541,0.01323741108,0.01504172562,0.01425145714,0.01234366178,0.01017754285,0.008208163895,0.006636754587,0.005513689777,0.004806985826,0.004446219222,0.004349327424,0.004437801593],
				"c": [0,-0.1013385898,-0.1497068444,-0.1610080826,-0.1498687173,-0.1270714845,-0.09993788523,-0.07304942805,-0.04898810681,-0.02896313172,-0.01329610615,-0.001776030858,0.006092590619,0.01092422675,0.0133479324,0.01394659928,0.01322619612,0.01160471969,0.009413350939,0.006904509062,0.004263188257],
				"inve": [0,-0.2985175237,-0.4675687132,-0.5527050764,-0.5863709882,-0.5904272642,-0.5789126172,-0.5603939575,-0.5397775314,-0.5196212798,-0.5010465866,-0.4843494295,-0.4693952298,-0.4558629692,-0.443387372,-0.4316343674,-0.4203346093,-0.409292032,-0.3983787461,-0.3875235315,-0.3766983586],
				"y": [0,-0.06432898533,-0.1188257417,-0.1425271859,-0.1471943349,-0.1410543461,-0.1295878513,-0.1162302913,-0.1029808066,-0.09087886682,-0.08035426515,-0.07147286068,-0.06410244996,-0.05802011002,-0.05297810295,-0.04874137945,-0.04510630279,-0.04190749865,-0.03901765159,-0.0363435105,-0.03382022754],
				"lab": [0,-0.03831659665,-0.07157178557,-0.0858058453,-0.08831301966,-0.08419422989,-0.07683700217,-0.06835351219,-0.05996368539,-0.05229481341,-0.04560059531,-0.03991395566,-0.03514938941,-0.03116857487,-0.0278201891,-0.02496220203,-0.02247270486,-0.02025357851,-0.01822997861,-0.01634762931,-0.01456920672],
				"pinf": [0,-0.014676801,-0.02070761351,-0.02212382227,-0.02144162692,-0.01987299003,-0.01801645275,-0.01616904467,-0.01447197866,-0.01298266268,-0.01171272803,-0.01064941442,-0.009768148865,-0.009040069414,-0.008436445208,-0.007931111838,-0.007501624248,-0.007129595857,-0.006800546088,-0.006503477936,-0.006230334884],
				"w": [0,-0.01864436771,-0.02858609883,-0.0326984325,-0.03316398835,-0.03148017273,-0.02867855272,-0.02545239797,-0.02224487985,-0.01931641939,-0.01679786641,-0.01473225297,-0.01310677039,-0.01187641965,-0.01098077353,-0.01035524567,-0.009938148287,-0.009674653078,-0.009518578784,-0.009432737192,-0.009388393408],
				"r": [0,0.2460438988,0.1533497697,0.08809843633,0.04148568413,0.01008163408,-0.009880494185,-0.02172512345,-0.02805971621,-0.03080643512,-0.03132489013,-0.03054450402,-0.02907936844,-0.02731954503,-0.02550032726,-0.02375318793,-0.02214233522,-0.02069032401,-0.01939553822,-0.01824375859,-0.01721551642],
				"a": [0,0,4.097196638e-18,3.097748573e-19,2.445212186e-18,1.178070973e-17,1.101936976e-17,1.065720737e-17,1.017526367e-17,1.209438678e-17,1.30870474e-17,1.906308279e-17,1.58690604e-17,1.558988425e-17,1.532173825e-17,1.4824993e-17,1.442701843e-17,1.414202391e-17,1.329988857e-17,1.296202363e-17,1.262794195e-17],
				"b": [0,0,0,0,0,0,0,0,0,0,0,0,0,0,0,0,0,0,0,0,0],
				"g": [0,0,0,0,0,0,0,0,0,0,0,0,0,0,0,0,0,0,0,0,0],
				"qs": [0,0,0,0,0,0,0,0,0,0,0,0,0,0,0,0,0,0,0,0,0],
				"spinf": [0,1.757726602e-17,5.657863063e-17,1.81553624e-18,3.168172139e-17,-7.269946984e-18,-1.180309794e-17,3.752588484e-17,-2.473554405e-18,-2.557757355e-17,6.86093218e-19,-1.28197898e-17,-1.52532709e-17,1.321201729e-17,6.609593668e-18,-8.178907705e-18,1.018505877e-17,-2.493020205e-17,-1.229797093e-18,8.250039291e-18,-1.139651977e-17],
				"sw": [0,-8.48295131e-17,-2.044894517e-16,-1.158377697e-16,-1.440716091e-16,-7.971285968e-17,-4.501438552e-17,-1.108367135e-16,-6.178278697e-17,7.760925482e-18,-2.830629907e-18,2.118918179e-17,5.270640766e-17,3.879948852e-18,-1.274308446e-17,-2.573904945e-19,-2.491624634e-17,4.783156754e-17,2.587791659e-17,1.14017377e-17,3.402661983e-17],
				"kp": [0,-0.008702765626,-0.02208021412,-0.0375496705,-0.05354961328,-0.06920135898,-0.08406111516,-0.09794778096,-0.1108285684,-0.1227462177,-0.1337749151,-0.1439953129,-0.1534817885,-0.1622971924,-0.1704918938,-0.178105054,-0.1851668406,-0.1917008256,-0.1977261653,-0.2032593815,-0.208315697],
				"rr": [0,-0.7602761843,0.2973559668,0.2060274206,0.1376555614,0.08764464281,0.05294822492,0.02993956291,0.01533698866,0.006531889444,0.001580950255,-0.0009049572085,-0.001886999014,-0.002009871816,-0.00169132282,-0.00119060452,-0.0006592285794,-0.0001777032115,0.000218463759,0.0005207943658,0.0007357638031],
				"er": [0,0.2989444404,0.2051763924,0.1368856151,0.08690379498,0.05220328338,0.02917861254,0.01455810794,0.005736752191,0.0007718773837,-0.001726064569,-0.002718883058,-0.002851835986,-0.0025430797,-0.002052138879,-0.00153069613,-0.001059362482,-0.0006737051945,-0.0003822351516,-0.0001784945088,-4.889954111e-05],
				"ec": [0,0.2989444404,0.2051763924,0.1368856151,0.08690379498,0.05220328338,0.02917861254,0.01455810794,0.005736752191,0.0007718773837,-0.001726064569,-0.002718883058,-0.002851835986,-0.0025430797,-0.002052138879,-0.00153069613,-0.001059362482,-0.0006737051945,-0.0003822351516,-0.0001784945088,-4.889954111e-05],
				"nw": [0,-2.499095129,-2.099961527,-1.801207372,-1.582052164,-1.42107963,-1.300843923,-1.208237708,-1.133929403,-1.071526539,-1.016794632,-0.9670236717,-0.9205470973,-0.8763906938,-0.8340236986,-0.7931869741,-0.7537776515,-0.7157742018,-0.6791897949,-0.6440449651,-0.6103530569],
				"prem": [0,0.03278569228,0.0297062669,0.02734228336,0.0255394773,0.02409828753,0.02288222365,0.02180244967,0.02080387384,0.01985434648,0.01893671839,0.01804321163,0.01717155169,0.01632239585,0.01549769078,0.01469967953,0.01393034978,0.01319117123,0.01248301392,0.01180617209,0.01116044276],
				"pinf4": [0,-0.014676801,-0.03538441451,-0.05750823678,-0.0789498637,-0.08414605273,-0.08145489197,-0.07550011436,-0.0685304661,-0.06164013876,-0.05533641404,-0.04981678379,-0.045112954,-0.04117036073,-0.03789407791,-0.03517577532,-0.03290925071,-0.03099877715,-0.02936287803,-0.02793524413,-0.02666395477],
				"eg": [0,0,0,0,0,0,0,0,0,0,0,0,0,0,0,0,0,0,0,0,0],
				"interest": [0,0.9841755953,0.6133990786,0.3523937453,0.1659427365,0.04032653632,-0.03952197674,-0.0869004938,-0.1122388649,-0.1232257405,-0.1252995605,-0.1221780161,-0.1163174738,-0.1092781801,-0.102001309,-0.09501275173,-0.08856934089,-0.08276129604,-0.07758215288,-0.07297503435,-0.06886206567],
				"inflation": [0,-0.014676801,-0.03538441451,-0.05750823678,-0.0789498637,-0.08414605273,-0.08145489197,-0.07550011436,-0.0685304661,-0.06164013876,-0.05533641404,-0.04981678379,-0.045112954,-0.04117036073,-0.03789407791,-0.03517577532,-0.03290925071,-0.03099877715,-0.02936287803,-0.02793524413,-0.02666395477],
				"inflationq": [0,-0.05870720401,-0.08283045403,-0.08849528908,-0.08576650768,-0.07949196011,-0.07206581099,-0.06467617867,-0.05788791464,-0.05193065073,-0.04685091211,-0.04259765769,-0.03907259546,-0.03616027765,-0.03374578083,-0.03172444735,-0.03000649699,-0.02851838343,-0.02720218435,-0.02601391174,-0.02492133953],
				"inflationql": [0,0,-0.05870720401,-0.08283045403,-0.08849528908,-0.08576650768,-0.07949196011,-0.07206581099,-0.06467617867,-0.05788791464,-0.05193065073,-0.04685091211,-0.04259765769,-0.03907259546,-0.03616027765,-0.03374578083,-0.03172444735,-0.03000649699,-0.02851838343,-0.02720218435,-0.02601391174],
				"inflationql2": [0,0,0,-0.05870720401,-0.08283045403,-0.08849528908,-0.08576650768,-0.07949196011,-0.07206581099,-0.06467617867,-0.05788791464,-0.05193065073,-0.04685091211,-0.04259765769,-0.03907259546,-0.03616027765,-0.03374578083,-0.03172444735,-0.03000649699,-0.02851838343,-0.02720218435],
				"inflationqls": [0,0,-0.05870720401,-0.141537658,-0.1713257431,-0.1742617968,-0.1652584678,-0.1515577711,-0.1367419897,-0.1225640933,-0.1098185654,-0.09878156284,-0.0894485698,-0.08167025315,-0.07523287311,-0.06990605848,-0.06547022818,-0.06173094434,-0.05852488042,-0.05572056778,-0.0532160961],
				"outputgap": [0,-0.06432898533,-0.1188257417,-0.1425271859,-0.1471943349,-0.1410543461,-0.1295878513,-0.1162302913,-0.1029808066,-0.09087886682,-0.08035426515,-0.07147286068,-0.06410244996,-0.05802011002,-0.05297810295,-0.04874137945,-0.04510630279,-0.04190749865,-0.03901765159,-0.0363435105,-0.03382022754],
				"output": [0,-0.06432898533,-0.1188257417,-0.1425271859,-0.1471943349,-0.1410543461,-0.1295878513,-0.1162302913,-0.1029808066,-0.09087886682,-0.08035426515,-0.07147286068,-0.06410244996,-0.05802011002,-0.05297810295,-0.04874137945,-0.04510630279,-0.04190749865,-0.03901765159,-0.0363435105,-0.03382022754],
				"fispol": [0,0,0,0,0,0,0,0,0,0,0,0,0,0,0,0,0,0,0,0,0],
				"newv_long": [0,-8.927440084e-19,4.875182925e-18,-3.955924086e-18,-2.042731747e-18,5.164754076e-18,-5.216563226e-19,-2.142616496e-18,1.310541013e-18,1.26119763e-18,0,-1.750952885e-19,-8.896001985e-19,-1.539543898e-18,0,-6.764225214e-19,1.836636253e-18,1.678660484e-18,-5.922409315e-19,4.083809967e-20,1.180539788e-18],
				"newv_short": [0,-8.927440084e-19,4.875182925e-18,-3.955924086e-18,-2.042731747e-18,5.164754076e-18,-5.216563226e-19,-2.142616496e-18,1.310541013e-18,1.26119763e-18,0,-1.750952885e-19,-8.896001985e-19,-1.539543898e-18,0,-6.764225214e-19,1.836636253e-18,1.678660484e-18,-5.922409315e-19,4.083809967e-20,1.180539788e-18]
			}
		}
	}
}
