{
	"model": "US_YR13AL",
	"rule": "Model",
	"data": {
		"AC": {
			"ewma": [1,0.01260469554,-0.03442576279,-0.002442681721,-0.00310967788,0.008276450255,-0.009260805235,0.001098190148,-0.03253438659,0.01234575899,-0.00240564709,-0.007360327598,-0.004447037576,-0.002275155309,-0.0281629201,0.01530382223,-0.002764337201,-0.01411496714,0.003607066369,-0.007517277569,-0.02002137571],
			"epinfma": [1,-0.01651756561,-0.01666070625,-0.02790447782,-0.02073380248,-0.009835504614,0.01453179476,0.01620899033,-0.01163018016,-0.00480232796,0.004263001576,0.002196978519,-0.009045431653,-0.0216515781,0.0004480862972,-0.003960615907,0.007595661132,0.007027628934,-0.0001111782472,0.00705527224,-0.003893858178],
			"mc": [1,0.8356833506,0.7085683307,0.5920743052,0.5137743577,0.4408700844,0.3876645183,0.3379349493,0.2974457846,0.2571512381,0.2219756752,0.1909343139,0.1681176417,0.1569188719,0.1591446946,0.1652513492,0.1701937807,0.1660243387,0.1598894716,0.148295129,0.1393347456],
			"zcap": [1,0.9499418829,0.9068281936,0.8659536825,0.8318782591,0.7955453738,0.7583216621,0.7210221184,0.6874449067,0.6540866465,0.6249651712,0.596893183,0.5695917247,0.5481653306,0.5304444086,0.5134866595,0.4954239186,0.4775518293,0.4604025252,0.4432153982,0.4269970137],
			"rk": [1,0.9499418829,0.9068281936,0.8659536825,0.8318782591,0.7955453738,0.7583216621,0.7210221184,0.6874449067,0.6540866465,0.6249651712,0.596893183,0.5695917247,0.5481653306,0.5304444086,0.5134866595,0.4954239186,0.4775518293,0.4604025252,0.4432153982,0.4269970137],
			"k": [1,0.8967860628,0.8099475429,0.7223982086,0.6559352976,0.593535437,0.5400917133,0.4916000428,0.4547655945,0.4221557886,0.3925770815,0.3642790962,0.3384669784,0.3260970544,0.3169752088,0.3065337121,0.2923390061,0.2798583743,0.2686176053,0.2563511117,0.2444349606],
			"pk": [1,0.5772448679,0.4101399753,0.2537896049,0.2039643226,0.147210045,0.1220378605,0.09416956324,0.0820559212,0.06630326704,0.05647164965,0.04900283863,0.0365707428,0.04867093928,0.05616690975,0.06461330353,0.06603089214,0.06303228952,0.04660023406,0.04185161845,0.04225869101],
			"c": [1,0.8643346924,0.8008841813,0.7117529314,0.6655753849,0.6101689761,0.5775432602,0.5419122404,0.5240852409,0.4905752257,0.4678382642,0.4510940877,0.424672423,0.4171453225,0.4026415136,0.3983218621,0.3908446296,0.3791363618,0.3643018927,0.3521216857,0.3382645048],
			"inve": [1,0.883981857,0.8109631576,0.7318949132,0.6768993387,0.626148487,0.5887571243,0.5573944114,0.5389715218,0.505495775,0.4736669373,0.4439487207,0.4147220435,0.4052517153,0.3895811212,0.3782830559,0.3599920092,0.3406296458,0.3226104486,0.304522088,0.2877613803],
			"y": [1,0.8860642411,0.7908683191,0.6911738303,0.6123791776,0.542445292,0.4833152245,0.4304011955,0.3912424996,0.355202602,0.3187479076,0.2846229239,0.2492961292,0.231655464,0.2134350945,0.1996644995,0.1829331968,0.1708832107,0.1563542435,0.1414235491,0.1249433332],
			"lab": [1,0.8670120907,0.76410421,0.6548965345,0.5691187967,0.489601836,0.4241955522,0.3694657576,0.329095448,0.2895601261,0.2528577254,0.2198050927,0.1895442334,0.1797636938,0.1685197076,0.1669783081,0.1588252697,0.1529311034,0.144987638,0.1331690493,0.1205385095],
			"pinf": [1,0.5806410562,0.5544867833,0.3978778546,0.3899147985,0.3132943331,0.3081159121,0.2535399139,0.2481338143,0.2067452203,0.1874842169,0.17455137,0.155639418,0.1537570162,0.1632803112,0.1709749762,0.178312281,0.1613056274,0.1510747404,0.1421751188,0.1418038301],
			"w": [1,0.9120672153,0.8388186806,0.7712092685,0.7250534486,0.6794182452,0.6429740203,0.6082377913,0.5822912791,0.5520808989,0.5231866571,0.4907291601,0.4634500464,0.4442839075,0.4346074104,0.4221598103,0.4097900564,0.3915902106,0.376248297,0.3613264936,0.3493833571],
			"r": [1,0.9367271816,0.8876550634,0.8320203532,0.7819996709,0.7299076604,0.6791199986,0.6283415349,0.5832813423,0.5405658503,0.5017563338,0.4670632909,0.4372418211,0.4116942429,0.3915815688,0.3699630653,0.350345192,0.3338474285,0.3184771609,0.3041160103,0.2909795362],
			"a": [1,0.9390548617,0.8890444114,0.844127033,0.8024963437,0.7637607872,0.7287023911,0.6939161941,0.6613905439,0.6321357832,0.6042745399,0.5770849917,0.5522999818,0.5289585421,0.5096674883,0.4923928794,0.4789079294,0.4660693726,0.4497965339,0.4317992789,0.4162302694],
			"b": [1,0.3583908421,0.1517156242,0.07353873014,0.03260330023,0.03065990358,0.00358946351,0.004146323591,-0.02765406079,-0.0231401424,-0.008908325473,-0.005182769301,-0.02245021163,-0.02464099241,-0.003438423035,-0.008617178538,-0.007576641834,-0.0208814115,-0.02188388482,-0.02937114765,-0.01583933058],
			"g": [1,0.8628763743,0.7605989903,0.6683759134,0.5833126695,0.5111081689,0.4532592376,0.3999674394,0.3510620634,0.3059809461,0.2671828381,0.2311535154,0.2006289443,0.177313975,0.1539504463,0.1310113455,0.1124863682,0.09741241603,0.08286290042,0.07108538739,0.05591491508],
			"qs": [1,0.3787936522,0.1310170753,0.04404068158,0.01796430921,0.02265165498,0.0213581384,0.006587780831,-0.006917614867,-0.01175124781,-0.01205507703,-0.001284174653,-0.004185741322,-0.01490437284,-0.01378459097,-0.018637977,-0.01708226953,-0.01011315356,-0.01006317097,-0.01525715285,-0.00693636303],
			"spinf": [1,-0.1553993226,-0.0531333736,-0.0330553816,-0.01795498321,-0.00736461854,0.01563649609,0.0198303136,-0.01367448411,-0.003832173495,0.006841402681,0.00503220818,-0.00486086015,-0.01792232491,0.004622138562,-0.001882337315,0.007744588686,0.006428291071,-0.001133485953,0.007894522252,-0.003784734515],
			"sw": [1,0.122549327,0.02916638369,0.0282607153,0.01537484547,0.01605819624,-0.004816388609,0.001407915839,-0.03026798355,0.008308204158,-0.005099345071,-0.009543589119,-0.0071675095,-0.005943085989,-0.02780277725,0.009151069125,-0.005880924201,-0.01630049802,-0.001014919001,-0.01229771974,-0.02498107306],
			"kp": [1,0.9680082322,0.9373756723,0.9078693117,0.8799148829,0.8532356183,0.8268444194,0.8015871337,0.7777637439,0.7547055424,0.7312507719,0.7088756864,0.687568633,0.667274897,0.6485870721,0.6263266136,0.6037005204,0.5824787038,0.5617656887,0.5416722663,0.5205645424],
			"rr": [1,-0.1095666358,-0.04319512702,-0.06241047455,0.007321783207,0.01208119165,0.02158857562,0.04211032141,0.005127622521,0.02151721162,0.03040916005,0.02657051429,0.007953492055,0.01218711393,0.03805331007,0.01104295164,0.03505710389,0.0238215942,0.02125852886,0.01501924434,0.01986007781],
			"er": [1,0.4469725785,0.2753227391,0.1669506359,0.126503025,0.09113734485,0.06190339379,0.03688096634,0.004635222027,-0.003207289515,-0.0001102739425,-1.378172821e-05,-0.01146501381,-0.01853464869,0.001452048138,-0.0005281710929,-0.003222352155,-0.01107608877,-0.01809435397,-0.02517086289,-0.01345811859],
			"ec": [1,0.4469725785,0.2753227391,0.1669506359,0.126503025,0.09113734485,0.06190339379,0.03688096634,0.004635222027,-0.003207289515,-0.0001102739425,-1.378172821e-05,-0.01146501381,-0.01853464869,0.001452048138,-0.0005281710929,-0.003222352155,-0.01107608877,-0.01809435397,-0.02517086289,-0.01345811859],
			"nw": [1,0.7651635396,0.6595339961,0.5436837642,0.4919736083,0.4329246511,0.3971177207,0.3637001273,0.3426267751,0.3113324468,0.2807719868,0.2558443897,0.2246362122,0.2186895287,0.2050033643,0.204915328,0.1903777722,0.1781676956,0.1557755833,0.1428505183,0.1356654442],
			"prem": [1,0.810279948,0.7185574054,0.6130424693,0.5614728132,0.5031793003,0.4664075038,0.4316350498,0.4075141696,0.372491139,0.3374726459,0.3088400262,0.2742429223,0.2644477966,0.2463612023,0.2435228956,0.2264698222,0.2119690209,0.1900564613,0.175953418,0.1673130803],
			"pinf4": [1,0.8516169816,0.7397822353,0.6062942265,0.5076035034,0.4275033109,0.368781758,0.3154222692,0.2762990355,0.2323298111,0.2004436807,0.1783007278,0.1632587513,0.1594885469,0.1647288271,0.1693289363,0.1728680776,0.1696030465,0.1662771221,0.1618925977,0.1604798811],
			"eg": [1,-0.01313780192,0.006214933673,0.02071774,0.01646361206,-0.02693205825,0.01009961399,-0.003056031093,0.01228502585,0.000145477578,0.0007959604023,-0.005321623772,-0.009539681631,-0.0006494708938,-0.01253842275,-0.001750951063,-0.01951382508,-0.008813469322,-0.003827784465,0.01789068372,-0.007873228176],
			"interest": [1,0.9367271816,0.8876550634,0.8320203532,0.7819996709,0.7299076604,0.6791199986,0.6283415349,0.5832813423,0.5405658503,0.5017563338,0.4670632909,0.4372418211,0.4116942429,0.3915815688,0.3699630653,0.350345192,0.3338474285,0.3184771609,0.3041160103,0.2909795362],
			"inflation": [1,0.8516169816,0.7397822353,0.6062942265,0.5076035034,0.4275033109,0.368781758,0.3154222692,0.2762990355,0.2323298111,0.2004436807,0.1783007278,0.1632587513,0.1594885469,0.1647288271,0.1693289363,0.1728680776,0.1696030465,0.1662771221,0.1618925977,0.1604798811],
			"inflationq": [1,0.5806410562,0.5544867833,0.3978778546,0.3899147985,0.3132943331,0.3081159121,0.2535399139,0.2481338143,0.2067452203,0.1874842169,0.17455137,0.155639418,0.1537570162,0.1632803112,0.1709749762,0.178312281,0.1613056274,0.1510747404,0.1421751188,0.1418038301],
			"inflationql": [1,0.7972658811,0.6182646683,0.4989415162,0.4181057268,0.3683515558,0.3231619805,0.2785704329,0.2400003265,0.2075791601,0.1821392686,0.161841048,0.1404286459,0.1376028457,0.1500225794,0.1563738813,0.1565785865,0.1586985302,0.1528025758,0.1394780012,0.1386311305],
			"inflationql2": [1,0.8131972061,0.6393991951,0.4944554806,0.4112183281,0.3589045291,0.3076193196,0.2582956667,0.2141109798,0.1817385445,0.1546260922,0.1364245808,0.1219404233,0.1150635654,0.1228761202,0.132706508,0.139229976,0.1395354867,0.1328612108,0.1274005247,0.12415007],
			"inflationqls": [1,0.8654377791,0.678351129,0.5387455771,0.4483637397,0.3892269581,0.3366162483,0.2881981715,0.2456171353,0.2101381856,0.1811814124,0.1589304814,0.1413144097,0.138406823,0.1460754705,0.1533312251,0.1575301582,0.1577052428,0.1527350355,0.1442800536,0.1418288625],
			"outputgap": [1,0.8641582201,0.7561246695,0.6404264874,0.5492523185,0.4644803759,0.3933285583,0.3316097687,0.2854693857,0.2432574679,0.2051053759,0.1705495693,0.1387555796,0.1282160449,0.1169852055,0.1132858793,0.1042232792,0.09901230119,0.09197229076,0.08148027145,0.07021015848],
			"output": [1,0.8860642411,0.7908683191,0.6911738303,0.6123791776,0.542445292,0.4833152245,0.4304011955,0.3912424996,0.355202602,0.3187479076,0.2846229239,0.2492961292,0.231655464,0.2134350945,0.1996644995,0.1829331968,0.1708832107,0.1563542435,0.1414235491,0.1249433332],
			"fispol": [1,-0.01313780192,0.006214933673,0.02071774,0.01646361206,-0.02693205825,0.01009961399,-0.003056031093,0.01228502585,0.000145477578,0.0007959604023,-0.005321623772,-0.009539681631,-0.0006494708938,-0.01253842275,-0.001750951063,-0.01951382508,-0.008813469322,-0.003827784465,0.01789068372,-0.007873228176],
			"newv_long": [1,-0.0003622496405,-0.04037329084,-0.00395261201,-0.01631371092,-0.007748717325,0.0007290108412,0.008802987576,-0.02798952152,0.009661040562,-0.002019102867,0.006634143005,-0.005905289216,-0.02702663508,-0.01610214538,0.00598074121,0.003621082077,0.01268678556,0.0007213495761,0.002854655586,-0.01057752099],
			"newv_short": [1,-0.0003622496405,-0.04037329084,-0.00395261201,-0.01631371092,-0.007748717325,0.0007290108412,0.008802987576,-0.02798952152,0.009661040562,-0.002019102867,0.006634143005,-0.005905289216,-0.02702663508,-0.01610214538,0.00598074121,0.003621082077,0.01268678556,0.0007213495761,0.002854655586,-0.01057752099]
		},
		"VAR": {
			"ewma": 0.02900435188,
			"epinfma": 0.01975098692,
			"mc": 2.715036275,
			"zcap": 56.23526777,
			"rk": 1.383880628,
			"k": 10.96967139,
			"pk": 63.00662718,
			"c": 77.03463838,
			"inve": 568.2955981,
			"y": 12.64103028,
			"lab": 4.220672435,
			"pinf": 0.3803310749,
			"w": 5.656130781,
			"r": 0.1982795427,
			"a": 2.054345388,
			"b": 2.136905338,
			"g": 0.8270459033,
			"qs": 0.1081343697,
			"spinf": 0.02053903538,
			"sw": 0.02949026662,
			"kp": 85.81571851,
			"rr": 35.62269886,
			"er": 3.534627974,
			"ec": 3.534627974,
			"nw": 982.9293849,
			"prem": 0.2328984675,
			"pinf4": 3.416298059,
			"eg": 0.1187728182,
			"interest": 3.172472683,
			"inflation": 3.416298059,
			"inflationq": 6.085297199,
			"inflationql": 4.315902905,
			"inflationql2": 3.904638545,
			"inflationqls": 15.21591204,
			"outputgap": 10.88588172,
			"output": 12.64103028,
			"fispol": 0.1187728182,
			"newv_long": 0.04922496288,
			"newv_short": 0.04922496288
		},
		"IRF": {
			"interest_": {
				"ewma": [0,2.780974991e-17,-6.576290831e-16,-8.169635814e-17,-2.214152972e-16,1.80291366e-16,-6.330597296e-17,4.973205605e-17,-6.911699084e-17,-6.479394949e-17,5.464422585e-18,8.436273498e-17,-2.462810188e-17,-5.130079077e-17,-7.812296214e-17,-1.303638462e-16,-1.985255706e-17,2.850019015e-17,-4.068117434e-17,9.774968373e-17,6.432721217e-17],
				"epinfma": [0,0,7.385330892e-16,3.353502678e-17,2.167687521e-16,-4.836198787e-18,-9.525810046e-18,1.043368327e-17,9.484558935e-17,9.958264722e-17,-6.703915518e-17,-4.889504235e-17,9.635285353e-18,6.378273168e-17,5.78218865e-17,1.430432808e-16,4.109336817e-17,-3.810828285e-17,3.356433868e-17,-7.221994924e-17,-5.323034796e-17],
				"mc": [0,-0.1356815293,-0.228043983,-0.286151179,-0.3188487194,-0.3319348558,-0.3297395473,-0.3159032973,-0.2936246665,-0.2657046759,-0.2345366386,-0.202096597,-0.1699503849,-0.1392782579,-0.1109129527,-0.0853859959,-0.06297757451,-0.04376626403,-0.02767594812,-0.01451818713,-0.004029049852],
				"zcap": [0,-0.2990127639,-0.5176632976,-0.6262550828,-0.6495789644,-0.6095039203,-0.5243068027,-0.4091319534,-0.2763360481,-0.1357524079,0.005049833029,0.1404912508,0.266696734,0.3812106706,0.4827242182,0.5708236768,0.6457659641,0.7082843796,0.7594255324,0.8004165588,0.8325605278],
				"rk": [0,-0.04690667607,-0.08120678292,-0.09824177376,-0.1019006335,-0.09561398842,-0.08224896164,-0.06418127357,-0.04334933841,-0.0212957271,0.0007921764908,0.02203911801,0.04183720167,0.05980121118,0.075725826,0.08954614828,0.1013024812,0.1111098587,0.1191324644,0.1255628012,0.1306052841],
				"k": [0,-0.2990127639,-0.5576042852,-0.7338110299,-0.8415761115,-0.8942218476,-0.9036375299,-0.8804011933,-0.8337893992,-0.7717364817,-0.7008253828,-0.6263320823,-0.5523182811,-0.4817584427,-0.4166864904,-0.3583494957,-0.3073585589,-0.2638299253,-0.2275118707,-0.1978949185,-0.1743045217],
				"pk": [0,-2.515693567,-2.102053413,-1.65519805,-1.254442825,-0.9140247153,-0.6330429615,-0.4069068796,-0.229626592,-0.0947241602,0.004272540425,0.07353439334,0.1187504987,0.1450230359,0.1568161304,0.1579449411,0.1515945376,0.1403599468,0.1263001179,0.1109998183,0.09563470007],
				"c": [0,-0.4486784212,-0.8388439034,-1.130482724,-1.322902013,-1.425018662,-1.450235221,-1.41374464,-1.330805339,-1.215641189,-1.080793034,-0.9367987714,-0.7921071999,-0.6531516468,-0.5245259356,-0.4092188429,-0.3088744037,-0.224054643,-0.1544887378,-0.09929848606,-0.05719446649],
				"inve": [0,-1.370033989,-2.359232479,-3.00401197,-3.372454819,-3.530074628,-3.532955486,-3.427509652,-3.251171403,-3.033351937,-2.796484321,-2.557073961,-2.326704541,-2.112968856,-1.920306523,-1.750739345,-1.604501674,-1.480568141,-1.377084697,-1.29171145,-1.221887179],
				"y": [0,-0.3339839449,-0.6525445913,-0.8672193209,-0.9922840815,-1.045141497,-1.042355036,-0.9987197288,-0.9269704534,-0.8377125187,-0.7394878474,-0.6389291492,-0.5409670613,-0.4490638175,-0.3654537949,-0.2913768046,-0.2272945101,-0.1730840108,-0.1282055137,-0.09184320948,-0.06302006033],
				"lab": [0,-0.1881273614,-0.3741953417,-0.4991003064,-0.5705942405,-0.5990421482,-0.5945061464,-0.5659844762,-0.5211796964,-0.4664542573,-0.4068848193,-0.3463724084,-0.2877821999,-0.2330956035,-0.1835628598,-0.1398481914,-0.1021623864,-0.07037985947,-0.04413888483,-0.0229249106,-0.006137729404],
				"pinf": [0,-0.1583916921,-0.2287774685,-0.249012242,-0.244767013,-0.2285942987,-0.2067148295,-0.182464994,-0.1578028906,-0.1339552243,-0.1117058639,-0.09153712903,-0.07371031376,-0.05832015696,-0.04533675844,-0.03463996321,-0.02604802415,-0.01934126036,-0.0142811407,-0.01062520254,-0.008138258056],
				"w": [0,-0.1577920786,-0.2646157264,-0.3329524973,-0.3728825044,-0.3907936878,-0.3913803452,-0.3785979907,-0.3559590413,-0.3265779515,-0.293148387,-0.2579205559,-0.2226988795,-0.188861628,-0.1573978046,-0.128955156,-0.1038936913,-0.08234020716,-0.0642405215,-0.04940720671,-0.03756150824],
				"r": [0,0.2197978168,0.1624391587,0.1089709942,0.06220256807,0.02293786342,-0.008927954028,-0.03392769505,-0.05279340157,-0.06633649889,-0.07537911,-0.08071208458,-0.08306887117,-0.08310994783,-0.08141484391,-0.07847978366,-0.07471946426,-0.07047176908,-0.06600443223,-0.06152285539,-0.05717844258],
				"a": [0,3.494344154e-17,3.503163913e-17,3.630828241e-17,5.252555932e-17,5.320877154e-17,8.018811222e-17,7.774660352e-17,1.018975416e-16,8.715022115e-17,1.074895534e-16,1.546885954e-16,1.999027688e-16,1.995665447e-16,1.970346714e-16,1.936456751e-16,1.919702191e-16,1.899926401e-16,1.86388803e-16,1.83389798e-16,1.846438834e-16],
				"b": [0,-1.343271459e-17,-2.437677638e-16,-5.452894596e-17,-3.327166638e-17,3.839316228e-18,3.542902067e-17,1.790732009e-17,3.955038175e-17,5.707899501e-17,8.221098817e-17,8.72303829e-17,6.094161029e-17,-3.088742403e-17,-1.6067259e-17,-5.977683291e-17,-2.037185603e-17,1.551728529e-17,3.150043937e-17,2.446733143e-17,-1.352181671e-17],
				"g": [0,0,0,0,0,0,0,0,0,0,0,0,0,0,0,0,0,0,0,0,0],
				"qs": [0,0,0,0,0,0,0,0,0,0,0,0,0,0,0,0,0,0,0,0,0],
				"spinf": [0,3.384059683e-16,5.585396663e-16,-3.05712617e-16,2.883818516e-16,8.84796038e-18,-1.366481355e-16,-3.557064614e-19,5.913088996e-17,5.885469166e-17,-6.266079109e-17,3.496417011e-17,2.709724363e-17,1.86462281e-18,-2.87174438e-17,6.76017946e-19,-2.176198512e-18,-4.158544151e-17,6.393943048e-17,-1.646503149e-17,2.687727233e-17],
				"sw": [0,-4.06200699e-16,-6.372550221e-16,2.140223962e-16,-4.358355337e-16,8.87792086e-17,3.010493206e-16,2.444473751e-16,1.260787854e-16,-1.849058963e-17,-6.734695617e-17,-1.117273492e-16,-1.745057932e-16,-5.125342935e-17,-6.357715432e-17,-9.666685325e-17,-1.336831272e-16,-7.878151769e-17,-2.177972273e-16,-4.182743783e-17,-4.453377337e-17],
				"kp": [0,-0.03994098758,-0.1075559471,-0.1919971471,-0.2847179273,-0.3793307272,-0.47126924,-0.5574533511,-0.6359840738,-0.7058752158,-0.7668233331,-0.819015015,-0.8629691133,-0.8994107086,-0.9291731725,-0.953124523,-0.972114305,-0.9869374031,-0.9983114773,-1.00686505,-1.01313365],
				"rr": [0,-2.43529214,0.4794534299,0.497561038,0.4382902737,0.3670714392,0.298919561,0.2372976884,0.1833468124,0.1372937888,0.09888335499,0.06758479702,0.0427112562,0.02349710268,0.00915221193,-0.001098745048,-0.007988273993,-0.01218718361,-0.01429325922,-0.01482602433,-0.01422622489],
				"er": [0,0.5410517401,0.5023794046,0.4347905299,0.363250275,0.29534443,0.2340001894,0.180320657,0.1345213841,0.09633751495,0.06523091385,0.04051017893,0.0214083714,0.007137121833,-0.003074760552,-0.009954208364,-0.01416595697,-0.01630195274,-0.01687658229,-0.01632637731,-0.01501302045],
				"ec": [0,0.5410517401,0.5023794046,0.4347905299,0.363250275,0.29534443,0.2340001894,0.180320657,0.1345213841,0.09633751495,0.06523091385,0.04051017893,0.0214083714,0.007137121833,-0.003074760552,-0.009954208364,-0.01416595697,-0.01630195274,-0.01687658229,-0.01632637731,-0.01501302045],
				"nw": [0,-8.005020873,-7.308844736,-6.496201657,-5.759501108,-5.125152527,-4.586657156,-4.133279239,-3.753622588,-3.436594629,-3.171854876,-2.950046215,-2.762903183,-2.603282211,-2.465138352,-2.343464119,-2.234202362,-2.134143163,-2.040813173,-1.952364168,-1.867465946],
				"prem": [0,0.1022491965,0.09158898465,0.08091169378,0.07217059877,0.0653430475,0.06008454028,0.05606563197,0.05299706995,0.05063163956,0.04876345006,0.04722579596,0.04588790739,0.04465097205,0.04344377944,0.04221827341,0.04094523531,0.03961026174,0.03821014797,0.03674974064,0.03523928364],
				"pinf4": [0,-0.1583916921,-0.3871691606,-0.6361814027,-0.8809484157,-0.9511510223,-0.9290883833,-0.8625411352,-0.7755770128,-0.6809379384,-0.5859289728,-0.4950011078,-0.410908531,-0.3352734636,-0.2689043582,-0.2120071924,-0.1643449028,-0.1253660061,-0.09431038841,-0.07029562774,-0.05238586165],
				"eg": [0,0,0,0,0,0,0,0,0,0,0,0,0,0,0,0,0,0,0,0,0],
				"interest": [0,0.8791912672,0.6497566349,0.4358839767,0.2488102723,0.09175145368,-0.03571181611,-0.1357107802,-0.2111736063,-0.2653459956,-0.30151644,-0.3228483383,-0.3322754847,-0.3324397913,-0.3256593757,-0.3139191346,-0.298877857,-0.2818870763,-0.2640177289,-0.2460914215,-0.2287137703],
				"inflation": [0,-0.1583916921,-0.3871691606,-0.6361814027,-0.8809484157,-0.9511510223,-0.9290883833,-0.8625411352,-0.7755770128,-0.6809379384,-0.5859289728,-0.4950011078,-0.410908531,-0.3352734636,-0.2689043582,-0.2120071924,-0.1643449028,-0.1253660061,-0.09431038841,-0.07029562774,-0.05238586165],
				"inflationq": [0,-0.6335667684,-0.9151098741,-0.9960489681,-0.979068052,-0.9143771949,-0.826859318,-0.729859976,-0.6312115622,-0.5358208973,-0.4468234556,-0.3661485161,-0.294841255,-0.2332806278,-0.1813470338,-0.1385598528,-0.1041920966,-0.07736504142,-0.05712456279,-0.04250081016,-0.03255303222],
				"inflationql": [0,0,-0.6335667684,-0.9151098741,-0.9960489681,-0.979068052,-0.9143771949,-0.826859318,-0.729859976,-0.6312115622,-0.5358208973,-0.4468234556,-0.3661485161,-0.294841255,-0.2332806278,-0.1813470338,-0.1385598528,-0.1041920966,-0.07736504142,-0.05712456279,-0.04250081016],
				"inflationql2": [0,0,0,-0.6335667684,-0.9151098741,-0.9960489681,-0.979068052,-0.9143771949,-0.826859318,-0.729859976,-0.6312115622,-0.5358208973,-0.4468234556,-0.3661485161,-0.294841255,-0.2332806278,-0.1813470338,-0.1385598528,-0.1041920966,-0.07736504142,-0.05712456279],
				"inflationqls": [0,0,-0.6335667684,-1.548676643,-1.911158842,-1.97511702,-1.893445247,-1.741236513,-1.556719294,-1.361071538,-1.167032459,-0.9826443528,-0.8129719717,-0.6609897711,-0.5281218829,-0.4146276616,-0.3199068866,-0.2427519494,-0.181557138,-0.1344896042,-0.09962537295],
				"outputgap": [0,-0.3339839449,-0.6525445913,-0.8672193209,-0.9922840815,-1.045141497,-1.042355036,-0.9987197288,-0.9269704534,-0.8377125187,-0.7394878474,-0.6389291492,-0.5409670613,-0.4490638175,-0.3654537949,-0.2913768046,-0.2272945101,-0.1730840108,-0.1282055137,-0.09184320948,-0.06302006033],
				"output": [0,-0.3339839449,-0.6525445913,-0.8672193209,-0.9922840815,-1.045141497,-1.042355036,-0.9987197288,-0.9269704534,-0.8377125187,-0.7394878474,-0.6389291492,-0.5409670613,-0.4490638175,-0.3654537949,-0.2913768046,-0.2272945101,-0.1730840108,-0.1282055137,-0.09184320948,-0.06302006033],
				"fispol": [0,0,0,0,0,0,0,0,0,0,0,0,0,0,0,0,0,0,0,0,0],
				"newv_long": [0,2.780974991e-17,8.090400605e-17,-4.816133136e-17,-4.64654514e-18,1.754551672e-16,-7.283178301e-17,6.016573932e-17,2.572859851e-17,3.478869773e-17,-6.157473259e-17,3.546769263e-17,-1.499281653e-17,1.248194091e-17,-2.030107565e-17,1.267943461e-17,2.124081111e-17,-9.6080927e-18,-7.11683566e-18,2.55297345e-17,1.109686421e-17],
				"newv_short": [0,2.780974991e-17,8.090400605e-17,-4.816133136e-17,-4.64654514e-18,1.754551672e-16,-7.283178301e-17,6.016573932e-17,2.572859851e-17,3.478869773e-17,-6.157473259e-17,3.546769263e-17,-1.499281653e-17,1.248194091e-17,-2.030107565e-17,1.267943461e-17,2.124081111e-17,-9.6080927e-18,-7.11683566e-18,2.55297345e-17,1.109686421e-17]
			}
		}
	}
}
