{
	"model": "NK_GM07",
	"rule": "CEE",
	"data": {
		"AC": {
			"dp": [1,0.8551051418,0.7773477641,0.733983126,0.7082628043,0.6916191243,0.6796682609,0.6701662077,0.6619634417,0.6544703221,0.6473836794,0.6405469793,0.6338787971,0.6273362282,0.6208961656,0.6145457152,0.6082772864,0.6020860729,0.595968758,0.5899228459,0.5839463141],
			"mc": [1,0.5154672884,0.2675506449,0.1406491105,0.07564352175,0.04229953721,0.02515456755,0.01630035857,0.0116920046,0.009260375105,0.0079468055,0.007209433436,0.006770734629,0.006488408374,0.006289344406,0.006135849907,0.006008374678,0.005896673802,0.005795285526,0.005701216206,0.005612754202],
			"omega": [1,0.9016470203,0.8136550875,0.7347179105,0.6637919739,0.6000056918,0.5426091951,0.4909452732,0.4444314727,0.4025482051,0.3648302021,0.3308599284,0.300262218,0.2726997351,0.2478690366,0.2254971039,0.2053382601,0.1871714153,0.170797597,0.1560377334,0.1427306602],
			"lambda": [1,0.9859966451,0.9740897126,0.9633023099,0.9531343846,0.943329744,0.9337569093,0.9243481848,0.9150684975,0.9058994622,0.8968312318,0.8878583301,0.87897752,0.8701867144,0.8614844178,0.8528694417,0.8443407587,0.8358974281,0.8275385571,0.8192632819,0.8110707573],
			"xi": [1,0.9794791756,0.964297079,0.951892776,0.9409560626,0.9308163689,0.9211302448,0.9117215397,0.9024996702,0.893417821,0.8844515694,0.8755879521,0.8668198748,0.8581432517,0.8495555432,0.8410550072,0.8326403163,0.824310361,0.8160641497,0.8079007571,0.7998192968],
			"w": [1,0.9762433796,0.9594442874,0.9462499209,0.9349451789,0.9246524848,0.9149225777,0.9055252424,0.8963422896,0.8873128251,0.8784052611,0.8696030022,0.8608971251,0.8522826353,0.8437565524,0.8353169304,0.8269623576,0.8186916995,0.8105039684,0.8023982559,0.7943736984],
			"n": [1,0.5965735893,0.3882268945,0.2797824086,0.2225532439,0.1916290784,0.1742600829,0.1639163557,0.1572498183,0.152540436,0.148901531,0.1458733023,0.1432148829,0.1407979348,0.1385521774,0.1364374793,0.1344295408,0.1325125301,0.1306752812,0.1289093151,0.1272077982],
			"m": [1,0.9767103961,0.9548849945,0.9344337363,0.9152516922,0.8972321784,0.8802728802,0.8642784567,0.8491614002,0.8348420481,0.8212482065,0.8083146118,0.7959823448,0.7841982514,0.7729143948,0.7620875481,0.7516787321,0.741652794,0.7319780283,0.7226258329,0.7135704004],
			"c": [1,0.9859987399,0.9740636565,0.9632358477,0.9530241371,0.9431765796,0.9335636063,0.9241182616,0.9148056388,0.9056072462,0.8965130102,0.8875171839,0.8786162526,0.8698078613,0.8610902651,0.8524620464,0.8439219691,0.8354689036,0.8271017868,0.8188196009,0.8106213625],
			"q": [1,0.9851774243,0.9728596748,0.9618702372,0.9516069727,0.9417614821,0.9321755884,0.922767943,0.9134964909,0.9043392769,0.8952846284,0.8863261362,0.8774600867,0.8686841493,0.8599967046,0.8513965015,0.8428824808,0.8344536861,0.8261092174,0.8178482075,0.8096698102],
			"p": [1,"_NaN_","_NaN_","_NaN_","_NaN_","_NaN_","_NaN_","_NaN_","_NaN_","_NaN_","_NaN_","_NaN_","_NaN_","_NaN_","_NaN_","_NaN_","_NaN_","_NaN_","_NaN_","_NaN_","_NaN_"],
			"h": [1,"_NaN_","_NaN_","_NaN_","_NaN_","_NaN_","_NaN_","_NaN_","_NaN_","_NaN_","_NaN_","_NaN_","_NaN_","_NaN_","_NaN_","_NaN_","_NaN_","_NaN_","_NaN_","_NaN_","_NaN_"],
			"b": [1,"_NaN_","_NaN_","_NaN_","_NaN_","_NaN_","_NaN_","_NaN_","_NaN_","_NaN_","_NaN_","_NaN_","_NaN_","_NaN_","_NaN_","_NaN_","_NaN_","_NaN_","_NaN_","_NaN_","_NaN_"],
			"a1": [1,0.99,0.9801,0.970299,0.96059601,0.9509900499,0.9414801494,0.9320653479,0.9227446944,0.9135172475,0.904382075,0.8953382543,0.8863848717,0.877521023,0.8687458128,0.8600583546,0.8514577711,0.8429431934,0.8345137615,0.8261686238,0.8179069376],
			"a2": [1,0.99,0.9801,0.970299,0.96059601,0.9509900499,0.9414801494,0.9320653479,0.9227446944,0.9135172475,0.904382075,0.8953382543,0.8863848717,0.877521023,0.8687458128,0.8600583546,0.8514577711,0.8429431934,0.8345137615,0.8261686238,0.8179069376],
			"a3": [1,0.9,0.81,0.729,0.6561,0.59049,0.531441,0.4782969,0.43046721,0.387420489,0.3486784401,0.3138105961,0.2824295365,0.2541865828,0.2287679245,0.2058911321,0.1853020189,0.166771817,0.1500946353,0.1350851718,0.1215766546],
			"CEFP": [1,0.9752888302,0.9527929076,0.9320504224,0.9127668023,0.8947388041,0.8778151136,0.8618756751,0.8468206503,0.8325643493,0.8190317458,0.8061563535,0.7938788306,0.7821459899,0.7709100419,0.7601279835,0.7497610831,0.739774435,0.730136568,0.7208190975,0.711796415],
			"UEFP": [1,0.9752888302,0.9527929076,0.9320504224,0.9127668023,0.8947388041,0.8778151136,0.8618756751,0.8468206503,0.8325643493,0.8190317458,0.8061563535,0.7938788306,0.7821459899,0.7709100419,0.7601279835,0.7497610831,0.739774435,0.730136568,0.7208190975,0.711796415],
			"rT": [1,0.8011254818,0.6964980202,0.6401002286,0.6083982892,0.5893564877,0.576819256,0.5676381519,0.5602025982,0.5536885019,0.5476739966,0.5419429325,0.5363843793,0.5309412313,0.5255839221,0.5202969817,0.5150721608,0.5099049131,0.5047925962,0.4997335505,0.4947266271],
			"rIB": [1,0.8694237667,0.7983686723,0.7578652375,0.7330903939,0.7164563113,0.7040759537,0.6939554994,0.6850698829,0.6768899723,0.6691407168,0.6616774183,0.6544224151,0.6473326651,0.6403831346,0.6335582728,0.6268476253,0.6202435661,0.613740116,0.6073323184,0.6010159026],
			"rL": [1,0.850011868,0.7695009798,0.7246008465,0.6979871723,0.6807957914,0.6684894631,0.6587441135,0.650367824,0.6427479692,0.6355684526,0.6286650744,0.6219515411,0.6153816052,0.6089296824,0.6025809224,0.5963261133,0.5901590624,0.5840752423,0.5780710875,0.5721436234],
			"rB": [1,0.8564911101,0.7786250267,0.7344758461,0.7077049759,0.6899462993,0.6769118427,0.666400116,0.6572774876,0.6489571781,0.6411327432,0.63364171,0.6263957801,0.6193450813,0.6124598365,0.6057209455,0.5991151286,0.592632407,0.5862647827,0.5800055338,0.5738488286],
			"interest": [1,0.8694237667,0.7983686723,0.7578652375,0.7330903939,0.7164563113,0.7040759537,0.6939554994,0.6850698829,0.6768899723,0.6691407168,0.6616774183,0.6544224151,0.6473326651,0.6403831346,0.6335582728,0.6268476253,0.6202435661,0.613740116,0.6073323184,0.6010159026],
			"inflation": [1,0.9787177234,0.9366732438,0.8875030282,0.842513229,0.8154281603,0.7975594122,0.7844612346,0.773857784,0.7645831002,0.7560389909,0.7479177787,0.7400604976,0.7323843615,0.7248456591,0.7174207666,0.7100964283,0.7028647759,0.6957207742,0.6886609063,0.6816824956],
			"inflationq": [1,0.8551051418,0.7773477641,0.733983126,0.7082628043,0.6916191243,0.6796682609,0.6701662077,0.6619634417,0.6544703221,0.6473836794,0.6405469793,0.6338787971,0.6273362282,0.6208961656,0.6145457152,0.6082772864,0.6020860729,0.595968758,0.5899228459,0.5839463141],
			"output": [1,0.9859987399,0.9740636565,0.9632358477,0.9530241371,0.9431765796,0.9335636063,0.9241182616,0.9148056388,0.9056072462,0.8965130102,0.8875171839,0.8786162526,0.8698078613,0.8610902651,0.8524620464,0.8439219691,0.8354689036,0.8271017868,0.8188196009,0.8106213625],
			"outputgap": [1,0.5154672884,0.2675506449,0.1406491105,0.07564352175,0.04229953721,0.02515456755,0.01630035857,0.0116920046,0.009260375105,0.0079468055,0.007209433436,0.006770734629,0.006488408374,0.006289344406,0.006135849907,0.006008374678,0.005896673802,0.005795285526,0.005701216206,0.005612754202],
			"fispol": [1,"_NaN_","_NaN_","_NaN_","_NaN_","_NaN_","_NaN_","_NaN_","_NaN_","_NaN_","_NaN_","_NaN_","_NaN_","_NaN_","_NaN_","_NaN_","_NaN_","_NaN_","_NaN_","_NaN_","_NaN_"],
			"AUX_ENDO_LEAD_227": [1,0.941569977,0.9071879423,0.8851689592,0.8695347219,0.8572255153,0.8466743916,0.8370779862,0.8280235953,0.8192984484,0.8107921552,0.8024468044,0.7942314321,0.7861289546,0.7781294764,0.7702268589,0.7624169581,0.7546967163,0.7470636917,0.7395158115,0.7320512411],
			"AUX_ENDO_LEAD_231": [1,0.9743421365,0.9564293679,0.9425415393,0.9307739069,0.9201503113,0.9101696361,0.9005738519,0.8912293794,0.8820664052,0.8730478364,0.8641534135,0.8553715756,0.8466952922,0.8381199236,0.8296421194,0.8212592493,0.8129691063,0.8047697495,0.796659419,0.7886364891],
			"AUX_ENDO_LEAD_235": [1,0.9847626856,0.9721073044,0.960833891,0.9503268748,0.9402696926,0.9304988271,0.9209291498,0.9115157294,0.9022342902,0.8930712095,0.8840183929,0.8750706467,0.8662243266,0.8574766409,0.8488252882,0.8402682671,0.8318037746,0.8234301497,0.8151458411,0.8069493873],
			"AUX_ENDO_LEAD_262": [1,0.5229601545,0.2787019195,0.1535094414,0.08922649639,0.05611019798,0.03894839352,0.02996009772,0.02516476584,0.02252552906,0.02099963372,0.02005282483,0.01941099144,0.01893314854,0.0185464713,0.01821306367,0.01791295671,0.01763540757,0.01737444387,0.01712657999,0.01688964445],
			"AUX_ENDO_LEAD_266": [1,0.5460835798,0.31319279,0.193383002,0.1314468515,0.09914720882,0.08203990397,0.07273484151,0.06744970553,0.06424749482,0.06213517034,0.06060267758,0.0593871788,0.05835245978,0.05742723885,0.05657360054,0.0557708366,0.05500716796,0.0542754984,0.05357123145,0.05289114339],
			"AUX_ENDO_LEAD_270": [1,0.6105107598,0.4094529389,0.3048657018,0.2497104884,0.21992292,0.2031884722,0.1932022773,0.1867335151,0.1821240737,0.1785207025,0.1754822774,0.1727789058,0.1702891407,0.1679473754,0.165716902,0.1635761003,0.161511343,0.1595133411,0.1575752487,0.1556916722],
			"AUX_ENDO_LEAD_297": [1,0.9891859282,0.9788558038,0.9688233628,0.9589926284,0.9493138261,0.9397608355,0.9303196577,0.9209825148,0.9117448311,0.9026036873,0.8935570288,0.8846032593,0.8757410316,0.8669691398,0.8582864634,0.8496919368,0.8411845343,0.8327632605,0.8244271457,0.8161752419],
			"AUX_ENDO_LEAD_301": [1,0.9899072623,0.9799435612,0.9700955923,0.9603558825,0.9507199642,0.9411849294,0.9317486873,0.9224095838,0.9131662053,0.904017277,0.8949616096,0.8859980714,0.8771255726,0.8683430567,0.859649495,0.8510438835,0.8425252407,0.8340926051,0.8257450344,0.817481604],
			"AUX_ENDO_LEAD_305": [1,0.9900314733,0.9801334855,0.970320949,0.9606008586,0.9509761799,0.9414478367,0.9320157257,0.922679234,0.9134375028,0.9042895612,0.8952343935,0.8862709728,0.8773982778,0.8686152999,0.859921047,0.8513145445,0.8427948351,0.8343609787,0.8260120513,0.8177471448],
			"AUX_ENDO_LAG_0_1": [1,0.8551051418,0.7773477641,0.733983126,0.7082628043,0.6916191243,0.6796682609,0.6701662077,0.6619634417,0.6544703221,0.6473836794,0.6405469793,0.6338787971,0.6273362282,0.6208961656,0.6145457152,0.6082772864,0.6020860729,0.595968758,0.5899228459,0.5839463141],
			"AUX_ENDO_LAG_0_2": [1,0.8551051418,0.7773477641,0.733983126,0.7082628043,0.6916191243,0.6796682609,0.6701662077,0.6619634417,0.6544703221,0.6473836794,0.6405469793,0.6338787971,0.6273362282,0.6208961656,0.6145457152,0.6082772864,0.6020860729,0.595968758,0.5899228459,0.5839463141],
			"AUX_ENDO_LAG_25_1": [1,0.9859987399,0.9740636565,0.9632358477,0.9530241371,0.9431765796,0.9335636063,0.9241182616,0.9148056388,0.9056072462,0.8965130102,0.8875171839,0.8786162526,0.8698078613,0.8610902651,0.8524620464,0.8439219691,0.8354689036,0.8271017868,0.8188196009,0.8106213625],
			"AUX_ENDO_LAG_25_2": [1,0.9859987399,0.9740636565,0.9632358477,0.9530241371,0.9431765796,0.9335636063,0.9241182616,0.9148056388,0.9056072462,0.8965130102,0.8875171839,0.8786162526,0.8698078613,0.8610902651,0.8524620464,0.8439219691,0.8354689036,0.8271017868,0.8188196009,0.8106213625],
			"AUX_ENDO_LAG_25_3": [1,0.9859987399,0.9740636565,0.9632358477,0.9530241371,0.9431765796,0.9335636063,0.9241182616,0.9148056388,0.9056072462,0.8965130102,0.8875171839,0.8786162526,0.8698078613,0.8610902651,0.8524620464,0.8439219691,0.8354689036,0.8271017868,0.8188196009,0.8106213625],
			"AUX_ENDO_LAG_26_1": [1,0.5154672884,0.2675506449,0.1406491105,0.07564352175,0.04229953721,0.02515456755,0.01630035857,0.0116920046,0.009260375105,0.0079468055,0.007209433436,0.006770734629,0.006488408374,0.006289344406,0.006135849907,0.006008374678,0.005896673802,0.005795285526,0.005701216206,0.005612754202],
			"AUX_ENDO_LAG_26_2": [1,0.5154672884,0.2675506449,0.1406491105,0.07564352175,0.04229953721,0.02515456755,0.01630035857,0.0116920046,0.009260375105,0.0079468055,0.007209433436,0.006770734629,0.006488408374,0.006289344406,0.006135849907,0.006008374678,0.005896673802,0.005795285526,0.005701216206,0.005612754202],
			"AUX_ENDO_LAG_26_3": [1,0.5154672884,0.2675506449,0.1406491105,0.07564352175,0.04229953721,0.02515456755,0.01630035857,0.0116920046,0.009260375105,0.0079468055,0.007209433436,0.006770734629,0.006488408374,0.006289344406,0.006135849907,0.006008374678,0.005896673802,0.005795285526,0.005701216206,0.005612754202],
			"AUX_ENDO_LAG_22_1": [1,0.8694237667,0.7983686723,0.7578652375,0.7330903939,0.7164563113,0.7040759537,0.6939554994,0.6850698829,0.6768899723,0.6691407168,0.6616774183,0.6544224151,0.6473326651,0.6403831346,0.6335582728,0.6268476253,0.6202435661,0.613740116,0.6073323184,0.6010159026],
			"AUX_ENDO_LAG_22_2": [1,0.8694237667,0.7983686723,0.7578652375,0.7330903939,0.7164563113,0.7040759537,0.6939554994,0.6850698829,0.6768899723,0.6691407168,0.6616774183,0.6544224151,0.6473326651,0.6403831346,0.6335582728,0.6268476253,0.6202435661,0.613740116,0.6073323184,0.6010159026],
			"AUX_ENDO_LAG_22_3": [1,0.8694237667,0.7983686723,0.7578652375,0.7330903939,0.7164563113,0.7040759537,0.6939554994,0.6850698829,0.6768899723,0.6691407168,0.6616774183,0.6544224151,0.6473326651,0.6403831346,0.6335582728,0.6268476253,0.6202435661,0.613740116,0.6073323184,0.6010159026],
			"AUX_ENDO_LAG_24_1": [1,0.8551051418,0.7773477641,0.733983126,0.7082628043,0.6916191243,0.6796682609,0.6701662077,0.6619634417,0.6544703221,0.6473836794,0.6405469793,0.6338787971,0.6273362282,0.6208961656,0.6145457152,0.6082772864,0.6020860729,0.595968758,0.5899228459,0.5839463141],
			"AUX_ENDO_LAG_24_2": [1,0.8551051418,0.7773477641,0.733983126,0.7082628043,0.6916191243,0.6796682609,0.6701662077,0.6619634417,0.6544703221,0.6473836794,0.6405469793,0.6338787971,0.6273362282,0.6208961656,0.6145457152,0.6082772864,0.6020860729,0.595968758,0.5899228459,0.5839463141],
			"AUX_ENDO_LAG_24_3": [1,0.8551051418,0.7773477641,0.733983126,0.7082628043,0.6916191243,0.6796682609,0.6701662077,0.6619634417,0.6544703221,0.6473836794,0.6405469793,0.6338787971,0.6273362282,0.6208961656,0.6145457152,0.6082772864,0.6020860729,0.595968758,0.5899228459,0.5839463141]
		},
		"VAR": {
			"dp": 0.04826954008,
			"mc": 1.257373415,
			"omega": 3.261465192,
			"lambda": 20.82891276,
			"xi": 21.78907007,
			"w": 20.79407718,
			"n": 0.6771068428,
			"m": 66.89218685,
			"c": 19.38280527,
			"q": 21.05093421,
			"p": "_NaN_",
			"h": "_NaN_",
			"b": 0,
			"a1": 50.25125628,
			"a2": 50.25125628,
			"a3": 5.263157895,
			"CEFP": 0.001473813102,
			"UEFP": 0.01203112736,
			"rT": 0.07756974933,
			"rIB": 0.1323636949,
			"rL": 0.1104487325,
			"rB": 0.1167297004,
			"interest": 2.117819118,
			"inflation": 0.6616782838,
			"inflationq": 0.7723126412,
			"output": 19.38280527,
			"outputgap": 20.11797464,
			"fispol": 0,
			"AUX_ENDO_LEAD_227": 0.5974810187,
			"AUX_ENDO_LEAD_231": 0.5405832584,
			"AUX_ENDO_LEAD_235": 0.5163035268,
			"AUX_ENDO_LEAD_262": 5.367078371,
			"AUX_ENDO_LEAD_266": 1.488204878,
			"AUX_ENDO_LEAD_270": 0.4623510225,
			"AUX_ENDO_LEAD_297": 18.89113636,
			"AUX_ENDO_LEAD_301": 18.49731482,
			"AUX_ENDO_LEAD_305": 18.12917808,
			"AUX_ENDO_LAG_0_1": 0.04826954008,
			"AUX_ENDO_LAG_0_2": 0.04826954008,
			"AUX_ENDO_LAG_25_1": 19.38280527,
			"AUX_ENDO_LAG_25_2": 19.38280527,
			"AUX_ENDO_LAG_25_3": 19.38280527,
			"AUX_ENDO_LAG_26_1": 20.11797464,
			"AUX_ENDO_LAG_26_2": 20.11797464,
			"AUX_ENDO_LAG_26_3": 20.11797464,
			"AUX_ENDO_LAG_22_1": 2.117819118,
			"AUX_ENDO_LAG_22_2": 2.117819118,
			"AUX_ENDO_LAG_22_3": 2.117819118,
			"AUX_ENDO_LAG_24_1": 0.7723126412,
			"AUX_ENDO_LAG_24_2": 0.7723126412,
			"AUX_ENDO_LAG_24_3": 0.7723126412
		},
		"IRF": {
			"interest_": {
				"dp": [0,-0.09560240522,-0.04889096199,-0.02500278271,-0.01278639482,-0.006538947861,-0.003344010546,-0.001710123214,-0.0008745550791,-0.0004472464791,-0.000228721344,-0.0001169678368,-5.981721956e-05,-3.059045848e-05,-1.56439259e-05,-8.000286025e-06,-4.091337232e-06,-2.092305237e-06,-1.070002534e-06,-5.471980867e-07,-2.798364833e-07],
				"mc": [0,-0.9440070571,-0.4827641422,-0.2468850367,-0.1262567288,-0.0645675484,-0.03301977128,-0.01688627372,-0.008635621296,-0.004416246971,-0.00225846371,-0.001154975789,-0.0005906533133,-0.0003020594369,-0.0001544728547,-7.89972433e-05,-4.039910095e-05,-2.066005457e-05,-1.056552856e-05,-5.403199364e-06,-2.763190048e-06],
				"omega": [0,0.05101113945,0.02608703907,0.0133408823,0.00682251213,0.003489024993,0.001784283438,0.0009124805339,0.0004666415138,0.0002386399428,0.0001220401971,6.241121886e-05,3.191702679e-05,1.632233143e-05,8.347221848e-06,4.26875982e-06,2.183038949e-06,1.116403652e-06,5.709275664e-07,2.919717129e-07,1.493140046e-07],
				"lambda": [0,0.4092949376,0.2093129685,0.1070424156,0.05474137034,0.02799467493,0.01431644512,0.007321413856,0.003744162772,0.00191476061,0.0009792064121,0.0005007650525,0.0002560906819,0.0001309644853,6.697508979e-05,3.425098523e-05,1.751591514e-05,8.957619206e-06,4.580916338e-06,2.342675438e-06,1.198041571e-06],
				"xi": [0,-0.5347121195,-0.2734511736,-0.1398426212,-0.07151535842,-0.03657287347,-0.01870332616,-0.009564859863,-0.004891458524,-0.002501486361,-0.001279257298,-0.0006542107366,-0.0003345626313,-0.0001710949516,-8.749776488e-05,-4.474625807e-05,-2.288318581e-05,-1.170243536e-05,-5.98461222e-06,-3.060523926e-06,-1.565148477e-06],
				"w": [0,-0.7067757734,-0.3614443318,-0.1848422228,-0.09452810384,-0.04834156548,-0.02472182195,-0.01264271181,-0.006465468531,-0.0033064333,-0.001690906253,-0.0008647275468,-0.0004422206902,-0.0002261511612,-0.0001156534483,-5.914504273e-05,-3.024670801e-05,-1.546813229e-05,-7.910385374e-06,-4.04536214e-06,-2.068793626e-06],
				"n": [0,-0.62201809,-0.3180993482,-0.1626756472,-0.08319214213,-0.04254436747,-0.02175714144,-0.01112657755,-0.005690119183,-0.002909920519,-0.001488130065,-0.0007610280335,-0.0003891888763,-0.0001990307515,-0.0001017841014,-5.205227442e-05,-2.661947431e-05,-1.361316908e-05,-6.961759283e-06,-3.56023583e-06,-1.82070058e-06],
				"m": [0,-0.2899682161,-0.148289418,-0.07583504078,-0.03878195415,-0.01983304752,-0.01014259809,-0.005186913201,-0.002652581549,-0.001356527206,-0.0006937264803,-0.000354770938,-0.0001814294568,-9.278281915e-05,-4.744902886e-05,-2.426537973e-05,-1.240928777e-05,-6.346095741e-06,-3.245386189e-06,-1.659686828e-06,-8.487619667e-07],
				"c": [0,-0.3847868063,-0.1967795379,-0.1006328333,-0.05146351721,-0.02631838454,-0.01345919211,-0.006883015635,-0.003519966417,-0.001800106848,-0.0009205726076,-0.0004707797912,-0.0002407562532,-0.0001231224758,-6.296469497e-05,-3.220007385e-05,-1.646708138e-05,-8.421246806e-06,-4.306616099e-06,-2.202398606e-06,-1.126304158e-06],
				"q": [0,-0.4467879092,-0.2284868318,-0.1168479076,-0.05975588789,-0.03055909353,-0.0156278859,-0.007992083186,-0.004087142309,-0.002090159958,-0.00106890544,-0.0005466370342,-0.0002795495615,-0.0001429613298,-7.311026252e-05,-3.738850563e-05,-1.912043953e-05,-9.778171166e-06,-5.000545684e-06,-2.557273412e-06,-1.307786733e-06],
				"p": [0,-0.09560240522,-0.1444933672,-0.1694961499,-0.1822825447,-0.1888214926,-0.1921655031,-0.1938756264,-0.1947501814,-0.1951974279,-0.1954261493,-0.1955431171,-0.1956029343,-0.1956335248,-0.1956491687,-0.195657169,-0.1956612603,-0.1956633526,-0.1956644226,-0.1956649698,-0.1956652497],
				"h": [0,-0.4803892115,-0.3412729051,-0.2701289832,-0.233746062,-0.2151398771,-0.2056246953,-0.200758642,-0.1982701479,-0.1969975348,-0.1963467219,-0.1960138969,-0.1958436906,-0.1957566473,-0.1957121334,-0.1956893691,-0.1956777274,-0.1956717739,-0.1956687293,-0.1956671722,-0.195666376],
				"b": [0,0,0,0,0,0,0,0,0,0,0,0,0,0,0,0,0,0,0,0,0],
				"a1": [0,0,1.16170825e-16,1.760569941e-16,2.067637102e-16,2.223668298e-16,2.302469897e-16,2.341786295e-16,2.360919831e-16,2.369741602e-16,2.373299581e-16,2.374175196e-16,2.373688492e-16,2.372514445e-16,2.370998144e-16,2.369315972e-16,2.367558042e-16,2.365770347e-16,2.363976315e-16,2.362187842e-16,2.360410922e-16],
				"a2": [0,0,0,0,0,0,0,0,0,0,0,0,0,0,0,0,0,0,0,0,0],
				"a3": [0,0,0,0,0,0,0,0,0,0,0,0,0,0,0,0,0,0,0,0,0],
				"CEFP": [0,-0.002783990097,-0.001423729389,-0.0007280936007,-0.0003723462446,-0.0001904174487,-9.737926806e-05,-4.979964764e-05,-2.546748352e-05,-1.302404229e-05,-6.660480509e-06,-3.406162205e-06,-1.741907502e-06,-8.908095281e-07,-4.555589859e-07,-2.329723506e-07,-1.191417968e-07,-6.092898022e-08,-3.115901162e-08,-1.593468332e-08,-8.148979037e-09],
				"UEFP": [0,-0.00795425742,-0.004067798255,-0.002080267431,-0.001063846413,-0.0005440498534,-0.0002782264802,-0.0001422847075,-7.276423863e-05,-3.72115494e-05,-1.902994431e-05,-9.731892014e-06,-4.976878578e-06,-2.54517008e-06,-1.301597103e-06,-6.656352873e-07,-3.404051337e-07,-1.740828006e-07,-8.902574749e-08,-4.552766664e-08,-2.328279725e-08],
				"rT": [0,0.1518578894,0.07765995303,0.03971521221,0.02031031464,0.01038667196,0.0053117323,0.002716413895,0.001389170996,0.0007104204775,0.0003633082293,0.0001857954179,9.501556673e-05,4.859085345e-05,2.484930754e-05,1.270790779e-05,6.498809683e-06,3.323483927e-06,1.699625924e-06,8.691867767e-07,4.445011351e-07],
				"rIB": [0,0.1598121468,0.08172775128,0.04179547964,0.02137416106,0.01093072181,0.00558995878,0.002858698603,0.001461935235,0.0007476320269,0.0003823381736,0.0001955273099,9.999244531e-05,5.113602353e-05,2.615090464e-05,1.337354308e-05,6.839214817e-06,3.497566728e-06,1.788651672e-06,9.147144433e-07,4.677839323e-07],
				"rL": [0,0.1570281567,0.0803040219,0.04106738604,0.02100181481,0.01074030436,0.005492579512,0.002808898955,0.001436467751,0.0007346079846,0.0003756776931,0.0001921211477,9.825053781e-05,5.0245214e-05,2.569534566e-05,1.314057073e-05,6.72007302e-06,3.436637748e-06,1.75749266e-06,8.9877976e-07,4.596349533e-07],
				"rB": [0,0.157409559,0.08049907058,0.04116713372,0.02105282566,0.01076639125,0.005505920318,0.002815721428,0.001439956756,0.0007363922579,0.0003765901685,0.0001925877866,9.84891764e-05,5.03672535e-05,2.575775652e-05,1.317248757e-05,6.736395259e-06,3.444984922e-06,1.761761396e-06,9.009627865e-07,4.607513506e-07],
				"interest": [0,0.6392485873,0.3269110051,0.1671819186,0.08549664422,0.04372288723,0.02235983512,0.01143479441,0.005847740939,0.002990528107,0.001529352694,0.0007821092396,0.0003999697812,0.0002045440941,0.0001046036186,5.349417232e-05,2.735685927e-05,1.399026691e-05,7.154606687e-06,3.658857773e-06,1.871135729e-06],
				"inflation": [0,-0.09560240522,-0.1444933672,-0.1694961499,-0.1822825447,-0.09321908738,-0.04767213594,-0.02437947644,-0.0124676367,-0.006375935319,-0.003260646116,-0.001667490739,-0.0008527528795,-0.0004360968588,-0.0002230194408,-0.00011405189,-5.832600764e-05,-2.982785439e-05,-1.525393103e-05,-7.800843089e-06,-3.98934234e-06],
				"inflationq": [0,-0.3824096209,-0.195563848,-0.1000111308,-0.05114557928,-0.02615579144,-0.01337604219,-0.006840492857,-0.003498220316,-0.001788985916,-0.0009148853759,-0.0004678713473,-0.0002392688783,-0.0001223618339,-6.257570359e-05,-3.20011441e-05,-1.636534893e-05,-8.369220948e-06,-4.280010135e-06,-2.188792347e-06,-1.119345934e-06],
				"output": [0,-0.3847868063,-0.1967795379,-0.1006328333,-0.05146351721,-0.02631838454,-0.01345919211,-0.006883015635,-0.003519966417,-0.001800106848,-0.0009205726076,-0.0004707797912,-0.0002407562532,-0.0001231224758,-6.296469497e-05,-3.220007385e-05,-1.646708138e-05,-8.421246806e-06,-4.306616099e-06,-2.202398606e-06,-1.126304158e-06],
				"outputgap": [0,-3.776028228,-1.931056569,-0.9875401469,-0.5050269151,-0.2582701936,-0.1320790851,-0.06754509487,-0.03454248518,-0.01766498789,-0.009033854841,-0.004619903156,-0.002362613253,-0.001208237748,-0.0006178914187,-0.0003159889732,-0.0001615964038,-8.264021827e-05,-4.226211423e-05,-2.161279746e-05,-1.105276019e-05],
				"fispol": [0,0,0,0,0,0,0,0,0,0,0,0,0,0,0,0,0,0,0,0,0],
				"AUX_ENDO_LEAD_227": [0,-0.195563848,-0.1000111308,-0.05114557928,-0.02615579144,-0.01337604219,-0.006840492857,-0.003498220316,-0.001788985916,-0.0009148853759,-0.0004678713473,-0.0002392688783,-0.0001223618339,-6.257570359e-05,-3.20011441e-05,-1.636534893e-05,-8.369220948e-06,-4.280010135e-06,-2.188792347e-06,-1.119345934e-06,-5.724322463e-07],
				"AUX_ENDO_LEAD_231": [0,-0.1000111308,-0.05114557928,-0.02615579144,-0.01337604219,-0.006840492857,-0.003498220316,-0.001788985916,-0.0009148853759,-0.0004678713473,-0.0002392688783,-0.0001223618339,-6.257570359e-05,-3.20011441e-05,-1.636534893e-05,-8.369220948e-06,-4.280010135e-06,-2.188792347e-06,-1.119345934e-06,-5.724322463e-07,-2.927412047e-07],
				"AUX_ENDO_LEAD_235": [0,-0.05114557928,-0.02615579144,-0.01337604219,-0.006840492857,-0.003498220316,-0.001788985916,-0.0009148853759,-0.0004678713473,-0.0002392688783,-0.0001223618339,-6.257570359e-05,-3.20011441e-05,-1.636534893e-05,-8.369220948e-06,-4.280010135e-06,-2.188792347e-06,-1.119345934e-06,-5.724322463e-07,-2.927412047e-07,-1.497075221e-07],
				"AUX_ENDO_LEAD_262": [0,-1.931056569,-0.9875401469,-0.5050269151,-0.2582701936,-0.1320790851,-0.06754509487,-0.03454248518,-0.01766498789,-0.009033854841,-0.004619903156,-0.002362613253,-0.001208237748,-0.0006178914187,-0.0003159889732,-0.0001615964038,-8.264021827e-05,-4.226211423e-05,-2.161279746e-05,-1.105276019e-05,-5.652369071e-06],
				"AUX_ENDO_LEAD_266": [0,-0.9875401469,-0.5050269151,-0.2582701936,-0.1320790851,-0.06754509487,-0.03454248518,-0.01766498789,-0.009033854841,-0.004619903156,-0.002362613253,-0.001208237748,-0.0006178914187,-0.0003159889732,-0.0001615964038,-8.264021827e-05,-4.226211423e-05,-2.161279746e-05,-1.105276019e-05,-5.652369071e-06,-2.890615155e-06],
				"AUX_ENDO_LEAD_270": [0,-0.5050269151,-0.2582701936,-0.1320790851,-0.06754509487,-0.03454248518,-0.01766498789,-0.009033854841,-0.004619903156,-0.002362613253,-0.001208237748,-0.0006178914187,-0.0003159889732,-0.0001615964038,-8.264021827e-05,-4.226211423e-05,-2.161279746e-05,-1.105276019e-05,-5.652369071e-06,-2.890615155e-06,-1.478257323e-06],
				"AUX_ENDO_LEAD_297": [0,-0.1967795379,-0.1006328333,-0.05146351721,-0.02631838454,-0.01345919211,-0.006883015635,-0.003519966417,-0.001800106848,-0.0009205726076,-0.0004707797912,-0.0002407562532,-0.0001231224758,-6.296469497e-05,-3.220007385e-05,-1.646708138e-05,-8.421246806e-06,-4.306616099e-06,-2.202398606e-06,-1.126304158e-06,-5.759906732e-07],
				"AUX_ENDO_LEAD_301": [0,-0.1006328333,-0.05146351721,-0.02631838454,-0.01345919211,-0.006883015635,-0.003519966417,-0.001800106848,-0.0009205726076,-0.0004707797912,-0.0002407562532,-0.0001231224758,-6.296469497e-05,-3.220007385e-05,-1.646708138e-05,-8.421246806e-06,-4.306616099e-06,-2.202398606e-06,-1.126304158e-06,-5.759906732e-07,-2.945609791e-07],
				"AUX_ENDO_LEAD_305": [0,-0.05146351721,-0.02631838454,-0.01345919211,-0.006883015635,-0.003519966417,-0.001800106848,-0.0009205726076,-0.0004707797912,-0.0002407562532,-0.0001231224758,-6.296469497e-05,-3.220007385e-05,-1.646708138e-05,-8.421246806e-06,-4.306616099e-06,-2.202398606e-06,-1.126304158e-06,-5.759906732e-07,-2.945609791e-07,-1.506381516e-07],
				"AUX_ENDO_LAG_0_1": [0,0,-0.09560240522,-0.04889096199,-0.02500278271,-0.01278639482,-0.006538947861,-0.003344010546,-0.001710123214,-0.0008745550791,-0.0004472464791,-0.000228721344,-0.0001169678368,-5.981721956e-05,-3.059045848e-05,-1.56439259e-05,-8.000286025e-06,-4.091337232e-06,-2.092305237e-06,-1.070002534e-06,-5.471980866e-07],
				"AUX_ENDO_LAG_0_2": [0,0,3.057037604e-16,-0.09560240522,-0.04889096199,-0.02500278271,-0.01278639482,-0.006538947861,-0.003344010546,-0.001710123214,-0.0008745550791,-0.0004472464791,-0.000228721344,-0.0001169678368,-5.981721956e-05,-3.059045848e-05,-1.56439259e-05,-8.000286025e-06,-4.091337232e-06,-2.092305237e-06,-1.070002534e-06],
				"AUX_ENDO_LAG_25_1": [0,0,-0.3847868063,-0.1967795379,-0.1006328333,-0.05146351721,-0.02631838454,-0.01345919211,-0.006883015635,-0.003519966417,-0.001800106848,-0.0009205726076,-0.0004707797912,-0.0002407562532,-0.0001231224758,-6.296469497e-05,-3.220007385e-05,-1.646708138e-05,-8.421246806e-06,-4.306616099e-06,-2.202398606e-06],
				"AUX_ENDO_LAG_25_2": [0,0,0,-0.3847868063,-0.1967795379,-0.1006328333,-0.05146351721,-0.02631838454,-0.01345919211,-0.006883015635,-0.003519966417,-0.001800106848,-0.0009205726076,-0.0004707797912,-0.0002407562532,-0.0001231224758,-6.296469497e-05,-3.220007385e-05,-1.646708138e-05,-8.421246806e-06,-4.306616099e-06],
				"AUX_ENDO_LAG_25_3": [0,0,0,0,-0.3847868063,-0.1967795379,-0.1006328333,-0.05146351721,-0.02631838454,-0.01345919211,-0.006883015635,-0.003519966417,-0.001800106848,-0.0009205726076,-0.0004707797912,-0.0002407562532,-0.0001231224758,-6.296469497e-05,-3.220007385e-05,-1.646708138e-05,-8.421246806e-06],
				"AUX_ENDO_LAG_26_1": [0,0,-3.776028228,-1.931056569,-0.9875401469,-0.5050269151,-0.2582701936,-0.1320790851,-0.06754509487,-0.03454248518,-0.01766498789,-0.009033854841,-0.004619903156,-0.002362613253,-0.001208237748,-0.0006178914187,-0.0003159889732,-0.0001615964038,-8.264021827e-05,-4.226211423e-05,-2.161279746e-05],
				"AUX_ENDO_LAG_26_2": [0,0,0,-3.776028228,-1.931056569,-0.9875401469,-0.5050269151,-0.2582701936,-0.1320790851,-0.06754509487,-0.03454248518,-0.01766498789,-0.009033854841,-0.004619903156,-0.002362613253,-0.001208237748,-0.0006178914187,-0.0003159889732,-0.0001615964038,-8.264021827e-05,-4.226211423e-05],
				"AUX_ENDO_LAG_26_3": [0,0,0,0,-3.776028228,-1.931056569,-0.9875401469,-0.5050269151,-0.2582701936,-0.1320790851,-0.06754509487,-0.03454248518,-0.01766498789,-0.009033854841,-0.004619903156,-0.002362613253,-0.001208237748,-0.0006178914187,-0.0003159889732,-0.0001615964038,-8.264021827e-05],
				"AUX_ENDO_LAG_22_1": [0,0,0.6392485873,0.3269110051,0.1671819186,0.08549664422,0.04372288723,0.02235983512,0.01143479441,0.005847740939,0.002990528107,0.001529352694,0.0007821092396,0.0003999697812,0.0002045440941,0.0001046036186,5.349417232e-05,2.735685927e-05,1.399026691e-05,7.154606687e-06,3.658857773e-06],
				"AUX_ENDO_LAG_22_2": [0,0,0,0.6392485873,0.3269110051,0.1671819186,0.08549664422,0.04372288723,0.02235983512,0.01143479441,0.005847740939,0.002990528107,0.001529352694,0.0007821092396,0.0003999697812,0.0002045440941,0.0001046036186,5.349417232e-05,2.735685927e-05,1.399026691e-05,7.154606687e-06],
				"AUX_ENDO_LAG_22_3": [0,0,0,0,0.6392485873,0.3269110051,0.1671819186,0.08549664422,0.04372288723,0.02235983512,0.01143479441,0.005847740939,0.002990528107,0.001529352694,0.0007821092396,0.0003999697812,0.0002045440941,0.0001046036186,5.349417232e-05,2.735685927e-05,1.399026691e-05],
				"AUX_ENDO_LAG_24_1": [0,0,-0.3824096209,-0.195563848,-0.1000111308,-0.05114557928,-0.02615579144,-0.01337604219,-0.006840492857,-0.003498220316,-0.001788985916,-0.0009148853759,-0.0004678713473,-0.0002392688783,-0.0001223618339,-6.257570359e-05,-3.20011441e-05,-1.636534893e-05,-8.369220948e-06,-4.280010135e-06,-2.188792347e-06],
				"AUX_ENDO_LAG_24_2": [0,0,0,-0.3824096209,-0.195563848,-0.1000111308,-0.05114557928,-0.02615579144,-0.01337604219,-0.006840492857,-0.003498220316,-0.001788985916,-0.0009148853759,-0.0004678713473,-0.0002392688783,-0.0001223618339,-6.257570359e-05,-3.20011441e-05,-1.636534893e-05,-8.369220948e-06,-4.280010135e-06],
				"AUX_ENDO_LAG_24_3": [0,0,0,0,-0.3824096209,-0.195563848,-0.1000111308,-0.05114557928,-0.02615579144,-0.01337604219,-0.006840492857,-0.003498220316,-0.001788985916,-0.0009148853759,-0.0004678713473,-0.0002392688783,-0.0001223618339,-6.257570359e-05,-3.20011441e-05,-1.636534893e-05,-8.369220948e-06]
			}
		}
	}
}
