{
	"model": "NK_GM07",
	"rule": "Taylor",
	"data": {
		"AC": {
			"dp": [1,0.9810018351,0.9687656858,0.9578246458,0.9474314018,0.9370614923,0.9268663314,0.9168582191,0.9070276122,0.8973614866,0.8878514141,0.878490041,0.8692705795,0.8601867733,0.8512329152,0.8424037944,0.8336946438,0.8251010961,0.8166191439,0.8082451055,0.799975592],
			"mc": [1,0.1096971528,0.09185955684,0.08820278376,0.1008903867,0.09669160691,0.09302805946,0.0900301285,0.08750966042,0.08514120796,0.08293160922,0.08087814356,0.07896897977,0.07718917858,0.07552614431,0.07396882368,0.072507282,0.07113254317,0.06983651873,0.06861192433,0.06745219875],
			"omega": [1,0.9026565214,0.8151129351,0.7363414605,0.665433295,0.6015841899,0.5440919919,0.4923223765,0.4457034501,0.4037202923,0.3659095721,0.3318543087,0.3011792149,0.2735465274,0.2486522562,0.2262228084,0.2060119476,0.1877980586,0.1713816855,0.1565833153,0.1432413842],
			"lambda": [1,0.9897901674,0.9801159703,0.970390635,0.9606753842,0.9510620053,0.9415507881,0.9321356271,0.9228142293,0.9135859414,0.9044499579,0.8954053571,0.8864512133,0.8775866193,0.8688106793,0.860122506,0.8515212212,0.8430059552,0.8345758472,0.8262300452,0.8179677055],
			"xi": [1,0.9884592348,0.9782552844,0.9683670787,0.958717298,0.9491249429,0.9396228047,0.9302164432,0.92090608,0.9116897006,0.9025661793,0.8935345393,0.8845938153,0.8757430376,0.8669812517,0.8583075192,0.849720916,0.8412205316,0.8328054686,0.824474842,0.8162277788],
			"w": [1,0.9888245453,0.9793028255,0.9696359038,0.9599324617,0.9503185926,0.9408116369,0.9314019637,0.9220861628,0.9128634809,0.9037332068,0.8946944153,0.8857461605,0.8768875184,0.8681175805,0.8594354482,0.850840233,0.8423310559,0.8339070481,0.8255673501,0.8173111119],
			"n": [1,0.7718114323,0.7440482105,0.7244300971,0.7118661961,0.6961883434,0.6814424074,0.6676885354,0.6548318693,0.6427157715,0.6312740568,0.620447552,0.6101809924,0.6004233768,0.591128912,0.5822564069,0.5737687481,0.5656324757,0.5578174248,0.5502963969,0.5430448647],
			"m": [1,0.9765888536,0.9547720087,0.934277333,0.9150070587,0.8969314592,0.8799335221,0.8639090645,0.8487669702,0.8344265203,0.8208147637,0.8078658833,0.7955205653,0.7837253657,0.7724321174,0.7615974011,0.7511820715,0.7411508307,0.7314718443,0.7221163956,0.7130585744],
			"c": [1,0.9897042087,0.979938797,0.9701488865,0.9603874409,0.9507319725,0.9411829029,0.9317342859,0.9223835374,0.913129541,0.9039711061,0.8949069785,0.8859359346,0.877056798,0.8682684304,0.8595697264,0.8509596115,0.8424370394,0.8340009907,0.8256504703,0.8173845062],
			"q": [1,0.9898248055,0.980157702,0.9704309499,0.9607142535,0.9511003064,0.9415886342,0.932172994,0.922851117,0.9136223663,0.9044859352,0.8954408997,0.886486333,0.8776213271,0.8688449853,0.8601564198,0.8515547515,0.8430391104,0.834608635,0.8262624728,0.8179997798],
			"p": [1,"_NaN_","_NaN_","_NaN_","_NaN_","_NaN_","_NaN_","_NaN_","_NaN_","_NaN_","_NaN_","_NaN_","_NaN_","_NaN_","_NaN_","_NaN_","_NaN_","_NaN_","_NaN_","_NaN_","_NaN_"],
			"h": [1,"_NaN_","_NaN_","_NaN_","_NaN_","_NaN_","_NaN_","_NaN_","_NaN_","_NaN_","_NaN_","_NaN_","_NaN_","_NaN_","_NaN_","_NaN_","_NaN_","_NaN_","_NaN_","_NaN_","_NaN_"],
			"b": [1,"_NaN_","_NaN_","_NaN_","_NaN_","_NaN_","_NaN_","_NaN_","_NaN_","_NaN_","_NaN_","_NaN_","_NaN_","_NaN_","_NaN_","_NaN_","_NaN_","_NaN_","_NaN_","_NaN_","_NaN_"],
			"a1": [1,0.99,0.9801,0.970299,0.96059601,0.9509900499,0.9414801494,0.9320653479,0.9227446944,0.9135172475,0.904382075,0.8953382543,0.8863848717,0.877521023,0.8687458128,0.8600583546,0.8514577711,0.8429431934,0.8345137615,0.8261686238,0.8179069376],
			"a2": [1,0.99,0.9801,0.970299,0.96059601,0.9509900499,0.9414801494,0.9320653479,0.9227446944,0.9135172475,0.904382075,0.8953382543,0.8863848717,0.877521023,0.8687458128,0.8600583546,0.8514577711,0.8429431934,0.8345137615,0.8261686238,0.8179069376],
			"a3": [1,0.9,0.81,0.729,0.6561,0.59049,0.531441,0.4782969,0.43046721,0.387420489,0.3486784401,0.3138105961,0.2824295365,0.2541865828,0.2287679245,0.2058911321,0.1853020189,0.166771817,0.1500946353,0.1350851718,0.1215766546],
			"CEFP": [1,0.97661588,0.9550127539,0.9346138456,0.9153687443,0.8973200464,0.8803495746,0.8643497567,0.8492288836,0.8349068065,0.821310947,0.8083757426,0.7960421004,0.7842567819,0.7729718062,0.762143921,0.7517341315,0.7417072749,0.7320316383,0.7226786145,0.7136223917],
			"UEFP": [1,0.97661588,0.9550127539,0.9346138456,0.9153687443,0.8973200464,0.8803495746,0.8643497567,0.8492288836,0.8349068065,0.821310947,0.8083757426,0.7960421004,0.7842567819,0.7729718062,0.762143921,0.7517341315,0.7417072749,0.7320316383,0.7226786145,0.7136223917],
			"rT": [1,0.7686296993,0.7618325308,0.7533163095,0.7492452592,0.7410926754,0.7331996379,0.725510971,0.7179916795,0.7105647546,0.7032336556,0.695998018,0.6888553924,0.6818025074,0.6748365741,0.6679550837,0.6611557207,0.6544363331,0.6477949225,0.6412296307,0.6347387261],
			"rIB": [1,0.8665338743,0.8571110682,0.8466334558,0.8379417049,0.8273496906,0.8171834793,0.8073604586,0.7978285888,0.7885319474,0.7794584103,0.7705943076,0.7619259837,0.7534406034,0.7451266817,0.736973847,0.7289726976,0.7211147011,0.7133921116,0.7057978922,0.6983256448],
			"rL": [1,0.8409118588,0.8324489714,0.8227127428,0.8153886285,0.8055743629,0.7961286305,0.7869758254,0.7780689744,0.7693480537,0.7608062864,0.7524345765,0.7442231716,0.736162616,0.7282444901,0.7204611908,0.7128058101,0.7052720605,0.6978542175,0.6905470652,0.6833458454],
			"rB": [1,0.8487493145,0.8384649768,0.8271102966,0.8179625784,0.8067028562,0.7959712616,0.7856716317,0.7757409906,0.7661104279,0.7567615534,0.7476747939,0.7388310267,0.7302124251,0.7218030305,0.7135884527,0.7055556755,0.6976929157,0.6899895039,0.6824357744,0.6750229657],
			"interest": [1,0.8665338743,0.8571110682,0.8466334558,0.8379417049,0.8273496906,0.8171834793,0.8073604586,0.7978285888,0.7885319474,0.7794584103,0.7705943076,0.7619259837,0.7534406034,0.7451266817,0.736973847,0.7289726976,0.7211147011,0.7133921116,0.7057978922,0.6983256448],
			"inflation": [1,0.99664671,0.9890120704,0.9787047196,0.9672626139,0.9565964872,0.9462008468,0.9359892012,0.9259432949,0.9160662222,0.9063502349,0.8967871124,0.8873695517,0.8780911206,0.8689459467,0.859928652,0.8510343141,0.8422584246,0.8335968486,0.8250457875,0.8166017463],
			"inflationq": [1,0.9810018351,0.9687656858,0.9578246458,0.9474314018,0.9370614923,0.9268663314,0.9168582191,0.9070276122,0.8973614866,0.8878514141,0.878490041,0.8692705795,0.8601867733,0.8512329152,0.8424037944,0.8336946438,0.8251010961,0.8166191439,0.8082451055,0.799975592],
			"output": [1,0.9897042087,0.979938797,0.9701488865,0.9603874409,0.9507319725,0.9411829029,0.9317342859,0.9223835374,0.913129541,0.9039711061,0.8949069785,0.8859359346,0.877056798,0.8682684304,0.8595697264,0.8509596115,0.8424370394,0.8340009907,0.8256504703,0.8173845062],
			"outputgap": [1,0.1096971528,0.09185955684,0.08820278376,0.1008903867,0.09669160691,0.09302805946,0.0900301285,0.08750966042,0.08514120796,0.08293160922,0.08087814356,0.07896897977,0.07718917858,0.07552614431,0.07396882368,0.072507282,0.07113254317,0.06983651873,0.06861192433,0.06745219875],
			"fispol": [1,"_NaN_","_NaN_","_NaN_","_NaN_","_NaN_","_NaN_","_NaN_","_NaN_","_NaN_","_NaN_","_NaN_","_NaN_","_NaN_","_NaN_","_NaN_","_NaN_","_NaN_","_NaN_","_NaN_","_NaN_"],
			"AUX_ENDO_LEAD_227": [1,0.9876340995,0.9765177822,0.965954679,0.9554949499,0.9451962461,0.9350744044,0.9251232641,0.9153319403,0.905692423,0.8961978732,0.8868420349,0.8776191449,0.8685239311,0.8595515714,0.8506976473,0.8419581033,0.8333292115,0.8248075397,0.8163899226,0.8080734358],
			"AUX_ENDO_LEAD_231": [1,0.9888670464,0.9782589486,0.9677476425,0.9573919827,0.9472073914,0.9371881268,0.9273240147,0.9176076526,0.9080327213,0.8985934285,0.8892844288,0.8801008261,0.871038135,0.862092239,0.8532593535,0.8445359931,0.835918943,0.8274052324,0.8189921111,0.8106770279],
			"AUX_ENDO_LEAD_235": [1,0.9893493386,0.9787879484,0.9683771225,0.9581325348,0.9480488761,0.9381165141,0.9283285478,0.9186790971,0.9091627614,0.8997745472,0.8905098741,0.8813645403,0.8723346833,0.863416746,0.8546074471,0.8459037544,0.8373028604,0.828802161,0.8203992357,0.81209183],
			"AUX_ENDO_LEAD_262": [1,0.8634891947,0.7895886226,0.7702193402,0.7498044523,0.7281567976,0.7075928904,0.6887587767,0.6713465047,0.6551581675,0.6400734544,0.6259923929,0.612820502,0.6004716274,0.5888682967,0.5779408514,0.5676265561,0.5578688932,0.5486169467,0.5398248455,0.5314512584],
			"AUX_ENDO_LEAD_266": [1,0.9350555585,0.9103473113,0.8867352324,0.8628504123,0.8402675195,0.8194321702,0.8000930679,0.7820611221,0.7652085065,0.7494271419,0.734616739,0.7206861307,0.7075532663,0.695144324,0.6833928115,0.6722388215,0.6616283777,0.6515128439,0.6418483904,0.6325955139],
			"AUX_ENDO_LEAD_270": [1,0.9739483158,0.9491169732,0.9248184476,0.9020558842,0.8809491001,0.8612863695,0.8429039523,0.8256800306,0.8095076334,0.7942886603,0.779934306,0.7663646369,0.7535076933,0.7412986486,0.7296790914,0.7185963869,0.7080031008,0.6978564798,0.688117984,0.6787528662],
			"AUX_ENDO_LEAD_297": [1,0.9901421103,0.9802533711,0.9703853198,0.9606354202,0.950992042,0.941449306,0.9320048263,0.9226577217,0.9134068089,0.9042508486,0.895188637,0.8862190172,0.8773408668,0.868553094,0.8598546353,0.851244454,0.842721538,0.8342848983,0.8259335674,0.8176665981],
			"AUX_ENDO_LEAD_301": [1,0.9900199107,0.9800580298,0.9702151781,0.9604795521,0.9508451589,0.9413096028,0.9318720418,0.9225313183,0.9132862126,0.904135537,0.8950781489,0.8861129378,0.8772388218,0.8684547456,0.859759679,0.851152615,0.8426325683,0.8341985742,0.8258496868,0.8175849785],
			"AUX_ENDO_LEAD_305": [1,0.9899415614,0.9800029776,0.9701723822,0.9604437026,0.9508145291,0.9412840475,0.9318511199,0.9225145408,0.9132731342,0.9041257671,0.8950713371,0.8861087687,0.8772370114,0.8684550387,0.859761846,0.8511564495,0.8426378847,0.8342052056,0.8258574833,0.8175938052],
			"AUX_ENDO_LAG_0_1": [1,0.9810018351,0.9687656858,0.9578246458,0.9474314018,0.9370614923,0.9268663314,0.9168582191,0.9070276122,0.8973614866,0.8878514141,0.878490041,0.8692705795,0.8601867733,0.8512329152,0.8424037944,0.8336946438,0.8251010961,0.8166191439,0.8082451055,0.799975592],
			"AUX_ENDO_LAG_0_2": [1,0.9810018351,0.9687656858,0.9578246458,0.9474314018,0.9370614923,0.9268663314,0.9168582191,0.9070276122,0.8973614866,0.8878514141,0.878490041,0.8692705795,0.8601867733,0.8512329152,0.8424037944,0.8336946438,0.8251010961,0.8166191439,0.8082451055,0.799975592],
			"AUX_ENDO_LAG_25_1": [1,0.9897042087,0.979938797,0.9701488865,0.9603874409,0.9507319725,0.9411829029,0.9317342859,0.9223835374,0.913129541,0.9039711061,0.8949069785,0.8859359346,0.877056798,0.8682684304,0.8595697264,0.8509596115,0.8424370394,0.8340009907,0.8256504703,0.8173845062],
			"AUX_ENDO_LAG_25_2": [1,0.9897042087,0.979938797,0.9701488865,0.9603874409,0.9507319725,0.9411829029,0.9317342859,0.9223835374,0.913129541,0.9039711061,0.8949069785,0.8859359346,0.877056798,0.8682684304,0.8595697264,0.8509596115,0.8424370394,0.8340009907,0.8256504703,0.8173845062],
			"AUX_ENDO_LAG_25_3": [1,0.9897042087,0.979938797,0.9701488865,0.9603874409,0.9507319725,0.9411829029,0.9317342859,0.9223835374,0.913129541,0.9039711061,0.8949069785,0.8859359346,0.877056798,0.8682684304,0.8595697264,0.8509596115,0.8424370394,0.8340009907,0.8256504703,0.8173845062],
			"AUX_ENDO_LAG_26_1": [1,0.1096971528,0.09185955684,0.08820278376,0.1008903867,0.09669160691,0.09302805946,0.0900301285,0.08750966042,0.08514120796,0.08293160922,0.08087814356,0.07896897977,0.07718917858,0.07552614431,0.07396882368,0.072507282,0.07113254317,0.06983651873,0.06861192433,0.06745219875],
			"AUX_ENDO_LAG_26_2": [1,0.1096971528,0.09185955684,0.08820278376,0.1008903867,0.09669160691,0.09302805946,0.0900301285,0.08750966042,0.08514120796,0.08293160922,0.08087814356,0.07896897977,0.07718917858,0.07552614431,0.07396882368,0.072507282,0.07113254317,0.06983651873,0.06861192433,0.06745219875],
			"AUX_ENDO_LAG_26_3": [1,0.1096971528,0.09185955684,0.08820278376,0.1008903867,0.09669160691,0.09302805946,0.0900301285,0.08750966042,0.08514120796,0.08293160922,0.08087814356,0.07896897977,0.07718917858,0.07552614431,0.07396882368,0.072507282,0.07113254317,0.06983651873,0.06861192433,0.06745219875],
			"AUX_ENDO_LAG_22_1": [1,0.8665338743,0.8571110682,0.8466334558,0.8379417049,0.8273496906,0.8171834793,0.8073604586,0.7978285888,0.7885319474,0.7794584103,0.7705943076,0.7619259837,0.7534406034,0.7451266817,0.736973847,0.7289726976,0.7211147011,0.7133921116,0.7057978922,0.6983256448],
			"AUX_ENDO_LAG_22_2": [1,0.8665338743,0.8571110682,0.8466334558,0.8379417049,0.8273496906,0.8171834793,0.8073604586,0.7978285888,0.7885319474,0.7794584103,0.7705943076,0.7619259837,0.7534406034,0.7451266817,0.736973847,0.7289726976,0.7211147011,0.7133921116,0.7057978922,0.6983256448],
			"AUX_ENDO_LAG_22_3": [1,0.8665338743,0.8571110682,0.8466334558,0.8379417049,0.8273496906,0.8171834793,0.8073604586,0.7978285888,0.7885319474,0.7794584103,0.7705943076,0.7619259837,0.7534406034,0.7451266817,0.736973847,0.7289726976,0.7211147011,0.7133921116,0.7057978922,0.6983256448],
			"AUX_ENDO_LAG_24_1": [1,0.9810018351,0.9687656858,0.9578246458,0.9474314018,0.9370614923,0.9268663314,0.9168582191,0.9070276122,0.8973614866,0.8878514141,0.878490041,0.8692705795,0.8601867733,0.8512329152,0.8424037944,0.8336946438,0.8251010961,0.8166191439,0.8082451055,0.799975592],
			"AUX_ENDO_LAG_24_2": [1,0.9810018351,0.9687656858,0.9578246458,0.9474314018,0.9370614923,0.9268663314,0.9168582191,0.9070276122,0.8973614866,0.8878514141,0.878490041,0.8692705795,0.8601867733,0.8512329152,0.8424037944,0.8336946438,0.8251010961,0.8166191439,0.8082451055,0.799975592],
			"AUX_ENDO_LAG_24_3": [1,0.9810018351,0.9687656858,0.9578246458,0.9474314018,0.9370614923,0.9268663314,0.9168582191,0.9070276122,0.8973614866,0.8878514141,0.878490041,0.8692705795,0.8601867733,0.8512329152,0.8424037944,0.8336946438,0.8251010961,0.8166191439,0.8082451055,0.799975592]
		},
		"VAR": {
			"dp": 0.0338571222,
			"mc": 0.07699155802,
			"omega": 3.262032244,
			"lambda": 20.69861868,
			"xi": 21.28726759,
			"w": 20.28815249,
			"n": 0.1491249622,
			"m": 67.00649576,
			"c": 19.26152573,
			"q": 20.89304117,
			"p": "_NaN_",
			"h": "_NaN_",
			"b": 0,
			"a1": 50.25125628,
			"a2": 50.25125628,
			"a3": 5.263157895,
			"CEFP": 0.001473382936,
			"UEFP": 0.01202761581,
			"rT": 0.0604262563,
			"rIB": 0.1140866027,
			"rL": 0.09256919888,
			"rB": 0.09940991952,
			"interest": 1.825385644,
			"inflation": 0.5307687278,
			"inflationq": 0.5417139552,
			"output": 19.26152573,
			"outputgap": 1.231864928,
			"fispol": 0,
			"AUX_ENDO_LEAD_227": 0.5240098232,
			"AUX_ENDO_LEAD_231": 0.5112235669,
			"AUX_ENDO_LEAD_235": 0.4999526986,
			"AUX_ENDO_LEAD_262": 0.140280338,
			"AUX_ENDO_LEAD_266": 0.1094289241,
			"AUX_ENDO_LEAD_270": 0.09771527083,
			"AUX_ENDO_LEAD_297": 18.87868327,
			"AUX_ENDO_LEAD_301": 18.50850342,
			"AUX_ENDO_LEAD_305": 18.14102138,
			"AUX_ENDO_LAG_0_1": 0.0338571222,
			"AUX_ENDO_LAG_0_2": 0.0338571222,
			"AUX_ENDO_LAG_25_1": 19.26152573,
			"AUX_ENDO_LAG_25_2": 19.26152573,
			"AUX_ENDO_LAG_25_3": 19.26152573,
			"AUX_ENDO_LAG_26_1": 1.231864928,
			"AUX_ENDO_LAG_26_2": 1.231864928,
			"AUX_ENDO_LAG_26_3": 1.231864928,
			"AUX_ENDO_LAG_22_1": 1.825385644,
			"AUX_ENDO_LAG_22_2": 1.825385644,
			"AUX_ENDO_LAG_22_3": 1.825385644,
			"AUX_ENDO_LAG_24_1": 0.5417139552,
			"AUX_ENDO_LAG_24_2": 0.5417139552,
			"AUX_ENDO_LAG_24_3": 0.5417139552
		},
		"IRF": {
			"interest_": {
				"dp": [0,-0.01182642499,0.0008260041785,0.0004459434624,0.0001434741963,-4.366456772e-05,-1.097109774e-05,8.056429748e-08,1.236176942e-06,1.048529469e-07,-6.13958041e-08,-2.210642643e-08,2.298521058e-09,1.870015928e-09,1.63666906e-10,-1.318417397e-10,-3.093490699e-11,4.871774e-12,3.315937061e-12,1.097048819e-13,-2.353005887e-13],
				"mc": [0,-0.2528833826,0.007690403015,0.006078080161,0.003734042367,-0.0006560636192,-0.0002210171278,-2.286501751e-05,2.26474505e-05,3.312695859e-06,-7.902088387e-07,-4.876392455e-07,8.944105772e-09,3.415971384e-08,5.88380457e-09,-2.02432363e-09,-7.151592598e-10,3.177993142e-11,6.414658978e-11,6.853054515e-12,-3.774121489e-12],
				"omega": [0,0.005732575919,-0.00044735835,-0.0002334550644,-6.633739305e-05,2.251105331e-05,5.394162033e-06,-1.585939153e-07,-6.179744756e-07,-4.577489392e-08,3.232728283e-08,1.065412745e-08,-1.308771442e-09,-9.357763745e-10,-6.79072323e-11,6.781065118e-11,1.475609377e-11,-2.713671782e-12,-1.641742815e-12,-3.148232686e-14,1.203093343e-13],
				"lambda": [0,0.1120309212,-0.003324772349,-0.002663876822,-0.001659744993,0.0002883460631,9.779814152e-05,1.033328979e-05,-1.000166033e-05,-1.476397026e-06,3.457348181e-07,2.161515292e-07,-3.629436117e-09,-1.508464872e-08,-2.626316875e-09,8.902052985e-10,3.172638791e-10,-1.347896561e-11,-2.836138206e-11,-3.073295615e-12,1.661518382e-12],
				"xi": [0,-0.1408524613,0.004365630667,0.003414203339,0.002074297375,-0.0003677175561,-0.0001232189863,-1.253172772e-05,1.264579017e-05,1.836298834e-06,-4.444740206e-07,-2.714877162e-07,5.314669655e-09,1.907506512e-08,3.257487695e-09,-1.134118332e-09,-3.978953807e-10,1.830096581e-11,3.578520772e-11,3.779758901e-12,-2.112603107e-12],
				"w": [0,-0.191606128,0.005748675838,0.004577860732,0.002834476855,-0.0004949012041,-0.0001673515027,-1.751846104e-05,1.712968274e-05,2.518383728e-06,-5.945997258e-07,-3.695919361e-07,6.459902934e-09,2.583607564e-08,4.476835001e-09,-1.527519705e-09,-5.422830811e-10,2.350806036e-11,4.854920426e-11,5.227962947e-12,-2.849630979e-12],
				"n": [0,-0.1660613304,0.00506957436,0.003998137414,0.002450731482,-0.0004313640609,-0.0001451630969,-1.496644744e-05,1.487940861e-05,2.173258563e-06,-5.199374499e-07,-3.201902507e-07,5.952355276e-09,2.244324492e-08,3.859049865e-09,-1.330881894e-09,-4.695207584e-10,2.101138102e-11,4.213664851e-11,4.491359563e-12,-2.48083849e-12],
				"m": [0,-0.09412846665,0.002296305513,0.002063975902,0.001427859215,-0.0002283585041,-8.147090029e-05,-9.914682492e-06,8.212960994e-06,1.29386088e-06,-2.64238964e-07,-1.823392405e-07,1.035431576e-09,1.238020239e-08,2.32585555e-09,-7.080327502e-10,-2.692162191e-10,7.695383924e-12,2.348761926e-11,2.807747556e-12,-1.332720804e-12],
				"c": [0,-0.1047840759,0.003127847183,0.002497917985,0.00155116597,-0.0002702016458,-9.149747183e-05,-9.619890969e-06,9.361640854e-06,1.378946431e-06,-3.243283369e-07,-2.021429413e-07,3.468152435e-09,1.411960672e-08,2.452080293e-09,-8.340779718e-10,-2.966445819e-10,1.273950769e-11,2.653926071e-11,2.866265712e-12,-1.556350263e-12],
				"q": [0,-0.1117516918,0.0036715855,0.002781669174,0.001631795252,-0.000297562535,-9.80537652e-05,-9.427129196e-06,1.011275325e-05,1.434583179e-06,-3.636202879e-07,-2.150924198e-07,5.058888768e-09,1.525698902e-08,2.534617624e-09,-9.16497914e-10,-3.145797643e-10,1.603781949e-11,2.853470456e-11,2.904530662e-12,-1.702579337e-12],
				"p": [0,-0.01182642499,-0.01100042081,-0.01055447735,-0.01041100315,-0.01045466772,-0.01046563882,-0.01046555825,-0.01046432208,-0.01046421723,-0.01046427862,-0.01046430073,-0.01046429843,-0.01046429656,-0.0104642964,-0.01046429653,-0.01046429656,-0.01046429655,-0.01046429655,-0.01046429655,-0.01046429655],
				"h": [0,-0.1166105008,-0.00787257363,-0.008056559365,-0.008859837184,-0.01072486937,-0.01055713629,-0.01047517815,-0.01045496044,-0.01046283828,-0.01046460295,-0.01046450287,-0.01046429496,-0.01046428244,-0.01046429394,-0.01046429736,-0.01046429685,-0.01046429654,-0.01046429652,-0.01046429655,-0.01046429655],
				"b": [0,0,0,0,0,0,0,0,0,0,0,0,0,0,0,0,0,0,0,0,0],
				"a1": [0,0,-3.636859378e-18,-2.36232233e-18,-1.876493933e-18,-1.197561724e-18,-5.926816923e-19,1.618242429e-20,6.176098136e-19,1.213883047e-18,1.804012904e-18,2.388241365e-18,2.966619983e-18,3.539218551e-18,4.106091196e-18,4.667295085e-18,5.222886869e-18,5.772922739e-18,6.317458254e-18,6.856548415e-18,7.390247673e-18],
				"a2": [0,0,0,0,0,0,0,0,0,0,0,0,0,0,0,0,0,0,0,0,0],
				"a3": [0,0,0,0,0,0,0,0,0,0,0,0,0,0,0,0,0,0,0,0,0],
				"CEFP": [0,-0.000823202123,2.236962521e-05,1.885201906e-05,1.233398499e-05,-2.061106877e-06,-7.157217245e-07,-8.103821655e-08,7.270272329e-08,1.106985621e-08,-2.43165955e-09,-1.591299211e-09,1.832094683e-11,1.096235099e-10,1.979232568e-11,-6.37575829e-12,-2.342239746e-12,8.399838739e-14,2.069830499e-13,2.351746724e-14,-1.194652588e-14],
				"UEFP": [0,-0.002352006066,6.391321488e-05,5.38629116e-05,3.52399571e-05,-5.888876792e-06,-2.044919213e-06,-2.315377616e-07,2.077220665e-07,3.162816061e-08,-6.947598715e-09,-4.546569176e-09,5.234556236e-11,3.132100281e-10,5.654950194e-11,-1.821645226e-11,-6.692113559e-12,2.399953924e-13,5.913801426e-13,6.719276342e-14,-3.41329312e-14],
				"rT": [0,0.1167713933,-0.0002160430821,-0.0008650260143,-0.002001865042,0.0001804882897,8.798976434e-05,2.168061417e-05,-8.463149264e-06,-1.893087741e-06,1.080223754e-07,2.232066802e-07,1.339286249e-08,-1.235706813e-08,-3.666881665e-09,5.447575378e-10,3.373180749e-10,1.829072157e-11,-2.530617784e-11,-4.995341139e-12,1.102097566e-12],
				"rIB": [0,0.1191233994,-0.000279956297,-0.0009188889259,-0.002037104999,0.0001863771665,9.003468355e-05,2.191215193e-05,-8.670871331e-06,-1.924715902e-06,1.149699742e-07,2.277532493e-07,1.334051693e-08,-1.267027816e-08,-3.723431167e-09,5.629739908e-10,3.440101892e-10,1.805072686e-11,-2.58975573e-11,-5.062533225e-12,1.136231174e-12],
				"rL": [0,0.1183001972,-0.0002575866717,-0.0009000369069,-0.002024771014,0.0001843160596,8.931896183e-05,2.183111371e-05,-8.598168608e-06,-1.913646045e-06,1.125383146e-07,2.261619501e-07,1.335883787e-08,-1.256065465e-08,-3.703638841e-09,5.565982325e-10,3.416679494e-10,1.813472524e-11,-2.569057425e-11,-5.039015757e-12,1.124284648e-12],
				"rB": [0,0.1185035657,-0.0002602881838,-0.0009037043644,-0.002028007501,0.0001847462132,8.949180518e-05,2.185813744e-05,-8.61504745e-06,-1.916684159e-06,1.129899122e-07,2.26559213e-07,1.336575496e-08,-1.258606661e-08,-3.70920584e-09,5.579465278e-10,3.422616503e-10,1.813459596e-11,-2.573976808e-11,-5.046107906e-12,1.126875725e-12],
				"interest": [0,0.4764935974,-0.001119825188,-0.003675555704,-0.008148419996,0.0007455086659,0.0003601387342,8.764860772e-05,-3.468348532e-05,-7.698863607e-06,4.598798966e-07,9.110129973e-07,5.33620677e-08,-5.068111264e-08,-1.489372467e-08,2.251895963e-09,1.376040757e-09,7.220290759e-11,-1.03590229e-10,-2.025013273e-11,4.544924866e-12],
				"inflation": [0,-0.01182642499,-0.01100042081,-0.01055447735,-0.01041100315,0.00137175727,0.0005347819933,8.891909516e-05,-5.331892422e-05,-9.54950355e-06,1.360198383e-06,1.257527659e-06,2.364923744e-08,-7.933369354e-08,-1.777422254e-08,4.20036215e-09,1.870906186e-09,5.762031465e-12,-1.545889374e-10,-2.263749288e-11,8.06211352e-12],
				"inflationq": [0,-0.04730569996,0.003304016714,0.00178377385,0.0005738967853,-0.0001746582709,-4.388439095e-05,3.222571899e-07,4.94470777e-06,4.194117876e-07,-2.455832164e-07,-8.842570571e-08,9.194084231e-09,7.480063714e-09,6.546676245e-10,-5.273669581e-10,-1.237396274e-10,1.948709659e-11,1.326374884e-11,4.388201199e-13,-9.412017626e-13],
				"output": [0,-0.1047840759,0.003127847183,0.002497917985,0.00155116597,-0.0002702016458,-9.149747183e-05,-9.619890969e-06,9.361640854e-06,1.378946431e-06,-3.243283369e-07,-2.021429413e-07,3.468152434e-09,1.411960672e-08,2.452080292e-09,-8.340779737e-10,-2.966445837e-10,1.273950585e-11,2.653925887e-11,2.866263874e-12,-1.556352101e-12],
				"outputgap": [0,-1.01153353,0.03076161206,0.02431232064,0.01493616947,-0.002624254477,-0.0008840685113,-9.146007004e-05,9.0589802e-05,1.325078344e-05,-3.160835355e-06,-1.950556982e-06,3.577642309e-08,1.366388553e-07,2.353521828e-08,-8.097294518e-09,-2.860637037e-09,1.271197275e-10,2.56586361e-10,2.741221991e-11,-1.50964841e-11],
				"fispol": [0,0,0,0,0,0,0,0,0,0,0,0,0,0,0,0,0,0,0,0,0],
				"AUX_ENDO_LEAD_227": [0,0.003304016714,0.00178377385,0.0005738967853,-0.0001746582709,-4.388439095e-05,3.222571899e-07,4.94470777e-06,4.194117876e-07,-2.455832164e-07,-8.842570571e-08,9.194084227e-09,7.480063711e-09,6.546676207e-10,-5.273669619e-10,-1.237396311e-10,1.948709283e-11,1.326374507e-11,4.388163548e-13,-9.412055277e-13,-1.882627819e-13],
				"AUX_ENDO_LEAD_231": [0,0.00178377385,0.0005738967853,-0.0001746582709,-4.388439095e-05,3.222571899e-07,4.94470777e-06,4.194117876e-07,-2.455832164e-07,-8.842570571e-08,9.194084227e-09,7.480063711e-09,6.546676208e-10,-5.273669618e-10,-1.237396311e-10,1.94870929e-11,1.326374515e-11,4.388164284e-13,-9.412054541e-13,-1.882627083e-13,4.542733539e-14],
				"AUX_ENDO_LEAD_235": [0,0.0005738967853,-0.0001746582709,-4.388439095e-05,3.222571899e-07,4.94470777e-06,4.194117876e-07,-2.455832164e-07,-8.842570571e-08,9.194084227e-09,7.480063711e-09,6.546676208e-10,-5.273669618e-10,-1.23739631e-10,1.948709294e-11,1.326374518e-11,4.388164678e-13,-9.412054148e-13,-1.882626689e-13,4.542737478e-14,2.152209882e-14],
				"AUX_ENDO_LEAD_262": [0,0.03076161206,0.02431232064,0.01493616947,-0.002624254477,-0.0008840685113,-9.146007004e-05,9.0589802e-05,1.325078344e-05,-3.160835355e-06,-1.950556982e-06,3.577642309e-08,1.366388553e-07,2.353521828e-08,-8.09729452e-09,-2.860637039e-09,1.271197259e-10,2.565863593e-10,2.741221827e-11,-1.509648575e-11,-4.664693695e-12],
				"AUX_ENDO_LEAD_266": [0,0.02431232064,0.01493616947,-0.002624254477,-0.0008840685113,-9.146007004e-05,9.0589802e-05,1.325078344e-05,-3.160835355e-06,-1.950556982e-06,3.577642309e-08,1.366388553e-07,2.353521828e-08,-8.097294519e-09,-2.860637038e-09,1.271197265e-10,2.565863599e-10,2.741221889e-11,-1.509648513e-11,-4.664693079e-12,4.824322588e-13],
				"AUX_ENDO_LEAD_270": [0,0.01493616947,-0.002624254477,-0.0008840685113,-9.146007004e-05,9.0589802e-05,1.325078344e-05,-3.160835355e-06,-1.950556982e-06,3.577642309e-08,1.366388553e-07,2.353521828e-08,-8.097294518e-09,-2.860637038e-09,1.271197272e-10,2.565863606e-10,2.741221956e-11,-1.509648445e-11,-4.664692403e-12,4.824329349e-13,4.327827388e-13],
				"AUX_ENDO_LEAD_297": [0,0.003127847183,0.002497917985,0.00155116597,-0.0002702016458,-9.149747183e-05,-9.619890969e-06,9.361640854e-06,1.378946431e-06,-3.243283369e-07,-2.021429413e-07,3.468152433e-09,1.411960672e-08,2.452080291e-09,-8.340779738e-10,-2.966445839e-10,1.273950569e-11,2.653925871e-11,2.866263712e-12,-1.556352263e-12,-4.841339691e-13],
				"AUX_ENDO_LEAD_301": [0,0.002497917985,0.00155116597,-0.0002702016458,-9.149747183e-05,-9.619890969e-06,9.361640854e-06,1.378946431e-06,-3.243283369e-07,-2.021429413e-07,3.468152434e-09,1.411960672e-08,2.452080291e-09,-8.340779738e-10,-2.966445839e-10,1.273950571e-11,2.653925873e-11,2.866263736e-12,-1.556352238e-12,-4.841339443e-13,4.92683643e-14],
				"AUX_ENDO_LEAD_305": [0,0.00155116597,-0.0002702016458,-9.149747183e-05,-9.619890969e-06,9.361640854e-06,1.378946431e-06,-3.243283369e-07,-2.021429413e-07,3.468152434e-09,1.411960672e-08,2.452080292e-09,-8.340779737e-10,-2.966445838e-10,1.273950579e-11,2.653925881e-11,2.86626382e-12,-1.556352155e-12,-4.841338607e-13,4.926844788e-14,4.480848351e-14],
				"AUX_ENDO_LAG_0_1": [0,0,-0.01182642499,0.0008260041785,0.0004459434624,0.0001434741963,-4.366456772e-05,-1.097109774e-05,8.056429748e-08,1.236176942e-06,1.048529469e-07,-6.13958041e-08,-2.210642643e-08,2.298521058e-09,1.870015928e-09,1.63666906e-10,-1.318417397e-10,-3.093490699e-11,4.871774e-12,3.315937061e-12,1.097048815e-13],
				"AUX_ENDO_LAG_0_2": [0,0,8.782427229e-20,-0.01182642499,0.0008260041785,0.0004459434624,0.0001434741963,-4.366456772e-05,-1.097109774e-05,8.056429748e-08,1.236176942e-06,1.048529469e-07,-6.13958041e-08,-2.210642643e-08,2.298521056e-09,1.870015927e-09,1.636669041e-10,-1.318417415e-10,-3.093490883e-11,4.871772166e-12,3.315935227e-12],
				"AUX_ENDO_LAG_25_1": [0,0,-0.1047840759,0.003127847183,0.002497917985,0.00155116597,-0.0002702016458,-9.149747183e-05,-9.619890969e-06,9.361640854e-06,1.378946431e-06,-3.243283369e-07,-2.021429413e-07,3.468152434e-09,1.411960672e-08,2.452080292e-09,-8.340779737e-10,-2.966445837e-10,1.273950585e-11,2.653925887e-11,2.866263874e-12],
				"AUX_ENDO_LAG_25_2": [0,0,0,-0.1047840759,0.003127847183,0.002497917985,0.00155116597,-0.0002702016458,-9.149747183e-05,-9.619890969e-06,9.361640854e-06,1.378946431e-06,-3.243283369e-07,-2.021429413e-07,3.468152434e-09,1.411960672e-08,2.452080292e-09,-8.340779737e-10,-2.966445837e-10,1.273950585e-11,2.653925887e-11],
				"AUX_ENDO_LAG_25_3": [0,0,0,0,-0.1047840759,0.003127847183,0.002497917985,0.00155116597,-0.0002702016458,-9.149747183e-05,-9.619890969e-06,9.361640854e-06,1.378946431e-06,-3.243283369e-07,-2.021429413e-07,3.468152434e-09,1.411960672e-08,2.452080292e-09,-8.340779737e-10,-2.966445837e-10,1.273950585e-11],
				"AUX_ENDO_LAG_26_1": [0,0,-1.01153353,0.03076161206,0.02431232064,0.01493616947,-0.002624254477,-0.0008840685113,-9.146007004e-05,9.0589802e-05,1.325078344e-05,-3.160835355e-06,-1.950556982e-06,3.577642309e-08,1.366388553e-07,2.353521828e-08,-8.097294518e-09,-2.860637037e-09,1.271197275e-10,2.56586361e-10,2.741221991e-11],
				"AUX_ENDO_LAG_26_2": [0,0,0,-1.01153353,0.03076161206,0.02431232064,0.01493616947,-0.002624254477,-0.0008840685113,-9.146007004e-05,9.0589802e-05,1.325078344e-05,-3.160835355e-06,-1.950556982e-06,3.577642309e-08,1.366388553e-07,2.353521828e-08,-8.097294518e-09,-2.860637037e-09,1.271197275e-10,2.56586361e-10],
				"AUX_ENDO_LAG_26_3": [0,0,0,0,-1.01153353,0.03076161206,0.02431232064,0.01493616947,-0.002624254477,-0.0008840685113,-9.146007004e-05,9.0589802e-05,1.325078344e-05,-3.160835355e-06,-1.950556982e-06,3.577642309e-08,1.366388553e-07,2.353521828e-08,-8.097294518e-09,-2.860637037e-09,1.271197275e-10],
				"AUX_ENDO_LAG_22_1": [0,0,0.4764935974,-0.001119825188,-0.003675555704,-0.008148419996,0.0007455086659,0.0003601387342,8.764860772e-05,-3.468348532e-05,-7.698863607e-06,4.598798966e-07,9.110129973e-07,5.33620677e-08,-5.068111264e-08,-1.489372467e-08,2.251895963e-09,1.376040757e-09,7.220290759e-11,-1.03590229e-10,-2.025013273e-11],
				"AUX_ENDO_LAG_22_2": [0,0,0,0.4764935974,-0.001119825188,-0.003675555704,-0.008148419996,0.0007455086659,0.0003601387342,8.764860772e-05,-3.468348532e-05,-7.698863607e-06,4.598798966e-07,9.110129973e-07,5.33620677e-08,-5.068111264e-08,-1.489372467e-08,2.251895963e-09,1.376040757e-09,7.220290759e-11,-1.03590229e-10],
				"AUX_ENDO_LAG_22_3": [0,0,0,0,0.4764935974,-0.001119825188,-0.003675555704,-0.008148419996,0.0007455086659,0.0003601387342,8.764860772e-05,-3.468348532e-05,-7.698863607e-06,4.598798966e-07,9.110129973e-07,5.33620677e-08,-5.068111264e-08,-1.489372467e-08,2.251895963e-09,1.376040757e-09,7.220290759e-11],
				"AUX_ENDO_LAG_24_1": [0,0,-0.04730569996,0.003304016714,0.00178377385,0.0005738967853,-0.0001746582709,-4.388439095e-05,3.222571899e-07,4.94470777e-06,4.194117876e-07,-2.455832164e-07,-8.842570572e-08,9.194084222e-09,7.480063705e-09,6.546676155e-10,-5.273669671e-10,-1.237396363e-10,1.948708765e-11,1.326373989e-11,4.38811176e-13],
				"AUX_ENDO_LAG_24_2": [0,0,1.070841463e-16,-0.04730569996,0.003304016714,0.00178377385,0.0005738967853,-0.0001746582709,-4.388439095e-05,3.222571899e-07,4.94470777e-06,4.194117876e-07,-2.455832164e-07,-8.842570571e-08,9.194084225e-09,7.480063709e-09,6.546676187e-10,-5.273669639e-10,-1.237396332e-10,1.94870908e-11,1.326374305e-11],
				"AUX_ENDO_LAG_24_3": [0,0,-6.688748972e-17,1.081974111e-16,-0.04730569996,0.003304016714,0.00178377385,0.0005738967853,-0.0001746582709,-4.388439095e-05,3.222571899e-07,4.94470777e-06,4.194117876e-07,-2.455832164e-07,-8.842570571e-08,9.194084225e-09,7.480063709e-09,6.546676187e-10,-5.273669639e-10,-1.237396332e-10,1.94870908e-11]
			}
		}
	}
}
