{
	"model": "NK_GM07",
	"rule": "GR",
	"data": {
		"AC": {
			"dp": [1,0.8606352454,0.8018345373,0.7776829874,0.7663691642,0.7577824245,0.7495351044,0.7413120373,0.7331721733,0.7251634226,0.7172978994,0.7095722585,0.7019794575,0.694512455,0.6871648923,0.6799310579,0.6728057804,0.6657843515,0.6588624737,0.652036218,0.6453019879],
			"mc": [1,0.3818784206,0.1207437213,0.02645105269,0.007624469965,0.006311059384,0.007161262487,0.007479403658,0.00738440612,0.007154980424,0.00691107166,0.006683508454,0.006475292969,0.006284159276,0.006107873117,0.005944759762,0.005793486011,0.005652904317,0.005521991149,0.005399824882,0.005285574784],
			"omega": [1,0.9024141074,0.8149665784,0.7364212043,0.6657710662,0.6021706902,0.5449016939,0.4933293373,0.4468845819,0.4050552731,0.3673802739,0.3334444682,0.3028742228,0.275333261,0.2505189311,0.2281588443,0.2080078481,0.1898453026,0.1734726292,0.1587111047,0.1453998752],
			"lambda": [1,0.9877769641,0.9770208695,0.9669523868,0.9572286753,0.9476555893,0.9381835923,0.9288040436,0.9195167755,0.9103218542,0.9012187582,0.892206673,0.8832847033,0.8744519466,0.8657075094,0.8570505085,0.8484800702,0.8399953296,0.8315954304,0.8232795248,0.8150467733],
			"xi": [1,0.983373252,0.9706576119,0.9598818536,0.9500581034,0.9405332338,0.9311305217,0.9218171357,0.912592973,0.9034600944,0.8944188659,0.8854686713,0.8766085922,0.8678376627,0.8591549303,0.8505594615,0.8420503394,0.8336266613,0.8252875373,0.8170320904,0.8088594551],
			"w": [1,0.9819875196,0.9688810575,0.9580350135,0.9482320152,0.9387387925,0.9293647449,0.9200770183,0.9108768069,0.901766821,0.8927476625,0.8838188078,0.8749793963,0.8662285123,0.8575652499,0.8489887186,0.8404980405,0.8320923483,0.8237707841,0.8155324997,0.8073766557],
			"n": [1,0.5543819,0.3616132024,0.2877000112,0.2679170272,0.2610405282,0.2561034167,0.2511439423,0.2462106533,0.2414711822,0.2369838031,0.2327461751,0.2287385686,0.2249396643,0.2213301129,0.2178927192,0.2146121122,0.211474477,0.2084673682,0.2055795664,0.2028009553],
			"m": [1,0.9767066029,0.9548693557,0.9343673358,0.9151048627,0.8970096282,0.8799864781,0.8639388663,0.8487767824,0.8344187193,0.8207913037,0.8078284912,0.7954707965,0.7836646191,0.77236165,0.7615183429,0.7510954379,0.7410575341,0.7313727043,0.7220121483,0.7129498807],
			"c": [1,0.987724688,0.9769051334,0.9667776125,0.9570022299,0.9473838458,0.937871944,0.9284571927,0.9191389094,0.9099167294,0.9007897499,0.8917568132,0.8828167145,0.8739682728,0.865210344,0.8565418192,0.8479616219,0.8394687044,0.8310620462,0.8227406517,0.8145035486],
			"q": [1,0.9875816096,0.9767595972,0.9666754646,0.9569520238,0.9473819022,0.9379128157,0.9285359118,0.919251167,0.9100587306,0.9009581071,0.8919484859,0.8830289702,0.874198656,0.8654566484,0.8568020632,0.8482340258,0.8397516703,0.83135414,0.8230405863,0.8148101693],
			"p": [1,"_NaN_","_NaN_","_NaN_","_NaN_","_NaN_","_NaN_","_NaN_","_NaN_","_NaN_","_NaN_","_NaN_","_NaN_","_NaN_","_NaN_","_NaN_","_NaN_","_NaN_","_NaN_","_NaN_","_NaN_"],
			"h": [1,"_NaN_","_NaN_","_NaN_","_NaN_","_NaN_","_NaN_","_NaN_","_NaN_","_NaN_","_NaN_","_NaN_","_NaN_","_NaN_","_NaN_","_NaN_","_NaN_","_NaN_","_NaN_","_NaN_","_NaN_"],
			"b": [1,"_NaN_","_NaN_","_NaN_","_NaN_","_NaN_","_NaN_","_NaN_","_NaN_","_NaN_","_NaN_","_NaN_","_NaN_","_NaN_","_NaN_","_NaN_","_NaN_","_NaN_","_NaN_","_NaN_","_NaN_"],
			"a1": [1,0.99,0.9801,0.970299,0.96059601,0.9509900499,0.9414801494,0.9320653479,0.9227446944,0.9135172475,0.904382075,0.8953382543,0.8863848717,0.877521023,0.8687458128,0.8600583546,0.8514577711,0.8429431934,0.8345137615,0.8261686238,0.8179069376],
			"a2": [1,0.99,0.9801,0.970299,0.96059601,0.9509900499,0.9414801494,0.9320653479,0.9227446944,0.9135172475,0.904382075,0.8953382543,0.8863848717,0.877521023,0.8687458128,0.8600583546,0.8514577711,0.8429431934,0.8345137615,0.8261686238,0.8179069376],
			"a3": [1,0.9,0.81,0.729,0.6561,0.59049,0.531441,0.4782969,0.43046721,0.387420489,0.3486784401,0.3138105961,0.2824295365,0.2541865828,0.2287679245,0.2058911321,0.1853020189,0.166771817,0.1500946353,0.1350851718,0.1215766546],
			"CEFP": [1,0.9760329488,0.9540043077,0.933497456,0.9142995327,0.8962770396,0.8793207419,0.8633326808,0.8482238375,0.8339136235,0.8203293167,0.8074053746,0.7950827383,0.7833081869,0.7720337535,0.7612161995,0.7508165427,0.7407996319,0.7311337648,0.7217903434,0.7127435646],
			"UEFP": [1,0.9760329488,0.9540043077,0.933497456,0.9142995327,0.8962770396,0.8793207419,0.8633326808,0.8482238375,0.8339136235,0.8203293167,0.8074053746,0.7950827383,0.7833081869,0.7720337535,0.7612161995,0.7508165427,0.7407996319,0.7311337648,0.7217903434,0.7127435646],
			"rT": [1,0.6563359146,0.4874421678,0.4064487575,0.3842376872,0.3779532712,0.3746074999,0.3712309116,0.3676218407,0.3639319748,0.3602502985,0.3566047467,0.3530002383,0.3494361781,0.345911401,0.3424249761,0.3389761556,0.3355642793,0.3321887318,0.3288489298,0.3255443172],
			"rIB": [1,0.782834644,0.6741807358,0.6197514542,0.6009663697,0.5919412313,0.5848650992,0.5779547178,0.5710800562,0.5643194948,0.5577135371,0.5512670087,0.5449720725,0.5388186505,0.5327972752,0.5268994701,0.5211176316,0.5154448952,0.5098750413,0.5044024262,0.4990219236],
			"rL": [1,0.745176201,0.6187661545,0.5566477963,0.5370287753,0.5289780521,0.5231502394,0.517413113,0.5116175697,0.5058653618,0.5002127164,0.4946724941,0.4892417009,0.4839140259,0.4786833239,0.4735441301,0.4684915708,0.463521248,0.4586291682,0.4538116956,0.4490655156],
			"rB": [1,0.7581745896,0.6371959866,0.5767316673,0.5562281839,0.5467201789,0.539451354,0.5324141852,0.525455813,0.5186586369,0.5120635409,0.505671979,0.4994716311,0.4934480275,0.4875877079,0.4818786176,0.4763099456,0.470871948,0.4655558194,0.4603535926,0.4552580548],
			"interest": [1,0.782834644,0.6741807358,0.6197514542,0.6009663697,0.5919412313,0.5848650992,0.5779547178,0.5710800562,0.5643194948,0.5577135371,0.5512670087,0.5449720725,0.5388186505,0.5327972752,0.5268994701,0.5211176316,0.5154448952,0.5098750413,0.5044024262,0.4990219236],
			"inflation": [1,0.983224028,0.9531062349,0.9192330565,0.8887046708,0.8725685315,0.8614755647,0.8518231756,0.8425033299,0.8333274021,0.8242927899,0.8154092707,0.8066764408,0.798088589,0.7896388093,0.7813204759,0.7731275408,0.7650545125,0.7570963901,0.7492486064,0.7415069824],
			"inflationq": [1,0.8606352454,0.8018345373,0.7776829874,0.7663691642,0.7577824245,0.7495351044,0.7413120373,0.7331721733,0.7251634226,0.7172978994,0.7095722585,0.7019794575,0.694512455,0.6871648923,0.6799310579,0.6728057804,0.6657843515,0.6588624737,0.652036218,0.6453019879],
			"output": [1,0.987724688,0.9769051334,0.9667776125,0.9570022299,0.9473838458,0.937871944,0.9284571927,0.9191389094,0.9099167294,0.9007897499,0.8917568132,0.8828167145,0.8739682728,0.865210344,0.8565418192,0.8479616219,0.8394687044,0.8310620462,0.8227406517,0.8145035486],
			"outputgap": [1,0.3818784206,0.1207437213,0.02645105269,0.007624469965,0.006311059384,0.007161262487,0.007479403658,0.00738440612,0.007154980424,0.00691107166,0.006683508454,0.006475292969,0.006284159276,0.006107873117,0.005944759762,0.005793486011,0.005652904317,0.005521991149,0.005399824882,0.005285574784],
			"fispol": [1,"_NaN_","_NaN_","_NaN_","_NaN_","_NaN_","_NaN_","_NaN_","_NaN_","_NaN_","_NaN_","_NaN_","_NaN_","_NaN_","_NaN_","_NaN_","_NaN_","_NaN_","_NaN_","_NaN_","_NaN_"],
			"AUX_ENDO_LEAD_227": [1,0.9647455519,0.9464027003,0.9345580536,0.9242173177,0.9141725874,0.9042502781,0.8944702997,0.8848504623,0.8753920079,0.8660890236,0.8569341249,0.8479202556,0.8390410021,0.8302905508,0.8216636081,0.8131553383,0.8047613143,0.7964774776,0.7883001016,0.7802257595],
			"AUX_ENDO_LEAD_231": [1,0.9855591543,0.9740999457,0.963437021,0.9530220415,0.9427660109,0.9326701595,0.9227370562,0.9129628588,0.9033410196,0.8938646807,0.8845274321,0.875323427,0.8662473372,0.8572942938,0.8484598378,0.8397398775,0.831130653,0.8226287033,0.8142308375,0.8059341081],
			"AUX_ENDO_LEAD_235": [1,0.9887270205,0.9779995433,0.9674949801,0.957155648,0.9469777693,0.9369594202,0.9270954847,0.9173795768,0.9078053559,0.8983669389,0.8890589486,0.8798764716,0.8708150081,0.861870429,0.8530389386,0.8443170417,0.8357015146,0.8271893783,0.8187778756,0.8104644487],
			"AUX_ENDO_LEAD_262": [1,0.3349718703,0.09027048898,0.04009250219,0.03566643152,0.03716544272,0.03742637297,0.03667965586,0.03562361534,0.03456253027,0.0335733939,0.03266149936,0.03181853297,0.03103640088,0.03030865646,0.0296299417,0.02899556876,0.02840134185,0.02784348268,0.02731858633,0.02682358508],
			"AUX_ENDO_LEAD_266": [1,0.3937055352,0.2620993,0.2447108133,0.2433712369,0.2397173433,0.2339849301,0.2277806564,0.2218139419,0.2162511735,0.2110851426,0.2062763581,0.2017873351,0.1975862588,0.1936455532,0.1899407204,0.1864497617,0.1831528636,0.1800321736,0.1770716067,0.17425667],
			"AUX_ENDO_LEAD_270": [1,0.8796908026,0.8452775805,0.8251390847,0.8050969804,0.7848900709,0.7654828049,0.7472693524,0.7302739217,0.7144048129,0.6995546707,0.6856249918,0.6725283434,0.660186735,0.6485301633,0.6374956194,0.6270263421,0.6170711891,0.6075840766,0.5985234752,0.589851956],
			"AUX_ENDO_LEAD_297": [1,0.989879344,0.9799220885,0.9700802371,0.960341131,0.9507024531,0.9411633068,0.9317226541,0.9223792911,0.9131319761,0.9039794884,0.8949206432,0.8859542917,0.8770793183,0.8682946377,0.8595991926,0.8509919518,0.8424719084,0.8340380777,0.8256894965,0.8174252212],
			"AUX_ENDO_LEAD_301": [1,0.9900778972,0.9801658498,0.9703322919,0.960596552,0.9509616134,0.9414263274,0.9319891351,0.9226486541,0.9134036436,0.9042529347,0.8951953992,0.8862299394,0.8773554846,0.8685709898,0.8598754341,0.8512678184,0.8427471651,0.8343125158,0.8259629307,0.8176974875],
			"AUX_ENDO_LEAD_305": [1,0.9900032582,0.9800756059,0.9702450275,0.9605161369,0.9508877826,0.9413582809,0.9319262014,0.9225903014,0.9133494227,0.9042024489,0.8951482923,0.8861858904,0.8773142043,0.8685322179,0.8598389357,0.8512333823,0.8427146009,0.8342816521,0.825933613,0.8176695766],
			"AUX_ENDO_LAG_0_1": [1,0.8606352454,0.8018345373,0.7776829874,0.7663691642,0.7577824245,0.7495351044,0.7413120373,0.7331721733,0.7251634226,0.7172978994,0.7095722585,0.7019794575,0.694512455,0.6871648923,0.6799310579,0.6728057804,0.6657843515,0.6588624737,0.652036218,0.6453019879],
			"AUX_ENDO_LAG_0_2": [1,0.8606352454,0.8018345373,0.7776829874,0.7663691642,0.7577824245,0.7495351044,0.7413120373,0.7331721733,0.7251634226,0.7172978994,0.7095722585,0.7019794575,0.694512455,0.6871648923,0.6799310579,0.6728057804,0.6657843515,0.6588624737,0.652036218,0.6453019879],
			"AUX_ENDO_LAG_25_1": [1,0.987724688,0.9769051334,0.9667776125,0.9570022299,0.9473838458,0.937871944,0.9284571927,0.9191389094,0.9099167294,0.9007897499,0.8917568132,0.8828167145,0.8739682728,0.865210344,0.8565418192,0.8479616219,0.8394687044,0.8310620462,0.8227406517,0.8145035486],
			"AUX_ENDO_LAG_25_2": [1,0.987724688,0.9769051334,0.9667776125,0.9570022299,0.9473838458,0.937871944,0.9284571927,0.9191389094,0.9099167294,0.9007897499,0.8917568132,0.8828167145,0.8739682728,0.865210344,0.8565418192,0.8479616219,0.8394687044,0.8310620462,0.8227406517,0.8145035486],
			"AUX_ENDO_LAG_25_3": [1,0.987724688,0.9769051334,0.9667776125,0.9570022299,0.9473838458,0.937871944,0.9284571927,0.9191389094,0.9099167294,0.9007897499,0.8917568132,0.8828167145,0.8739682728,0.865210344,0.8565418192,0.8479616219,0.8394687044,0.8310620462,0.8227406517,0.8145035486],
			"AUX_ENDO_LAG_26_1": [1,0.3818784206,0.1207437213,0.02645105269,0.007624469965,0.006311059384,0.007161262487,0.007479403658,0.00738440612,0.007154980424,0.00691107166,0.006683508454,0.006475292969,0.006284159276,0.006107873117,0.005944759762,0.005793486011,0.005652904317,0.005521991149,0.005399824882,0.005285574784],
			"AUX_ENDO_LAG_26_2": [1,0.3818784206,0.1207437213,0.02645105269,0.007624469965,0.006311059384,0.007161262487,0.007479403658,0.00738440612,0.007154980424,0.00691107166,0.006683508454,0.006475292969,0.006284159276,0.006107873117,0.005944759762,0.005793486011,0.005652904317,0.005521991149,0.005399824882,0.005285574784],
			"AUX_ENDO_LAG_26_3": [1,0.3818784206,0.1207437213,0.02645105269,0.007624469965,0.006311059384,0.007161262487,0.007479403658,0.00738440612,0.007154980424,0.00691107166,0.006683508454,0.006475292969,0.006284159276,0.006107873117,0.005944759762,0.005793486011,0.005652904317,0.005521991149,0.005399824882,0.005285574784],
			"AUX_ENDO_LAG_22_1": [1,0.782834644,0.6741807358,0.6197514542,0.6009663697,0.5919412313,0.5848650992,0.5779547178,0.5710800562,0.5643194948,0.5577135371,0.5512670087,0.5449720725,0.5388186505,0.5327972752,0.5268994701,0.5211176316,0.5154448952,0.5098750413,0.5044024262,0.4990219236],
			"AUX_ENDO_LAG_22_2": [1,0.782834644,0.6741807358,0.6197514542,0.6009663697,0.5919412313,0.5848650992,0.5779547178,0.5710800562,0.5643194948,0.5577135371,0.5512670087,0.5449720725,0.5388186505,0.5327972752,0.5268994701,0.5211176316,0.5154448952,0.5098750413,0.5044024262,0.4990219236],
			"AUX_ENDO_LAG_22_3": [1,0.782834644,0.6741807358,0.6197514542,0.6009663697,0.5919412313,0.5848650992,0.5779547178,0.5710800562,0.5643194948,0.5577135371,0.5512670087,0.5449720725,0.5388186505,0.5327972752,0.5268994701,0.5211176316,0.5154448952,0.5098750413,0.5044024262,0.4990219236],
			"AUX_ENDO_LAG_24_1": [1,0.8606352454,0.8018345373,0.7776829874,0.7663691642,0.7577824245,0.7495351044,0.7413120373,0.7331721733,0.7251634226,0.7172978994,0.7095722585,0.7019794575,0.694512455,0.6871648923,0.6799310579,0.6728057804,0.6657843515,0.6588624737,0.652036218,0.6453019879],
			"AUX_ENDO_LAG_24_2": [1,0.8606352454,0.8018345373,0.7776829874,0.7663691642,0.7577824245,0.7495351044,0.7413120373,0.7331721733,0.7251634226,0.7172978994,0.7095722585,0.7019794575,0.694512455,0.6871648923,0.6799310579,0.6728057804,0.6657843515,0.6588624737,0.652036218,0.6453019879],
			"AUX_ENDO_LAG_24_3": [1,0.8606352454,0.8018345373,0.7776829874,0.7663691642,0.7577824245,0.7495351044,0.7413120373,0.7331721733,0.7251634226,0.7172978994,0.7095722585,0.7019794575,0.694512455,0.6871648923,0.6799310579,0.6728057804,0.6657843515,0.6588624737,0.652036218,0.6453019879]
		},
		"VAR": {
			"dp": 0.0179632966,
			"mc": 0.5867240495,
			"omega": 3.26758283,
			"lambda": 20.79131004,
			"xi": 21.37272913,
			"w": 20.59639276,
			"n": 0.3688663835,
			"m": 66.52602387,
			"c": 19.35294513,
			"q": 21.15452734,
			"p": "_NaN_",
			"h": "_NaN_",
			"b": 0,
			"a1": 50.25125628,
			"a2": 50.25125628,
			"a3": 5.263157895,
			"CEFP": 0.001466398518,
			"UEFP": 0.01197060015,
			"rT": 0.05842997023,
			"rIB": 0.099906994,
			"rL": 0.08266672415,
			"rB": 0.08790685182,
			"interest": 1.598511904,
			"inflation": 0.2501661302,
			"inflationq": 0.2874127455,
			"output": 19.35294513,
			"outputgap": 9.387584792,
			"fispol": 0,
			"AUX_ENDO_LEAD_227": 0.2304092881,
			"AUX_ENDO_LEAD_231": 0.2175519603,
			"AUX_ENDO_LEAD_235": 0.2116455129,
			"AUX_ENDO_LEAD_262": 1.402007798,
			"AUX_ENDO_LEAD_266": 0.1813127852,
			"AUX_ENDO_LEAD_270": 0.04882022421,
			"AUX_ENDO_LEAD_297": 18.9178156,
			"AUX_ENDO_LEAD_301": 18.5436174,
			"AUX_ENDO_LEAD_305": 18.17846564,
			"AUX_ENDO_LAG_0_1": 0.0179632966,
			"AUX_ENDO_LAG_0_2": 0.0179632966,
			"AUX_ENDO_LAG_25_1": 19.35294513,
			"AUX_ENDO_LAG_25_2": 19.35294513,
			"AUX_ENDO_LAG_25_3": 19.35294513,
			"AUX_ENDO_LAG_26_1": 9.387584792,
			"AUX_ENDO_LAG_26_2": 9.387584792,
			"AUX_ENDO_LAG_26_3": 9.387584792,
			"AUX_ENDO_LAG_22_1": 1.598511904,
			"AUX_ENDO_LAG_22_2": 1.598511904,
			"AUX_ENDO_LAG_22_3": 1.598511904,
			"AUX_ENDO_LAG_24_1": 0.2874127455,
			"AUX_ENDO_LAG_24_2": 0.2874127455,
			"AUX_ENDO_LAG_24_3": 0.2874127455
		},
		"IRF": {
			"interest_": {
				"dp": [0,-0.05248528254,-0.01803358726,-0.004750742616,-0.0005702142485,0.0001292023456,0.0001112794721,4.081979752e-05,9.568734731e-06,9.646755679e-07,-3.718469402e-07,-2.574211085e-07,-8.860024798e-08,-1.934680177e-08,-1.43398639e-09,9.946539421e-10,5.896829917e-10,1.906668348e-10,3.855563859e-11,1.643380074e-12,-2.551367304e-12],
				"mc": [0,-0.6926406231,-0.2666070414,-0.0837246102,-0.01396249141,0.0003807133647,0.001417357451,0.0006269350028,0.0001722741184,2.665608077e-05,-2.340000856e-06,-3.39413726e-06,-1.388938285e-06,-3.585431049e-07,-4.837387584e-08,8.217355623e-09,8.018456521e-09,3.049935068e-09,7.385738625e-10,8.338469018e-11,-2.454897692e-11],
				"omega": [0,0.02744107674,0.009307538355,0.002390839832,0.0002695033127,-7.35209031e-05,-5.844140771e-05,-2.095877099e-05,-4.799699247e-06,-4.423054865e-07,2.060138502e-07,1.346761385e-07,4.53652674e-08,9.658636585e-09,6.183152234e-10,-5.423006478e-10,-3.074172647e-10,-9.735248477e-11,-1.914051971e-11,-5.832562568e-13,1.375745201e-12],
				"lambda": [0,0.3033157678,0.1171282213,0.03694281795,0.006199732379,-0.0001491283093,-0.0006199892342,-0.0002757101707,-7.605063348e-05,-1.185777318e-05,9.906074861e-07,1.486271746e-06,6.111413455e-07,1.583788566e-07,2.157427758e-08,-3.533236652e-09,-3.514467997e-09,-1.342671849e-09,-3.264771514e-10,-3.733430696e-11,1.062863799e-11],
				"xi": [0,-0.3893248553,-0.1494788201,-0.04678179225,-0.007762759035,0.0002315850554,0.0007973682173,0.0003512248321,9.62234849e-05,1.47983076e-05,-1.34939337e-06,-1.907865514e-06,-7.777969391e-07,-2.001642483e-07,-2.679959826e-08,4.684118971e-09,4.503988523e-09,1.70726322e-09,4.120967111e-10,4.605038323e-11,-1.392033893e-11],
				"w": [0,-0.5214400171,-0.2010691221,-0.06329570649,-0.0105926507,0.0002698673565,0.001066372201,0.0004730864522,0.0001302733462,2.024333896e-05,-1.729153625e-06,-2.555145983e-06,-1.04840164e-06,-2.712243339e-07,-3.678923668e-08,6.124158627e-09,6.039467091e-09,2.302808085e-09,5.589200438e-10,6.355417152e-11,-1.836536761e-11],
				"n": [0,-0.4556761102,-0.1753064411,-0.05501478533,-0.009165412829,0.0002546395004,0.0009326180828,0.000412172403,0.0001131914175,1.749272028e-05,-1.547540313e-06,-2.232958125e-06,-9.130678742e-07,-2.355544347e-07,-3.17315817e-08,5.421538554e-09,5.274468953e-09,2.00482132e-09,4.851717764e-10,5.466298641e-11,-1.617914174e-11],
				"m": [0,-0.2334685234,-0.09246783659,-0.03014183146,-0.005294624195,7.134157399e-06,0.000473002993,0.0002193660652,6.226905054e-05,1.025782896e-05,-5.537582362e-07,-1.14363326e-06,-4.882070848e-07,-1.302823635e-07,-1.899762932e-08,2.320322838e-09,2.724057818e-09,1.076737273e-09,2.699398905e-10,3.374830861e-11,-7.438334821e-12],
				"c": [0,-0.2844755042,-0.1097685218,-0.03458588161,-0.005795572114,0.0001437934922,0.0005816328324,0.0002583238524,7.119064533e-05,1.107997846e-05,-9.366930824e-07,-1.393966848e-06,-5.725312294e-07,-1.482356637e-07,-2.014694255e-08,3.328341551e-09,3.295479515e-09,1.257694329e-09,3.055179496e-10,3.483245962e-11,-9.995540545e-12],
				"q": [0,-0.317828553,-0.1210812988,-0.03749180977,-0.006123137873,0.0002331539168,0.0006526649986,0.0002837980318,7.702440341e-05,1.161757531e-05,-1.187091056e-06,-1.557657941e-06,-6.276701e-07,-1.599751804e-07,-2.089846911e-08,3.987476764e-09,3.6691275e-09,1.376020669e-09,3.287821493e-10,3.554137399e-11,-1.166767965e-11],
				"p": [0,-0.05248528254,-0.0705188698,-0.07526961242,-0.07583982667,-0.07571062432,-0.07559934485,-0.07555852505,-0.07554895632,-0.07554799164,-0.07554836349,-0.07554862091,-0.07554870951,-0.07554872886,-0.07554873029,-0.0755487293,-0.07554872871,-0.07554872852,-0.07554872848,-0.07554872848,-0.07554872848],
				"h": [0,-0.3369607867,-0.1802873916,-0.109855494,-0.08163539878,-0.07556683083,-0.07501771202,-0.0753002012,-0.07547776567,-0.07553691166,-0.07554930018,-0.07555001488,-0.07554928204,-0.07554887709,-0.07554875044,-0.07554872597,-0.07554872541,-0.07554872726,-0.07554872817,-0.07554872844,-0.07554872849],
				"b": [0,0,0,0,0,0,0,0,0,0,0,0,0,0,0,0,0,0,0,0,0],
				"a1": [0,0,3.893143409e-17,7.115470215e-17,9.63769299e-17,1.204873408e-16,1.443133115e-16,1.679817608e-16,1.914517212e-16,2.146983489e-16,2.377144942e-16,2.605004352e-16,2.830583249e-16,3.053905496e-16,3.274994282e-16,3.493872142e-16,3.710561227e-16,3.925083426e-16,4.137460405e-16,4.347713614e-16,4.555864292e-16],
				"a2": [0,0,0,0,0,0,0,0,0,0,0,0,0,0,0,0,0,0,0,0,0],
				"a3": [0,0,0,0,0,0,0,0,0,0,0,0,0,0,0,0,0,0,0,0,0],
				"CEFP": [0,-0.002140151224,-0.0008360217389,-0.0002677351176,-4.591040251e-05,6.060061447e-07,4.357078115e-06,1.974990959e-06,5.520681568e-07,8.835323878e-08,-6.124382313e-09,-1.048533305e-08,-4.385898676e-09,-1.152211411e-09,-1.621374774e-10,2.327496637e-11,2.48758976e-11,9.652982948e-12,2.380851052e-12,2.841962212e-13,-7.191641308e-14],
				"UEFP": [0,-0.006114717781,-0.00238863354,-0.0007649574789,-0.0001311725786,1.731446128e-06,1.244879462e-05,5.642831311e-06,1.577337591e-06,2.524378251e-07,-1.749823518e-08,-2.995809444e-08,-1.253113907e-08,-3.292032603e-09,-4.632499354e-10,6.649990391e-11,7.107399315e-11,2.757995128e-11,6.802431575e-12,8.119892024e-13,-2.05475467e-13],
				"rT": [0,0.1690074468,0.07581753931,0.03032601771,0.006510943297,0.0005850951274,-0.0003049995135,-0.0001910556334,-6.354910773e-05,-1.328732861e-05,-7.569077521e-07,7.905222896e-07,4.356155456e-07,1.36057684e-07,2.623465318e-08,5.738120885e-10,-1.991184797e-09,-9.826011946e-10,-2.889587057e-10,-5.077070419e-11,1.099723445e-12],
				"rIB": [0,0.1751221646,0.07820617285,0.03109097519,0.006642115876,0.0005833636813,-0.0003174483082,-0.0001966984647,-6.512644532e-05,-1.353976644e-05,-7.394095169e-07,8.204803841e-07,4.481466847e-07,1.393497166e-07,2.669790312e-08,5.073121908e-10,-2.062258784e-09,-1.01018114e-09,-2.957611311e-10,-5.158268721e-11,1.305205093e-12],
				"rL": [0,0.1729820134,0.07737015111,0.03082324008,0.006596205473,0.0005839696874,-0.00031309123,-0.0001947234738,-6.457437717e-05,-1.34514132e-05,-7.455338992e-07,8.09995051e-07,4.43760786e-07,1.381975052e-07,2.653576564e-08,5.305871571e-10,-2.037382886e-09,-1.000528157e-09,-2.933802801e-10,-5.129849099e-11,1.233288679e-12],
				"rB": [0,0.1733892658,0.0775429177,0.03088428317,0.006608033818,0.0005844913532,-0.0003138953999,-0.0001951415814,-6.4701509e-05,-1.347491613e-05,-7.456035572e-07,8.119880634e-07,4.447007001e-07,1.38466315e-07,2.658076925e-08,5.285206886e-10,-2.042228381e-09,-1.00262098e-09,-2.939436557e-10,-5.138222906e-11,1.242572862e-12],
				"interest": [0,0.7004886583,0.3128246914,0.1243639008,0.0265684635,0.002333454725,-0.001269793233,-0.0007867938589,-0.0002605057813,-5.415906575e-05,-2.957638068e-06,3.281921536e-06,1.792586739e-06,5.573988663e-07,1.067916125e-07,2.029248765e-09,-8.249035134e-09,-4.040724557e-09,-1.183044523e-09,-2.063307473e-10,5.220821915e-12],
				"inflation": [0,-0.05248528254,-0.0705188698,-0.07526961242,-0.07583982667,-0.02322534178,-0.005080475047,-0.0002889126332,0.00029087035,0.0001626326799,5.098136088e-05,9.90414225e-06,2.468072712e-07,-7.372150984e-07,-3.668021446e-07,-1.083863822e-07,-1.919645124e-08,3.410173623e-10,1.813559391e-09,8.20548829e-10,2.2831447e-10],
				"inflationq": [0,-0.2099411302,-0.07213434904,-0.01900297046,-0.002280856994,0.0005168093826,0.0004451178885,0.0001632791901,3.827493892e-05,3.858702272e-06,-1.487387761e-06,-1.029684434e-06,-3.544009919e-07,-7.738720708e-08,-5.735945547e-09,3.978615782e-09,2.358731981e-09,7.626673532e-10,1.542225683e-10,6.573534187e-12,-1.020545532e-11],
				"output": [0,-0.2844755042,-0.1097685218,-0.03458588161,-0.005795572114,0.0001437934922,0.0005816328324,0.0002583238524,7.119064533e-05,1.107997846e-05,-9.366930824e-07,-1.393966848e-06,-5.725312294e-07,-1.482356637e-07,-2.014694256e-08,3.328341547e-09,3.295479512e-09,1.257694325e-09,3.05517946e-10,3.483245598e-11,-9.995544191e-12],
				"outputgap": [0,-2.770562492,-1.066428166,-0.3348984408,-0.05584996565,0.001522853459,0.005669429806,0.002507740011,0.0006890964735,0.0001066243231,-9.360003423e-06,-1.357654904e-05,-5.555753138e-06,-1.43417242e-06,-1.934955033e-07,3.286942252e-08,3.207382611e-08,1.21997403e-08,2.954295476e-09,3.335387867e-10,-9.819588167e-11],
				"fispol": [0,0,0,0,0,0,0,0,0,0,0,0,0,0,0,0,0,0,0,0,0],
				"AUX_ENDO_LEAD_227": [0,-0.07213434904,-0.01900297046,-0.002280856994,0.0005168093826,0.0004451178885,0.0001632791901,3.827493892e-05,3.858702271e-06,-1.487387761e-06,-1.029684434e-06,-3.544009919e-07,-7.738720709e-08,-5.735945557e-09,3.978615772e-09,2.35873197e-09,7.626673428e-10,1.542225579e-10,6.573523818e-12,-1.020546569e-11,-5.349158711e-12],
				"AUX_ENDO_LEAD_231": [0,-0.01900297046,-0.002280856994,0.0005168093826,0.0004451178885,0.0001632791901,3.827493892e-05,3.858702271e-06,-1.487387761e-06,-1.029684434e-06,-3.544009919e-07,-7.738720709e-08,-5.735945557e-09,3.978615773e-09,2.358731971e-09,7.626673435e-10,1.542225586e-10,6.573524526e-12,-1.020546498e-11,-5.349158003e-12,-1.627756355e-12],
				"AUX_ENDO_LEAD_235": [0,-0.002280856994,0.0005168093826,0.0004451178885,0.0001632791901,3.827493892e-05,3.858702271e-06,-1.487387761e-06,-1.029684434e-06,-3.544009919e-07,-7.738720709e-08,-5.735945557e-09,3.978615772e-09,2.358731971e-09,7.626673432e-10,1.542225583e-10,6.57352422e-12,-1.020546529e-11,-5.349158309e-12,-1.627756661e-12,-3.020852001e-13],
				"AUX_ENDO_LEAD_262": [0,-1.066428166,-0.3348984408,-0.05584996565,0.001522853459,0.005669429806,0.002507740011,0.0006890964735,0.0001066243231,-9.360003423e-06,-1.357654904e-05,-5.555753138e-06,-1.43417242e-06,-1.934955034e-07,3.286942251e-08,3.20738261e-08,1.219974029e-08,2.954295467e-09,3.335387772e-10,-9.81958912e-11,-7.475350422e-11],
				"AUX_ENDO_LEAD_266": [0,-0.3348984408,-0.05584996565,0.001522853459,0.005669429806,0.002507740011,0.0006890964735,0.0001066243231,-9.360003423e-06,-1.357654904e-05,-5.555753138e-06,-1.43417242e-06,-1.934955034e-07,3.286942251e-08,3.20738261e-08,1.219974029e-08,2.954295468e-09,3.335387788e-10,-9.819588963e-11,-7.475350266e-11,-2.657376463e-11],
				"AUX_ENDO_LEAD_270": [0,-0.05584996565,0.001522853459,0.005669429806,0.002507740011,0.0006890964735,0.0001066243231,-9.360003423e-06,-1.357654904e-05,-5.555753138e-06,-1.43417242e-06,-1.934955034e-07,3.286942251e-08,3.20738261e-08,1.219974029e-08,2.954295468e-09,3.335387788e-10,-9.819588959e-11,-7.475350262e-11,-2.65737646e-11,-6.013833734e-12],
				"AUX_ENDO_LEAD_297": [0,-0.1097685218,-0.03458588161,-0.005795572114,0.0001437934922,0.0005816328324,0.0002583238524,7.119064533e-05,1.107997846e-05,-9.366930824e-07,-1.393966848e-06,-5.725312294e-07,-1.482356637e-07,-2.014694253e-08,3.328341568e-09,3.295479533e-09,1.257694346e-09,3.055179672e-10,3.48324772e-11,-9.995522968e-12,-7.68494854e-12],
				"AUX_ENDO_LEAD_301": [0,-0.03458588161,-0.005795572114,0.0001437934922,0.0005816328324,0.0002583238524,7.119064533e-05,1.107997846e-05,-9.366930824e-07,-1.393966848e-06,-5.725312294e-07,-1.482356637e-07,-2.014694253e-08,3.328341573e-09,3.295479538e-09,1.257694351e-09,3.055179719e-10,3.483248194e-11,-9.995518232e-12,-7.684943803e-12,-2.740202845e-12],
				"AUX_ENDO_LEAD_305": [0,-0.005795572114,0.0001437934922,0.0005816328324,0.0002583238524,7.119064533e-05,1.107997846e-05,-9.366930824e-07,-1.393966848e-06,-5.725312294e-07,-1.482356637e-07,-2.014694254e-08,3.328341567e-09,3.295479532e-09,1.257694346e-09,3.055179664e-10,3.483247638e-11,-9.995523786e-12,-7.684949357e-12,-2.740208399e-12,-6.218979576e-13],
				"AUX_ENDO_LAG_0_1": [0,0,-0.05248528254,-0.01803358726,-0.004750742616,-0.0005702142485,0.0001292023456,0.0001112794721,4.081979752e-05,9.568734731e-06,9.646755679e-07,-3.718469402e-07,-2.574211085e-07,-8.860024799e-08,-1.934680177e-08,-1.433986392e-09,9.946539407e-10,5.896829902e-10,1.906668334e-10,3.855563713e-11,1.643378614e-12],
				"AUX_ENDO_LAG_0_2": [0,0,-4.192733875e-17,-0.05248528254,-0.01803358726,-0.004750742616,-0.0005702142485,0.0001292023456,0.0001112794721,4.081979752e-05,9.568734731e-06,9.646755679e-07,-3.718469402e-07,-2.574211085e-07,-8.8600248e-08,-1.934680179e-08,-1.433986405e-09,9.946539274e-10,5.89682977e-10,1.906668201e-10,3.85556239e-11],
				"AUX_ENDO_LAG_25_1": [0,0,-0.2844755042,-0.1097685218,-0.03458588161,-0.005795572114,0.0001437934922,0.0005816328324,0.0002583238524,7.119064533e-05,1.107997846e-05,-9.366930824e-07,-1.393966848e-06,-5.725312294e-07,-1.482356637e-07,-2.014694256e-08,3.328341547e-09,3.295479512e-09,1.257694325e-09,3.05517946e-10,3.483245598e-11],
				"AUX_ENDO_LAG_25_2": [0,0,0,-0.2844755042,-0.1097685218,-0.03458588161,-0.005795572114,0.0001437934922,0.0005816328324,0.0002583238524,7.119064533e-05,1.107997846e-05,-9.366930824e-07,-1.393966848e-06,-5.725312294e-07,-1.482356637e-07,-2.014694256e-08,3.328341547e-09,3.295479512e-09,1.257694325e-09,3.05517946e-10],
				"AUX_ENDO_LAG_25_3": [0,0,0,0,-0.2844755042,-0.1097685218,-0.03458588161,-0.005795572114,0.0001437934922,0.0005816328324,0.0002583238524,7.119064533e-05,1.107997846e-05,-9.366930824e-07,-1.393966848e-06,-5.725312294e-07,-1.482356637e-07,-2.014694256e-08,3.328341547e-09,3.295479512e-09,1.257694325e-09],
				"AUX_ENDO_LAG_26_1": [0,0,-2.770562492,-1.066428166,-0.3348984408,-0.05584996565,0.001522853459,0.005669429806,0.002507740011,0.0006890964735,0.0001066243231,-9.360003423e-06,-1.357654904e-05,-5.555753138e-06,-1.43417242e-06,-1.934955033e-07,3.286942252e-08,3.207382611e-08,1.21997403e-08,2.954295476e-09,3.335387867e-10],
				"AUX_ENDO_LAG_26_2": [0,0,0,-2.770562492,-1.066428166,-0.3348984408,-0.05584996565,0.001522853459,0.005669429806,0.002507740011,0.0006890964735,0.0001066243231,-9.360003423e-06,-1.357654904e-05,-5.555753138e-06,-1.43417242e-06,-1.934955033e-07,3.286942252e-08,3.207382611e-08,1.21997403e-08,2.954295476e-09],
				"AUX_ENDO_LAG_26_3": [0,0,0,0,-2.770562492,-1.066428166,-0.3348984408,-0.05584996565,0.001522853459,0.005669429806,0.002507740011,0.0006890964735,0.0001066243231,-9.360003423e-06,-1.357654904e-05,-5.555753138e-06,-1.43417242e-06,-1.934955033e-07,3.286942252e-08,3.207382611e-08,1.21997403e-08],
				"AUX_ENDO_LAG_22_1": [0,0,0.7004886583,0.3128246914,0.1243639008,0.0265684635,0.002333454725,-0.001269793233,-0.0007867938589,-0.0002605057813,-5.415906575e-05,-2.957638068e-06,3.281921536e-06,1.792586739e-06,5.573988663e-07,1.067916125e-07,2.029248765e-09,-8.249035134e-09,-4.040724557e-09,-1.183044523e-09,-2.063307473e-10],
				"AUX_ENDO_LAG_22_2": [0,0,0,0.7004886583,0.3128246914,0.1243639008,0.0265684635,0.002333454725,-0.001269793233,-0.0007867938589,-0.0002605057813,-5.415906575e-05,-2.957638068e-06,3.281921536e-06,1.792586739e-06,5.573988663e-07,1.067916125e-07,2.029248765e-09,-8.249035134e-09,-4.040724557e-09,-1.183044523e-09],
				"AUX_ENDO_LAG_22_3": [0,0,0,0,0.7004886583,0.3128246914,0.1243639008,0.0265684635,0.002333454725,-0.001269793233,-0.0007867938589,-0.0002605057813,-5.415906575e-05,-2.957638068e-06,3.281921536e-06,1.792586739e-06,5.573988663e-07,1.067916125e-07,2.029248765e-09,-8.249035134e-09,-4.040724557e-09],
				"AUX_ENDO_LAG_24_1": [0,0,-0.2099411302,-0.07213434904,-0.01900297046,-0.002280856994,0.0005168093826,0.0004451178885,0.0001632791901,3.827493892e-05,3.858702272e-06,-1.487387761e-06,-1.029684434e-06,-3.544009919e-07,-7.738720708e-08,-5.735945547e-09,3.978615782e-09,2.35873198e-09,7.626673529e-10,1.542225679e-10,6.57353386e-12],
				"AUX_ENDO_LAG_24_2": [0,0,6.518495834e-17,-0.2099411302,-0.07213434904,-0.01900297046,-0.002280856994,0.0005168093826,0.0004451178885,0.0001632791901,3.827493892e-05,3.858702272e-06,-1.487387761e-06,-1.029684434e-06,-3.544009919e-07,-7.738720708e-08,-5.735945547e-09,3.978615782e-09,2.358731981e-09,7.626673532e-10,1.542225683e-10],
				"AUX_ENDO_LAG_24_3": [0,0,0,6.518495834e-17,-0.2099411302,-0.07213434904,-0.01900297046,-0.002280856994,0.0005168093826,0.0004451178885,0.0001632791901,3.827493892e-05,3.858702272e-06,-1.487387761e-06,-1.029684434e-06,-3.544009919e-07,-7.738720708e-08,-5.735945547e-09,3.978615782e-09,2.358731981e-09,7.626673532e-10]
			}
		}
	}
}
