{
	"model": "NK_GM07",
	"rule": "GR",
	"data": {
		"AC": {
			"dp": [1,0.8606352454,0.8018345373,0.7776829874,0.7663691642,0.7577824245,0.7495351044,0.7413120373,0.7331721733,0.7251634226,0.7172978994,0.7095722585,0.7019794575,0.694512455,0.6871648923,0.6799310579,0.6728057804,0.6657843515,0.6588624737,0.652036218,0.6453019879],
			"mc": [1,0.3818784206,0.1207437213,0.02645105269,0.007624469965,0.006311059384,0.007161262487,0.007479403658,0.00738440612,0.007154980424,0.00691107166,0.006683508454,0.006475292969,0.006284159276,0.006107873117,0.005944759762,0.005793486011,0.005652904317,0.005521991149,0.005399824882,0.005285574784],
			"omega": [1,0.9024141074,0.8149665784,0.7364212043,0.6657710662,0.6021706902,0.5449016939,0.4933293373,0.4468845819,0.4050552731,0.3673802739,0.3334444682,0.3028742228,0.275333261,0.2505189311,0.2281588443,0.2080078481,0.1898453026,0.1734726292,0.1587111047,0.1453998752],
			"lambda": [1,0.9877769641,0.9770208695,0.9669523868,0.9572286753,0.9476555893,0.9381835923,0.9288040436,0.9195167755,0.9103218542,0.9012187582,0.892206673,0.8832847033,0.8744519466,0.8657075094,0.8570505085,0.8484800702,0.8399953296,0.8315954304,0.8232795248,0.8150467733],
			"xi": [1,0.983373252,0.9706576119,0.9598818536,0.9500581034,0.9405332338,0.9311305217,0.9218171357,0.912592973,0.9034600944,0.8944188659,0.8854686713,0.8766085922,0.8678376627,0.8591549303,0.8505594615,0.8420503394,0.8336266613,0.8252875373,0.8170320904,0.8088594551],
			"w": [1,0.9819875196,0.9688810575,0.9580350135,0.9482320152,0.9387387925,0.9293647449,0.9200770183,0.9108768069,0.901766821,0.8927476625,0.8838188078,0.8749793963,0.8662285123,0.8575652499,0.8489887186,0.8404980405,0.8320923483,0.8237707841,0.8155324997,0.8073766557],
			"n": [1,0.5543819,0.3616132024,0.2877000112,0.2679170272,0.2610405282,0.2561034167,0.2511439423,0.2462106533,0.2414711822,0.2369838031,0.2327461751,0.2287385686,0.2249396643,0.2213301129,0.2178927192,0.2146121122,0.211474477,0.2084673682,0.2055795664,0.2028009553],
			"m": [1,0.9767066029,0.9548693557,0.9343673358,0.9151048627,0.8970096282,0.8799864781,0.8639388663,0.8487767824,0.8344187193,0.8207913037,0.8078284912,0.7954707965,0.7836646191,0.77236165,0.7615183429,0.7510954379,0.7410575341,0.7313727043,0.7220121483,0.7129498807],
			"c": [1,0.987724688,0.9769051334,0.9667776125,0.9570022299,0.9473838458,0.937871944,0.9284571927,0.9191389094,0.9099167294,0.9007897499,0.8917568132,0.8828167145,0.8739682728,0.865210344,0.8565418192,0.8479616219,0.8394687044,0.8310620462,0.8227406517,0.8145035486],
			"q": [1,0.9875816096,0.9767595972,0.9666754646,0.9569520238,0.9473819022,0.9379128157,0.9285359118,0.919251167,0.9100587306,0.9009581071,0.8919484859,0.8830289702,0.874198656,0.8654566484,0.8568020632,0.8482340258,0.8397516703,0.83135414,0.8230405863,0.8148101693],
			"p": [1,"_NaN_","_NaN_","_NaN_","_NaN_","_NaN_","_NaN_","_NaN_","_NaN_","_NaN_","_NaN_","_NaN_","_NaN_","_NaN_","_NaN_","_NaN_","_NaN_","_NaN_","_NaN_","_NaN_","_NaN_"],
			"h": [1,"_NaN_","_NaN_","_NaN_","_NaN_","_NaN_","_NaN_","_NaN_","_NaN_","_NaN_","_NaN_","_NaN_","_NaN_","_NaN_","_NaN_","_NaN_","_NaN_","_NaN_","_NaN_","_NaN_","_NaN_"],
			"b": [1,"_NaN_","_NaN_","_NaN_","_NaN_","_NaN_","_NaN_","_NaN_","_NaN_","_NaN_","_NaN_","_NaN_","_NaN_","_NaN_","_NaN_","_NaN_","_NaN_","_NaN_","_NaN_","_NaN_","_NaN_"],
			"a1": [1,0.99,0.9801,0.970299,0.96059601,0.9509900499,0.9414801494,0.9320653479,0.9227446944,0.9135172475,0.904382075,0.8953382543,0.8863848717,0.877521023,0.8687458128,0.8600583546,0.8514577711,0.8429431934,0.8345137615,0.8261686238,0.8179069376],
			"a2": [1,0.99,0.9801,0.970299,0.96059601,0.9509900499,0.9414801494,0.9320653479,0.9227446944,0.9135172475,0.904382075,0.8953382543,0.8863848717,0.877521023,0.8687458128,0.8600583546,0.8514577711,0.8429431934,0.8345137615,0.8261686238,0.8179069376],
			"a3": [1,0.9,0.81,0.729,0.6561,0.59049,0.531441,0.4782969,0.43046721,0.387420489,0.3486784401,0.3138105961,0.2824295365,0.2541865828,0.2287679245,0.2058911321,0.1853020189,0.166771817,0.1500946353,0.1350851718,0.1215766546],
			"CEFP": [1,0.9760329488,0.9540043077,0.933497456,0.9142995327,0.8962770396,0.8793207419,0.8633326808,0.8482238375,0.8339136235,0.8203293167,0.8074053746,0.7950827383,0.7833081869,0.7720337535,0.7612161995,0.7508165427,0.7407996319,0.7311337648,0.7217903434,0.7127435646],
			"UEFP": [1,0.9760329488,0.9540043077,0.933497456,0.9142995327,0.8962770396,0.8793207419,0.8633326808,0.8482238375,0.8339136235,0.8203293167,0.8074053746,0.7950827383,0.7833081869,0.7720337535,0.7612161995,0.7508165427,0.7407996319,0.7311337648,0.7217903434,0.7127435646],
			"rT": [1,0.6563359146,0.4874421678,0.4064487575,0.3842376872,0.3779532712,0.3746074999,0.3712309116,0.3676218407,0.3639319748,0.3602502985,0.3566047467,0.3530002383,0.3494361781,0.345911401,0.3424249761,0.3389761556,0.3355642793,0.3321887318,0.3288489298,0.3255443172],
			"rIB": [1,0.782834644,0.6741807358,0.6197514542,0.6009663697,0.5919412313,0.5848650992,0.5779547178,0.5710800562,0.5643194948,0.5577135371,0.5512670087,0.5449720725,0.5388186505,0.5327972752,0.5268994701,0.5211176316,0.5154448952,0.5098750413,0.5044024262,0.4990219236],
			"rL": [1,0.745176201,0.6187661545,0.5566477963,0.5370287753,0.5289780521,0.5231502394,0.517413113,0.5116175697,0.5058653618,0.5002127164,0.4946724941,0.4892417009,0.4839140259,0.4786833239,0.4735441301,0.4684915708,0.463521248,0.4586291682,0.4538116956,0.4490655156],
			"rB": [1,0.7581745896,0.6371959866,0.5767316673,0.5562281839,0.5467201789,0.539451354,0.5324141852,0.525455813,0.5186586369,0.5120635409,0.505671979,0.4994716311,0.4934480275,0.4875877079,0.4818786176,0.4763099456,0.470871948,0.4655558194,0.4603535926,0.4552580548],
			"interest": [1,0.782834644,0.6741807358,0.6197514542,0.6009663697,0.5919412313,0.5848650992,0.5779547178,0.5710800562,0.5643194948,0.5577135371,0.5512670087,0.5449720725,0.5388186505,0.5327972752,0.5268994701,0.5211176316,0.5154448952,0.5098750413,0.5044024262,0.4990219236],
			"inflation": [1,0.983224028,0.9531062349,0.9192330565,0.8887046708,0.8725685315,0.8614755647,0.8518231756,0.8425033299,0.8333274021,0.8242927899,0.8154092707,0.8066764408,0.798088589,0.7896388093,0.7813204759,0.7731275408,0.7650545125,0.7570963901,0.7492486064,0.7415069824],
			"inflationq": [1,0.8606352454,0.8018345373,0.7776829874,0.7663691642,0.7577824245,0.7495351044,0.7413120373,0.7331721733,0.7251634226,0.7172978994,0.7095722585,0.7019794575,0.694512455,0.6871648923,0.6799310579,0.6728057804,0.6657843515,0.6588624737,0.652036218,0.6453019879],
			"output": [1,0.987724688,0.9769051334,0.9667776125,0.9570022299,0.9473838458,0.937871944,0.9284571927,0.9191389094,0.9099167294,0.9007897499,0.8917568132,0.8828167145,0.8739682728,0.865210344,0.8565418192,0.8479616219,0.8394687044,0.8310620462,0.8227406517,0.8145035486],
			"outputgap": [1,0.3818784206,0.1207437213,0.02645105269,0.007624469965,0.006311059384,0.007161262487,0.007479403658,0.00738440612,0.007154980424,0.00691107166,0.006683508454,0.006475292969,0.006284159276,0.006107873117,0.005944759762,0.005793486011,0.005652904317,0.005521991149,0.005399824882,0.005285574784],
			"fispol": [1,"_NaN_","_NaN_","_NaN_","_NaN_","_NaN_","_NaN_","_NaN_","_NaN_","_NaN_","_NaN_","_NaN_","_NaN_","_NaN_","_NaN_","_NaN_","_NaN_","_NaN_","_NaN_","_NaN_","_NaN_"],
			"AUX_ENDO_LEAD_227": [1,0.9647455519,0.9464027003,0.9345580536,0.9242173177,0.9141725874,0.9042502781,0.8944702997,0.8848504623,0.8753920079,0.8660890236,0.8569341249,0.8479202556,0.8390410021,0.8302905508,0.8216636081,0.8131553383,0.8047613143,0.7964774776,0.7883001016,0.7802257595],
			"AUX_ENDO_LEAD_231": [1,0.9855591543,0.9740999457,0.963437021,0.9530220415,0.9427660109,0.9326701595,0.9227370562,0.9129628588,0.9033410196,0.8938646807,0.8845274321,0.875323427,0.8662473372,0.8572942938,0.8484598378,0.8397398775,0.831130653,0.8226287033,0.8142308375,0.8059341081],
			"AUX_ENDO_LEAD_235": [1,0.9887270205,0.9779995433,0.9674949801,0.957155648,0.9469777693,0.9369594202,0.9270954847,0.9173795768,0.9078053559,0.8983669389,0.8890589486,0.8798764716,0.8708150081,0.861870429,0.8530389386,0.8443170417,0.8357015146,0.8271893783,0.8187778756,0.8104644487],
			"AUX_ENDO_LEAD_262": [1,0.3349718703,0.09027048898,0.04009250219,0.03566643152,0.03716544272,0.03742637297,0.03667965586,0.03562361534,0.03456253027,0.0335733939,0.03266149936,0.03181853297,0.03103640088,0.03030865646,0.0296299417,0.02899556876,0.02840134185,0.02784348268,0.02731858633,0.02682358508],
			"AUX_ENDO_LEAD_266": [1,0.3937055352,0.2620993,0.2447108133,0.2433712369,0.2397173433,0.2339849301,0.2277806564,0.2218139419,0.2162511735,0.2110851426,0.2062763581,0.2017873351,0.1975862588,0.1936455532,0.1899407204,0.1864497617,0.1831528636,0.1800321736,0.1770716067,0.17425667],
			"AUX_ENDO_LEAD_270": [1,0.8796908026,0.8452775805,0.8251390847,0.8050969804,0.7848900709,0.7654828049,0.7472693524,0.7302739217,0.7144048129,0.6995546707,0.6856249918,0.6725283434,0.660186735,0.6485301633,0.6374956194,0.6270263421,0.6170711891,0.6075840766,0.5985234752,0.589851956],
			"AUX_ENDO_LEAD_297": [1,0.989879344,0.9799220885,0.9700802371,0.960341131,0.9507024531,0.9411633068,0.9317226541,0.9223792911,0.9131319761,0.9039794884,0.8949206432,0.8859542917,0.8770793183,0.8682946377,0.8595991926,0.8509919518,0.8424719084,0.8340380777,0.8256894965,0.8174252212],
			"AUX_ENDO_LEAD_301": [1,0.9900778972,0.9801658498,0.9703322919,0.960596552,0.9509616134,0.9414263274,0.9319891351,0.9226486541,0.9134036436,0.9042529347,0.8951953992,0.8862299394,0.8773554846,0.8685709898,0.8598754341,0.8512678184,0.8427471651,0.8343125158,0.8259629307,0.8176974875],
			"AUX_ENDO_LEAD_305": [1,0.9900032582,0.9800756059,0.9702450275,0.9605161369,0.9508877826,0.9413582809,0.9319262014,0.9225903014,0.9133494227,0.9042024489,0.8951482923,0.8861858904,0.8773142043,0.8685322179,0.8598389357,0.8512333823,0.8427146009,0.8342816521,0.825933613,0.8176695766],
			"AUX_ENDO_LAG_0_1": [1,0.8606352454,0.8018345373,0.7776829874,0.7663691642,0.7577824245,0.7495351044,0.7413120373,0.7331721733,0.7251634226,0.7172978994,0.7095722585,0.7019794575,0.694512455,0.6871648923,0.6799310579,0.6728057804,0.6657843515,0.6588624737,0.652036218,0.6453019879],
			"AUX_ENDO_LAG_0_2": [1,0.8606352454,0.8018345373,0.7776829874,0.7663691642,0.7577824245,0.7495351044,0.7413120373,0.7331721733,0.7251634226,0.7172978994,0.7095722585,0.7019794575,0.694512455,0.6871648923,0.6799310579,0.6728057804,0.6657843515,0.6588624737,0.652036218,0.6453019879],
			"AUX_ENDO_LAG_25_1": [1,0.987724688,0.9769051334,0.9667776125,0.9570022299,0.9473838458,0.937871944,0.9284571927,0.9191389094,0.9099167294,0.9007897499,0.8917568132,0.8828167145,0.8739682728,0.865210344,0.8565418192,0.8479616219,0.8394687044,0.8310620462,0.8227406517,0.8145035486],
			"AUX_ENDO_LAG_25_2": [1,0.987724688,0.9769051334,0.9667776125,0.9570022299,0.9473838458,0.937871944,0.9284571927,0.9191389094,0.9099167294,0.9007897499,0.8917568132,0.8828167145,0.8739682728,0.865210344,0.8565418192,0.8479616219,0.8394687044,0.8310620462,0.8227406517,0.8145035486],
			"AUX_ENDO_LAG_25_3": [1,0.987724688,0.9769051334,0.9667776125,0.9570022299,0.9473838458,0.937871944,0.9284571927,0.9191389094,0.9099167294,0.9007897499,0.8917568132,0.8828167145,0.8739682728,0.865210344,0.8565418192,0.8479616219,0.8394687044,0.8310620462,0.8227406517,0.8145035486],
			"AUX_ENDO_LAG_26_1": [1,0.3818784206,0.1207437213,0.02645105269,0.007624469965,0.006311059384,0.007161262487,0.007479403658,0.00738440612,0.007154980424,0.00691107166,0.006683508454,0.006475292969,0.006284159276,0.006107873117,0.005944759762,0.005793486011,0.005652904317,0.005521991149,0.005399824882,0.005285574784],
			"AUX_ENDO_LAG_26_2": [1,0.3818784206,0.1207437213,0.02645105269,0.007624469965,0.006311059384,0.007161262487,0.007479403658,0.00738440612,0.007154980424,0.00691107166,0.006683508454,0.006475292969,0.006284159276,0.006107873117,0.005944759762,0.005793486011,0.005652904317,0.005521991149,0.005399824882,0.005285574784],
			"AUX_ENDO_LAG_26_3": [1,0.3818784206,0.1207437213,0.02645105269,0.007624469965,0.006311059384,0.007161262487,0.007479403658,0.00738440612,0.007154980424,0.00691107166,0.006683508454,0.006475292969,0.006284159276,0.006107873117,0.005944759762,0.005793486011,0.005652904317,0.005521991149,0.005399824882,0.005285574784],
			"AUX_ENDO_LAG_22_1": [1,0.782834644,0.6741807358,0.6197514542,0.6009663697,0.5919412313,0.5848650992,0.5779547178,0.5710800562,0.5643194948,0.5577135371,0.5512670087,0.5449720725,0.5388186505,0.5327972752,0.5268994701,0.5211176316,0.5154448952,0.5098750413,0.5044024262,0.4990219236],
			"AUX_ENDO_LAG_22_2": [1,0.782834644,0.6741807358,0.6197514542,0.6009663697,0.5919412313,0.5848650992,0.5779547178,0.5710800562,0.5643194948,0.5577135371,0.5512670087,0.5449720725,0.5388186505,0.5327972752,0.5268994701,0.5211176316,0.5154448952,0.5098750413,0.5044024262,0.4990219236],
			"AUX_ENDO_LAG_22_3": [1,0.782834644,0.6741807358,0.6197514542,0.6009663697,0.5919412313,0.5848650992,0.5779547178,0.5710800562,0.5643194948,0.5577135371,0.5512670087,0.5449720725,0.5388186505,0.5327972752,0.5268994701,0.5211176316,0.5154448952,0.5098750413,0.5044024262,0.4990219236],
			"AUX_ENDO_LAG_24_1": [1,0.8606352454,0.8018345373,0.7776829874,0.7663691642,0.7577824245,0.7495351044,0.7413120373,0.7331721733,0.7251634226,0.7172978994,0.7095722585,0.7019794575,0.694512455,0.6871648923,0.6799310579,0.6728057804,0.6657843515,0.6588624737,0.652036218,0.6453019879],
			"AUX_ENDO_LAG_24_2": [1,0.8606352454,0.8018345373,0.7776829874,0.7663691642,0.7577824245,0.7495351044,0.7413120373,0.7331721733,0.7251634226,0.7172978994,0.7095722585,0.7019794575,0.694512455,0.6871648923,0.6799310579,0.6728057804,0.6657843515,0.6588624737,0.652036218,0.6453019879],
			"AUX_ENDO_LAG_24_3": [1,0.8606352454,0.8018345373,0.7776829874,0.7663691642,0.7577824245,0.7495351044,0.7413120373,0.7331721733,0.7251634226,0.7172978994,0.7095722585,0.7019794575,0.694512455,0.6871648923,0.6799310579,0.6728057804,0.6657843515,0.6588624737,0.652036218,0.6453019879]
		},
		"VAR": {
			"dp": 0.0179632966,
			"mc": 0.5867240495,
			"omega": 3.26758283,
			"lambda": 20.79131004,
			"xi": 21.37272913,
			"w": 20.59639276,
			"n": 0.3688663835,
			"m": 66.52602387,
			"c": 19.35294513,
			"q": 21.15452734,
			"p": "_NaN_",
			"h": "_NaN_",
			"b": 0,
			"a1": 50.25125628,
			"a2": 50.25125628,
			"a3": 5.263157895,
			"CEFP": 0.001466398518,
			"UEFP": 0.01197060015,
			"rT": 0.05842997023,
			"rIB": 0.099906994,
			"rL": 0.08266672415,
			"rB": 0.08790685182,
			"interest": 1.598511904,
			"inflation": 0.2501661302,
			"inflationq": 0.2874127455,
			"output": 19.35294513,
			"outputgap": 9.387584792,
			"fispol": 0,
			"AUX_ENDO_LEAD_227": 0.2304092881,
			"AUX_ENDO_LEAD_231": 0.2175519603,
			"AUX_ENDO_LEAD_235": 0.2116455129,
			"AUX_ENDO_LEAD_262": 1.402007798,
			"AUX_ENDO_LEAD_266": 0.1813127852,
			"AUX_ENDO_LEAD_270": 0.04882022421,
			"AUX_ENDO_LEAD_297": 18.9178156,
			"AUX_ENDO_LEAD_301": 18.5436174,
			"AUX_ENDO_LEAD_305": 18.17846564,
			"AUX_ENDO_LAG_0_1": 0.0179632966,
			"AUX_ENDO_LAG_0_2": 0.0179632966,
			"AUX_ENDO_LAG_25_1": 19.35294513,
			"AUX_ENDO_LAG_25_2": 19.35294513,
			"AUX_ENDO_LAG_25_3": 19.35294513,
			"AUX_ENDO_LAG_26_1": 9.387584792,
			"AUX_ENDO_LAG_26_2": 9.387584792,
			"AUX_ENDO_LAG_26_3": 9.387584792,
			"AUX_ENDO_LAG_22_1": 1.598511904,
			"AUX_ENDO_LAG_22_2": 1.598511904,
			"AUX_ENDO_LAG_22_3": 1.598511904,
			"AUX_ENDO_LAG_24_1": 0.2874127455,
			"AUX_ENDO_LAG_24_2": 0.2874127455,
			"AUX_ENDO_LAG_24_3": 0.2874127455
		},
		"IRF": {
			"interest_": {
				"dp": [0,-0.05248528254,-0.01803358726,-0.004750742616,-0.0005702142485,0.0001292023456,0.0001112794721,4.081979752e-05,9.568734731e-06,9.646755679e-07,-3.718469401e-07,-2.574211084e-07,-8.860024792e-08,-1.934680171e-08,-1.433986322e-09,9.946540102e-10,5.896830602e-10,1.906669037e-10,3.855570784e-11,1.643449697e-12,-2.551297312e-12],
				"mc": [0,-0.6926406231,-0.2666070414,-0.0837246102,-0.01396249141,0.0003807133647,0.001417357451,0.0006269350028,0.0001722741184,2.665608077e-05,-2.340000856e-06,-3.39413726e-06,-1.388938285e-06,-3.58543105e-07,-4.837387593e-08,8.217355533e-09,8.018456431e-09,3.049934979e-09,7.385737733e-10,8.338460113e-11,-2.454906583e-11],
				"omega": [0,0.02744107674,0.009307538355,0.002390839832,0.0002695033127,-7.35209031e-05,-5.844140771e-05,-2.095877099e-05,-4.799699246e-06,-4.42305486e-07,2.060138507e-07,1.34676139e-07,4.536526789e-08,9.658637082e-09,6.183157216e-10,-5.423001488e-10,-3.074167651e-10,-9.735198439e-11,-1.914001862e-11,-5.827544635e-13,1.376247689e-12],
				"lambda": [0,0.3033157678,0.1171282213,0.03694281795,0.006199732379,-0.0001491283093,-0.0006199892342,-0.0002757101707,-7.605063348e-05,-1.185777318e-05,9.906074862e-07,1.486271746e-06,6.111413456e-07,1.583788568e-07,2.157427774e-08,-3.533236471e-09,-3.514467797e-09,-1.342671629e-09,-3.264769127e-10,-3.733404933e-11,1.06289143e-11],
				"xi": [0,-0.3893248553,-0.1494788201,-0.04678179225,-0.007762759035,0.0002315850554,0.0007973682173,0.0003512248321,9.62234849e-05,1.47983076e-05,-1.34939337e-06,-1.907865514e-06,-7.777969391e-07,-2.001642482e-07,-2.679959819e-08,4.684119062e-09,4.503988634e-09,1.70726335e-09,4.120968607e-10,4.605055179e-11,-1.392015152e-11],
				"w": [0,-0.5214400171,-0.2010691221,-0.06329570649,-0.0105926507,0.0002698673565,0.001066372201,0.0004730864522,0.0001302733462,2.024333896e-05,-1.729153625e-06,-2.555145983e-06,-1.04840164e-06,-2.712243341e-07,-3.678923687e-08,6.124158416e-09,6.039466861e-09,2.302807836e-09,5.589197755e-10,6.355388446e-11,-1.83656732e-11],
				"n": [0,-0.4556761102,-0.1753064411,-0.05501478533,-0.009165412829,0.0002546395004,0.0009326180828,0.000412172403,0.0001131914175,1.749272028e-05,-1.547540313e-06,-2.232958125e-06,-9.130678743e-07,-2.355544348e-07,-3.17315818e-08,5.421538459e-09,5.274468859e-09,2.004821227e-09,4.851716839e-10,5.46628945e-11,-1.617923297e-11],
				"m": [0,-0.2334685234,-0.09246783659,-0.03014183146,-0.005294624195,7.1341574e-06,0.000473002993,0.0002193660652,6.226905054e-05,1.025782897e-05,-5.537582354e-07,-1.143633259e-06,-4.88207084e-07,-1.302823627e-07,-1.899762857e-08,2.320323574e-09,2.724058537e-09,1.076737975e-09,2.699405755e-10,3.374897679e-11,-7.437683354e-12],
				"c": [0,-0.2844755042,-0.1097685218,-0.03458588161,-0.005795572114,0.0001437934922,0.0005816328324,0.0002583238524,7.119064533e-05,1.107997846e-05,-9.366930825e-07,-1.393966849e-06,-5.725312296e-07,-1.482356639e-07,-2.014694274e-08,3.32834134e-09,3.295479286e-09,1.257694081e-09,3.055176834e-10,3.483217524e-11,-9.995842932e-12],
				"q": [0,-0.317828553,-0.1210812988,-0.03749180977,-0.006123137873,0.0002331539168,0.0006526649986,0.0002837980318,7.702440341e-05,1.161757531e-05,-1.187091056e-06,-1.557657941e-06,-6.276701007e-07,-1.599751812e-07,-2.08984699e-08,3.987475947e-09,3.669126664e-09,1.376019813e-09,3.28781274e-10,3.554047967e-11,-1.166859282e-11],
				"p": [0,-0.05248528254,-0.0705188698,-0.07526961242,-0.07583982667,-0.07571062432,-0.07559934485,-0.07555852505,-0.07554895632,-0.07554799164,-0.07554836349,-0.07554862091,-0.07554870951,-0.07554872886,-0.07554873029,-0.0755487293,-0.07554872871,-0.07554872852,-0.07554872848,-0.07554872848,-0.07554872848],
				"h": [0,-0.3369607867,-0.1802873916,-0.109855494,-0.08163539878,-0.07556683083,-0.07501771202,-0.0753002012,-0.07547776567,-0.07553691166,-0.07554930018,-0.07555001488,-0.07554928204,-0.07554887709,-0.07554875044,-0.07554872597,-0.07554872541,-0.07554872726,-0.07554872817,-0.07554872844,-0.07554872849],
				"b": [0,0,0,0,0,0,0,0,0,0,0,0,0,0,0,0,0,0,0,0,0],
				"a1": [0,0,-1.88936088e-17,-3.137847365e-17,-4.509783778e-17,-5.592150403e-17,-6.571870245e-17,-7.516375672e-17,-8.448203613e-17,-9.3712919e-17,-1.028571097e-16,-1.119119773e-16,-1.208768071e-16,-1.297520454e-16,-1.385385139e-16,-1.472371046e-16,-1.558487048e-16,-1.643741879e-16,-1.728144162e-16,-1.811702422e-16,-1.894425099e-16],
				"a2": [0,0,0,0,0,0,0,0,0,0,0,0,0,0,0,0,0,0,0,0,0],
				"a3": [0,0,0,0,0,0,0,0,0,0,0,0,0,0,0,0,0,0,0,0,0],
				"CEFP": [0,-0.002140151224,-0.0008360217389,-0.0002677351176,-4.591040251e-05,6.060061447e-07,4.357078115e-06,1.974990959e-06,5.520681568e-07,8.835323879e-08,-6.124382309e-09,-1.048533305e-08,-4.385898672e-09,-1.152211408e-09,-1.621374739e-10,2.327496972e-11,2.487590087e-11,9.652986135e-12,2.380854158e-12,2.841992487e-13,-7.191346399e-14],
				"UEFP": [0,-0.006114717781,-0.00238863354,-0.0007649574789,-0.0001311725786,1.731446128e-06,1.244879462e-05,5.642831311e-06,1.577337591e-06,2.524378251e-07,-1.749823517e-08,-2.995809443e-08,-1.253113906e-08,-3.292032593e-09,-4.632499256e-10,6.649991347e-11,7.107400248e-11,2.757996038e-11,6.802440447e-12,8.11997848e-13,-2.054670454e-13],
				"rT": [0,0.1690074468,0.07581753931,0.03032601771,0.006510943297,0.0005850951274,-0.0003049995135,-0.0001910556334,-6.354910773e-05,-1.328732861e-05,-7.56907752e-07,7.905222897e-07,4.356155457e-07,1.36057684e-07,2.623465325e-08,5.738121602e-10,-1.991184725e-09,-9.826011217e-10,-2.889586323e-10,-5.077063018e-11,1.099798009e-12],
				"rIB": [0,0.1751221646,0.07820617285,0.03109097519,0.006642115876,0.0005833636813,-0.0003174483082,-0.0001966984647,-6.512644532e-05,-1.353976644e-05,-7.394095168e-07,8.204803842e-07,4.481466847e-07,1.393497167e-07,2.66979032e-08,5.073122787e-10,-2.062258695e-09,-1.01018105e-09,-2.957610407e-10,-5.158259605e-11,1.30529703e-12],
				"rL": [0,0.1729820134,0.07737015111,0.03082324008,0.006596205473,0.0005839696874,-0.00031309123,-0.0001947234738,-6.457437717e-05,-1.34514132e-05,-7.455338991e-07,8.099950511e-07,4.437607861e-07,1.381975053e-07,2.653576573e-08,5.305872485e-10,-2.037382794e-09,-1.000528064e-09,-2.933801866e-10,-5.129839681e-11,1.233383566e-12],
				"rB": [0,0.1733892658,0.0775429177,0.03088428317,0.006608033818,0.0005844913532,-0.0003138953999,-0.0001951415814,-6.4701509e-05,-1.347491613e-05,-7.456035571e-07,8.119880635e-07,4.447007002e-07,1.384663151e-07,2.658076931e-08,5.285207482e-10,-2.042228321e-09,-1.002620919e-09,-2.939435939e-10,-5.138216652e-11,1.242636128e-12],
				"interest": [0,0.7004886583,0.3128246914,0.1243639008,0.0265684635,0.002333454725,-0.001269793233,-0.0007867938589,-0.0002605057813,-5.415906575e-05,-2.957638067e-06,3.281921537e-06,1.792586739e-06,5.573988667e-07,1.067916128e-07,2.029249123e-09,-8.249034772e-09,-4.040724192e-09,-1.183044155e-09,-2.063303762e-10,5.221196114e-12],
				"inflation": [0,-0.05248528254,-0.0705188698,-0.07526961242,-0.07583982667,-0.02322534178,-0.005080475047,-0.0002889126332,0.00029087035,0.0001626326799,5.098136088e-05,9.904142251e-06,2.468072715e-07,-7.372150982e-07,-3.668021444e-07,-1.083863819e-07,-1.919645096e-08,3.410176499e-10,1.81355968e-09,8.205491197e-10,2.283147622e-10],
				"inflationq": [0,-0.2099411302,-0.07213434904,-0.01900297046,-0.002280856994,0.0005168093826,0.0004451178885,0.0001632791901,3.827493892e-05,3.858702272e-06,-1.48738776e-06,-1.029684434e-06,-3.544009916e-07,-7.738720676e-08,-5.735945227e-09,3.978616104e-09,2.358732303e-09,7.626676775e-10,1.542228941e-10,6.573861478e-12,-1.020512656e-11],
				"output": [0,-0.2844755042,-0.1097685218,-0.03458588161,-0.005795572114,0.0001437934922,0.0005816328324,0.0002583238524,7.119064533e-05,1.107997846e-05,-9.366930825e-07,-1.393966849e-06,-5.725312296e-07,-1.482356639e-07,-2.014694277e-08,3.328341318e-09,3.295479264e-09,1.257694059e-09,3.055176619e-10,3.483215369e-11,-9.995864482e-12],
				"outputgap": [0,-2.770562492,-1.066428166,-0.3348984408,-0.05584996565,0.001522853459,0.005669429806,0.002507740011,0.0006890964735,0.0001066243231,-9.360003424e-06,-1.357654904e-05,-5.555753139e-06,-1.43417242e-06,-1.934955038e-07,3.28694221e-08,3.20738257e-08,1.219973989e-08,2.954295065e-09,3.335383758e-10,-9.819629199e-11],
				"fispol": [0,0,0,0,0,0,0,0,0,0,0,0,0,0,0,0,0,0,0,0,0],
				"AUX_ENDO_LEAD_227": [0,-0.07213434904,-0.01900297046,-0.002280856994,0.0005168093826,0.0004451178885,0.0001632791901,3.827493892e-05,3.858702272e-06,-1.48738776e-06,-1.029684434e-06,-3.544009916e-07,-7.738720677e-08,-5.73594524e-09,3.978616091e-09,2.358732291e-09,7.626676652e-10,1.542228818e-10,6.573849185e-12,-1.020513885e-11,-5.348830409e-12],
				"AUX_ENDO_LEAD_231": [0,-0.01900297046,-0.002280856994,0.0005168093826,0.0004451178885,0.0001632791901,3.827493892e-05,3.858702272e-06,-1.48738776e-06,-1.029684434e-06,-3.544009916e-07,-7.738720677e-08,-5.73594524e-09,3.978616091e-09,2.358732291e-09,7.626676645e-10,1.542228811e-10,6.573848533e-12,-1.02051395e-11,-5.34883106e-12,-1.627427967e-12],
				"AUX_ENDO_LEAD_235": [0,-0.002280856994,0.0005168093826,0.0004451178885,0.0001632791901,3.827493892e-05,3.858702272e-06,-1.48738776e-06,-1.029684434e-06,-3.544009916e-07,-7.738720677e-08,-5.735945241e-09,3.97861609e-09,2.35873229e-09,7.62667664e-10,1.542228806e-10,6.57384804e-12,-1.020513999e-11,-5.348831554e-12,-1.62742846e-12,-3.017555674e-13],
				"AUX_ENDO_LEAD_262": [0,-1.066428166,-0.3348984408,-0.05584996565,0.001522853459,0.005669429806,0.002507740011,0.0006890964735,0.0001066243231,-9.360003424e-06,-1.357654904e-05,-5.555753139e-06,-1.43417242e-06,-1.934955037e-07,3.286942212e-08,3.207382571e-08,1.21997399e-08,2.954295076e-09,3.335383874e-10,-9.819628037e-11,-7.475389282e-11],
				"AUX_ENDO_LEAD_266": [0,-0.3348984408,-0.05584996565,0.001522853459,0.005669429806,0.002507740011,0.0006890964735,0.0001066243231,-9.360003424e-06,-1.357654904e-05,-5.555753139e-06,-1.43417242e-06,-1.934955037e-07,3.286942211e-08,3.20738257e-08,1.21997399e-08,2.954295073e-09,3.335383843e-10,-9.81962835e-11,-7.475389594e-11,-2.657415734e-11],
				"AUX_ENDO_LEAD_270": [0,-0.05584996565,0.001522853459,0.005669429806,0.002507740011,0.0006890964735,0.0001066243231,-9.360003424e-06,-1.357654904e-05,-5.555753139e-06,-1.43417242e-06,-1.934955038e-07,3.286942211e-08,3.20738257e-08,1.219973989e-08,2.954295068e-09,3.335383793e-10,-9.819628847e-11,-7.475390092e-11,-2.657416232e-11,-6.014230888e-12],
				"AUX_ENDO_LEAD_297": [0,-0.1097685218,-0.03458588161,-0.005795572114,0.0001437934922,0.0005816328324,0.0002583238524,7.119064533e-05,1.107997846e-05,-9.366930825e-07,-1.393966849e-06,-5.725312296e-07,-1.482356639e-07,-2.014694276e-08,3.32834132e-09,3.295479266e-09,1.257694061e-09,3.055176636e-10,3.483215544e-11,-9.995862731e-12,-7.685306126e-12],
				"AUX_ENDO_LEAD_301": [0,-0.03458588161,-0.005795572114,0.0001437934922,0.0005816328324,0.0002583238524,7.119064533e-05,1.107997846e-05,-9.366930825e-07,-1.393966849e-06,-5.725312296e-07,-1.482356639e-07,-2.014694276e-08,3.32834132e-09,3.295479266e-09,1.257694061e-09,3.055176634e-10,3.483215524e-11,-9.995862928e-12,-7.685306322e-12,-2.740583009e-12],
				"AUX_ENDO_LEAD_305": [0,-0.005795572114,0.0001437934922,0.0005816328324,0.0002583238524,7.119064533e-05,1.107997846e-05,-9.366930825e-07,-1.393966849e-06,-5.725312296e-07,-1.482356639e-07,-2.014694276e-08,3.32834132e-09,3.295479266e-09,1.257694061e-09,3.055176635e-10,3.483215529e-11,-9.99586288e-12,-7.685306274e-12,-2.740582961e-12,-6.222899883e-13],
				"AUX_ENDO_LAG_0_1": [0,0,-0.05248528254,-0.01803358726,-0.004750742616,-0.0005702142485,0.0001292023456,0.0001112794721,4.081979752e-05,9.568734731e-06,9.646755679e-07,-3.718469401e-07,-2.574211084e-07,-8.860024792e-08,-1.934680171e-08,-1.433986322e-09,9.946540102e-10,5.896830602e-10,1.906669037e-10,3.855570783e-11,1.643449683e-12],
				"AUX_ENDO_LAG_0_2": [0,0,1.216638995e-17,-0.05248528254,-0.01803358726,-0.004750742616,-0.0005702142485,0.0001292023456,0.0001112794721,4.081979752e-05,9.568734731e-06,9.646755679e-07,-3.718469401e-07,-2.574211084e-07,-8.860024792e-08,-1.934680171e-08,-1.433986324e-09,9.946540085e-10,5.896830585e-10,1.90666902e-10,3.855570612e-11],
				"AUX_ENDO_LAG_25_1": [0,0,-0.2844755042,-0.1097685218,-0.03458588161,-0.005795572114,0.0001437934922,0.0005816328324,0.0002583238524,7.119064533e-05,1.107997846e-05,-9.366930825e-07,-1.393966849e-06,-5.725312296e-07,-1.482356639e-07,-2.014694277e-08,3.328341318e-09,3.295479264e-09,1.257694059e-09,3.055176619e-10,3.483215369e-11],
				"AUX_ENDO_LAG_25_2": [0,0,0,-0.2844755042,-0.1097685218,-0.03458588161,-0.005795572114,0.0001437934922,0.0005816328324,0.0002583238524,7.119064533e-05,1.107997846e-05,-9.366930825e-07,-1.393966849e-06,-5.725312296e-07,-1.482356639e-07,-2.014694277e-08,3.328341318e-09,3.295479264e-09,1.257694059e-09,3.055176619e-10],
				"AUX_ENDO_LAG_25_3": [0,0,0,0,-0.2844755042,-0.1097685218,-0.03458588161,-0.005795572114,0.0001437934922,0.0005816328324,0.0002583238524,7.119064533e-05,1.107997846e-05,-9.366930825e-07,-1.393966849e-06,-5.725312296e-07,-1.482356639e-07,-2.014694277e-08,3.328341318e-09,3.295479264e-09,1.257694059e-09],
				"AUX_ENDO_LAG_26_1": [0,0,-2.770562492,-1.066428166,-0.3348984408,-0.05584996565,0.001522853459,0.005669429806,0.002507740011,0.0006890964735,0.0001066243231,-9.360003424e-06,-1.357654904e-05,-5.555753139e-06,-1.43417242e-06,-1.934955038e-07,3.28694221e-08,3.20738257e-08,1.219973989e-08,2.954295065e-09,3.335383758e-10],
				"AUX_ENDO_LAG_26_2": [0,0,0,-2.770562492,-1.066428166,-0.3348984408,-0.05584996565,0.001522853459,0.005669429806,0.002507740011,0.0006890964735,0.0001066243231,-9.360003424e-06,-1.357654904e-05,-5.555753139e-06,-1.43417242e-06,-1.934955038e-07,3.28694221e-08,3.20738257e-08,1.219973989e-08,2.954295065e-09],
				"AUX_ENDO_LAG_26_3": [0,0,0,0,-2.770562492,-1.066428166,-0.3348984408,-0.05584996565,0.001522853459,0.005669429806,0.002507740011,0.0006890964735,0.0001066243231,-9.360003424e-06,-1.357654904e-05,-5.555753139e-06,-1.43417242e-06,-1.934955038e-07,3.28694221e-08,3.20738257e-08,1.219973989e-08],
				"AUX_ENDO_LAG_22_1": [0,0,0.7004886583,0.3128246914,0.1243639008,0.0265684635,0.002333454725,-0.001269793233,-0.0007867938589,-0.0002605057813,-5.415906575e-05,-2.957638067e-06,3.281921537e-06,1.792586739e-06,5.573988667e-07,1.067916128e-07,2.029249123e-09,-8.249034772e-09,-4.040724192e-09,-1.183044155e-09,-2.063303762e-10],
				"AUX_ENDO_LAG_22_2": [0,0,0,0.7004886583,0.3128246914,0.1243639008,0.0265684635,0.002333454725,-0.001269793233,-0.0007867938589,-0.0002605057813,-5.415906575e-05,-2.957638067e-06,3.281921537e-06,1.792586739e-06,5.573988667e-07,1.067916128e-07,2.029249123e-09,-8.249034772e-09,-4.040724192e-09,-1.183044155e-09],
				"AUX_ENDO_LAG_22_3": [0,0,0,0,0.7004886583,0.3128246914,0.1243639008,0.0265684635,0.002333454725,-0.001269793233,-0.0007867938589,-0.0002605057813,-5.415906575e-05,-2.957638067e-06,3.281921537e-06,1.792586739e-06,5.573988667e-07,1.067916128e-07,2.029249123e-09,-8.249034772e-09,-4.040724192e-09],
				"AUX_ENDO_LAG_24_1": [0,0,-0.2099411302,-0.07213434904,-0.01900297046,-0.002280856994,0.0005168093826,0.0004451178885,0.0001632791901,3.827493892e-05,3.858702272e-06,-1.48738776e-06,-1.029684434e-06,-3.544009916e-07,-7.738720676e-08,-5.735945229e-09,3.978616102e-09,2.358732302e-09,7.626676756e-10,1.542228922e-10,6.573859622e-12],
				"AUX_ENDO_LAG_24_2": [0,0,1.407899222e-16,-0.2099411302,-0.07213434904,-0.01900297046,-0.002280856994,0.0005168093826,0.0004451178885,0.0001632791901,3.827493892e-05,3.858702272e-06,-1.48738776e-06,-1.029684434e-06,-3.544009916e-07,-7.738720677e-08,-5.735945239e-09,3.978616091e-09,2.358732291e-09,7.626676652e-10,1.542228818e-10],
				"AUX_ENDO_LAG_24_3": [0,0,-3.39500402e-21,1.407887557e-16,-0.2099411302,-0.07213434904,-0.01900297046,-0.002280856994,0.0005168093826,0.0004451178885,0.0001632791901,3.827493892e-05,3.858702272e-06,-1.48738776e-06,-1.029684434e-06,-3.544009916e-07,-7.738720677e-08,-5.735945239e-09,3.978616091e-09,2.358732291e-09,7.626676652e-10]
			}
		}
	}
}
