{
	"model": "US_CFOP14",
	"rule": "Coenen",
	"data": {
		"AC": {
			"y": [1,0.9789064947,0.9412168544,0.8964241986,0.8494790274,0.802991723,0.7583027597,0.7160421658,0.6764401487,0.6395061895,0.60513386,0.5731618978,0.5434090311,0.5156930413,0.4898404881,0.4656910391,0.4430988053,0.4219321111,0.4020725268,0.3834136221,0.3658596837],
			"k": [1,0.9851875354,0.958894805,0.9276145614,0.8940338804,0.8593836542,0.8243089568,0.7891994703,0.7543205443,0.7198688229,0.6859980231,0.6528320444,0.6204722057,0.5890015179,0.5584873667,0.5289833297,0.5005305283,0.4731587449,0.4468874327,0.4217266822,0.3976781711],
			"L": [1,0.9777482076,0.9353613968,0.8828856368,0.8265501479,0.7701420814,0.7158640426,0.6648943092,0.6177608971,0.5745917593,0.5352802643,0.4995924917,0.467234943,0.4378957677,0.4112686437,0.3870655865,0.3650229031,0.3449030652,0.3264942796,0.3096088632,0.2940810899],
			"mpk": [1,0.9804950171,0.9434312146,0.896378904,0.8443784319,0.7907384907,0.7375621045,0.6861188982,0.6371152971,0.5908891072,0.5475464073,0.5070550085,0.4693061261,0.4341535332,0.4014372903,0.3709972746,0.3426802191,0.3163428035,0.2918524787,0.2690870972,0.2479340015],
			"w": [1,0.9558483599,0.906849596,0.8588905393,0.8136409524,0.7713193722,0.7317107507,0.6945178591,0.6594693499,0.6263431533,0.5949631404,0.5651894155,0.5369088432,0.5100275147,0.4844652324,0.4601516357,0.4370235426,0.4150231463,0.3940967993,0.3741941911,0.3552677891],
			"p": [1,0.5175785907,0.3065169556,0.1831345978,0.1063112173,0.05895691754,0.03056232691,0.01409291551,0.004895244957,-1.933516599e-05,-0.002508728413,-0.003688121016,-0.004200647417,-0.004399432432,-0.004466050336,-0.004485142001,-0.004489802843,-0.004488089623,-0.004477719712,-0.004453648134,-0.004411531514],
			"s": [1,0.9482158174,0.8924553602,0.8390929346,0.7899067317,0.7449849102,0.7038800431,0.6660448512,0.6309825489,0.598286277,0.5676375004,0.5387913455,0.5115598663,0.4857972239,0.4613878745,0.4382377025,0.4162676311,0.3954091607,0.3756013308,0.3567886975,0.3389200092],
			"lambda": [1,0.881442225,0.7686930238,0.6681838287,0.5824324125,0.5114508971,0.4538180306,0.407498874,0.3703667703,0.3404816211,0.3162050318,0.2962203773,0.2795048174,0.2652821331,0.2529723982,0.2421462988,0.2324871028,0.2237606924,0.2157928391,0.2084524515,0.2016394815],
			"c": [1,0.9848491515,0.9592030444,0.9306440309,0.9019839468,0.8741734919,0.8474517702,0.8218034371,0.7971386983,0.7733608911,0.7503884589,0.7281589622,0.7066266737,0.6857585155,0.6655301793,0.6459230186,0.6269217833,0.6085130753,0.5906843581,0.5734233602,0.5567177477],
			"R": [1,0.9063646163,0.7578764328,0.6034648676,0.4640319728,0.3472238319,0.2539130926,0.1817749725,0.1272993271,0.08685601513,0.05719507993,0.03562673276,0.02003358903,0.008805670784,0.0007488615144,-0.005007016642,-0.009088725484,-0.01194492191,-0.01389650029,-0.01517398694,-0.01594454026],
			"u": [1,0.9804950171,0.9434312146,0.896378904,0.8443784319,0.7907384907,0.7375621045,0.6861188982,0.6371152971,0.5908891072,0.5475464073,0.5070550085,0.4693061261,0.4341535332,0.4014372903,0.3709972746,0.3426802191,0.3163428035,0.2918524787,0.2690870972,0.2479340015],
			"i": [1,0.9753939229,0.9164420585,0.8362973267,0.7452903885,0.6509456346,0.5583988416,0.4709138596,0.3903686317,0.3176620055,0.2530316055,0.1962904237,0.1469961561,0.1045682217,0.06836584842,0.03773819528,0.01205499477,-0.009275988451,-0.02680016677,-0.04101285845,-0.05235939812],
			"kbar": [1,0.9868398831,0.9622987331,0.9323380079,0.8995587207,0.8652496055,0.830147744,0.7947316483,0.7593417719,0.7242350494,0.6896125382,0.6556349715,0.6224322272,0.5901094173,0.5587509839,0.5284235921,0.4991782983,0.4710522918,0.4440703871,0.4182463709,0.3935842569],
			"wgap": [1,0.9503627969,0.8949761539,0.836161593,0.7769756745,0.7198539307,0.666331467,0.6171716197,0.5725886235,0.5324506185,0.4964332504,0.4641247182,0.4350921481,0.4089201108,0.3852303936,0.3636898855,0.344011409,0.3259507239,0.3093017569,0.2938912912,0.2795738076],
			"gdp": [1,0.9795675143,0.9430966105,0.8998279143,0.8544931603,0.8095501276,0.766246869,0.7251663473,0.686522727,0.6503291102,0.6164941374,0.5848774599,0.5553209335,0.5276654528,0.5017594005,0.477462329,0.4546460398,0.4331943335,0.4130021536,0.3939745181,0.3760254378],
			"z": [1,0.37,0.1369,0.050653,0.01874161,0.0069343957,0.002565726409,0.0009493187713,0.0003512479454,0.0001299617398,4.808584372e-05,1.779176218e-05,6.582952006e-06,2.435692242e-06,9.012061296e-07,3.334462679e-07,1.233751191e-07,4.564879408e-08,1.689005381e-08,6.249319907e-09,2.312248364e-09],
			"g": [1,0.99,0.9801,0.970299,0.96059601,0.9509900499,0.9414801494,0.9320653479,0.9227446944,0.9135172475,0.904382075,0.8953382543,0.8863848717,0.877521023,0.8687458128,0.8600583546,0.8514577711,0.8429431934,0.8345137615,0.8261686238,0.8179069376],
			"miu": [1,0.35,0.1225,0.042875,0.01500625,0.0052521875,0.001838265625,0.0006433929687,0.0002251875391,7.881563867e-05,2.758547354e-05,9.654915737e-06,3.379220508e-06,1.182727178e-06,4.139545122e-07,1.448840793e-07,5.070942774e-08,1.774829971e-08,6.211904895e-09,2.17416671e-09,7.609583459e-10],
			"lambdap": [1,0.5036750484,0.4784912959,0.4545667311,0.4318383946,0.4102464749,0.3897341511,0.3702474436,0.3517350714,0.3341483178,0.3174409019,0.3015688568,0.286490414,0.2721658933,0.2585575986,0.2456297187,0.2333482328,0.2216808211,0.2105967801,0.2000669411,0.190063594],
			"lambdaw": [1,-0.01876418663,-0.01801361917,-0.0172930744,-0.01660135142,-0.01593729737,-0.01529980547,-0.01468781325,-0.01410030072,-0.0135362887,-0.01299483715,-0.01247504366,-0.01197604192,-0.01149700024,-0.01103712023,-0.01059563542,-0.01017181,-0.009764937603,-0.009374340099,-0.008999366495,-0.008639391835],
			"b": [1,0.58,0.3364,0.195112,0.11316496,0.0656356768,0.03806869254,0.02207984168,0.01280630817,0.00742765874,0.004308042069,0.0024986644,0.001449225352,0.0008405507042,0.0004875194084,0.0002827612569,0.000164001529,9.512088681e-05,5.517011435e-05,3.199866632e-05,1.855922647e-05],
			"mp": [1,"_Inf_","_Inf_","_Inf_","_Inf_","_Inf_","_Inf_","_Inf_","_Inf_","_Inf_","_Inf_","_Inf_","_Inf_","_Inf_","_Inf_","_Inf_","_Inf_","_Inf_","_Inf_","_Inf_","_Inf_"],
			"ARMAlambdap": [1,-1.326081147e-18,-3.635061485e-20,-3.30792702e-20,-3.142530669e-20,-2.985404136e-20,-2.836133929e-20,-2.694327232e-20,-2.559610871e-20,-2.431630327e-20,-2.310048811e-20,-2.19454637e-20,-2.084819052e-20,-1.980578099e-20,-1.881549194e-20,-1.787471735e-20,-1.698098148e-20,-1.61319324e-20,-1.532533578e-20,-1.455906899e-20,-1.383111554e-20],
			"ARMAlambdaw": [1,-4.226232304e-17,3.154646552e-20,3.02846069e-20,2.907322262e-20,2.791029372e-20,2.679388197e-20,2.572212669e-20,2.469324162e-20,2.370551196e-20,2.275729148e-20,2.184699982e-20,2.097311983e-20,2.013419503e-20,1.932882723e-20,1.855567414e-20,1.781344718e-20,1.710090929e-20,1.641687292e-20,1.5760198e-20,1.512979008e-20],
			"ystar": [1,0.9384055012,0.8640445826,0.7972178547,0.7409920037,0.6938632155,0.6536786398,0.6186529065,0.587495346,0.5593134273,0.5334934642,0.5096073642,0.4873488809,0.4664923097,0.4468662314,0.4283368123,0.4107970328,0.3941595765,0.3783519926,0.3633132954,0.3489914952],
			"kstar": [1,0.9851057952,0.9586432943,0.9275280971,0.8944848645,0.8606641146,0.8266111708,0.7926288899,0.7589156077,0.7256188301,0.692856879,0.6607281209,0.6293152731,0.5986877087,0.5689029254,0.540007653,0.5120387984,0.4850243095,0.4589839917,0.4339302883,0.4098690266],
			"Lstar": [1,0.9165694436,0.8203861476,0.7337678108,0.6605649396,0.599461686,0.5482196399,0.504851296,0.4678214537,0.4359846928,0.4084811272,0.3846494306,0.3639654152,0.3460013238,0.330399433,0.3168549042,0.3051044308,0.2949184813,0.2860957801,0.278459198,0.2718525571],
			"mpkstar": [1,0.9880229643,0.9646540126,0.9352222074,0.9025412295,0.8681802452,0.8330611977,0.7977543771,0.762631049,0.7279449826,0.6938772232,0.6605613098,0.628097875,0.5965633865,0.5660156166,0.5364972565,0.5080384583,0.4806587441,0.4543685214,0.4291703459,0.4050600058],
			"wstar": [1,0.9880229643,0.9646540126,0.9352222074,0.9025412295,0.8681802452,0.8330611977,0.7977543771,0.762631049,0.7279449826,0.6938772232,0.6605613098,0.628097875,0.5965633865,0.5660156166,0.5364972565,0.5080384583,0.4806587441,0.4543685214,0.4291703459,0.4050600058],
			"sstar": [1,"_NaN_","_NaN_","_NaN_","_NaN_","_NaN_","_NaN_","_NaN_","_NaN_","_NaN_","_NaN_","_NaN_","_NaN_","_NaN_","_NaN_","_NaN_","_NaN_","_NaN_","_NaN_","_NaN_","_NaN_"],
			"lambdastar": [1,0.7848403324,0.6485222488,0.5595597663,0.4983133909,0.4532972795,0.4180243969,0.3888936509,0.3639110657,0.3419569987,0.322380403,0.3047794819,0.2888852501,0.2745006312,0.2614689886,0.2496580093,0.2389514718,0.2292450002,0.2204437973,0.2124613429,0.2052185529],
			"cstar": [1,0.9742077013,0.9310490024,0.8833729485,0.8360144029,0.7907666487,0.7482472238,0.7086074438,0.6718082355,0.637731101,0.6062249723,0.5771272329,0.5502737782,0.5255040995,0.5026639322,0.4816066183,0.4621937473,0.444295374,0.4277899801,0.4125642796,0.3985129297],
			"Rstar": [1,0.5153740663,0.2659491329,0.1380780106,0.0729370495,0.04003181594,0.02357437698,0.01542285822,0.01140600673,0.009407143115,0.008366387448,0.007762798116,0.007347064181,0.007004598379,0.006686150698,0.006373133125,0.006060618596,0.005749226574,0.005441402646,0.005139821609,0.004846783682],
			"ustar": [1,0.9880229643,0.9646540126,0.9352222074,0.9025412295,0.8681802452,0.8330611977,0.7977543771,0.762631049,0.7279449826,0.6938772232,0.6605613098,0.628097875,0.5965633865,0.5660156166,0.5364972565,0.5080384583,0.4806587441,0.4543685214,0.4291703459,0.4050600058],
			"istar": [1,0.9708113942,0.9108617278,0.8364980708,0.7570400627,0.6776519107,0.6011105832,0.5288425118,0.4615151682,0.399369824,0.3424077443,0.2904946537,0.2434199802,0.2009311018,0.1627536964,0.1286042517,0.09819804421,0.07125440455,0.04750028103,0.02667267819,0.008520312853],
			"kbarstar": [1,0.9863504862,0.9617757444,0.9325410517,0.9011620495,0.8687397326,0.8358255488,0.8027461256,0.7697275345,0.7369442439,0.7045392868,0.6726331745,0.6413282853,0.6107113717,0.5808552536,0.5518201412,0.5236547764,0.4963974741,0.4700770974,0.4447139806,0.4203208036],
			"wgapstar": [1,"_NaN_","_NaN_","_NaN_","_NaN_","_NaN_","_NaN_","_NaN_","_NaN_","_NaN_","_NaN_","_NaN_","_NaN_","_NaN_","_NaN_","_NaN_","_NaN_","_NaN_","_NaN_","_NaN_","_NaN_"],
			"gdpstar": [1,0.9441602293,0.8756646151,0.8134383071,0.7604655508,0.7154773214,0.6765773016,0.6421874407,0.6111713822,0.5827496809,0.5563926487,0.5317362324,0.5085244457,0.4865720841,0.4657410567,0.4459253715,0.4270414917,0.4090220089,0.3918113746,0.3753629353,0.3596368087],
			"Rk": [1,0.1664987878,0.003299806189,-0.0670571119,-0.09026259151,-0.08963682448,-0.07842687171,-0.0639363038,-0.04985477434,-0.03776413303,-0.0280970316,-0.02071959711,-0.01526641135,-0.01131983995,-0.008496160683,-0.006478881004,-0.005024253448,-0.003953783476,-0.003142012288,-0.002503867989,-0.00198354065],
			"Rkstar": [1,-0.1603260738,-0.1076376441,-0.06816560774,-0.04262596511,-0.02709492471,-0.01787577117,-0.01239972176,-0.009074986039,-0.006970588881,-0.005559692623,-0.004549854569,-0.003780323658,-0.003162827694,-0.002648434007,-0.002209370042,-0.001829194683,-0.001497544047,-0.001207348209,-0.0009533674984,-0.000731426472],
			"q": [1,0.9258813607,0.8237953888,0.7184994057,0.6212993325,0.5364659178,0.4645837246,0.4044960674,0.3544056007,0.3124519234,0.2769777264,0.2466203896,0.2203137449,0.1972497826,0.1768277651,0.1586046026,0.1422524561,0.1275252357,0.1142335402,0.1022266982,0.09138036328],
			"qstar": [1,0.7828056376,0.6328210561,0.5280044598,0.4518608581,0.393743681,0.347204747,0.3084400796,0.2752103426,0.2461722322,0.220487745,0.1976033282,0.1771275247,0.158763933,0.1422745952,0.1274598926,0.1141473107,0.1021849471,0.09143755589,0.08178395836,0.07311520502],
			"Rl": [1,0.02182313868,-0.02914748144,-0.04703488906,-0.04930128327,-0.0443031779,-0.0366208082,-0.02868193107,-0.02162723248,-0.01586119172,-0.01140038601,-0.008083304303,-0.005688978428,-0.003998480065,-0.002822455852,-0.002009703306,-0.001446060114,-0.001049059553,-0.0007613655385,-0.000544507599,-0.0003735649774],
			"Rlstar": [1,-0.08997430908,-0.06827081065,-0.04486065861,-0.0279213129,-0.01717262159,-0.01074024092,-0.00698477694,-0.004795949639,-0.003495639464,-0.002691566492,-0.002164039685,-0.00179252375,-0.001511717712,-0.001286446341,-0.001097712094,-0.0009351009008,-0.0007927108045,-0.0006669976281,-0.0005556487231,-0.0004570012089],
			"Rd": [1,0.9245310724,0.7795066012,0.6235706831,0.4808790495,0.3605004422,0.2639465275,0.1891306049,0.1325751543,0.09058720546,0.05981949539,0.0374820977,0.02136916659,0.00979891585,0.001522147286,-0.004371800028,-0.008538409454,-0.01144608571,-0.01342890279,-0.01472592251,-0.01550965474],
			"Rdstar": [1,0.5153740663,0.2659491329,0.1380780106,0.0729370495,0.04003181594,0.02357437698,0.01542285822,0.01140600673,0.009407143115,0.008366387448,0.007762798116,0.007347064181,0.007004598379,0.006686150698,0.006373133125,0.006060618596,0.005749226574,0.005441402646,0.005139821609,0.004846783682],
			"Rke": [1,0.8335147193,0.6271144985,0.4411225433,0.2923726409,0.181890442,0.1045152187,0.05323647862,0.02123136166,0.00271364517,-0.006838024782,-0.01075302497,-0.01136404299,-0.01023002025,-0.008341287841,-0.006289165172,-0.004396898564,-0.002815702649,-0.001592226447,-0.0007140684743,-0.0001392250881],
			"Rkestar": [1,0.5616769953,0.3069349528,0.1643470157,0.08662212068,0.04515841027,0.02349031967,0.01242643043,0.006944683456,0.00434642302,0.003202610472,0.00276763739,0.002659091168,0.002685210893,0.002752994517,0.002819786592,0.002868056486,0.002892423526,0.002893085675,0.002872560145,0.00283411521],
			"nw": [1,0.9723508709,0.9282204341,0.8762489584,0.8210282855,0.7654138817,0.7112822799,0.6598253873,0.6117188128,0.5672543781,0.5264536704,0.4891624019,0.4551242883,0.4240352984,0.3955808717,0.3694594814,0.345395949,0.323147521,0.3025051478,0.2832918244,0.2653593284],
			"nwstar": [1,0.9872800286,0.9574820889,0.919078017,0.8767452897,0.8330936536,0.789588755,0.7470535636,0.7059442248,0.6665038578,0.6288495818,0.593022621,0.5590177505,0.5268010197,0.4963207044,0.467514264,0.4403128797,0.414644484,0.3904358199,0.3676138565,0.346106763],
			"lamefp": [1,0.87,0.7569,0.658503,0.57289761,0.4984209207,0.433626201,0.3772547949,0.3282116715,0.2855441542,0.2484234142,0.2161283703,0.1880316822,0.1635875635,0.1423211803,0.1238194268,0.1077229013,0.09371892416,0.08153546402,0.0709358537,0.06171419272],
			"spr": [1,0.884733309,0.7672022558,0.6534303586,0.5473713586,0.4513910604,0.3666314109,0.2933254691,0.2310713745,0.1790600548,0.1362541672,0.1015208918,0.07372470157,0.05178769574,0.03472508634,0.02166259687,0.01184136029,0.004614681535,-0.0005600799091,-0.004132181909,-0.006469137691],
			"sprstar": [1,0.3948890173,0.1677623814,0.08091057827,0.04632640649,0.0313996289,0.02402306959,0.01968106575,0.01667149542,0.01433731926,0.01241172151,0.0107753516,0.00936610283,0.00814538183,0.007085324968,0.006163804549,0.005362351534,0.004665187217,0.004058691191,0.003531053311,0.003072013412],
			"promz": [1,0.01725880795,-0.03586669253,-0.05400919446,-0.05562675819,-0.04964254306,-0.04093460223,-0.03206898941,-0.02423595725,-0.01784411583,-0.01289376915,-0.009200314399,-0.00651963841,-0.004612523528,-0.00327304688,-0.002337033892,-0.001680425368,-0.001213314603,-0.0008728090465,-0.0006162893637,-0.0004157230106],
			"promzstar": [1,-0.01366272706,0.01019488754,0.02744275104,0.03759794152,0.04266873498,0.04457131116,0.04464266561,0.04371275173,0.04226693792,0.04057905787,0.03879976321,0.03701016232,0.03525286385,0.03354943915,0.03191007035,0.03033881949,0.0288364853,0.02740214607,0.02603399172,0.02472977331],
			"upsilon": [1,0.89,0.7921,0.704969,0.62742241,0.5584059449,0.496981291,0.442313349,0.3936588806,0.3503564037,0.3118171993,0.2775173074,0.2469904036,0.2198214592,0.1956410987,0.1741205778,0.1549673143,0.1379209097,0.1227496096,0.1092471526,0.09722996578],
			"lamnw": [1,0.78,0.6084,0.474552,0.37015056,0.2887174368,0.2251996007,0.1756556885,0.1370114371,0.1068689209,0.08335775831,0.06501905148,0.05071486016,0.03955759092,0.03085492092,0.02406683832,0.01877213389,0.01464226443,0.01142096626,0.008908353681,0.006948515871],
			"lambdae": [1,0.886404618,0.7837006656,0.6948935298,0.6203639119,0.558949096,0.5087844509,0.4678492316,0.43426505,0.4064262604,0.3830307942,0.3630594413,0.3457334099,0.3304669588,0.3168235038,0.3044786151,0.2931906039,0.2827780669,0.2731032389,0.2640599153,0.2555648249],
			"lambdaestar": [1,0.8705296563,0.7772534118,0.7065634307,0.6500881292,0.6029245132,0.5622516624,0.5264346333,0.4944940362,0.465807371,0.4399462242,0.4165895307,0.3954781162,0.3763911187,0.3591337736,0.343530993,0.3294238444,0.3166674566,0.305129616,0.2946896964,0.2852377547],
			"credit": [1,0.9189571717,0.8341691798,0.7531699749,0.6789262341,0.6123100603,0.5531420907,0.5007670542,0.4543754227,0.4131690679,0.3764342522,0.3435634658,0.3140518198,0.2874828886,0.2635119712,0.241850578,0.2222535992,0.2045093888,0.1884324382,0.1738581223,0.1606389931],
			"gs": [1,-5.26421382e-16,-5.550909706e-16,-5.333618858e-16,-4.857745105e-16,-4.276787126e-16,-3.673998488e-16,-3.093414701e-16,-2.556708449e-16,-2.072870722e-16,-1.643849914e-16,-1.267836048e-16,-9.411591524e-17,-6.593704175e-17,-4.178426269e-17,-2.120896317e-17,-3.792353609e-18,1.084801246e-17,2.30567849e-17,3.314201846e-17,4.137764913e-17],
			"interest": [1,0.9063646163,0.7578764328,0.6034648676,0.4640319728,0.3472238319,0.2539130926,0.1817749725,0.1272993271,0.08685601513,0.05719507993,0.03562673276,0.02003358903,0.008805670784,0.0007488615144,-0.005007016642,-0.009088725484,-0.01194492191,-0.01389650029,-0.01517398694,-0.01594454026],
			"inflation": [1,0.8972512701,0.7033225998,0.4776670151,0.2710279802,0.1554777299,0.08587530855,0.04419757328,0.01991049965,0.006237603077,-0.001158292226,-0.004976995276,-0.006843020774,-0.007696522612,-0.008056631196,-0.00819304521,-0.008234203638,-0.008233118465,-0.008205843091,-0.008152827253,-0.008069950967],
			"inflationq": [1,0.5175785907,0.3065169556,0.1831345978,0.1063112173,0.05895691754,0.03056232691,0.01409291551,0.004895244957,-1.933516598e-05,-0.002508728413,-0.003688121016,-0.004200647417,-0.004399432432,-0.004466050336,-0.004485142001,-0.004489802843,-0.004488089623,-0.004477719712,-0.004453648134,-0.004411531514],
			"outputgap": [1,0.9871612059,0.9579874487,0.9191768367,0.8754204076,0.8298973028,0.7846682748,0.7409889603,0.6995543704,0.6606838498,0.6244562626,0.5908053761,0.5595847608,0.5306102402,0.5036863986,0.4786221602,0.4552391407,0.4333754111,0.4128864834,0.3936447281,0.375537993],
			"output": [1,0.9795675143,0.9430966105,0.8998279143,0.8544931603,0.8095501276,0.766246869,0.7251663473,0.686522727,0.6503291102,0.6164941374,0.5848774599,0.5553209335,0.5276654528,0.5017594005,0.477462329,0.4546460398,0.4331943335,0.4130021536,0.3939745181,0.3760254378],
			"fispol": [1,-3.137619579e-16,-3.275912396e-16,-3.162262396e-16,-2.91937099e-16,-2.623987016e-16,-2.317736763e-16,-2.022637494e-16,-1.749525066e-16,-1.502894494e-16,-1.283719499e-16,-1.091094621e-16,-9.23184407e-17,-7.777639912e-17,-6.525193081e-17,-5.452068306e-17,-4.537321626e-17,-3.761826283e-17,-3.108345392e-17,-2.561471868e-17,-2.107504607e-17],
			"AUX_ENDO_LEAD_165": [1,0.6362915734,0.3995671239,0.2447664917,0.1457412336,0.08389326838,0.04608961057,0.02339761446,0.009953359289,0.002028189744,-0.002677761235,-0.005539857067,-0.007353968955,-0.008564459851,-0.009410096699,-0.0100144582,-0.01043999162,-0.01071899942,-0.01087046595,-0.01090852125,-0.01084619581],
			"AUX_ENDO_LEAD_169": [1,0.6509301235,0.4160732767,0.2617175132,0.1621915245,0.09886184831,0.0588316034,0.03349951969,0.01729972926,0.006724061005,-0.0003864054592,-0.005331745391,-0.008880814178,-0.01148338512,-0.01340340469,-0.01480008387,-0.01577553511,-0.01640161969,-0.01673431789,-0.01682091277,-0.01670324626],
			"AUX_ENDO_LEAD_173": [1,0.6681663165,0.4435653389,0.2936410494,0.1941669522,0.1280627015,0.08373013764,0.05350987856,0.03245224163,0.01741185452,0.006412596066,-0.001782001191,-0.007950662834,-0.01259426876,-0.01604754422,-0.01854648754,-0.02026790412,-0.02135189719,-0.02191429622,-0.02205337683,-0.02185349702],
			"AUX_ENDO_LEAD_200": [1,0.980388217,0.9480346048,0.9082298863,0.8647611484,0.8202251133,0.7763109633,0.7340436633,0.6939818979,0.6563710402,0.6212561321,0.5885619575,0.55814757,0.5298419034,0.5034659286,0.4788455942,0.455818691,0.434237869,0.413971342,0.3949022915,0.3769276203],
			"AUX_ENDO_LEAD_204": [1,0.9742273628,0.9391280467,0.8987656322,0.856061261,0.8130104427,0.7708984867,0.73049174,0.6921942268,0.6561684071,0.6224238249,0.5908794625,0.5614058517,0.5338523311,0.5080638359,0.483890583,0.4611931145,0.4398444303,0.4197303875,0.4007491406,0.3828101084],
			"AUX_ENDO_LEAD_208": [1,0.9698364692,0.9331251575,0.8929463725,0.8514886702,0.8102261656,0.7700924458,0.7316315127,0.6951188188,0.6606528902,0.6282215556,0.5977479215,0.5691210714,0.542215739,0.5169043194,0.493063739,0.4705790013,0.4493446654,0.4292651035,0.4102540855,0.3922340338],
			"AUX_ENDO_LEAD_235": [1,0.9745898899,0.938361616,0.8968996617,0.8535436423,0.8102795462,0.7682516996,0.7280768147,0.6900437445,0.6542421609,0.6206451901,0.5891617739,0.5596691482,0.5320324025,0.5061157898,0.481788878,0.4589295626,0.437425234,0.4171729069,0.3980788055,0.3800576945],
			"AUX_ENDO_LEAD_239": [1,0.9714571782,0.9350201869,0.8945568541,0.8526078341,0.8107896097,0.7700852177,0.7310525007,0.6939709536,0.6589432683,0.6259640636,0.5949653473,0.5658458389,0.5384893404,0.5127758409,0.4885879114,0.4658141225,0.4443506353,0.4241017109,0.4049796098,0.3869041725],
			"AUX_ENDO_LEAD_243": [1,0.9687322715,0.9317373368,0.8918976404,0.8511566526,0.8107723051,0.7715192482,0.7338415376,0.6979635624,0.6639682341,0.6318506734,0.6015541712,0.5729936824,0.5460707631,0.5206827668,0.4967282762,0.4741101239,0.4527369054,0.432523581,0.4133915445,0.3952683983],
			"AUX_ENDO_LAG_5_1": [1,0.5175785907,0.3065169556,0.1831345978,0.1063112173,0.05895691754,0.03056232691,0.01409291551,0.004895244957,-1.933516599e-05,-0.002508728413,-0.003688121016,-0.004200647417,-0.004399432432,-0.004466050336,-0.004485142001,-0.004489802843,-0.004488089623,-0.004477719712,-0.004453648134,-0.004411531514],
			"AUX_ENDO_LAG_5_2": [1,0.5175785907,0.3065169556,0.1831345978,0.1063112173,0.05895691754,0.03056232691,0.01409291551,0.004895244957,-1.933516599e-05,-0.002508728413,-0.003688121016,-0.004200647417,-0.004399432432,-0.004466050336,-0.004485142001,-0.004489802843,-0.004488089623,-0.004477719712,-0.004453648134,-0.004411531514],
			"AUX_ENDO_LAG_65_1": [1,0.9795675143,0.9430966105,0.8998279143,0.8544931603,0.8095501276,0.766246869,0.7251663473,0.686522727,0.6503291102,0.6164941374,0.5848774599,0.5553209335,0.5276654528,0.5017594005,0.477462329,0.4546460398,0.4331943335,0.4130021536,0.3939745181,0.3760254378],
			"AUX_ENDO_LAG_65_2": [1,0.9795675143,0.9430966105,0.8998279143,0.8544931603,0.8095501276,0.766246869,0.7251663473,0.686522727,0.6503291102,0.6164941374,0.5848774599,0.5553209335,0.5276654528,0.5017594005,0.477462329,0.4546460398,0.4331943335,0.4130021536,0.3939745181,0.3760254378],
			"AUX_ENDO_LAG_65_3": [1,0.9795675143,0.9430966105,0.8998279143,0.8544931603,0.8095501276,0.766246869,0.7251663473,0.686522727,0.6503291102,0.6164941374,0.5848774599,0.5553209335,0.5276654528,0.5017594005,0.477462329,0.4546460398,0.4331943335,0.4130021536,0.3939745181,0.3760254378],
			"AUX_ENDO_LAG_64_1": [1,0.9871612059,0.9579874487,0.9191768367,0.8754204076,0.8298973028,0.7846682748,0.7409889603,0.6995543704,0.6606838498,0.6244562626,0.5908053761,0.5595847608,0.5306102402,0.5036863986,0.4786221602,0.4552391407,0.4333754111,0.4128864834,0.3936447281,0.375537993],
			"AUX_ENDO_LAG_64_2": [1,0.9871612059,0.9579874487,0.9191768367,0.8754204076,0.8298973028,0.7846682748,0.7409889603,0.6995543704,0.6606838498,0.6244562626,0.5908053761,0.5595847608,0.5306102402,0.5036863986,0.4786221602,0.4552391407,0.4333754111,0.4128864834,0.3936447281,0.375537993],
			"AUX_ENDO_LAG_64_3": [1,0.9871612059,0.9579874487,0.9191768367,0.8754204076,0.8298973028,0.7846682748,0.7409889603,0.6995543704,0.6606838498,0.6244562626,0.5908053761,0.5595847608,0.5306102402,0.5036863986,0.4786221602,0.4552391407,0.4333754111,0.4128864834,0.3936447281,0.375537993],
			"AUX_ENDO_LAG_61_1": [1,0.9063646163,0.7578764328,0.6034648676,0.4640319728,0.3472238319,0.2539130926,0.1817749725,0.1272993271,0.08685601513,0.05719507993,0.03562673276,0.02003358903,0.008805670784,0.0007488615143,-0.005007016642,-0.009088725484,-0.01194492191,-0.01389650029,-0.01517398694,-0.01594454026],
			"AUX_ENDO_LAG_61_2": [1,0.9063646163,0.7578764328,0.6034648676,0.4640319728,0.3472238319,0.2539130926,0.1817749725,0.1272993271,0.08685601513,0.05719507993,0.03562673276,0.02003358903,0.008805670784,0.0007488615143,-0.005007016642,-0.009088725484,-0.01194492191,-0.01389650029,-0.01517398694,-0.01594454026],
			"AUX_ENDO_LAG_61_3": [1,0.9063646163,0.7578764328,0.6034648676,0.4640319728,0.3472238319,0.2539130926,0.1817749725,0.1272993271,0.08685601513,0.05719507993,0.03562673276,0.02003358903,0.008805670784,0.0007488615143,-0.005007016642,-0.009088725484,-0.01194492191,-0.01389650029,-0.01517398694,-0.01594454026],
			"AUX_ENDO_LAG_63_1": [1,0.5175785907,0.3065169556,0.1831345978,0.1063112173,0.05895691754,0.03056232691,0.01409291551,0.004895244957,-1.933516599e-05,-0.002508728413,-0.003688121016,-0.004200647417,-0.004399432432,-0.004466050336,-0.004485142001,-0.004489802843,-0.004488089623,-0.004477719712,-0.004453648134,-0.004411531514],
			"AUX_ENDO_LAG_63_2": [1,0.5175785907,0.3065169556,0.1831345978,0.1063112173,0.05895691754,0.03056232691,0.01409291551,0.004895244957,-1.933516599e-05,-0.002508728413,-0.003688121016,-0.004200647417,-0.004399432432,-0.004466050336,-0.004485142001,-0.004489802843,-0.004488089623,-0.004477719712,-0.004453648134,-0.004411531514],
			"AUX_ENDO_LAG_63_3": [1,0.5175785907,0.3065169556,0.1831345978,0.1063112173,0.05895691754,0.03056232691,0.01409291551,0.004895244957,-1.9335166e-05,-0.002508728413,-0.003688121016,-0.004200647417,-0.004399432432,-0.004466050336,-0.004485142001,-0.004489802843,-0.004488089623,-0.004477719712,-0.004453648134,-0.004411531514]
		},
		"VAR": {
			"y": 18.79416187,
			"k": 52.61566366,
			"L": 14.36295149,
			"mpk": 37.17726469,
			"w": 9.559663419,
			"p": 0.2167635969,
			"s": 6.992768609,
			"lambda": 66.27986904,
			"c": 21.24545522,
			"R": 1.899589387,
			"u": 1.39090141,
			"i": 200.9830628,
			"kbar": 62.83790549,
			"wgap": 302.4012234,
			"gdp": 18.62771351,
			"z": 0.9177383849,
			"g": 6.512562814,
			"miu": 0.3966951567,
			"lambdap": 0.1159670769,
			"lambdaw": 0.09720318878,
			"b": 0.001356238698,
			"mp": 0,
			"ARMAlambdap": 0.0729,
			"ARMAlambdaw": 0.0961,
			"ystar": 2.748141068,
			"kstar": 43.85448549,
			"Lstar": 1.29054343,
			"mpkstar": 32.16728568,
			"wstar": 1.167067054,
			"sstar": 0,
			"lambdastar": 29.25565556,
			"cstar": 14.14355073,
			"Rstar": 2.614276119,
			"ustar": 1.203464627,
			"istar": 116.3663381,
			"kbarstar": 56.35523244,
			"wgapstar": 0,
			"gdpstar": 3.133672011,
			"Rk": 3.014992413,
			"Rkstar": 12.29351285,
			"q": 21.7657008,
			"qstar": 29.46854593,
			"Rl": 15.527352,
			"Rlstar": 53.66502813,
			"Rd": 1.408322873,
			"Rdstar": 2.614276119,
			"Rke": 0.456177927,
			"Rkestar": 3.041502495,
			"nw": 60.67943317,
			"nwstar": 357.0186716,
			"lamefp": 0.02632661456,
			"spr": 0.7472699201,
			"sprstar": 0.5288801541,
			"promz": 16.04947176,
			"promzstar": 68.62397165,
			"upsilon": 27.47522848,
			"lamnw": 1.932839632,
			"lambdae": 52.28229349,
			"lambdaestar": 19.36777717,
			"credit": 75.81049964,
			"gs": 0.1296,
			"interest": 30.39343019,
			"inflation": 1.885368269,
			"inflationq": 3.46821755,
			"outputgap": 15.90383309,
			"output": 18.62771351,
			"fispol": 0.1296,
			"AUX_ENDO_LEAD_165": 1.092583442,
			"AUX_ENDO_LEAD_169": 0.4600740664,
			"AUX_ENDO_LEAD_173": 0.2023921074,
			"AUX_ENDO_LEAD_200": 15.70387337,
			"AUX_ENDO_LEAD_204": 15.22757344,
			"AUX_ENDO_LEAD_208": 14.55137437,
			"AUX_ENDO_LEAD_235": 18.15507976,
			"AUX_ENDO_LEAD_239": 17.43417192,
			"AUX_ENDO_LEAD_243": 16.58119958,
			"AUX_ENDO_LAG_5_1": 0.2167635969,
			"AUX_ENDO_LAG_5_2": 0.2167635969,
			"AUX_ENDO_LAG_65_1": 18.62771351,
			"AUX_ENDO_LAG_65_2": 18.62771351,
			"AUX_ENDO_LAG_65_3": 18.62771351,
			"AUX_ENDO_LAG_64_1": 15.90383309,
			"AUX_ENDO_LAG_64_2": 15.90383309,
			"AUX_ENDO_LAG_64_3": 15.90383309,
			"AUX_ENDO_LAG_61_1": 30.39343019,
			"AUX_ENDO_LAG_61_2": 30.39343019,
			"AUX_ENDO_LAG_61_3": 30.39343019,
			"AUX_ENDO_LAG_63_1": 3.46821755,
			"AUX_ENDO_LAG_63_2": 3.46821755,
			"AUX_ENDO_LAG_63_3": 3.46821755
		},
		"IRF": {
			"interest_": {
				"y": [0,-0.05537491406,-0.07415121904,-0.07366849223,-0.06431882246,-0.05199542903,-0.03979007662,-0.02912215409,-0.02046476983,-0.01379554397,-0.0088651605,-0.005349033274,-0.002926557405,-0.001317307557,-0.0002929732707,0.0003233525859,0.000663641241,0.0008232773417,0.0008692770303,0.0008474628588,0.0007883009623],
				"k": [0,-0.009403540388,-0.01761454408,-0.02366350979,-0.02740933926,-0.02911239069,-0.02918927927,-0.0280786578,-0.02617486486,-0.02380152489,-0.02120724318,-0.01857234604,-0.0160201301,-0.01362898734,-0.01144357174,-0.009484239744,-0.007754591643,-0.006247244217,-0.004948094372,-0.00383936619,-0.002901716643],
				"L": [0,-0.05407538905,-0.07145439176,-0.0698151953,-0.05966902665,-0.0469118338,-0.03458347527,-0.02403238852,-0.01566077012,-0.009384398783,-0.004904391635,-0.001858932952,9.891359746e-05,0.001266994806,0.001884153626,0.002132745207,0.002146598207,0.002020537782,0.001819488749,0.001586294588,0.001348007531],
				"mpk": [0,-0.04861630381,-0.05967264907,-0.0526822473,-0.03884393146,-0.02410653246,-0.01126544244,-0.001322462961,0.005666311594,0.01008363054,0.01246377681,0.01334171294,0.0131836113,0.01236340725,0.01116344407,0.00978615607,0.008369423754,0.007001755722,0.005735542558,0.004597805403,0.003598474678],
				"w": [0,-0.003944455141,-0.005832801392,-0.00653056179,-0.006584244072,-0.006307089356,-0.005871246446,-0.005368732242,-0.004847783149,-0.004333495563,-0.003839074732,-0.003371700146,-0.002935432394,-0.002532574893,-0.002164281292,-0.001830828882,-0.001531766097,-0.001266026277,-0.001032040563,-0.0008278553749,-0.0006512494953],
				"p": [0,-0.007250245213,-0.007329211591,-0.006022919299,-0.004555885156,-0.003262171641,-0.002230900003,-0.001460145873,-0.0009124862861,-0.0005405758411,-0.0002992106705,-0.000150287276,-6.403070835e-05,-1.841871463e-05,2.115386859e-06,8.127101107e-06,6.478402361e-06,1.423644793e-06,-4.55236302e-06,-1.011856926e-05,-1.466343284e-05],
				"s": [0,-0.01109195093,-0.01444717702,-0.01391483147,-0.01174579405,-0.009155000253,-0.006734317806,-0.004721329157,-0.00316552799,-0.002026755386,-0.001230618485,-0.000697554052,-0.0003563854027,-0.0001492177508,-3.184523379e-05,2.788871019e-05,5.242427921e-05,5.681884298e-05,5.077273658e-05,4.025034956e-05,2.870637247e-05],
				"lambda": [0,0.6782593562,0.4340706657,0.2741962506,0.1712981499,0.1060318917,0.0651515654,0.03979945949,0.02417564261,0.01455778159,0.008603214494,0.004865546824,0.002468050059,0.0008881454864,-0.0001815353897,-0.0009206194525,-0.00143469953,-0.001787435532,-0.002019179139,-0.002157424373,-0.002222453921],
				"c": [0,-0.0235945719,-0.0355411539,-0.04039359733,-0.04108115109,-0.03944623763,-0.0366209639,-0.03328267029,-0.02982342561,-0.02646010998,-0.02330445603,-0.02040669478,-0.01778217355,-0.0154272241,-0.01332839493,-0.01146768175,-0.009825404969,-0.008381740271,-0.007117500539,-0.006014514394,-0.005055793956],
				"R": [0,0.2368594789,0.1538514958,0.09834221557,0.06200408659,0.03864942626,0.02389196004,0.01471133059,0.009077285173,0.005655356427,0.003587380394,0.002333466057,0.001561485858,0.001071796263,0.0007472111639,0.0005205584795,0.0003541596476,0.0002271912435,0.0001281266649,5.036611515e-05,-1.018958725e-05],
				"u": [0,-0.009403540388,-0.01154209847,-0.01018998981,-0.007513332971,-0.004662772236,-0.002179002407,-0.0002557955438,0.001095998374,0.001950412097,0.002410788551,0.002580602116,0.002550021529,0.002391374709,0.002159273515,0.001892873514,0.001618844053,0.001354304782,0.001109389276,0.0008893240625,0.0006960299184],
				"i": [0,-0.1749913116,-0.2193512121,-0.198552049,-0.1511186826,-0.09824080601,-0.05042677028,-0.01191575693,0.01650044632,0.03574138938,0.0474189498,0.05327619956,0.0549078261,0.05364587471,0.05053667705,0.04636340626,0.04168750364,0.0368942008,0.03223471588,0.02786202071,0.02385946227],
				"kbar": [0,-0.006072445617,-0.01347351998,-0.01989600629,-0.02444961846,-0.02701027687,-0.02782286225,-0.02727086324,-0.02575193699,-0.02361803173,-0.02115294816,-0.01857015163,-0.01602036204,-0.01360284525,-0.01137711326,-0.009373435696,-0.007601548999,-0.006057483648,-0.004728690253,-0.003597746561,-0.002644942643],
				"wgap": [0,0.85763047,0.6704682524,0.5043392009,0.3669919062,0.2587559189,0.1765183001,0.1159005243,0.07241787016,0.0420373979,0.02139002741,0.007795629386,-0.0008026994312,-0.005939541798,-0.008733097472,-0.009981454588,-0.01024343355,-0.009903084891,-0.00921928656,-0.008362818401,-0.007443448946],
				"gdp": [0,-0.05387034759,-0.07230448329,-0.07203809386,-0.06311668919,-0.05124938547,-0.03944143623,-0.0290812268,-0.02064012957,-0.01410760991,-0.009250886668,-0.005761929613,-0.00333456085,-0.001699927511,-0.000638457033,2.049282357e-05,0.0004046261925,0.0006065885766,0.0006917747461,0.0007051710088,0.0006769361754],
				"z": [0,5.769072254e-17,2.134587539e-17,7.897973893e-18,2.922250341e-18,1.081232626e-18,4.000560716e-19,1.480207465e-19,5.476767621e-20,2.02640402e-20,7.497694873e-21,2.774147103e-21,1.026434428e-21,3.797807384e-22,1.405188732e-22,5.199198307e-23,1.923703372e-23,7.117702467e-24,2.633549902e-24,9.744134535e-25,3.605329678e-25],
				"g": [0,-2.189232634e-17,-2.427876629e-16,-3.911144615e-16,-4.870630161e-16,-5.46387865e-16,-5.806177304e-16,-5.980199581e-16,-6.04402731e-16,-6.037684724e-16,-5.988245372e-16,-5.913684598e-16,-5.825703131e-16,-5.731747543e-16,-5.636426539e-16,-5.542485859e-16,-5.451468411e-16,-5.364154544e-16,-5.280851529e-16,-5.201581318e-16,-5.126200681e-16],
				"miu": [0,0,-1.215318642e-21,-4.253615247e-22,-1.488765336e-22,-5.210678672e-23,-1.823737531e-23,-6.383081319e-24,-2.23407842e-24,-7.819274052e-25,-2.7367455e-25,-9.578605075e-26,-3.352507628e-26,-1.173373551e-26,-4.106766584e-27,-1.437327817e-27,-5.030246078e-28,-1.760188461e-28,-6.156718515e-29,-2.150945632e-29,-7.489595516e-30],
				"lambdap": [0,0,-1.421637683e-23,-4.351044072e-24,-4.133491869e-24,-3.926817276e-24,-3.730476413e-24,-3.543952592e-24,-3.366754963e-24,-3.198417215e-24,-3.038496354e-24,-2.886571536e-24,-2.74224296e-24,-2.605130812e-24,-2.474874271e-24,-2.351130558e-24,-2.23357403e-24,-2.121895329e-24,-2.015800562e-24,-1.915010534e-24,-1.819260008e-24],
				"lambdaw": [0,-1.357929632e-18,-1.303636098e-18,-1.251461628e-18,-1.201403162e-18,-1.153347036e-18,-1.107213155e-18,-1.062924628e-18,-1.020407643e-18,-9.795913375e-19,-9.40407684e-19,-9.027913766e-19,-8.666797215e-19,-8.320125327e-19,-7.987320314e-19,-7.667827501e-19,-7.361114401e-19,-7.066669825e-19,-6.784003032e-19,-6.512642911e-19,-6.252137194e-19],
				"b": [0,-4.206427877e-18,-2.439355636e-18,-1.414826269e-18,-8.20599236e-19,-4.759475569e-19,-2.76049583e-19,-1.601087581e-19,-9.286307971e-20,-5.386058623e-20,-3.123914002e-20,-1.811870121e-20,-1.05088467e-20,-6.095131087e-21,-3.53517603e-21,-2.050402098e-21,-1.189233217e-21,-6.897552656e-22,-4.000580541e-22,-2.320336714e-22,-1.345795294e-22],
				"mp": [0,0,0,0,0,0,0,0,0,0,0,0,0,0,0,0,0,0,0,0,0],
				"ARMAlambdap": [0,0,-1.289368158e-23,2.928504954e-33,1.634856327e-33,8.858498326e-34,4.500288848e-34,1.93091061e-34,3.896035998e-35,-5.579827361e-35,-1.161447979e-34,-1.564928169e-34,-1.84784709e-34,-2.058271167e-34,-2.221845866e-34,-2.353594607e-34,-2.463621924e-34,-2.556476428e-34,-2.636091158e-34,-2.704209718e-34,-2.762660614e-34],
				"ARMAlambdaw": [0,0,-2.932018864e-23,-2.408157896e-33,-1.340843702e-33,-7.011839608e-34,-3.164410659e-34,-8.591547073e-35,5.276250176e-35,1.362158751e-34,1.865213955e-34,2.167750566e-34,2.348879637e-34,2.455062553e-34,2.515566771e-34,2.548126009e-34,2.561853398e-34,2.563934749e-34,2.557909005e-34,2.546453991e-34,2.530965072e-34],
				"ystar": [0,5.359198054e-17,-2.064592594e-16,-2.565704109e-16,-2.620213056e-16,-2.493560745e-16,-2.311107425e-16,-2.129299747e-16,-1.969996821e-16,-1.838517488e-16,-1.732977138e-16,-1.648959769e-16,-1.581712875e-16,-1.527057175e-16,-1.481658746e-16,-1.443009639e-16,-1.409296006e-16,-1.379241268e-16,-1.351962822e-16,-1.326855716e-16,-1.303504643e-16],
				"kstar": [0,-5.028284785e-17,-1.872112324e-16,-1.876690413e-16,-1.62287291e-16,-1.287925811e-16,-9.534393634e-17,-6.587559455e-17,-4.173931473e-17,-2.291686908e-17,-8.758642153e-18,1.598598325e-18,9.01272809e-18,1.42353097e-17,1.787740818e-17,2.041054297e-17,2.218390222e-17,2.344709378e-17,2.4372771e-17,2.507650466e-17,2.563300013e-17],
				"Lstar": [0,1.835054899e-16,-1.913779179e-16,-2.322476135e-16,-2.34921982e-16,-2.226636972e-16,-2.065136853e-16,-1.911704848e-16,-1.782831094e-16,-1.68100919e-16,-1.603018997e-16,-1.543941376e-16,-1.498958311e-16,-1.464033938e-16,-1.436060188e-16,-1.412771955e-16,-1.392584839e-16,-1.374426997e-16,-1.357594158e-16,-1.341635807e-16,-1.326271053e-16],
				"mpkstar": [0,1.554460429e-16,1.234416091e-17,-2.838803789e-17,-5.663211783e-17,-7.76401724e-17,-9.421900823e-17,-1.073286176e-16,-1.174604644e-16,-1.250180281e-16,-1.304062118e-16,-1.340295687e-16,-1.362690749e-16,-1.374618919e-16,-1.378904721e-16,-1.377804086e-16,-1.373043447e-16,-1.365892059e-16,-1.357246458e-16,-1.347713361e-16,-1.337683408e-16],
				"wstar": [0,-7.851775407e-17,1.257374358e-17,1.371221955e-17,1.437839348e-17,1.508855285e-17,1.607229319e-17,1.72316735e-17,1.843070849e-17,1.956642582e-17,2.057895939e-17,2.144343389e-17,2.215826073e-17,2.273496799e-17,2.319089572e-17,2.354459689e-17,2.381331081e-17,2.401183913e-17,2.415227579e-17,2.424419724e-17,2.429505574e-17],
				"sstar": [0,0,0,0,0,0,0,0,0,0,0,0,0,0,0,0,0,0,0,0,0],
				"lambdastar": [0,3.034107474e-16,-9.183888515e-16,-9.49674293e-16,-8.959251438e-16,-8.178535358e-16,-7.422949762e-16,-6.787371744e-16,-6.289101523e-16,-5.913624883e-16,-5.636455717e-16,-5.432969969e-16,-5.282231587e-16,-5.167933349e-16,-5.078072154e-16,-5.004174532e-16,-4.94045908e-16,-4.883098246e-16,-4.829629576e-16,-4.778514448e-16,-4.728821776e-16],
				"cstar": [0,1.718002488e-18,3.808550026e-17,9.110615427e-17,1.455110125e-16,1.950037563e-16,2.377825649e-16,2.738755386e-16,3.039767406e-16,3.289446037e-16,3.495984873e-16,3.666491405e-16,3.806872289e-16,3.921947031e-16,4.015629766e-16,4.091110488e-16,4.151010473e-16,4.197506364e-16,4.232425521e-16,4.257317898e-16,4.27350989e-16],
				"Rstar": [0,1.200970224e-15,8.278677404e-17,-2.032004011e-17,-5.753018375e-17,-6.458996516e-17,-5.945605956e-17,-5.04309939e-17,-4.118261813e-17,-3.31312687e-17,-2.664305389e-17,-2.162963413e-17,-1.784242127e-17,-1.50087229e-17,-1.288756068e-17,-1.128633679e-17,-1.00598951e-17,-9.102911988e-18,-8.340859588e-18,-7.721798862e-18,-7.20975855e-18],
				"ustar": [0,3.00137669e-17,2.213584932e-18,-5.618686131e-18,-1.104877995e-17,-1.508928337e-17,-1.827993582e-17,-2.080420839e-17,-2.275565129e-17,-2.4211292e-17,-2.524877376e-17,-2.594590174e-17,-2.637607326e-17,-2.660431071e-17,-2.66851192e-17,-2.666204743e-17,-2.656842892e-17,-2.642877119e-17,-2.626038347e-17,-2.607497641e-17,-2.588008601e-17],
				"istar": [0,-5.733568019e-17,2.578865563e-16,5.385328662e-16,7.362010533e-16,8.487762717e-16,8.916935153e-16,8.84153726e-16,8.435206981e-16,7.83517318e-16,7.141170609e-16,6.420986574e-16,5.717721187e-16,5.056602611e-16,4.450579508e-16,3.904567228e-16,3.418500836e-16,2.989435543e-16,2.612934573e-16,2.283948822e-16,1.997347932e-16],
				"kbarstar": [0,-1.676511925e-16,-1.733861088e-16,-1.46970399e-16,-1.106611413e-16,-7.419706071e-17,-4.211112839e-17,-1.593419725e-17,4.35044645e-18,1.946345136e-17,3.036325405e-17,3.800376299e-17,4.322238681e-17,4.670146872e-17,4.896852926e-17,5.041471232e-17,5.13196487e-17,5.18764369e-17,5.221375366e-17,5.241401716e-17,5.252755341e-17],
				"wgapstar": [0,0,0,0,0,0,0,0,0,0,0,0,0,0,0,0,0,0,0,0,0],
				"gdpstar": [0,-2.179768261e-17,-2.159460932e-16,-2.731506969e-16,-2.798742874e-16,-2.657473163e-16,-2.44788274e-16,-2.235557004e-16,-2.047232432e-16,-1.890430274e-16,-1.763926599e-16,-1.663153924e-16,-1.582838683e-16,-1.518163676e-16,-1.465173088e-16,-1.420813812e-16,-1.382823246e-16,-1.349570566e-16,-1.319901712e-16,-1.293008134e-16,-1.268324113e-16],
				"Rk": [0,-0.314072808,0.1662072661,0.09607409834,0.05162963824,0.02470597916,0.009234680795,0.0009744900454,-0.002929599971,-0.004336102731,-0.004412985988,-0.003864899282,-0.003095457843,-0.002319345838,-0.001637369849,-0.001085142778,-0.0006635983968,-0.00035736652,-0.0001452873919,-6.006021306e-06,7.939292399e-05],
				"Rkstar": [0,-1.184821739e-15,1.2780495e-15,2.45833035e-16,8.214454778e-17,7.26276955e-18,-2.22597979e-17,-3.003122961e-17,-2.827208462e-17,-2.313150655e-17,-1.751089683e-17,-1.261448611e-17,-8.80087664e-18,-6.041995216e-18,-4.161640048e-18,-2.952098148e-18,-2.225182286e-18,-1.829570151e-18,-1.652091564e-18,-1.612393351e-18,-1.655751389e-18],
				"q": [0,-0.3240006736,-0.1614630471,-0.06586416941,-0.01331415884,0.01271943095,0.02319649709,0.02512442222,0.02281297562,0.01879077359,0.01444937011,0.01048135213,0.007169064203,0.004568712278,0.002623468267,0.001229863077,0.0002744326346,-0.0003478957349,-0.000726132595,-0.0009314743533,-0.001018528746],
				"qstar": [0,-1.058750554e-15,3.012663186e-17,1.648983735e-16,1.836711186e-16,1.562569154e-16,1.162075127e-16,7.81026007e-17,4.719605686e-17,2.436797822e-17,8.668498201e-18,-1.420941734e-18,-7.407801223e-18,-1.056122517e-17,-1.185783029e-17,-1.200439063e-17,-1.14879304e-17,-1.062938105e-17,-9.630674113e-18,-8.612134275e-18,-7.640324179e-18],
				"Rl": [0,-0.7377570259,0.2441886905,0.1598744151,0.1028981007,0.06526625824,0.04088032627,0.02535210592,0.01562381688,0.009617861014,0.005954567097,0.00373766767,0.002397496766,0.001579904572,0.001069680876,0.0007390840628,0.0005140800772,0.0003527360028,0.0002317436065,0.0001382452342,6.502954799e-05],
				"Rlstar": [0,-2.799805638e-15,1.240548761e-15,4.180870678e-16,1.650093364e-16,4.47921846e-17,-5.834029453e-18,-2.190980099e-17,-2.21648918e-17,-1.634184707e-17,-9.224491134e-18,-2.916651336e-18,1.866859642e-18,5.080054517e-18,6.956364057e-18,7.808773228e-18,7.936010409e-18,7.585825636e-18,6.947168429e-18,6.155511596e-18,5.302904468e-18],
				"Rd": [0,0.2441886905,0.1598744151,0.1028981007,0.06526625824,0.04088032627,0.02535210592,0.01562381688,0.009617861014,0.005954567097,0.00373766767,0.002397496766,0.001579904572,0.001069680876,0.0007390840628,0.0005140800772,0.0003527360028,0.0002317436065,0.0001382452342,6.502954799e-05,7.81046539e-06],
				"Rdstar": [0,1.158795282e-15,1.263902137e-16,1.018684695e-17,-3.806998218e-17,-5.402142328e-17,-5.550233683e-17,-5.108973301e-17,-4.483783608e-17,-3.855311847e-17,-3.294030716e-17,-2.818645648e-17,-2.425539848e-17,-2.10314668e-17,-1.838541121e-17,-1.620114757e-17,-1.438371394e-17,-1.285895965e-17,-1.15702073e-17,-1.047433088e-17,-9.538257981e-18],
				"Rke": [0,0.1662072661,0.09607409834,0.05162963824,0.02470597916,0.009234680795,0.0009744900454,-0.002929599971,-0.004336102731,-0.004412985988,-0.003864899282,-0.003095457843,-0.002319345838,-0.001637369849,-0.001085142778,-0.0006635983968,-0.00035736652,-0.0001452873919,-6.006021306e-06,7.939292399e-05,0.0001264424015],
				"Rkestar": [0,1.221245327e-15,1.128755948e-16,1.413942612e-17,-2.721585324e-17,-4.111605176e-17,-4.280389339e-17,-3.958578781e-17,-3.487395161e-17,-3.015177672e-17,-2.597085579e-17,-2.245747844e-17,-1.956412496e-17,-1.718861995e-17,-1.522596438e-17,-1.35872344e-17,-1.220342993e-17,-1.102327593e-17,-1.000926683e-17,-9.133809199e-18,-8.376114913e-18],
				"nw": [0,0.08035543018,0.1608545736,0.1840738374,0.1757113757,0.1522651829,0.1236768763,0.09550312136,0.07050295308,0.04973881073,0.03330993222,0.02082148791,0.01167107274,0.005213502421,0.0008475489056,-0.001945264862,-0.003589734665,-0.004421005708,-0.004695605713,-0.00460481763,-0.00428785],
				"nwstar": [0,2.997074955e-16,1.562840909e-15,1.56965603e-15,1.488025428e-15,1.374453618e-15,1.25624536e-15,1.145051014e-15,1.044831143e-15,9.559804008e-16,8.774405034e-16,8.07731639e-16,7.454124347e-16,6.892502001e-16,6.382539701e-16,5.916500919e-16,5.488398763e-16,5.093572474e-16,4.728332274e-16,4.389687544e-16,4.075150395e-16],
				"lamefp": [0,1.886157273e-17,1.641014542e-17,1.427682651e-17,1.242083907e-17,1.080612999e-17,9.401333088e-18,8.179159787e-18,7.115869015e-18,6.190806043e-18,5.386001257e-18,4.685821094e-18,4.076664352e-18,3.546697986e-18,3.085627248e-18,2.684495706e-18,2.335511264e-18,2.031894799e-18,1.767748476e-18,1.537941174e-18,1.338008821e-18],
				"spr": [0,-0.07798142438,-0.06380031672,-0.05126846248,-0.04056027907,-0.03164564547,-0.02437761587,-0.01855341685,-0.01395396375,-0.01036755308,-0.007602566952,-0.005492954609,-0.00389925041,-0.002707050725,-0.001824226841,-0.001177678474,-0.0007101025228,-0.0003770309984,-0.0001442512555,1.4363376e-05,0.0001186319361],
				"sprstar": [0,1.192542185e-16,1.194428212e-16,7.195770083e-17,4.533275173e-17,3.176162538e-17,2.547110722e-17,2.281764839e-17,2.170632953e-17,2.104222164e-17,2.032582105e-17,1.938557984e-17,1.821340327e-17,1.686982675e-17,1.543331306e-17,1.397596529e-17,1.255414379e-17,1.120686809e-17,9.957813946e-18,8.818579489e-18,7.792029989e-18],
				"promz": [0,-0.7600561953,0.2255545522,0.1446289392,0.09064718805,0.05557413148,0.03331840573,0.01952692551,0.01119036445,0.006283476034,0.003477176879,0.001920987799,0.001084921667,0.0006481548386,0.0004228145488,0.0003031739022,0.0002326666031,0.0001830526619,0.0001416497435,0.0001037755144,6.846176454e-05],
				"promzstar": [0,-2.867268609e-15,1.579384286e-15,6.813318801e-16,4.030891184e-16,2.608312963e-16,1.913940727e-16,1.590427301e-16,1.443763996e-16,1.371700735e-16,1.323343778e-16,1.275840708e-16,1.220983353e-16,1.157660986e-16,1.087752856e-16,1.014011098e-16,9.390648298e-17,8.650304439e-17,7.934294592e-17,7.252462327e-17,6.610356353e-17],
				"upsilon": [0,0,0,0,0,0,0,0,0,0,0,0,0,0,0,0,0,0,0,0,0],
				"lamnw": [0,9.860772206e-18,7.691489945e-18,5.999362157e-18,4.679502482e-18,3.650011936e-18,2.84700931e-18,2.220667262e-18,1.732120464e-18,1.351053962e-18,1.053822091e-18,8.219812306e-19,6.411453599e-19,5.000933807e-19,3.900728369e-19,3.042568128e-19,2.37320314e-19,1.851098449e-19,1.44385679e-19,1.126208296e-19,8.784424713e-20],
				"lambdae": [0,0.4340706657,0.2741962506,0.1712981499,0.1060318917,0.0651515654,0.03979945949,0.02417564261,0.01455778159,0.008603214494,0.004865546824,0.002468050059,0.0008881454864,-0.0001815353897,-0.0009206194525,-0.00143469953,-0.001787435532,-0.002019179139,-0.002157424373,-0.002222453921,-0.002230264387],
				"lambdaestar": [0,-8.93712055e-16,-7.870597412e-16,-8.118791491e-16,-7.75306562e-16,-7.199401773e-16,-6.649628154e-16,-6.178522533e-16,-5.804151815e-16,-5.519409511e-16,-5.30811482e-16,-5.152769416e-16,-5.037884282e-16,-4.951046831e-16,-4.882917363e-16,-4.826787658e-16,-4.778021953e-16,-4.733528494e-16,-4.691318596e-16,-4.650164531e-16,-4.609347065e-16],
				"credit": [0,-0.7621031712,-0.5284009256,-0.3697959789,-0.2624744647,-0.1896129815,-0.1396824088,-0.104935454,-0.08024623973,-0.06226522537,-0.04882306255,-0.03852068099,-0.03045379319,-0.02403164392,-0.01886016488,-0.0146681071,-0.01126120236,-0.008494193779,-0.006253998778,-0.004449645424,-0.003006230746],
				"gs": [0,-1.459488423e-17,-1.474095065e-16,-1.005031169e-16,-6.657313278e-17,-4.279698608e-17,-2.646249597e-17,-1.547227e-17,-8.241981711e-18,-3.606512481e-18,-7.29166348e-19,9.785547257e-19,1.92297472e-18,2.379903763e-18,2.533568564e-18,2.505094307e-18,2.37283929e-18,2.18661224e-18,1.977431293e-18,1.764113018e-18,1.557654974e-18],
				"interest": [0,0.9474379157,0.615405983,0.3933688623,0.2480163464,0.1545977051,0.09556784017,0.05884532238,0.03630914069,0.02262142571,0.01434952158,0.009333864229,0.00624594343,0.004287185052,0.002988844656,0.002082233918,0.00141663859,0.000908764974,0.0005125066597,0.0002014644606,-4.075834899e-05],
				"inflation": [0,-0.007250245213,-0.0145794568,-0.0206023761,-0.02515826126,-0.02117018769,-0.0160718761,-0.01150910267,-0.007865703802,-0.005144108002,-0.00321241867,-0.001902560074,-0.001054104496,-0.0005319473695,-0.0002306213122,-7.220693501e-05,-1.6978243e-06,1.814453512e-05,1.147678524e-05,-6.768885127e-06,-2.791072033e-05],
				"inflationq": [0,-0.02900098085,-0.02931684636,-0.0240916772,-0.01822354063,-0.01304868656,-0.008923600011,-0.00584058349,-0.003649945144,-0.002162303364,-0.001196842682,-0.0006011491042,-0.0002561228334,-7.367485851e-05,8.461547437e-06,3.250840443e-05,2.591360944e-05,5.694579173e-06,-1.820945208e-05,-4.047427705e-05,-5.865373137e-05],
				"outputgap": [0,-0.05387034759,-0.07230448329,-0.07203809386,-0.06311668919,-0.05124938547,-0.03944143623,-0.0290812268,-0.02064012957,-0.01410760991,-0.009250886668,-0.005761929613,-0.00333456085,-0.001699927511,-0.000638457033,2.049282357e-05,0.0004046261925,0.0006065885766,0.0006917747461,0.0007051710088,0.0006769361754],
				"output": [0,-0.05387034759,-0.07230448329,-0.07203809386,-0.06311668919,-0.05124938547,-0.03944143623,-0.0290812268,-0.02064012957,-0.01410760991,-0.009250886668,-0.005761929613,-0.00333456085,-0.001699927511,-0.000638457033,2.049282357e-05,0.0004046261925,0.0006065885766,0.0006917747461,0.0007051710088,0.0006769361754],
				"fispol": [0,-7.297442114e-18,-7.370475326e-17,-5.025155844e-17,-3.328656639e-17,-2.139849304e-17,-1.323124799e-17,-7.736134999e-18,-4.120990855e-18,-1.803256241e-18,-3.64583174e-19,4.892773629e-19,9.614873601e-19,1.189951881e-18,1.266784282e-18,1.252547154e-18,1.186419645e-18,1.09330612e-18,9.887156465e-19,8.82056509e-19,7.788274868e-19],
				"AUX_ENDO_LEAD_165": [0,-0.02931684636,-0.0240916772,-0.01822354063,-0.01304868656,-0.008923600011,-0.00584058349,-0.003649945144,-0.002162303364,-0.001196842682,-0.0006011491042,-0.0002561228334,-7.367485851e-05,8.461547437e-06,3.250840443e-05,2.591360944e-05,5.694579174e-06,-1.820945208e-05,-4.047427705e-05,-5.865373137e-05,-7.200021055e-05],
				"AUX_ENDO_LEAD_169": [0,-0.0240916772,-0.01822354063,-0.01304868656,-0.008923600011,-0.00584058349,-0.003649945144,-0.002162303364,-0.001196842682,-0.0006011491042,-0.0002561228334,-7.367485851e-05,8.461547437e-06,3.250840443e-05,2.591360944e-05,5.694579173e-06,-1.820945208e-05,-4.047427705e-05,-5.865373138e-05,-7.200021055e-05,-8.06936056e-05],
				"AUX_ENDO_LEAD_173": [0,-0.01822354063,-0.01304868656,-0.008923600011,-0.00584058349,-0.003649945144,-0.002162303364,-0.001196842682,-0.0006011491042,-0.0002561228334,-7.367485851e-05,8.461547437e-06,3.250840443e-05,2.591360944e-05,5.694579174e-06,-1.820945208e-05,-4.047427705e-05,-5.865373137e-05,-7.200021055e-05,-8.06936056e-05,-8.535788389e-05],
				"AUX_ENDO_LEAD_200": [0,-0.07230448329,-0.07203809386,-0.06311668919,-0.05124938547,-0.03944143623,-0.0290812268,-0.02064012957,-0.01410760991,-0.009250886668,-0.005761929613,-0.00333456085,-0.001699927511,-0.000638457033,2.049282357e-05,0.0004046261925,0.0006065885766,0.0006917747461,0.0007051710088,0.0006769361754,0.0006267365429],
				"AUX_ENDO_LEAD_204": [0,-0.07203809386,-0.06311668919,-0.05124938547,-0.03944143623,-0.0290812268,-0.02064012957,-0.01410760991,-0.009250886668,-0.005761929613,-0.00333456085,-0.001699927511,-0.000638457033,2.049282357e-05,0.0004046261925,0.0006065885766,0.0006917747461,0.0007051710088,0.0006769361754,0.0006267365429,0.0005669913271],
				"AUX_ENDO_LEAD_208": [0,-0.06311668919,-0.05124938547,-0.03944143623,-0.0290812268,-0.02064012957,-0.01410760991,-0.009250886668,-0.005761929613,-0.00333456085,-0.001699927511,-0.000638457033,2.049282357e-05,0.0004046261925,0.0006065885766,0.0006917747461,0.0007051710088,0.0006769361754,0.0006267365429,0.0005669913271,0.0005052309052],
				"AUX_ENDO_LEAD_235": [0,-0.07230448329,-0.07203809386,-0.06311668919,-0.05124938547,-0.03944143623,-0.0290812268,-0.02064012957,-0.01410760991,-0.009250886668,-0.005761929613,-0.00333456085,-0.001699927511,-0.000638457033,2.049282357e-05,0.0004046261925,0.0006065885766,0.0006917747461,0.0007051710088,0.0006769361754,0.0006267365429],
				"AUX_ENDO_LEAD_239": [0,-0.07203809386,-0.06311668919,-0.05124938547,-0.03944143623,-0.0290812268,-0.02064012957,-0.01410760991,-0.009250886668,-0.005761929613,-0.00333456085,-0.001699927511,-0.000638457033,2.049282357e-05,0.0004046261925,0.0006065885766,0.0006917747461,0.0007051710088,0.0006769361754,0.0006267365429,0.0005669913271],
				"AUX_ENDO_LEAD_243": [0,-0.06311668919,-0.05124938547,-0.03944143623,-0.0290812268,-0.02064012957,-0.01410760991,-0.009250886668,-0.005761929613,-0.00333456085,-0.001699927511,-0.000638457033,2.049282357e-05,0.0004046261925,0.0006065885766,0.0006917747461,0.0007051710088,0.0006769361754,0.0006267365429,0.0005669913271,0.0005052309052],
				"AUX_ENDO_LAG_5_1": [0,0,-0.007250245213,-0.007329211591,-0.006022919299,-0.004555885156,-0.003262171641,-0.002230900003,-0.001460145873,-0.0009124862861,-0.0005405758411,-0.0002992106705,-0.000150287276,-6.403070835e-05,-1.841871463e-05,2.115386859e-06,8.127101107e-06,6.478402361e-06,1.423644793e-06,-4.55236302e-06,-1.011856926e-05],
				"AUX_ENDO_LAG_5_2": [0,0,-1.050417234e-16,-0.007250245213,-0.007329211591,-0.006022919299,-0.004555885156,-0.003262171641,-0.002230900003,-0.001460145873,-0.0009124862861,-0.0005405758411,-0.0002992106705,-0.000150287276,-6.403070835e-05,-1.841871463e-05,2.115386859e-06,8.127101107e-06,6.478402361e-06,1.423644793e-06,-4.55236302e-06],
				"AUX_ENDO_LAG_65_1": [0,0,-0.05387034759,-0.07230448329,-0.07203809386,-0.06311668919,-0.05124938547,-0.03944143623,-0.0290812268,-0.02064012957,-0.01410760991,-0.009250886668,-0.005761929613,-0.00333456085,-0.001699927511,-0.000638457033,2.049282357e-05,0.0004046261925,0.0006065885766,0.0006917747461,0.0007051710088],
				"AUX_ENDO_LAG_65_2": [0,0,0,-0.05387034759,-0.07230448329,-0.07203809386,-0.06311668919,-0.05124938547,-0.03944143623,-0.0290812268,-0.02064012957,-0.01410760991,-0.009250886668,-0.005761929613,-0.00333456085,-0.001699927511,-0.000638457033,2.049282357e-05,0.0004046261925,0.0006065885766,0.0006917747461],
				"AUX_ENDO_LAG_65_3": [0,0,0,0,-0.05387034759,-0.07230448329,-0.07203809386,-0.06311668919,-0.05124938547,-0.03944143623,-0.0290812268,-0.02064012957,-0.01410760991,-0.009250886668,-0.005761929613,-0.00333456085,-0.001699927511,-0.000638457033,2.049282357e-05,0.0004046261925,0.0006065885766],
				"AUX_ENDO_LAG_64_1": [0,0,-0.05387034759,-0.07230448329,-0.07203809386,-0.06311668919,-0.05124938547,-0.03944143623,-0.0290812268,-0.02064012957,-0.01410760991,-0.009250886668,-0.005761929613,-0.00333456085,-0.001699927511,-0.000638457033,2.049282357e-05,0.0004046261925,0.0006065885766,0.0006917747461,0.0007051710088],
				"AUX_ENDO_LAG_64_2": [0,0,0,-0.05387034759,-0.07230448329,-0.07203809386,-0.06311668919,-0.05124938547,-0.03944143623,-0.0290812268,-0.02064012957,-0.01410760991,-0.009250886668,-0.005761929613,-0.00333456085,-0.001699927511,-0.000638457033,2.049282357e-05,0.0004046261925,0.0006065885766,0.0006917747461],
				"AUX_ENDO_LAG_64_3": [0,0,0,0,-0.05387034759,-0.07230448329,-0.07203809386,-0.06311668919,-0.05124938547,-0.03944143623,-0.0290812268,-0.02064012957,-0.01410760991,-0.009250886668,-0.005761929613,-0.00333456085,-0.001699927511,-0.000638457033,2.049282357e-05,0.0004046261925,0.0006065885766],
				"AUX_ENDO_LAG_61_1": [0,0,0.9474379157,0.615405983,0.3933688623,0.2480163464,0.1545977051,0.09556784017,0.05884532238,0.03630914069,0.02262142571,0.01434952158,0.009333864229,0.00624594343,0.004287185052,0.002988844656,0.002082233918,0.00141663859,0.000908764974,0.0005125066597,0.0002014644606],
				"AUX_ENDO_LAG_61_2": [0,0,0,0.9474379157,0.615405983,0.3933688623,0.2480163464,0.1545977051,0.09556784017,0.05884532238,0.03630914069,0.02262142571,0.01434952158,0.009333864229,0.00624594343,0.004287185052,0.002988844656,0.002082233918,0.00141663859,0.000908764974,0.0005125066597],
				"AUX_ENDO_LAG_61_3": [0,0,0,0,0.9474379157,0.615405983,0.3933688623,0.2480163464,0.1545977051,0.09556784017,0.05884532238,0.03630914069,0.02262142571,0.01434952158,0.009333864229,0.00624594343,0.004287185052,0.002988844656,0.002082233918,0.00141663859,0.000908764974],
				"AUX_ENDO_LAG_63_1": [0,0,-0.02900098085,-0.02931684636,-0.0240916772,-0.01822354063,-0.01304868656,-0.008923600011,-0.00584058349,-0.003649945144,-0.002162303364,-0.001196842682,-0.0006011491042,-0.0002561228334,-7.367485851e-05,8.461547437e-06,3.250840443e-05,2.591360944e-05,5.694579173e-06,-1.820945208e-05,-4.047427705e-05],
				"AUX_ENDO_LAG_63_2": [0,0,0,-0.02900098085,-0.02931684636,-0.0240916772,-0.01822354063,-0.01304868656,-0.008923600011,-0.00584058349,-0.003649945144,-0.002162303364,-0.001196842682,-0.0006011491042,-0.0002561228334,-7.367485851e-05,8.461547437e-06,3.250840443e-05,2.591360944e-05,5.694579173e-06,-1.820945208e-05],
				"AUX_ENDO_LAG_63_3": [0,0,0,0,-0.02900098085,-0.02931684636,-0.0240916772,-0.01822354063,-0.01304868656,-0.008923600011,-0.00584058349,-0.003649945144,-0.002162303364,-0.001196842682,-0.0006011491042,-0.0002561228334,-7.367485851e-05,8.461547437e-06,3.250840443e-05,2.591360944e-05,5.694579173e-06]
			},
			"fiscal_": {
				"y": [0,0.865478789,0.7171145431,0.5987701,0.5070933735,0.4375409294,0.3855237641,0.3469578226,0.3184612208,0.2973631791,0.2816249353,0.2697295726,0.2605706736,0.2533536575,0.2475146138,0.2426567296,0.2385022386,0.2348570841,0.2315854955,0.2285920189,0.2258089981],
				"k": [0,0.1348319199,0.1041730692,0.07476461236,0.04762833291,0.0234702867,0.00267345405,-0.01464893707,-0.02858462235,-0.0393568464,-0.04726973491,-0.05266637207,-0.05589874794,-0.05730762822,-0.05721014277,-0.05589305426,-0.05361000299,-0.05058139428,-0.04699593467,-0.04301310679,-0.03876609542],
				"L": [0,0.8474803497,0.7036386881,0.5898451788,0.5025233497,0.4369549427,0.3884372639,0.3528284321,0.3267332501,0.3074997495,0.2931289964,0.282155956,0.2735314339,0.2665187023,0.2606092502,0.255457363,0.250831121,0.2465767265,0.2425931477,0.2388144607,0.2351977773],
				"mpk": [0,0.6970810257,0.5730042048,0.4807307275,0.4148449629,0.3693635091,0.3387911297,0.3185727006,0.3051823841,0.2960324419,0.2893111569,0.2838090125,0.2787615202,0.2737195,0.2684482759,0.2628528277,0.2569243036,0.2507031287,0.2442544628,0.2376525264,0.2309710919],
				"w": [0,-0.01556740409,-0.02646141409,-0.03434983896,-0.04005005395,-0.04412114692,-0.04697268017,-0.04890466855,-0.05013548838,-0.05082415398,-0.05108757439,-0.05101331557,-0.05066866159,-0.05010683057,-0.04937111709,-0.04849758961,-0.04751682035,-0.04645499214,-0.04533461955,-0.04417504103,-0.04299278088],
				"p": [0,0.03105327976,0.0267121963,0.0197131131,0.01427097287,0.0104641729,0.007880911576,0.00614761356,0.004986083751,0.004200782325,0.003658646713,0.003271483076,0.002982261678,0.002754991024,0.002567503294,0.002406469397,0.002264050976,0.002135713783,0.002018840403,0.001911877679,0.001813831728],
				"s": [0,0.09845634468,0.06945308493,0.04806305167,0.03273314874,0.02203639804,0.01474952941,0.009891710515,0.006715371221,0.004672901362,0.003376222621,0.002558256926,0.002040167498,0.001705382323,0.001479985783,0.001318477158,0.001193759488,0.001090307194,0.0009996336277,0.0009173697621,0.0008414387574],
				"lambda": [0,1.567408529,1.542223909,1.482367866,1.408614522,1.333390352,1.262958229,1.199862271,1.144603984,1.096673274,1.05514516,1.019003224,0.9872986506,0.9592149666,0.9340820163,0.9113652386,0.8906450828,0.8715944984,0.8539583101,0.837535954,0.822167818],
				"c": [0,-0.1548777301,-0.2847688504,-0.3924053577,-0.4807446239,-0.5526518113,-0.6107291436,-0.6572502214,-0.6941547357,-0.7230736615,-0.745367028,-0.7621643105,-0.7744023957,-0.7828589589,-0.7881806845,-0.7909065791,-0.7914869758,-0.7902989313,-0.7876586869,-0.7838317783,-0.7790412816],
				"R": [0,0.05189681582,0.07956915592,0.08802431747,0.085688343,0.07831303413,0.06924357175,0.06024437102,0.0521314915,0.04518676074,0.03941342002,0.03468683461,0.03083867504,0.02770045354,0.0251232471,0.02298420681,0.02118629815,0.01965502873,0.01833423373,0.01718196778,0.01616696047],
				"u": [0,0.1348319199,0.1108325348,0.09298466682,0.0802408052,0.07144361878,0.06553019916,0.06161947788,0.05902947468,0.05725965994,0.05595960483,0.05489536026,0.05391905613,0.05294381044,0.05192423131,0.05084193959,0.04969522314,0.0484919011,0.04724457695,0.04596760666,0.04467525955],
				"i": [0,-0.1919076253,-0.3398040893,-0.4329702606,-0.4752705335,-0.4768726802,-0.4493444707,-0.4032200116,-0.3470389666,-0.2871803192,-0.2280770714,-0.1725755634,-0.1223139696,-0.07806068586,-0.03999078359,-0.0078984474,0.01864746957,0.04019434451,0.05733251808,0.07064848162,0.08069687301],
				"kbar": [0,-0.006659465591,-0.01822005446,-0.03261247229,-0.04797333208,-0.06285674511,-0.07626841494,-0.08761409703,-0.09661650634,-0.1032293397,-0.1075617323,-0.1098178041,-0.1102514387,-0.1091343741,-0.1067349939,-0.1033052261,-0.09907329538,-0.09424051161,-0.08898071345,-0.08344135497,-0.07774552668],
				"wgap": [0,-1.321117261,-0.8695726574,-0.5515571287,-0.3349896878,-0.1920080511,-0.1008167756,-0.04513078248,-0.01315722265,0.003424969721,0.0103502882,0.011481217,0.009358428189,0.005609735091,0.001245541142,-0.003132811713,-0.007189237755,-0.01075559671,-0.0137670802,-0.01622010875,-0.01814542806],
				"gdp": [0,0.8439056819,0.6993813375,0.5838925534,0.4942548447,0.4261099504,0.3750389322,0.3370987061,0.3090165049,0.2882016335,0.2726713985,0.2609463149,0.2519436247,0.2448826479,0.2392067368,0.2345220193,0.2305510029,0.2270983799,0.2240263632,0.2212372018,0.2186609566],
				"z": [0,-4.088678522e-16,-1.35900461e-16,-3.523514122e-17,1.703578243e-18,1.50873941e-17,1.977709401e-17,2.126873483e-17,2.159369622e-17,2.150167148e-17,2.126834806e-17,2.099422592e-17,2.071515932e-17,2.044323837e-17,2.01818983e-17,1.993149477e-17,1.969135309e-17,1.946051428e-17,1.923800029e-17,1.902290231e-17,1.881440484e-17],
				"g": [0,1,0.99,0.9801,0.970299,0.96059601,0.9509900499,0.9414801494,0.9320653479,0.9227446944,0.9135172475,0.904382075,0.8953382543,0.8863848717,0.877521023,0.8687458128,0.8600583546,0.8514577711,0.8429431934,0.8345137615,0.8261686238],
				"miu": [0,0,-7.992508634e-17,-1.076560422e-16,-1.170342983e-16,-1.199216747e-16,-1.204787536e-16,-1.201697282e-16,-1.195141945e-16,-1.187003639e-16,-1.177997656e-16,-1.168424621e-16,-1.158434381e-16,-1.148118945e-16,-1.137545528e-16,-1.126768587e-16,-1.115834452e-16,-1.104783339e-16,-1.093650387e-16,-1.082466341e-16,-1.071258067e-16],
				"lambdap": [0,6.050471183e-17,5.811319008e-17,5.538436439e-17,5.278702383e-17,5.031497847e-17,4.796235394e-17,4.572352593e-17,4.359311248e-17,4.156596611e-17,3.963716597e-17,3.780200994e-17,3.605600672e-17,3.439486805e-17,3.281450101e-17,3.131100042e-17,2.988064138e-17,2.8519872e-17,2.72253063e-17,2.599371726e-17,2.48220301e-17],
				"lambdaw": [0,9.35333155e-18,9.176435481e-18,9.382981268e-18,9.577677129e-18,9.760507166e-18,9.931675167e-18,1.009141654e-17,1.02399929e-17,1.037768725e-17,1.050479971e-17,1.062164379e-17,1.072854302e-17,1.082582805e-17,1.09138341e-17,1.099289872e-17,1.106335987e-17,1.11255542e-17,1.117981564e-17,1.122647416e-17,1.126585471e-17],
				"b": [0,1.22368811e-17,6.654247099e-18,3.464668246e-18,1.654483529e-18,6.387686821e-19,7.894239665e-20,-2.207716204e-19,-3.733890567e-19,-4.439839089e-19,-4.698772805e-19,-4.723413229e-19,-4.633825118e-19,-4.496714367e-19,-4.348180205e-19,-4.206874957e-19,-4.08160389e-19,-3.97570363e-19,-3.889555165e-19,-3.82201762e-19,-3.771238521e-19],
				"mp": [0,0,0,0,0,0,0,0,0,0,0,0,0,0,0,0,0,0,0,0,0],
				"ARMAlambdap": [0,0,6.610314343e-19,6.81790352e-19,6.985907075e-19,7.118383162e-19,7.219650196e-19,7.293562522e-19,7.343557124e-19,7.372695842e-19,7.383703519e-19,7.379002443e-19,7.36074345e-19,7.330833978e-19,7.290963379e-19,7.242625726e-19,7.187140381e-19,7.125670499e-19,7.059239702e-19,6.988747073e-19,6.914980637e-19],
				"ARMAlambdaw": [0,0,-3.907587954e-19,-3.963822185e-19,-4.004655314e-19,-4.033654817e-19,-4.052410613e-19,-4.062323137e-19,-4.06462437e-19,-4.060396644e-19,-4.050589471e-19,-4.036034582e-19,-4.017459358e-19,-3.995498827e-19,-3.970706362e-19,-3.943563217e-19,-3.914487026e-19,-3.883839366e-19,-3.851932481e-19,-3.819035267e-19,-3.785378577e-19],
				"ystar": [0,0.709250397,0.5187183455,0.4069340161,0.3397937577,0.298158367,0.2712625891,0.2530298495,0.240011249,0.2302326807,0.2225497034,0.216286337,0.2110326414,0.2065311116,0.2026127701,0.1991610844,0.1960914743,0.1933395689,0.1908543839,0.1885942763,0.186524476],
				"kstar": [0,0.09741647625,0.04497930456,-0.006976612853,-0.05477880314,-0.09687279978,-0.1328316924,-0.1628083649,-0.187234625,-0.2066578201,-0.2216538297,-0.2327823162,-0.2405652048,-0.2454777903,-0.2479465823,-0.2483506237,-0.2470244908,-0.2442619961,-0.2403200709,-0.2354225572,-0.2297637765],
				"Lstar": [0,0.6969916931,0.5147561065,0.4118757068,0.3532445477,0.3192574169,0.2989721677,0.2862873979,0.2778058376,0.2716401101,0.2667453051,0.2625460435,0.2587281599,0.2551223955,0.2516395126,0.2482341426,0.2448846834,0.2415821567,0.238324065,0.2351110322,0.2319449929],
				"mpkstar": [0,0.5036431822,0.3946125136,0.3518359485,0.3427396147,0.349549382,0.3627152424,0.3772404407,0.3906339885,0.4017702614,0.4102552732,0.4160758222,0.4194064263,0.4205041561,0.4196523197,0.4171312037,0.4132037063,0.4081090884,0.4020610742,0.3952482151,0.3878353663],
				"wstar": [0,-0.0959320347,-0.07516428831,-0.06701637115,-0.06528373614,-0.06658083467,-0.0690886176,-0.07185532204,-0.074406474,-0.07652766884,-0.07814386157,-0.07925253755,-0.07988693835,-0.08009602973,-0.07993377518,-0.0794535626,-0.07870546787,-0.07773506446,-0.07658306175,-0.0752853743,-0.0738734031],
				"sstar": [0,0,0,0,0,0,0,0,0,0,0,0,0,0,0,0,0,0,0,0,0],
				"lambdastar": [0,2.458733874,1.820187489,1.463275017,1.262782753,1.148863478,1.082604266,1.042369601,1.016168263,0.9973876422,0.9824104458,0.9692836249,0.9569754004,0.9449609504,0.9329917227,0.920967306,0.9088645444,0.8966985758,0.8845016422,0.8723117735,0.8601669291],
				"cstar": [0,-0.1651823286,-0.2896726379,-0.3870286346,-0.4653177309,-0.5294874602,-0.5826956536,-0.6270585923,-0.6640733473,-0.6948575802,-0.7202869418,-0.7410748994,-0.7578200881,-0.771035241,-0.7811655816,-0.7886011083,-0.7936852672,-0.7967214286,-0.797977973,-0.797692456,-0.7960751253],
				"Rstar": [0,0.6385463851,0.3569124721,0.2004922643,0.1139192751,0.06625921197,0.04023466517,0.02620133747,0.01878062109,0.01497719638,0.01312682093,0.01230822446,0.01201445007,0.01196922765,0.01202441674,0.01210276154,0.01216596869,0.01219693352,0.01218986877,0.01214484438,0.01206478725],
				"ustar": [0,0.09741647625,0.07632737208,0.06805337496,0.06629392935,0.06761109903,0.07015768712,0.07296720323,0.07555783143,0.0777118494,0.07935305092,0.08047888243,0.08112309987,0.08133542671,0.08117066145,0.08068301812,0.07992334745,0.07893792812,0.07776809945,0.07645033173,0.07501651185],
				"istar": [0,-0.9033657603,-1.290141807,-1.401856244,-1.372064082,-1.274106774,-1.147797865,-1.014328563,-0.8845888562,-0.7638086925,-0.654142886,-0.5561073957,-0.4693742949,-0.3932089795,-0.3267080637,-0.2689264759,-0.2189431839,-0.1758931261,-0.1389807199,-0.107483495,-0.08075058941],
				"kbarstar": [0,-0.03134806752,-0.07502998781,-0.1210727325,-0.1644838988,-0.2029893795,-0.2357755681,-0.2627924564,-0.2843696695,-0.3010068806,-0.3132611987,-0.3216883046,-0.326813217,-0.3291172438,-0.3290336418,-0.3269478383,-0.3231999242,-0.3180881703,-0.3118728889,-0.3047802883,-0.2970061414],
				"wgapstar": [0,0,0,0,0,0,0,0,0,0,0,0,0,0,0,0,0,0,0,0,0],
				"gdpstar": [0,0.6936637608,0.5065059659,0.3960454761,0.329186729,0.2873405912,0.2600373591,0.241355097,0.227921996,0.2177987848,0.2098532152,0.2034097158,0.1980529455,0.1935174433,0.1896254643,0.1862518015,0.1833037387,0.1807095004,0.178411488,0.1763622233,0.1745218341],
				"Rk": [0,-0.08053784995,-0.0008235755183,0.0316386164,0.04394095494,0.04469444084,0.04004943009,0.03358206189,0.02715012826,0.02158454035,0.0171449523,0.01380001242,0.01139119966,0.009723045208,0.008608614826,0.007888997215,0.007438565776,0.007163134002,0.006995123423,0.00688798546,0.006810986527],
				"Rkstar": [0,-1.217637957,0.6385463851,0.3569124721,0.2004922643,0.1139192751,0.06625921197,0.04023466517,0.02620133747,0.01878062109,0.01497719638,0.01312682093,0.01230822446,0.01201445007,0.01196922765,0.01202441674,0.01210276154,0.01216596869,0.01219693352,0.01218986877,0.01214484438],
				"q": [0,-0.1096201876,-0.1360041825,-0.1262477098,-0.1008998402,-0.07212134366,-0.04594190128,-0.02473645752,-0.008909642294,0.002077547566,0.00912139536,0.01316441544,0.01504851309,0.01546110002,0.01493014782,0.01384207307,0.01246775011,0.01098896292,0.00952175126,0.008135429449,0.006867262081],
				"qstar": [0,-1.282012526,-0.6822894701,-0.3507042325,-0.1686479718,-0.06984838064,-0.01728866711,0.009695663053,0.02263011466,0.02793357137,0.0291723706,0.02832023793,0.02646246283,0.02418939284,0.02181625612,0.01950590684,0.01733731246,0.01534372011,0.01353388286,0.01190382576,0.01044333227],
				"Rl": [0,-0.1891834095,0.02518461952,0.05985604283,0.0737533446,0.0752241701,0.07043212255,0.06309595819,0.05525828727,0.04793070918,0.04152811402,0.03614193695,0.03170457293,0.02808368402,0.02513295024,0.0227167777,0.02072015584,0.01905058437,0.01763618833,0.01642235605,0.01536813605],
				"Rlstar": [0,-2.860231562,0.6385463851,0.3569124721,0.2004922643,0.1139192751,0.06625921197,0.04023466517,0.02620133747,0.01878062109,0.01497719638,0.01312682093,0.01230822446,0.01201445007,0.01196922765,0.01202441674,0.01210276154,0.01216596869,0.01219693352,0.01218986877,0.01214484438],
				"Rd": [0,0.02518461952,0.05985604283,0.0737533446,0.0752241701,0.07043212255,0.06309595819,0.05525828727,0.04793070918,0.04152811402,0.03614193695,0.03170457293,0.02808368402,0.02513295024,0.0227167777,0.02072015584,0.01905058437,0.01763618833,0.01642235605,0.01536813605,0.01444297823],
				"Rdstar": [0,0.6385463851,0.3569124721,0.2004922643,0.1139192751,0.06625921197,0.04023466517,0.02620133747,0.01878062109,0.01497719638,0.01312682093,0.01230822446,0.01201445007,0.01196922765,0.01202441674,0.01210276154,0.01216596869,0.01219693352,0.01218986877,0.01214484438,0.01206478725],
				"Rke": [0,-0.0008235755183,0.0316386164,0.04394095494,0.04469444084,0.04004943009,0.03358206189,0.02715012826,0.02158454035,0.0171449523,0.01380001242,0.01139119966,0.009723045208,0.008608614826,0.007888997215,0.007438565776,0.007163134002,0.006995123423,0.00688798546,0.006810986527,0.00674481363],
				"Rkestar": [0,0.6385463851,0.3569124721,0.2004922643,0.1139192751,0.06625921197,0.04023466517,0.02620133747,0.01878062109,0.01497719638,0.01312682093,0.01230822446,0.01201445007,0.01196922765,0.01202441674,0.01210276154,0.01216596869,0.01219693352,0.01218986877,0.01214484438,0.01206478725],
				"nw": [0,0.02060558385,-0.005711466308,-0.001952868118,0.01180961328,0.02493081892,0.03312598008,0.03558712443,0.03313789783,0.02718063798,0.0191487395,0.01025910229,0.001432015552,-0.006703087653,-0.0137638961,-0.01956004747,-0.02404001703,-0.02724594391,-0.02927806435,-0.03026829646,-0.0303616088],
				"nwstar": [0,0.3227075679,0.904843726,1.187711297,1.306738224,1.337287634,1.321181103,1.281522445,1.23098132,1.176420912,1.121482101,1.068025532,1.016935451,0.9685670047,0.9229944441,0.880148214,0.8398901193,0.8020540285,0.7664674586,0.7329626008,0.7013815598],
				"lamefp": [0,-7.544629092e-17,-9.101139958e-17,-1.035478964e-16,-1.135664119e-16,-1.214943335e-16,-1.27691566e-16,-1.324606186e-16,-1.360552442e-16,-1.386878331e-16,-1.405357347e-16,-1.417466577e-16,-1.42443279e-16,-1.427271727e-16,-1.426821562e-16,-1.423771358e-16,-1.418685244e-16,-1.412022925e-16,-1.404157048e-16,-1.395387903e-16,-1.385955821e-16],
				"spr": [0,-0.02600819504,-0.02821742643,-0.02981238966,-0.03052972926,-0.03038269246,-0.0295138963,-0.02810815901,-0.02634616883,-0.02438316173,-0.02234192453,-0.02031337328,-0.01836063881,-0.01652433542,-0.01482778049,-0.01328159006,-0.01188745037,-0.01064106491,-0.00953437059,-0.00855714952,-0.007698164601],
				"sprstar": [0,-5.551115123e-17,-1.40258248e-14,-1.419530237e-14,-1.418505851e-14,-1.408397603e-14,-1.393632161e-14,-1.376555197e-14,-1.358453472e-14,-1.34004665e-14,-1.321737862e-14,-1.303748034e-14,-1.286191175e-14,-1.269118095e-14,-1.252542491e-14,-1.236456774e-14,-1.220841746e-14,-1.205672509e-14,-1.190922008e-14,-1.17656312e-14,-1.162569806e-14],
				"promz": [0,-0.1949015969,0.01896980225,0.0531133162,0.06662949176,0.06792890457,0.06317199237,0.05604343216,0.04854167077,0.041635131,0.0357016084,0.03080319744,0.02685056815,0.02369629708,0.02118435923,0.01917358887,0.01754643866,0.0162100054,0.01509344079,0.01414405989,0.01332335283],
				"promzstar": [0,-2.946683857,0.875119122,0.5972585059,0.4404515089,0.3510417652,0.2990806679,0.2678679246,0.2481047288,0.2346255787,0.2245716516,0.2163700412,0.2091634762,0.2024918459,0.1961144672,0.1899110027,0.1838263227,0.1778399093,0.1719489573,0.1661591138,0.1604794679],
				"upsilon": [0,0,0,0,0,0,0,0,0,0,0,0,0,0,0,0,0,0,0,0,0],
				"lamnw": [0,7.888617765e-17,5.662378855e-17,3.930026867e-17,2.582884861e-17,1.536231701e-17,7.239794946e-18,9.457469805e-19,-3.921990476e-18,-7.677147293e-18,-1.05644716e-17,-1.277490256e-17,-1.445740535e-17,-1.572820265e-17,-1.667797542e-17,-1.737747963e-17,-1.788192753e-17,-1.823440522e-17,-1.846853844e-17,-1.861057208e-17,-1.868099229e-17],
				"lambdae": [0,1.542223909,1.482367866,1.408614522,1.333390352,1.262958229,1.199862271,1.144603984,1.096673274,1.05514516,1.019003224,0.9872986506,0.9592149666,0.9340820163,0.9113652386,0.8906450828,0.8715944984,0.8539583101,0.837535954,0.822167818,0.8077248398],
				"lambdaestar": [0,1.820187489,1.463275017,1.262782753,1.148863478,1.082604266,1.042369601,1.016168263,0.9973876422,0.9824104458,0.9692836249,0.9569754004,0.9449609504,0.9329917227,0.920967306,0.9088645444,0.8966985758,0.8845016422,0.8723117735,0.8601669291,0.8481021418],
				"credit": [0,-0.2603693764,-0.3105534693,-0.3240257758,-0.3180129466,-0.3033032548,-0.2857222071,-0.2680744272,-0.2514883028,-0.2362385608,-0.2222183122,-0.2091928528,-0.1969239162,-0.1852208387,-0.1739532144,-0.1630453695,-0.152463996,-0.1422048169,-0.1322809599,-0.1227139561,-0.113527376],
				"gs": [0,1,-5.26421382e-16,-5.550909706e-16,-5.333618858e-16,-4.857745105e-16,-4.276787126e-16,-3.673998488e-16,-3.093414701e-16,-2.556708449e-16,-2.072870722e-16,-1.643849914e-16,-1.267836048e-16,-9.411591524e-17,-6.593704175e-17,-4.178426269e-17,-2.120896317e-17,-3.792353609e-18,1.084801246e-17,2.30567849e-17,3.314201846e-17],
				"interest": [0,0.2075872633,0.3182766237,0.3520972699,0.342753372,0.3132521365,0.276974287,0.2409774841,0.208525966,0.1807470429,0.1576536801,0.1387473384,0.1233547002,0.1108018142,0.1004929884,0.09193682726,0.0847451926,0.07862011494,0.07333693492,0.0687278711,0.06466784189],
				"inflation": [0,0.03105327976,0.05776547606,0.07747858916,0.09174956202,0.07116045516,0.05232917044,0.0387636709,0.02947878179,0.02321539121,0.01899312635,0.01611699586,0.01411317379,0.01266738249,0.01157623907,0.01071122539,0.009993014691,0.00937373745,0.008825074559,0.00833048284,0.007880263592],
				"inflationq": [0,0.124213119,0.1068487852,0.07885245238,0.05708389147,0.0418566916,0.0315236463,0.02459045424,0.019944335,0.0168031293,0.01463458685,0.01308593231,0.01192904671,0.01101996409,0.01027001318,0.009625877589,0.009056203904,0.00854285513,0.008075361613,0.007647510714,0.007255326912],
				"outputgap": [0,0.1502419211,0.1928753716,0.1878470773,0.1650681157,0.1387693592,0.1150015731,0.09574360918,0.08109450892,0.07040284868,0.06281818332,0.05753659914,0.05389067919,0.05136520457,0.04958127254,0.04827021779,0.04724726419,0.04638887956,0.04561487526,0.04487497856,0.04413912247],
				"output": [0,0.8439056819,0.6993813375,0.5838925534,0.4942548447,0.4261099504,0.3750389322,0.3370987061,0.3090165049,0.2882016335,0.2726713985,0.2609463149,0.2519436247,0.2448826479,0.2392067368,0.2345220193,0.2305510029,0.2270983799,0.2240263632,0.2212372018,0.2186609566],
				"fispol": [0,1,-3.137619579e-16,-3.275912396e-16,-3.162262396e-16,-2.91937099e-16,-2.623987016e-16,-2.317736763e-16,-2.022637494e-16,-1.749525066e-16,-1.502894494e-16,-1.283719499e-16,-1.091094621e-16,-9.23184407e-17,-7.777639912e-17,-6.525193081e-17,-5.452068306e-17,-4.537321626e-17,-3.761826283e-17,-3.108345392e-17,-2.561471868e-17],
				"AUX_ENDO_LEAD_165": [0,0.1068487852,0.07885245238,0.05708389147,0.0418566916,0.0315236463,0.02459045424,0.019944335,0.0168031293,0.01463458685,0.01308593231,0.01192904671,0.01101996409,0.01027001318,0.009625877589,0.009056203904,0.00854285513,0.008075361613,0.007647510714,0.007255326912,0.006895928964],
				"AUX_ENDO_LEAD_169": [0,0.07885245238,0.05708389147,0.0418566916,0.0315236463,0.02459045424,0.019944335,0.0168031293,0.01463458685,0.01308593231,0.01192904671,0.01101996409,0.01027001318,0.009625877589,0.009056203904,0.00854285513,0.008075361613,0.007647510714,0.007255326912,0.006895928964,0.006566921954],
				"AUX_ENDO_LEAD_173": [0,0.05708389147,0.0418566916,0.0315236463,0.02459045424,0.019944335,0.0168031293,0.01463458685,0.01308593231,0.01192904671,0.01101996409,0.01027001318,0.009625877589,0.009056203904,0.00854285513,0.008075361613,0.007647510714,0.007255326912,0.006895928964,0.006566921954,0.006266102614],
				"AUX_ENDO_LEAD_200": [0,0.1928753716,0.1878470773,0.1650681157,0.1387693592,0.1150015731,0.09574360918,0.08109450892,0.07040284868,0.06281818332,0.05753659914,0.05389067919,0.05136520457,0.04958127254,0.04827021779,0.04724726419,0.04638887956,0.04561487526,0.04487497856,0.04413912247,0.04339061427],
				"AUX_ENDO_LEAD_204": [0,0.1878470773,0.1650681157,0.1387693592,0.1150015731,0.09574360918,0.08109450892,0.07040284868,0.06281818332,0.05753659914,0.05389067919,0.05136520457,0.04958127254,0.04827021779,0.04724726419,0.04638887956,0.04561487526,0.04487497856,0.04413912247,0.04339061427,0.0426214324],
				"AUX_ENDO_LEAD_208": [0,0.1650681157,0.1387693592,0.1150015731,0.09574360918,0.08109450892,0.07040284868,0.06281818332,0.05753659914,0.05389067919,0.05136520457,0.04958127254,0.04827021779,0.04724726419,0.04638887956,0.04561487526,0.04487497856,0.04413912247,0.04339061427,0.0426214324,0.04182904508],
				"AUX_ENDO_LEAD_235": [0,0.6993813375,0.5838925534,0.4942548447,0.4261099504,0.3750389322,0.3370987061,0.3090165049,0.2882016335,0.2726713985,0.2609463149,0.2519436247,0.2448826479,0.2392067368,0.2345220193,0.2305510029,0.2270983799,0.2240263632,0.2212372018,0.2186609566,0.2162470424],
				"AUX_ENDO_LEAD_239": [0,0.5838925534,0.4942548447,0.4261099504,0.3750389322,0.3370987061,0.3090165049,0.2882016335,0.2726713985,0.2609463149,0.2519436247,0.2448826479,0.2392067368,0.2345220193,0.2305510029,0.2270983799,0.2240263632,0.2212372018,0.2186609566,0.2162470424,0.2139584188],
				"AUX_ENDO_LEAD_243": [0,0.4942548447,0.4261099504,0.3750389322,0.3370987061,0.3090165049,0.2882016335,0.2726713985,0.2609463149,0.2519436247,0.2448826479,0.2392067368,0.2345220193,0.2305510029,0.2270983799,0.2240263632,0.2212372018,0.2186609566,0.2162470424,0.2139584188,0.2117676127],
				"AUX_ENDO_LAG_5_1": [0,0,0.03105327976,0.0267121963,0.0197131131,0.01427097287,0.0104641729,0.007880911576,0.00614761356,0.004986083751,0.004200782325,0.003658646713,0.003271483076,0.002982261678,0.002754991024,0.002567503294,0.002406469397,0.002264050976,0.002135713783,0.002018840403,0.001911877679],
				"AUX_ENDO_LAG_5_2": [0,0,3.614413112e-16,0.03105327976,0.0267121963,0.0197131131,0.01427097287,0.0104641729,0.007880911576,0.00614761356,0.004986083751,0.004200782325,0.003658646713,0.003271483076,0.002982261678,0.002754991024,0.002567503294,0.002406469397,0.002264050976,0.002135713783,0.002018840403],
				"AUX_ENDO_LAG_65_1": [0,0,0.8439056819,0.6993813375,0.5838925534,0.4942548447,0.4261099504,0.3750389322,0.3370987061,0.3090165049,0.2882016335,0.2726713985,0.2609463149,0.2519436247,0.2448826479,0.2392067368,0.2345220193,0.2305510029,0.2270983799,0.2240263632,0.2212372018],
				"AUX_ENDO_LAG_65_2": [0,0,0,0.8439056819,0.6993813375,0.5838925534,0.4942548447,0.4261099504,0.3750389322,0.3370987061,0.3090165049,0.2882016335,0.2726713985,0.2609463149,0.2519436247,0.2448826479,0.2392067368,0.2345220193,0.2305510029,0.2270983799,0.2240263632],
				"AUX_ENDO_LAG_65_3": [0,0,0,0,0.8439056819,0.6993813375,0.5838925534,0.4942548447,0.4261099504,0.3750389322,0.3370987061,0.3090165049,0.2882016335,0.2726713985,0.2609463149,0.2519436247,0.2448826479,0.2392067368,0.2345220193,0.2305510029,0.2270983799],
				"AUX_ENDO_LAG_64_1": [0,0,0.1502419211,0.1928753716,0.1878470773,0.1650681157,0.1387693592,0.1150015731,0.09574360918,0.08109450892,0.07040284868,0.06281818332,0.05753659914,0.05389067919,0.05136520457,0.04958127254,0.04827021779,0.04724726419,0.04638887956,0.04561487526,0.04487497856],
				"AUX_ENDO_LAG_64_2": [0,0,0,0.1502419211,0.1928753716,0.1878470773,0.1650681157,0.1387693592,0.1150015731,0.09574360918,0.08109450892,0.07040284868,0.06281818332,0.05753659914,0.05389067919,0.05136520457,0.04958127254,0.04827021779,0.04724726419,0.04638887956,0.04561487526],
				"AUX_ENDO_LAG_64_3": [0,0,0,0,0.1502419211,0.1928753716,0.1878470773,0.1650681157,0.1387693592,0.1150015731,0.09574360918,0.08109450892,0.07040284868,0.06281818332,0.05753659914,0.05389067919,0.05136520457,0.04958127254,0.04827021779,0.04724726419,0.04638887956],
				"AUX_ENDO_LAG_61_1": [0,0,0.2075872633,0.3182766237,0.3520972699,0.342753372,0.3132521365,0.276974287,0.2409774841,0.208525966,0.1807470429,0.1576536801,0.1387473384,0.1233547002,0.1108018142,0.1004929884,0.09193682726,0.0847451926,0.07862011494,0.07333693492,0.0687278711],
				"AUX_ENDO_LAG_61_2": [0,0,0,0.2075872633,0.3182766237,0.3520972699,0.342753372,0.3132521365,0.276974287,0.2409774841,0.208525966,0.1807470429,0.1576536801,0.1387473384,0.1233547002,0.1108018142,0.1004929884,0.09193682726,0.0847451926,0.07862011494,0.07333693492],
				"AUX_ENDO_LAG_61_3": [0,0,0,0,0.2075872633,0.3182766237,0.3520972699,0.342753372,0.3132521365,0.276974287,0.2409774841,0.208525966,0.1807470429,0.1576536801,0.1387473384,0.1233547002,0.1108018142,0.1004929884,0.09193682726,0.0847451926,0.07862011494],
				"AUX_ENDO_LAG_63_1": [0,0,0.124213119,0.1068487852,0.07885245238,0.05708389147,0.0418566916,0.0315236463,0.02459045424,0.019944335,0.0168031293,0.01463458685,0.01308593231,0.01192904671,0.01101996409,0.01027001318,0.009625877589,0.009056203904,0.00854285513,0.008075361613,0.007647510714],
				"AUX_ENDO_LAG_63_2": [0,0,0,0.124213119,0.1068487852,0.07885245238,0.05708389147,0.0418566916,0.0315236463,0.02459045424,0.019944335,0.0168031293,0.01463458685,0.01308593231,0.01192904671,0.01101996409,0.01027001318,0.009625877589,0.009056203904,0.00854285513,0.008075361613],
				"AUX_ENDO_LAG_63_3": [0,0,0,0,0.124213119,0.1068487852,0.07885245238,0.05708389147,0.0418566916,0.0315236463,0.02459045424,0.019944335,0.0168031293,0.01463458685,0.01308593231,0.01192904671,0.01101996409,0.01027001318,0.009625877589,0.009056203904,0.00854285513]
			}
		}
	}
}
