{
	"model": "US_CPS10",
	"rule": "OW13",
	"data": {
		"AC": {
			"p": [1,0.9941959812,0.9886259677,0.983180344,0.9778187699,0.972522501,0.9672843469,0.9621009714,0.9569700243,0.9518893182,0.9468567453,0.9418703172,0.9369281855,0.9320286379,0.9271700878,0.9223510625,0.9175701944,0.9128262127,0.9081179359,0.903444265,0.8988041772],
			"y": [1,0.9925400116,0.9807492356,0.9688151225,0.957816149,0.9476281014,0.938024866,0.9288821041,0.9201455524,0.9117841989,0.9037711426,0.8960800432,0.8886857843,0.8815651445,0.8746969177,0.8680617688,0.8616420428,0.8554215973,0.8493856604,0.8435207082,0.8378143542],
			"lambdda": [1,0.9536990301,0.9190818964,0.8940120375,0.8754649458,0.8594064147,0.8445777195,0.8307354061,0.8178659095,0.8059262826,0.7948372813,0.7845116051,0.7748688042,0.765838176,0.757357602,0.7493720367,0.7418324421,0.7346950478,0.7279207637,0.7214746653,0.7153255333],
			"w": [1,0.98477851,0.9691574359,0.955882601,0.944876614,0.9349028799,0.9254535797,0.9163958409,0.9077142544,0.899398946,0.8914291707,0.8837793545,0.8764243916,0.8693413424,0.8625094561,0.8559098476,0.8495252374,0.8433397814,0.8373389436,0.8315093858,0.8258388658],
			"R": [1,0.998801335,0.9956159939,0.9911240575,0.986024636,0.9808681002,0.9757862685,0.9707770243,0.965818548,0.960899144,0.9560147928,0.9511641286,0.9463461746,0.9415598817,0.9368041941,0.9320781347,0.9273808307,0.9227115069,0.9180694722,0.9134541073,0.9088648555],
			"z": [1,0.297,0.088209,0.026198073,0.007780827681,0.002310905821,0.0006863390289,0.0002038426916,6.05412794e-05,1.798075998e-05,5.340285715e-06,1.586064857e-06,4.710612626e-07,1.39905195e-07,4.155184291e-08,1.234089735e-08,3.665246512e-09,1.088578214e-09,3.233077295e-10,9.602239567e-11,2.851865151e-11],
			"lambddap": [1,0.255,0.065025,0.016581375,0.004228250625,0.001078203909,0.0002749419969,7.011020921e-05,1.787810335e-05,4.558916354e-06,1.16252367e-06,2.964435359e-07,7.559310165e-08,1.927624092e-08,4.915441435e-09,1.253437566e-09,3.196265793e-10,8.150477773e-11,2.078371832e-11,5.299848172e-12,1.351461284e-12],
			"b": [1,0.876,0.767376,0.672221376,0.5888659254,0.5158465506,0.4518815784,0.3958482626,0.3467630781,0.3037644564,0.2660976638,0.2331015535,0.2041969609,0.1788765377,0.156695847,0.137265562,0.1202446323,0.1053342979,0.09227284496,0.08083101219,0.07080796668],
			"pit": [1,0.995,0.990025,0.985074875,0.9801495006,0.9752487531,0.9703725094,0.9655206468,0.9606930436,0.9558895784,0.9511101305,0.9463545798,0.9416228069,0.9369146929,0.9322301194,0.9275689688,0.922931124,0.9183164684,0.913724886,0.9091562616,0.9046104803],
			"ystar": [1,0.7998085107,0.6223436601,0.503157341,0.4219614536,0.3619208106,0.31403164,0.273955092,0.2395653785,0.2097072005,0.1836490569,0.1608572715,0.1409041818,0.1234296914,0.1081235853,0.09471597545,0.08297109614,0.07268264641,0.06366998666,0.05577490435,0.04885881486],
			"lambddastar": [1,0.8806654686,0.7725589653,0.6769895303,0.5930775916,0.5195351981,0.4551088633,0.398672924,0.3492363315,0.3059305415,0.267994962,0.2347635133,0.2056528104,0.1801518519,0.1578130187,0.1382442031,0.1211019215,0.1060852831,0.09293070791,0.08140730011,0.07131279489],
			"wstar": [1,"_NaN_","_NaN_","_NaN_","_NaN_","_NaN_","_NaN_","_NaN_","_NaN_","_NaN_","_NaN_","_NaN_","_NaN_","_NaN_","_NaN_","_NaN_","_NaN_","_NaN_","_NaN_","_NaN_","_NaN_"],
			"Rstar": [1,0.8927234071,0.790579886,0.6962979316,0.6114784227,0.5362444077,0.469971461,0.4117763641,0.3607455261,0.3160235971,0.2768403929,0.2425134913,0.2124422746,0.186099591,0.1630232965,0.1428084266,0.1251001882,0.1095877671,0.09599888473,0.08409502328,0.07366724049],
			"interest": [1,0.998801335,0.9956159939,0.9911240575,0.986024636,0.9808681002,0.9757862685,0.9707770243,0.965818548,0.960899144,0.9560147928,0.9511641286,0.9463461746,0.9415598817,0.9368041941,0.9320781347,0.9273808307,0.9227115069,0.9180694722,0.9134541073,0.9088648555],
			"inflation": [1,0.9986037282,0.9951497305,0.990352313,0.9849214,0.9795743647,0.9742928144,0.9690688001,0.9638982112,0.9587784157,0.9537072481,0.9486827216,0.9437029765,0.9387662786,0.9338710167,0.9290156958,0.9241989282,0.9194194243,0.9146759856,0.9099674973,0.9052929219],
			"inflationq": [1,0.5435056579,0.4001026068,0.3406435593,0.3051542164,0.2773290575,0.2528650458,0.2306125827,0.2102077272,0.1914630711,0.1742335346,0.1583915274,0.1438222725,0.1304217251,0.1180950092,0.1067552891,0.09632295508,0.08672497652,0.07789433976,0.06976953803,0.06229410483],
			"outputgap": [1,0.9927676366,0.9812705733,0.9695955382,0.9588071738,0.9487902356,0.9393284977,0.9303042351,0.9216673078,0.9133895535,0.9054463147,0.8978131482,0.8904665777,0.8833848041,0.8765478542,0.8699374617,0.8635368978,0.8573308225,0.851305159,0.8454469849,0.8397444339],
			"output": [1,0.9925400116,0.9807492356,0.9688151225,0.957816149,0.9476281014,0.938024866,0.9288821041,0.9201455524,0.9117841989,0.9037711426,0.8960800432,0.8886857843,0.8815651445,0.8746969177,0.8680617688,0.8616420428,0.8554215973,0.8493856604,0.8435207082,0.8378143542],
			"AUX_ENDO_LEAD_77": [1,0.8754622486,0.7906626826,0.7217068971,0.6604852393,0.6045267362,0.5530318089,0.5056181482,0.461973259,0.4217994997,0.3848172029,0.3507690111,0.3194194943,0.2905530492,0.263971842,0.2394941417,0.2169529344,0.1961946996,0.1770782963,0.159473941,0.1432622715],
			"AUX_ENDO_LEAD_81": [1,0.9176932796,0.8422013913,0.7726926626,0.7084829443,0.6491932024,0.5945202657,0.5441436185,0.497735726,0.454982849,0.4155942918,0.3793032543,0.3458649131,0.3150542798,0.2866644024,0.2605048492,0.2364003637,0.2141896362,0.1937241748,0.1748672668,0.1574930277],
			"AUX_ENDO_LEAD_85": [1,0.9198382748,0.8451971034,0.7760028619,0.7120184141,0.6529640817,0.5985109362,0.5483145149,0.5020425498,0.459386269,0.4200617671,0.3838081523,0.350385368,0.3195723438,0.2911654313,0.2649770123,0.2408342252,0.2185777904,0.1980609294,0.1791483705,0.1617154356],
			"AUX_ENDO_LEAD_112": [1,0.988685517,0.9768256616,0.9658626883,0.9557245467,0.9461697992,0.9370613704,0.9283429,0.9199856653,0.9119655218,0.9042582963,0.8968405094,0.8896902512,0.8827874198,0.876113625,0.8696520195,0.8633871474,0.8573048186,0.8513919998,0.8456367167,0.8400279652],
			"AUX_ENDO_LEAD_116": [1,0.9881363837,0.9771533003,0.9669915352,0.957410363,0.9482717164,0.9395190933,0.9311242036,0.9230634607,0.9153131896,0.9078503237,0.9006532991,0.8937023088,0.8869792165,0.8804673939,0.8741515738,0.8680177274,0.8620529601,0.8562454161,0.8505841921,0.8450592585],
			"AUX_ENDO_LEAD_120": [1,0.9890316162,0.9788676085,0.9692737058,0.960115731,0.9513387445,0.9429151443,0.9348218513,0.9270356781,0.9195340194,0.9122957246,0.9053013485,0.8985330693,0.8919745317,0.8856107064,0.8794277717,0.8734130133,0.8675547322,0.8618421619,0.8562653909,0.8508152935],
			"AUX_ENDO_LEAD_147": [1,0.9884314277,0.9763346604,0.9651735409,0.9548716252,0.9451800409,0.935956283,0.9271404112,0.9187011091,0.910612129,0.9028474942,0.8953821575,0.8881928466,0.8812582772,0.8745590338,0.86807738,0.8617970895,0.8557033043,0.8497824132,0.844021942,0.8384104542],
			"AUX_ENDO_LEAD_151": [1,0.9879301544,0.9767704477,0.9664604437,0.9567542386,0.9475095976,0.938667093,0.9301962024,0.9220714711,0.9142676004,0.9067601048,0.8995261849,0.8925449608,0.8857973654,0.8792659629,0.8729347858,0.8667891992,0.8608157828,0.8550022262,0.8493372335,0.8438104352],
			"AUX_ENDO_LEAD_155": [1,0.9888763449,0.9785807402,0.9688751602,0.9596221412,0.9507643263,0.9422722008,0.9341210509,0.9262862551,0.9187439502,0.9114718894,0.9044496746,0.8976586569,0.891081764,0.8847033441,0.878509037,0.8724856612,0.8666211139,0.860904279,0.8553249436,0.8498737212],
			"AUX_ENDO_LAG_0_1": [1,0.9941959812,0.9886259677,0.983180344,0.9778187699,0.972522501,0.9672843469,0.9621009714,0.9569700243,0.9518893182,0.9468567453,0.9418703172,0.9369281855,0.9320286379,0.9271700878,0.9223510625,0.9175701944,0.9128262127,0.9081179359,0.903444265,0.8988041772],
			"AUX_ENDO_LAG_0_2": [1,0.9941959812,0.9886259677,0.983180344,0.9778187699,0.972522501,0.9672843469,0.9621009714,0.9569700243,0.9518893182,0.9468567453,0.9418703172,0.9369281855,0.9320286379,0.9271700878,0.9223510625,0.9175701944,0.9128262127,0.9081179359,0.903444265,0.8988041772],
			"AUX_ENDO_LAG_17_1": [1,0.9925400116,0.9807492356,0.9688151225,0.957816149,0.9476281014,0.938024866,0.9288821041,0.9201455524,0.9117841989,0.9037711426,0.8960800432,0.8886857843,0.8815651445,0.8746969177,0.8680617688,0.8616420428,0.8554215973,0.8493856604,0.8435207082,0.8378143542],
			"AUX_ENDO_LAG_17_2": [1,0.9925400116,0.9807492356,0.9688151225,0.957816149,0.9476281014,0.938024866,0.9288821041,0.9201455524,0.9117841989,0.9037711426,0.8960800432,0.8886857843,0.8815651445,0.8746969177,0.8680617688,0.8616420428,0.8554215973,0.8493856604,0.8435207082,0.8378143542],
			"AUX_ENDO_LAG_17_3": [1,0.9925400116,0.9807492356,0.9688151225,0.957816149,0.9476281014,0.938024866,0.9288821041,0.9201455524,0.9117841989,0.9037711426,0.8960800432,0.8886857843,0.8815651445,0.8746969177,0.8680617688,0.8616420428,0.8554215973,0.8493856604,0.8435207082,0.8378143542],
			"AUX_ENDO_LAG_16_1": [1,0.9927676366,0.9812705733,0.9695955382,0.9588071738,0.9487902356,0.9393284977,0.9303042351,0.9216673078,0.9133895535,0.9054463147,0.8978131482,0.8904665777,0.8833848041,0.8765478542,0.8699374617,0.8635368978,0.8573308225,0.851305159,0.8454469849,0.8397444339],
			"AUX_ENDO_LAG_16_2": [1,0.9927676366,0.9812705733,0.9695955382,0.9588071738,0.9487902356,0.9393284977,0.9303042351,0.9216673078,0.9133895535,0.9054463147,0.8978131482,0.8904665777,0.8833848041,0.8765478542,0.8699374617,0.8635368978,0.8573308225,0.851305159,0.8454469849,0.8397444339],
			"AUX_ENDO_LAG_16_3": [1,0.9927676366,0.9812705733,0.9695955382,0.9588071738,0.9487902356,0.9393284977,0.9303042351,0.9216673078,0.9133895535,0.9054463147,0.8978131482,0.8904665777,0.8833848041,0.8765478542,0.8699374617,0.8635368978,0.8573308225,0.851305159,0.8454469849,0.8397444339],
			"AUX_ENDO_LAG_13_1": [1,0.998801335,0.9956159939,0.9911240575,0.986024636,0.9808681002,0.9757862685,0.9707770243,0.965818548,0.960899144,0.9560147928,0.9511641286,0.9463461746,0.9415598817,0.9368041941,0.9320781347,0.9273808307,0.9227115069,0.9180694722,0.9134541073,0.9088648555],
			"AUX_ENDO_LAG_13_2": [1,0.998801335,0.9956159939,0.9911240575,0.986024636,0.9808681002,0.9757862685,0.9707770243,0.965818548,0.960899144,0.9560147928,0.9511641286,0.9463461746,0.9415598817,0.9368041941,0.9320781347,0.9273808307,0.9227115069,0.9180694722,0.9134541073,0.9088648555],
			"AUX_ENDO_LAG_13_3": [1,0.998801335,0.9956159939,0.9911240575,0.986024636,0.9808681002,0.9757862685,0.9707770243,0.965818548,0.960899144,0.9560147928,0.9511641286,0.9463461746,0.9415598817,0.9368041941,0.9320781347,0.9273808307,0.9227115069,0.9180694722,0.9134541073,0.9088648555],
			"AUX_ENDO_LAG_15_1": [1,0.5435056579,0.4001026068,0.3406435593,0.3051542164,0.2773290575,0.2528650458,0.2306125827,0.2102077272,0.1914630711,0.1742335346,0.1583915274,0.1438222725,0.1304217251,0.1180950092,0.1067552891,0.09632295508,0.08672497652,0.07789433976,0.06976953803,0.06229410483],
			"AUX_ENDO_LAG_15_2": [1,0.5435056579,0.4001026068,0.3406435593,0.3051542164,0.2773290575,0.2528650458,0.2306125827,0.2102077272,0.1914630711,0.1742335346,0.1583915274,0.1438222725,0.1304217251,0.1180950092,0.1067552891,0.09632295508,0.08672497652,0.07789433976,0.06976953803,0.06229410483],
			"AUX_ENDO_LAG_15_3": [1,0.5435056579,0.4001026068,0.3406435593,0.3051542164,0.2773290575,0.2528650458,0.2306125827,0.2102077272,0.1914630711,0.1742335346,0.1583915274,0.1438222725,0.1304217251,0.1180950092,0.1067552891,0.09632295508,0.08672497652,0.07789433976,0.06976953803,0.06229410483]
		},
		"VAR": {
			"p": 101.0259604,
			"y": 154.5590901,
			"lambdda": 188.8600933,
			"w": 1424.565014,
			"R": 95.22193312,
			"z": 0.2665621837,
			"lambddap": 0.01698013316,
			"b": 25.3629935,
			"pit": 100.2506266,
			"ystar": 0.06727326541,
			"lambddastar": 29.68725643,
			"wstar": 0,
			"Rstar": 0.4211949973,
			"interest": 1523.55093,
			"inflation": 1604.902493,
			"inflationq": 0.7743723585,
			"outputgap": 154.1956256,
			"output": 154.5590901,
			"AUX_ENDO_LEAD_77": 0.3376138498,
			"AUX_ENDO_LEAD_81": 0.2727126135,
			"AUX_ENDO_LEAD_85": 0.2308737442,
			"AUX_ENDO_LEAD_112": 152.1989323,
			"AUX_ENDO_LEAD_116": 148.8029094,
			"AUX_ENDO_LEAD_120": 145.3181871,
			"AUX_ENDO_LEAD_147": 152.4979078,
			"AUX_ENDO_LEAD_151": 149.0256231,
			"AUX_ENDO_LEAD_155": 145.479639,
			"AUX_ENDO_LAG_0_1": 101.0259604,
			"AUX_ENDO_LAG_0_2": 101.0259604,
			"AUX_ENDO_LAG_17_1": 154.5590901,
			"AUX_ENDO_LAG_17_2": 154.5590901,
			"AUX_ENDO_LAG_17_3": 154.5590901,
			"AUX_ENDO_LAG_16_1": 154.1956256,
			"AUX_ENDO_LAG_16_2": 154.1956256,
			"AUX_ENDO_LAG_16_3": 154.1956256,
			"AUX_ENDO_LAG_13_1": 1523.55093,
			"AUX_ENDO_LAG_13_2": 1523.55093,
			"AUX_ENDO_LAG_13_3": 1523.55093,
			"AUX_ENDO_LAG_15_1": 0.7743723585,
			"AUX_ENDO_LAG_15_2": 0.7743723585,
			"AUX_ENDO_LAG_15_3": 0.7743723585
		},
		"IRF": {
			"interest_": {
				"p": [0,-0.03931799549,-0.03601388738,-0.03283890106,-0.03008570268,-0.02772724469,-0.02560513354,-0.02365078978,-0.02184092004,-0.02016650516,-0.01861955393,-0.01719122977,-0.01587257807,-0.01465513133,-0.01353107923,-0.0124932418,-0.01153500455,-0.01065026344,-0.009833382224,-0.009079156283,-0.008382779942],
				"y": [0,-0.3301985384,-0.4188731054,-0.4086813727,-0.3711966585,-0.3368923728,-0.3089036225,-0.2849319206,-0.2632297765,-0.2431551311,-0.224542275,-0.2073228061,-0.1914174663,-0.1767334236,-0.1631772411,-0.1506614414,-0.1391057041,-0.1284362614,-0.1185851393,-0.1094895928,-0.1010916787],
				"lambdda": [0,0.8858974075,0.6460730868,0.471199376,0.3636853832,0.3222114915,0.2995296572,0.2795881041,0.259371348,0.2396861576,0.2212386817,0.2042090827,0.1885242722,0.174061603,0.1607125841,0.1483870257,0.1370060378,0.1264976278,0.1167951524,0.1078368767,0.09956572212],
				"w": [0,-1.546294484,-1.483819298,-1.288562121,-1.1060787,-0.9959962371,-0.9173369022,-0.8494519453,-0.785830901,-0.7259964197,-0.6703232318,-0.6188546949,-0.5713592047,-0.5275284502,-0.4870670664,-0.4497099084,-0.4152174461,-0.3833701506,-0.3539654309,-0.3268160624,-0.3017490796],
				"R": [0,0.2038104333,0.1420348097,0.07742829016,0.01374664702,-0.002923299257,-0.003709236642,-0.001624163967,-0.0004813147266,-0.0001720780762,-0.0001616307627,-0.0001877675576,-0.0001924621444,-0.0001820603502,-0.0001676834136,-0.0001540166266,-0.0001418534722,-0.0001309068205,-0.0001208805868,-0.000111625335,-0.0001030698957],
				"z": [0,0,8.715842047e-34,9.975643533e-34,9.985137162e-34,9.869273199e-34,9.779032377e-34,9.712557311e-34,9.657387559e-34,9.60678499e-34,9.557973215e-34,9.509929351e-34,9.462298407e-34,9.414961276e-34,9.367878473e-34,9.321036609e-34,9.274430667e-34,9.228058282e-34,9.18191792e-34,9.136008309e-34,9.090328261e-34],
				"lambddap": [0,1.061734137e-17,2.707422049e-18,6.903926226e-19,1.760501188e-19,4.489278029e-20,1.144765897e-20,2.919153038e-21,7.443840247e-22,1.898179263e-22,4.840357123e-23,1.234291068e-23,3.147442236e-24,8.025977842e-25,2.046624488e-25,5.218893816e-26,1.330819289e-26,3.393602781e-27,8.653822342e-28,2.206859272e-28,5.628830163e-29],
				"b": [0,0,0,0,0,0,0,0,0,0,0,0,0,0,0,0,0,0,0,0,0],
				"pit": [0,-5.019184493e-17,-4.99408857e-17,-4.969118127e-17,-4.944272537e-17,-4.919551174e-17,-4.894953418e-17,-4.870478651e-17,-4.846126258e-17,-4.821895626e-17,-4.797786148e-17,-4.773797218e-17,-4.749928231e-17,-4.72617859e-17,-4.702547697e-17,-4.679034959e-17,-4.655639784e-17,-4.632361585e-17,-4.609199777e-17,-4.586153778e-17,-4.563223009e-17],
				"ystar": [0,0,3.95483485e-33,5.334031909e-33,5.802936033e-33,5.949234361e-33,5.981326864e-33,5.973153756e-33,5.950896828e-33,5.923795982e-33,5.895099114e-33,5.865942965e-33,5.836723507e-33,5.807577851e-33,5.778553e-33,5.749664703e-33,5.720917908e-33,5.69231384e-33,5.663852449e-33,5.635533247e-33,5.607355602e-33],
				"lambddastar": [0,0,0,2.530048746e-33,3.44023417e-33,3.756239227e-33,3.856693335e-33,3.879744199e-33,3.875274316e-33,3.861131566e-33,3.84365135e-33,3.825066995e-33,3.806160953e-33,3.78720576e-33,3.768295728e-33,3.749463166e-33,3.730718901e-33,3.712066349e-33,3.693506373e-33,3.675038962e-33,3.656663808e-33],
				"wstar": [0,0,0,0,0,0,0,0,0,0,0,0,0,0,0,0,0,0,0,0,0],
				"Rstar": [0,0,-2.271188237e-33,-6.139088115e-34,-1.944648336e-35,1.926633067e-34,2.673863969e-34,2.929328356e-34,3.009671608e-34,3.028017302e-34,3.024561587e-34,3.013509443e-34,2.999854551e-34,2.985343819e-34,2.970585533e-34,2.955790518e-34,2.94103143e-34,2.926333073e-34,2.91170373e-34,2.897146004e-34,2.882660544e-34],
				"interest": [0,0.8152417331,0.568139239,0.3097131606,0.05498658809,-0.01169319703,-0.01483694657,-0.006496655868,-0.001925258907,-0.0006883123047,-0.0006465230508,-0.0007510702306,-0.0007698485777,-0.0007282414006,-0.0006707336545,-0.0006160665065,-0.0005674138887,-0.0005236272818,-0.0004835223473,-0.0004465013401,-0.0004122795829],
				"inflation": [0,-0.03931799549,-0.07533188286,-0.1081707839,-0.1382564866,-0.1266657358,-0.116256982,-0.1070688707,-0.09882408805,-0.09126334852,-0.08427776892,-0.07781820891,-0.07184986694,-0.06633849311,-0.0612500184,-0.05655203044,-0.05221445691,-0.04820958902,-0.04451189202,-0.0410978065,-0.03794558189],
				"inflationq": [0,-0.1572719819,-0.1440555495,-0.1313556043,-0.1203428107,-0.1109089788,-0.1024205341,-0.09460315913,-0.08736368017,-0.08066602064,-0.07447821574,-0.06876491908,-0.0634903123,-0.05862052534,-0.05412431691,-0.04997296721,-0.04614001819,-0.04260105377,-0.03933352889,-0.03631662513,-0.03353111977],
				"outputgap": [0,-0.3301985384,-0.4188731054,-0.4086813727,-0.3711966585,-0.3368923728,-0.3089036225,-0.2849319206,-0.2632297765,-0.2431551311,-0.224542275,-0.2073228061,-0.1914174663,-0.1767334236,-0.1631772411,-0.1506614414,-0.1391057041,-0.1284362614,-0.1185851393,-0.1094895928,-0.1010916787],
				"output": [0,-0.3301985384,-0.4188731054,-0.4086813727,-0.3711966585,-0.3368923728,-0.3089036225,-0.2849319206,-0.2632297765,-0.2431551311,-0.224542275,-0.2073228061,-0.1914174663,-0.1767334236,-0.1631772411,-0.1506614414,-0.1391057041,-0.1284362614,-0.1185851393,-0.1094895928,-0.1010916787],
				"AUX_ENDO_LEAD_77": [0,-0.1440555495,-0.1313556043,-0.1203428107,-0.1109089788,-0.1024205341,-0.09460315913,-0.08736368017,-0.08066602064,-0.07447821574,-0.06876491908,-0.0634903123,-0.05862052534,-0.05412431691,-0.04997296721,-0.04614001819,-0.04260105377,-0.03933352889,-0.03631662513,-0.03353111977,-0.03095926429],
				"AUX_ENDO_LEAD_81": [0,-0.1313556043,-0.1203428107,-0.1109089788,-0.1024205341,-0.09460315913,-0.08736368017,-0.08066602064,-0.07447821574,-0.06876491908,-0.0634903123,-0.05862052534,-0.05412431691,-0.04997296721,-0.04614001819,-0.04260105377,-0.03933352889,-0.03631662513,-0.03353111977,-0.03095926429,-0.02858467157],
				"AUX_ENDO_LEAD_85": [0,-0.1203428107,-0.1109089788,-0.1024205341,-0.09460315913,-0.08736368017,-0.08066602064,-0.07447821574,-0.06876491908,-0.0634903123,-0.05862052534,-0.05412431691,-0.04997296721,-0.04614001819,-0.04260105377,-0.03933352889,-0.03631662513,-0.03353111977,-0.03095926429,-0.02858467157,-0.02639221143],
				"AUX_ENDO_LEAD_112": [0,-0.4188731054,-0.4086813727,-0.3711966585,-0.3368923728,-0.3089036225,-0.2849319206,-0.2632297765,-0.2431551311,-0.224542275,-0.2073228061,-0.1914174663,-0.1767334236,-0.1631772411,-0.1506614414,-0.1391057041,-0.1284362614,-0.1185851393,-0.1094895928,-0.1010916787,-0.09333789016],
				"AUX_ENDO_LEAD_116": [0,-0.4086813727,-0.3711966585,-0.3368923728,-0.3089036225,-0.2849319206,-0.2632297765,-0.2431551311,-0.224542275,-0.2073228061,-0.1914174663,-0.1767334236,-0.1631772411,-0.1506614414,-0.1391057041,-0.1284362614,-0.1185851393,-0.1094895928,-0.1010916787,-0.09333789016,-0.0861788221],
				"AUX_ENDO_LEAD_120": [0,-0.3711966585,-0.3368923728,-0.3089036225,-0.2849319206,-0.2632297765,-0.2431551311,-0.224542275,-0.2073228061,-0.1914174663,-0.1767334236,-0.1631772411,-0.1506614414,-0.1391057041,-0.1284362614,-0.1185851393,-0.1094895928,-0.1010916787,-0.09333789016,-0.0861788221,-0.07956885871],
				"AUX_ENDO_LEAD_147": [0,-0.4188731054,-0.4086813727,-0.3711966585,-0.3368923728,-0.3089036225,-0.2849319206,-0.2632297765,-0.2431551311,-0.224542275,-0.2073228061,-0.1914174663,-0.1767334236,-0.1631772411,-0.1506614414,-0.1391057041,-0.1284362614,-0.1185851393,-0.1094895928,-0.1010916787,-0.09333789016],
				"AUX_ENDO_LEAD_151": [0,-0.4086813727,-0.3711966585,-0.3368923728,-0.3089036225,-0.2849319206,-0.2632297765,-0.2431551311,-0.224542275,-0.2073228061,-0.1914174663,-0.1767334236,-0.1631772411,-0.1506614414,-0.1391057041,-0.1284362614,-0.1185851393,-0.1094895928,-0.1010916787,-0.09333789016,-0.0861788221],
				"AUX_ENDO_LEAD_155": [0,-0.3711966585,-0.3368923728,-0.3089036225,-0.2849319206,-0.2632297765,-0.2431551311,-0.224542275,-0.2073228061,-0.1914174663,-0.1767334236,-0.1631772411,-0.1506614414,-0.1391057041,-0.1284362614,-0.1185851393,-0.1094895928,-0.1010916787,-0.09333789016,-0.0861788221,-0.07956885871],
				"AUX_ENDO_LAG_0_1": [0,0,-0.03931799549,-0.03601388738,-0.03283890106,-0.03008570268,-0.02772724469,-0.02560513354,-0.02365078978,-0.02184092004,-0.02016650516,-0.01861955393,-0.01719122977,-0.01587257807,-0.01465513133,-0.01353107923,-0.0124932418,-0.01153500455,-0.01065026344,-0.009833382224,-0.009079156283],
				"AUX_ENDO_LAG_0_2": [0,0,-1.700181049e-16,-0.03931799549,-0.03601388738,-0.03283890106,-0.03008570268,-0.02772724469,-0.02560513354,-0.02365078978,-0.02184092004,-0.02016650516,-0.01861955393,-0.01719122977,-0.01587257807,-0.01465513133,-0.01353107923,-0.0124932418,-0.01153500455,-0.01065026344,-0.009833382224],
				"AUX_ENDO_LAG_17_1": [0,0,-0.3301985384,-0.4188731054,-0.4086813727,-0.3711966585,-0.3368923728,-0.3089036225,-0.2849319206,-0.2632297765,-0.2431551311,-0.224542275,-0.2073228061,-0.1914174663,-0.1767334236,-0.1631772411,-0.1506614414,-0.1391057041,-0.1284362614,-0.1185851393,-0.1094895928],
				"AUX_ENDO_LAG_17_2": [0,0,0,-0.3301985384,-0.4188731054,-0.4086813727,-0.3711966585,-0.3368923728,-0.3089036225,-0.2849319206,-0.2632297765,-0.2431551311,-0.224542275,-0.2073228061,-0.1914174663,-0.1767334236,-0.1631772411,-0.1506614414,-0.1391057041,-0.1284362614,-0.1185851393],
				"AUX_ENDO_LAG_17_3": [0,0,0,0,-0.3301985384,-0.4188731054,-0.4086813727,-0.3711966585,-0.3368923728,-0.3089036225,-0.2849319206,-0.2632297765,-0.2431551311,-0.224542275,-0.2073228061,-0.1914174663,-0.1767334236,-0.1631772411,-0.1506614414,-0.1391057041,-0.1284362614],
				"AUX_ENDO_LAG_16_1": [0,0,-0.3301985384,-0.4188731054,-0.4086813727,-0.3711966585,-0.3368923728,-0.3089036225,-0.2849319206,-0.2632297765,-0.2431551311,-0.224542275,-0.2073228061,-0.1914174663,-0.1767334236,-0.1631772411,-0.1506614414,-0.1391057041,-0.1284362614,-0.1185851393,-0.1094895928],
				"AUX_ENDO_LAG_16_2": [0,0,-7.810603075e-16,-0.3301985384,-0.4188731054,-0.4086813727,-0.3711966585,-0.3368923728,-0.3089036225,-0.2849319206,-0.2632297765,-0.2431551311,-0.224542275,-0.2073228061,-0.1914174663,-0.1767334236,-0.1631772411,-0.1506614414,-0.1391057041,-0.1284362614,-0.1185851393],
				"AUX_ENDO_LAG_16_3": [0,0,-1.459970829e-15,-1.928481323e-15,-0.3301985384,-0.4188731054,-0.4086813727,-0.3711966585,-0.3368923728,-0.3089036225,-0.2849319206,-0.2632297765,-0.2431551311,-0.224542275,-0.2073228061,-0.1914174663,-0.1767334236,-0.1631772411,-0.1506614414,-0.1391057041,-0.1284362614],
				"AUX_ENDO_LAG_13_1": [0,0,0.8152417331,0.568139239,0.3097131606,0.05498658809,-0.01169319703,-0.01483694657,-0.006496655868,-0.001925258907,-0.0006883123047,-0.0006465230508,-0.0007510702306,-0.0007698485777,-0.0007282414006,-0.0006707336545,-0.0006160665065,-0.0005674138887,-0.0005236272818,-0.0004835223473,-0.0004465013401],
				"AUX_ENDO_LAG_13_2": [0,0,0,0.8152417331,0.568139239,0.3097131606,0.05498658809,-0.01169319703,-0.01483694657,-0.006496655868,-0.001925258907,-0.0006883123047,-0.0006465230508,-0.0007510702306,-0.0007698485777,-0.0007282414006,-0.0006707336545,-0.0006160665065,-0.0005674138887,-0.0005236272818,-0.0004835223473],
				"AUX_ENDO_LAG_13_3": [0,0,0,0,0.8152417331,0.568139239,0.3097131606,0.05498658809,-0.01169319703,-0.01483694657,-0.006496655868,-0.001925258907,-0.0006883123047,-0.0006465230508,-0.0007510702306,-0.0007698485777,-0.0007282414006,-0.0006707336545,-0.0006160665065,-0.0005674138887,-0.0005236272818],
				"AUX_ENDO_LAG_15_1": [0,0,-0.1572719819,-0.1440555495,-0.1313556043,-0.1203428107,-0.1109089788,-0.1024205341,-0.09460315913,-0.08736368017,-0.08066602064,-0.07447821574,-0.06876491908,-0.0634903123,-0.05862052534,-0.05412431691,-0.04997296721,-0.04614001819,-0.04260105377,-0.03933352889,-0.03631662513],
				"AUX_ENDO_LAG_15_2": [0,0,4.13306087e-16,-0.1572719819,-0.1440555495,-0.1313556043,-0.1203428107,-0.1109089788,-0.1024205341,-0.09460315913,-0.08736368017,-0.08066602064,-0.07447821574,-0.06876491908,-0.0634903123,-0.05862052534,-0.05412431691,-0.04997296721,-0.04614001819,-0.04260105377,-0.03933352889],
				"AUX_ENDO_LAG_15_3": [0,0,3.087255794e-19,4.14110136e-16,-0.1572719819,-0.1440555495,-0.1313556043,-0.1203428107,-0.1109089788,-0.1024205341,-0.09460315913,-0.08736368017,-0.08066602064,-0.07447821574,-0.06876491908,-0.0634903123,-0.05862052534,-0.05412431691,-0.04997296721,-0.04614001819,-0.04260105377]
			}
		}
	}
}
