{
	"model": "US_CPS10",
	"rule": "Model",
	"data": {
		"AC": {
			"p": [1,0.9947355082,0.9896528173,0.9846549863,0.9797088892,0.9748001382,0.9699218377,0.9650705451,0.9602445642,0.9554430801,0.9506656994,0.9459122142,0.9411824885,0.936476409,0.9317938655,0.9271347462,0.9224989369,0.9178863214,0.9132967832,0.9087302057,0.9041864726],
			"y": [1,0.9951216875,0.9875639043,0.9800055564,0.9731747589,0.9670571819,0.9614526981,0.9561726246,0.9510865141,0.9461167364,0.9412214275,0.9363795757,0.9315810953,0.9268211211,0.9220970688,0.9174072656,0.9127503818,0.908125228,0.9035307006,0.8989657762,0.8944295157],
			"lambdda": [1,0.9647346819,0.9387398042,0.9192144086,0.903915048,0.8911464571,0.8799577909,0.8698445783,0.8605415758,0.8519014296,0.8438313475,0.8362631291,0.8291403228,0.8224133013,0.8160375873,0.8099733015,0.8041848855,0.7986408231,0.7933133109,0.7881778955,0.7832131093],
			"w": [1,0.9897984591,0.9797411672,0.9712140084,0.9641709432,0.9581372813,0.952703371,0.9475982287,0.9426664753,0.9378278999,0.9330447892,0.9283010027,0.9235902764,0.9189103545,0.9142603466,0.9096396866,0.9050478035,0.9004840676,0.8959478185,0.8914384027,0.8869551999],
			"R": [1,0.9988731791,0.9959922545,0.9919811414,0.9873429109,0.9824335783,0.9774354937,0.9724324443,0.9674578103,0.9625217994,0.9576252952,0.9527661915,0.9479419293,0.9431503098,0.9383896241,0.9336585676,0.9289561217,0.9242814598,0.9196338847,0.9150127909,0.9104176417],
			"z": [1,0.297,0.088209,0.026198073,0.007780827681,0.002310905821,0.0006863390289,0.0002038426916,6.05412794e-05,1.798075998e-05,5.340285715e-06,1.586064857e-06,4.710612626e-07,1.39905195e-07,4.155184291e-08,1.234089735e-08,3.665246512e-09,1.088578214e-09,3.233077295e-10,9.602239567e-11,2.851865151e-11],
			"lambddap": [1,0.255,0.065025,0.016581375,0.004228250625,0.001078203909,0.0002749419969,7.011020921e-05,1.787810335e-05,4.558916354e-06,1.16252367e-06,2.964435359e-07,7.559310165e-08,1.927624092e-08,4.915441435e-09,1.253437566e-09,3.196265793e-10,8.150477773e-11,2.078371832e-11,5.299848172e-12,1.351461284e-12],
			"b": [1,0.876,0.767376,0.672221376,0.5888659254,0.5158465506,0.4518815784,0.3958482626,0.3467630781,0.3037644564,0.2660976638,0.2331015535,0.2041969609,0.1788765377,0.156695847,0.137265562,0.1202446323,0.1053342979,0.09227284496,0.08083101219,0.07080796668],
			"pit": [1,0.995,0.990025,0.985074875,0.9801495006,0.9752487531,0.9703725094,0.9655206468,0.9606930436,0.9558895784,0.9511101305,0.9463545798,0.9416228069,0.9369146929,0.9322301194,0.9275689688,0.922931124,0.9183164684,0.913724886,0.9091562616,0.9046104803],
			"ystar": [1,0.7998085107,0.6223436601,0.503157341,0.4219614536,0.3619208106,0.31403164,0.273955092,0.2395653785,0.2097072005,0.1836490569,0.1608572715,0.1409041818,0.1234296914,0.1081235853,0.09471597545,0.08297109614,0.07268264641,0.06366998666,0.05577490435,0.04885881486],
			"lambddastar": [1,0.8806654686,0.7725589653,0.6769895303,0.5930775916,0.5195351981,0.4551088633,0.398672924,0.3492363315,0.3059305415,0.267994962,0.2347635133,0.2056528104,0.1801518519,0.1578130187,0.1382442031,0.1211019215,0.1060852831,0.09293070791,0.08140730011,0.07131279489],
			"wstar": [1,"_NaN_","_NaN_","_NaN_","_NaN_","_NaN_","_NaN_","_NaN_","_NaN_","_NaN_","_NaN_","_NaN_","_NaN_","_NaN_","_NaN_","_NaN_","_NaN_","_NaN_","_NaN_","_NaN_","_NaN_"],
			"Rstar": [1,0.8927234071,0.790579886,0.6962979316,0.6114784227,0.5362444077,0.469971461,0.4117763641,0.3607455261,0.3160235971,0.2768403929,0.2425134913,0.2124422746,0.186099591,0.1630232965,0.1428084266,0.1251001882,0.1095877671,0.09599888473,0.08409502328,0.07366724049],
			"interest": [1,0.9988731791,0.9959922545,0.9919811414,0.9873429109,0.9824335783,0.9774354937,0.9724324443,0.9674578103,0.9625217994,0.9576252952,0.9527661915,0.9479419293,0.9431503098,0.9383896241,0.9336585676,0.9289561217,0.9242814598,0.9196338847,0.9150127909,0.9104176417],
			"inflation": [1,0.9987235352,0.9955588432,0.9911529228,0.9861491339,0.9811973561,0.9762819585,0.9713964319,0.966537711,0.9617042946,0.9568954365,0.952110754,0.9473500308,0.9426131195,0.9378998982,0.9332102517,0.9285440651,0.9239012227,0.919281608,0.9146851041,0.9101115943],
			"inflationq": [1,0.9837080004,0.975568528,0.9696905716,0.9644986169,0.9595407453,0.9546797894,0.9498700989,0.9450952856,0.9403492375,0.9356296591,0.9309356658,0.9262668546,0.921622958,0.9170037295,0.9124089173,0.9078382661,0.9032915237,0.8987684472,0.8942688058,0.8897923819],
			"outputgap": [1,0.9953136716,0.9880027666,0.9806629877,0.9740106694,0.9680375339,0.9625515373,0.9573703489,0.9523678926,0.9474694683,0.9426352371,0.9378456757,0.933091867,0.9283699139,0.9236780602,0.9190153547,0.9143811002,0.9097746634,0.9051954293,0.9006428034,0.8961162229],
			"output": [1,0.9951216875,0.9875639043,0.9800055564,0.9731747589,0.9670571819,0.9614526981,0.9561726246,0.9510865141,0.9461167364,0.9412214275,0.9363795757,0.9315810953,0.9268211211,0.9220970688,0.9174072656,0.9127503818,0.908125228,0.9035307006,0.8989657762,0.8944295157],
			"AUX_ENDO_LEAD_77": [1,0.9937447562,0.9882524195,0.9830728636,0.978041862,0.9730914853,0.968191057,0.9633265032,0.9584915561,0.9536835576,0.9489014177,0.9441446617,0.9394130186,0.9347062645,0.9300241763,0.9253665245,0.920733079,0.9161236144,0.9115379144,0.9069757727,0.9024369939],
			"AUX_ENDO_LEAD_81": [1,0.9946071354,0.9894286141,0.9843751083,0.9793970815,0.9744680629,0.9695747787,0.9647110369,0.9598741529,0.9550630258,0.9502771916,0.9455164009,0.940780455,0.9360691544,0.9313822912,0.9267196538,0.9220810329,0.9174662257,0.9128750381,0.9083072848,0.9037627894],
			"AUX_ENDO_LEAD_85": [1,0.9948062762,0.9897311567,0.9847297943,0.9797768954,0.974859481,0.9699714412,0.9651101274,0.960274466,0.9554640182,0.9506785585,0.94591791,0.9411818928,0.936470316,0.9317829831,0.9271196977,0.9224802685,0.9178645111,0.9132722487,0.9087033126,0.9041575406],
			"AUX_ENDO_LEAD_112": [1,0.9928013681,0.9853371,0.978532916,0.9724422432,0.9668783065,0.9616480636,0.9566138832,0.9516927748,0.9468399402,0.9420332459,0.9372625605,0.9325235069,0.9278141941,0.9231336772,0.9184813114,0.9138565218,0.9092587456,0.9046874308,0.9001420492,0.8956221063],
			"AUX_ENDO_LEAD_116": [1,0.9925762349,0.9857849788,0.9796902482,0.9741124697,0.968862875,0.963806153,0.9588605017,0.9539817195,0.9491479847,0.9443493514,0.9395815735,0.9348428682,0.9301323862,0.925449569,0.92079392,0.916164946,0.9115621571,0.9069850799,0.9024332677,0.8979063061],
			"AUX_ENDO_LEAD_120": [1,0.9932600992,0.987190139,0.9816159974,0.9763560877,0.971280664,0.9663114803,0.9614063709,0.9565446019,0.9517167887,0.9469189805,0.9421495635,0.9374078016,0.9326932248,0.9280054121,0.9233439377,0.9187083726,0.9140982975,0.9095133139,0.90495305,0.9004171619],
			"AUX_ENDO_LEAD_147": [1,0.9925893857,0.9849264702,0.9779550263,0.9717266112,0.9660486407,0.9607228137,0.955607605,0.9506172884,0.9457051206,0.9408475212,0.9360332219,0.9312569083,0.926515892,0.9218085368,0.9171335934,0.912489957,0.9078765989,0.9032925588,0.8987369501,0.8942089641],
			"AUX_ENDO_LEAD_151": [1,0.9924046208,0.9854652256,0.9792466645,0.9735654968,0.96822884,0.9630981176,0.958089136,0.9531559506,0.9482754276,0.9434365862,0.9386343292,0.9338661512,0.9291305786,0.9244265079,0.9197529654,0.9151090388,0.9104938709,0.905906666,0.9013466947,0.8968132952],
			"AUX_ENDO_LEAD_155": [1,0.9931304766,0.9869511469,0.9812852053,0.9759477596,0.9708063035,0.9657805149,0.9608266931,0.955922941,0.9510589557,0.9462300316,0.9414339158,0.9366693209,0.9319352961,0.9272309994,0.922555636,0.9179084531,0.9132887473,0.9086958712,0.9041292348,0.8995883032],
			"AUX_ENDO_LAG_0_1": [1,0.9947355082,0.9896528173,0.9846549863,0.9797088892,0.9748001382,0.9699218377,0.9650705451,0.9602445642,0.9554430801,0.9506656994,0.9459122142,0.9411824885,0.936476409,0.9317938655,0.9271347462,0.9224989369,0.9178863214,0.9132967832,0.9087302057,0.9041864726],
			"AUX_ENDO_LAG_0_2": [1,0.9947355082,0.9896528173,0.9846549863,0.9797088892,0.9748001382,0.9699218377,0.9650705451,0.9602445642,0.9554430801,0.9506656994,0.9459122142,0.9411824885,0.936476409,0.9317938655,0.9271347462,0.9224989369,0.9178863214,0.9132967832,0.9087302057,0.9041864726],
			"AUX_ENDO_LAG_17_1": [1,0.9951216875,0.9875639043,0.9800055564,0.9731747589,0.9670571819,0.9614526981,0.9561726246,0.9510865141,0.9461167364,0.9412214275,0.9363795757,0.9315810953,0.9268211211,0.9220970688,0.9174072656,0.9127503818,0.908125228,0.9035307006,0.8989657762,0.8944295157],
			"AUX_ENDO_LAG_17_2": [1,0.9951216875,0.9875639043,0.9800055564,0.9731747589,0.9670571819,0.9614526981,0.9561726246,0.9510865141,0.9461167364,0.9412214275,0.9363795757,0.9315810953,0.9268211211,0.9220970688,0.9174072656,0.9127503818,0.908125228,0.9035307006,0.8989657762,0.8944295157],
			"AUX_ENDO_LAG_17_3": [1,0.9951216875,0.9875639043,0.9800055564,0.9731747589,0.9670571819,0.9614526981,0.9561726246,0.9510865141,0.9461167364,0.9412214275,0.9363795757,0.9315810953,0.9268211211,0.9220970688,0.9174072656,0.9127503818,0.908125228,0.9035307006,0.8989657762,0.8944295157],
			"AUX_ENDO_LAG_16_1": [1,0.9953136716,0.9880027666,0.9806629877,0.9740106694,0.9680375339,0.9625515373,0.9573703489,0.9523678926,0.9474694683,0.9426352371,0.9378456757,0.933091867,0.9283699139,0.9236780602,0.9190153547,0.9143811002,0.9097746634,0.9051954293,0.9006428034,0.8961162229],
			"AUX_ENDO_LAG_16_2": [1,0.9953136716,0.9880027666,0.9806629877,0.9740106694,0.9680375339,0.9625515373,0.9573703489,0.9523678926,0.9474694683,0.9426352371,0.9378456757,0.933091867,0.9283699139,0.9236780602,0.9190153547,0.9143811002,0.9097746634,0.9051954293,0.9006428034,0.8961162229],
			"AUX_ENDO_LAG_16_3": [1,0.9953136716,0.9880027666,0.9806629877,0.9740106694,0.9680375339,0.9625515373,0.9573703489,0.9523678926,0.9474694683,0.9426352371,0.9378456757,0.933091867,0.9283699139,0.9236780602,0.9190153547,0.9143811002,0.9097746634,0.9051954293,0.9006428034,0.8961162229],
			"AUX_ENDO_LAG_13_1": [1,0.9988731791,0.9959922545,0.9919811414,0.9873429109,0.9824335783,0.9774354937,0.9724324443,0.9674578103,0.9625217994,0.9576252952,0.9527661915,0.9479419293,0.9431503098,0.9383896241,0.9336585676,0.9289561217,0.9242814598,0.9196338847,0.9150127909,0.9104176417],
			"AUX_ENDO_LAG_13_2": [1,0.9988731791,0.9959922545,0.9919811414,0.9873429109,0.9824335783,0.9774354937,0.9724324443,0.9674578103,0.9625217994,0.9576252952,0.9527661915,0.9479419293,0.9431503098,0.9383896241,0.9336585676,0.9289561217,0.9242814598,0.9196338847,0.9150127909,0.9104176417],
			"AUX_ENDO_LAG_13_3": [1,0.9988731791,0.9959922545,0.9919811414,0.9873429109,0.9824335783,0.9774354937,0.9724324443,0.9674578103,0.9625217994,0.9576252952,0.9527661915,0.9479419293,0.9431503098,0.9383896241,0.9336585676,0.9289561217,0.9242814598,0.9196338847,0.9150127909,0.9104176417],
			"AUX_ENDO_LAG_15_1": [1,0.9837080004,0.975568528,0.9696905716,0.9644986169,0.9595407453,0.9546797894,0.9498700989,0.9450952856,0.9403492375,0.9356296591,0.9309356658,0.9262668546,0.921622958,0.9170037295,0.9124089173,0.9078382661,0.9032915237,0.8987684472,0.8942688058,0.8897923819],
			"AUX_ENDO_LAG_15_2": [1,0.9837080004,0.975568528,0.9696905716,0.9644986169,0.9595407453,0.9546797894,0.9498700989,0.9450952856,0.9403492375,0.9356296591,0.9309356658,0.9262668546,0.921622958,0.9170037295,0.9124089173,0.9078382661,0.9032915237,0.8987684472,0.8942688058,0.8897923819],
			"AUX_ENDO_LAG_15_3": [1,0.9837080004,0.975568528,0.9696905716,0.9644986169,0.9595407453,0.9546797894,0.9498700989,0.9450952856,0.9403492375,0.9356296591,0.9309356658,0.9262668546,0.921622958,0.9170037295,0.9124089173,0.9078382661,0.9032915237,0.8987684472,0.8942688058,0.8897923819]
		},
		"VAR": {
			"p": 131.2855217,
			"y": 174.4459253,
			"lambdda": 205.2286131,
			"w": 1593.921231,
			"R": 125.5888575,
			"z": 0.2665621837,
			"lambddap": 0.01698013316,
			"b": 25.3629935,
			"pit": 100.2506266,
			"ystar": 0.06727326541,
			"lambddastar": 29.68725643,
			"wstar": 0,
			"Rstar": 0.4211949973,
			"interest": 2009.421721,
			"inflation": 2086.95854,
			"inflationq": 33.86171619,
			"outputgap": 174.0916201,
			"output": 174.4459253,
			"AUX_ENDO_LEAD_77": 33.02901026,
			"AUX_ENDO_LEAD_81": 32.63421603,
			"AUX_ENDO_LEAD_85": 32.28443054,
			"AUX_ENDO_LEAD_112": 172.6150648,
			"AUX_ENDO_LEAD_116": 170.1611735,
			"AUX_ENDO_LEAD_120": 167.6651122,
			"AUX_ENDO_LEAD_147": 172.9093486,
			"AUX_ENDO_LEAD_151": 170.3851906,
			"AUX_ENDO_LEAD_155": 167.8321937,
			"AUX_ENDO_LAG_0_1": 131.2855217,
			"AUX_ENDO_LAG_0_2": 131.2855217,
			"AUX_ENDO_LAG_17_1": 174.4459253,
			"AUX_ENDO_LAG_17_2": 174.4459253,
			"AUX_ENDO_LAG_17_3": 174.4459253,
			"AUX_ENDO_LAG_16_1": 174.0916201,
			"AUX_ENDO_LAG_16_2": 174.0916201,
			"AUX_ENDO_LAG_16_3": 174.0916201,
			"AUX_ENDO_LAG_13_1": 2009.421721,
			"AUX_ENDO_LAG_13_2": 2009.421721,
			"AUX_ENDO_LAG_13_3": 2009.421721,
			"AUX_ENDO_LAG_15_1": 33.86171619,
			"AUX_ENDO_LAG_15_2": 33.86171619,
			"AUX_ENDO_LAG_15_3": 33.86171619
		},
		"IRF": {
			"interest_": {
				"p": [0,-0.003248676914,-0.001833366142,-0.000925932168,-0.000418582221,-0.0001649720554,-5.144199841e-05,-7.323355873e-06,6.032032973e-06,7.607248497e-06,5.730162817e-06,3.540972215e-06,1.927696914e-06,9.42773166e-07,4.114991114e-07,1.539556549e-07,4.272621623e-08,1.797092711e-09,-9.097979151e-09,-9.133412473e-09,-6.410119657e-09],
				"y": [0,-0.1198578152,-0.1148316198,-0.07935259365,-0.04663658567,-0.0244062678,-0.01147955962,-0.004774234167,-0.001649181343,-0.000365007014,6.915631782e-05,0.0001583370299,0.0001335384786,8.731496494e-05,4.94974376e-05,2.512022837e-05,1.143664885e-05,4.552627202e-06,1.448647452e-06,2.297955437e-07,-1.473888804e-07],
				"lambdda": [0,0.4068937533,0.1846247549,0.07281008701,0.02240362264,0.002944895598,-0.00286046012,-0.003473850545,-0.002589872372,-0.001591413895,-0.0008626739433,-0.0004201911082,-0.0001825168343,-6.777139135e-05,-1.846025037e-05,-4.592537391e-07,4.233441198e-06,4.15453503e-06,2.891738352e-06,1.707113367e-06,8.966508688e-07],
				"w": [0,-0.6466093836,-0.4142879946,-0.2315152743,-0.115676794,-0.0517574312,-0.02009865913,-0.006074617789,-0.0007084903149,0.0008613998674,0.001000986579,0.000736865168,0.0004495937916,0.0002424013212,0.0001174551256,5.069971048e-05,1.86398565e-05,4.950719374e-06,5.556552707e-09,-1.247522279e-06,-1.19142863e-06],
				"R": [0,0.2204356323,0.1108887357,0.04998788215,0.01929375499,0.005753913719,0.0006060670686,-0.0008779461402,-0.0009908512278,-0.0007230097893,-0.0004389418628,-0.0002357465769,-0.0001138026698,-4.889964187e-05,-1.784704097e-05,-4.649968721e-06,8.070326087e-08,1.253698699e-06,1.175491573e-06,8.040523781e-07,4.695242524e-07],
				"z": [0,0,5.982405601e-34,5.917068113e-34,5.41485043e-34,5.129566072e-34,4.997181074e-34,4.932831794e-34,4.894522792e-34,4.86549941e-34,4.839693281e-34,4.815023262e-34,4.790799833e-34,4.766799678e-34,4.742951434e-34,4.719232309e-34,4.695634816e-34,4.672156237e-34,4.648795333e-34,4.62555132e-34,4.602423552e-34],
				"lambddap": [0,-8.064434435e-18,-2.056430781e-18,-5.243898491e-19,-1.337194115e-19,-3.409844994e-20,-8.695104734e-21,-2.217251707e-21,-5.653991853e-22,-1.441767923e-22,-3.676508203e-23,-9.375095917e-24,-2.390649459e-24,-6.096156125e-25,-1.554519816e-25,-3.964025569e-26,-1.010826558e-26,-2.577608106e-27,-6.572904475e-28,-1.676094426e-28,-4.274078442e-29],
				"b": [0,0,0,0,0,0,0,0,0,0,0,0,0,0,0,0,0,0,0,0,0],
				"pit": [0,-1.301042607e-18,-1.294537394e-18,-1.288064707e-18,-1.281624383e-18,-1.275216262e-18,-1.26884018e-18,-1.262495979e-18,-1.256183499e-18,-1.249902582e-18,-1.243653069e-18,-1.237434804e-18,-1.23124763e-18,-1.225091392e-18,-1.218965935e-18,-1.212871105e-18,-1.206806749e-18,-1.200772716e-18,-1.194768852e-18,-1.188795008e-18,-1.182851033e-18],
				"ystar": [0,-1.496857762e-16,-2.71492356e-16,-2.216234962e-16,-1.421692014e-16,-8.015981466e-17,-4.070071462e-17,-1.861180463e-17,-7.478626794e-18,-2.432251964e-18,-4.3038039e-19,2.040266061e-19,3.032199848e-19,2.375075448e-19,1.497923571e-19,8.277285129e-20,4.104742999e-20,1.820774454e-20,6.98065637e-21,2.051125502e-21,1.900182681e-22],
				"lambddastar": [0,-2.993715523e-16,-9.94793305e-16,-6.956673182e-16,-4.115666686e-16,-2.157993706e-16,-1.021240158e-16,-4.295028218e-17,-1.517594144e-17,-3.623926994e-18,3.779773622e-19,1.275757628e-18,1.120677365e-18,7.459705014e-19,4.279192106e-19,2.19397479e-19,1.009883803e-19,4.081052282e-20,1.337260402e-20,2.428474946e-21,-1.067615319e-21],
				"wstar": [0,0,0,0,0,0,0,0,0,0,0,0,0,0,0,0,0,0,0,0,0],
				"Rstar": [0,6.954217526e-16,-2.991259868e-16,-2.841006497e-16,-1.957672979e-16,-1.136753548e-16,-5.917373364e-17,-2.777434074e-17,-1.155201445e-17,-4.001904356e-18,-8.977802654e-19,1.550802624e-19,3.747068638e-19,3.180512908e-19,2.085217315e-19,1.184090987e-19,6.017785747e-20,2.743791879e-20,1.094412908e-20,3.496090265e-21,5.653744649e-22],
				"interest": [0,0.8817425293,0.4435549428,0.1999515286,0.07717501994,0.02301565488,0.002424268274,-0.003511784561,-0.003963404911,-0.002892039157,-0.001755767451,-0.0009429863077,-0.0004552106794,-0.0001955985675,-7.138816389e-05,-1.859987488e-05,3.228130435e-07,5.014794796e-06,4.701966291e-06,3.216209512e-06,1.87809701e-06],
				"inflation": [0,-0.003248676914,-0.005082043056,-0.006007975224,-0.006426557445,-0.003342852586,-0.001560928443,-0.0006423196307,-0.0002177053767,-4.512607281e-05,1.204608841e-05,2.29104165e-05,1.880608044e-05,1.214160511e-05,6.822941406e-06,3.435924846e-06,1.550954149e-06,6.099780752e-07,1.893809847e-07,2.629191731e-08,-2.284441857e-08],
				"inflationq": [0,-0.01299470766,-0.007333464567,-0.003703728672,-0.001674328884,-0.0006598882217,-0.0002057679936,-2.929342349e-05,2.412813189e-05,3.042899399e-05,2.292065127e-05,1.416388886e-05,7.710787656e-06,3.771092664e-06,1.645996445e-06,6.158226197e-07,1.709048649e-07,7.18837085e-09,-3.63919166e-08,-3.653364989e-08,-2.564047862e-08],
				"outputgap": [0,-0.1198578152,-0.1148316198,-0.07935259365,-0.04663658567,-0.0244062678,-0.01147955962,-0.004774234167,-0.001649181343,-0.000365007014,6.915631782e-05,0.0001583370299,0.0001335384786,8.731496494e-05,4.94974376e-05,2.512022837e-05,1.143664885e-05,4.552627202e-06,1.448647452e-06,2.297955437e-07,-1.473888804e-07],
				"output": [0,-0.1198578152,-0.1148316198,-0.07935259365,-0.04663658567,-0.0244062678,-0.01147955962,-0.004774234167,-0.001649181343,-0.000365007014,6.915631782e-05,0.0001583370299,0.0001335384786,8.731496494e-05,4.94974376e-05,2.512022837e-05,1.143664885e-05,4.552627202e-06,1.448647452e-06,2.297955437e-07,-1.473888804e-07],
				"AUX_ENDO_LEAD_77": [0,-0.007333464567,-0.003703728672,-0.001674328884,-0.0006598882217,-0.0002057679936,-2.929342349e-05,2.412813189e-05,3.042899399e-05,2.292065127e-05,1.416388886e-05,7.710787656e-06,3.771092664e-06,1.645996445e-06,6.158226197e-07,1.709048649e-07,7.18837085e-09,-3.63919166e-08,-3.653364989e-08,-2.564047862e-08,-1.521351972e-08],
				"AUX_ENDO_LEAD_81": [0,-0.003703728672,-0.001674328884,-0.0006598882217,-0.0002057679936,-2.929342349e-05,2.412813189e-05,3.042899399e-05,2.292065127e-05,1.416388886e-05,7.710787656e-06,3.771092664e-06,1.645996445e-06,6.158226197e-07,1.709048649e-07,7.18837085e-09,-3.63919166e-08,-3.653364989e-08,-2.564047862e-08,-1.521351972e-08,-8.023763742e-09],
				"AUX_ENDO_LEAD_85": [0,-0.001674328884,-0.0006598882217,-0.0002057679936,-2.929342349e-05,2.412813189e-05,3.042899399e-05,2.292065127e-05,1.416388886e-05,7.710787656e-06,3.771092664e-06,1.645996445e-06,6.158226197e-07,1.709048649e-07,7.18837085e-09,-3.63919166e-08,-3.653364989e-08,-2.564047862e-08,-1.521351972e-08,-8.023763742e-09,-3.804025067e-09],
				"AUX_ENDO_LEAD_112": [0,-0.1148316198,-0.07935259365,-0.04663658567,-0.0244062678,-0.01147955962,-0.004774234167,-0.001649181343,-0.000365007014,6.915631782e-05,0.0001583370299,0.0001335384786,8.731496494e-05,4.94974376e-05,2.512022837e-05,1.143664885e-05,4.552627202e-06,1.448647452e-06,2.297955437e-07,-1.473888804e-07,-1.987473188e-07],
				"AUX_ENDO_LEAD_116": [0,-0.07935259365,-0.04663658567,-0.0244062678,-0.01147955962,-0.004774234167,-0.001649181343,-0.000365007014,6.915631782e-05,0.0001583370299,0.0001335384786,8.731496494e-05,4.94974376e-05,2.512022837e-05,1.143664885e-05,4.552627202e-06,1.448647452e-06,2.297955437e-07,-1.473888804e-07,-1.987473188e-07,-1.522887769e-07],
				"AUX_ENDO_LEAD_120": [0,-0.04663658567,-0.0244062678,-0.01147955962,-0.004774234167,-0.001649181343,-0.000365007014,6.915631782e-05,0.0001583370299,0.0001335384786,8.731496494e-05,4.94974376e-05,2.512022837e-05,1.143664885e-05,4.552627202e-06,1.448647452e-06,2.297955437e-07,-1.473888804e-07,-1.987473188e-07,-1.522887769e-07,-9.497486356e-08],
				"AUX_ENDO_LEAD_147": [0,-0.1148316198,-0.07935259365,-0.04663658567,-0.0244062678,-0.01147955962,-0.004774234167,-0.001649181343,-0.000365007014,6.915631782e-05,0.0001583370299,0.0001335384786,8.731496494e-05,4.94974376e-05,2.512022837e-05,1.143664885e-05,4.552627202e-06,1.448647452e-06,2.297955437e-07,-1.473888804e-07,-1.987473188e-07],
				"AUX_ENDO_LEAD_151": [0,-0.07935259365,-0.04663658567,-0.0244062678,-0.01147955962,-0.004774234167,-0.001649181343,-0.000365007014,6.915631782e-05,0.0001583370299,0.0001335384786,8.731496494e-05,4.94974376e-05,2.512022837e-05,1.143664885e-05,4.552627202e-06,1.448647452e-06,2.297955437e-07,-1.473888804e-07,-1.987473188e-07,-1.522887769e-07],
				"AUX_ENDO_LEAD_155": [0,-0.04663658567,-0.0244062678,-0.01147955962,-0.004774234167,-0.001649181343,-0.000365007014,6.915631782e-05,0.0001583370299,0.0001335384786,8.731496494e-05,4.94974376e-05,2.512022837e-05,1.143664885e-05,4.552627202e-06,1.448647452e-06,2.297955437e-07,-1.473888804e-07,-1.987473188e-07,-1.522887769e-07,-9.497486356e-08],
				"AUX_ENDO_LAG_0_1": [0,0,-0.003248676914,-0.001833366142,-0.000925932168,-0.000418582221,-0.0001649720554,-5.144199841e-05,-7.323355873e-06,6.032032973e-06,7.607248497e-06,5.730162817e-06,3.540972215e-06,1.927696914e-06,9.42773166e-07,4.114991114e-07,1.539556549e-07,4.272621623e-08,1.797092711e-09,-9.097979151e-09,-9.133412473e-09],
				"AUX_ENDO_LAG_0_2": [0,0,7.728396611e-17,-0.003248676914,-0.001833366142,-0.000925932168,-0.000418582221,-0.0001649720554,-5.144199841e-05,-7.323355873e-06,6.032032973e-06,7.607248497e-06,5.730162817e-06,3.540972215e-06,1.927696914e-06,9.42773166e-07,4.114991114e-07,1.539556549e-07,4.272621623e-08,1.797092711e-09,-9.097979151e-09],
				"AUX_ENDO_LAG_17_1": [0,0,-0.1198578152,-0.1148316198,-0.07935259365,-0.04663658567,-0.0244062678,-0.01147955962,-0.004774234167,-0.001649181343,-0.000365007014,6.915631782e-05,0.0001583370299,0.0001335384786,8.731496494e-05,4.94974376e-05,2.512022837e-05,1.143664885e-05,4.552627202e-06,1.448647452e-06,2.297955437e-07],
				"AUX_ENDO_LAG_17_2": [0,0,0,-0.1198578152,-0.1148316198,-0.07935259365,-0.04663658567,-0.0244062678,-0.01147955962,-0.004774234167,-0.001649181343,-0.000365007014,6.915631782e-05,0.0001583370299,0.0001335384786,8.731496494e-05,4.94974376e-05,2.512022837e-05,1.143664885e-05,4.552627202e-06,1.448647452e-06],
				"AUX_ENDO_LAG_17_3": [0,0,0,0,-0.1198578152,-0.1148316198,-0.07935259365,-0.04663658567,-0.0244062678,-0.01147955962,-0.004774234167,-0.001649181343,-0.000365007014,6.915631782e-05,0.0001583370299,0.0001335384786,8.731496494e-05,4.94974376e-05,2.512022837e-05,1.143664885e-05,4.552627202e-06],
				"AUX_ENDO_LAG_16_1": [0,0,-0.1198578152,-0.1148316198,-0.07935259365,-0.04663658567,-0.0244062678,-0.01147955962,-0.004774234167,-0.001649181343,-0.000365007014,6.915631782e-05,0.0001583370299,0.0001335384786,8.731496494e-05,4.94974376e-05,2.512022837e-05,1.143664885e-05,4.552627202e-06,1.448647452e-06,2.297955437e-07],
				"AUX_ENDO_LAG_16_2": [0,0,0,-0.1198578152,-0.1148316198,-0.07935259365,-0.04663658567,-0.0244062678,-0.01147955962,-0.004774234167,-0.001649181343,-0.000365007014,6.915631782e-05,0.0001583370299,0.0001335384786,8.731496494e-05,4.94974376e-05,2.512022837e-05,1.143664885e-05,4.552627202e-06,1.448647452e-06],
				"AUX_ENDO_LAG_16_3": [0,0,0,0,-0.1198578152,-0.1148316198,-0.07935259365,-0.04663658567,-0.0244062678,-0.01147955962,-0.004774234167,-0.001649181343,-0.000365007014,6.915631782e-05,0.0001583370299,0.0001335384786,8.731496494e-05,4.94974376e-05,2.512022837e-05,1.143664885e-05,4.552627202e-06],
				"AUX_ENDO_LAG_13_1": [0,0,0.8817425293,0.4435549428,0.1999515286,0.07717501994,0.02301565488,0.002424268274,-0.003511784561,-0.003963404911,-0.002892039157,-0.001755767451,-0.0009429863077,-0.0004552106794,-0.0001955985675,-7.138816389e-05,-1.859987488e-05,3.228130435e-07,5.014794796e-06,4.701966291e-06,3.216209512e-06],
				"AUX_ENDO_LAG_13_2": [0,0,0,0.8817425293,0.4435549428,0.1999515286,0.07717501994,0.02301565488,0.002424268274,-0.003511784561,-0.003963404911,-0.002892039157,-0.001755767451,-0.0009429863077,-0.0004552106794,-0.0001955985675,-7.138816389e-05,-1.859987488e-05,3.228130435e-07,5.014794796e-06,4.701966291e-06],
				"AUX_ENDO_LAG_13_3": [0,0,0,0,0.8817425293,0.4435549428,0.1999515286,0.07717501994,0.02301565488,0.002424268274,-0.003511784561,-0.003963404911,-0.002892039157,-0.001755767451,-0.0009429863077,-0.0004552106794,-0.0001955985675,-7.138816389e-05,-1.859987488e-05,3.228130435e-07,5.014794796e-06],
				"AUX_ENDO_LAG_15_1": [0,0,-0.01299470766,-0.007333464567,-0.003703728672,-0.001674328884,-0.0006598882217,-0.0002057679936,-2.929342349e-05,2.412813189e-05,3.042899399e-05,2.292065127e-05,1.416388886e-05,7.710787656e-06,3.771092664e-06,1.645996445e-06,6.158226197e-07,1.709048649e-07,7.18837085e-09,-3.63919166e-08,-3.653364989e-08],
				"AUX_ENDO_LAG_15_2": [0,0,2.635021804e-16,-0.01299470766,-0.007333464567,-0.003703728672,-0.001674328884,-0.0006598882217,-0.0002057679936,-2.929342349e-05,2.412813189e-05,3.042899399e-05,2.292065127e-05,1.416388886e-05,7.710787656e-06,3.771092664e-06,1.645996445e-06,6.158226197e-07,1.709048649e-07,7.18837085e-09,-3.63919166e-08],
				"AUX_ENDO_LAG_15_3": [0,0,-1.967567144e-19,2.633081791e-16,-0.01299470766,-0.007333464567,-0.003703728672,-0.001674328884,-0.0006598882217,-0.0002057679936,-2.929342349e-05,2.412813189e-05,3.042899399e-05,2.292065127e-05,1.416388886e-05,7.710787656e-06,3.771092664e-06,1.645996445e-06,6.158226197e-07,1.709048649e-07,7.18837085e-09]
			}
		}
	}
}
