{
	"model": "US_CD08",
	"rule": "OW13",
	"data": {
		"AC": {
			"lambda": [1,0.8917671244,0.7728222455,0.6641478273,0.5760808295,0.5143903759,0.4660523965,0.4262152002,0.3933438986,0.3667054814,0.3447272723,0.3261551118,0.3101918282,0.2963165167,0.2840933965,0.2731694641,0.263279267,0.2542273017,0.2458635754,0.2380709435,0.2307584589],
			"c": [1,0.8096589169,0.6660060545,0.5578391286,0.4778451441,0.4195498088,0.3751034671,0.3402418987,0.3125317108,0.2902893263,0.2720816792,0.2568662765,0.2439242578,0.2327433996,0.2229332599,0.2141973928,0.2063143167,0.1991182289,0.1924828452,0.1863110895,0.1805281559],
			"b": [1,0.7206,0.51926436,0.3741818978,0.2696354756,0.1942993237,0.1400120927,0.100892714,0.07270328968,0.05238999055,0.03775222719,0.02720425491,0.01960338609,0.01412620002,0.01017933973,0.00733523221,0.005285768331,0.003808924659,0.002744711109,0.001977838825,0.001425230658],
			"m": [1,0.79034555,0.6117595476,0.4650964334,0.3517127392,0.2762901653,0.2221948636,0.1814465076,0.1505539774,0.1278561547,0.1111074927,0.09852592804,0.08894588701,0.08162368624,0.07598269144,0.07157528291,0.06807380731,0.06524546377,0.06291961425,0.06096880822,0.05929838365],
			"e": [1,0.6156,0.37896336,0.2332898444,0.1436132282,0.08840830329,0.05442415151,0.03350350767,0.02062475932,0.01269660184,0.007816028091,0.004811546893,0.002961988267,0.001823399977,0.001122485026,0.000691001782,0.000425380697,0.0002618643571,0.0001612036982,9.923699663e-05,6.109029512e-05],
			"r": [1,0.8821819625,0.6740320581,0.4467045635,0.2496891961,0.1560591386,0.1000347222,0.05748756445,0.0240108814,0.002440404162,-0.01095391715,-0.01968246844,-0.0255168009,-0.02905552772,-0.03088127665,-0.031546713,-0.03144434362,-0.03080802677,-0.02979925662,-0.02854264593,-0.02713110392],
			"h": [1,0.4524585109,0.1978008356,0.09567346265,0.06325069151,0.02246950348,-0.005375433425,-0.01865461929,-0.02297377789,-0.0253158664,-0.02661396314,-0.02681323075,-0.02619766205,-0.0252941305,-0.02432414518,-0.02333106681,-0.02233046585,-0.02135206975,-0.02041407219,-0.01952004021,-0.01866800803],
			"w": [1,0.8817121052,0.7822694495,0.7047535404,0.6490652049,0.5978894608,0.5527340578,0.5142918158,0.4821180325,0.4544298455,0.4302851477,0.4091222962,0.390476039,0.3738715573,0.3589242389,0.3453417876,0.3328959217,0.3213997112,0.3107021114,0.3006832047,0.2912478878],
			"y": [1,0.7670841232,0.6183830076,0.5202481747,0.4526432797,0.3969840239,0.353641387,0.3204745259,0.2947547049,0.273903185,0.2567260792,0.2424516514,0.2304376885,0.2201362515,0.2111572027,0.2032220912,0.1961193824,0.1896824212,0.1837828835,0.1783229741,0.1732274364],
			"k": [1,0.991790453,0.9735683546,0.9493677354,0.9217354499,0.8922937722,0.8621178204,0.831897966,0.8020652625,0.7728827118,0.7445080679,0.717030397,0.6904934875,0.6649117562,0.6402810856,0.6165857638,0.5938029214,0.5719054389,0.5508638772,0.5306477339,0.511226249],
			"a": [1,0.7625,0.58140625,0.4433222656,0.3380332275,0.257750336,0.1965346312,0.1498576563,0.1142664629,0.08712817798,0.06643523571,0.05065686723,0.03862586126,0.02945221921,0.02245731715,0.01712370433,0.01305682455,0.009955828718,0.007591319398,0.005788381041,0.004413640543],
			"i": [1,0.6339568177,0.4059370727,0.2629588613,0.171649975,0.1089070124,0.06736820889,0.04052851393,0.02328864463,0.01199331363,0.004647916538,-1.134940647e-05,-0.002870738207,-0.004556704594,-0.005471501991,-0.005873490105,-0.005935751355,-0.005777331432,-0.005478439009,-0.00509246805,-0.004655254904],
			"cost": [1,0.2383967358,-0.04510835505,-0.08121015303,-0.0135023213,-0.02248705051,-0.03641557418,-0.03613746992,-0.02608455859,-0.01935179782,-0.01552815505,-0.01245970697,-0.009471764104,-0.007080017216,-0.005359587315,-0.004103135814,-0.003135660982,-0.002395198968,-0.00184235635,-0.001431711147,-0.001122701644],
			"z": [1,0.6299860402,0.4483042741,0.3707903138,0.3445824484,0.3041061638,0.2695739011,0.2452706459,0.2284000625,0.2135654724,0.2001243683,0.1882493869,0.1777835669,0.1682711604,0.1594710087,0.1512888447,0.1436595103,0.1365087528,0.1297755409,0.1234164775,0.1173984572],
			"mu": [1,-0.08770979757,-0.08228837126,-0.08136738835,-0.0841846312,-0.04768232388,-0.03000244612,-0.02205187254,-0.0178713292,-0.01279586231,-0.008873877572,-0.006327387431,-0.004690792126,-0.003435208668,-0.002473975093,-0.001778107032,-0.001287364599,-0.0009308271978,-0.0006674789328,-0.000474401157,-0.0003344499818],
			"pi": [1,0.213891153,-0.03476586927,-0.05040609311,-0.01680848824,-0.03763972051,-0.05001496217,-0.0456380321,-0.03489039319,-0.02768670868,-0.0227528701,-0.01838878239,-0.01444469297,-0.0113697223,-0.009111316241,-0.007424611714,-0.006140617196,-0.005182147417,-0.004484717102,-0.003983385867,-0.003625201767],
			"q": [1,0.9178505142,0.8349940123,0.760794781,0.6985853862,0.6492129458,0.606802572,0.5691732506,0.5355266079,0.5053762992,0.4779620786,0.4527098984,0.4292555525,0.4073544421,0.3868028652,0.3674359597,0.3491269349,0.3317778835,0.3153092377,0.2996545443,0.2847577352],
			"x": [1,0.6562,0.43059844,0.2825586963,0.1854150165,0.1216693338,0.07983941687,0.05239062535,0.03437872835,0.02255932155,0.0148034268,0.009714008665,0.006374332486,0.004182836977,0.002744777625,0.001801123077,0.001181896963,0.0007755607873,0.0005089229886,0.0003339552651,0.000219141445],
			"f": [1,-0.006584337527,-0.0525730795,-0.06989316039,-0.07758877653,-0.039997463,-0.02545808158,-0.02020371888,-0.01746282076,-0.01295058627,-0.009533415915,-0.007427961148,-0.006093587887,-0.005007785606,-0.004147551298,-0.00351169746,-0.003047217607,-0.002688679674,-0.002403522546,-0.002175500637,-0.001991584796],
			"n": [1,0.9374121808,0.8781362728,0.8249309791,0.7785539682,0.7391565807,0.7039341962,0.6717286762,0.6420480502,0.6145943451,0.5889716588,0.5648764935,0.5421066552,0.5205208234,0.5000011589,0.4804503897,0.461790556,0.4439585163,0.4269008901,0.4105714106,0.3949294882],
			"rp": [1,0.9686809554,0.9347738721,0.8996207356,0.8641665716,0.8291038278,0.7948134674,0.761509226,0.7293123078,0.6982889798,0.6684623734,0.6398275068,0.6123629438,0.5860380321,0.5608165941,0.5366594126,0.5135260114,0.4913758227,0.4701688571,0.4498660929,0.4304297091],
			"lambda_f": [1,0.8064601469,0.6678229235,0.5673806636,0.4937390461,0.4390625713,0.3979176376,0.3665046579,0.3421448005,0.322934359,0.3075101821,0.294889189,0.2843576648,0.2753942615,0.2676160025,0.2607401138,0.254556835,0.2489099086,0.2436824844,0.2387868697,0.2341570332],
			"c_f": [1,0.789540191,0.6412125323,0.5353316469,0.4587213201,0.4024879406,0.3605759347,0.3288250522,0.3043511936,0.2851368857,0.2697583734,0.2572022933,0.2467414868,0.2378501425,0.2301452987,0.2233461599,0.217245554,0.2116897374,0.2065639904,0.2017822633,0.1972796816],
			"m_f": [1,0.713240961,0.5120653373,0.3705654204,0.2708323481,0.2004390212,0.1507284361,0.1156460573,0.09094066478,0.07361549329,0.06154990431,0.05323762554,0.04760494089,0.04388391144,0.04152361489,0.04012775026,0.03941059827,0.03916581173,0.03924421004,0.03953791818,0.03996899453],
			"r_f": [1,0.6601472727,0.4332461296,0.2812136115,0.1790173672,0.1101435634,0.06365509501,0.03227747298,0.011150137,-0.002990448323,-0.01234687154,-0.01841375079,-0.02221100118,-0.02443860617,-0.02557975131,-0.02596986918,-0.02584309428,-0.02536368569,-0.02464740178,-0.023776126,-0.02280793628],
			"h_f": [1,0.6615983632,0.4436598719,0.3028367824,0.2114585675,0.1518392473,0.1126594146,0.08666422012,0.06919697063,0.05726391786,0.04893710133,0.04297257753,0.03856604027,0.0351961844,0.03252417404,0.03032902944,0.0284660388,0.02683994882,0.02538765448,0.02406700276,0.0228495375],
			"w_f": [1,0.8481259754,0.732269479,0.6434163623,0.5748698706,0.5216343444,0.4799699759,0.4470687291,0.4208168668,0.3996199063,0.3822729234,0.3678640249,0.3557022297,0.345263409,0.336149652,0.3280586495,0.320760582,0.3140806416,0.3078857993,0.302074772,0.2965704108],
			"y_f": [1,0.8337456863,0.7099842595,0.6170931631,0.5467786083,0.4930747356,0.4516584912,0.4193762107,0.3939134269,0.3735624675,0.357057443,0.343456111,0.3320546467,0.3223257174,0.3138732002,0.3063988789,0.299677827,0.293540129,0.287857256,0.2825318757,0.2774902096],
			"k_f": [1,0.994375498,0.981630741,0.9644749469,0.9446837295,0.9234184929,0.9014364403,0.879228717,0.8571113192,0.8352849497,0.8138744488,0.7929547848,0.7725681961,0.7527355044,0.733463585,0.7147503027,0.6965877739,0.6789645232,0.6618669075,0.6452800567,0.6291884923],
			"i_f": [1,0.7201139468,0.532274401,0.4054807096,0.3192620739,0.2600818273,0.2189742885,0.1899904633,0.1691748589,0.1538912725,0.1423780473,0.1334543382,0.1263258459,0.1204561372,0.1154812595,0.1111529738,0.1073009287,0.1038073961,0.1005903482,0.09759208841,0.09477158779],
			"z_f": [1,0.8739183901,0.7752910983,0.6969297776,0.6336690417,0.581765203,0.5384831827,0.501809862,0.4702532206,0.4427002499,0.4183155395,0.3964682844,0.3766793428,0.3585825679,0.3418963867,0.3264027947,0.3119317546,0.2983495588,0.2855501154,0.2734484018,0.2619755322],
			"q_f": [1,0.8846037986,0.7952855858,0.7241162187,0.6657584545,0.6165984465,0.5741725471,0.5367879354,0.503270746,0.472798276,0.4447867845,0.4188161582,0.3945791035,0.3718467133,0.3504450082,0.3302388637,0.3111209308,0.2930039488,0.2758153746,0.2594936028,0.243985285],
			"f_f": [1,-0.1129437312,-0.07703748856,-0.05297529489,-0.03677722837,-0.02581799258,-0.01836138498,-0.01325594211,-0.009735630908,-0.007289097118,-0.005573721862,-0.004359010598,-0.003489216349,-0.002858598924,-0.002395002234,-0.002048919429,-0.001786187439,-0.001583088287,-0.00142305108,-0.001294422022,-0.001188949552],
			"n_f": [1,0.9359626701,0.8827274674,0.8371966855,0.7972770688,0.7615436214,0.7290177012,0.6990201302,0.6710736511,0.6448379286,0.6200660691,0.5965754135,0.5742278256,0.5529163214,0.5325559496,0.5130775334,0.4944233471,0.4765441087,0.4593968703,0.4429435272,0.4271497523],
			"interest": [1,0.8821819625,0.6740320581,0.4467045635,0.2496891961,0.1560591386,0.1000347222,0.05748756445,0.0240108814,0.002440404162,-0.01095391715,-0.01968246844,-0.0255168009,-0.02905552772,-0.03088127665,-0.031546713,-0.03144434362,-0.03080802677,-0.02979925662,-0.02854264593,-0.02713110392],
			"inflation": [1,0.7983911404,0.4945058736,0.1875970755,-0.06596249271,-0.1214984116,-0.1251883156,-0.1204492661,-0.1112527333,-0.09441709582,-0.07631963402,-0.06092279992,-0.04875490839,-0.03899441127,-0.03124233473,-0.02527770859,-0.0208047029,-0.01747945042,-0.01502234083,-0.01322782702,-0.01193748715],
			"inflationq": [1,0.213891153,-0.03476586927,-0.05040609311,-0.01680848824,-0.03763972051,-0.05001496217,-0.0456380321,-0.03489039319,-0.02768670868,-0.0227528701,-0.01838878239,-0.01444469297,-0.0113697223,-0.009111316241,-0.007424611714,-0.006140617196,-0.005182147417,-0.004484717102,-0.003983385867,-0.003625201767],
			"output": [1,0.7670841232,0.6183830076,0.5202481747,0.4526432797,0.3969840239,0.353641387,0.3204745259,0.2947547049,0.273903185,0.2567260792,0.2424516514,0.2304376885,0.2201362515,0.2111572027,0.2032220912,0.1961193824,0.1896824212,0.1837828835,0.1783229741,0.1732274364],
			"outputgap": [1,0.6538657626,0.5281551057,0.5130850924,0.5429581139,0.5383851517,0.5315272574,0.5306032138,0.5334861369,0.5344213891,0.5336820033,0.5322704196,0.530515871,0.528223336,0.525393538,0.5221467457,0.5185835355,0.5147512182,0.510684912,0.5064203754,0.5019894229],
			"AUX_ENDO_LEAD_75": [1,0.8640509844,0.6838025478,0.5629585355,0.4563775722,0.3516188167,0.2620376829,0.194218968,0.1434644759,0.104452587,0.07446425694,0.05184359096,0.03488570645,0.02205948536,0.0122529023,0.004697922319,-0.00117553466,-0.005802604399,-0.009504496956,-0.01251212998,-0.01499265289],
			"AUX_ENDO_LEAD_79": [1,0.8215356909,0.6514619647,0.5501145573,0.4454619412,0.3421320431,0.2561303888,0.1921751255,0.1435215154,0.1055282294,0.07613552982,0.05388499085,0.03705461158,0.02418245088,0.01424638237,0.006532464937,0.0004911924172,-0.004300944585,-0.008156264637,-0.01130079218,-0.01390069323],
			"AUX_ENDO_LEAD_83": [1,0.7936938723,0.6738755652,0.5503638131,0.4271290664,0.3227436201,0.2445307245,0.18481377,0.1380128562,0.1015889689,0.0738576239,0.05278701704,0.03661437819,0.02408856982,0.01433457278,0.006677744119,0.0005947964398,-0.004303387602,-0.008300156046,-0.01160476539,-0.01437364459],
			"AUX_ENDO_LEAD_110": [1,0.9215539801,0.9064660648,0.9219376462,0.9169683378,0.9096187337,0.9050747041,0.9026398165,0.8988688037,0.8938474225,0.888182309,0.8821269882,0.8755973182,0.8686093672,0.8612495826,0.853594836,0.8456884814,0.8375640351,0.8292538075,0.8207868477,0.8121869892],
			"AUX_ENDO_LEAD_114": [1,0.9927010589,0.9924480132,0.9880050475,0.9830736079,0.9780431747,0.9728690389,0.9669306609,0.9603283881,0.9532146099,0.9456889693,0.9377832517,0.9295439653,0.9210224841,0.912263227,0.9033000897,0.8941616697,0.8848732732,0.8754571407,0.865932569,0.8563165281],
			"AUX_ENDO_LEAD_118": [1,0.996751696,0.9919599966,0.9877368182,0.9835616114,0.9785443603,0.9726594694,0.9661575077,0.9591660338,0.9517189328,0.943864024,0.9356662308,0.9271816799,0.918451911,0.909510815,0.9003884119,0.8911109422,0.8817008636,0.8721776323,0.8625584749,0.8528588291],
			"AUX_ENDO_LEAD_145": [1,0.8307897417,0.7071130014,0.6154424768,0.5434447001,0.4871776368,0.4430119862,0.4079719567,0.3796066576,0.3563258827,0.3369787846,0.3206811255,0.3067391126,0.2946318191,0.2839674125,0.274446541,0.2658378699,0.2579632314,0.2506855528,0.2438989914,0.2375213944],
			"AUX_ENDO_LEAD_149": [1,0.8597948136,0.7510449553,0.6675705802,0.6022762345,0.5502647386,0.5083646679,0.4743363761,0.4463551492,0.4230064384,0.4032381806,0.3862656641,0.3714852383,0.3584301132,0.3467419262,0.3361462567,0.3264317991,0.3174351171,0.3090296114,0.3011170829,0.2936211093],
			"AUX_ENDO_LEAD_153": [1,0.8789265763,0.7861837558,0.7134953438,0.6552983844,0.6079935562,0.569329735,0.5373489951,0.5104922199,0.4875912548,0.4677916195,0.4504350934,0.4350089473,0.4211176013,0.4084585179,0.3967987679,0.3859578236,0.3757954722,0.3662027463,0.3570946763,0.3484046634],
			"AUX_ENDO_LAG_15_1": [1,0.213891153,-0.03476586927,-0.05040609311,-0.01680848824,-0.03763972051,-0.05001496217,-0.0456380321,-0.03489039319,-0.02768670868,-0.0227528701,-0.01838878239,-0.01444469297,-0.0113697223,-0.009111316241,-0.007424611714,-0.006140617196,-0.005182147417,-0.004484717102,-0.003983385867,-0.003625201767],
			"AUX_ENDO_LAG_15_2": [1,0.213891153,-0.03476586927,-0.05040609311,-0.01680848824,-0.03763972051,-0.05001496217,-0.0456380321,-0.03489039319,-0.02768670868,-0.0227528701,-0.01838878239,-0.01444469297,-0.0113697223,-0.009111316241,-0.007424611714,-0.006140617196,-0.005182147417,-0.004484717102,-0.003983385867,-0.003625201767],
			"AUX_ENDO_LAG_37_1": [1,0.7670841232,0.6183830076,0.5202481747,0.4526432797,0.3969840239,0.353641387,0.3204745259,0.2947547049,0.273903185,0.2567260792,0.2424516514,0.2304376885,0.2201362515,0.2111572027,0.2032220912,0.1961193824,0.1896824212,0.1837828835,0.1783229741,0.1732274364],
			"AUX_ENDO_LAG_37_2": [1,0.7670841232,0.6183830076,0.5202481747,0.4526432797,0.3969840239,0.353641387,0.3204745259,0.2947547049,0.273903185,0.2567260792,0.2424516514,0.2304376885,0.2201362515,0.2111572027,0.2032220912,0.1961193824,0.1896824212,0.1837828835,0.1783229741,0.1732274364],
			"AUX_ENDO_LAG_37_3": [1,0.7670841232,0.6183830076,0.5202481747,0.4526432797,0.3969840239,0.353641387,0.3204745259,0.2947547049,0.273903185,0.2567260792,0.2424516514,0.2304376885,0.2201362515,0.2111572027,0.2032220912,0.1961193824,0.1896824212,0.1837828835,0.1783229741,0.1732274364],
			"AUX_ENDO_LAG_38_1": [1,0.6538657626,0.5281551057,0.5130850924,0.5429581139,0.5383851517,0.5315272574,0.5306032138,0.5334861369,0.5344213891,0.5336820033,0.5322704196,0.530515871,0.528223336,0.525393538,0.5221467457,0.5185835355,0.5147512182,0.510684912,0.5064203754,0.5019894229],
			"AUX_ENDO_LAG_38_2": [1,0.6538657626,0.5281551057,0.5130850924,0.5429581139,0.5383851517,0.5315272574,0.5306032138,0.5334861369,0.5344213891,0.5336820033,0.5322704196,0.530515871,0.528223336,0.525393538,0.5221467457,0.5185835355,0.5147512182,0.510684912,0.5064203754,0.5019894229],
			"AUX_ENDO_LAG_38_3": [1,0.6538657626,0.5281551057,0.5130850924,0.5429581139,0.5383851517,0.5315272574,0.5306032138,0.5334861369,0.5344213891,0.5336820033,0.5322704196,0.530515871,0.528223336,0.525393538,0.5221467457,0.5185835355,0.5147512182,0.510684912,0.5064203754,0.5019894229],
			"AUX_ENDO_LAG_34_1": [1,0.8821819625,0.6740320581,0.4467045635,0.2496891961,0.1560591386,0.1000347222,0.05748756445,0.0240108814,0.002440404162,-0.01095391715,-0.01968246844,-0.0255168009,-0.02905552772,-0.03088127665,-0.031546713,-0.03144434362,-0.03080802677,-0.02979925662,-0.02854264593,-0.02713110392],
			"AUX_ENDO_LAG_34_2": [1,0.8821819625,0.6740320581,0.4467045635,0.2496891961,0.1560591386,0.1000347222,0.05748756445,0.0240108814,0.002440404162,-0.01095391715,-0.01968246844,-0.0255168009,-0.02905552772,-0.03088127665,-0.031546713,-0.03144434362,-0.03080802677,-0.02979925662,-0.02854264593,-0.02713110392],
			"AUX_ENDO_LAG_34_3": [1,0.8821819625,0.6740320581,0.4467045635,0.2496891961,0.1560591386,0.1000347222,0.05748756445,0.0240108814,0.002440404162,-0.01095391715,-0.01968246844,-0.0255168009,-0.02905552772,-0.03088127665,-0.031546713,-0.03144434362,-0.03080802677,-0.02979925662,-0.02854264593,-0.02713110392],
			"AUX_ENDO_LAG_36_1": [1,0.213891153,-0.03476586927,-0.05040609311,-0.01680848824,-0.03763972051,-0.05001496217,-0.0456380321,-0.03489039319,-0.02768670868,-0.0227528701,-0.01838878239,-0.01444469297,-0.0113697223,-0.009111316241,-0.007424611714,-0.006140617196,-0.005182147417,-0.004484717102,-0.003983385867,-0.003625201767],
			"AUX_ENDO_LAG_36_2": [1,0.213891153,-0.03476586927,-0.05040609311,-0.01680848824,-0.03763972051,-0.05001496217,-0.0456380321,-0.03489039319,-0.02768670868,-0.0227528701,-0.01838878239,-0.01444469297,-0.0113697223,-0.009111316241,-0.007424611714,-0.006140617196,-0.005182147417,-0.004484717102,-0.003983385867,-0.003625201767],
			"AUX_ENDO_LAG_36_3": [1,0.213891153,-0.03476586927,-0.05040609311,-0.01680848824,-0.03763972051,-0.05001496217,-0.0456380321,-0.03489039319,-0.02768670868,-0.0227528701,-0.01838878239,-0.01444469297,-0.0113697223,-0.009111316241,-0.007424611714,-0.006140617196,-0.005182147417,-0.004484717102,-0.003983385867,-0.003625201767]
		},
		"VAR": {
			"lambda": 0.0001305451491,
			"c": 0.0001602474688,
			"b": 0.0002206826188,
			"m": 0.0004888527932,
			"e": 8.580814169e-05,
			"r": 2.858428011e-06,
			"h": 0.0001434833614,
			"w": 0.0001107911321,
			"y": 0.0001882003613,
			"k": 0.0003333258125,
			"a": 0.0002201657335,
			"i": 0.002862378451,
			"cost": 5.964120664e-05,
			"z": 0.000398080348,
			"mu": 0.0001991450931,
			"pi": 5.789420574e-07,
			"q": 0.0008098648145,
			"x": 0.001924142955,
			"f": 0.0001181871652,
			"n": 0.003286372913,
			"rp": 3.024256568e-06,
			"lambda_f": 0.0001708889043,
			"c_f": 0.0001879745664,
			"m_f": 0.0007776315118,
			"r_f": 1.348778658e-05,
			"h_f": 6.049330124e-05,
			"w_f": 0.0001536324699,
			"y_f": 0.0002110006348,
			"k_f": 0.0004451297576,
			"i_f": 0.002980824474,
			"z_f": 0.00031935983,
			"q_f": 0.001205706557,
			"f_f": 0.0002671022677,
			"n_f": 0.00757835155,
			"interest": 4.573484818e-05,
			"inflation": 2.919877625e-06,
			"inflationq": 9.263072919e-06,
			"output": 0.0001882003613,
			"outputgap": 3.129892007e-05,
			"AUX_ENDO_LEAD_75": 2.740029327e-06,
			"AUX_ENDO_LEAD_79": 2.618799661e-06,
			"AUX_ENDO_LEAD_83": 1.803953777e-06,
			"AUX_ENDO_LEAD_110": 1.706487726e-05,
			"AUX_ENDO_LEAD_114": 1.546069286e-05,
			"AUX_ENDO_LEAD_118": 1.535807843e-05,
			"AUX_ENDO_LEAD_145": 0.0001166528642,
			"AUX_ENDO_LEAD_149": 8.213017426e-05,
			"AUX_ENDO_LEAD_153": 6.12834975e-05,
			"AUX_ENDO_LAG_15_1": 5.789420574e-07,
			"AUX_ENDO_LAG_15_2": 5.789420574e-07,
			"AUX_ENDO_LAG_37_1": 0.0001882003613,
			"AUX_ENDO_LAG_37_2": 0.0001882003613,
			"AUX_ENDO_LAG_37_3": 0.0001882003613,
			"AUX_ENDO_LAG_38_1": 3.129892007e-05,
			"AUX_ENDO_LAG_38_2": 3.129892007e-05,
			"AUX_ENDO_LAG_38_3": 3.129892007e-05,
			"AUX_ENDO_LAG_34_1": 4.573484818e-05,
			"AUX_ENDO_LAG_34_2": 4.573484818e-05,
			"AUX_ENDO_LAG_34_3": 4.573484818e-05,
			"AUX_ENDO_LAG_36_1": 9.263072919e-06,
			"AUX_ENDO_LAG_36_2": 9.263072919e-06,
			"AUX_ENDO_LAG_36_3": 9.263072919e-06
		},
		"IRF": {
			"interest_": {
				"lambda": [0,0.3919965812,0.1490974907,0.02829629408,-0.01307400167,0.009767929736,0.006446990047,-0.000579304169,-0.002638009604,0.001307550655,0.005529961807,0.009302364648,0.01310529902,0.01718280934,0.02123448081,0.02509542597,0.02874998192,0.03221732163,0.03549028492,0.03856021936,0.04142871181],
				"c": [0,-0.403104879,-0.1546773258,-0.02928453878,0.01641516316,-0.009022237163,-0.006464293809,0.0006718952434,0.003060080114,-0.0009446284122,-0.005257182957,-0.009059758273,-0.01285617659,-0.0169404525,-0.02100663901,-0.02488023664,-0.02854389642,-0.03201972825,-0.03530135232,-0.03837968842,-0.04125604826],
				"b": [0,0,0,0,0,0,0,0,0,0,0,0,0,0,0,0,0,0,0,0,0],
				"m": [0,-0.9954761856,-0.452232746,-0.08198458489,0.1945890143,0.03074325093,-0.007387050133,0.005609492046,0.02556780039,0.01840889693,0.009289272922,0.003877692434,0.0004287552348,-0.004016308513,-0.008856537211,-0.01340485278,-0.01755399117,-0.02148268224,-0.02522615885,-0.02875252947,-0.03204843271],
				"e": [0,0,0,0,0,0,0,0,0,0,0,0,0,0,0,0,0,0,0,0,0],
				"r": [0,0.1506634849,0.07568012845,0.01340370898,-0.04531666717,-0.01011393859,0.0002346934804,-0.001255826427,-0.005724604714,-0.004922368017,-0.003699739862,-0.00329050612,-0.003378884332,-0.003287121693,-0.003090252108,-0.002918644615,-0.002795168174,-0.002679988136,-0.002562520743,-0.002448567818,-0.002341861314],
				"h": [0,-0.9023958424,-0.4493512409,-0.2147895244,-0.1202733782,-0.1441049765,-0.1223977013,-0.09489633063,-0.07689333598,-0.07050087539,-0.06541133731,-0.06024333363,-0.05579586961,-0.05248405249,-0.04974311627,-0.04724678942,-0.04493671094,-0.04282056145,-0.04086055273,-0.03901709537,-0.03726986811],
				"w": [0,-0.8512194813,-0.3777691781,-0.137601173,-0.04813227492,-0.08310193916,-0.06873431973,-0.04771277134,-0.03649246849,-0.0371849505,-0.03881733151,-0.0399597736,-0.04149942481,-0.04389157467,-0.04654840297,-0.04913898495,-0.0516179582,-0.05400840431,-0.05628393294,-0.0584157449,-0.06039508568],
				"y": [0,-0.5970250893,-0.3099642151,-0.1631876509,-0.1067727176,-0.1276052644,-0.1181778896,-0.1044440086,-0.09650719724,-0.09586731553,-0.09581173047,-0.09544926846,-0.09532031285,-0.09571697477,-0.09628504078,-0.09682270559,-0.09730228148,-0.09773886016,-0.09811705271,-0.09841955391,-0.09864111447],
				"k": [0,-0.03745104649,-0.0623017186,-0.0803778091,-0.09534696219,-0.1099278087,-0.123110509,-0.1348539189,-0.1454608049,-0.1552470145,-0.1642797841,-0.1725938697,-0.180240915,-0.1872783542,-0.1937477237,-0.1996813047,-0.2051086782,-0.2100582477,-0.2145562754,-0.2186269791,-0.2222930775],
				"a": [0,0,0,0,0,0,0,0,0,0,0,0,0,0,0,0,0,0,0,0,0],
				"i": [0,-1.49804186,-1.031477931,-0.7853453383,-0.6791439329,-0.6785808232,-0.6372358214,-0.5928469039,-0.5591293577,-0.5369091895,-0.5165577981,-0.4968432094,-0.4784756817,-0.461738482,-0.4460531352,-0.4310909642,-0.4167762441,-0.4030914579,-0.3899793573,-0.377384421,-0.3652709151],
				"cost": [0,-1.156590234,-0.5171562039,-0.1892030465,-0.0616329355,-0.09960165119,-0.07295413137,-0.03816509337,-0.01687860723,-0.01181851036,-0.008416938349,-0.004753838768,-0.001974981574,-0.0006586523947,-6.478463509e-06,0.0004369312202,0.000747612336,0.0009098944049,0.0009725670378,0.00098671364,0.0009761606729],
				"z": [0,-1.753615324,-0.7896693725,-0.2900889787,-0.08802784399,-0.1318599534,-0.08120421228,-0.01949859294,0.02146811443,0.03777497899,0.05101834567,0.06407667685,0.07529857529,0.08386528785,0.09098683494,0.09736194935,0.1031266356,0.1082797125,0.112913762,0.1171234352,0.1209620253],
				"mu": [0,-1.193143217,0.451007834,0.325127093,0.2486070125,-0.1863204992,-0.05156517935,0.006204941444,0.01664377648,-0.008937947912,-0.009819580871,-0.00533891751,-0.002936508944,-0.003746437765,-0.004075678918,-0.00377762252,-0.003413227052,-0.003256519535,-0.003150501454,-0.003018956927,-0.002875978603],
				"pi": [0,-0.1976670312,-0.0922356056,-0.04512106812,-0.02796658676,-0.02247473577,-0.01343487828,-0.006791600736,-0.003314531862,-0.001779044455,-0.0006999568644,7.266297783e-05,0.0005124282556,0.0006986259834,0.0007645497801,0.0007706930479,0.0007359113422,0.0006721715282,0.0005929751557,0.0005074136989,0.0004199246346],
				"q": [0,-0.8811482219,-0.5846866134,-0.4252942571,-0.352194234,-0.343058157,-0.3101625731,-0.2762989475,-0.2495588131,-0.2302499399,-0.2125230029,-0.1956138068,-0.1799196818,-0.1655768689,-0.1522113262,-0.139605294,-0.1276952434,-0.116453471,-0.1058295966,-0.09577551519,-0.08625596316],
				"x": [0,0,0,0,0,0,0,0,0,0,0,0,0,0,0,0,0,0,0,0,0],
				"f": [0,-0.9153714476,0.2884209945,0.1646958923,0.0834621628,0.0174204968,0.04187666034,0.04393682657,0.03737138416,0.02982236686,0.02806455886,0.0270957648,0.02570526695,0.02412738264,0.0229051867,0.02190126339,0.02096422503,0.0200571127,0.01920425902,0.01840521447,0.01764784474],
				"n": [0,-2.002454125,-1.692100136,-1.507859377,-1.406170439,-1.370979315,-1.312095281,-1.251930931,-1.199017883,-1.154234336,-1.111759159,-1.070783898,-1.031705667,-0.9946851797,-0.9593449678,-0.9254480508,-0.8929099313,-0.8616836785,-0.8316989415,-0.802886713,-0.775190848],
				"rp": [0,0.04552190397,0.04389469576,0.04209186705,0.04026242821,0.03855572065,0.03691053236,0.03531267873,0.03376792712,0.03228697001,0.03086816764,0.02950820132,0.02820489296,0.02695685818,0.02576220855,0.02461878099,0.02352445241,0.02247722231,0.02147514892,0.02051633719,0.01959895591],
				"lambda_f": [0,-5.818260693e-16,-1.951789924e-16,-4.052233953e-16,-3.373703677e-16,-2.36487599e-16,-1.211643218e-16,-5.005114046e-17,8.840115634e-18,6.452731455e-17,1.180111116e-16,1.658387122e-16,2.089199199e-16,2.484239691e-16,2.849139894e-16,3.184360025e-16,3.491394479e-16,3.77239363e-16,4.029254853e-16,4.263383268e-16,4.476038844e-16],
				"c_f": [0,-1.647398197e-16,-3.287345246e-16,-2.100498925e-16,-4.968759144e-16,-3.898390864e-16,-3.154353585e-16,-2.772398567e-16,-2.716089585e-16,-2.701609744e-16,-2.710862477e-16,-2.747664263e-16,-2.809748823e-16,-2.877295429e-16,-2.941682587e-16,-3.000684867e-16,-3.053723687e-16,-3.099580784e-16,-3.137521867e-16,-3.167452092e-16,-3.189607295e-16],
				"m_f": [0,1.355408234e-15,-2.303724513e-15,-7.888887827e-16,-3.509373933e-19,6.474658749e-17,4.036412049e-17,1.095060331e-16,1.88010209e-16,2.002712476e-16,1.820153479e-16,1.612910171e-16,1.418763461e-16,1.195848757e-16,9.520039741e-17,7.101538057e-17,4.808205493e-17,2.642081326e-17,6.026403626e-18,-1.299214103e-17,-3.056887119e-17],
				"r_f": [0,-3.866470769e-16,5.023098721e-16,1.472113467e-16,-1.263003547e-16,-1.156299692e-16,-9.050145976e-17,-9.837050324e-17,-1.169039869e-16,-1.196532039e-16,-1.152444372e-16,-1.109086758e-16,-1.075491792e-16,-1.035969895e-16,-9.903215309e-17,-9.438113015e-17,-8.989682553e-17,-8.555343495e-17,-8.133094216e-17,-7.725466374e-17,-7.334736987e-17],
				"h_f": [0,-1.093596822e-15,-1.142223856e-15,-9.255974559e-16,-1.007040425e-15,-8.507505827e-16,-7.024845279e-16,-5.908146221e-16,-5.128909079e-16,-4.486485774e-16,-3.910066639e-16,-3.395760541e-16,-2.939997285e-16,-2.526854999e-16,-2.144774031e-16,-1.78882746e-16,-1.4565468e-16,-1.145472806e-16,-8.534440089e-17,-5.789024802e-17,-3.207057327e-17],
				"w_f": [0,1.665474183e-16,-8.42283119e-17,5.501107184e-17,-1.925856876e-17,-7.457628882e-17,-1.351790952e-16,-1.740401733e-16,-2.10043602e-16,-2.453735276e-16,-2.792453377e-16,-3.096961787e-16,-3.373275135e-16,-3.626487344e-16,-3.858435105e-16,-4.069069544e-16,-4.259372841e-16,-4.430677521e-16,-4.584163273e-16,-4.720793805e-16,-4.84149828e-16],
				"y_f": [0,-8.650115917e-16,-1.093867859e-15,-8.175207025e-16,-9.578477765e-16,-8.717958845e-16,-7.932381634e-16,-7.312235997e-16,-6.966677344e-16,-6.731732076e-16,-6.536730256e-16,-6.365566082e-16,-6.220127687e-16,-6.090247762e-16,-5.967120445e-16,-5.846647587e-16,-5.727669655e-16,-5.609250389e-16,-5.490575918e-16,-5.37120636e-16,-5.251038463e-16],
				"k_f": [0,-1.057658361e-16,-2.48581506e-16,-4.003398881e-16,-5.521650277e-16,-6.712602615e-16,-7.790747642e-16,-8.789397036e-16,-9.716247058e-16,-1.055472225e-15,-1.131480244e-15,-1.200529801e-15,-1.263174472e-15,-1.319690148e-15,-1.370420539e-15,-1.415725834e-15,-1.45593853e-15,-1.491353864e-15,-1.522250457e-15,-1.548895343e-15,-1.571542623e-15],
				"i_f": [0,-4.09968537e-15,-4.636981155e-15,-3.625198188e-15,-3.078975414e-15,-3.095547462e-15,-3.002389748e-15,-2.832371915e-15,-2.664970845e-15,-2.540437826e-15,-2.427331905e-15,-2.314678792e-15,-2.204623825e-15,-2.10071573e-15,-2.002023268e-15,-1.907272132e-15,-1.816081071e-15,-1.728495799e-15,-1.644404445e-15,-1.563606342e-15,-1.485936084e-15],
				"z_f": [0,-8.621297452e-16,-9.672560536e-16,-5.6107417e-16,-5.787163054e-16,-3.382806921e-16,-1.409070174e-16,2.769777918e-17,1.603168859e-16,2.767034664e-16,3.808449225e-16,4.748370047e-16,5.592570378e-16,6.358083242e-16,7.056053269e-16,7.693466621e-16,8.274823624e-16,8.804394963e-16,9.285936536e-16,9.722641332e-16,1.011726249e-15],
				"q_f": [0,-2.410255386e-15,-2.663488281e-15,-1.982555634e-15,-1.57090957e-15,-1.492875e-15,-1.368535036e-15,-1.205297091e-15,-1.048190894e-15,-9.206405308e-16,-8.049846219e-16,-6.941666317e-16,-5.889467121e-16,-4.911061161e-16,-3.999325313e-16,-3.144720543e-16,-2.342891681e-16,-1.592169138e-16,-8.901645373e-17,-2.340604262e-17,3.786846373e-17],
				"f_f": [0,-2.332070111e-15,-2.990194561e-16,4.951234508e-16,2.107283146e-16,-9.788114233e-17,-4.902387402e-17,-1.38696496e-17,-2.198092806e-17,-4.542528089e-17,-4.983465666e-17,-4.752002169e-17,-4.617443763e-17,-4.633857963e-17,-4.578691982e-17,-4.450373443e-17,-4.306860016e-17,-4.172934381e-17,-4.041591419e-17,-3.909484074e-17,-3.779411837e-17],
				"n_f": [0,-4.602393147e-15,-4.833492762e-15,-4.049176986e-15,-3.595245733e-15,-3.526991969e-15,-3.39529472e-15,-3.21405513e-15,-3.038742569e-15,-2.895354789e-15,-2.762444774e-15,-2.631983239e-15,-2.50526534e-15,-2.384539327e-15,-2.269078721e-15,-2.157922564e-15,-2.050742099e-15,-1.947509855e-15,-1.848100088e-15,-1.752330463e-15,-1.66004609e-15],
				"interest": [0,0.6026539397,0.3027205138,0.05361483593,-0.1812666687,-0.04045575436,0.0009387739216,-0.005023305708,-0.02289841886,-0.01968947207,-0.01479895945,-0.01316202448,-0.01351553733,-0.01314848677,-0.01236100843,-0.01167457846,-0.0111806727,-0.01071995254,-0.01025008297,-0.00979427127,-0.009367445257],
				"inflation": [0,-0.1976670312,-0.2899026368,-0.3350237049,-0.3629902916,-0.1877979963,-0.1089972689,-0.07066780155,-0.04601574665,-0.02532005533,-0.01258513392,-0.005720870204,-0.001893910086,0.0005837603525,0.002048266997,0.002746297067,0.002969780154,0.002943325698,0.002771751074,0.002508471725,0.002192485017],
				"inflationq": [0,-0.7906681246,-0.3689424224,-0.1804842725,-0.1118663471,-0.08989894308,-0.05373951311,-0.02716640294,-0.01325812745,-0.007116177821,-0.002799827458,0.0002906519113,0.002049713023,0.002794503934,0.00305819912,0.003082772192,0.002943645369,0.002688686113,0.002371900623,0.002029654795,0.001679698538],
				"output": [0,-0.5970250893,-0.3099642151,-0.1631876509,-0.1067727176,-0.1276052644,-0.1181778896,-0.1044440086,-0.09650719724,-0.09586731553,-0.09581173047,-0.09544926846,-0.09532031285,-0.09571697477,-0.09628504078,-0.09682270559,-0.09730228148,-0.09773886016,-0.09811705271,-0.09841955391,-0.09864111447],
				"outputgap": [0,-0.5970250893,-0.3099642151,-0.1631876509,-0.1067727176,-0.1276052644,-0.1181778896,-0.1044440086,-0.09650719724,-0.09586731553,-0.09581173047,-0.09544926846,-0.09532031285,-0.09571697477,-0.09628504078,-0.09682270559,-0.09730228148,-0.09773886016,-0.09811705271,-0.09841955391,-0.09864111447],
				"AUX_ENDO_LEAD_75": [0,-0.3689424224,-0.1804842725,-0.1118663471,-0.08989894308,-0.05373951311,-0.02716640294,-0.01325812745,-0.007116177821,-0.002799827458,0.0002906519113,0.002049713023,0.002794503934,0.00305819912,0.003082772192,0.002943645369,0.002688686113,0.002371900623,0.002029654795,0.001679698538,0.001331104554],
				"AUX_ENDO_LEAD_79": [0,-0.1804842725,-0.1118663471,-0.08989894308,-0.05373951311,-0.02716640294,-0.01325812745,-0.007116177821,-0.002799827458,0.0002906519113,0.002049713023,0.002794503934,0.00305819912,0.003082772192,0.002943645369,0.002688686113,0.002371900623,0.002029654795,0.001679698538,0.001331104554,0.0009903322143],
				"AUX_ENDO_LEAD_83": [0,-0.1118663471,-0.08989894308,-0.05373951311,-0.02716640294,-0.01325812745,-0.007116177821,-0.002799827458,0.0002906519113,0.002049713023,0.002794503934,0.00305819912,0.003082772192,0.002943645369,0.002688686113,0.002371900623,0.002029654795,0.001679698538,0.001331104554,0.0009903322143,0.0006617431127],
				"AUX_ENDO_LEAD_110": [0,-0.3099642151,-0.1631876509,-0.1067727176,-0.1276052644,-0.1181778896,-0.1044440086,-0.09650719724,-0.09586731553,-0.09581173047,-0.09544926846,-0.09532031285,-0.09571697477,-0.09628504078,-0.09682270559,-0.09730228148,-0.09773886016,-0.09811705271,-0.09841955391,-0.09864111447,-0.09878384106],
				"AUX_ENDO_LEAD_114": [0,-0.1631876509,-0.1067727176,-0.1276052644,-0.1181778896,-0.1044440086,-0.09650719724,-0.09586731553,-0.09581173047,-0.09544926846,-0.09532031285,-0.09571697477,-0.09628504078,-0.09682270559,-0.09730228148,-0.09773886016,-0.09811705271,-0.09841955391,-0.09864111447,-0.09878384106,-0.09885021957],
				"AUX_ENDO_LEAD_118": [0,-0.1067727176,-0.1276052644,-0.1181778896,-0.1044440086,-0.09650719724,-0.09586731553,-0.09581173047,-0.09544926846,-0.09532031285,-0.09571697477,-0.09628504078,-0.09682270559,-0.09730228148,-0.09773886016,-0.09811705271,-0.09841955391,-0.09864111447,-0.09878384106,-0.09885021957,-0.09884251191],
				"AUX_ENDO_LEAD_145": [0,-0.3099642151,-0.1631876509,-0.1067727176,-0.1276052644,-0.1181778896,-0.1044440086,-0.09650719724,-0.09586731553,-0.09581173047,-0.09544926846,-0.09532031285,-0.09571697477,-0.09628504078,-0.09682270559,-0.09730228148,-0.09773886016,-0.09811705271,-0.09841955391,-0.09864111447,-0.09878384106],
				"AUX_ENDO_LEAD_149": [0,-0.1631876509,-0.1067727176,-0.1276052644,-0.1181778896,-0.1044440086,-0.09650719724,-0.09586731553,-0.09581173047,-0.09544926846,-0.09532031285,-0.09571697477,-0.09628504078,-0.09682270559,-0.09730228148,-0.09773886016,-0.09811705271,-0.09841955391,-0.09864111447,-0.09878384106,-0.09885021957],
				"AUX_ENDO_LEAD_153": [0,-0.1067727176,-0.1276052644,-0.1181778896,-0.1044440086,-0.09650719724,-0.09586731553,-0.09581173047,-0.09544926846,-0.09532031285,-0.09571697477,-0.09628504078,-0.09682270559,-0.09730228148,-0.09773886016,-0.09811705271,-0.09841955391,-0.09864111447,-0.09878384106,-0.09885021957,-0.09884251191],
				"AUX_ENDO_LAG_15_1": [0,0,-0.1976670312,-0.0922356056,-0.04512106812,-0.02796658676,-0.02247473577,-0.01343487828,-0.006791600736,-0.003314531862,-0.001779044455,-0.0006999568644,7.266297783e-05,0.0005124282556,0.0006986259834,0.0007645497801,0.0007706930479,0.0007359113422,0.0006721715282,0.0005929751557,0.0005074136989],
				"AUX_ENDO_LAG_15_2": [0,0,1.08618343e-15,-0.1976670312,-0.0922356056,-0.04512106812,-0.02796658676,-0.02247473577,-0.01343487828,-0.006791600736,-0.003314531862,-0.001779044455,-0.0006999568644,7.266297783e-05,0.0005124282556,0.0006986259834,0.0007645497801,0.0007706930479,0.0007359113422,0.0006721715282,0.0005929751557],
				"AUX_ENDO_LAG_37_1": [0,0,-0.5970250893,-0.3099642151,-0.1631876509,-0.1067727176,-0.1276052644,-0.1181778896,-0.1044440086,-0.09650719724,-0.09586731553,-0.09581173047,-0.09544926846,-0.09532031285,-0.09571697477,-0.09628504078,-0.09682270559,-0.09730228148,-0.09773886016,-0.09811705271,-0.09841955391],
				"AUX_ENDO_LAG_37_2": [0,0,0,-0.5970250893,-0.3099642151,-0.1631876509,-0.1067727176,-0.1276052644,-0.1181778896,-0.1044440086,-0.09650719724,-0.09586731553,-0.09581173047,-0.09544926846,-0.09532031285,-0.09571697477,-0.09628504078,-0.09682270559,-0.09730228148,-0.09773886016,-0.09811705271],
				"AUX_ENDO_LAG_37_3": [0,0,0,0,-0.5970250893,-0.3099642151,-0.1631876509,-0.1067727176,-0.1276052644,-0.1181778896,-0.1044440086,-0.09650719724,-0.09586731553,-0.09581173047,-0.09544926846,-0.09532031285,-0.09571697477,-0.09628504078,-0.09682270559,-0.09730228148,-0.09773886016],
				"AUX_ENDO_LAG_38_1": [0,0,-0.5970250893,-0.3099642151,-0.1631876509,-0.1067727176,-0.1276052644,-0.1181778896,-0.1044440086,-0.09650719724,-0.09586731553,-0.09581173047,-0.09544926846,-0.09532031285,-0.09571697477,-0.09628504078,-0.09682270559,-0.09730228148,-0.09773886016,-0.09811705271,-0.09841955391],
				"AUX_ENDO_LAG_38_2": [0,0,-1.301936797e-16,-0.5970250893,-0.3099642151,-0.1631876509,-0.1067727176,-0.1276052644,-0.1181778896,-0.1044440086,-0.09650719724,-0.09586731553,-0.09581173047,-0.09544926846,-0.09532031285,-0.09571697477,-0.09628504078,-0.09682270559,-0.09730228148,-0.09773886016,-0.09811705271],
				"AUX_ENDO_LAG_38_3": [0,0,8.580998238e-16,2.625908292e-16,-0.5970250893,-0.3099642151,-0.1631876509,-0.1067727176,-0.1276052644,-0.1181778896,-0.1044440086,-0.09650719724,-0.09586731553,-0.09581173047,-0.09544926846,-0.09532031285,-0.09571697477,-0.09628504078,-0.09682270559,-0.09730228148,-0.09773886016],
				"AUX_ENDO_LAG_34_1": [0,0,0.6026539397,0.3027205138,0.05361483593,-0.1812666687,-0.04045575436,0.0009387739216,-0.005023305708,-0.02289841886,-0.01968947207,-0.01479895945,-0.01316202448,-0.01351553733,-0.01314848677,-0.01236100843,-0.01167457846,-0.0111806727,-0.01071995254,-0.01025008297,-0.00979427127],
				"AUX_ENDO_LAG_34_2": [0,0,0,0.6026539397,0.3027205138,0.05361483593,-0.1812666687,-0.04045575436,0.0009387739216,-0.005023305708,-0.02289841886,-0.01968947207,-0.01479895945,-0.01316202448,-0.01351553733,-0.01314848677,-0.01236100843,-0.01167457846,-0.0111806727,-0.01071995254,-0.01025008297],
				"AUX_ENDO_LAG_34_3": [0,0,0,0,0.6026539397,0.3027205138,0.05361483593,-0.1812666687,-0.04045575436,0.0009387739216,-0.005023305708,-0.02289841886,-0.01968947207,-0.01479895945,-0.01316202448,-0.01351553733,-0.01314848677,-0.01236100843,-0.01167457846,-0.0111806727,-0.01071995254],
				"AUX_ENDO_LAG_36_1": [0,0,-0.7906681246,-0.3689424224,-0.1804842725,-0.1118663471,-0.08989894308,-0.05373951311,-0.02716640294,-0.01325812745,-0.007116177821,-0.002799827458,0.0002906519113,0.002049713023,0.002794503934,0.00305819912,0.003082772192,0.002943645369,0.002688686113,0.002371900623,0.002029654795],
				"AUX_ENDO_LAG_36_2": [0,0,1.005660388e-15,-0.7906681246,-0.3689424224,-0.1804842725,-0.1118663471,-0.08989894308,-0.05373951311,-0.02716640294,-0.01325812745,-0.007116177821,-0.002799827458,0.0002906519113,0.002049713023,0.002794503934,0.00305819912,0.003082772192,0.002943645369,0.002688686113,0.002371900623],
				"AUX_ENDO_LAG_36_3": [0,0,2.896658757e-16,1.318462093e-15,-0.7906681246,-0.3689424224,-0.1804842725,-0.1118663471,-0.08989894308,-0.05373951311,-0.02716640294,-0.01325812745,-0.007116177821,-0.002799827458,0.0002906519113,0.002049713023,0.002794503934,0.00305819912,0.003082772192,0.002943645369,0.002688686113]
			}
		}
	}
}
