{
	"model": "US_CPS10",
	"rule": "SW",
	"data": {
		"AC": {
			"p": [1,0.9944654273,0.9890498715,0.9837241773,0.9784778026,0.9733037398,0.9681957617,0.9631481462,0.9581557436,0.9532140112,0.9483189908,0.9434672572,0.9386558556,0.9338822406,0.9291442195,0.924439902,0.9197676575,0.9151260766,0.9105139398,0.9059301891,0.9013739051],
			"y": [1,0.9935575575,0.9823441202,0.9698386169,0.9574753638,0.9457939011,0.9349488959,0.9249354952,0.9156881416,0.9071231924,0.8991566653,0.8917110609,0.8847174631,0.8781156647,0.8718535274,0.8658860995,0.8601747098,0.8546861252,0.849391799,0.844267213,0.8392913083],
			"lambdda": [1,0.9682619196,0.9447815182,0.9260121706,0.9102232187,0.8965154029,0.884379096,0.873494506,0.8636401366,0.8546499075,0.8463923045,0.8387596246,0.8316619442,0.8250233789,0.8187795218,0.8128755379,0.8072646636,0.801906982,0.7967684026,0.7918198015,0.787036292],
			"w": [1,0.9882213598,0.9744984031,0.9607691837,0.9477775489,0.9357517488,0.9247046341,0.9145655617,0.9052374973,0.8966209706,0.8886234401,0.8811623303,0.8741654043,0.8675700862,0.8613224362,0.8553760736,0.8496911652,0.8442335199,0.8389737954,0.8338868103,0.8289509524],
			"R": [1,0.9983910805,0.9952899938,0.9914779406,0.9873127089,0.9829615196,0.9785052854,0.9739853958,0.9694247802,0.9648374467,0.9602328471,0.9556179135,0.9509980413,0.9463775887,0.9417601524,0.9371487349,0.932545857,0.9279536401,0.9233738701,0.9188080494,0.9142574401],
			"z": [1,0.297,0.088209,0.026198073,0.007780827681,0.002310905821,0.0006863390289,0.0002038426916,6.05412794e-05,1.798075998e-05,5.340285715e-06,1.586064857e-06,4.710612626e-07,1.39905195e-07,4.155184291e-08,1.234089735e-08,3.665246512e-09,1.088578214e-09,3.233077295e-10,9.602239567e-11,2.851865151e-11],
			"lambddap": [1,0.255,0.065025,0.016581375,0.004228250625,0.001078203909,0.0002749419969,7.011020921e-05,1.787810335e-05,4.558916354e-06,1.16252367e-06,2.964435359e-07,7.559310165e-08,1.927624092e-08,4.915441435e-09,1.253437566e-09,3.196265793e-10,8.150477773e-11,2.078371832e-11,5.299848172e-12,1.351461284e-12],
			"b": [1,0.876,0.767376,0.672221376,0.5888659254,0.5158465506,0.4518815784,0.3958482626,0.3467630781,0.3037644564,0.2660976638,0.2331015535,0.2041969609,0.1788765377,0.156695847,0.137265562,0.1202446323,0.1053342979,0.09227284496,0.08083101219,0.07080796668],
			"pit": [1,0.995,0.990025,0.985074875,0.9801495006,0.9752487531,0.9703725094,0.9655206468,0.9606930436,0.9558895784,0.9511101305,0.9463545798,0.9416228069,0.9369146929,0.9322301194,0.9275689688,0.922931124,0.9183164684,0.913724886,0.9091562616,0.9046104803],
			"ystar": [1,0.7998085107,0.6223436601,0.503157341,0.4219614536,0.3619208106,0.31403164,0.273955092,0.2395653785,0.2097072005,0.1836490569,0.1608572715,0.1409041818,0.1234296914,0.1081235853,0.09471597545,0.08297109614,0.07268264641,0.06366998666,0.05577490435,0.04885881486],
			"lambddastar": [1,0.8806654686,0.7725589653,0.6769895303,0.5930775916,0.5195351981,0.4551088633,0.398672924,0.3492363315,0.3059305415,0.267994962,0.2347635133,0.2056528104,0.1801518519,0.1578130187,0.1382442031,0.1211019215,0.1060852831,0.09293070791,0.08140730011,0.07131279489],
			"wstar": [1,"_NaN_","_NaN_","_NaN_","_NaN_","_NaN_","_NaN_","_NaN_","_NaN_","_NaN_","_NaN_","_NaN_","_NaN_","_NaN_","_NaN_","_NaN_","_NaN_","_NaN_","_NaN_","_NaN_","_NaN_"],
			"Rstar": [1,0.8927234071,0.790579886,0.6962979316,0.6114784227,0.5362444077,0.469971461,0.4117763641,0.3607455261,0.3160235971,0.2768403929,0.2425134913,0.2124422746,0.186099591,0.1630232965,0.1428084266,0.1251001882,0.1095877671,0.09599888473,0.08409502328,0.07366724049],
			"interest": [1,0.9983910805,0.9952899938,0.9914779406,0.9873127089,0.9829615196,0.9785052854,0.9739853958,0.9694247802,0.9648374467,0.9602328471,0.9556179135,0.9509980413,0.9463775887,0.9417601524,0.9371487349,0.932545857,0.9279536401,0.9233738701,0.9188080494,0.9142574401],
			"inflation": [1,0.9986455884,0.9952834956,0.9906090346,0.9853156617,0.9800978147,0.974947427,0.9698585441,0.9648259934,0.9598451826,0.9549120709,0.9500231366,0.9451753298,0.9403660172,0.935592928,0.9308541043,0.9261478562,0.921472724,0.9168274446,0.912210923,0.9076222077],
			"inflationq": [1,0.9934974357,0.9874000583,0.981523598,0.9758138846,0.9702468879,0.9648059186,0.9594768716,0.9542473588,0.9491065352,0.9440449833,0.9390545736,0.9341283116,0.9292601904,0.9244450541,0.9196784777,0.9149566627,0.9102763458,0.9056347224,0.9010293791,0.8964582375],
			"outputgap": [1,0.993662701,0.9825991429,0.9702420238,0.9580142306,0.9464536267,0.9357157057,0.9257969344,0.9166330583,0.9081416161,0.9002396815,0.8928506995,0.8859066008,0.8793479392,0.8731232605,0.8671882276,0.8615047215,0.8560400043,0.8507659732,0.8456585073,0.8406969036],
			"output": [1,0.9935575575,0.9823441202,0.9698386169,0.9574753638,0.9457939011,0.9349488959,0.9249354952,0.9156881416,0.9071231924,0.8991566653,0.8917110609,0.8847174631,0.8781156647,0.8718535274,0.8658860995,0.8601747098,0.8546861252,0.849391799,0.844267213,0.8392913083],
			"AUX_ENDO_LEAD_77": [1,0.9939440948,0.988053401,0.982315476,0.9767169196,0.9712437374,0.9658824946,0.9606209592,0.9554483131,0.950355135,0.9453332855,0.9403757609,0.9354765459,0.9306304781,0.9258331274,0.9210806909,0.9163699022,0.911697954,0.907062431,0.9024612532,0.8978926271],
			"AUX_ENDO_LEAD_81": [1,0.9940855122,0.9883202442,0.9826934465,0.9771918031,0.9718020578,0.9665120307,0.9613109234,0.9561893265,0.9511391096,0.946153277,0.941225821,0.9363515859,0.9315261475,0.9267457088,0.9220070083,0.9173072433,0.9126440025,0.9080152097,0.9034190744,0.8988540509],
			"AUX_ENDO_LEAD_85": [1,0.9942070788,0.9885524254,0.9830228763,0.97760522,0.972287295,0.9670583155,0.9619088822,0.9568308743,0.9518173049,0.9468621741,0.9419603336,0.9371073659,0.9322994795,0.9275334188,0.9228063854,0.9181159726,0.9134601076,0.9088370035,0.9042451173,0.8996831148],
			"AUX_ENDO_LEAD_112": [1,0.9895477335,0.9772580156,0.9648820524,0.9531007752,0.9421302597,0.9319911092,0.9226273229,0.9139579565,0.905898903,0.8983714914,0.8913053491,0.8846388406,0.8783185424,0.8722983905,0.8665387706,0.8610056589,0.8556698493,0.8505062771,0.8454934314,0.8406128495],
			"AUX_ENDO_LEAD_116": [1,0.9877791488,0.9753946536,0.9635724558,0.9525484153,0.9423516736,0.9329297838,0.9242031684,0.9160881476,0.9085060889,0.9013865117,0.8946676297,0.8882958681,0.8822250271,0.8764153766,0.8708327957,0.8654479995,0.860235859,0.8551748118,0.8502463539,0.8454346032],
			"AUX_ENDO_LEAD_120": [1,0.9876551494,0.9758584466,0.9648482308,0.9546554625,0.9452291221,0.9364908042,0.928357817,0.9207523744,0.9136047276,0.9068537251,0.9004463445,0.8943368675,0.8884859836,0.8828599382,0.8774297658,0.872170616,0.8670611696,0.8620831349,0.8572208149,0.8524607363],
			"AUX_ENDO_LEAD_147": [1,0.9894135243,0.9769840124,0.9644773828,0.9525780494,0.9415022017,0.9312695966,0.9218231658,0.9130809006,0.904957699,0.8973739787,0.8902585407,0.8835490026,0.8771912676,0.8711386662,0.8653510399,0.8597938765,0.8544375327,0.8492565521,0.8442290735,0.8393363213],
			"AUX_ENDO_LEAD_151": [1,0.9876502447,0.9751431914,0.9632092457,0.9520850008,0.9417991031,0.9322982345,0.9235018689,0.9153254056,0.9076893545,0.9005224511,0.8937621982,0.8873543793,0.8812522173,0.8754154635,0.8698095321,0.8644047218,0.8591755311,0.8541000647,0.8491595214,0.844337754],
			"AUX_ENDO_LEAD_155": [1,0.9875411622,0.9756399488,0.9645357407,0.9542592044,0.9447585797,0.935954603,0.9277637306,0.9201073758,0.9129150543,0.9061249472,0.8996834296,0.8935442413,0.8876675853,0.8820192713,0.8765699436,0.8712944033,0.8661710198,0.8611812233,0.8563090694,0.8515408642],
			"AUX_ENDO_LAG_0_1": [1,0.9944654273,0.9890498715,0.9837241773,0.9784778026,0.9733037398,0.9681957617,0.9631481462,0.9581557436,0.9532140112,0.9483189908,0.9434672572,0.9386558556,0.9338822406,0.9291442195,0.924439902,0.9197676575,0.9151260766,0.9105139398,0.9059301891,0.9013739051],
			"AUX_ENDO_LAG_0_2": [1,0.9944654273,0.9890498715,0.9837241773,0.9784778026,0.9733037398,0.9681957617,0.9631481462,0.9581557436,0.9532140112,0.9483189908,0.9434672572,0.9386558556,0.9338822406,0.9291442195,0.924439902,0.9197676575,0.9151260766,0.9105139398,0.9059301891,0.9013739051],
			"AUX_ENDO_LAG_17_1": [1,0.9935575575,0.9823441202,0.9698386169,0.9574753638,0.9457939011,0.9349488959,0.9249354952,0.9156881416,0.9071231924,0.8991566653,0.8917110609,0.8847174631,0.8781156647,0.8718535274,0.8658860995,0.8601747098,0.8546861252,0.849391799,0.844267213,0.8392913083],
			"AUX_ENDO_LAG_17_2": [1,0.9935575575,0.9823441202,0.9698386169,0.9574753638,0.9457939011,0.9349488959,0.9249354952,0.9156881416,0.9071231924,0.8991566653,0.8917110609,0.8847174631,0.8781156647,0.8718535274,0.8658860995,0.8601747098,0.8546861252,0.849391799,0.844267213,0.8392913083],
			"AUX_ENDO_LAG_17_3": [1,0.9935575575,0.9823441202,0.9698386169,0.9574753638,0.9457939011,0.9349488959,0.9249354952,0.9156881416,0.9071231924,0.8991566653,0.8917110609,0.8847174631,0.8781156647,0.8718535274,0.8658860995,0.8601747098,0.8546861252,0.849391799,0.844267213,0.8392913083],
			"AUX_ENDO_LAG_16_1": [1,0.993662701,0.9825991429,0.9702420238,0.9580142306,0.9464536267,0.9357157057,0.9257969344,0.9166330583,0.9081416161,0.9002396815,0.8928506995,0.8859066008,0.8793479392,0.8731232605,0.8671882276,0.8615047215,0.8560400043,0.8507659732,0.8456585073,0.8406969036],
			"AUX_ENDO_LAG_16_2": [1,0.993662701,0.9825991429,0.9702420238,0.9580142306,0.9464536267,0.9357157057,0.9257969344,0.9166330583,0.9081416161,0.9002396815,0.8928506995,0.8859066008,0.8793479392,0.8731232605,0.8671882276,0.8615047215,0.8560400043,0.8507659732,0.8456585073,0.8406969036],
			"AUX_ENDO_LAG_16_3": [1,0.993662701,0.9825991429,0.9702420238,0.9580142306,0.9464536267,0.9357157057,0.9257969344,0.9166330583,0.9081416161,0.9002396815,0.8928506995,0.8859066008,0.8793479392,0.8731232605,0.8671882276,0.8615047215,0.8560400043,0.8507659732,0.8456585073,0.8406969036],
			"AUX_ENDO_LAG_13_1": [1,0.9983910805,0.9952899938,0.9914779406,0.9873127089,0.9829615196,0.9785052854,0.9739853958,0.9694247802,0.9648374467,0.9602328471,0.9556179135,0.9509980413,0.9463775887,0.9417601524,0.9371487349,0.932545857,0.9279536401,0.9233738701,0.9188080494,0.9142574401],
			"AUX_ENDO_LAG_13_2": [1,0.9983910805,0.9952899938,0.9914779406,0.9873127089,0.9829615196,0.9785052854,0.9739853958,0.9694247802,0.9648374467,0.9602328471,0.9556179135,0.9509980413,0.9463775887,0.9417601524,0.9371487349,0.932545857,0.9279536401,0.9233738701,0.9188080494,0.9142574401],
			"AUX_ENDO_LAG_13_3": [1,0.9983910805,0.9952899938,0.9914779406,0.9873127089,0.9829615196,0.9785052854,0.9739853958,0.9694247802,0.9648374467,0.9602328471,0.9556179135,0.9509980413,0.9463775887,0.9417601524,0.9371487349,0.932545857,0.9279536401,0.9233738701,0.9188080494,0.9142574401],
			"AUX_ENDO_LAG_15_1": [1,0.9934974357,0.9874000583,0.981523598,0.9758138846,0.9702468879,0.9648059186,0.9594768716,0.9542473588,0.9491065352,0.9440449833,0.9390545736,0.9341283116,0.9292601904,0.9244450541,0.9196784777,0.9149566627,0.9102763458,0.9056347224,0.9010293791,0.8964582375],
			"AUX_ENDO_LAG_15_2": [1,0.9934974357,0.9874000583,0.981523598,0.9758138846,0.9702468879,0.9648059186,0.9594768716,0.9542473588,0.9491065352,0.9440449833,0.9390545736,0.9341283116,0.9292601904,0.9244450541,0.9196784777,0.9149566627,0.9102763458,0.9056347224,0.9010293791,0.8964582375],
			"AUX_ENDO_LAG_15_3": [1,0.9934974357,0.9874000583,0.981523598,0.9758138846,0.9702468879,0.9648059186,0.9594768716,0.9542473588,0.9491065352,0.9440449833,0.9390545736,0.9341283116,0.9292601904,0.9244450541,0.9196784777,0.9149566627,0.9102763458,0.9056347224,0.9010293791,0.8964582375]
		},
		"VAR": {
			"p": 308.1570679,
			"y": 457.2562534,
			"lambdda": 499.357392,
			"w": 4199.731699,
			"R": 291.5744558,
			"z": 0.2665621837,
			"lambddap": 0.01698013316,
			"b": 25.3629935,
			"pit": 100.2506266,
			"ystar": 0.06727326541,
			"lambddastar": 29.68725643,
			"wstar": 0,
			"Rstar": 0.4211949973,
			"interest": 4665.191292,
			"inflation": 4896.751523,
			"inflationq": 910.7378175,
			"outputgap": 456.3952521,
			"output": 457.2562534,
			"AUX_ENDO_LEAD_77": 899.2030565,
			"AUX_ENDO_LEAD_81": 888.3689531,
			"AUX_ENDO_LEAD_85": 877.898803,
			"AUX_ENDO_LEAD_112": 451.4983338,
			"AUX_ENDO_LEAD_116": 442.2660146,
			"AUX_ENDO_LEAD_120": 431.6113074,
			"AUX_ENDO_LEAD_147": 452.2675878,
			"AUX_ENDO_LEAD_151": 442.9070559,
			"AUX_ENDO_LEAD_155": 432.1298554,
			"AUX_ENDO_LAG_0_1": 308.1570679,
			"AUX_ENDO_LAG_0_2": 308.1570679,
			"AUX_ENDO_LAG_17_1": 457.2562534,
			"AUX_ENDO_LAG_17_2": 457.2562534,
			"AUX_ENDO_LAG_17_3": 457.2562534,
			"AUX_ENDO_LAG_16_1": 456.3952521,
			"AUX_ENDO_LAG_16_2": 456.3952521,
			"AUX_ENDO_LAG_16_3": 456.3952521,
			"AUX_ENDO_LAG_13_1": 4665.191292,
			"AUX_ENDO_LAG_13_2": 4665.191292,
			"AUX_ENDO_LAG_13_3": 4665.191292,
			"AUX_ENDO_LAG_15_1": 910.7378175,
			"AUX_ENDO_LAG_15_2": 910.7378175,
			"AUX_ENDO_LAG_15_3": 910.7378175
		},
		"IRF": {
			"interest_": {
				"p": [0,-0.025331842,-0.02237006644,-0.01942546477,-0.01672619794,-0.01433946788,-0.01226558395,-0.01047929543,-0.008947642059,-0.007637393411,-0.00651791057,-0.005562028412,-0.004746110701,-0.004049784962,-0.003455576613,-0.00294853431,-0.00251588232,-0.0021467114,-0.00183170944,-0.001562929129,-0.001333588593],
				"y": [0,-0.2982214266,-0.3878790626,-0.3906509339,-0.3600309915,-0.3191473232,-0.2776609408,-0.239308632,-0.2052627036,-0.1756214556,-0.1500652349,-0.1281407632,-0.1093805097,-0.09334941542,-0.07966009574,-0.06797477828,-0.05800201924,-0.04949169319,-0.04222973005,-0.0360331822,-0.03074581777],
				"lambdda": [0,0.7781619406,0.5876157147,0.4672281876,0.3833847291,0.3202901984,0.2702325519,0.2292106921,0.194964558,0.1660819662,0.1415889099,0.1207576305,0.1030133845,0.08788644529,0.07498526478,0.06397988901,0.05459063249,0.04657967862,0.03974447814,0.03391236923,0.02893610031],
				"w": [0,-1.374604794,-1.36337384,-1.248530055,-1.103446712,-0.9585848448,-0.8255544334,-0.7078279562,-0.6054899651,-0.5173248774,-0.4417193797,-0.377039157,-0.321774404,-0.2745852761,-0.2343054563,-0.1999294456,-0.170594671,-0.145563065,-0.1242039382,-0.1059787336,-0.09042773585],
				"R": [0,0.1681761594,0.1009620623,0.0671172606,0.04875506278,0.03779206259,0.03054256435,0.02529849207,0.02124519833,0.01797514572,0.01526925098,0.0129981353,0.01107715428,0.009445603894,0.008056841458,0.0068733742,0.005864242469,0.005003491045,0.004269179778,0.003642680332,0.003108139176],
				"z": [0,0,-3.778358978e-33,-3.679346274e-33,-3.330568784e-33,-3.137613718e-33,-3.04962821e-33,-3.007824131e-33,-2.983601579e-33,-2.965625531e-33,-2.949804873e-33,-2.934739572e-33,-2.919966459e-33,-2.905335702e-33,-2.890799483e-33,-2.876342561e-33,-2.861959957e-33,-2.847649886e-33,-2.833411555e-33,-2.819244472e-33,-2.805148242e-33],
				"lambddap": [0,5.256251529e-17,1.34034414e-17,3.417877556e-18,8.715587769e-19,2.222474881e-19,5.667310947e-20,1.445164291e-20,3.685168943e-21,9.397180805e-22,2.396281105e-22,6.11051682e-23,1.55818179e-23,3.973363579e-24,1.013207726e-24,2.583679832e-25,6.588384874e-26,1.680039439e-26,4.284113472e-27,1.092461772e-27,2.785905241e-28],
				"b": [0,0,0,0,0,0,0,0,0,0,0,0,0,0,0,0,0,0,0,0,0],
				"pit": [0,-3.675421335e-17,-3.657044228e-17,-3.638759007e-17,-3.620565212e-17,-3.602462386e-17,-3.584450074e-17,-3.566527824e-17,-3.548695185e-17,-3.530951709e-17,-3.51329695e-17,-3.495730465e-17,-3.478251813e-17,-3.460860554e-17,-3.443556251e-17,-3.42633847e-17,-3.409206778e-17,-3.392160744e-17,-3.37519994e-17,-3.35832394e-17,-3.341532321e-17],
				"ystar": [0,0,2.343664145e-34,4.832795681e-35,-1.632186871e-34,-2.958915359e-34,-3.624947504e-34,-3.916601587e-34,-4.028273604e-34,-4.061108507e-34,-4.061448553e-34,-4.048978366e-34,-4.031648599e-34,-4.012557431e-34,-3.992880243e-34,-3.973053727e-34,-3.953237339e-34,-3.933488357e-34,-3.913826934e-34,-3.894259894e-34,-3.874789321e-34],
				"lambddastar": [0,0,0,7.495675782e-34,6.086314435e-34,4.113929382e-34,2.917301761e-34,2.330484454e-34,2.068390327e-34,1.955173261e-34,1.904890962e-34,1.879892507e-34,1.864713823e-34,1.853269114e-34,1.843234889e-34,1.833743791e-34,1.824477526e-34,1.815320785e-34,1.806232157e-34,1.79719681e-34,1.788209374e-34],
				"wstar": [0,0,0,0,0,0,0,0,0,0,0,0,0,0,0,0,0,0,0,0,0],
				"Rstar": [0,0,-1.871740195e-33,-9.518297088e-34,-7.919404236e-34,-8.122085122e-34,-8.470578476e-34,-8.671143542e-34,-8.748079624e-34,-8.757625529e-34,-8.735922016e-34,-8.700997844e-34,-8.660855674e-34,-8.618812811e-34,-8.576183367e-34,-8.533471141e-34,-8.49086433e-34,-8.448431534e-34,-8.40619697e-34,-8.364168647e-34,-8.322348732e-34],
				"interest": [0,0.6727046377,0.4038482494,0.2684690424,0.1950202511,0.1511682504,0.1221702574,0.1011939683,0.08498079331,0.07190058289,0.06107700393,0.05199254121,0.0443086171,0.03778241557,0.03222736583,0.0274934968,0.02345696988,0.02001396418,0.01707671911,0.01457072133,0.0124325567],
				"inflation": [0,-0.025331842,-0.04770190844,-0.06712737321,-0.08385357115,-0.07286119703,-0.06275671454,-0.0538105452,-0.04603198932,-0.03932991485,-0.03358224147,-0.02866497445,-0.02446344309,-0.02087583464,-0.01781350069,-0.01520000659,-0.01296977821,-0.01106670464,-0.009442837471,-0.00805723229,-0.006874938563],
				"inflationq": [0,-0.101327368,-0.08948026577,-0.07770185909,-0.06690479175,-0.05735787152,-0.04906233581,-0.04191718171,-0.03579056824,-0.03054957364,-0.02607164228,-0.02224811365,-0.0189844428,-0.01619913985,-0.01382230645,-0.01179413724,-0.01006352928,-0.008586845602,-0.007326837762,-0.006251716516,-0.005334354372],
				"outputgap": [0,-0.2982214266,-0.3878790626,-0.3906509339,-0.3600309915,-0.3191473232,-0.2776609408,-0.239308632,-0.2052627036,-0.1756214556,-0.1500652349,-0.1281407632,-0.1093805097,-0.09334941542,-0.07966009574,-0.06797477828,-0.05800201924,-0.04949169319,-0.04222973005,-0.0360331822,-0.03074581777],
				"output": [0,-0.2982214266,-0.3878790626,-0.3906509339,-0.3600309915,-0.3191473232,-0.2776609408,-0.239308632,-0.2052627036,-0.1756214556,-0.1500652349,-0.1281407632,-0.1093805097,-0.09334941542,-0.07966009574,-0.06797477828,-0.05800201924,-0.04949169319,-0.04222973005,-0.0360331822,-0.03074581777],
				"AUX_ENDO_LEAD_77": [0,-0.08948026577,-0.07770185909,-0.06690479175,-0.05735787152,-0.04906233581,-0.04191718171,-0.03579056824,-0.03054957364,-0.02607164228,-0.02224811365,-0.0189844428,-0.01619913985,-0.01382230645,-0.01179413724,-0.01006352928,-0.008586845602,-0.007326837762,-0.006251716516,-0.005334354372,-0.004551603154],
				"AUX_ENDO_LEAD_81": [0,-0.07770185909,-0.06690479175,-0.05735787152,-0.04906233581,-0.04191718171,-0.03579056824,-0.03054957364,-0.02607164228,-0.02224811365,-0.0189844428,-0.01619913985,-0.01382230645,-0.01179413724,-0.01006352928,-0.008586845602,-0.007326837762,-0.006251716516,-0.005334354372,-0.004551603154,-0.003883710814],
				"AUX_ENDO_LEAD_85": [0,-0.06690479175,-0.05735787152,-0.04906233581,-0.04191718171,-0.03579056824,-0.03054957364,-0.02607164228,-0.02224811365,-0.0189844428,-0.01619913985,-0.01382230645,-0.01179413724,-0.01006352928,-0.008586845602,-0.007326837762,-0.006251716516,-0.005334354372,-0.004551603154,-0.003883710814,-0.003313823416],
				"AUX_ENDO_LEAD_112": [0,-0.3878790626,-0.3906509339,-0.3600309915,-0.3191473232,-0.2776609408,-0.239308632,-0.2052627036,-0.1756214556,-0.1500652349,-0.1281407632,-0.1093805097,-0.09334941542,-0.07966009574,-0.06797477828,-0.05800201924,-0.04949169319,-0.04222973005,-0.0360331822,-0.03074581777,-0.02623427206],
				"AUX_ENDO_LEAD_116": [0,-0.3906509339,-0.3600309915,-0.3191473232,-0.2776609408,-0.239308632,-0.2052627036,-0.1756214556,-0.1500652349,-0.1281407632,-0.1093805097,-0.09334941542,-0.07966009574,-0.06797477828,-0.05800201924,-0.04949169319,-0.04222973005,-0.0360331822,-0.03074581777,-0.02623427206,-0.02238472404],
				"AUX_ENDO_LEAD_120": [0,-0.3600309915,-0.3191473232,-0.2776609408,-0.239308632,-0.2052627036,-0.1756214556,-0.1500652349,-0.1281407632,-0.1093805097,-0.09334941542,-0.07966009574,-0.06797477828,-0.05800201924,-0.04949169319,-0.04222973005,-0.0360331822,-0.03074581777,-0.02623427206,-0.02238472404,-0.01910004299],
				"AUX_ENDO_LEAD_147": [0,-0.3878790626,-0.3906509339,-0.3600309915,-0.3191473232,-0.2776609408,-0.239308632,-0.2052627036,-0.1756214556,-0.1500652349,-0.1281407632,-0.1093805097,-0.09334941542,-0.07966009574,-0.06797477828,-0.05800201924,-0.04949169319,-0.04222973005,-0.0360331822,-0.03074581777,-0.02623427206],
				"AUX_ENDO_LEAD_151": [0,-0.3906509339,-0.3600309915,-0.3191473232,-0.2776609408,-0.239308632,-0.2052627036,-0.1756214556,-0.1500652349,-0.1281407632,-0.1093805097,-0.09334941542,-0.07966009574,-0.06797477828,-0.05800201924,-0.04949169319,-0.04222973005,-0.0360331822,-0.03074581777,-0.02623427206,-0.02238472404],
				"AUX_ENDO_LEAD_155": [0,-0.3600309915,-0.3191473232,-0.2776609408,-0.239308632,-0.2052627036,-0.1756214556,-0.1500652349,-0.1281407632,-0.1093805097,-0.09334941542,-0.07966009574,-0.06797477828,-0.05800201924,-0.04949169319,-0.04222973005,-0.0360331822,-0.03074581777,-0.02623427206,-0.02238472404,-0.01910004299],
				"AUX_ENDO_LAG_0_1": [0,0,-0.025331842,-0.02237006644,-0.01942546477,-0.01672619794,-0.01433946788,-0.01226558395,-0.01047929543,-0.008947642059,-0.007637393411,-0.00651791057,-0.005562028412,-0.004746110701,-0.004049784962,-0.003455576613,-0.00294853431,-0.00251588232,-0.0021467114,-0.00183170944,-0.001562929129],
				"AUX_ENDO_LAG_0_2": [0,0,-5.783016762e-17,-0.025331842,-0.02237006644,-0.01942546477,-0.01672619794,-0.01433946788,-0.01226558395,-0.01047929543,-0.008947642059,-0.007637393411,-0.00651791057,-0.005562028412,-0.004746110701,-0.004049784962,-0.003455576613,-0.00294853431,-0.00251588232,-0.0021467114,-0.00183170944],
				"AUX_ENDO_LAG_17_1": [0,0,-0.2982214266,-0.3878790626,-0.3906509339,-0.3600309915,-0.3191473232,-0.2776609408,-0.239308632,-0.2052627036,-0.1756214556,-0.1500652349,-0.1281407632,-0.1093805097,-0.09334941542,-0.07966009574,-0.06797477828,-0.05800201924,-0.04949169319,-0.04222973005,-0.0360331822],
				"AUX_ENDO_LAG_17_2": [0,0,0,-0.2982214266,-0.3878790626,-0.3906509339,-0.3600309915,-0.3191473232,-0.2776609408,-0.239308632,-0.2052627036,-0.1756214556,-0.1500652349,-0.1281407632,-0.1093805097,-0.09334941542,-0.07966009574,-0.06797477828,-0.05800201924,-0.04949169319,-0.04222973005],
				"AUX_ENDO_LAG_17_3": [0,0,0,0,-0.2982214266,-0.3878790626,-0.3906509339,-0.3600309915,-0.3191473232,-0.2776609408,-0.239308632,-0.2052627036,-0.1756214556,-0.1500652349,-0.1281407632,-0.1093805097,-0.09334941542,-0.07966009574,-0.06797477828,-0.05800201924,-0.04949169319],
				"AUX_ENDO_LAG_16_1": [0,0,-0.2982214266,-0.3878790626,-0.3906509339,-0.3600309915,-0.3191473232,-0.2776609408,-0.239308632,-0.2052627036,-0.1756214556,-0.1500652349,-0.1281407632,-0.1093805097,-0.09334941542,-0.07966009574,-0.06797477828,-0.05800201924,-0.04949169319,-0.04222973005,-0.0360331822],
				"AUX_ENDO_LAG_16_2": [0,0,0,-0.2982214266,-0.3878790626,-0.3906509339,-0.3600309915,-0.3191473232,-0.2776609408,-0.239308632,-0.2052627036,-0.1756214556,-0.1500652349,-0.1281407632,-0.1093805097,-0.09334941542,-0.07966009574,-0.06797477828,-0.05800201924,-0.04949169319,-0.04222973005],
				"AUX_ENDO_LAG_16_3": [0,0,0,0,-0.2982214266,-0.3878790626,-0.3906509339,-0.3600309915,-0.3191473232,-0.2776609408,-0.239308632,-0.2052627036,-0.1756214556,-0.1500652349,-0.1281407632,-0.1093805097,-0.09334941542,-0.07966009574,-0.06797477828,-0.05800201924,-0.04949169319],
				"AUX_ENDO_LAG_13_1": [0,0,0.6727046377,0.4038482494,0.2684690424,0.1950202511,0.1511682504,0.1221702574,0.1011939683,0.08498079331,0.07190058289,0.06107700393,0.05199254121,0.0443086171,0.03778241557,0.03222736583,0.0274934968,0.02345696988,0.02001396418,0.01707671911,0.01457072133],
				"AUX_ENDO_LAG_13_2": [0,0,0,0.6727046377,0.4038482494,0.2684690424,0.1950202511,0.1511682504,0.1221702574,0.1011939683,0.08498079331,0.07190058289,0.06107700393,0.05199254121,0.0443086171,0.03778241557,0.03222736583,0.0274934968,0.02345696988,0.02001396418,0.01707671911],
				"AUX_ENDO_LAG_13_3": [0,0,0,0,0.6727046377,0.4038482494,0.2684690424,0.1950202511,0.1511682504,0.1221702574,0.1011939683,0.08498079331,0.07190058289,0.06107700393,0.05199254121,0.0443086171,0.03778241557,0.03222736583,0.0274934968,0.02345696988,0.02001396418],
				"AUX_ENDO_LAG_15_1": [0,0,-0.101327368,-0.08948026577,-0.07770185909,-0.06690479175,-0.05735787152,-0.04906233581,-0.04191718171,-0.03579056824,-0.03054957364,-0.02607164228,-0.02224811365,-0.0189844428,-0.01619913985,-0.01382230645,-0.01179413724,-0.01006352928,-0.008586845602,-0.007326837762,-0.006251716516],
				"AUX_ENDO_LAG_15_2": [0,0,0,-0.101327368,-0.08948026577,-0.07770185909,-0.06690479175,-0.05735787152,-0.04906233581,-0.04191718171,-0.03579056824,-0.03054957364,-0.02607164228,-0.02224811365,-0.0189844428,-0.01619913985,-0.01382230645,-0.01179413724,-0.01006352928,-0.008586845602,-0.007326837762],
				"AUX_ENDO_LAG_15_3": [0,0,0,0,-0.101327368,-0.08948026577,-0.07770185909,-0.06690479175,-0.05735787152,-0.04906233581,-0.04191718171,-0.03579056824,-0.03054957364,-0.02607164228,-0.02224811365,-0.0189844428,-0.01619913985,-0.01382230645,-0.01179413724,-0.01006352928,-0.008586845602]
			}
		}
	}
}
