{
	"model": "US_CFOP14",
	"rule": "CMR",
	"data": {
		"AC": {
			"y": [1,0.974226672,0.9274803369,0.8717349379,0.8133550816,0.755874485,0.7012503299,0.6504941279,0.6040273639,0.5619015883,0.5239428428,0.4898489124,0.4592548597,0.4317763679,0.4070373443,0.3846864049,0.3644056272,0.3459140648,0.3289678494,0.313358194,0.2989082254],
			"k": [1,0.9859772363,0.9603371487,0.9290479055,0.8947026785,0.8586209431,0.8216074809,0.7842283854,0.7469144842,0.7100036259,0.6737614102,0.6383941563,0.6040587637,0.5708709667,0.5389124451,0.5082369472,0.4788755101,0.4508408616,0.4241310924,0.3987326963,0.3746230702],
			"L": [1,0.9729038583,0.9216164083,0.858553802,0.7911253742,0.7238768487,0.6595637774,0.5997611954,0.5452497052,0.4962783061,0.4527499437,0.4143538587,0.3806593416,0.3511808783,0.3254220391,0.3029037155,0.2831810228,0.2658521776,0.2505618653,0.237000973,0.2249040628],
			"mpk": [1,0.9815969716,0.9466029061,0.9011646632,0.8495517324,0.7948426176,0.7392659729,0.6844068253,0.6313541083,0.5808161863,0.53321407,0.4887566013,0.447500298,0.4093961268,0.3743253113,0.3421261378,0.3126135261,0.2855929144,0.2608697671,0.2382557887,0.2175727142],
			"w": [1,0.9554449068,0.9061335831,0.8579981738,0.812683095,0.7703684399,0.7308039858,0.6936647064,0.6586593089,0.6255529588,0.5941628461,0.5643472203,0.5359946454,0.5090152897,0.4833343978,0.4588876064,0.4356176817,0.413472304,0.3924026023,0.3723622115,0.3533066888],
			"p": [1,0.5864113261,0.3763227309,0.2368352381,0.1398329466,0.07333877757,0.02912114827,0.0009119014395,-0.01603913773,-0.02526322014,-0.02933575912,-0.03010032741,-0.02885087829,-0.02647546138,-0.02356715259,-0.02050823993,-0.01753316208,-0.01477488294,-0.01229855203,-0.01012554174,-0.008250299984],
			"s": [1,0.9463912021,0.8880701274,0.8318617352,0.7798316955,0.7322843597,0.6889222962,0.649282059,0.6128928578,0.5793299288,0.548228051,0.5192802496,0.492231388,0.4668704662,0.4430231253,0.4205449291,0.3993155899,0.3792341408,0.3602149761,0.342184655,0.3250793557],
			"lambda": [1,0.9661220698,0.9344784764,0.9023296544,0.8696286168,0.8369904929,0.80501764,0.77413107,0.7445697026,0.7164336887,0.6897302705,0.66441056,0.6403958413,0.6175950564,0.5959156804,0.5752699477,0.5555779637,0.5367688278,0.5187805607,0.5015593734,0.4850586316],
			"c": [1,0.9829132747,0.9539342294,0.921769143,0.8897620643,0.8591037701,0.8301144436,0.8027698538,0.7769223162,0.7523943677,0.7290174556,0.7066461601,0.685161411,0.6644688856,0.644495532,0.6251856269,0.6064970263,0.5883978901,0.5708639603,0.5538763832,0.5374200159],
			"R": [1,0.963513363,0.8866519776,0.79015131,0.687410899,0.5867985133,0.4932106446,0.4091862257,0.3357054784,0.2727576462,0.2197382413,0.1757213034,0.1396410164,0.1104084949,0.08698298097,0.06841163572,0.05384824966,0.04255828196,0.03391545434,0.02739351353,0.02255559924],
			"u": [1,0.9815969716,0.9466029061,0.9011646632,0.8495517324,0.7948426176,0.7392659729,0.6844068253,0.6313541083,0.5808161863,0.53321407,0.4887566013,0.447500298,0.4093961268,0.3743253113,0.3421261378,0.3126135261,0.2855929144,0.2608697671,0.2382557887,0.2175727142],
			"i": [1,0.9757694664,0.9176872972,0.8378558991,0.7458702148,0.6490314091,0.5526593389,0.4604353443,0.3747345897,0.296925759,0.2276281487,0.1669238901,0.1145275436,0.0699176734,0.03243599592,0.001359817736,-0.02404688877,-0.04449904368,-0.06066863859,-0.07317223793,-0.08256516502],
			"kbar": [1,0.9876516213,0.9638680482,0.9340156737,0.9005608557,0.8648615418,0.8278101199,0.7900666665,0.7521474769,0.7144630557,0.6773385511,0.6410278731,0.6057251486,0.5715746111,0.538679232,0.5071081884,0.4769032426,0.4480841219,0.4206530046,0.3945982275,0.3698973289],
			"wgap": [1,0.9604779474,0.9148075286,0.8650996185,0.8135486282,0.7620115291,0.711887959,0.6641363551,0.619342213,0.5777992863,0.5395863686,0.5046328286,0.4727711463,0.4437770781,0.4173990861,0.3933789727,0.3714656085,0.3514234335,0.3330371329,0.3161136192,0.3004821954],
			"gdp": [1,0.9750037116,0.9296074853,0.8755137584,0.8188770025,0.7630833428,0.7099944965,0.6605666496,0.6151954167,0.5739272038,0.5365968053,0.5029194721,0.4725526199,0.4451364292,0.4203195539,0.3977743565,0.3772048941,0.3583500182,0.3409833087,0.3249110783,0.3099693146],
			"z": [1,0.37,0.1369,0.050653,0.01874161,0.0069343957,0.002565726409,0.0009493187713,0.0003512479454,0.0001299617398,4.808584372e-05,1.779176218e-05,6.582952006e-06,2.435692242e-06,9.012061296e-07,3.33446268e-07,1.233751191e-07,4.564879409e-08,1.689005381e-08,6.249319912e-09,2.312248369e-09],
			"g": [1,0.99,0.9801,0.970299,0.96059601,0.9509900499,0.9414801494,0.9320653479,0.9227446944,0.9135172475,0.904382075,0.8953382543,0.8863848717,0.877521023,0.8687458128,0.8600583546,0.8514577711,0.8429431934,0.8345137615,0.8261686238,0.8179069376],
			"miu": [1,0.35,0.1225,0.042875,0.01500625,0.0052521875,0.001838265625,0.0006433929687,0.0002251875391,7.881563867e-05,2.758547354e-05,9.654915737e-06,3.379220508e-06,1.182727178e-06,4.139545122e-07,1.448840793e-07,5.070942774e-08,1.774829971e-08,6.211904894e-09,2.17416671e-09,7.609583458e-10],
			"lambdap": [1,0.5036750484,0.4784912959,0.4545667311,0.4318383946,0.4102464749,0.3897341511,0.3702474436,0.3517350714,0.3341483178,0.3174409019,0.3015688568,0.286490414,0.2721658933,0.2585575986,0.2456297187,0.2333482328,0.2216808211,0.2105967801,0.2000669411,0.190063594],
			"lambdaw": [1,-0.01876418663,-0.01801361917,-0.0172930744,-0.01660135142,-0.01593729737,-0.01529980547,-0.01468781325,-0.01410030072,-0.0135362887,-0.01299483715,-0.01247504366,-0.01197604192,-0.01149700024,-0.01103712023,-0.01059563542,-0.01017181,-0.009764937603,-0.009374340099,-0.008999366495,-0.008639391835],
			"b": [1,0.58,0.3364,0.195112,0.11316496,0.0656356768,0.03806869254,0.02207984168,0.01280630817,0.00742765874,0.004308042069,0.0024986644,0.001449225352,0.0008405507042,0.0004875194084,0.0002827612569,0.000164001529,9.512088681e-05,5.517011435e-05,3.199866632e-05,1.855922647e-05],
			"mp": [1,"_Inf_","_Inf_","_Inf_","_Inf_","_Inf_","_Inf_","_Inf_","_Inf_","_Inf_","_Inf_","_Inf_","_Inf_","_Inf_","_Inf_","_Inf_","_Inf_","_Inf_","_Inf_","_Inf_","_Inf_"],
			"ARMAlambdap": [1,1.29160757e-18,-1.967978079e-19,-1.785061794e-19,-1.598435658e-19,-1.413560918e-19,-1.235498683e-19,-1.068311674e-19,-9.148672193e-20,-7.76871755e-20,-6.550247182e-20,-5.492207823e-20,-4.58757813e-20,-3.825269809e-20,-3.191738777e-20,-2.672272099e-20,-2.251961743e-20,-1.916400096e-20,-1.652142377e-20,-1.446982806e-20,-1.290088275e-20],
			"ARMAlambdaw": [1,2.00698599e-17,3.716252567e-19,4.788130058e-19,5.687880939e-19,6.434572431e-19,7.045530706e-19,7.536585763e-19,7.922204749e-19,8.215570074e-19,8.428635585e-19,8.572178873e-19,8.655858229e-19,8.688277089e-19,8.677055544e-19,8.628907023e-19,8.549717635e-19,8.444625738e-19,8.318099616e-19,8.17401161e-19,8.015707518e-19],
			"ystar": [1,0.9384055012,0.8640445826,0.7972178547,0.7409920037,0.6938632155,0.6536786398,0.6186529065,0.587495346,0.5593134273,0.5334934642,0.5096073642,0.4873488809,0.4664923097,0.4468662314,0.4283368123,0.4107970328,0.3941595765,0.3783519926,0.3633132954,0.3489914952],
			"kstar": [1,0.9851057952,0.9586432943,0.9275280971,0.8944848645,0.8606641146,0.8266111708,0.7926288899,0.7589156077,0.7256188301,0.692856879,0.6607281209,0.6293152731,0.5986877087,0.5689029254,0.540007653,0.5120387984,0.4850243095,0.4589839917,0.4339302883,0.4098690266],
			"Lstar": [1,0.9165694436,0.8203861476,0.7337678108,0.6605649396,0.599461686,0.5482196399,0.504851296,0.4678214537,0.4359846928,0.4084811272,0.3846494306,0.3639654152,0.3460013238,0.330399433,0.3168549042,0.3051044308,0.2949184813,0.2860957801,0.278459198,0.2718525571],
			"mpkstar": [1,0.9880229643,0.9646540126,0.9352222074,0.9025412295,0.8681802452,0.8330611977,0.7977543771,0.762631049,0.7279449826,0.6938772232,0.6605613098,0.628097875,0.5965633865,0.5660156166,0.5364972565,0.5080384583,0.4806587441,0.4543685214,0.4291703459,0.4050600058],
			"wstar": [1,0.9880229643,0.9646540126,0.9352222074,0.9025412295,0.8681802452,0.8330611977,0.7977543771,0.762631049,0.7279449826,0.6938772232,0.6605613098,0.628097875,0.5965633865,0.5660156166,0.5364972565,0.5080384583,0.4806587441,0.4543685214,0.4291703459,0.4050600058],
			"sstar": [1,"_NaN_","_NaN_","_NaN_","_NaN_","_NaN_","_NaN_","_NaN_","_NaN_","_NaN_","_NaN_","_NaN_","_NaN_","_NaN_","_NaN_","_NaN_","_NaN_","_NaN_","_NaN_","_NaN_","_NaN_"],
			"lambdastar": [1,0.7848403324,0.6485222488,0.5595597663,0.4983133909,0.4532972795,0.4180243969,0.3888936509,0.3639110657,0.3419569987,0.322380403,0.3047794819,0.2888852501,0.2745006312,0.2614689886,0.2496580093,0.2389514718,0.2292450002,0.2204437973,0.2124613429,0.2052185529],
			"cstar": [1,0.9742077013,0.9310490024,0.8833729485,0.8360144029,0.7907666487,0.7482472238,0.7086074438,0.6718082355,0.637731101,0.6062249723,0.5771272329,0.5502737782,0.5255040995,0.5026639322,0.4816066183,0.4621937473,0.444295374,0.4277899801,0.4125642796,0.3985129297],
			"Rstar": [1,0.5153740663,0.2659491329,0.1380780106,0.0729370495,0.04003181594,0.02357437698,0.01542285822,0.01140600673,0.009407143115,0.008366387448,0.007762798116,0.007347064181,0.007004598379,0.006686150698,0.006373133125,0.006060618596,0.005749226574,0.005441402646,0.005139821609,0.004846783682],
			"ustar": [1,0.9880229643,0.9646540126,0.9352222074,0.9025412295,0.8681802452,0.8330611977,0.7977543771,0.762631049,0.7279449826,0.6938772232,0.6605613098,0.628097875,0.5965633865,0.5660156166,0.5364972565,0.5080384583,0.4806587441,0.4543685214,0.4291703459,0.4050600058],
			"istar": [1,0.9708113942,0.9108617278,0.8364980708,0.7570400627,0.6776519107,0.6011105832,0.5288425118,0.4615151682,0.399369824,0.3424077443,0.2904946537,0.2434199802,0.2009311018,0.1627536964,0.1286042517,0.09819804421,0.07125440455,0.04750028103,0.02667267819,0.008520312853],
			"kbarstar": [1,0.9863504862,0.9617757444,0.9325410517,0.9011620495,0.8687397326,0.8358255488,0.8027461256,0.7697275345,0.7369442439,0.7045392868,0.6726331745,0.6413282853,0.6107113717,0.5808552536,0.5518201412,0.5236547764,0.4963974741,0.4700770974,0.4447139806,0.4203208036],
			"wgapstar": [1,"_NaN_","_NaN_","_NaN_","_NaN_","_NaN_","_NaN_","_NaN_","_NaN_","_NaN_","_NaN_","_NaN_","_NaN_","_NaN_","_NaN_","_NaN_","_NaN_","_NaN_","_NaN_","_NaN_","_NaN_"],
			"gdpstar": [1,0.9441602293,0.8756646151,0.8134383071,0.7604655508,0.7154773214,0.6765773016,0.6421874407,0.6111713822,0.5827496809,0.5563926487,0.5317362324,0.5085244457,0.4865720841,0.4657410567,0.4459253715,0.4270414917,0.4090220089,0.3918113746,0.3753629353,0.3596368087],
			"Rk": [1,0.2514916129,0.1088126719,0.01979351741,-0.03265483143,-0.06051633834,-0.07236992707,-0.07424990826,-0.07029906189,-0.06328402934,-0.05499156373,-0.04652536896,-0.03852382883,-0.03131676533,-0.02503624757,-0.01969338652,-0.01523035834,-0.01155468067,-0.008560996474,-0.006144237449,-0.004206978109],
			"Rkstar": [1,-0.1603260738,-0.1076376441,-0.06816560774,-0.04262596511,-0.02709492471,-0.01787577117,-0.01239972176,-0.009074986039,-0.006970588881,-0.005559692623,-0.004549854569,-0.003780323658,-0.003162827694,-0.002648434007,-0.002209370042,-0.001829194683,-0.001497544047,-0.001207348209,-0.0009533674984,-0.000731426472],
			"q": [1,0.9589150655,0.8946893859,0.8192508964,0.7404044859,0.6630453076,0.5900435157,0.522896421,0.4622003812,0.407984907,0.3599438926,0.3175916256,0.2803648375,0.2476867848,0.219005176,0.1938125239,0.1716550525,0.1521344549,0.1349054501,0.1196711122,0.1061772488],
			"qstar": [1,0.7828056376,0.6328210561,0.5280044598,0.4518608581,0.393743681,0.347204747,0.3084400796,0.2752103426,0.2461722322,0.220487745,0.1976033282,0.1771275247,0.158763933,0.1422745952,0.1274598926,0.1141473107,0.1021849471,0.09143755589,0.08178395836,0.07311520502],
			"Rl": [1,0.02505920098,0.01329795229,0.006452524848,0.002578419321,0.0005953021422,-0.0002318331667,-0.0004045186388,-0.0002503267905,2.927920907e-05,0.000320245979,0.0005662050561,0.000746704159,0.0008619405859,0.0009225220984,0.0009429521981,0.0009377699452,0.0009195077389,0.0008978376232,0.0008794489006,0.0008683366672],
			"Rlstar": [1,-0.08997430908,-0.06827081065,-0.04486065861,-0.0279213129,-0.01717262159,-0.01074024092,-0.00698477694,-0.004795949639,-0.003495639464,-0.002691566492,-0.002164039685,-0.00179252375,-0.001511717712,-0.001286446341,-0.001097712094,-0.0009351009008,-0.0007927108045,-0.0006669976281,-0.0005556487231,-0.0004570012089],
			"Rd": [1,0.8015751062,0.6412507896,0.5092605654,0.4014926162,0.3143496963,0.2444591458,0.1887966419,0.1447450772,0.1100914796,0.08299383402,0.06193653936,0.04568378634,0.03323527632,0.02378626303,0.0166926334,0.01144107113,0.007623992178,0.004918769549,0.003070700437,0.001879166957],
			"Rdstar": [1,0.5153740663,0.2659491329,0.1380780106,0.0729370495,0.04003181594,0.02357437698,0.01542285822,0.01140600673,0.009407143115,0.008366387448,0.007762798116,0.007347064181,0.007004598379,0.006686150698,0.006373133125,0.006060618596,0.005749226574,0.005441402646,0.005139821609,0.004846783682],
			"Rke": [1,0.773091484,0.5831270168,0.4290741272,0.3085111771,0.2171274884,0.1499246545,0.102011011,0.06899797482,0.04715665922,0.0334416039,0.02544465659,0.02131602494,0.01967422742,0.01951736401,0.02014232525,0.0210749383,0.02201184206,0.0227736051,0.02326792765,0.02346148325],
			"Rkestar": [1,0.5616769953,0.3069349528,0.1643470157,0.08662212068,0.04515841027,0.02349031967,0.01242643043,0.006944683456,0.00434642302,0.003202610472,0.00276763739,0.002659091168,0.002685210893,0.002752994517,0.002819786592,0.002868056486,0.002892423526,0.002893085675,0.002872560145,0.00283411521],
			"nw": [1,0.9762025985,0.9332754374,0.8830527464,0.8310452663,0.7798922898,0.7308331635,0.6843901767,0.6407115001,0.5997540522,0.5613842134,0.5254333904,0.4917277172,0.4601027349,0.4304094573,0.4025156885,0.376304923,0.3516742059,0.3285317319,0.3067945891,0.2863868351],
			"nwstar": [1,0.9872800286,0.9574820889,0.919078017,0.8767452897,0.8330936536,0.789588755,0.7470535636,0.7059442248,0.6665038578,0.6288495818,0.593022621,0.5590177505,0.5268010197,0.4963207044,0.467514264,0.4403128797,0.414644484,0.3904358199,0.3676138565,0.346106763],
			"lamefp": [1,0.87,0.7569,0.658503,0.57289761,0.4984209207,0.433626201,0.3772547949,0.3282116715,0.2855441542,0.2484234142,0.2161283703,0.1880316822,0.1635875635,0.1423211803,0.1238194268,0.1077229013,0.09371892416,0.08153546402,0.0709358537,0.06171419272],
			"spr": [1,0.9027889734,0.7884091031,0.6722488104,0.5628120088,0.464362668,0.3785648298,0.3055308817,0.2444974399,0.1942578262,0.1534329068,0.1206344927,0.09455800683,0.07402941294,0.0580233726,0.04566402543,0.03621592835,0.02907003134,0.02372775383,0.01978500734,0.01691720399],
			"sprstar": [1,0.3948890173,0.1677623814,0.08091057827,0.04632640649,0.0313996289,0.02402306959,0.01968106575,0.01667149542,0.01433731926,0.01241172151,0.0107753516,0.009366102831,0.00814538183,0.007085324968,0.006163804549,0.005362351534,0.004665187217,0.004058691191,0.003531053311,0.003072013412],
			"promz": [1,0.03098656803,0.008646303088,-0.004079848278,-0.01072140345,-0.01349508012,-0.01392201357,-0.01303325908,-0.01150328331,-0.009753037764,-0.008028810517,-0.006460653056,-0.005104376924,-0.003970875889,-0.003045978754,-0.002303416366,-0.001712909561,-0.001244893693,-0.0008729969817,-0.0005750768788,-0.0003333791249],
			"promzstar": [1,-0.01366272706,0.01019488754,0.02744275104,0.03759794152,0.04266873498,0.04457131116,0.04464266561,0.04371275173,0.04226693792,0.04057905787,0.03879976321,0.03701016232,0.03525286385,0.03354943915,0.03191007035,0.03033881949,0.0288364853,0.02740214607,0.02603399172,0.02472977331],
			"upsilon": [1,0.89,0.7921,0.704969,0.62742241,0.5584059449,0.496981291,0.442313349,0.3936588806,0.3503564037,0.3118171993,0.2775173074,0.2469904036,0.2198214592,0.1956410987,0.1741205778,0.1549673143,0.1379209097,0.1227496096,0.1092471526,0.09722996578],
			"lamnw": [1,0.78,0.6084,0.474552,0.37015056,0.2887174368,0.2251996007,0.1756556885,0.1370114371,0.1068689209,0.08335775831,0.06501905148,0.05071486016,0.03955759092,0.03085492092,0.02406683832,0.01877213389,0.01464226443,0.01142096626,0.008908353681,0.006948515871],
			"lambdae": [1,0.9709042568,0.9405528857,0.9091449193,0.8773733677,0.8458813487,0.8151292732,0.7854003536,0.7568419993,0.729508434,0.7033948836,0.6784622831,0.6546540174,0.6319066584,0.6101564401,0.5893428398,0.5694102708,0.5503086042,0.5319930094,0.5144234393,0.4975639686],
			"lambdaestar": [1,0.8705296563,0.7772534118,0.7065634307,0.6500881292,0.6029245132,0.5622516624,0.5264346333,0.4944940362,0.465807371,0.4399462242,0.4165895307,0.3954781162,0.3763911187,0.3591337736,0.343530993,0.3294238444,0.3166674566,0.305129616,0.2946896964,0.2852377547],
			"credit": [1,0.962777589,0.9211167071,0.8781218093,0.8349575378,0.7921661475,0.7500833402,0.7089648868,0.6690209684,0.6304234213,0.5933069216,0.5577702065,0.5238785551,0.4916673246,0.4611460553,0.4323027168,0.4051077956,0.3795180446,0.3554798049,0.3329318674,0.3118078858],
			"gs": [1,-6.766406567e-16,-6.951587763e-16,-6.932231442e-16,-6.830998957e-16,-6.697244449e-16,-6.555964977e-16,-6.418551731e-16,-6.289676058e-16,-6.170922476e-16,-6.062555843e-16,-5.964321478e-16,-5.875774074e-16,-5.796392991e-16,-5.725611416e-16,-5.662818527e-16,-5.607359175e-16,-5.558538987e-16,-5.515635508e-16,-5.477913346e-16,-5.444640812e-16],
			"interest": [1,0.963513363,0.8866519776,0.79015131,0.687410899,0.5867985133,0.4932106446,0.4091862257,0.3357054784,0.2727576462,0.2197382413,0.1757213034,0.1396410164,0.1104084949,0.08698298097,0.06841163572,0.05384824966,0.04255828196,0.03391545434,0.02739351353,0.02255559924],
			"inflation": [1,0.9094315924,0.7280334871,0.5100779546,0.3040891078,0.1722566397,0.08406445953,0.02627468238,-0.009939666303,-0.03109095545,-0.04198791653,-0.04612246733,-0.0459817227,-0.04330034777,-0.03925936076,-0.03463927031,-0.02993593515,-0.02544685314,-0.02133446343,-0.01767186697,-0.01447529244],
			"inflationq": [1,0.5864113261,0.3763227309,0.2368352381,0.1398329466,0.07333877757,0.02912114827,0.0009119014395,-0.01603913773,-0.02526322014,-0.02933575912,-0.03010032741,-0.02885087829,-0.02647546138,-0.02356715259,-0.02050823993,-0.01753316208,-0.01477488294,-0.01229855203,-0.01012554174,-0.008250299984],
			"outputgap": [1,0.9854450512,0.9526970199,0.9092772733,0.8603565051,0.8094481024,0.7588858466,0.7101590053,0.6641535117,0.6213291835,0.5818513751,0.5456888467,0.5126859174,0.4826148048,0.4552126992,0.4302071765,0.4073328383,0.3863414801,0.3670076086,0.3491307165,0.3325353923],
			"output": [1,0.9750037116,0.9296074853,0.8755137584,0.8188770025,0.7630833428,0.7099944965,0.6605666496,0.6151954167,0.5739272038,0.5365968053,0.5029194721,0.4725526199,0.4451364292,0.4203195539,0.3977743565,0.3772048941,0.3583500182,0.3409833087,0.3249110783,0.3099693146],
			"fispol": [1,-3.706340571e-16,-3.795699796e-16,-3.782822577e-16,-3.729039265e-16,-3.659026613e-16,-3.585282834e-16,-3.513503207e-16,-3.446023097e-16,-3.383634456e-16,-3.326469407e-16,-3.27440031e-16,-3.227204212e-16,-3.184620498e-16,-3.146365471e-16,-3.112133429e-16,-3.081596511e-16,-3.054407248e-16,-3.030204131e-16,-3.008619186e-16,-2.989286294e-16],
			"AUX_ENDO_LEAD_165": [1,0.6887492229,0.4625405762,0.2979958302,0.1809224261,0.09978111472,0.04521689611,0.009899827084,-0.01176119103,-0.02394486258,-0.02972055738,-0.03130549907,-0.03027336671,-0.02771902362,-0.02438620061,-0.02076498855,-0.01716527585,-0.01377133881,-0.01068187257,-0.007938919895,-0.00554844007],
			"AUX_ENDO_LEAD_169": [1,0.7140817106,0.4986277389,0.3398898883,0.2254463939,0.1447130901,0.08912041119,0.05194874769,0.02804130234,0.01350599769,0.005448414886,0.001747192142,0.000871374767,0.001735023288,0.00358330924,0.005904471653,0.008362601254,0.0107469438,0.01293413294,0.01486041997,0.01650154221],
			"AUX_ENDO_LEAD_173": [1,0.7573427995,0.5703214646,0.4287754749,0.3232855793,0.2457888081,0.1896724339,0.1496510477,0.1215756957,0.1022367482,0.08918383909,0.08057027549,0.07502274657,0.07153450204,0.06937919112,0.0680423258,0.06716744899,0.06651436003,0.06592708104,0.06530958865,0.06460765937],
			"AUX_ENDO_LEAD_200": [1,0.9775660755,0.9411368036,0.8965187717,0.8478268753,0.7979263184,0.7487525997,0.7015512146,0.6570613717,0.6156580969,0.5774618808,0.5424223586,0.5103810692,0.4811174617,0.4543816661,0.4299169954,0.4074746522,0.3868226581,0.3677506223,0.3500716152,0.3336221113],
			"AUX_ENDO_LEAD_204": [1,0.9706087013,0.930964588,0.8854584854,0.8372871907,0.7887133467,0.7412747901,0.6959561805,0.6533294394,0.6136671669,0.5770325036,0.5433487361,0.5124518695,0.4841292216,0.4581468366,0.4342681798,0.4122662064,0.3919305369,0.373071124,0.3555194983,0.3391284184],
			"AUX_ENDO_LEAD_208": [1,0.9654851727,0.9236161619,0.8777804496,0.8304705329,0.7834517216,0.737913155,0.6946000416,0.6539258257,0.6160643906,0.581023609,0.5487023233,0.5189331989,0.4915139451,0.4662292512,0.4428655177,0.4212201555,0.4011069084,0.3823583586,0.3648265158,0.3483821682],
			"AUX_ENDO_LEAD_235": [1,0.9656838925,0.9185260452,0.8656591858,0.8113047564,0.7580055308,0.7072544416,0.6598577501,0.6161669555,0.5762364168,0.5399335581,0.5070162417,0.4771864315,0.4501264792,0.4255227054,0.4030798071,0.3825287771,0.363630361,0.3461755592,0.3299842769,0.31490291],
			"AUX_ENDO_LEAD_239": [1,0.9603131422,0.9122407083,0.8604981779,0.808137958,0.7571046839,0.7085773297,0.6632013245,0.6212546976,0.5827694867,0.5476204622,0.5155891567,0.4864090858,0.4597967279,0.435471871,0.4131701714,0.3926501429,0.3736962784,0.3561195917,0.3397565236,0.3244668982],
			"AUX_ENDO_LEAD_243": [1,0.9569461645,0.9083342796,0.8575825279,0.8069904469,0.7580460047,0.7116486465,0.6682772687,0.6281178087,0.5911595161,0.5572664881,0.5262297084,0.4978038979,0.47173273,0.4477653088,0.4256662326,0.4052210723,0.3862386739,0.3685513512,0.3520137546,0.3365009811],
			"AUX_ENDO_LAG_5_1": [1,0.5864113261,0.3763227309,0.2368352381,0.1398329466,0.07333877757,0.02912114827,0.0009119014395,-0.01603913773,-0.02526322014,-0.02933575912,-0.03010032741,-0.02885087829,-0.02647546138,-0.02356715259,-0.02050823993,-0.01753316208,-0.01477488294,-0.01229855203,-0.01012554174,-0.008250299984],
			"AUX_ENDO_LAG_5_2": [1,0.5864113261,0.3763227309,0.2368352381,0.1398329466,0.07333877757,0.02912114827,0.0009119014396,-0.01603913773,-0.02526322014,-0.02933575912,-0.03010032741,-0.02885087829,-0.02647546138,-0.02356715259,-0.02050823993,-0.01753316208,-0.01477488294,-0.01229855203,-0.01012554174,-0.008250299984],
			"AUX_ENDO_LAG_65_1": [1,0.9750037116,0.9296074853,0.8755137584,0.8188770025,0.7630833428,0.7099944965,0.6605666496,0.6151954167,0.5739272038,0.5365968053,0.5029194721,0.4725526199,0.4451364292,0.4203195539,0.3977743565,0.3772048941,0.3583500182,0.3409833087,0.3249110783,0.3099693146],
			"AUX_ENDO_LAG_65_2": [1,0.9750037116,0.9296074853,0.8755137584,0.8188770025,0.7630833428,0.7099944965,0.6605666496,0.6151954167,0.5739272038,0.5365968053,0.5029194721,0.4725526199,0.4451364292,0.4203195539,0.3977743565,0.3772048941,0.3583500182,0.3409833087,0.3249110783,0.3099693146],
			"AUX_ENDO_LAG_65_3": [1,0.9750037116,0.9296074853,0.8755137584,0.8188770025,0.7630833428,0.7099944965,0.6605666496,0.6151954167,0.5739272038,0.5365968053,0.5029194721,0.4725526199,0.4451364292,0.4203195539,0.3977743565,0.3772048941,0.3583500182,0.3409833087,0.3249110783,0.3099693145],
			"AUX_ENDO_LAG_64_1": [1,0.9854450512,0.9526970199,0.9092772733,0.8603565051,0.8094481024,0.7588858466,0.7101590053,0.6641535117,0.6213291835,0.5818513751,0.5456888467,0.5126859174,0.4826148048,0.4552126992,0.4302071765,0.4073328383,0.3863414801,0.3670076086,0.3491307165,0.3325353923],
			"AUX_ENDO_LAG_64_2": [1,0.9854450512,0.9526970199,0.9092772733,0.8603565051,0.8094481024,0.7588858466,0.7101590053,0.6641535117,0.6213291835,0.5818513751,0.5456888467,0.5126859174,0.4826148048,0.4552126992,0.4302071765,0.4073328383,0.3863414801,0.3670076086,0.3491307165,0.3325353923],
			"AUX_ENDO_LAG_64_3": [1,0.9854450512,0.9526970199,0.9092772733,0.8603565051,0.8094481024,0.7588858466,0.7101590053,0.6641535117,0.6213291835,0.5818513751,0.5456888467,0.5126859174,0.4826148048,0.4552126992,0.4302071765,0.4073328383,0.3863414801,0.3670076086,0.3491307165,0.3325353923],
			"AUX_ENDO_LAG_61_1": [1,0.963513363,0.8866519776,0.79015131,0.687410899,0.5867985133,0.4932106446,0.4091862257,0.3357054784,0.2727576462,0.2197382413,0.1757213034,0.1396410164,0.1104084949,0.08698298097,0.06841163572,0.05384824966,0.04255828196,0.03391545434,0.02739351353,0.02255559924],
			"AUX_ENDO_LAG_61_2": [1,0.963513363,0.8866519776,0.79015131,0.687410899,0.5867985133,0.4932106446,0.4091862257,0.3357054784,0.2727576462,0.2197382413,0.1757213034,0.1396410164,0.1104084949,0.08698298097,0.06841163572,0.05384824966,0.04255828196,0.03391545434,0.02739351353,0.02255559924],
			"AUX_ENDO_LAG_61_3": [1,0.963513363,0.8866519776,0.79015131,0.687410899,0.5867985133,0.4932106446,0.4091862257,0.3357054784,0.2727576462,0.2197382413,0.1757213034,0.1396410164,0.1104084949,0.08698298097,0.06841163572,0.05384824966,0.04255828196,0.03391545434,0.02739351353,0.02255559924],
			"AUX_ENDO_LAG_63_1": [1,0.5864113261,0.3763227309,0.2368352381,0.1398329466,0.07333877757,0.02912114827,0.0009119014395,-0.01603913773,-0.02526322014,-0.02933575912,-0.03010032741,-0.02885087829,-0.02647546138,-0.02356715259,-0.02050823993,-0.01753316208,-0.01477488294,-0.01229855203,-0.01012554174,-0.008250299984],
			"AUX_ENDO_LAG_63_2": [1,0.5864113261,0.3763227309,0.2368352381,0.1398329466,0.07333877757,0.02912114827,0.0009119014396,-0.01603913773,-0.02526322014,-0.02933575912,-0.03010032741,-0.02885087829,-0.02647546138,-0.02356715259,-0.02050823993,-0.01753316208,-0.01477488294,-0.01229855203,-0.01012554174,-0.008250299984],
			"AUX_ENDO_LAG_63_3": [1,0.5864113261,0.3763227309,0.2368352381,0.1398329466,0.07333877757,0.02912114827,0.0009119014396,-0.01603913772,-0.02526322014,-0.02933575912,-0.03010032741,-0.02885087829,-0.02647546138,-0.02356715259,-0.02050823993,-0.01753316208,-0.01477488294,-0.01229855203,-0.01012554174,-0.008250299984]
		},
		"VAR": {
			"y": 21.66058725,
			"k": 59.65091822,
			"L": 16.30580939,
			"mpk": 41.77382063,
			"w": 9.550161853,
			"p": 0.2926848433,
			"s": 7.021216962,
			"lambda": 30.53539774,
			"c": 21.9202237,
			"R": 0.1970062315,
			"u": 1.562870923,
			"i": 230.7671748,
			"kbar": 71.77449584,
			"wgap": 276.5601574,
			"gdp": 21.53204478,
			"z": 0.9177383849,
			"g": 6.512562814,
			"miu": 0.3966951567,
			"lambdap": 0.1159670769,
			"lambdaw": 0.09720318878,
			"b": 0.001356238698,
			"mp": 0,
			"ARMAlambdap": 0.0729,
			"ARMAlambdaw": 0.0961,
			"ystar": 2.748141068,
			"kstar": 43.85448549,
			"Lstar": 1.29054343,
			"mpkstar": 32.16728568,
			"wstar": 1.167067054,
			"sstar": 0,
			"lambdastar": 29.25565556,
			"cstar": 14.14355073,
			"Rstar": 2.614276119,
			"ustar": 1.203464627,
			"istar": 116.3663381,
			"kbarstar": 56.35523244,
			"wgapstar": 0,
			"gdpstar": 3.133672011,
			"Rk": 1.233252268,
			"Rkstar": 12.29351285,
			"q": 16.28793941,
			"qstar": 29.46854593,
			"Rl": 5.589788779,
			"Rlstar": 53.66502813,
			"Rd": 0.1161322761,
			"Rdstar": 2.614276119,
			"Rke": 0.2412526469,
			"Rkestar": 3.041502495,
			"nw": 60.60047283,
			"nwstar": 357.0186716,
			"lamefp": 0.02632661456,
			"spr": 0.2446209966,
			"sprstar": 0.5288801541,
			"promz": 5.92969254,
			"promzstar": 68.62397165,
			"upsilon": 27.47522848,
			"lamnw": 1.932839632,
			"lambdae": 28.64941694,
			"lambdaestar": 19.36777717,
			"credit": 51.56376624,
			"gs": 0.1296,
			"interest": 3.152099705,
			"inflation": 2.779753623,
			"inflationq": 4.682957493,
			"outputgap": 16.69649333,
			"output": 21.53204478,
			"fispol": 0.1296,
			"AUX_ENDO_LEAD_165": 1.846009674,
			"AUX_ENDO_LEAD_169": 0.9249195262,
			"AUX_ENDO_LEAD_173": 0.5050123375,
			"AUX_ENDO_LEAD_200": 16.44837553,
			"AUX_ENDO_LEAD_204": 15.86963737,
			"AUX_ENDO_LEAD_208": 15.06141709,
			"AUX_ENDO_LEAD_235": 20.81244981,
			"AUX_ENDO_LEAD_239": 19.62921634,
			"AUX_ENDO_LEAD_243": 18.25682575,
			"AUX_ENDO_LAG_5_1": 0.2926848433,
			"AUX_ENDO_LAG_5_2": 0.2926848433,
			"AUX_ENDO_LAG_65_1": 21.53204478,
			"AUX_ENDO_LAG_65_2": 21.53204478,
			"AUX_ENDO_LAG_65_3": 21.53204478,
			"AUX_ENDO_LAG_64_1": 16.69649333,
			"AUX_ENDO_LAG_64_2": 16.69649333,
			"AUX_ENDO_LAG_64_3": 16.69649333,
			"AUX_ENDO_LAG_61_1": 3.152099705,
			"AUX_ENDO_LAG_61_2": 3.152099705,
			"AUX_ENDO_LAG_61_3": 3.152099705,
			"AUX_ENDO_LAG_63_1": 4.682957493,
			"AUX_ENDO_LAG_63_2": 4.682957493,
			"AUX_ENDO_LAG_63_3": 4.682957493
		},
		"IRF": {
			"interest_": {
				"y": [0,-0.1487869426,-0.2367081997,-0.2808440308,-0.2946439098,-0.2883835737,-0.2697087763,-0.2441523119,-0.2155919031,-0.1866393108,-0.15896087,-0.1335347083,-0.1108523321,-0.09107309035,-0.0741398776,-0.05986374581,-0.04798413708,-0.03821041062,-0.03024932436,-0.02382220845,-0.01867476207],
				"k": [0,-0.0252202394,-0.05325215423,-0.08068820216,-0.1054414354,-0.1263535339,-0.1429262755,-0.1551145722,-0.1631671074,-0.1675067396,-0.1686436156,-0.1671144362,-0.1634420377,-0.15811031,-0.1515503473,-0.1441345486,-0.1361761155,-0.1279320101,-0.1196079489,-0.1113644118,-0.1033229645],
				"L": [0,-0.1453040369,-0.2286664578,-0.2679682185,-0.2771757131,-0.26687654,-0.2448792327,-0.2167742945,-0.1864265065,-0.1563902728,-0.1282495515,-0.1028889253,-0.08070467655,-0.06176539934,-0.04593136808,-0.03294102403,-0.02247183864,-0.01418164559,-0.007735415268,-0.002821436147,0.0008400056859],
				"mpk": [0,-0.1303886377,-0.1928279557,-0.2093151947,-0.1967085728,-0.1673166362,-0.1298065223,-0.09003913784,-0.05177134146,-0.01722453782,0.01246714173,0.03691200864,0.05620175633,0.07072165361,0.08101531513,0.08769150979,0.09136262309,0.09260639492,0.09194432924,0.08983168405,0.08665520007],
				"w": [0,-0.01030484017,-0.01741365209,-0.02203517834,-0.02497429509,-0.02679363008,-0.02785356511,-0.02837941556,-0.02851194231,-0.02834100457,-0.0279269224,-0.02731350225,-0.02653560479,-0.02562325703,-0.02460366406,-0.02350201483,-0.0223416538,-0.02114396959,-0.01992820436,-0.01871129158,-0.01750777014],
				"p": [0,-0.04136200295,-0.04491315858,-0.04132299908,-0.03605704869,-0.03049161662,-0.02516613003,-0.02033978419,-0.01612648094,-0.01255236693,-0.009590862382,-0.00718611628,-0.005268678891,-0.003765633156,-0.002606799382,-0.001728215085,-0.001073778077,-0.0005956980759,-0.000254216201,-1.691161605e-05,0.0001421892586],
				"s": [0,-0.02951824778,-0.04547994066,-0.05199998096,-0.05245177952,-0.04927731105,-0.04416603826,-0.03824497113,-0.03223344617,-0.02656236989,-0.02146387214,-0.0170374205,-0.01329762701,-0.01020807133,-0.007704627388,-0.005711050889,-0.004148969494,-0.002943911268,-0.002028598982,-0.001344415478,-0.0008416949052],
				"lambda": [0,1.312232858,1.035514997,0.8131829061,0.6368265041,0.4982385035,0.3901679884,0.3064357451,0.2418936375,0.1923285861,0.1543450951,0.1252434451,0.1029033032,0.08567806549,0.07230235618,0.06181325886,0.05348472329,0.04677396348,0.04127836825,0.0367013697,0.03282577174],
				"c": [0,-0.06596579156,-0.1097870993,-0.1371522223,-0.1524934077,-0.1592142348,-0.1598953446,-0.15646871,-0.1503614532,-0.1426124601,-0.1339655459,-0.1249428987,-0.1159022572,-0.1070808959,-0.09862907019,-0.09063515296,-0.0831443062,-0.07617218087,-0.06971483971,-0.06375584322,-0.05827123044],
				"R": [0,0.2318047023,0.1810090923,0.1402993533,0.1080963839,0.08290438505,0.06339245914,0.04841562667,0.03701268445,0.02839262859,0.02191553376,0.01707146298,0.01345960458,0.01076890993,0.00876088224,0.007254757491,0.006115061735,0.005241379028,0.004560086934,0.004017787217,0.003576160108],
				"u": [0,-0.0252202394,-0.03729747692,-0.04048649801,-0.03804807984,-0.03236298572,-0.02510764455,-0.01741569397,-0.01001379912,-0.003331632073,0.002411439407,0.00713965351,0.0108707459,0.01367923668,0.01567027372,0.01696160731,0.01767168725,0.01791226207,0.01778420295,0.01737556751,0.01676116055],
				"i": [0,-0.4597702616,-0.714687823,-0.8237908956,-0.833851866,-0.7806508692,-0.6907131048,-0.5830533781,-0.4707714851,-0.3624364207,-0.2632425054,-0.1759454866,-0.1015999812,-0.04012557679,0.009269747977,0.04778160246,0.07679210865,0.09772277183,0.1119398493,0.1206981182,0.1251119263],
				"kbar": [0,-0.01595467732,-0.04020170415,-0.06739335559,-0.09399054822,-0.117818631,-0.1376988782,-0.1531533082,-0.1641751075,-0.171055055,-0.1742540897,-0.1743127836,-0.1717895467,-0.167220621,-0.161096156,-0.1538478028,-0.1458442722,-0.1373921518,-0.1287399793,-0.1200841251,-0.1115754759],
				"wgap": [0,1.794508703,1.793280637,1.699559989,1.551477876,1.376156344,1.192455022,1.012921188,0.8453675522,0.6941506063,0.5611841522,0.4467233997,0.349956552,0.2694395122,0.2034060299,0.1499813155,0.1073226025,0.07370577245,0.04757322165,0.02755474666,0.01247038233],
				"gdp": [0,-0.1447517043,-0.2307406034,-0.2743661911,-0.2885562171,-0.283205496,-0.2656915532,-0.2413658009,-0.2139896953,-0.1861062497,-0.1593467004,-0.1346770529,-0.1125916515,-0.09326176821,-0.0766471214,-0.06257760298,-0.05081160704,-0.04107637255,-0.03309479683,-0.02660229925,-0.02135654775],
				"z": [0,-1.907648744e-16,-7.154238823e-17,-2.732300393e-17,-1.085616522e-17,-4.663426471e-18,-2.280278731e-18,-1.316102172e-18,-8.867283741e-19,-6.647827316e-19,-5.285330965e-19,-4.321264465e-19,-3.576918911e-19,-2.976975625e-19,-2.484736945e-19,-2.078467242e-19,-1.742798141e-19,-1.465605975e-19,-1.23684674e-19,-1.048073441e-19,-8.921823668e-20],
				"g": [0,2.726898491e-16,9.952271244e-16,1.483890935e-15,1.813521131e-15,2.040761285e-15,2.205923604e-15,2.336809273e-15,2.451730295e-15,2.561985603e-15,2.673851838e-15,2.790142094e-15,2.911393727e-15,3.036748524e-15,3.1645853e-15,3.292958563e-15,3.419889208e-15,3.543545218e-15,3.662342927e-15,3.774992766e-15,3.880507802e-15],
				"miu": [0,0,3.871380412e-18,4.872690388e-18,4.859361158e-18,4.498938315e-18,4.036767405e-18,3.56558109e-18,3.121170254e-18,2.716920041e-18,2.35671433e-18,2.04007014e-18,1.764388917e-18,1.526067986e-18,1.321111285e-18,1.145487538e-18,9.953428423e-19,8.671211644e-19,7.576239928e-19,6.64029628e-19,5.838863617e-19],
				"lambdap": [0,3.000958602e-17,2.818381616e-17,2.658121237e-17,2.50796814e-17,2.367152254e-17,2.234980276e-17,2.110826264e-17,1.994123313e-17,1.884356288e-17,1.78105553e-17,1.683791437e-17,1.592169822e-17,1.50582794e-17,1.424431091e-17,1.347669705e-17,1.275256846e-17,1.206926048e-17,1.142429446e-17,1.081536143e-17,1.024030777e-17],
				"lambdaw": [0,1.338037155e-17,1.273139728e-17,1.226896366e-17,1.182291052e-17,1.139328598e-17,1.097976263e-17,1.058178557e-17,1.019867864e-17,9.829718028e-18,9.474180952e-18,9.131375804e-18,8.800658999e-18,8.481442505e-18,8.173195171e-18,7.875440134e-18,7.587749976e-18,7.309740792e-18,7.041065972e-18,6.781410173e-18,6.530483813e-18],
				"b": [0,1.151950233e-17,5.81589775e-18,2.58256332e-18,7.866837877e-19,-1.757202155e-19,-6.582030137e-19,-8.677935257e-19,-9.256022799e-19,-9.022484185e-19,-8.38620647e-19,-7.580798322e-19,-6.736551734e-19,-5.92302723e-19,-5.174337025e-19,-4.504192995e-19,-3.914870195e-19,-3.402534791e-19,-2.960389014e-19,-2.580500131e-19,-2.254834543e-19],
				"mp": [0,0,0,0,0,0,0,0,0,0,0,0,0,0,0,0,0,0,0,0,0],
				"ARMAlambdap": [0,0,-1.388488596e-19,-1.257850166e-19,-1.131460795e-19,-1.012217935e-19,-9.018290244e-20,-8.011155382e-20,-7.102635443e-20,-6.290236417e-20,-5.568658366e-20,-4.930960241e-20,-4.369408785e-20,-3.87607513e-20,-3.443235284e-20,-3.063622238e-20,-2.730568861e-20,-2.43807291e-20,-2.180808522e-20,-1.954102723e-20,-1.753890686e-20],
				"ARMAlambdaw": [0,0,-1.487803972e-19,-1.330967294e-19,-1.186925568e-19,-1.056152462e-19,-9.384973814e-20,-8.333891829e-20,-7.399945253e-20,-6.573369688e-20,-5.843834872e-20,-5.201047944e-20,-4.635152494e-20,-4.136972853e-20,-3.6981446e-20,-3.311164191e-20,-2.969383434e-20,-2.666968399e-20,-2.398837285e-20,-2.160587661e-20,-1.948420361e-20],
				"ystar": [0,3.87159548e-16,1.491368384e-15,1.80288174e-15,1.829018179e-15,1.72179008e-15,1.56294964e-15,1.395530134e-15,1.241017825e-15,1.108916349e-15,1.002154066e-15,9.201692905e-16,8.606747425e-16,8.206602286e-16,7.969517126e-16,7.865107384e-16,7.865820035e-16,7.947529252e-16,8.089633022e-16,8.274878911e-16,8.489055458e-16],
				"kstar": [0,1.947251911e-16,2.150936976e-16,-1.54699167e-16,-5.695581213e-16,-9.822617517e-16,-1.370908914e-15,-1.719067965e-15,-2.016409415e-15,-2.257721262e-15,-2.441774621e-15,-2.570277753e-15,-2.646975055e-15,-2.676905943e-15,-2.665819422e-15,-2.61972943e-15,-2.544590959e-15,-2.44607568e-15,-2.329426801e-15,-2.199375086e-15,-2.060100615e-15],
				"Lstar": [0,5.6232566e-16,2.171712407e-15,2.608505716e-15,2.704369409e-15,2.627201433e-15,2.471037165e-15,2.287921443e-15,2.105747941e-15,1.938488308e-15,1.792134151e-15,1.668189119e-15,1.565735362e-15,1.482656397e-15,1.416353866e-15,1.364157677e-15,1.323549497e-15,1.292272921e-15,1.268375657e-15,1.250212046e-15,1.236423632e-15],
				"mpkstar": [0,2.479066378e-16,1.35699669e-15,2.040943656e-15,2.487631929e-15,2.793448638e-15,3.015692304e-15,3.18187818e-15,3.305170332e-15,3.391958231e-15,3.44572573e-15,3.468970179e-15,3.464077068e-15,3.433646612e-15,3.380547224e-15,3.307846355e-15,3.218698846e-15,3.11623329e-15,3.003454889e-15,2.88317138e-15,2.757942404e-15],
				"wstar": [0,-1.243834359e-16,-5.818764091e-16,-7.147532095e-16,-7.848316106e-16,-8.17718313e-16,-8.291444514e-16,-8.279038602e-16,-8.18914722e-16,-8.04919365e-16,-7.87453554e-16,-7.674003794e-16,-7.453036026e-16,-7.215410856e-16,-6.964170662e-16,-6.702078525e-16,-6.431813631e-16,-6.156025687e-16,-5.87731908e-16,-5.598207559e-16,-5.321062186e-16],
				"sstar": [0,0,0,0,0,0,0,0,0,0,0,0,0,0,0,0,0,0,0,0,0],
				"lambdastar": [0,3.272516947e-15,8.751548908e-15,1.00452598e-14,1.025138863e-14,9.909136192e-15,9.321008333e-15,8.654177884e-15,7.997907182e-15,7.396500332e-15,6.868478884e-15,6.417880822e-15,6.040966451e-15,5.730196869e-15,5.476568808e-15,5.270948792e-15,5.10479537e-15,4.970508436e-15,4.861554544e-15,4.772461751e-15,4.698742886e-15],
				"cstar": [0,4.725758133e-16,8.075059408e-16,8.936563681e-16,8.128046358e-16,6.120594623e-16,3.23575454e-16,-2.759833906e-17,-4.205262213e-16,-8.373395729e-16,-1.262909025e-15,-1.684724436e-15,-2.09278443e-15,-2.479433568e-15,-2.839142429e-15,-3.168246917e-15,-3.464667962e-15,-3.727630637e-15,-3.957397249e-15,-4.155024124e-15,-4.322147621e-15],
				"Rstar": [0,-5.551232406e-15,-1.450033e-15,-3.522277362e-16,2.102745717e-16,4.757571405e-16,5.774246573e-16,5.907740013e-16,5.58913947e-16,5.064294423e-16,4.471502779e-16,3.886024253e-16,3.346080134e-16,2.868276138e-16,2.456854167e-16,2.109275423e-16,1.81958654e-16,1.58042789e-16,1.384202429e-16,1.223723433e-16,1.092539856e-16],
				"ustar": [0,4.772807816e-17,2.629223769e-16,3.948287386e-16,4.810132829e-16,5.400639274e-16,5.830272622e-16,6.151970476e-16,6.390985536e-16,6.559527291e-16,6.664232536e-16,6.709866079e-16,6.701003077e-16,6.642653168e-16,6.540357949e-16,6.400052689e-16,6.22784701e-16,6.029802655e-16,5.811743908e-16,5.579113179e-16,5.336872367e-16],
				"istar": [0,-2.260056026e-15,-3.708920804e-15,-5.35959359e-15,-6.661454536e-15,-7.434731659e-15,-7.680807471e-15,-7.480560666e-15,-6.941077168e-15,-6.1688875e-15,-5.257708489e-15,-4.284002542e-15,-3.306606909e-15,-2.368332361e-15,-1.498366216e-15,-7.148504335e-16,-2.731276331e-17,5.611958685e-16,1.052306619e-15,1.450876703e-15,1.763841816e-15],
				"kbarstar": [0,0,-4.363044942e-16,-9.166355913e-16,-1.388365886e-15,-1.830045309e-15,-2.225138443e-15,-2.562864648e-15,-2.837511282e-15,-3.047517698e-15,-3.19452828e-15,-3.28250086e-15,-3.31692481e-15,-3.304174304e-15,-3.250999902e-15,-3.164147854e-15,-3.050089663e-15,-2.914842325e-15,-2.76386022e-15,-2.601981613e-15,-2.433415291e-15],
				"wgapstar": [0,0,0,0,0,0,0,0,0,0,0,0,0,0,0,0,0,0,0,0,0],
				"gdpstar": [0,2.765204046e-16,1.067003082e-15,1.337487804e-15,1.359537828e-15,1.269995331e-15,1.141548192e-15,1.010800646e-15,8.94959054e-16,8.008096766e-16,7.296647365e-16,6.801060553e-16,6.495000428e-16,6.348200462e-16,6.33076848e-16,6.415281928e-16,6.577651591e-16,6.797315738e-16,7.057087102e-16,7.342836409e-16,7.643115387e-16],
				"Rk": [0,-0.4950920188,0.1529603242,0.1176031753,0.08747717323,0.06312579582,0.04409159648,0.02964465768,0.01899693989,0.01139517112,0.006165787757,0.00273350229,0.0006241509075,-0.0005414957792,-0.001058570397,-0.001150766409,-0.000983072755,-0.0006735876495,-0.0003039114903,7.206038815e-05,0.0004209280584],
				"Rkstar": [0,1.848259532e-15,-5.327825608e-15,-2.808678484e-15,-1.418249405e-15,-6.339555315e-16,-2.077765169e-16,6.543933428e-18,9.689646369e-17,1.167814734e-16,9.893349455e-17,6.328909158e-17,2.177596707e-17,-1.87350433e-17,-5.456960386e-17,-8.405627129e-17,-1.067511234e-16,-1.229312215e-16,-1.332644819e-16,-1.385971093e-16,-1.398200914e-16],
				"q": [0,-0.50873164,-0.36186527,-0.2455690815,-0.1566476752,-0.09076201321,-0.04356119141,-0.01106960789,0.01016001569,0.02300551818,0.02979602861,0.03236562966,0.03212167084,0.03011631438,0.02711457146,0.02365523718,0.020103195,0.01669285274,0.01356322884,0.01078560367,0.00838481055],
				"qstar": [0,2.038427445e-15,-1.635245669e-15,-3.20036029e-15,-3.662300676e-15,-3.543682956e-15,-3.144051734e-15,-2.633957767e-15,-2.108349087e-15,-1.617492813e-15,-1.185241302e-15,-8.200010708e-16,-5.213974192e-16,-2.843466053e-16,-1.015377817e-16,3.507508772e-17,1.334038605e-16,2.007497797e-16,2.43573904e-16,2.674202069e-16,2.769300902e-16],
				"Rl": [0,-1.162971152,0.2767178609,0.2223320914,0.176356402,0.1385880005,0.1080705151,0.08373224333,0.06454210761,0.04956505138,0.03798349098,0.02910165004,0.02234014187,0.01722523774,0.01337570931,0.01048909732,0.008328535569,0.006710759811,0.005495595229,0.00457699855,0.003875597959],
				"Rlstar": [0,4.396191331e-15,-4.996585322e-15,-3.97791147e-15,-2.351075944e-15,-1.40243323e-15,-8.5885612e-16,-5.594211326e-16,-4.065564402e-16,-3.399319485e-16,-3.218767264e-16,-3.28891025e-16,-3.465165681e-16,-3.661321956e-16,-3.828961242e-16,-3.943961737e-16,-3.997518923e-16,-3.990135802e-16,-3.927609182e-16,-3.818379682e-16,-3.671821554e-16],
				"Rd": [0,0.2767178609,0.2223320914,0.176356402,0.1385880005,0.1080705151,0.08373224333,0.06454210761,0.04956505138,0.03798349098,0.02910165004,0.02234014187,0.01722523774,0.01337570931,0.01048909732,0.008328535569,0.006710759811,0.005495595229,0.00457699855,0.003875597959,0.003332599112],
				"Rdstar": [0,-5.552849847e-15,-1.580142518e-15,-4.885419791e-16,8.198953289e-17,3.648119608e-16,4.885934514e-16,5.255265522e-16,5.165410563e-16,4.849022783e-16,4.437409365e-16,4.003143618e-16,3.584611644e-16,3.200355767e-16,2.857546792e-16,2.557022e-16,2.296285011e-16,2.071281056e-16,1.877429479e-16,1.710203311e-16,1.565432795e-16],
				"Rke": [0,0.1529603242,0.1176031753,0.08747717323,0.06312579582,0.04409159648,0.02964465768,0.01899693989,0.01139517112,0.006165787757,0.00273350229,0.0006241509075,-0.0005414957792,-0.001058570397,-0.001150766409,-0.000983072755,-0.0006735876495,-0.0003039114903,7.206038815e-05,0.0004209280584,0.0007240324641],
				"Rkestar": [0,-5.444124619e-15,-1.673504532e-15,-5.21499206e-16,8.963280411e-17,3.919272005e-16,5.186748448e-16,5.47512148e-16,5.240397223e-16,4.750640353e-16,4.161934863e-16,3.562899724e-16,3.001287968e-16,2.500153843e-16,2.067817016e-16,1.704062614e-16,1.404012836e-16,1.160533731e-16,9.657081094e-17,8.117082446e-17,6.912822166e-17],
				"nw": [0,0.1266691389,0.1491378474,0.1548229777,0.1465312751,0.1281505063,0.1034114338,0.0754884929,0.04687901485,0.01941205906,-0.005678336088,-0.02765246462,-0.04615875206,-0.06113441341,-0.07271914379,-0.08118410074,-0.08687609054,-0.09017557949,-0.0914665496,-0.09111604825,-0.08946136716],
				"nwstar": [0,-2.997074955e-16,-5.757762712e-15,-7.230503794e-15,-7.522687031e-15,-7.191551529e-15,-6.560561916e-15,-5.814705484e-15,-5.056838837e-15,-4.341151131e-15,-3.693177859e-15,-3.121851485e-15,-2.626789081e-15,-2.202699083e-15,-1.842026715e-15,-1.536513068e-15,-1.278080726e-15,-1.059302206e-15,-8.736122483e-16,-7.15366183e-16,-5.798094798e-16],
				"lamefp": [0,3.329799458e-17,3.284774406e-17,3.222191043e-17,3.143548771e-17,3.05088751e-17,2.946516151e-17,2.832816434e-17,2.712107034e-17,2.586554521e-17,2.458119948e-17,2.328531785e-17,2.199277731e-17,2.071609557e-17,1.946556452e-17,1.824943503e-17,1.707412816e-17,1.594445523e-17,1.486383455e-17,1.383449713e-17,1.285767634e-17],
				"spr": [0,-0.1237575367,-0.1047289161,-0.08887922881,-0.07546220472,-0.0639789186,-0.05408758565,-0.04554516771,-0.03816988026,-0.03181770322,-0.02636814775,-0.02171599097,-0.01776673352,-0.01443427971,-0.01163986373,-0.009311608324,-0.007384347461,-0.005799506719,-0.004504938162,-0.0034546699,-0.002608566648],
				"sprstar": [0,2.250242383e-16,-1.228535966e-15,-9.297074263e-16,-7.159450644e-16,-5.725884776e-16,-4.82049518e-16,-4.286300885e-16,-3.997595829e-16,-3.859687837e-16,-3.804518449e-16,-3.785383947e-16,-3.771962077e-16,-3.746051806e-16,-3.698109505e-16,-3.624533234e-16,-3.525597226e-16,-3.403925875e-16,-3.263400572e-16,-3.108404225e-16,-2.943322461e-16],
				"promz": [0,-1.198122686,0.2471452406,0.1973064764,0.1551181667,0.1205558452,0.09278236118,0.07080768394,0.05365881122,0.04044412505,0.03038045619,0.02280081987,0.01715097302,0.0129797681,0.009926549894,0.007707680695,0.006103469809,0.004946224822,0.004109767628,0.003500516024,0.003050083457],
				"promzstar": [0,4.472788067e-15,-5.500771439e-15,-4.953645703e-15,-3.141842758e-15,-2.018901019e-15,-1.322210018e-15,-8.929523341e-16,-6.323226728e-16,-4.77572542e-16,-3.883423453e-16,-3.385551271e-16,-3.114334959e-16,-2.963360166e-16,-2.866927543e-16,-2.786288173e-16,-2.700331243e-16,-2.599238083e-16,-2.480159032e-16,-2.344292225e-16,-2.194942538e-16],
				"upsilon": [0,0,0,0,0,0,0,0,0,0,0,0,0,0,0,0,0,0,0,0,0],
				"lamnw": [0,1.093098206e-16,8.535596056e-17,6.665166993e-17,5.20497327e-17,4.065270798e-17,3.175872227e-17,2.48190101e-17,1.940465228e-17,1.518051834e-17,1.188485353e-17,9.313289701e-18,7.30632381e-18,5.739514556e-18,4.515809632e-18,3.559542763e-18,2.811739114e-18,2.226445554e-18,1.767863412e-18,1.408109354e-18,1.125467636e-18],
				"lambdae": [0,1.035514997,0.8131829061,0.6368265041,0.4982385035,0.3901679884,0.3064357451,0.2418936375,0.1923285861,0.1543450951,0.1252434451,0.1029033032,0.08567806549,0.07230235618,0.06181325886,0.05348472329,0.04677396348,0.04127836825,0.0367013697,0.03282577174,0.02949317263],
				"lambdaestar": [0,8.738785208e-15,8.299644484e-15,8.829018507e-15,8.741824942e-15,8.353506112e-15,7.842573674e-15,7.307855301e-15,6.80150743e-15,6.348354713e-15,5.957396088e-15,5.628727023e-15,5.357723937e-15,5.137564108e-15,4.960719485e-15,4.819812396e-15,4.708073617e-15,4.619554298e-15,4.549188406e-15,4.492767715e-15,4.446869191e-15],
				"credit": [0,-1.21032364,-0.9822825759,-0.8053681368,-0.6687113797,-0.5630344868,-0.4809142838,-0.4165507151,-0.3654825725,-0.3243249009,-0.2905419822,-0.2622573532,-0.2380985324,-0.2170726152,-0.1984683642,-0.1817804234,-0.1666515894,-0.1528295302,-0.1401348566,-0.1284379668,-0.1176425581],
				"gs": [0,1.817932328e-16,4.835094492e-16,3.324107214e-16,2.296460698e-16,1.635835772e-16,1.237132877e-16,1.019632699e-16,9.219274365e-17,8.984840689e-17,9.165739401e-17,9.535251654e-17,9.943536897e-17,1.029791567e-16,1.054695072e-16,1.066794105e-16,1.065734871e-16,1.052366017e-16,1.02822107e-16,9.951551224e-17,9.550997635e-17],
				"interest": [0,0.9272188092,0.7240363692,0.5611974134,0.4323855356,0.3316175402,0.2535698366,0.1936625067,0.1480507378,0.1135705144,0.08766213505,0.06828585193,0.05383841832,0.04307563971,0.03504352896,0.02901902997,0.02446024694,0.02096551611,0.01824034773,0.01607114887,0.01430464043],
				"inflation": [0,-0.04136200295,-0.08627516153,-0.1275981606,-0.1636552093,-0.152784823,-0.1330377944,-0.1120545795,-0.09212401178,-0.07418476208,-0.05860949444,-0.04545582653,-0.03459802448,-0.02581129071,-0.01882722771,-0.01336932651,-0.0091744257,-0.00600449062,-0.003651907439,-0.00194060397,-0.0007246366343],
				"inflationq": [0,-0.1654480118,-0.1796526343,-0.1652919963,-0.1442281947,-0.1219664665,-0.1006645201,-0.08135913675,-0.06450592375,-0.05020946772,-0.03836344953,-0.02874446512,-0.02107471556,-0.01506253263,-0.01042719753,-0.006912860339,-0.004295112309,-0.002382792304,-0.001016864804,-6.764646419e-05,0.0005687570346],
				"outputgap": [0,-0.1447517043,-0.2307406034,-0.2743661911,-0.2885562171,-0.283205496,-0.2656915532,-0.2413658009,-0.2139896953,-0.1861062497,-0.1593467004,-0.1346770529,-0.1125916515,-0.09326176821,-0.0766471214,-0.06257760298,-0.05081160704,-0.04107637255,-0.03309479683,-0.02660229925,-0.02135654775],
				"output": [0,-0.1447517043,-0.2307406034,-0.2743661911,-0.2885562171,-0.283205496,-0.2656915532,-0.2413658009,-0.2139896953,-0.1861062497,-0.1593467004,-0.1346770529,-0.1125916515,-0.09326176821,-0.0766471214,-0.06257760298,-0.05081160704,-0.04107637255,-0.03309479683,-0.02660229925,-0.02135654775],
				"fispol": [0,9.089661638e-17,2.417547246e-16,1.662053607e-16,1.148230349e-16,8.179178859e-17,6.185664384e-17,5.098163495e-17,4.609637183e-17,4.492420345e-17,4.5828697e-17,4.767625827e-17,4.971768449e-17,5.148957833e-17,5.27347536e-17,5.333970523e-17,5.328674354e-17,5.261830085e-17,5.141105352e-17,4.975775612e-17,4.775498817e-17],
				"AUX_ENDO_LEAD_165": [0,-0.1796526343,-0.1652919963,-0.1442281947,-0.1219664665,-0.1006645201,-0.08135913675,-0.06450592375,-0.05020946772,-0.03836344953,-0.02874446512,-0.02107471556,-0.01506253263,-0.01042719753,-0.006912860339,-0.004295112309,-0.002382792304,-0.001016864804,-6.764646419e-05,0.0005687570346,0.0009742439846],
				"AUX_ENDO_LEAD_169": [0,-0.1652919963,-0.1442281947,-0.1219664665,-0.1006645201,-0.08135913675,-0.06450592375,-0.05020946772,-0.03836344953,-0.02874446512,-0.02107471556,-0.01506253263,-0.01042719753,-0.006912860339,-0.004295112309,-0.002382792304,-0.001016864804,-6.764646419e-05,0.0005687570346,0.0009742439846,0.001212394669],
				"AUX_ENDO_LEAD_173": [0,-0.1442281947,-0.1219664665,-0.1006645201,-0.08135913675,-0.06450592375,-0.05020946772,-0.03836344953,-0.02874446512,-0.02107471556,-0.01506253263,-0.01042719753,-0.006912860339,-0.004295112309,-0.002382792304,-0.001016864804,-6.764646419e-05,0.0005687570346,0.0009742439846,0.001212394669,0.001331839055],
				"AUX_ENDO_LEAD_200": [0,-0.2307406034,-0.2743661911,-0.2885562171,-0.283205496,-0.2656915532,-0.2413658009,-0.2139896953,-0.1861062497,-0.1593467004,-0.1346770529,-0.1125916515,-0.09326176821,-0.0766471214,-0.06257760298,-0.05081160704,-0.04107637255,-0.03309479683,-0.02660229925,-0.02135654775,-0.01714221202],
				"AUX_ENDO_LEAD_204": [0,-0.2743661911,-0.2885562171,-0.283205496,-0.2656915532,-0.2413658009,-0.2139896953,-0.1861062497,-0.1593467004,-0.1346770529,-0.1125916515,-0.09326176821,-0.0766471214,-0.06257760298,-0.05081160704,-0.04107637255,-0.03309479683,-0.02660229925,-0.02135654775,-0.01714221202,-0.01377237422],
				"AUX_ENDO_LEAD_208": [0,-0.2885562171,-0.283205496,-0.2656915532,-0.2413658009,-0.2139896953,-0.1861062497,-0.1593467004,-0.1346770529,-0.1125916515,-0.09326176821,-0.0766471214,-0.06257760298,-0.05081160704,-0.04107637255,-0.03309479683,-0.02660229925,-0.02135654775,-0.01714221202,-0.01377237422,-0.01108779976],
				"AUX_ENDO_LEAD_235": [0,-0.2307406034,-0.2743661911,-0.2885562171,-0.283205496,-0.2656915532,-0.2413658009,-0.2139896953,-0.1861062497,-0.1593467004,-0.1346770529,-0.1125916515,-0.09326176821,-0.0766471214,-0.06257760298,-0.05081160704,-0.04107637255,-0.03309479683,-0.02660229925,-0.02135654775,-0.01714221202],
				"AUX_ENDO_LEAD_239": [0,-0.2743661911,-0.2885562171,-0.283205496,-0.2656915532,-0.2413658009,-0.2139896953,-0.1861062497,-0.1593467004,-0.1346770529,-0.1125916515,-0.09326176821,-0.0766471214,-0.06257760298,-0.05081160704,-0.04107637255,-0.03309479683,-0.02660229925,-0.02135654775,-0.01714221202,-0.01377237422],
				"AUX_ENDO_LEAD_243": [0,-0.2885562171,-0.283205496,-0.2656915532,-0.2413658009,-0.2139896953,-0.1861062497,-0.1593467004,-0.1346770529,-0.1125916515,-0.09326176821,-0.0766471214,-0.06257760298,-0.05081160704,-0.04107637255,-0.03309479683,-0.02660229925,-0.02135654775,-0.01714221202,-0.01377237422,-0.01108779976],
				"AUX_ENDO_LAG_5_1": [0,0,-0.04136200295,-0.04491315858,-0.04132299908,-0.03605704869,-0.03049161662,-0.02516613003,-0.02033978419,-0.01612648094,-0.01255236693,-0.009590862382,-0.00718611628,-0.005268678891,-0.003765633156,-0.002606799382,-0.001728215085,-0.001073778077,-0.0005956980759,-0.000254216201,-1.691161605e-05],
				"AUX_ENDO_LAG_5_2": [0,0,8.275403198e-20,-0.04136200295,-0.04491315858,-0.04132299908,-0.03605704869,-0.03049161662,-0.02516613003,-0.02033978419,-0.01612648094,-0.01255236693,-0.009590862382,-0.00718611628,-0.005268678891,-0.003765633156,-0.002606799382,-0.001728215085,-0.001073778077,-0.0005956980759,-0.000254216201],
				"AUX_ENDO_LAG_65_1": [0,0,-0.1447517043,-0.2307406034,-0.2743661911,-0.2885562171,-0.283205496,-0.2656915532,-0.2413658009,-0.2139896953,-0.1861062497,-0.1593467004,-0.1346770529,-0.1125916515,-0.09326176821,-0.0766471214,-0.06257760298,-0.05081160704,-0.04107637255,-0.03309479683,-0.02660229925],
				"AUX_ENDO_LAG_65_2": [0,0,0,-0.1447517043,-0.2307406034,-0.2743661911,-0.2885562171,-0.283205496,-0.2656915532,-0.2413658009,-0.2139896953,-0.1861062497,-0.1593467004,-0.1346770529,-0.1125916515,-0.09326176821,-0.0766471214,-0.06257760298,-0.05081160704,-0.04107637255,-0.03309479683],
				"AUX_ENDO_LAG_65_3": [0,0,0,0,-0.1447517043,-0.2307406034,-0.2743661911,-0.2885562171,-0.283205496,-0.2656915532,-0.2413658009,-0.2139896953,-0.1861062497,-0.1593467004,-0.1346770529,-0.1125916515,-0.09326176821,-0.0766471214,-0.06257760298,-0.05081160704,-0.04107637255],
				"AUX_ENDO_LAG_64_1": [0,0,-0.1447517043,-0.2307406034,-0.2743661911,-0.2885562171,-0.283205496,-0.2656915532,-0.2413658009,-0.2139896953,-0.1861062497,-0.1593467004,-0.1346770529,-0.1125916515,-0.09326176821,-0.0766471214,-0.06257760298,-0.05081160704,-0.04107637255,-0.03309479683,-0.02660229925],
				"AUX_ENDO_LAG_64_2": [0,0,0,-0.1447517043,-0.2307406034,-0.2743661911,-0.2885562171,-0.283205496,-0.2656915532,-0.2413658009,-0.2139896953,-0.1861062497,-0.1593467004,-0.1346770529,-0.1125916515,-0.09326176821,-0.0766471214,-0.06257760298,-0.05081160704,-0.04107637255,-0.03309479683],
				"AUX_ENDO_LAG_64_3": [0,0,0,0,-0.1447517043,-0.2307406034,-0.2743661911,-0.2885562171,-0.283205496,-0.2656915532,-0.2413658009,-0.2139896953,-0.1861062497,-0.1593467004,-0.1346770529,-0.1125916515,-0.09326176821,-0.0766471214,-0.06257760298,-0.05081160704,-0.04107637255],
				"AUX_ENDO_LAG_61_1": [0,0,0.9272188092,0.7240363692,0.5611974134,0.4323855356,0.3316175402,0.2535698366,0.1936625067,0.1480507378,0.1135705144,0.08766213505,0.06828585193,0.05383841832,0.04307563971,0.03504352896,0.02901902997,0.02446024694,0.02096551611,0.01824034773,0.01607114887],
				"AUX_ENDO_LAG_61_2": [0,0,0,0.9272188092,0.7240363692,0.5611974134,0.4323855356,0.3316175402,0.2535698366,0.1936625067,0.1480507378,0.1135705144,0.08766213505,0.06828585193,0.05383841832,0.04307563971,0.03504352896,0.02901902997,0.02446024694,0.02096551611,0.01824034773],
				"AUX_ENDO_LAG_61_3": [0,0,0,0,0.9272188092,0.7240363692,0.5611974134,0.4323855356,0.3316175402,0.2535698366,0.1936625067,0.1480507378,0.1135705144,0.08766213505,0.06828585193,0.05383841832,0.04307563971,0.03504352896,0.02901902997,0.02446024694,0.02096551611],
				"AUX_ENDO_LAG_63_1": [0,0,-0.1654480118,-0.1796526343,-0.1652919963,-0.1442281947,-0.1219664665,-0.1006645201,-0.08135913675,-0.06450592375,-0.05020946772,-0.03836344953,-0.02874446512,-0.02107471556,-0.01506253263,-0.01042719753,-0.006912860339,-0.004295112309,-0.002382792304,-0.001016864804,-6.764646419e-05],
				"AUX_ENDO_LAG_63_2": [0,0,0,-0.1654480118,-0.1796526343,-0.1652919963,-0.1442281947,-0.1219664665,-0.1006645201,-0.08135913675,-0.06450592375,-0.05020946772,-0.03836344953,-0.02874446512,-0.02107471556,-0.01506253263,-0.01042719753,-0.006912860339,-0.004295112309,-0.002382792304,-0.001016864804],
				"AUX_ENDO_LAG_63_3": [0,0,0,0,-0.1654480118,-0.1796526343,-0.1652919963,-0.1442281947,-0.1219664665,-0.1006645201,-0.08135913675,-0.06450592375,-0.05020946772,-0.03836344953,-0.02874446512,-0.02107471556,-0.01506253263,-0.01042719753,-0.006912860339,-0.004295112309,-0.002382792304]
			},
			"fiscal_": {
				"y": [0,0.9224242022,0.8124484305,0.7152842055,0.6310609305,0.5591791314,0.4986047838,0.4480887299,0.4063169129,0.372007474,0.3439690775,0.3211318543,0.3025596453,0.2874500132,0.2751267269,0.2650280513,0.2566931374,0.2497480308,0.2438922465,0.2388864625,0.2345415976],
				"k": [0,0.1444618297,0.1253897146,0.1078585212,0.09171363596,0.07693635784,0.06355639065,0.05160850606,0.04111021334,0.03205202651,0.02439549758,0.01807577946,0.01300652211,0.00908565458,0.006201145826,0.004236219429,0.003073759603,0.002599818894,0.002706246406,0.003292517843,0.004266879628],
				"L": [0,0.9030970629,0.7957776961,0.7010901097,0.6191943059,0.5494890507,0.4909254815,0.4422367271,0.4020937295,0.3692050558,0.3423761174,0.3205398983,0.3027683756,0.2882714302,0.2763881665,0.2665741051,0.2583866138,0.251470122,0.2455420775,0.2403801807,0.2358111488],
				"mpk": [0,0.7468676594,0.6506400807,0.5676086545,0.497489966,0.4393399012,0.3918146974,0.3534108627,0.3226279195,0.2980669025,0.2784827997,0.2628057951,0.2501424045,0.2397644903,0.2310917339,0.2236713383,0.2171574007,0.2112914383,0.2058848814,0.2008038944,0.1959565875],
				"w": [0,-0.0117675738,-0.01974790075,-0.02562293398,-0.02999070391,-0.03321279164,-0.03555439351,-0.03721735839,-0.03835559665,-0.03908612683,-0.0394978201,-0.03965832376,-0.03961944898,-0.03942128532,-0.03909528675,-0.03866654743,-0.03815545354,-0.03757886488,-0.03695094964,-0.03628376848,-0.03558768168],
				"p": [0,0.05085541801,0.0484876172,0.04015206433,0.03258356515,0.02648863317,0.02171088191,0.01800432851,0.01514690514,0.01295379529,0.01127514349,0.009991319103,0.009008028885,0.008251800163,0.007665993049,0.007207383063,0.006843299204,0.006549272602,0.006307136403,0.006103512824,0.005928624699],
				"s": [0,0.1096140635,0.08751417629,0.06929412017,0.05440620328,0.04239563922,0.03282466104,0.02528315698,0.01940176593,0.01485835787,0.01137907907,0.008735935249,0.006742447577,0.005248438784,0.004134636554,0.003307514285,0.002694603141,0.002240383622,0.00190278333,0.001650257577,0.001459401387],
				"lambda": [0,1.137310728,1.155964428,1.157724558,1.147200858,1.128600582,1.105097778,1.078969527,1.05180034,1.024657444,0.9982292028,0.9729316217,0.9489889936,0.926494061,0.9054522219,0.8858134743,0.8674950681,0.8503972117,0.8344136641,0.8194386205,0.805370958],
				"c": [0,-0.1302877983,-0.2427899377,-0.3391560329,-0.4210515243,-0.4901051659,-0.5478629663,-0.5957590244,-0.6351003311,-0.6670616402,-0.6926872013,-0.7128969276,-0.7284952127,-0.7401811192,-0.7485590501,-0.7541493039,-0.7573981328,-0.7586870775,-0.7583414655,-0.7566380321,-0.7538116785],
				"R": [0,0.0298339171,0.03839193416,0.0431072651,0.04508890916,0.0452136855,0.04413258003,0.04231609221,0.04009669073,0.03770338508,0.03528890026,0.03295065696,0.03074673277,0.02870783219,0.02684613064,0.02516170539,0.02364712905,0.022290684,0.0210785564,0.01999628719,0.01902969121],
				"u": [0,0.1444618297,0.1258491452,0.109788908,0.09622629904,0.0849787043,0.07578620839,0.06835800052,0.0624038529,0.05765317263,0.05386514501,0.05083284237,0.04838344381,0.04637611031,0.04469859456,0.04326331495,0.04200336571,0.04086875015,0.03982299447,0.03884021168,0.03790262814],
				"i": [0,-0.01323953562,-0.0428483749,-0.07634454202,-0.1062285061,-0.1287138417,-0.142474567,-0.1476993556,-0.1454242239,-0.1370807971,-0.1242039907,-0.108254244,-0.09051975054,-0.07207270034,-0.05376042374,-0.03621771653,-0.01989075983,-0.005066155931,0.008099112897,0.01954935284,0.02930485561],
				"kbar": [0,-0.0004594305816,-0.001930386807,-0.004512663073,-0.008042346458,-0.01222981774,-0.01674949446,-0.02129363956,-0.02560114612,-0.02946964743,-0.03275706291,-0.0353769217,-0.03729045573,-0.03849744874,-0.03902709552,-0.0389296061,-0.03826893125,-0.03711674806,-0.03554769384,-0.03363574852,-0.03145162068],
				"wgap": [0,-1.935955889,-1.561469863,-1.244593848,-0.9818585429,-0.7673800916,-0.5946939974,-0.4574303364,-0.3496529998,-0.2660338217,-0.2019236552,-0.1533569572,-0.1170152486,-0.09016737273,-0.07059894916,-0.0565392896,-0.04659100634,-0.03966536692,-0.03492492814,-0.03173396066,-0.0296165182],
				"gdp": [0,0.8993103094,0.7923125673,0.6977179802,0.6156647226,0.5455825388,0.4864789905,0.4371514498,0.3963322965,0.3627829663,0.3353506543,0.3129985996,0.2948182943,0.2800298356,0.2679749518,0.2581059209,0.2499725989,0.2432090307,0.2375205674,0.2326720286,0.2284771771],
				"z": [0,0,1.881970739e-17,2.564497447e-17,2.803243886e-17,2.877685801e-17,2.891129714e-17,2.881723198e-17,2.863528943e-17,2.841720487e-17,2.818201891e-17,2.793683777e-17,2.768448141e-17,2.742628165e-17,2.716308898e-17,2.689562042e-17,2.662456759e-17,2.635061999e-17,2.607446059e-17,2.579675433e-17,2.551813681e-17],
				"g": [0,1,0.99,0.9801,0.970299,0.96059601,0.9509900499,0.9414801494,0.9320653479,0.9227446944,0.9135172475,0.904382075,0.8953382543,0.8863848717,0.877521023,0.8687458128,0.8600583546,0.8514577711,0.8429431934,0.8345137615,0.8261686238],
				"miu": [0,0,-2.341113692e-17,-3.076553909e-17,-3.261487981e-17,-3.263449063e-17,-3.209493406e-17,-3.142710093e-17,-3.076993139e-17,-3.016198483e-17,-2.960831825e-17,-2.910370583e-17,-2.864057611e-17,-2.821160856e-17,-2.781047482e-17,-2.74319478e-17,-2.707180783e-17,-2.672669577e-17,-2.639396469e-17,-2.607154659e-17,-2.575783825e-17],
				"lambdap": [0,5.00159767e-17,4.858027151e-17,4.677119604e-17,4.498166674e-17,4.32217677e-17,4.149941579e-17,3.98207167e-17,3.819026586e-17,3.661140267e-17,3.508642517e-17,3.361677133e-17,3.220317195e-17,3.084577969e-17,2.954427777e-17,2.829797151e-17,2.710586533e-17,2.596672748e-17,2.487914421e-17,2.384156517e-17,2.285234128e-17],
				"lambdaw": [0,-1.312467314e-17,-1.028743397e-17,-8.652118731e-18,-7.066673888e-18,-5.533360172e-18,-4.053736398e-18,-2.628783462e-18,-1.25900389e-18,5.549721303e-20,1.314945511e-18,2.519841849e-18,3.670915373e-18,4.769083593e-18,5.815418105e-18,6.811114988e-18,7.757469153e-18,8.655852083e-18,9.507692504e-18,1.031445964e-17,1.107764874e-17],
				"b": [0,-4.175819594e-17,-2.685589156e-17,-1.839710325e-17,-1.363864189e-17,-1.099471792e-17,-9.550316087e-18,-8.778932527e-18,-8.378872683e-18,-8.178334129e-18,-8.080395972e-18,-8.031159526e-18,-8.001318082e-18,-7.975514203e-18,-7.946210748e-18,-7.910175909e-18,-7.866479997e-18,-7.815364651e-18,-7.757613816e-18,-7.694211844e-18,-7.626164628e-18],
				"mp": [0,0,0,0,0,0,0,0,0,0,0,0,0,0,0,0,0,0,0,0,0],
				"ARMAlambdap": [0,0,4.674661417e-19,4.325232537e-19,4.030002713e-19,3.780659478e-19,3.569983693e-19,3.391756577e-19,3.240659322e-19,3.112171555e-19,3.002472964e-19,2.908350884e-19,2.82711552e-19,2.756523618e-19,2.694710766e-19,2.640132124e-19,2.591511069e-19,2.547795103e-19,2.508118294e-19,2.471769489e-19,2.438165572e-19],
				"ARMAlambdaw": [0,0,1.030306224e-18,9.536015613e-19,8.881961304e-19,8.324754484e-19,7.850402076e-19,7.446808509e-19,7.103542659e-19,6.811626732e-19,6.56334695e-19,6.352085261e-19,6.172170831e-19,6.018749803e-19,5.88767166e-19,5.775390514e-19,5.67887966e-19,5.595557824e-19,5.52322565e-19,5.460011105e-19,5.404322605e-19],
				"ystar": [0,0.709250397,0.5187183455,0.4069340161,0.3397937577,0.298158367,0.2712625891,0.2530298495,0.240011249,0.2302326807,0.2225497034,0.216286337,0.2110326414,0.2065311116,0.2026127701,0.1991610844,0.1960914743,0.1933395689,0.1908543839,0.1885942763,0.186524476],
				"kstar": [0,0.09741647625,0.04497930456,-0.006976612853,-0.05477880314,-0.09687279978,-0.1328316924,-0.1628083649,-0.187234625,-0.2066578201,-0.2216538297,-0.2327823162,-0.2405652048,-0.2454777903,-0.2479465823,-0.2483506237,-0.2470244908,-0.2442619961,-0.2403200709,-0.2354225572,-0.2297637765],
				"Lstar": [0,0.6969916931,0.5147561065,0.4118757068,0.3532445477,0.3192574169,0.2989721677,0.2862873979,0.2778058376,0.2716401101,0.2667453051,0.2625460435,0.2587281599,0.2551223955,0.2516395126,0.2482341426,0.2448846834,0.2415821567,0.238324065,0.2351110322,0.2319449929],
				"mpkstar": [0,0.5036431822,0.3946125136,0.3518359485,0.3427396147,0.349549382,0.3627152424,0.3772404407,0.3906339885,0.4017702614,0.4102552732,0.4160758222,0.4194064263,0.4205041561,0.4196523197,0.4171312037,0.4132037063,0.4081090884,0.4020610742,0.3952482151,0.3878353663],
				"wstar": [0,-0.0959320347,-0.07516428831,-0.06701637115,-0.06528373614,-0.06658083467,-0.0690886176,-0.07185532204,-0.074406474,-0.07652766884,-0.07814386157,-0.07925253755,-0.07988693835,-0.08009602973,-0.07993377518,-0.0794535626,-0.07870546787,-0.07773506446,-0.07658306175,-0.0752853743,-0.0738734031],
				"sstar": [0,0,0,0,0,0,0,0,0,0,0,0,0,0,0,0,0,0,0,0,0],
				"lambdastar": [0,2.458733874,1.820187489,1.463275017,1.262782753,1.148863478,1.082604266,1.042369601,1.016168263,0.9973876422,0.9824104458,0.9692836249,0.9569754004,0.9449609504,0.9329917227,0.920967306,0.9088645444,0.8966985758,0.8845016422,0.8723117735,0.8601669291],
				"cstar": [0,-0.1651823286,-0.2896726379,-0.3870286346,-0.4653177309,-0.5294874602,-0.5826956536,-0.6270585923,-0.6640733473,-0.6948575802,-0.7202869418,-0.7410748994,-0.7578200881,-0.771035241,-0.7811655816,-0.7886011083,-0.7936852672,-0.7967214286,-0.797977973,-0.797692456,-0.7960751253],
				"Rstar": [0,0.6385463851,0.3569124721,0.2004922643,0.1139192751,0.06625921197,0.04023466517,0.02620133747,0.01878062109,0.01497719638,0.01312682093,0.01230822446,0.01201445007,0.01196922765,0.01202441674,0.01210276154,0.01216596869,0.01219693352,0.01218986877,0.01214484438,0.01206478725],
				"ustar": [0,0.09741647625,0.07632737208,0.06805337496,0.06629392935,0.06761109903,0.07015768712,0.07296720323,0.07555783143,0.0777118494,0.07935305092,0.08047888243,0.08112309987,0.08133542671,0.08117066145,0.08068301812,0.07992334745,0.07893792812,0.07776809945,0.07645033173,0.07501651185],
				"istar": [0,-0.9033657603,-1.290141807,-1.401856244,-1.372064082,-1.274106774,-1.147797865,-1.014328563,-0.8845888562,-0.7638086925,-0.654142886,-0.5561073957,-0.4693742949,-0.3932089795,-0.3267080637,-0.2689264759,-0.2189431839,-0.1758931261,-0.1389807199,-0.107483495,-0.08075058941],
				"kbarstar": [0,-0.03134806752,-0.07502998781,-0.1210727325,-0.1644838988,-0.2029893795,-0.2357755681,-0.2627924564,-0.2843696695,-0.3010068806,-0.3132611987,-0.3216883046,-0.326813217,-0.3291172438,-0.3290336418,-0.3269478383,-0.3231999242,-0.3180881703,-0.3118728889,-0.3047802883,-0.2970061414],
				"wgapstar": [0,0,0,0,0,0,0,0,0,0,0,0,0,0,0,0,0,0,0,0,0],
				"gdpstar": [0,0.6936637608,0.5065059659,0.3960454761,0.329186729,0.2873405912,0.2600373591,0.241355097,0.227921996,0.2177987848,0.2098532152,0.2034097158,0.1980529455,0.1935174433,0.1896254643,0.1862518015,0.1833037387,0.1807095004,0.178411488,0.1763622233,0.1745218341],
				"Rk": [0,0.06594434372,-0.007844456917,0.002209908126,0.009237788329,0.01336309602,0.0153861511,0.01600517472,0.01574250083,0.01497005221,0.01394342317,0.01283142185,0.01173977201,0.01072954265,0.009831151623,0.00905477545,0.00839791141,0.007850731627,0.007399760692,0.007030307098,0.006727989012],
				"Rkstar": [0,-1.217637957,0.6385463851,0.3569124721,0.2004922643,0.1139192751,0.06625921197,0.04023466517,0.02620133747,0.01878062109,0.01497719638,0.01312682093,0.01230822446,0.01201445007,0.01196922765,0.01202441674,0.01210276154,0.01216596869,0.01219693352,0.01218986877,0.01214484438],
				"q": [0,0.04047834436,0.009520939238,-0.009058547794,-0.01841979158,-0.02167678066,-0.02117945737,-0.01858508659,-0.01501492806,-0.01119402317,-0.007562813455,-0.004363080936,-0.001702556707,0.0003975837735,0.00196863202,0.003070541199,0.003775846848,0.004159268905,0.004291394748,0.004235216065,0.004044597283],
				"qstar": [0,-1.282012526,-0.6822894701,-0.3507042325,-0.1686479718,-0.06984838064,-0.01728866711,0.009695663053,0.02263011466,0.02793357137,0.0291723706,0.02832023793,0.02646246283,0.02418939284,0.02181625612,0.01950590684,0.01733731246,0.01534372011,0.01353388286,0.01190382576,0.01044333227],
				"Rl": [0,0.1549032634,-0.0186537001,-0.001760130171,0.01052369994,0.01860027599,0.0235028036,0.02612825151,0.02716918707,0.02714289544,0.02642824158,0.02529758116,0.02394262807,0.02249493261,0.02104183914,0.01963874758,0.01831840618,0.01709785645,0.0159835476,0.01497504357,0.01406766249],
				"Rlstar": [0,-2.860231562,0.6385463851,0.3569124721,0.2004922643,0.1139192751,0.06625921197,0.04023466517,0.02620133747,0.01878062109,0.01497719638,0.01312682093,0.01230822446,0.01201445007,0.01196922765,0.01202441674,0.01210276154,0.01216596869,0.01219693352,0.01218986877,0.01214484438],
				"Rd": [0,-0.0186537001,-0.001760130171,0.01052369994,0.01860027599,0.0235028036,0.02612825151,0.02716918707,0.02714289544,0.02642824158,0.02529758116,0.02394262807,0.02249493261,0.02104183914,0.01963874758,0.01831840618,0.01709785645,0.0159835476,0.01497504357,0.01406766249,0.01325431755],
				"Rdstar": [0,0.6385463851,0.3569124721,0.2004922643,0.1139192751,0.06625921197,0.04023466517,0.02620133747,0.01878062109,0.01497719638,0.01312682093,0.01230822446,0.01201445007,0.01196922765,0.01202441674,0.01210276154,0.01216596869,0.01219693352,0.01218986877,0.01214484438,0.01206478725],
				"Rke": [0,-0.007844456917,0.002209908126,0.009237788329,0.01336309602,0.0153861511,0.01600517472,0.01574250083,0.01497005221,0.01394342317,0.01283142185,0.01173977201,0.01072954265,0.009831151623,0.00905477545,0.00839791141,0.007850731627,0.007399760692,0.007030307098,0.006727989012,0.006479618281],
				"Rkestar": [0,0.6385463851,0.3569124721,0.2004922643,0.1139192751,0.06625921197,0.04023466517,0.02620133747,0.01878062109,0.01497719638,0.01312682093,0.01230822446,0.01201445007,0.01196922765,0.01202441674,0.01210276154,0.01216596869,0.01219693352,0.01218986877,0.01214484438,0.01206478725],
				"nw": [0,-0.01687183982,-0.01330438597,-0.006803254997,0.001101967039,0.008812625275,0.01535039972,0.02026172774,0.02345152177,0.02504589998,0.02529148844,0.02448555557,0.0229300926,0.02090375355,0.01864665297,0.01635406548,0.01417599362,0.01222034667,0.0105581034,0.009229327975,0.008249288547],
				"nwstar": [0,0.3227075679,0.904843726,1.187711297,1.306738224,1.337287634,1.321181103,1.281522445,1.23098132,1.176420912,1.121482101,1.068025532,1.016935451,0.9685670047,0.9229944441,0.880148214,0.8398901193,0.8020540285,0.7664674586,0.7329626008,0.7013815598],
				"lamefp": [0,8.324498645e-17,1.511847921e-16,2.102349028e-16,2.614393246e-16,3.057235087e-16,3.439075547e-16,3.76717918e-16,4.047978105e-16,4.287164512e-16,4.48977304e-16,4.660254174e-16,4.802539674e-16,4.920100915e-16,5.016000898e-16,5.092940606e-16,5.153300312e-16,5.199176361e-16,5.23241391e-16,5.254636043e-16,5.267269644e-16],
				"spr": [0,0.01080924318,0.003970038297,-0.001285911615,-0.005237179965,-0.008116652498,-0.0101230768,-0.01142668624,-0.01217284323,-0.01248481841,-0.01246615931,-0.01220285606,-0.01176538996,-0.01121068752,-0.01058397213,-0.009920494773,-0.009247124824,-0.008583786907,-0.007944736473,-0.007339673481,-0.006774699269],
				"sprstar": [0,4.118590542e-16,1.259827045e-14,1.233631195e-14,1.203801728e-14,1.173311555e-14,1.143599851e-14,1.115306227e-14,1.088662172e-14,1.063698987e-14,1.040355726e-14,1.01853339e-14,9.981209408e-15,9.790070111e-15,9.610846699e-15,9.442530216e-15,9.284175008e-15,9.13489724e-15,8.993872544e-15,8.860334001e-15,8.733570596e-15],
				"promz": [0,0.1595853118,-0.01607076533,-0.0008114652391,0.0102164235,0.0173488198,0.02156327984,0.0237092804,0.02443871051,0.0242341201,0.02344491787,0.02231871615,0.02102668098,0.01968352072,0.01836297679,0.01710964271,0.01594784328,0.01488819942,0.01393239922,0.0130766002,0.01231380263],
				"promzstar": [0,-2.946683857,0.875119122,0.5972585059,0.4404515089,0.3510417652,0.2990806679,0.2678679246,0.2481047288,0.2346255787,0.2245716516,0.2163700412,0.2091634762,0.2024918459,0.1961144672,0.1899110027,0.1838263227,0.1778399093,0.1719489573,0.1661591138,0.1604794679],
				"upsilon": [0,0,0,0,0,0,0,0,0,0,0,0,0,0,0,0,0,0,0,0,0],
				"lamnw": [0,9.286498029e-17,7.151454797e-17,5.48379701e-17,4.181212509e-17,3.16386694e-17,2.369448331e-17,1.749307456e-17,1.265451058e-17,8.881989329e-18,5.943578794e-18,3.657981185e-18,1.883432074e-18,5.09041828e-19,-5.519597436e-19,-1.367495201e-18,-1.990754615e-18,-2.463408624e-18,-2.818117785e-18,-3.080492835e-18,-3.270626387e-18],
				"lambdae": [0,1.155964428,1.157724558,1.147200858,1.128600582,1.105097778,1.078969527,1.05180034,1.024657444,0.9982292028,0.9729316217,0.9489889936,0.926494061,0.9054522219,0.8858134743,0.8674950681,0.8503972117,0.8344136641,0.8194386205,0.805370958,0.7921166404],
				"lambdaestar": [0,1.820187489,1.463275017,1.262782753,1.148863478,1.082604266,1.042369601,1.016168263,0.9973876422,0.9824104458,0.9692836249,0.9569754004,0.9449609504,0.9329917227,0.920967306,0.9088645444,0.8966985758,0.8845016422,0.8723117735,0.8601669291,0.8481021418],
				"credit": [0,0.09990391756,0.02958522444,-0.02069537494,-0.05547698549,-0.07887420227,-0.09401247979,-0.1031844671,-0.1080556489,-0.1098316396,-0.1093844709,-0.1073458534,-0.1041752283,-0.1002089371,-0.0956954282,-0.09082025478,-0.08572369285,-0.08051308529,-0.07527145961,-0.07006354343,-0.06493998333],
				"gs": [0,1,-6.766406567e-16,-6.951587763e-16,-6.932231442e-16,-6.830998957e-16,-6.697244449e-16,-6.555964977e-16,-6.418551731e-16,-6.289676058e-16,-6.170922476e-16,-6.062555843e-16,-5.964321478e-16,-5.875774074e-16,-5.796392991e-16,-5.725611416e-16,-5.662818527e-16,-5.607359175e-16,-5.558538987e-16,-5.515635508e-16,-5.477913346e-16],
				"interest": [0,0.1193356684,0.1535677366,0.1724290604,0.1803556366,0.180854742,0.1765303201,0.1692643689,0.1603867629,0.1508135403,0.141155601,0.1318026278,0.1229869311,0.1148313288,0.1073845226,0.1006468216,0.09458851621,0.08916273601,0.08431422558,0.07998514877,0.07611876484],
				"inflation": [0,0.05085541801,0.09934303522,0.1394950995,0.1720786647,0.1477118799,0.1209351446,0.09878740875,0.08135074873,0.06781591085,0.05738017243,0.04936716302,0.04322828677,0.03852629165,0.0349171412,0.03213320516,0.02996847548,0.02826594792,0.02690709127,0.02580322103,0.02488854653],
				"inflationq": [0,0.2034216721,0.1939504688,0.1606082573,0.1303342606,0.1059545327,0.08684352763,0.07201731405,0.06058762056,0.05181518114,0.04510057398,0.03996527641,0.03603211554,0.03300720065,0.0306639722,0.02882953225,0.02737319682,0.02619709041,0.02522854561,0.0244140513,0.02371449879],
				"outputgap": [0,0.2056465487,0.2858066013,0.3016725041,0.2864779936,0.2582419476,0.2264416314,0.1957963528,0.1684103005,0.1449841815,0.1254974391,0.1095888838,0.09676534879,0.08651239226,0.07834948752,0.07185411937,0.06666886025,0.06249953036,0.0591090794,0.05630980538,0.053955343],
				"output": [0,0.8993103094,0.7923125673,0.6977179802,0.6156647226,0.5455825388,0.4864789905,0.4371514498,0.3963322965,0.3627829663,0.3353506543,0.3129985996,0.2948182943,0.2800298356,0.2679749518,0.2581059209,0.2499725989,0.2432090307,0.2375205674,0.2326720286,0.2284771771],
				"fispol": [0,1,-3.706340571e-16,-3.795699796e-16,-3.782822577e-16,-3.729039265e-16,-3.659026613e-16,-3.585282834e-16,-3.513503207e-16,-3.446023097e-16,-3.383634456e-16,-3.326469407e-16,-3.27440031e-16,-3.227204212e-16,-3.184620498e-16,-3.146365471e-16,-3.112133429e-16,-3.081596511e-16,-3.054407248e-16,-3.030204131e-16,-3.008619186e-16],
				"AUX_ENDO_LEAD_165": [0,0.1939504688,0.1606082573,0.1303342606,0.1059545327,0.08684352763,0.07201731405,0.06058762056,0.05181518114,0.04510057398,0.03996527641,0.03603211554,0.03300720065,0.0306639722,0.02882953225,0.02737319682,0.02619709041,0.02522854561,0.0244140513,0.02371449879,0.02310149464],
				"AUX_ENDO_LEAD_169": [0,0.1606082573,0.1303342606,0.1059545327,0.08684352763,0.07201731405,0.06058762056,0.05181518114,0.04510057398,0.03996527641,0.03603211554,0.03300720065,0.0306639722,0.02882953225,0.02737319682,0.02619709041,0.02522854561,0.0244140513,0.02371449879,0.02310149464,0.02255453501],
				"AUX_ENDO_LEAD_173": [0,0.1303342606,0.1059545327,0.08684352763,0.07201731405,0.06058762056,0.05181518114,0.04510057398,0.03996527641,0.03603211554,0.03300720065,0.0306639722,0.02882953225,0.02737319682,0.02619709041,0.02522854561,0.0244140513,0.02371449879,0.02310149464,0.02255453501,0.02205886574],
				"AUX_ENDO_LEAD_200": [0,0.2858066013,0.3016725041,0.2864779936,0.2582419476,0.2264416314,0.1957963528,0.1684103005,0.1449841815,0.1254974391,0.1095888838,0.09676534879,0.08651239226,0.07834948752,0.07185411937,0.06666886025,0.06249953036,0.0591090794,0.05630980538,0.053955343,0.05193316254],
				"AUX_ENDO_LEAD_204": [0,0.3016725041,0.2864779936,0.2582419476,0.2264416314,0.1957963528,0.1684103005,0.1449841815,0.1254974391,0.1095888838,0.09676534879,0.08651239226,0.07834948752,0.07185411937,0.06666886025,0.06249953036,0.0591090794,0.05630980538,0.053955343,0.05193316254,0.05015791936],
				"AUX_ENDO_LEAD_208": [0,0.2864779936,0.2582419476,0.2264416314,0.1957963528,0.1684103005,0.1449841815,0.1254974391,0.1095888838,0.09676534879,0.08651239226,0.07834948752,0.07185411937,0.06666886025,0.06249953036,0.0591090794,0.05630980538,0.053955343,0.05193316254,0.05015791936,0.04856576521],
				"AUX_ENDO_LEAD_235": [0,0.7923125673,0.6977179802,0.6156647226,0.5455825388,0.4864789905,0.4371514498,0.3963322965,0.3627829663,0.3353506543,0.3129985996,0.2948182943,0.2800298356,0.2679749518,0.2581059209,0.2499725989,0.2432090307,0.2375205674,0.2326720286,0.2284771771,0.2247895907],
				"AUX_ENDO_LEAD_239": [0,0.6977179802,0.6156647226,0.5455825388,0.4864789905,0.4371514498,0.3963322965,0.3627829663,0.3353506543,0.3129985996,0.2948182943,0.2800298356,0.2679749518,0.2581059209,0.2499725989,0.2432090307,0.2375205674,0.2326720286,0.2284771771,0.2247895907,0.2214949057],
				"AUX_ENDO_LEAD_243": [0,0.6156647226,0.5455825388,0.4864789905,0.4371514498,0.3963322965,0.3627829663,0.3353506543,0.3129985996,0.2948182943,0.2800298356,0.2679749518,0.2581059209,0.2499725989,0.2432090307,0.2375205674,0.2326720286,0.2284771771,0.2247895907,0.2214949057,0.2185043328],
				"AUX_ENDO_LAG_5_1": [0,0,0.05085541801,0.0484876172,0.04015206433,0.03258356515,0.02648863317,0.02171088191,0.01800432851,0.01514690514,0.01295379529,0.01127514349,0.009991319103,0.009008028885,0.008251800163,0.007665993049,0.007207383063,0.006843299204,0.006549272602,0.006307136403,0.006103512824],
				"AUX_ENDO_LAG_5_2": [0,0,-1.017477537e-19,0.05085541801,0.0484876172,0.04015206433,0.03258356515,0.02648863317,0.02171088191,0.01800432851,0.01514690514,0.01295379529,0.01127514349,0.009991319103,0.009008028885,0.008251800163,0.007665993049,0.007207383063,0.006843299204,0.006549272602,0.006307136403],
				"AUX_ENDO_LAG_65_1": [0,0,0.8993103094,0.7923125673,0.6977179802,0.6156647226,0.5455825388,0.4864789905,0.4371514498,0.3963322965,0.3627829663,0.3353506543,0.3129985996,0.2948182943,0.2800298356,0.2679749518,0.2581059209,0.2499725989,0.2432090307,0.2375205674,0.2326720286],
				"AUX_ENDO_LAG_65_2": [0,0,0,0.8993103094,0.7923125673,0.6977179802,0.6156647226,0.5455825388,0.4864789905,0.4371514498,0.3963322965,0.3627829663,0.3353506543,0.3129985996,0.2948182943,0.2800298356,0.2679749518,0.2581059209,0.2499725989,0.2432090307,0.2375205674],
				"AUX_ENDO_LAG_65_3": [0,0,0,0,0.8993103094,0.7923125673,0.6977179802,0.6156647226,0.5455825388,0.4864789905,0.4371514498,0.3963322965,0.3627829663,0.3353506543,0.3129985996,0.2948182943,0.2800298356,0.2679749518,0.2581059209,0.2499725989,0.2432090307],
				"AUX_ENDO_LAG_64_1": [0,0,0.2056465487,0.2858066013,0.3016725041,0.2864779936,0.2582419476,0.2264416314,0.1957963528,0.1684103005,0.1449841815,0.1254974391,0.1095888838,0.09676534879,0.08651239226,0.07834948752,0.07185411937,0.06666886025,0.06249953036,0.0591090794,0.05630980538],
				"AUX_ENDO_LAG_64_2": [0,0,0,0.2056465487,0.2858066013,0.3016725041,0.2864779936,0.2582419476,0.2264416314,0.1957963528,0.1684103005,0.1449841815,0.1254974391,0.1095888838,0.09676534879,0.08651239226,0.07834948752,0.07185411937,0.06666886025,0.06249953036,0.0591090794],
				"AUX_ENDO_LAG_64_3": [0,0,0,0,0.2056465487,0.2858066013,0.3016725041,0.2864779936,0.2582419476,0.2264416314,0.1957963528,0.1684103005,0.1449841815,0.1254974391,0.1095888838,0.09676534879,0.08651239226,0.07834948752,0.07185411937,0.06666886025,0.06249953036],
				"AUX_ENDO_LAG_61_1": [0,0,0.1193356684,0.1535677366,0.1724290604,0.1803556366,0.180854742,0.1765303201,0.1692643689,0.1603867629,0.1508135403,0.141155601,0.1318026278,0.1229869311,0.1148313288,0.1073845226,0.1006468216,0.09458851621,0.08916273601,0.08431422558,0.07998514877],
				"AUX_ENDO_LAG_61_2": [0,0,0,0.1193356684,0.1535677366,0.1724290604,0.1803556366,0.180854742,0.1765303201,0.1692643689,0.1603867629,0.1508135403,0.141155601,0.1318026278,0.1229869311,0.1148313288,0.1073845226,0.1006468216,0.09458851621,0.08916273601,0.08431422558],
				"AUX_ENDO_LAG_61_3": [0,0,0,0,0.1193356684,0.1535677366,0.1724290604,0.1803556366,0.180854742,0.1765303201,0.1692643689,0.1603867629,0.1508135403,0.141155601,0.1318026278,0.1229869311,0.1148313288,0.1073845226,0.1006468216,0.09458851621,0.08916273601],
				"AUX_ENDO_LAG_63_1": [0,0,0.2034216721,0.1939504688,0.1606082573,0.1303342606,0.1059545327,0.08684352763,0.07201731405,0.06058762056,0.05181518114,0.04510057398,0.03996527641,0.03603211554,0.03300720065,0.0306639722,0.02882953225,0.02737319682,0.02619709041,0.02522854561,0.0244140513],
				"AUX_ENDO_LAG_63_2": [0,0,0,0.2034216721,0.1939504688,0.1606082573,0.1303342606,0.1059545327,0.08684352763,0.07201731405,0.06058762056,0.05181518114,0.04510057398,0.03996527641,0.03603211554,0.03300720065,0.0306639722,0.02882953225,0.02737319682,0.02619709041,0.02522854561],
				"AUX_ENDO_LAG_63_3": [0,0,0,0,0.2034216721,0.1939504688,0.1606082573,0.1303342606,0.1059545327,0.08684352763,0.07201731405,0.06058762056,0.05181518114,0.04510057398,0.03996527641,0.03603211554,0.03300720065,0.0306639722,0.02882953225,0.02737319682,0.02619709041]
			}
		}
	}
}
