{
	"model": "US_KK14",
	"rule": "Coenen",
	"data": {
		"AC": {
			"MRS": [1,0.6557112721,0.53026354,0.4466507497,0.3893313753,0.3484939801,0.3181277439,0.294622512,0.2758255942,0.2604403337,0.2476597188,0.2369521407,0.2279408772,0.2203387784,0.213914056,0.2084727872,0.2038499328,0.1999044203,0.196516019,0.1935829336,0.1910196677],
			"muc": [1,0.9695741138,0.9381816363,0.909825156,0.8857125781,0.8657514832,0.8493445794,0.8357821987,0.824413981,0.8147069229,0.8062499731,0.7987371755,0.7919451928,0.7857122192,0.7799207448,0.7744844955,0.7693390008,0.764434998,0.7597339192,0.7552048442,0.750822454],
			"w": [1,0.9991975657,0.9974493839,0.9951276583,0.9924410597,0.9895012439,0.9863649686,0.9830596853,0.9795984431,0.9759881518,0.9722338731,0.968340833,0.9643151881,0.9601641556,0.9558958508,0.9515190194,0.9470427578,0.9424762651,0.9378286401,0.9331087271,0.9283250032],
			"q": [1,0.8976778643,0.785404688,0.6779946372,0.5815189191,0.4975700553,0.4256477682,0.364426928,0.3123871412,0.2680941568,0.2303017579,0.1979681009,0.1702363136,0.1464041119,0.1258936056,0.1082254883,0.09299849403,0.07987362558,0.06856222097,0.05881692679,0.05042479584],
			"y": [1,0.8667524656,0.8027829893,0.7546328856,0.7175654257,0.6882346915,0.6643618675,0.6444250519,0.6274128489,0.6126467585,0.5996608683,0.5881238933,0.5777902979,0.5684703732,0.5600121717,0.5522906138,0.5452008111,0.5386538155,0.5325737492,0.5268957211,0.5215642086],
			"inf_p": [1,0.5554142148,0.3109884204,0.171596843,0.09456738726,0.05323485349,0.03157396808,0.02031192351,0.01429200338,0.01077244018,0.008373717089,0.006451736587,0.004738659609,0.003145534913,0.001659088869,0.0002911791003,-0.000943609009,-0.002036168819,-0.002984485331,-0.003792593122,-0.004468783076],
			"mc": [1,0.4857956239,0.2663667928,0.1385199596,0.06709672122,0.02908636777,0.01008124658,0.001412523714,-0.001935781746,-0.002747154389,-0.002492180144,-0.001899384239,-0.001296188957,-0.0008049105938,-0.000450852218,-0.0002190590223,-8.224548335e-05,-1.32403253e-05,1.043125342e-05,5.654273316e-06,-1.565628939e-05],
			"u": [1,0.8637139717,0.7988979515,0.7506829678,0.712991496,0.6818243288,0.6546800841,0.6300652996,0.6071293375,0.5854123532,0.5646808129,0.5448250746,0.5257983726,0.5075821354,0.4901673592,0.4735453781,0.4577038934,0.4426257885,0.4282893097,0.4146688291,0.4017357822],
			"Rb": [1,0.9322073011,0.7932079906,0.6427796775,0.5067410708,0.3934547564,0.3030974858,0.2325899464,0.1780350834,0.1357948786,0.1028668721,0.07693028267,0.05625790942,0.03959085846,0.02601918034,0.01488383011,0.005702306906,-0.00188499875,-0.008152241907,-0.01331366607,-0.01754079686],
			"I": [1,0.9905783204,0.9687339575,0.9394606779,0.9064044208,0.8720913767,0.8381843272,0.8057135525,0.7752640952,0.747118336,0.7213599472,0.6979472619,0.6767637039,0.6576516455,0.6404346152,0.6249314895,0.610965262,0.5983682001,0.5869846274,0.5766721707,0.567302033],
			"c": [1,0.9903595752,0.9716375947,0.9496574715,0.9275196818,0.906712707,0.8878201733,0.870950015,0.8559830008,0.8427093709,0.8308991854,0.8203351666,0.8108254171,0.8022060685,0.7943394107,0.787110395,0.7804229063,0.774196394,0.768363045,0.7628654975,0.75765502],
			"l": [1,0.6187664341,0.4464079236,0.3259360758,0.2408953804,0.1797632418,0.1347933871,0.1009069845,0.07481279981,0.05437440335,0.0381829509,0.02528166067,0.01499425613,0.006820983102,0.0003767403072,-0.004645456703,-0.008496230853,-0.0113831915,-0.01347958421,-0.01493032512,-0.01585654866],
			"rk": [1,0.9648966058,0.9501076391,0.9404443547,0.9340543874,0.9296602338,0.9264183292,0.9237902816,0.9214422379,0.9191726827,0.9168634568,0.9144478455,0.9118904191,0.9091745919,0.9062950735,0.9032533317,0.9000548694,0.8967075745,0.8932207015,0.8896042219,0.8858683983],
			"R": [1,0.9132011173,0.7696756675,0.6211031443,0.4891243115,0.380127279,0.2934879967,0.2259088836,0.1735338673,0.1328586067,0.1010281336,0.0758506427,0.05570013387,0.03939216986,0.02606927069,0.01510825317,0.006050597275,-0.001447503735,-0.007649870946,-0.01276399049,-0.01695693071],
			"k": [1,0.9996337536,0.9985718065,0.996864872,0.99457086,0.9917501477,0.9884624174,0.9847646606,0.9807100177,0.9763471951,0.9717202689,0.966868737,0.9618277242,0.9566282739,0.9512976823,0.9458598478,0.9403356151,0.9347431048,0.9290980218,0.923413938,0.9177025509],
			"inf_w": [1,0.8210784171,0.6952588555,0.5941451308,0.5096071073,0.4368015319,0.3729080674,0.3162834006,0.2659310384,0.2211882682,0.1815526572,0.1465930672,0.115908905,0.08911505,0.06583918652,0.04572418779,0.02843177566,0.01364573068,0.001074031657,-0.009550148603,-0.01846842855],
			"tax": [1,0.9467798896,0.9164211979,0.8925723781,0.8735940783,0.85820399,0.8454424905,0.8346075168,0.8251898954,0.8168200205,0.8092276506,0.8022130804,0.7956270415,0.7893568617,0.783316928,0.7774420358,0.7716826533,0.7660014584,0.7603707322,0.7547703456,0.7491861699],
			"b": [1,0.9994721929,0.9979813705,0.9956460267,0.9925894705,0.9889260774,0.9847561891,0.9801653686,0.9752255999,0.9699971662,0.964530585,0.9588683412,0.9530463386,0.9470950729,0.9410405676,0.934905116,0.9287078724,0.9224653287,0.9161917017,0.9098992525,0.9035985536],
			"tau_w": [1,0.9682342861,0.9403531558,0.9160796558,0.8950234829,0.8767618796,0.8608850571,0.8470188043,0.8348333536,0.8240445331,0.8144109752,0.8057296126,0.7978306999,0.7905729972,0.783839401,0.7775331177,0.7715743782,0.7658976464,0.7604492625,0.7551854588,0.7500706904],
			"tau_k": [1,0.9916465107,0.9837204936,0.9761202599,0.9687624557,0.9615812757,0.9545264839,0.9475609746,0.9406583107,0.93380047,0.9269758978,0.9201778911,0.9134032948,0.9066514734,0.8999235158,0.8932216307,0.8865486947,0.8799079203,0.8733026189,0.8667360341,0.8602112303],
			"cg": [1,0.85,0.7225,0.614125,0.52200625,0.4437053125,0.3771495156,0.3205770883,0.272490525,0.2316169463,0.1968744043,0.1673432437,0.1422417571,0.1209054936,0.1027696695,0.0873542191,0.07425108624,0.0631134233,0.05364640981,0.04559944833,0.03875953108],
			"eps_i": [1,0.85,0.7225,0.614125,0.52200625,0.4437053125,0.3771495156,0.3205770883,0.272490525,0.2316169463,0.1968744043,0.1673432437,0.1422417571,0.1209054936,0.1027696695,0.0873542191,0.07425108624,0.0631134233,0.05364640981,0.04559944833,0.03875953108],
			"eps_z": [1,0.85,0.7225,0.614125,0.52200625,0.4437053125,0.3771495156,0.3205770883,0.272490525,0.2316169463,0.1968744043,0.1673432437,0.1422417571,0.1209054936,0.1027696695,0.0873542191,0.07425108624,0.0631134233,0.05364640981,0.04559944833,0.03875953108],
			"eps_q": [1,0.85,0.7225,0.614125,0.52200625,0.4437053125,0.3771495156,0.3205770883,0.272490525,0.2316169463,0.1968744043,0.1673432437,0.1422417571,0.1209054936,0.1027696695,0.0873542191,0.07425108624,0.0631134233,0.05364640981,0.04559944833,0.03875953108],
			"eps_pm": [1,0.928,0.861184,0.799178752,0.7416378819,0.6882399544,0.6386866776,0.5927012369,0.5500267478,0.510424822,0.4736742348,0.4395696899,0.4079206722,0.3785503838,0.3512947562,0.3260015337,0.3025294233,0.2807473048,0.2605334989,0.241775087,0.2243672807],
			"eps_wm": [1,0,0,0,0,0,0,0,0,0,0,0,0,0,0,0,0,0,0,0,0],
			"tr": [1,0.85,0.7225,0.614125,0.52200625,0.4437053125,0.3771495156,0.3205770883,0.272490525,0.2316169463,0.1968744043,0.1673432437,0.1422417571,0.1209054936,0.1027696695,0.0873542191,0.07425108624,0.0631134233,0.05364640981,0.04559944833,0.03875953108],
			"GDP": [1,0.8949444512,0.8435808219,0.8042729001,0.7734785298,0.748678777,0.7281467141,0.7107206349,0.6956220642,0.6823237884,0.6704600699,0.659768239,0.6500519251,0.6411584335,0.6329649958,0.6253704008,0.618289801,0.6116513552,0.6053939228,0.5994653663,0.5938212184],
			"tax_rev_tauw": [1,0.8332185098,0.7374118998,0.6625122386,0.6032379515,0.5556148618,0.5167596699,0.4846129658,0.4577035663,0.434966864,0.4156150052,0.3990484617,0.3847976488,0.3724850607,0.3618008227,0.3524867416,0.3443256186,0.3371337822,0.3307555939,0.325059187,0.3199330087],
			"tax_rev_tauk": [1,0.9823481008,0.9689458742,0.9570803553,0.9464136451,0.9366652677,0.9276126037,0.9190835719,0.9109473297,0.90310548,0.8954846501,0.8880305676,0.880703467,0.873474576,0.8663234407,0.8592358885,0.8522024722,0.8452172761,0.8382769976,0.831380239,0.8245269615],
			"MRSf": [1,0.9778915647,0.966241503,0.9581204516,0.9521855235,0.9475310381,0.9435710623,0.9399397165,0.9364161087,0.9328717343,0.9292354067,0.9254707299,0.9215620413,0.9175058361,0.9133056202,0.9089688528,0.9045051325,0.8999251148,0.8952398559,0.8904604055,0.8855975492],
			"mucf": [1,0.7736908311,0.6707102921,0.6177725289,0.5877127263,0.5687918016,0.5557039054,0.5459111883,0.538117307,0.5316127111,0.5259827964,0.5209713619,0.5164129563,0.5121971621,0.5082484819,0.5045143101,0.5009573647,0.4975507393,0.494274582,0.4911138337,0.4880566803],
			"wf": [1,0.9555876107,0.9342588468,0.9203029907,0.9110281063,0.9046083329,0.8998598637,0.8960424669,0.8927074226,0.8895902951,0.8865394882,0.8834706562,0.8803386287,0.877120641,0.8738065814,0.870393446,0.8668822397,0.8632762585,0.85958013,0.8557992628,0.8519395122],
			"qf": [1,0.5601667761,0.3574644236,0.2499762443,0.1865881501,0.1452855244,0.116133796,0.09435911213,0.07747925253,0.06408254689,0.05329051913,0.04451132313,0.03732065235,0.03140055616,0.02650566872,0.02244305336,0.01905920451,0.0162310726,0.01385952504,0.01186439873,0.01018066474],
			"yf": [1,0.9577921722,0.9406211556,0.9306650389,0.92342345,0.9171615742,0.9112272075,0.9053865015,0.8995632743,0.893738091,0.8879102465,0.8820841568,0.8762649453,0.8704572918,0.864665312,0.858892674,0.8531427102,0.8474184771,0.8417227723,0.836058128,0.8304268002],
			"uf": [1,0.719814347,0.6244756735,0.5448674975,0.4830420957,0.4355224673,0.3983566293,0.3684694171,0.343766865,0.3229055044,0.3050371463,0.2896137509,0.2762589806,0.2646912692,0.2546812245,0.2460298691,0.2385585564,0.2321048849,0.2265213443,0.2216749537,0.2174470569],
			"Rbf": [1,0.4106533641,0.1955911565,0.09896408927,0.05320467216,0.03022115991,0.01797898911,0.01111227933,0.007104827346,0.004704971401,0.003249575941,0.002365402148,0.001831256913,0.001510922965,0.001318521625,0.001199455405,0.001119250649,0.001056652165,0.0009991536758,0.0009400108865,0.000876206779],
			"If": [1,0.9779214116,0.9369244682,0.8891205643,0.8405684694,0.7943121657,0.7518081003,0.7136399691,0.6799008167,0.6504094866,0.624838744,0.6027931514,0.5838567585,0.5676219187,0.5537059962,0.5417602177,0.5314734341,0.5225726386,0.5148214848,0.5080176467,0.5019895891],
			"cf": [1,0.9743240871,0.9377921382,0.9031817843,0.8736318863,0.8491253113,0.8288166438,0.8118038142,0.7973384718,0.7848486526,0.7739090022,0.7642041006,0.7554978319,0.747610703,0.7404038349,0.7337678518,0.7276151703,0.7218745983,0.7164874952,0.711404995,0.7065859652],
			"lf": [1,0.5726127745,0.3793190823,0.2813484139,0.2249149632,0.1878974329,0.1609090135,0.1397570782,0.1224180185,0.1078106699,0.09529032493,0.0844336034,0.07494207613,0.06659538302,0.05922580586,0.052702821,0.04692282263,0.04180189357,0.0372705898,0.03327015865,0.0297498139],
			"rkf": [1,0.9532367672,0.9346522007,0.9170864707,0.901471313,0.8875689457,0.8749371181,0.8632108479,0.8521474278,0.841602425,0.8314952574,0.8217815696,0.8124350031,0.8034365877,0.7947692802,0.7864156138,0.7783570449,0.7705741198,0.7630469556,0.7557557711,0.7486813481],
			"kf": [1,0.9995953145,0.9984333205,0.996588767,0.9941433653,0.9911777851,0.9877676143,0.9839814685,0.9798803096,0.9755174552,0.9709389748,0.9661842895,0.961286861,0.9562749007,0.9511720563,0.9459980519,0.9407692682,0.93549926,0.9301992092,0.9248783167,0.9195441393],
			"taxf": [1,0.9909212283,0.9843400011,0.9782898546,0.9721858707,0.9658085905,0.9590842601,0.9519986878,0.9445632313,0.9368010232,0.9287410229,0.9204151114,0.9118564181,0.9030982042,0.8941730553,0.8851122876,0.8759455223,0.8667004003,0.8574024109,0.8480748143,0.8387386353],
			"bf": [1,0.9986034541,0.9952504432,0.9906392411,0.98513622,0.978960286,0.9722582279,0.9651377305,0.9576827344,0.9499611764,0.9420292854,0.9339342174,0.9257158293,0.9174079621,0.9090394223,0.9006347596,0.8922149004,0.883797671,0.8753982369,0.8670294734,0.8587022807],
			"tau_wf": [1,0.98176219,0.9658885854,0.9518527985,0.9392474481,0.9277543492,0.9171249917,0.9071656802,0.8977259782,0.888689612,0.8799672631,0.8714908327,0.8632088714,0.8550829335,0.8470846745,0.8391935428,0.8313949507,0.8236788302,0.8160384988,0.8084697729,0.8009702791],
			"tau_kf": [1,0.9957549341,0.9910473003,0.9858861663,0.9802880835,0.9742774197,0.9678843455,0.9611427068,0.9540882215,0.946757083,0.9391849306,0.931406122,0.9234532412,0.9153567884,0.9071450064,0.8988438086,0.8904767815,0.8820652409,0.8736283248,0.865183111,0.8567447503],
			"GDPf": [1,0.9634758369,0.9441394993,0.9316878344,0.9220958916,0.9137893506,0.9061456437,0.8989091863,0.8919650009,0.8852522549,0.8787319026,0.8723748753,0.8661578339,0.8600615662,0.8540702351,0.8481708726,0.8423529428,0.8366079387,0.8309290175,0.8253106814,0.819748508],
			"eps_cg": [1,-1.147048438e-16,-1.071191203e-16,-9.59918913e-17,-8.474586322e-17,-7.401063125e-17,-6.41732082e-17,-5.533389906e-17,-4.747563883e-17,-4.053428299e-17,-3.442876291e-17,-2.907449937e-17,-2.43895289e-17,-2.029727874e-17,-1.672770583e-17,-1.361759517e-17,-1.091041399e-17,-8.555934114e-18,-6.509741988e-18,-4.732706361e-18,-3.190444341e-18],
			"interest": [1,0.9132011173,0.7696756675,0.6211031443,0.4891243115,0.380127279,0.2934879967,0.2259088836,0.1735338673,0.1328586067,0.1010281336,0.0758506427,0.05570013387,0.03939216986,0.02606927069,0.01510825317,0.006050597275,-0.001447503735,-0.007649870946,-0.01276399049,-0.01695693071],
			"inflation": [1,0.8984899213,0.697648764,0.4654818264,0.259384623,0.1457976451,0.08375056424,0.05042823145,0.03251289332,0.02252636154,0.01644531661,0.01221251178,0.008842929655,0.00590734244,0.003245892247,0.0008166325597,-0.001379794079,-0.003334384014,-0.005043000847,-0.006509661219,-0.007745670772],
			"inflationq": [1,0.5554142148,0.3109884204,0.171596843,0.09456738726,0.05323485349,0.03157396808,0.02031192351,0.01429200338,0.01077244018,0.008373717089,0.006451736587,0.004738659609,0.003145534913,0.001659088869,0.0002911791003,-0.0009436090089,-0.002036168819,-0.002984485331,-0.003792593122,-0.004468783076],
			"outputgap": [1,0.5383811581,0.395105454,0.2783554007,0.1916416893,0.1291941261,0.08434647711,0.051806944,0.02787079685,0.01007412184,-0.003202952471,-0.0130443354,-0.02020467199,-0.02523716333,-0.02856847346,-0.03054111166,-0.0314370879,-0.0314913847,-0.03090018324,-0.02982651798,-0.02840470613],
			"output": [1,0.8667524656,0.8027829893,0.7546328856,0.7175654257,0.6882346915,0.6643618675,0.6444250519,0.6274128489,0.6126467585,0.5996608683,0.5881238933,0.5777902979,0.5684703732,0.5600121717,0.5522906138,0.5452008111,0.5386538155,0.5325737492,0.5268957211,0.5215642086],
			"fispol": [1,-4.354994632e-17,-4.182745593e-17,-3.802365706e-17,-3.389648631e-17,-2.980033712e-17,-2.596237237e-17,-2.246135256e-17,-1.931306199e-17,-1.650609768e-17,-1.401749421e-17,-1.181989553e-17,-9.885013419e-18,-8.185350992e-18,-6.695057796e-18,-5.390321731e-18,-4.249502521e-18,-3.253118254e-18,-2.383749511e-18,-1.62589992e-18,-9.658368991e-19],
			"AUX_ENDO_LEAD_77": [1,0.5967761858,0.3597746712,0.2230415653,0.1448506898,0.09980777212,0.07300738462,0.05600989919,0.0442138526,0.03521222774,0.02780328356,0.02141731406,0.01579738809,0.01082944419,0.00645688603,0.002640971438,-0.0006552517535,-0.003471740488,-0.00585144108,-0.007838656077,-0.009477230614],
			"AUX_ENDO_LEAD_81": [1,0.6628714534,0.4563408789,0.328326858,0.2465685076,0.1917408945,0.1526155189,0.1228472974,0.09893544925,0.07897899532,0.06194458868,0.04725141977,0.03454512442,0.02358023325,0.01416251546,0.006122875328,-0.0006930839308,-0.006428349603,-0.01121496987,-0.01517374139,-0.01841395901],
			"AUX_ENDO_LEAD_85": [1,0.7519729615,0.581736965,0.4605989267,0.3706571274,0.3009857379,0.2450066718,0.1987688268,0.1598665931,0.1267839185,0.09850934242,0.07431709312,0.05364641157,0.03603697139,0.02109517185,0.00847673703,-0.002122478066,-0.01097178787,-0.01830926134,-0.02434461488,-0.02926184241],
			"AUX_ENDO_LEAD_112": [1,0.7599823933,0.5516189065,0.3917046698,0.273987265,0.1879772904,0.1246076412,0.07727589735,0.04148974231,0.01425487928,-0.006446527881,-0.0220218357,-0.03350094529,-0.04167594122,-0.04718152757,-0.05054049764,-0.05218972434,-0.05249586366,-0.05176588339,-0.05025507244,-0.04817379939],
			"AUX_ENDO_LEAD_116": [1,0.7479178605,0.5505090298,0.4023480043,0.2918295669,0.2085417141,0.1447870257,0.09528396064,0.05649167124,0.02601163861,0.002161177631,-0.01630022569,-0.03033542055,-0.0407242386,-0.04811664253,-0.05306269566,-0.05603031213,-0.05741692117,-0.05755824633,-0.05673573097,-0.05518325514],
			"AUX_ENDO_LEAD_120": [1,0.7674825426,0.5887730573,0.4518620589,0.3455711871,0.2615479885,0.1940475093,0.1392209069,0.09446224125,0.05793781362,0.0282837405,0.004425277673,-0.01452551215,-0.02932555144,-0.04063071847,-0.04901245318,-0.05496798082,-0.05892778409,-0.06126203369,-0.06228666248,-0.06226926722],
			"AUX_ENDO_LEAD_147": [1,0.9466394831,0.9051772861,0.8722989503,0.8455784846,0.823314263,0.8043390386,0.7878570023,0.7733209366,0.7603462885,0.7486540112,0.7380338761,0.7283214972,0.7193841392,0.7111119567,0.7034125003,0.6962071443,0.6894286371,0.6830193072,0.6769296651,0.6711172588],
			"AUX_ENDO_LEAD_151": [1,0.9689965251,0.9435059109,0.9220982047,0.9037357832,0.8876849123,0.8734306596,0.8606088601,0.8489566445,0.8382785329,0.8284241103,0.819273717,0.8107294112,0.8027092687,0.7951437338,0.7879732032,0.7811463425,0.7746188415,0.7683524347,0.7623140959,0.7564753507],
			"AUX_ENDO_LEAD_155": [1,0.981424992,0.9651507285,0.9506766861,0.9376276904,0.9257271108,0.9147705808,0.9046047177,0.8951114716,0.8861972724,0.8777857838,0.8698131768,0.8622250712,0.8549745415,0.8480207793,0.8413281546,0.8348655158,0.8286056345,0.8225247421,0.8166021274,0.8108197801],
			"AUX_ENDO_LAG_50_1": [1,0.5554142148,0.3109884204,0.171596843,0.09456738726,0.05323485349,0.03157396808,0.02031192351,0.01429200338,0.01077244018,0.008373717089,0.006451736587,0.004738659609,0.003145534913,0.001659088869,0.0002911791003,-0.000943609009,-0.002036168819,-0.002984485331,-0.003792593122,-0.004468783076],
			"AUX_ENDO_LAG_50_2": [1,0.5554142148,0.3109884204,0.171596843,0.09456738726,0.05323485349,0.03157396808,0.02031192351,0.01429200338,0.01077244018,0.008373717089,0.006451736587,0.004738659609,0.003145534913,0.001659088869,0.0002911791003,-0.000943609009,-0.002036168819,-0.002984485331,-0.003792593122,-0.004468783076],
			"AUX_ENDO_LAG_52_1": [1,0.8667524656,0.8027829893,0.7546328856,0.7175654257,0.6882346915,0.6643618675,0.6444250519,0.6274128489,0.6126467585,0.5996608683,0.5881238933,0.5777902979,0.5684703732,0.5600121717,0.5522906138,0.5452008111,0.5386538155,0.5325737492,0.5268957211,0.5215642086],
			"AUX_ENDO_LAG_52_2": [1,0.8667524656,0.8027829893,0.7546328856,0.7175654257,0.6882346915,0.6643618675,0.6444250519,0.6274128489,0.6126467585,0.5996608683,0.5881238933,0.5777902979,0.5684703732,0.5600121717,0.5522906138,0.5452008111,0.5386538155,0.5325737492,0.5268957211,0.5215642086],
			"AUX_ENDO_LAG_52_3": [1,0.8667524656,0.8027829893,0.7546328856,0.7175654257,0.6882346915,0.6643618675,0.6444250519,0.6274128489,0.6126467585,0.5996608683,0.5881238933,0.5777902979,0.5684703732,0.5600121717,0.5522906138,0.5452008111,0.5386538155,0.5325737492,0.5268957211,0.5215642086],
			"AUX_ENDO_LAG_51_1": [1,0.5383811581,0.395105454,0.2783554007,0.1916416893,0.1291941261,0.08434647711,0.051806944,0.02787079685,0.01007412184,-0.003202952471,-0.0130443354,-0.02020467199,-0.02523716333,-0.02856847346,-0.03054111166,-0.0314370879,-0.0314913847,-0.03090018324,-0.02982651798,-0.02840470613],
			"AUX_ENDO_LAG_51_2": [1,0.5383811581,0.395105454,0.2783554007,0.1916416893,0.1291941261,0.08434647711,0.051806944,0.02787079685,0.01007412184,-0.003202952471,-0.0130443354,-0.02020467199,-0.02523716333,-0.02856847346,-0.03054111166,-0.0314370879,-0.0314913847,-0.03090018324,-0.02982651798,-0.02840470613],
			"AUX_ENDO_LAG_51_3": [1,0.5383811581,0.395105454,0.2783554007,0.1916416893,0.1291941261,0.08434647711,0.051806944,0.02787079685,0.01007412184,-0.003202952471,-0.0130443354,-0.02020467199,-0.02523716333,-0.02856847346,-0.03054111166,-0.0314370879,-0.0314913847,-0.03090018324,-0.02982651798,-0.02840470613],
			"AUX_ENDO_LAG_48_1": [1,0.9132011173,0.7696756675,0.6211031443,0.4891243115,0.380127279,0.2934879967,0.2259088836,0.1735338673,0.1328586067,0.1010281336,0.0758506427,0.05570013387,0.03939216986,0.02606927069,0.01510825317,0.006050597275,-0.001447503735,-0.007649870946,-0.01276399049,-0.01695693071],
			"AUX_ENDO_LAG_48_2": [1,0.9132011173,0.7696756675,0.6211031443,0.4891243115,0.380127279,0.2934879967,0.2259088836,0.1735338673,0.1328586067,0.1010281336,0.0758506427,0.05570013387,0.03939216986,0.02606927069,0.01510825317,0.006050597275,-0.001447503735,-0.007649870946,-0.01276399049,-0.01695693071],
			"AUX_ENDO_LAG_48_3": [1,0.9132011173,0.7696756675,0.6211031443,0.4891243115,0.380127279,0.2934879967,0.2259088836,0.1735338673,0.1328586067,0.1010281336,0.0758506427,0.05570013387,0.03939216986,0.02606927069,0.01510825317,0.006050597275,-0.001447503735,-0.007649870946,-0.01276399049,-0.01695693071],
			"AUX_ENDO_LAG_50_3": [1,0.5554142148,0.3109884204,0.171596843,0.09456738726,0.05323485349,0.03157396808,0.02031192351,0.01429200338,0.01077244018,0.008373717089,0.006451736587,0.004738659609,0.003145534913,0.001659088869,0.0002911791003,-0.000943609009,-0.002036168819,-0.002984485331,-0.003792593122,-0.004468783076]
		},
		"VAR": {
			"MRS": 0.01770344839,
			"muc": 0.00886274457,
			"w": 0.002252581474,
			"q": 0.002074261586,
			"y": 0.004335016011,
			"inf_p": 7.206197137e-06,
			"mc": 7.846132493e-05,
			"u": 0.0006787052221,
			"Rb": 4.881133448e-05,
			"I": 0.029882284,
			"c": 0.002293939078,
			"l": 0.001772369987,
			"rk": 0.007542702518,
			"R": 6.58409943e-05,
			"k": 0.01900673722,
			"inf_w": 3.595329426e-06,
			"tax": 0.01560669664,
			"b": 0.6684579003,
			"tau_w": 0.008497961441,
			"tau_k": 0.09772812047,
			"cg": 0.3555671935,
			"eps_i": 0.003308432432,
			"eps_z": 0.0001489906306,
			"eps_q": 0.001678185225,
			"eps_pm": 0.00157791609,
			"eps_wm": 5.31441e-05,
			"tr": 0.008973009009,
			"GDP": 0.004343531623,
			"tax_rev_tauw": 0.006155920669,
			"tax_rev_tauk": 0.0654414953,
			"MRSf": 0.00612013485,
			"mucf": 0.01610577057,
			"wf": 0.002522740576,
			"qf": 0.006873059576,
			"yf": 0.003036117141,
			"uf": 0.0009428528644,
			"Rbf": 0.001748699958,
			"If": 0.03441203992,
			"cf": 0.002789805287,
			"lf": 0.000533506605,
			"rkf": 0.01701916337,
			"kf": 0.01961494972,
			"taxf": 0.03468049388,
			"bf": 1.351051786,
			"tau_wf": 0.01446972552,
			"tau_kf": 0.2095718958,
			"GDPf": 0.00344185488,
			"eps_cg": 0.09866989619,
			"interest": 0.001053455909,
			"inflation": 6.427663132e-05,
			"inflationq": 0.0001152991542,
			"outputgap": 0.001061476014,
			"output": 0.004335016011,
			"fispol": 0.09866989619,
			"AUX_ENDO_LEAD_77": 3.871049421e-05,
			"AUX_ENDO_LEAD_81": 1.491715442e-05,
			"AUX_ENDO_LEAD_85": 7.215162562e-06,
			"AUX_ENDO_LEAD_112": 0.0004830622105,
			"AUX_ENDO_LEAD_116": 0.000286329563,
			"AUX_ENDO_LEAD_120": 0.0001659831349,
			"AUX_ENDO_LEAD_147": 0.003516726546,
			"AUX_ENDO_LEAD_151": 0.003205997193,
			"AUX_ENDO_LEAD_155": 0.003041166706,
			"AUX_ENDO_LAG_50_1": 0.0001152991542,
			"AUX_ENDO_LAG_50_2": 0.0001152991542,
			"AUX_ENDO_LAG_52_1": 0.004335016011,
			"AUX_ENDO_LAG_52_2": 0.004335016011,
			"AUX_ENDO_LAG_52_3": 0.004335016011,
			"AUX_ENDO_LAG_51_1": 0.001061476014,
			"AUX_ENDO_LAG_51_2": 0.001061476014,
			"AUX_ENDO_LAG_51_3": 0.001061476014,
			"AUX_ENDO_LAG_48_1": 0.001053455909,
			"AUX_ENDO_LAG_48_2": 0.001053455909,
			"AUX_ENDO_LAG_48_3": 0.001053455909,
			"AUX_ENDO_LAG_50_3": 0.0001152991542
		},
		"IRF": {
			"interest_": {
				"MRS": [0,-0.9631499661,-0.8384312423,-0.6670982315,-0.5088246381,-0.3822309064,-0.2881557782,-0.2210789578,-0.174281798,-0.1418639342,-0.1192899102,-0.1033234451,-0.09176210942,-0.08315303417,-0.07655572194,-0.07136586361,-0.06719338714,-0.06378210364,-0.06095869328,-0.05860123843,-0.05662022705],
				"muc": [0,0.5171467858,0.2849453863,0.1502363324,0.07654877186,0.03926957351,0.02266038843,0.0171185803,0.01704638994,0.01933880083,0.02237582222,0.02538332446,0.02804489173,0.03027587693,0.0320977274,0.03357179447,0.03476697521,0.03574570319,0.03655931186,0.03724778622,0.03784127357],
				"w": [0,0.00133742004,0.002803656548,0.003106696089,0.00214458302,0.0002332156689,-0.00224023935,-0.004950128701,-0.007665504372,-0.01024238298,-0.01260328591,-0.01471632295,-0.01657819322,-0.01820189126,-0.01960849957,-0.02082207116,-0.02186665987,-0.02276475224,-0.02353656418,-0.02419984114,-0.02476993053],
				"q": [0,-0.4811377109,-0.2540223058,-0.1206136488,-0.04650012722,-0.008148907644,0.009654056041,0.01628788645,0.017279707,0.01573470824,0.01330065045,0.01078583331,0.008537967908,0.006666936801,0.005170146004,0.003999555372,0.003095200291,0.002400314253,0.001866892995,0.001456660832,0.001140091274],
				"y": [0,-0.1202955329,-0.1501957527,-0.1424593725,-0.1224205805,-0.1013271911,-0.08339235146,-0.06957248637,-0.05949629467,-0.05238771116,-0.04746510071,-0.04408291997,-0.04175690741,-0.04014380183,-0.03900886573,-0.03819510695,-0.0375987331,-0.0371512629,-0.0368072072,-0.03653590909,-0.03631628435],
				"inf_p": [0,-0.02292074679,-0.0187903532,-0.01387836349,-0.009605673037,-0.006350416126,-0.004055280482,-0.002521313081,-0.001537158197,-0.0009265782392,-0.0005585100554,-0.0003421384178,-0.0002176511155,-0.0001472130046,-0.0001077048665,-8.543751472e-05,-7.254515731e-05,-6.464026914e-05,-5.934781495e-05,-5.54206298e-05,-5.222294368e-05],
				"mc": [0,-0.0294010838,-0.03458412836,-0.02997213786,-0.02279153124,-0.01605031685,-0.01071882745,-0.006873314444,-0.00426305855,-0.002569843469,-0.001511322525,-0.0008704595849,-0.0004936096405,-0.0002779909824,-0.0001577912085,-9.239513645e-05,-5.755760437e-05,-3.9257957e-05,-2.964229441e-05,-2.445499231e-05,-2.147139732e-05],
				"u": [0,-0.04560004839,-0.05253431681,-0.04531336693,-0.03441742316,-0.02425990947,-0.01628877167,-0.01062958445,-0.006910819266,-0.004648166538,-0.003402239421,-0.00282707247,-0.002670978021,-0.002760270556,-0.002979793554,-0.003255770435,-0.003542517416,-0.003812867527,-0.004051586308,-0.004250990001,-0.00440809595],
				"Rb": [0,0.2322013996,0.1347090538,0.07368756056,0.03727919835,0.01660918508,0.00554180813,7.219035893e-05,-0.002292410889,-0.003037021389,-0.003007502246,-0.002661567265,-0.002230985202,-0.001821850471,-0.001474067073,-0.001195180735,-0.0009787279816,-0.0008136086756,-0.0006884743591,-0.0005934873502,-0.0005207844907],
				"I": [0,-0.2464654915,-0.3435345823,-0.3615118236,-0.3417511259,-0.3072667075,-0.2699990743,-0.235517619,-0.205922651,-0.181557431,-0.1619712646,-0.1464314703,-0.1341752264,-0.1245185049,-0.1168910755,-0.1108364349,-0.105997474,-0.1020983073,-0.09892698807,-0.09632085963,-0.09415486514],
				"c": [0,-0.07344391503,-0.08152246763,-0.06724161916,-0.04924535699,-0.03434756988,-0.02407104585,-0.01788617132,-0.01470193161,-0.01347497348,-0.0134017773,-0.01393277904,-0.01472409258,-0.01557815757,-0.01639279926,-0.01712357807,-0.01775840079,-0.01830156948,-0.01876439749,-0.01916007823,-0.01950114496],
				"l": [0,-0.1309847813,-0.1625509122,-0.1517949777,-0.1269532647,-0.1007228584,-0.07797221432,-0.05990025772,-0.04617779973,-0.03598388646,-0.02846228721,-0.02288990327,-0.01871283926,-0.01552926791,-0.01305667975,-0.01109957978,-0.009523175312,-0.008233891468,-0.007165750784,-0.00627120476,-0.005515111155],
				"rk": [0,-0.08404731285,-0.1010513015,-0.08877895378,-0.06712240103,-0.04499881909,-0.02579187297,-0.01029231132,0.001785734023,0.01107022677,0.0182077235,0.02374440863,0.02810120562,0.03158672062,0.03442124587,0.03676036223,0.03871417976,0.04036162076,0.04176044105,0.04295400926,0.04397578929],
				"R": [0,0.2134110464,0.1208306903,0.06408188753,0.03092878223,0.0125539046,0.003020495049,-0.001464967838,-0.003218989128,-0.003595531444,-0.003349640663,-0.00287921838,-0.002378198207,-0.001929555337,-0.001559504588,-0.001267725892,-0.001043368251,-0.0008729564906,-0.0007438949889,-0.0006457102939,-0.0005702231937],
				"k": [0,-0.006161637288,-0.01459596091,-0.02326885748,-0.03123091419,-0.03813180902,-0.04392849065,-0.04871821886,-0.05264832967,-0.0558710572,-0.05852356238,-0.06072126008,-0.06255760924,-0.06410663163,-0.06542624273,-0.06656149753,-0.06754739694,-0.0684111697,-0.06917406516,-0.06985273502,-0.07046028828],
				"inf_w": [0,-0.02158332675,-0.01732411669,-0.01357532395,-0.01056778611,-0.008261783478,-0.0065287355,-0.005231202432,-0.004252533867,-0.003503456843,-0.002919412994,-0.002455175458,-0.002079521384,-0.001770911043,-0.001514313172,-0.001299009105,-0.001117133874,-0.0009627326336,-0.0008311597532,-0.0007186975909,-0.0006223123385],
				"tax": [0,-0.1385001278,-0.1871657324,-0.1857019655,-0.162728591,-0.1327179697,-0.1024667656,-0.07478819753,-0.05054517729,-0.02972516348,-0.01198023463,0.003120018302,0.01598282646,0.02695755692,0.03633222135,0.04434153631,0.05117757426,0.05699943089,0.06194086941,0.06611597063,0.06962317726],
				"b": [0,0.03714346854,0.2901246554,0.4464820555,0.5401074146,0.594649427,0.6256692613,0.642939886,0.6523548092,0.657335772,0.6597968087,0.6607693481,0.6607894806,0.6601280203,0.6589215002,0.6572433323,0.6551402978,0.652649824,0.6498071647,0.6466476354,0.6432066819],
				"tau_w": [0,-0.01732142748,-0.03517632426,-0.04423228776,-0.04578844528,-0.04202491365,-0.03498713127,-0.02626053472,-0.01694621452,-0.007745637867,0.0009327634222,0.008879552316,0.01601238941,0.02232544812,0.02785584554,0.03266239707,0.03681274824,0.04037593818,0.04341834979,0.04600169813,0.04818220315],
				"tau_k": [0,-0.01853371203,-0.03902190169,-0.04042535502,-0.02941199674,-0.0110501034,0.01108066865,0.03458916431,0.05795732993,0.08027454901,0.1010361735,0.120000068,0.1370887309,0.1523245521,0.1657879859,0.1775910264,0.1878606427,0.1967285851,0.2043252132,0.2107758504,0.2161987214],
				"cg": [0,-3.201156425e-17,-9.068453634e-17,-1.273828235e-16,-1.465119372e-16,-1.501627469e-16,-1.424786195e-16,-1.270197287e-16,-1.066175529e-16,-8.342413126e-17,-5.902086853e-17,-3.453424902e-17,-1.073937497e-17,1.18540277e-17,3.293298945e-17,5.232790715e-17,6.997171847e-17,8.58690889e-17,1.000734047e-16,1.126697628e-16,1.237625198e-16],
				"eps_i": [0,0,-2.37365401e-18,-4.498420518e-18,-6.172011413e-18,-7.426762479e-18,-8.322837075e-18,-8.936359746e-18,-9.338642091e-18,-9.588651456e-18,-9.73184505e-18,-9.801687834e-18,-9.8220009e-18,-9.809289566e-18,-9.77472233e-18,-9.725684981e-18,-9.666943612e-18,-9.601487311e-18,-9.53112479e-18,-9.456899333e-18,-9.37937308e-18],
				"eps_z": [0,4.166387347e-18,4.247106784e-18,5.318032472e-18,8.207359974e-18,1.170621793e-17,1.565401679e-17,1.98637984e-17,2.414813164e-17,2.833813887e-17,3.229409918e-17,3.590919818e-17,3.910867964e-17,4.184638304e-17,4.410011557e-17,4.586679335e-17,4.715788788e-17,4.799543929e-17,4.840872472e-17,4.843157093e-17,4.810024939e-17],
				"eps_q": [0,0,4.526380238e-17,5.13486688e-17,3.424710797e-17,1.26920432e-17,-8.50509809e-18,-2.728250689e-17,-4.295236486e-17,-5.547839954e-17,-6.510940974e-17,-7.220065004e-17,-7.713082367e-17,-8.026575044e-17,-8.194375034e-17,-8.247059529e-17,-8.211845157e-17,-8.112643747e-17,-7.97018796e-17,-7.802195334e-17,-7.623560386e-17],
				"eps_pm": [0,0,0,0,0,0,0,0,0,0,0,0,0,0,0,0,0,0,0,0,0],
				"eps_wm": [0,0,0,0,0,0,0,0,0,0,0,0,0,0,0,0,0,0,0,0,0],
				"tr": [0,0,-6.789983073e-20,-9.250332198e-20,-9.14919007e-20,-7.298880606e-20,-4.52217694e-20,-1.360984126e-20,1.848493851e-20,4.910755781e-20,7.721793415e-20,1.023461444e-19,1.243634097e-19,1.433360277e-19,1.59435263e-19,1.728833538e-19,1.839220228e-19,1.927946162e-19,1.997362995e-19,2.049689276e-19,2.086985925e-19],
				"GDP": [0,-0.1070461653,-0.1349315918,-0.1292933019,-0.1124203917,-0.09427832883,-0.07865955111,-0.06648399683,-0.05748831467,-0.05103715849,-0.04647655964,-0.0432614971,-0.04098083872,-0.03934178866,-0.03814306883,-0.03724912332,-0.03656943341,-0.03604341136,-0.03562999449,-0.03530075843,-0.03503548562],
				"tax_rev_tauw": [0,-0.1469687887,-0.1949235799,-0.1929205694,-0.1705971269,-0.1425145564,-0.1151995849,-0.09111092114,-0.07078951862,-0.05397190731,-0.0401328097,-0.02872667391,-0.01927864308,-0.01140571106,-0.004809333775,0.0007407461356,0.005422913053,0.009377294477,0.01271603483,0.01553065223,0.01789716146],
				"tax_rev_tauk": [0,-0.1222037724,-0.1722372048,-0.1718111113,-0.1475870641,-0.1138662693,-0.07796483443,-0.04337816642,-0.01158872574,0.01693316366,0.04219413481,0.06440302581,0.08383693477,0.1007804967,0.1155014555,0.1282431087,0.1392238689,0.1486393326,0.1566648642,0.1634579623,0.1691602279],
				"MRSf": [0,0.04744073792,0.05708733784,0.05021281648,0.0381405579,0.02590518677,0.01538503697,0.006989540978,0.0005259564057,-0.004383069636,-0.008117302284,-0.01099333183,-0.01325225055,-0.01506845612,-0.01656436552,-0.0178245876,-0.01890737656,-0.01985309344,-0.02069012293,-0.02143886336,-0.02211435426],
				"mucf": [0,-0.06345412992,-0.06561441723,-0.05299048101,-0.04113543844,-0.03328687959,-0.02892585351,-0.02678835186,-0.02578740126,-0.02519387638,-0.02458787196,-0.02376417979,-0.02264961834,-0.02124427264,-0.01958402536,-0.01771851321,-0.0156991569,-0.0135733155,-0.01138193759,-0.009159075709,-0.006932303594],
				"wf": [0,0.04727661348,0.05684135711,0.0499381615,0.03775635058,0.02531183574,0.01450792855,0.005789425118,-0.001004475388,-0.006227002555,-0.01024184447,-0.01335622985,-0.01580692816,-0.01776753035,-0.0193619508,-0.02067770376,-0.02177672612,-0.02270341168,-0.02349024809,-0.02416163021,-0.02473638147],
				"qf": [0,0.05310092403,0.04830517363,0.02912209681,0.01205737848,0.0006072347499,-0.005840363418,-0.008783673062,-0.009573132263,-0.009179481953,-0.008224607833,-0.00707444428,-0.005926663164,-0.004876278669,-0.003959641052,-0.003181922429,-0.002533333545,-0.001998168464,-0.001559523816,-0.001201534358,-0.000910255146],
				"yf": [0,0.05108845001,0.06520449042,0.05894688119,0.04425215619,0.02777272524,0.01263742032,-3.024435422e-05,-0.01010808231,-0.01789599638,-0.02381626596,-0.02827681913,-0.03162095481,-0.03411847387,-0.03597386198,-0.03733944743,-0.03832820648,-0.03902432624,-0.03949122653,-0.0397773709,-0.03992036538],
				"uf": [0,0.1266210212,0.1547977433,0.1365570092,0.1021199995,0.0661719071,0.03479009664,0.009696554311,-0.009348201734,-0.02329947551,-0.03323783314,-0.0401268407,-0.04474197339,-0.04767481424,-0.0493640971,-0.05013123429,-0.05021145437,-0.04977813017,-0.04896062645,-0.04785691786,-0.04654233113],
				"Rbf": [0,0.002160287315,-0.01262393622,-0.01185504257,-0.007848558853,-0.004361026075,-0.002137501653,-0.001000950597,-0.000593524885,-0.000606004412,-0.0008236921733,-0.001114561456,-0.001405345694,-0.001660247279,-0.001865512153,-0.00201935631,-0.002125841396,-0.002191377915,-0.00222286188,-0.002226772115,-0.002208802541],
				"If": [0,0.02362534526,0.03073911147,0.0227384557,0.005545253087,-0.0155447409,-0.0369633022,-0.05668895037,-0.07378682827,-0.08799196558,-0.09940898676,-0.1083193453,-0.1150676294,-0.1199999338,-0.123434049,-0.1256478671,-0.1268774973,-0.1273200656,-0.1271383882,-0.1264660533,-0.1254122084],
				"cf": [0,0.01293581435,0.01920254961,0.02049478741,0.01942946469,0.01770946683,0.01612533781,0.01490732939,0.01402109417,0.01334489713,0.01275573662,0.01216139493,0.01150546127,0.01076133902,0.009923441533,0.008999152207,0.008002702221,0.006951008629,0.005861104538,0.004748715433,0.003627593323],
				"lf": [0,-0.004702905137,-0.00250428176,-0.0008157605086,-0.0008795537567,-0.002167898037,-0.003976744947,-0.005814628746,-0.007418926536,-0.008686327757,-0.009605043832,-0.01020778608,-0.01054386751,-0.01066453121,-0.01061626751,-0.01043850244,-0.01016344595,-0.009816860188,-0.009419107349,-0.008986178876,-0.008530589679],
				"rkf": [0,0.2215049121,0.2711051422,0.2393822209,0.178744985,0.1148963216,0.0586228942,0.01310779409,-0.02192412837,-0.04803625437,-0.06704401585,-0.08058459126,-0.08998598443,-0.096268855,-0.1001965394,-0.1023340084,-0.1031000118,-0.1028079656,-0.1016959827,-0.09994810308,-0.09770899484],
				"kf": [0,0.0005906336315,0.001344345578,0.001879198331,0.001970849699,0.001532959934,0.0005705533809,-0.0008609342129,-0.002684081564,-0.004816778665,-0.007181583867,-0.009710027904,-0.01234396794,-0.01503536709,-0.01774533414,-0.02044289746,-0.02310376246,-0.02570917004,-0.02824490049,-0.03070042931,-0.03306822379],
				"taxf": [0,0.05086005942,0.06523166677,0.05913423891,0.04355906455,0.02514581488,0.007310695466,-0.008491447286,-0.02185522104,-0.0328682429,-0.04180725425,-0.04898875095,-0.05470522035,-0.05920467959,-0.06268978757,-0.06532426003,-0.06724081708,-0.06854831776,-0.06933739846,-0.06968464938,-0.06965560892],
				"bf": [0,-0.005167804039,-0.009655272072,-0.02843349993,-0.04497809374,-0.05572729579,-0.06122427862,-0.06291352489,-0.06211196584,-0.05977605686,-0.05652914858,-0.05275040966,-0.04865887982,-0.04437608534,-0.03996772397,-0.03546944434,-0.03090184719,-0.02627869526,-0.02161108438,-0.01690934191,-0.01218372474],
				"tau_wf": [0,-0.0006219121753,-0.0009320878734,-0.001040742435,-0.001455866052,-0.002248368461,-0.003323602399,-0.004547565462,-0.00579922239,-0.006987163436,-0.008050468282,-0.008953663403,-0.009680368425,-0.0102275265,-0.01060081167,-0.01081123325,-0.01087274604,-0.0108006312,-0.01061043594,-0.01031730426,-0.009935574375],
				"tau_kf": [0,0.001776578713,0.003465561394,0.003990240493,0.001855475966,-0.002677062569,-0.008872721556,-0.01599300549,-0.02343965736,-0.03077511263,-0.03770131541,-0.04402911417,-0.04964982511,-0.05451221739,-0.05860502433,-0.06194408132,-0.06456303137,-0.06650667316,-0.0678262277,-0.06857598787,-0.06881096397],
				"GDPf": [0,0.01429795258,0.02022707733,0.01926942283,0.01458057761,0.008546080605,0.002528949001,-0.002847636389,-0.007391906206,-0.01112619397,-0.01415881412,-0.0166177248,-0.01862090599,-0.02026627054,-0.02163082738,-0.02277351652,-0.02373896714,-0.02456099185,-0.02526542275,-0.02587225628,-0.02639721182],
				"eps_cg": [0,-2.134104283e-17,-4.231647115e-17,-3.353397843e-17,-2.549102479e-17,-1.708506688e-17,-9.8935231e-18,-3.941934708e-18,8.994776703e-19,4.800525786e-18,7.926428695e-18,1.042232615e-17,1.240982446e-17,1.398833095e-17,1.523804393e-17,1.622324408e-17,1.69953316e-17,1.75954188e-17,1.805645278e-17,1.840491252e-17,1.866214764e-17],
				"interest": [0,0.8536441854,0.4833227614,0.2563275501,0.1237151289,0.0502156184,0.0120819802,-0.005859871354,-0.01287595651,-0.01438212578,-0.01339856265,-0.01151687352,-0.009512792828,-0.007718221348,-0.006238018351,-0.005070903569,-0.004173473003,-0.003491825962,-0.002975579956,-0.002582841176,-0.002280892775],
				"inflation": [0,-0.02292074679,-0.04171109999,-0.05558946348,-0.06519513652,-0.04862480586,-0.03388973314,-0.02253268273,-0.01446416789,-0.009040329999,-0.005543559572,-0.00336438491,-0.002044877828,-0.001265512593,-0.0008147074044,-0.0005580065014,-0.0004129005432,-0.0003303278077,-0.0002819707561,-0.0002519538712,-0.0002316316576],
				"inflationq": [0,-0.09168298715,-0.0751614128,-0.05551345397,-0.03842269215,-0.02540166451,-0.01622112193,-0.01008525232,-0.006148632789,-0.003706312957,-0.002234040222,-0.001368553671,-0.0008706044618,-0.0005888520186,-0.0004308194661,-0.0003417500589,-0.0002901806292,-0.0002585610766,-0.0002373912598,-0.0002216825192,-0.0002088917747],
				"outputgap": [0,-0.1713839829,-0.2154002432,-0.2014062537,-0.1666727367,-0.1290999163,-0.09602977178,-0.06954224202,-0.04938821236,-0.03449171479,-0.02364883475,-0.01580610084,-0.01013595261,-0.006025327958,-0.003035003749,-0.0008556595192,0.0007294733813,0.001873063344,0.002684019329,0.003241461819,0.003604081036],
				"output": [0,-0.1202955329,-0.1501957527,-0.1424593725,-0.1224205805,-0.1013271911,-0.08339235146,-0.06957248637,-0.05949629467,-0.05238771116,-0.04746510071,-0.04408291997,-0.04175690741,-0.04014380183,-0.03900886573,-0.03819510695,-0.0375987331,-0.0371512629,-0.0368072072,-0.03653590909,-0.03631628435],
				"fispol": [0,-1.067052142e-17,-2.115823557e-17,-1.676698921e-17,-1.27455124e-17,-8.542533442e-18,-4.94676155e-18,-1.970967354e-18,4.497388352e-19,2.400262893e-18,3.963214347e-18,5.211163077e-18,6.20491223e-18,6.994165477e-18,7.619021967e-18,8.111622038e-18,8.497665799e-18,8.797709399e-18,9.028226388e-18,9.202456258e-18,9.331073822e-18],
				"AUX_ENDO_LEAD_77": [0,-0.0751614128,-0.05551345397,-0.03842269215,-0.02540166451,-0.01622112193,-0.01008525232,-0.006148632789,-0.003706312957,-0.002234040222,-0.001368553671,-0.0008706044618,-0.0005888520186,-0.0004308194661,-0.0003417500589,-0.0002901806292,-0.0002585610766,-0.0002373912598,-0.0002216825192,-0.0002088917747,-0.0001977548117],
				"AUX_ENDO_LEAD_81": [0,-0.05551345397,-0.03842269215,-0.02540166451,-0.01622112193,-0.01008525232,-0.006148632789,-0.003706312957,-0.002234040222,-0.001368553671,-0.0008706044618,-0.0005888520186,-0.0004308194661,-0.0003417500589,-0.0002901806292,-0.0002585610766,-0.0002373912598,-0.0002216825192,-0.0002088917747,-0.0001977548117,-0.0001876501658],
				"AUX_ENDO_LEAD_85": [0,-0.03842269215,-0.02540166451,-0.01622112193,-0.01008525232,-0.006148632789,-0.003706312957,-0.002234040222,-0.001368553671,-0.0008706044618,-0.0005888520186,-0.0004308194661,-0.0003417500589,-0.0002901806292,-0.0002585610766,-0.0002373912598,-0.0002216825192,-0.0002088917747,-0.0001977548117,-0.0001876501658,-0.0001782656461],
				"AUX_ENDO_LEAD_112": [0,-0.2154002432,-0.2014062537,-0.1666727367,-0.1290999163,-0.09602977178,-0.06954224202,-0.04938821236,-0.03449171479,-0.02364883475,-0.01580610084,-0.01013595261,-0.006025327958,-0.003035003749,-0.0008556595192,0.0007294733813,0.001873063344,0.002684019329,0.003241461819,0.003604081036,0.003816323131],
				"AUX_ENDO_LEAD_116": [0,-0.2014062537,-0.1666727367,-0.1290999163,-0.09602977178,-0.06954224202,-0.04938821236,-0.03449171479,-0.02364883475,-0.01580610084,-0.01013595261,-0.006025327958,-0.003035003749,-0.0008556595192,0.0007294733813,0.001873063344,0.002684019329,0.003241461819,0.003604081036,0.003816323131,0.003912470228],
				"AUX_ENDO_LEAD_120": [0,-0.1666727367,-0.1290999163,-0.09602977178,-0.06954224202,-0.04938821236,-0.03449171479,-0.02364883475,-0.01580610084,-0.01013595261,-0.006025327958,-0.003035003749,-0.0008556595192,0.0007294733813,0.001873063344,0.002684019329,0.003241461819,0.003604081036,0.003816323131,0.003912470228,0.00391935441],
				"AUX_ENDO_LEAD_147": [0,-0.1501957527,-0.1424593725,-0.1224205805,-0.1013271911,-0.08339235146,-0.06957248637,-0.05949629467,-0.05238771116,-0.04746510071,-0.04408291997,-0.04175690741,-0.04014380183,-0.03900886573,-0.03819510695,-0.0375987331,-0.0371512629,-0.0368072072,-0.03653590909,-0.03631628435,-0.0361334913],
				"AUX_ENDO_LEAD_151": [0,-0.1424593725,-0.1224205805,-0.1013271911,-0.08339235146,-0.06957248637,-0.05949629467,-0.05238771116,-0.04746510071,-0.04408291997,-0.04175690741,-0.04014380183,-0.03900886573,-0.03819510695,-0.0375987331,-0.0371512629,-0.0368072072,-0.03653590909,-0.03631628435,-0.0361334913,-0.03597684049],
				"AUX_ENDO_LEAD_155": [0,-0.1224205805,-0.1013271911,-0.08339235146,-0.06957248637,-0.05949629467,-0.05238771116,-0.04746510071,-0.04408291997,-0.04175690741,-0.04014380183,-0.03900886573,-0.03819510695,-0.0375987331,-0.0371512629,-0.0368072072,-0.03653590909,-0.03631628435,-0.0361334913,-0.03597684049,-0.03583848083],
				"AUX_ENDO_LAG_50_1": [0,0,-0.09168298715,-0.0751614128,-0.05551345397,-0.03842269215,-0.02540166451,-0.01622112193,-0.01008525232,-0.006148632789,-0.003706312957,-0.002234040222,-0.001368553671,-0.0008706044618,-0.0005888520186,-0.0004308194661,-0.0003417500589,-0.0002901806292,-0.0002585610766,-0.0002373912598,-0.0002216825192],
				"AUX_ENDO_LAG_50_2": [0,0,2.118780444e-17,-0.09168298715,-0.0751614128,-0.05551345397,-0.03842269215,-0.02540166451,-0.01622112193,-0.01008525232,-0.006148632789,-0.003706312957,-0.002234040222,-0.001368553671,-0.0008706044618,-0.0005888520186,-0.0004308194661,-0.0003417500589,-0.0002901806292,-0.0002585610766,-0.0002373912598],
				"AUX_ENDO_LAG_52_1": [0,0,-0.1202955329,-0.1501957527,-0.1424593725,-0.1224205805,-0.1013271911,-0.08339235146,-0.06957248637,-0.05949629467,-0.05238771116,-0.04746510071,-0.04408291997,-0.04175690741,-0.04014380183,-0.03900886573,-0.03819510695,-0.0375987331,-0.0371512629,-0.0368072072,-0.03653590909],
				"AUX_ENDO_LAG_52_2": [0,0,0,-0.1202955329,-0.1501957527,-0.1424593725,-0.1224205805,-0.1013271911,-0.08339235146,-0.06957248637,-0.05949629467,-0.05238771116,-0.04746510071,-0.04408291997,-0.04175690741,-0.04014380183,-0.03900886573,-0.03819510695,-0.0375987331,-0.0371512629,-0.0368072072],
				"AUX_ENDO_LAG_52_3": [0,0,0,0,-0.1202955329,-0.1501957527,-0.1424593725,-0.1224205805,-0.1013271911,-0.08339235146,-0.06957248637,-0.05949629467,-0.05238771116,-0.04746510071,-0.04408291997,-0.04175690741,-0.04014380183,-0.03900886573,-0.03819510695,-0.0375987331,-0.0371512629],
				"AUX_ENDO_LAG_51_1": [0,0,-0.1713839829,-0.2154002432,-0.2014062537,-0.1666727367,-0.1290999163,-0.09602977178,-0.06954224202,-0.04938821236,-0.03449171479,-0.02364883475,-0.01580610084,-0.01013595261,-0.006025327958,-0.003035003749,-0.0008556595192,0.0007294733813,0.001873063344,0.002684019329,0.003241461819],
				"AUX_ENDO_LAG_51_2": [0,0,0,-0.1713839829,-0.2154002432,-0.2014062537,-0.1666727367,-0.1290999163,-0.09602977178,-0.06954224202,-0.04938821236,-0.03449171479,-0.02364883475,-0.01580610084,-0.01013595261,-0.006025327958,-0.003035003749,-0.0008556595192,0.0007294733813,0.001873063344,0.002684019329],
				"AUX_ENDO_LAG_51_3": [0,0,0,0,-0.1713839829,-0.2154002432,-0.2014062537,-0.1666727367,-0.1290999163,-0.09602977178,-0.06954224202,-0.04938821236,-0.03449171479,-0.02364883475,-0.01580610084,-0.01013595261,-0.006025327958,-0.003035003749,-0.0008556595192,0.0007294733813,0.001873063344],
				"AUX_ENDO_LAG_48_1": [0,0,0.8536441854,0.4833227614,0.2563275501,0.1237151289,0.0502156184,0.0120819802,-0.005859871354,-0.01287595651,-0.01438212578,-0.01339856265,-0.01151687352,-0.009512792828,-0.007718221348,-0.006238018351,-0.005070903569,-0.004173473003,-0.003491825962,-0.002975579956,-0.002582841176],
				"AUX_ENDO_LAG_48_2": [0,0,0,0.8536441854,0.4833227614,0.2563275501,0.1237151289,0.0502156184,0.0120819802,-0.005859871354,-0.01287595651,-0.01438212578,-0.01339856265,-0.01151687352,-0.009512792828,-0.007718221348,-0.006238018351,-0.005070903569,-0.004173473003,-0.003491825962,-0.002975579956],
				"AUX_ENDO_LAG_48_3": [0,0,0,0,0.8536441854,0.4833227614,0.2563275501,0.1237151289,0.0502156184,0.0120819802,-0.005859871354,-0.01287595651,-0.01438212578,-0.01339856265,-0.01151687352,-0.009512792828,-0.007718221348,-0.006238018351,-0.005070903569,-0.004173473003,-0.003491825962],
				"AUX_ENDO_LAG_50_3": [0,0,-1.195428423e-16,-5.090918477e-17,-0.09168298715,-0.0751614128,-0.05551345397,-0.03842269215,-0.02540166451,-0.01622112193,-0.01008525232,-0.006148632789,-0.003706312957,-0.002234040222,-0.001368553671,-0.0008706044618,-0.0005888520186,-0.0004308194661,-0.0003417500589,-0.0002901806292,-0.0002585610766]
			},
			"fiscal_": {
				"MRS": [0,2.75833381,1.750673495,1.105678115,0.6935095071,0.4268410237,0.2497207003,0.1276086757,0.0397813534,-0.02595878598,-0.07674322425,-0.1167905389,-0.1486892884,-0.1741318296,-0.1943175018,-0.2101653675,-0.2224221858,-0.231715644,-0.2385807015,-0.2434737454,-0.2467818064],
				"muc": [0,0.6430573484,0.5935666273,0.5070492681,0.4195277292,0.3453507847,0.288082265,0.2464995819,0.2177024934,0.1985912837,0.1864724973,0.1792291086,0.1752951058,0.1735588131,0.1732543022,0.1738655716,0.1750508615,0.1765866659,0.1783281018,0.1801817417,0.182087437],
				"w": [0,-0.03149417589,-0.04685943255,-0.05363573244,-0.05638448298,-0.05769197483,-0.05890322122,-0.06062309474,-0.06304086426,-0.06613071095,-0.06976987519,-0.07380454372,-0.07808394608,-0.08247593369,-0.08687230648,-0.09118883946,-0.09536285953,-0.09934993609,-0.1031204908,-0.1066567005,-0.1099498325],
				"q": [0,-0.3718669406,-0.3465041698,-0.2779528453,-0.2034795864,-0.1386456453,-0.08801887559,-0.05114098271,-0.02566461708,-0.008877304002,0.001648315943,0.007847777637,0.01116277807,0.01261841182,0.01291853531,0.01253287622,0.0117671263,0.01081541687,0.009797781541,0.008786004441,0.007820999752],
				"y": [0,0.9205667831,0.6289957134,0.4246237043,0.2818875728,0.1812034802,0.1086851539,0.05495996239,0.01390382405,-0.01840808729,-0.04447473023,-0.06589937884,-0.083734822,-0.09869930694,-0.1113073202,-0.1219467707,-0.1309237228,-0.1384881496,-0.1448489304,-0.1501829188,-0.1546408087],
				"inf_p": [0,0.06403460661,0.03529188864,0.01842422052,0.008914868972,0.003791481174,0.001183113709,-4.237889932e-05,-0.000544516812,-0.0006924928231,-0.0006837850717,-0.0006181340924,-0.0005419499032,-0.0004739875163,-0.00041961197,-0.0003783661945,-0.0003477555301,-0.0003249842535,-0.0003076398949,-0.0002938742766,-0.0002823699403],
				"mc": [0,0.2003069728,0.1174474062,0.06614624178,0.03559238883,0.01808686025,0.008470887794,0.003447203148,0.000991953959,-9.093254933e-05,-0.0004816754488,-0.0005510761097,-0.0004911781343,-0.0003947980255,-0.0003021680457,-0.0002272635444,-0.0001720403709,-0.0001337403792,-0.0001083791169,-9.222809902e-05,-8.230678313e-05],
				"u": [0,0.3550480549,0.2425168451,0.1691609423,0.1219355732,0.09134918022,0.07097576455,0.05669641004,0.04599187226,0.03738817046,0.03006145101,0.02357397929,0.01770649806,0.01235648493,0.007479118433,0.003054699633,-0.0009282182869,-0.004480775524,-0.007616933415,-0.01035417211,-0.0127130865],
				"Rb": [0,0.04949072109,0.08651735922,0.08752153887,0.07417694452,0.05726851972,0.04158268309,0.02879708851,0.01911120962,0.0121187864,0.007243388722,0.003934002785,0.001736292742,0.0003045109157,-0.0006112693746,-0.001185289957,-0.001535804426,-0.00174143591,-0.001853639889,-0.001905695292,-0.001918947607],
				"I": [0,-0.4181918873,-0.722406401,-0.9198581492,-1.031364013,-1.079735717,-1.084908851,-1.062490406,-1.023874281,-0.9769504652,-0.9269334361,-0.8771065064,-0.8294166703,-0.784918349,-0.7440892856,-0.7070476822,-0.6736972763,-0.643821881,-0.6171455299,-0.59336976,-0.572195994],
				"c": [0,-0.1260232989,-0.1827146193,-0.1974464224,-0.190087013,-0.1733482795,-0.1545176373,-0.1372595013,-0.1230437438,-0.1121362706,-0.1042243453,-0.09877931967,-0.09524775627,-0.09313883451,-0.0920538362,-0.09168632716,-0.0918097017,-0.09226106736,-0.09292581691,-0.09372462763,-0.0946032746],
				"l": [0,0.9989401346,0.6884699333,0.4736350612,0.3268831825,0.2267817352,0.1579450706,0.1098702665,0.07561933826,0.05069970566,0.03222592455,0.01833731858,0.007813749607,-0.0001682867792,-0.006185961722,-0.01066073302,-0.01391228319,-0.01619059563,-0.0176953303,-0.01858795997,-0.0189998148],
				"rk": [0,0.6123979038,0.4095484528,0.2790919737,0.1991068276,0.1528047893,0.1282470816,0.1173499549,0.1148280752,0.1173131179,0.1226973463,0.1296773107,0.1374515204,0.1455272209,0.1536003003,0.1614822048,0.1690560826,0.1762506075,0.1830242639,0.1893557228,0.195237739],
				"R": [0,0.08478260973,0.1049415797,0.09643640785,0.07796842569,0.05845163342,0.04154030419,0.0282525717,0.01841871679,0.01143500133,0.006625254629,0.003392052882,0.001262305226,-0.0001151010543,-0.0009896355691,-0.001533045487,-0.001860788679,-0.002049075805,-0.002147514165,-0.002188065232,-0.002191182338],
				"k": [0,-0.01045479718,-0.02825358728,-0.05054370133,-0.07506420913,-0.1001809968,-0.1247991932,-0.1482414735,-0.1701322937,-0.190302748,-0.2087185152,-0.225428215,-0.2405279263,-0.2541376869,-0.2663864769,-0.277403007,-0.2873103637,-0.2962231517,-0.3042462111,-0.3114742998,-0.3179923422],
				"inf_w": [0,0.03254043072,0.01992663197,0.01164792064,0.006166118429,0.002483989322,-2.813267952e-05,-0.001762252418,-0.00296228633,-0.003782339515,-0.004322949317,-0.004652802615,-0.004821352261,-0.004865975133,-0.004815984753,-0.004694899183,-0.004521775595,-0.004312060814,-0.004078194644,-0.003830083912,-0.003575502005],
				"tax": [0,0.9990890598,0.7451855395,0.5623737391,0.4357954539,0.3512138391,0.2969677522,0.2642118119,0.2465120184,0.2392895315,0.2393121862,0.2442941434,0.2526044866,0.2630648033,0.2748123907,0.2872089657,0.2997796776,0.3121717818,0.3241259004,0.3354553388,0.3460306363],
				"b": [0,0.3343768696,0.7359562589,1.132212938,1.490709275,1.800622113,2.061877794,2.279081623,2.458329918,2.605675639,2.726493961,2.825305939,2.905813157,2.97101272,3.023328533,3.064731067,3.096836352,3.120983636,3.138294602,3.14971794,3.156062815],
				"tau_w": [0,0.1320998434,0.2058013474,0.2450468832,0.2647452475,0.2738293823,0.2774606259,0.2785120944,0.2785172309,0.2782514542,0.2780758509,0.2781333449,0.2784569468,0.2790274983,0.2798034347,0.2807356007,0.2817743768,0.2828729948,0.283989025,0.2850849991,0.2861286132],
				"tau_k": [0,-0.03144719354,-0.05809931194,-0.06804506356,-0.05770904429,-0.02799486139,0.01808923517,0.0768105774,0.1444590436,0.2177093562,0.2937611906,0.3703586627,0.4457500533,0.5186226204,0.5880313846,0.6533313381,0.7141171918,0.7701718973,0.8214237434,0.8679111871,0.9097543672],
				"cg": [0,11.76470588,10,8.5,7.225,6.14125,5.2200625,4.437053125,3.771495156,3.205770883,2.72490525,2.316169463,1.968744043,1.673432437,1.422417571,1.209054936,1.027696695,0.873542191,0.7425108624,0.631134233,0.5364640981],
				"eps_i": [0,0,2.067724767e-17,3.460864829e-17,4.339185419e-17,4.845382362e-17,5.076192669e-17,5.105526396e-17,4.989753043e-17,4.771881726e-17,4.484749593e-17,4.153413869e-17,3.796939667e-17,3.42974276e-17,3.062608536e-17,2.703475338e-17,2.358044667e-17,2.030262135e-17,1.722700056e-17,1.436863705e-17,1.173437289e-17],
				"eps_z": [0,9.348218877e-17,3.935934147e-18,-8.226763746e-17,-1.641511806e-16,-2.367857929e-16,-3.003600418e-16,-3.55050187e-16,-4.011359889e-16,-4.39034163e-16,-4.692888022e-16,-4.925424368e-16,-5.095012478e-16,-5.209016122e-16,-5.27481357e-16,-5.299569085e-16,-5.290063412e-16,-5.252577442e-16,-5.192820858e-16,-5.115897108e-16,-5.026296552e-16],
				"eps_q": [0,0,1.996377717e-16,2.754969456e-16,2.562677586e-16,1.421095988e-16,-3.735772563e-17,-2.613386728e-16,-5.150105316e-16,-7.87578937e-16,-1.070978827e-15,-1.3590242e-15,-1.646861129e-15,-1.93061959e-15,-2.207191669e-15,-2.47408763e-15,-2.729338374e-15,-2.971424679e-15,-3.199221408e-15,-3.411949994e-15,-3.609135615e-15],
				"eps_pm": [0,0,0,0,0,0,0,0,0,0,0,0,0,0,0,0,0,0,0,0,0],
				"eps_wm": [0,0,0,0,0,0,0,0,0,0,0,0,0,0,0,0,0,0,0,0,0],
				"tr": [0,0,-3.205491493e-19,-5.902159206e-19,-8.011338089e-19,-9.644092332e-19,-1.07946761e-18,-1.148837041e-18,-1.176615486e-18,-1.167606084e-18,-1.126836209e-18,-1.059288891e-18,-9.697490274e-19,-8.627117884e-19,-7.423263268e-19,-6.123616789e-19,-4.761885251e-19,-3.367735217e-19,-1.96684065e-19,-5.810169049e-20,7.715763402e-20],
				"GDP": [0,0.8174054405,0.558530989,0.3754729776,0.2464584604,0.1546614277,0.08806271961,0.03848648028,0.0005406096127,-0.02927144455,-0.05320926519,-0.07274893996,-0.08887955125,-0.1022895578,-0.1134804229,-0.122834332,-0.1306540234,-0.1371862334,-0.1426357847,-0.147174452,-0.1509469451],
				"tax_rev_tauw": [0,1.099545802,0.8474118481,0.6650462119,0.535243947,0.4429191426,0.3765024752,0.3277592663,0.2910957049,0.2628204489,0.2405319002,0.2226661198,0.2081867503,0.1963832778,0.1867451665,0.1788860282,0.172499234,0.1673324631,0.1631732039,0.1598403387,0.1571789658],
				"tax_rev_tauk": [0,0.8057788329,0.548470113,0.364799753,0.2444254144,0.1747441206,0.1439180415,0.1419266119,0.1607190455,0.1940086786,0.2369650744,0.2859132329,0.3380781192,0.3913809375,0.4442813053,0.495656215,0.5447071044,0.5908879826,0.6338492853,0.6733935867,0.7094403828],
				"MRSf": [0,-0.3679035013,-0.2630384758,-0.1997221255,-0.1648821371,-0.1486523513,-0.1440755602,-0.1464726448,-0.1528075699,-0.1611668823,-0.1703747815,-0.1797261964,-0.1888098805,-0.1973950704,-0.2053607173,-0.2126521251,-0.2192546929,-0.225178072,-0.2304465517,-0.2350931271,-0.2391557436],
				"mucf": [0,2.65390455,1.363126142,0.7926672443,0.528163963,0.3987429724,0.3319244742,0.2957600141,0.2754600007,0.2637755866,0.2569355934,0.2528678807,0.2503839875,0.2487838097,0.2476515001,0.2467431255,0.2459210912,0.2451139782,0.2442910805,0.2434459315,0.2425855733],
				"wf": [0,-0.3444738209,-0.2303710047,-0.1569892352,-0.1119975905,-0.08595269397,-0.0721389834,-0.06600934966,-0.06459079232,-0.06598862884,-0.06901725731,-0.0729434873,-0.07731648024,-0.08185906178,-0.0864001689,-0.09083374018,-0.09509404645,-0.09914096675,-0.1029511485,-0.1065125941,-0.1098212282],
				"qf": [0,-2.310671413,-1.036618198,-0.4702714823,-0.2070091808,-0.07908774752,-0.01479094544,0.01784497453,0.03383439377,0.04067152676,0.04234063808,0.04108663247,0.03823473396,0.03459198051,0.03065659716,0.02673442658,0.02300771821,0.01957795331,0.01649362847,0.01376881579,0.01139578289],
				"yf": [0,0.3922705509,0.1112508883,0.02058036051,-0.006368271289,-0.01500556896,-0.02036451964,-0.02659893084,-0.03428342452,-0.0430246967,-0.05231469574,-0.06175537972,-0.07107965047,-0.0801203052,-0.08877596206,-0.09698603876,-0.1047150061,-0.1119432901,-0.1186622491,-0.1248713933,-0.1305767233],
				"uf": [0,-0.2855057781,-0.2880334652,-0.194186182,-0.09588127548,-0.01788997477,0.03761627412,0.07470961385,0.0981605133,0.1118851195,0.1187553492,0.1207938861,0.1194177071,0.1156342061,0.110177535,0.103596944,0.09631217238,0.08864804326,0.08085660837,0.07313208258,0.06562164478],
				"Rbf": [0,1.290778407,0.5704588981,0.2645032813,0.1294209907,0.06681849812,0.03616446014,0.02030001341,0.0116844141,0.006839993168,0.004067712739,0.002483893192,0.001600177754,0.001132309667,0.0009083745962,0.0008220342609,0.0008071130525,0.0008228976429,0.0008451490596,0.0008603581013,0.0008619559472],
				"If": [0,-1.152236559,-1.586789006,-1.698833634,-1.664012863,-1.563992793,-1.438496019,-1.307535923,-1.181319804,-1.064897108,-0.960477796,-0.8686642648,-0.7891454085,-0.7211065741,-0.6634795628,-0.6150973428,-0.5747893938,-0.5414388849,-0.5140148761,-0.4915881019,-0.4733360526],
				"cf": [0,-0.3788847418,-0.4230092568,-0.3713608347,-0.3058668524,-0.2506799404,-0.2099126997,-0.1816014655,-0.1626037573,-0.1501216332,-0.1420295114,-0.1368216297,-0.1334706955,-0.1312923325,-0.1298388684,-0.1288225568,-0.1280621834,-0.1274466698,-0.1269105284,-0.1264174225,-0.1259492158],
				"lf": [0,0.6713659466,0.3230800783,0.1741395356,0.1066906978,0.07344805316,0.05516855036,0.04384357395,0.03602127189,0.03013471492,0.02542167752,0.02148067086,0.01808343818,0.01509214078,0.01242020053,0.01001204121,0.007831541353,0.005854891662,0.004065940911,0.002453099668,0.001007292142],
				"rkf": [0,-0.5192017878,-0.5415043897,-0.3667713496,-0.1698532691,-0.0008948444142,0.1326115727,0.2355508289,0.3147919517,0.3761656956,0.4239828429,0.4612920265,0.4902523381,0.5124380569,0.5290475334,0.5410339771,0.549183023,0.5541574811,0.5565232784,0.5567652946,0.5552980852],
				"kf": [0,-0.02880591398,-0.06775549128,-0.1085324449,-0.1474194553,-0.1828337888,-0.2142253445,-0.241558109,-0.2650521514,-0.2850482753,-0.3019340133,-0.3161022696,-0.327928348,-0.3377578037,-0.3459008477,-0.3526307601,-0.3581847259,-0.3627660799,-0.3665472998,-0.3696733198,-0.3722648881],
				"taxf": [0,0.4177866766,0.1365528038,0.08729819187,0.1220543906,0.1848719356,0.25494554,0.3246432842,0.391148936,0.4533651514,0.5108135079,0.5632678132,0.6106410348,0.6529505395,0.6903021334,0.7228757002,0.7509094616,0.7746838161,0.7945061828,0.8106978153,0.8235830048],
				"bf": [0,0.4578955697,2.171534063,3.112562404,3.694033575,4.09086892,4.380990866,4.601773543,4.772969133,4.906231197,5.009200848,5.087340672,5.144808231,5.184903846,5.21032011,5.223293325,5.225702989,5.219141625,5.204966417,5.184338876,5.15825618],
				"tau_wf": [0,0.08878143278,0.1237859345,0.161926546,0.2003939331,0.237586058,0.2725872586,0.3048973137,0.334277368,0.3606562937,0.3840712313,0.4046287329,0.4224788231,0.4377973659,0.4507738787,0.4616029989,0.4704784649,0.4775888779,0.4831147655,0.4872266174,0.4900836619],
				"tau_kf": [0,-0.08664588479,-0.161495143,-0.1159909219,-0.01022812886,0.1269479663,0.2800522277,0.4397747028,0.6000058195,0.756532934,0.9064122252,1.047622919,1.178847254,1.29931273,1.40867007,1.506895084,1.594208564,1.671010792,1.737828307,1.795271058,1.843998371],
				"GDPf": [0,0.4752259677,0.1949407399,0.07700232081,0.02149060859,-0.009807529454,-0.03129415378,-0.04830625741,-0.06280455062,-0.07553358948,-0.08681977497,-0.09685276809,-0.1057771818,-0.1137185176,-0.1207887059,-0.1270867524,-0.1326990857,-0.137700511,-0.1421556218,-0.1461203587,-0.1496434859],
				"eps_cg": [0,11.76470588,-1.34946875e-15,-1.260224945e-15,-1.129316368e-15,-9.970101555e-16,-8.707133088e-16,-7.5497892e-16,-6.509870477e-16,-5.585369274e-16,-4.768739176e-16,-4.050442695e-16,-3.420529338e-16,-2.869356341e-16,-2.387915145e-16,-1.967965392e-16,-1.60207002e-16,-1.283578117e-16,-1.006580484e-16,-7.658519985e-17,-5.567889837e-17],
				"interest": [0,0.3391304389,0.419766319,0.3857456314,0.3118737028,0.2338065337,0.1661612168,0.1130102868,0.07367486717,0.04574000532,0.02650101852,0.01356821153,0.005049220903,-0.0004604042171,-0.003958542276,-0.006132181949,-0.007443154717,-0.00819630322,-0.008590056662,-0.008752260929,-0.00876472935],
				"inflation": [0,0.06403460661,0.09932649524,0.1177507158,0.1266655847,0.0664224593,0.03231368438,0.01384708496,0.004387699172,-9.627482561e-05,-0.001963173606,-0.002538928799,-0.00253636189,-0.002317856584,-0.002053683482,-0.001813915584,-0.001619721211,-0.001470717948,-0.001358745873,-0.001274253955,-0.001208868365],
				"inflationq": [0,0.2561384264,0.1411675545,0.07369688209,0.03565947589,0.0151659247,0.004732454835,-0.0001695155973,-0.002178067248,-0.002769971293,-0.002735140287,-0.00247253637,-0.002167799613,-0.001895950065,-0.00167844788,-0.001513464778,-0.00139102212,-0.001299937014,-0.00123055958,-0.001175497106,-0.001129479761],
				"outputgap": [0,0.5282962322,0.5177448251,0.4040433438,0.2882558441,0.1962090491,0.1290496735,0.08155889324,0.04818724857,0.02461660941,0.007839965506,-0.004143999116,-0.01265517153,-0.01857900174,-0.02253135813,-0.02496073197,-0.0262087167,-0.0265448595,-0.02618668136,-0.02531152553,-0.02406408541],
				"output": [0,0.9205667831,0.6289957134,0.4246237043,0.2818875728,0.1812034802,0.1086851539,0.05495996239,0.01390382405,-0.01840808729,-0.04447473023,-0.06589937884,-0.083734822,-0.09869930694,-0.1113073202,-0.1219467707,-0.1309237228,-0.1384881496,-0.1448489304,-0.1501829188,-0.1546408087],
				"fispol": [0,11.76470588,-5.123523096e-16,-4.920877168e-16,-4.473371419e-16,-3.987821918e-16,-3.505922014e-16,-3.054396749e-16,-2.642512065e-16,-2.27212494e-16,-1.941893845e-16,-1.649116966e-16,-1.390575945e-16,-1.162942755e-16,-9.629824696e-17,-7.876538584e-17,-6.341554978e-17,-4.999414731e-17,-3.827197946e-17,-2.80441119e-17,-1.912823436e-17],
				"AUX_ENDO_LEAD_77": [0,0.1411675545,0.07369688209,0.03565947589,0.0151659247,0.004732454835,-0.0001695155973,-0.002178067248,-0.002769971293,-0.002735140287,-0.00247253637,-0.002167799613,-0.001895950065,-0.00167844788,-0.001513464778,-0.00139102212,-0.001299937014,-0.00123055958,-0.001175497106,-0.001129479761,-0.001088938921],
				"AUX_ENDO_LEAD_81": [0,0.07369688209,0.03565947589,0.0151659247,0.004732454835,-0.0001695155973,-0.002178067248,-0.002769971293,-0.002735140287,-0.00247253637,-0.002167799613,-0.001895950065,-0.00167844788,-0.001513464778,-0.00139102212,-0.001299937014,-0.00123055958,-0.001175497106,-0.001129479761,-0.001088938921,-0.001051555946],
				"AUX_ENDO_LEAD_85": [0,0.03565947589,0.0151659247,0.004732454835,-0.0001695155973,-0.002178067248,-0.002769971293,-0.002735140287,-0.00247253637,-0.002167799613,-0.001895950065,-0.00167844788,-0.001513464778,-0.00139102212,-0.001299937014,-0.00123055958,-0.001175497106,-0.001129479761,-0.001088938921,-0.001051555946,-0.001015879906],
				"AUX_ENDO_LEAD_112": [0,0.5177448251,0.4040433438,0.2882558441,0.1962090491,0.1290496735,0.08155889324,0.04818724857,0.02461660941,0.007839965506,-0.004143999116,-0.01265517153,-0.01857900174,-0.02253135813,-0.02496073197,-0.0262087167,-0.0265448595,-0.02618668136,-0.02531152553,-0.02406408541,-0.02256170916],
				"AUX_ENDO_LEAD_116": [0,0.4040433438,0.2882558441,0.1962090491,0.1290496735,0.08155889324,0.04818724857,0.02461660941,0.007839965506,-0.004143999116,-0.01265517153,-0.01857900174,-0.02253135813,-0.02496073197,-0.0262087167,-0.0265448595,-0.02618668136,-0.02531152553,-0.02406408541,-0.02256170916,-0.02089855263],
				"AUX_ENDO_LEAD_120": [0,0.2882558441,0.1962090491,0.1290496735,0.08155889324,0.04818724857,0.02461660941,0.007839965506,-0.004143999116,-0.01265517153,-0.01857900174,-0.02253135813,-0.02496073197,-0.0262087167,-0.0265448595,-0.02618668136,-0.02531152553,-0.02406408541,-0.02256170916,-0.02089855263,-0.0191490884],
				"AUX_ENDO_LEAD_147": [0,0.6289957134,0.4246237043,0.2818875728,0.1812034802,0.1086851539,0.05495996239,0.01390382405,-0.01840808729,-0.04447473023,-0.06589937884,-0.083734822,-0.09869930694,-0.1113073202,-0.1219467707,-0.1309237228,-0.1384881496,-0.1448489304,-0.1501829188,-0.1546408087,-0.158351281],
				"AUX_ENDO_LEAD_151": [0,0.4246237043,0.2818875728,0.1812034802,0.1086851539,0.05495996239,0.01390382405,-0.01840808729,-0.04447473023,-0.06589937884,-0.083734822,-0.09869930694,-0.1113073202,-0.1219467707,-0.1309237228,-0.1384881496,-0.1448489304,-0.1501829188,-0.1546408087,-0.158351281,-0.1614242034],
				"AUX_ENDO_LEAD_155": [0,0.2818875728,0.1812034802,0.1086851539,0.05495996239,0.01390382405,-0.01840808729,-0.04447473023,-0.06589937884,-0.083734822,-0.09869930694,-0.1113073202,-0.1219467707,-0.1309237228,-0.1384881496,-0.1448489304,-0.1501829188,-0.1546408087,-0.158351281,-0.1614242034,-0.1639532692],
				"AUX_ENDO_LAG_50_1": [0,0,0.2561384264,0.1411675545,0.07369688209,0.03565947589,0.0151659247,0.004732454835,-0.0001695155973,-0.002178067248,-0.002769971293,-0.002735140287,-0.00247253637,-0.002167799613,-0.001895950065,-0.00167844788,-0.001513464778,-0.00139102212,-0.001299937014,-0.00123055958,-0.001175497106],
				"AUX_ENDO_LAG_50_2": [0,0,1.100153433e-15,0.2561384264,0.1411675545,0.07369688209,0.03565947589,0.0151659247,0.004732454835,-0.0001695155973,-0.002178067248,-0.002769971293,-0.002735140287,-0.00247253637,-0.002167799613,-0.001895950065,-0.00167844788,-0.001513464778,-0.00139102212,-0.001299937014,-0.00123055958],
				"AUX_ENDO_LAG_52_1": [0,0,0.9205667831,0.6289957134,0.4246237043,0.2818875728,0.1812034802,0.1086851539,0.05495996239,0.01390382405,-0.01840808729,-0.04447473023,-0.06589937884,-0.083734822,-0.09869930694,-0.1113073202,-0.1219467707,-0.1309237228,-0.1384881496,-0.1448489304,-0.1501829188],
				"AUX_ENDO_LAG_52_2": [0,0,0,0.9205667831,0.6289957134,0.4246237043,0.2818875728,0.1812034802,0.1086851539,0.05495996239,0.01390382405,-0.01840808729,-0.04447473023,-0.06589937884,-0.083734822,-0.09869930694,-0.1113073202,-0.1219467707,-0.1309237228,-0.1384881496,-0.1448489304],
				"AUX_ENDO_LAG_52_3": [0,0,0,0,0.9205667831,0.6289957134,0.4246237043,0.2818875728,0.1812034802,0.1086851539,0.05495996239,0.01390382405,-0.01840808729,-0.04447473023,-0.06589937884,-0.083734822,-0.09869930694,-0.1113073202,-0.1219467707,-0.1309237228,-0.1384881496],
				"AUX_ENDO_LAG_51_1": [0,0,0.5282962322,0.5177448251,0.4040433438,0.2882558441,0.1962090491,0.1290496735,0.08155889324,0.04818724857,0.02461660941,0.007839965506,-0.004143999116,-0.01265517153,-0.01857900174,-0.02253135813,-0.02496073197,-0.0262087167,-0.0265448595,-0.02618668136,-0.02531152553],
				"AUX_ENDO_LAG_51_2": [0,0,0,0.5282962322,0.5177448251,0.4040433438,0.2882558441,0.1962090491,0.1290496735,0.08155889324,0.04818724857,0.02461660941,0.007839965506,-0.004143999116,-0.01265517153,-0.01857900174,-0.02253135813,-0.02496073197,-0.0262087167,-0.0265448595,-0.02618668136],
				"AUX_ENDO_LAG_51_3": [0,0,0,0,0.5282962322,0.5177448251,0.4040433438,0.2882558441,0.1962090491,0.1290496735,0.08155889324,0.04818724857,0.02461660941,0.007839965506,-0.004143999116,-0.01265517153,-0.01857900174,-0.02253135813,-0.02496073197,-0.0262087167,-0.0265448595],
				"AUX_ENDO_LAG_48_1": [0,0,0.3391304389,0.419766319,0.3857456314,0.3118737028,0.2338065337,0.1661612168,0.1130102868,0.07367486717,0.04574000532,0.02650101852,0.01356821153,0.005049220903,-0.0004604042171,-0.003958542276,-0.006132181949,-0.007443154717,-0.00819630322,-0.008590056662,-0.008752260929],
				"AUX_ENDO_LAG_48_2": [0,0,0,0.3391304389,0.419766319,0.3857456314,0.3118737028,0.2338065337,0.1661612168,0.1130102868,0.07367486717,0.04574000532,0.02650101852,0.01356821153,0.005049220903,-0.0004604042171,-0.003958542276,-0.006132181949,-0.007443154717,-0.00819630322,-0.008590056662],
				"AUX_ENDO_LAG_48_3": [0,0,0,0,0.3391304389,0.419766319,0.3857456314,0.3118737028,0.2338065337,0.1661612168,0.1130102868,0.07367486717,0.04574000532,0.02650101852,0.01356821153,0.005049220903,-0.0004604042171,-0.003958542276,-0.006132181949,-0.007443154717,-0.00819630322],
				"AUX_ENDO_LAG_50_3": [0,0,8.344448779e-17,1.085350391e-15,0.2561384264,0.1411675545,0.07369688209,0.03565947589,0.0151659247,0.004732454835,-0.0001695155973,-0.002178067248,-0.002769971293,-0.002735140287,-0.00247253637,-0.002167799613,-0.001895950065,-0.00167844788,-0.001513464778,-0.00139102212,-0.001299937014]
			}
		}
	}
}
