{
	"model": "US_YR13AL",
	"rule": "LWW",
	"data": {
		"AC": {
			"ewma": [1,0.01057828398,-0.04486410953,0.00264634895,0.0003624752467,0.007032190793,-0.01123148476,-0.004692019698,-0.02702211272,0.01264209032,-0.01444064792,-0.006945466497,-0.005513359008,-0.002833077251,-0.02068211639,0.018620317,-0.0004315993985,-0.009546420106,0.007820319094,0.005728370361,-0.01973033836],
			"epinfma": [1,-0.007783167029,-0.009319897777,-0.01516861915,-0.01557506715,-0.005472239645,0.007541593241,0.02331302775,-0.002574701209,0.0123094036,-0.001776682391,-0.001698930356,-0.0141429715,-0.008316212513,-0.0001934455052,0.0008359415629,0.005509689414,0.02326786649,0.001371601193,0.01595654841,0.009276803041],
			"mc": [1,0.8003996758,0.6623711998,0.5460634453,0.4635626754,0.4040365237,0.370261263,0.3221220373,0.287456546,0.268093023,0.2586582563,0.2542720772,0.2578081819,0.2463787751,0.2428381393,0.2453108156,0.255029027,0.269062005,0.2709001068,0.2496022357,0.22270668],
			"zcap": [1,0.9607576451,0.9287161978,0.9014664836,0.8827887183,0.8715658459,0.8656537219,0.8350602679,0.8069013629,0.7849280694,0.7683790007,0.7575395825,0.7495862076,0.7203615265,0.6924511239,0.669237131,0.6524927352,0.6394848444,0.6295640346,0.6011509974,0.5758730954],
			"rk": [1,0.9607576451,0.9287161978,0.9014664836,0.8827887183,0.8715658459,0.8656537219,0.8350602679,0.8069013629,0.7849280694,0.7683790007,0.7575395825,0.7495862076,0.7203615265,0.6924511239,0.669237131,0.6524927352,0.6394848444,0.6295640346,0.6011509974,0.5758730954],
			"k": [1,0.9376901632,0.8828648467,0.8290776231,0.7808086732,0.7410576997,0.7091481323,0.6695995965,0.6355964323,0.6110699247,0.5963866953,0.584495593,0.5753169651,0.5563034376,0.5375021631,0.5218662067,0.5110751195,0.5024546147,0.4952509479,0.4782734676,0.4605168754],
			"pk": [1,0.5284907417,0.3767949018,0.2500269025,0.2085148219,0.161188546,0.1392307801,0.1141808332,0.0952591214,0.09490733523,0.09237292719,0.08049647653,0.08229165145,0.06299910641,0.06868677238,0.04993933739,0.04973826328,0.04538694041,0.04856269988,0.043633644,0.03197707221],
			"c": [1,0.9274141866,0.875728484,0.8261691536,0.786805129,0.7566830755,0.7341191965,0.6921557773,0.6560672473,0.630394138,0.6157848935,0.6071138637,0.6048031474,0.5815044689,0.5631158491,0.544814212,0.5343535614,0.529991454,0.5290493364,0.5127419379,0.4972128404],
			"inve": [1,0.934964724,0.8799555777,0.8274850518,0.7855875722,0.7527258372,0.7299416698,0.6804043339,0.638709272,0.607459341,0.5839021328,0.5668562373,0.5551492986,0.5180324645,0.4869182838,0.4618953524,0.4406293772,0.4264433595,0.4185405015,0.3898893773,0.3663940485],
			"y": [1,0.9403161696,0.8811098878,0.8217711803,0.7634507585,0.7104777617,0.6622774239,0.6149658886,0.5710131236,0.5350523967,0.5092502854,0.486536009,0.4651465707,0.442392141,0.4197207038,0.3975427232,0.3799601241,0.3645238987,0.3473201921,0.3314276577,0.3119750384],
			"lab": [1,0.8861890782,0.7931483897,0.7100069206,0.6420150391,0.5834019526,0.5390226665,0.4918008712,0.4517053079,0.4230230375,0.4043051203,0.394094668,0.3839791676,0.3628720617,0.3434034982,0.3299739315,0.3187970424,0.3102461367,0.297920909,0.279238578,0.265738562],
			"pinf": [1,0.4530705348,0.4359523499,0.3219834392,0.3287399625,0.2941057819,0.3031879141,0.2606615614,0.223927227,0.1973858082,0.2147256098,0.2288292555,0.2479272789,0.2241375419,0.2158721204,0.202365777,0.2206295111,0.2299392951,0.2387032903,0.2124808488,0.2047011658],
			"w": [1,0.9389420957,0.8889208689,0.8416450755,0.8021326649,0.7703496675,0.744637999,0.7038870979,0.6683800661,0.6420908245,0.6253092272,0.6141047218,0.6081288009,0.5862751204,0.567461508,0.5512895655,0.5418358391,0.5362299657,0.5326054644,0.5156726086,0.4965067591],
			"r": [1,0.8767005156,0.7705782827,0.6803072639,0.6074445386,0.5420279277,0.4857528185,0.4286943117,0.378743034,0.3414839415,0.3177455581,0.3058528537,0.2948291661,0.2758874172,0.2517991104,0.234424385,0.2230796232,0.2137499005,0.2044926181,0.1902760599,0.1734731319],
			"a": [1,0.940357342,0.8942753795,0.8522441186,0.8130476889,0.7769520583,0.7438075034,0.7119243089,0.6808892091,0.6533697985,0.6278055779,0.6054631061,0.5832211234,0.5639794599,0.5467251448,0.5311543816,0.5175162225,0.5043985982,0.48769117,0.4724888459,0.4578812572],
			"b": [1,0.3612419118,0.1422208942,0.06063668387,0.01920028431,0.008069265461,-0.005068480074,-0.001414537496,-0.02068571307,-0.007911780742,0.003390779462,-0.003945818515,-0.01702380711,-0.01737538024,-0.0033152141,-0.01078376059,-0.01473690923,-0.02945597358,-0.03511634944,-0.04380917104,-0.0359998557],
			"g": [1,0.8685104197,0.7735447741,0.6899415023,0.6098141169,0.5427135704,0.4876591259,0.432523816,0.3846337445,0.3399030351,0.2998664189,0.2649740709,0.231262551,0.2065743456,0.1818851627,0.1588534434,0.1437616349,0.1288052691,0.1104779157,0.09935117896,0.08730993253],
			"qs": [1,0.3797713915,0.1305297246,0.04055574655,0.01608587919,0.008297033268,0.001565424346,-0.002131672107,-0.006903471171,-0.01275453777,-0.01398538744,-0.0003382866012,0.00233555155,-0.005895332217,0.001079157526,-0.02433939442,-0.02588635384,-0.01228949377,-0.01290042497,-0.01700030843,-0.01777453573],
			"spinf": [1,-0.1445040927,-0.04842977243,-0.02159615505,-0.0152791849,-0.002460436574,0.006958758379,0.0248131151,-0.00588770034,0.0147155297,-0.0005392531465,0.001178397244,-0.01000375095,-0.003617507396,0.003205692918,0.000812975611,0.00371982087,0.02255425945,-0.002580688407,0.01542137832,0.008827179171],
			"sw": [1,0.1175171007,0.01797632734,0.0314982233,0.0173596639,0.01420425959,-0.006761777401,-0.005401785958,-0.02631329221,0.007134050133,-0.01679647349,-0.01145399351,-0.008825496327,-0.006734832681,-0.02030508147,0.01413520059,-0.001967410232,-0.009371167088,0.005007854282,0.001542699814,-0.0227575572],
			"kp": [1,0.9822131516,0.9648981891,0.9478466573,0.9313533079,0.9155258751,0.9004096997,0.8829566333,0.8660576805,0.8500224099,0.8335162774,0.8169157922,0.800058189,0.7806954592,0.7599348758,0.7397298147,0.718949084,0.6986087458,0.6798591729,0.6600281666,0.6414110957],
			"rr": [1,-0.1581545222,-0.07230813676,-0.04544865276,0.0002314542989,0.02199598684,0.02368504517,0.02750389886,-0.008777969523,0.02090649895,0.02518127699,0.02237563474,0.03841906701,-0.0008789864369,0.0398186173,-0.01322301417,0.01194231005,0.007739399435,0.03496434787,0.01926957042,-0.001010271537],
			"er": [1,0.3875885047,0.1903225727,0.09874532689,0.06620432204,0.05288165679,0.03671603051,0.03369811422,0.01009481231,0.01629019066,0.02316187111,0.01593002783,0.007035621591,-0.001304968872,0.005665749244,-0.0101648634,-0.007383650116,-0.02045208529,-0.02073002123,-0.03182957943,-0.03106556915],
			"ec": [1,0.3875885047,0.1903225727,0.09874532689,0.06620432204,0.05288165679,0.03671603051,0.03369811422,0.01009481231,0.01629019066,0.02316187111,0.01593002783,0.007035621591,-0.001304968872,0.005665749244,-0.0101648634,-0.007383650116,-0.02045208529,-0.02073002123,-0.03182957943,-0.03106556915],
			"nw": [1,0.8141207171,0.7310499442,0.6384807173,0.5871935597,0.5305892843,0.4927718373,0.4483955515,0.4127471711,0.3793539326,0.3545556369,0.3262869213,0.3073610598,0.2748526928,0.2550722646,0.2268320435,0.2084865585,0.1897902208,0.1776807342,0.1588970142,0.1429971953],
			"prem": [1,0.8674128954,0.7958902827,0.7120368338,0.6587531116,0.6011554816,0.5604010203,0.5129329832,0.4748082376,0.4367354582,0.407811437,0.3761572608,0.353282497,0.3186131277,0.2951817795,0.2652760215,0.2435536137,0.2227221473,0.2083934321,0.1890578467,0.1724410128],
			"pinf4": [1,0.8483263123,0.7453325574,0.6226699432,0.5316241733,0.4720398105,0.4305761422,0.3860939777,0.3463785688,0.3207616641,0.3146974249,0.3161818865,0.3206278472,0.3148175784,0.3145566227,0.3140382654,0.3209486527,0.3226185085,0.3180472176,0.3054292849,0.2883828601],
			"eg": [1,-0.01091160117,-0.005555711004,0.0120317535,0.02162692095,-0.0197779666,0.006748363975,-0.005001024016,0.006164186711,-0.001601529153,-0.01191309255,0.007578849846,-0.008816851753,0.003293557309,-0.007745405979,0.001195735393,-0.01130348026,-0.0002035925166,-0.01165543002,0.008134806558,-0.00254866054],
			"interest": [1,0.8767005156,0.7705782827,0.6803072639,0.6074445386,0.5420279277,0.4857528185,0.4286943117,0.378743034,0.3414839415,0.3177455581,0.3058528537,0.2948291661,0.2758874172,0.2517991104,0.234424385,0.2230796232,0.2137499005,0.2044926181,0.1902760599,0.1734731319],
			"inflation": [1,0.8483263123,0.7453325574,0.6226699432,0.5316241733,0.4720398105,0.4305761422,0.3860939777,0.3463785688,0.3207616641,0.3146974249,0.3161818865,0.3206278472,0.3148175784,0.3145566227,0.3140382654,0.3209486527,0.3226185085,0.3180472176,0.3054292849,0.2883828601],
			"inflationq": [1,0.4530705348,0.4359523499,0.3219834392,0.3287399625,0.2941057819,0.3031879141,0.2606615614,0.223927227,0.1973858082,0.2147256098,0.2288292555,0.2479272789,0.2241375419,0.2158721204,0.202365777,0.2206295111,0.2299392951,0.2387032903,0.2124808488,0.2047011658],
			"inflationql": [1,0.7012543226,0.5455186134,0.4665229927,0.4122381832,0.3809556734,0.3589887198,0.3217675934,0.2778149426,0.2571294397,0.2555956743,0.2624212783,0.2669299492,0.253757396,0.250047175,0.2497678324,0.2580357269,0.2677510829,0.263468415,0.2495304282,0.2342509149],
			"inflationql2": [1,0.7219026174,0.5692605037,0.4704362517,0.4072543127,0.3768604247,0.3527782014,0.318414432,0.2695361942,0.2471407313,0.2466430385,0.2542722376,0.2592288701,0.2511388167,0.2470447946,0.2467225323,0.2601784015,0.2669245558,0.2617862183,0.2476995238,0.2287042718],
			"inflationqls": [1,0.8468769598,0.6479389687,0.5383553296,0.4695978532,0.4311284414,0.4001771554,0.3589675587,0.3144195047,0.2886545745,0.2850448824,0.2914577161,0.2940869617,0.2857221787,0.2803671735,0.2819163264,0.2924501342,0.2986218785,0.2933562209,0.2802047889,0.2606778081],
			"outputgap": [1,0.8637754613,0.7494295688,0.6432376202,0.552658531,0.4743373165,0.4146639954,0.3579597734,0.3096041637,0.2750962065,0.2538184208,0.2410743166,0.2288278238,0.2101422108,0.1903534313,0.1775137228,0.1669935881,0.1587032904,0.1461867686,0.130229826,0.1177545204],
			"output": [1,0.9403161696,0.8811098878,0.8217711803,0.7634507585,0.7104777617,0.6622774239,0.6149658886,0.5710131236,0.5350523967,0.5092502854,0.486536009,0.4651465707,0.442392141,0.4197207038,0.3975427232,0.3799601241,0.3645238987,0.3473201921,0.3314276577,0.3119750384],
			"fispol": [1,-0.01091160117,-0.005555711004,0.0120317535,0.02162692095,-0.0197779666,0.006748363975,-0.005001024016,0.006164186711,-0.001601529153,-0.01191309255,0.007578849846,-0.008816851753,0.003293557309,-0.007745405979,0.001195735393,-0.01130348026,-0.0002035925166,-0.01165543002,0.008134806558,-0.00254866054],
			"newv_long": [1,0.003459331921,-0.03810893114,0.001488045446,-0.005040735722,-0.004444542354,0.001545225459,0.004614209915,-0.02216294111,0.01788849945,-0.007575653319,-0.0003518877759,-0.01002467182,-0.01997860338,-0.01036610931,0.01514391581,0.00383220878,0.01378137003,0.01081303037,0.01822223303,-0.0004041272118],
			"newv_short": [1,0.003459331921,-0.03810893114,0.001488045446,-0.005040735722,-0.004444542354,0.001545225459,0.004614209915,-0.02216294111,0.01788849945,-0.007575653319,-0.0003518877759,-0.01002467182,-0.01997860338,-0.01036610931,0.01514391581,0.00383220878,0.01378137003,0.01081303037,0.01822223303,-0.0004041272118]
		},
		"VAR": {
			"ewma": 0.0301946693,
			"epinfma": 0.02071502394,
			"mc": 2.082121977,
			"zcap": 45.89232125,
			"rk": 1.129353462,
			"k": 6.847618926,
			"pk": 17.18578967,
			"c": 56.97705107,
			"inve": 249.1221568,
			"y": 6.662382593,
			"lab": 1.494870295,
			"pinf": 0.1503882052,
			"w": 6.476428572,
			"r": 0.2677054662,
			"a": 2.213681932,
			"b": 2.198374172,
			"g": 0.9228777934,
			"qs": 0.1121952221,
			"spinf": 0.021434943,
			"sw": 0.03062534088,
			"kp": 70.79163803,
			"rr": 11.04494917,
			"er": 2.861513855,
			"ec": 2.861513855,
			"nw": 485.5443304,
			"prem": 0.1464250566,
			"pinf4": 1.119911708,
			"eg": 0.1231995767,
			"interest": 4.283287459,
			"inflation": 1.119911708,
			"inflationq": 2.406211284,
			"inflationql": 1.578838146,
			"inflationql2": 1.454398184,
			"inflationqls": 5.232292438,
			"outputgap": 2.79293036,
			"output": 6.662382593,
			"fispol": 0.1231995767,
			"newv_long": 0.05172289303,
			"newv_short": 0.05172289303
		},
		"IRF": {
			"interest_": {
				"ewma": [0,-9.666273736e-17,-8.176523108e-17,9.860843027e-17,7.803896213e-17,2.421614682e-17,4.903986569e-17,1.658577839e-17,2.357998651e-18,1.136946643e-17,8.688409226e-18,2.870533255e-17,-1.962047193e-17,3.461360972e-17,-1.8200948e-19,-8.278844184e-18,1.165602434e-17,-2.824698853e-17,2.340555698e-17,2.588622593e-17,-6.16482465e-18],
				"epinfma": [0,9.757778117e-17,8.305038839e-17,-8.715430423e-17,-3.356975771e-17,1.274822649e-17,-4.353288296e-17,-1.918858511e-17,6.649715033e-19,-7.793952792e-18,9.554940693e-18,-3.205917028e-17,1.052669039e-17,-3.410141432e-17,-3.723686756e-18,8.401340115e-18,-2.113566393e-17,3.259204754e-17,-2.239897366e-17,-1.912459548e-17,4.402098985e-18],
				"mc": [0,-0.01709608666,-0.02685623119,-0.03107585825,-0.03165035482,-0.02993609609,-0.02691236535,-0.02327366371,-0.01949456512,-0.01588102076,-0.0126127003,-0.009777878825,-0.007401573702,-0.005467573096,-0.003935102173,-0.002750953023,-0.001857916781,-0.001200308827,-0.0007272910319,-0.000394588828,-0.000165090473],
				"zcap": [0,-0.05065533007,-0.08230467702,-0.08836486335,-0.07863066978,-0.05995629512,-0.03698243269,-0.0127164265,0.0110018128,0.03314077812,0.05320952265,0.07106310772,0.08676492055,0.1004920111,0.1124722589,0.122944573,0.1321353558,0.1402461159,0.1474484463,0.1538836242,0.1596648935],
				"rk": [0,-0.007946393751,-0.01291128436,-0.01386195681,-0.01233493617,-0.009405453053,-0.005801501473,-0.001994848951,0.001725874382,0.005198854133,0.008347074585,0.01114779894,0.01361097088,0.01576436454,0.0176437278,0.01928653876,0.02072831357,0.02200066325,0.02313050593,0.02414000398,0.02504692222],
				"k": [0,-0.05065533007,-0.09117733493,-0.1110043967,-0.1173014451,-0.1152736424,-0.108589877,-0.09973529981,-0.09031389725,-0.08129435843,-0.07320204227,-0.06626444695,-0.06051853801,-0.0558877951,-0.05223582792,-0.04940228408,-0.04722569335,-0.045556928,-0.044266132,-0.04324528062,-0.04240797016],
				"pk": [0,-0.774120193,-0.5124837903,-0.3245906921,-0.1939315975,-0.1064705341,-0.05022553919,-0.01575517144,0.004006662968,0.01417084151,0.01833325925,0.01895706827,0.01767992299,0.01555115019,0.01321017014,0.01101807217,0.009152872651,0.00767715171,0.006585015125,0.005833820556,0.00536486563],
				"c": [0,-0.1013762104,-0.1543823715,-0.1715550887,-0.1655925213,-0.1462609598,-0.1205710774,-0.09324764608,-0.06725497317,-0.04426949256,-0.02506746402,-0.009826538089,0.001648683557,0.009763795955,0.01502135638,0.01794566621,0.01903583634,0.0187392604,0.01743930241,0.01545245573,0.01303143588],
				"inve": [0,-0.304345076,-0.4810965178,-0.5725344594,-0.6096724121,-0.6140913771,-0.6002418843,-0.5774211758,-0.5513311279,-0.5252440554,-0.5008458964,-0.478829544,-0.4593014194,-0.4420519479,-0.426729023,-0.4129438491,-0.4003308414,-0.3885772778,-0.3774338537,-0.3667138884,-0.3562864193],
				"y": [0,-0.0659358552,-0.1226913717,-0.1489955808,-0.1556606017,-0.1505087287,-0.1389691602,-0.1246359721,-0.109761867,-0.09565672855,-0.08299206596,-0.07202516872,-0.06275922116,-0.05505429517,-0.04870170694,-0.04347170905,-0.03914225092,-0.03551467158,-0.03242068104,-0.02972379866,-0.02731749804],
				"lab": [0,-0.03922678535,-0.07375921499,-0.08950314587,-0.09317526647,-0.08962957163,-0.08222107372,-0.0731567153,-0.06380822713,-0.05496426239,-0.04702195872,-0.04012695286,-0.03427254178,-0.02936776308,-0.02528250545,-0.02187606402,-0.01901406414,-0.01657744752,-0.01446623572,-0.01260002356,-0.01091657285],
				"pinf": [0,-0.01346036031,-0.01889143638,-0.01998918853,-0.01907024633,-0.01727325298,-0.01518065831,-0.01309698642,-0.01117846412,-0.009497430217,-0.008077052912,-0.006911651896,-0.005979385521,-0.005250451694,-0.004692404594,-0.004273504546,-0.003964692334,-0.003740603853,-0.003579931247,-0.003465358774,-0.003383241796],
				"w": [0,-0.01937493848,-0.0303294043,-0.03536320767,-0.03646111484,-0.0350495238,-0.03217030471,-0.02857343346,-0.02477979574,-0.02113124191,-0.01783300896,-0.01498969515,-0.01263502535,-0.01075566748,-0.009309594674,-0.008239681303,-0.007483315646,-0.006978817235,-0.00666939035,-0.006505253087,-0.006444475097],
				"r": [0,0.2285841116,0.1477108007,0.08968398217,0.04742195837,0.01806518679,-0.00140600994,-0.01366340657,-0.02084221497,-0.024560616,-0.02600353588,-0.02601534647,-0.02518237275,-0.02390035766,-0.02242730546,-0.02092379096,-0.0194831039,-0.01815339367,-0.016953641,-0.01588494111,-0.01493827915],
				"a": [0,0,-1.550206014e-19,4.170558343e-18,4.040030826e-18,1.758400364e-17,1.759718868e-17,1.752897003e-17,1.729572065e-17,1.818729021e-17,1.788994313e-17,1.720580293e-17,1.680980545e-17,1.693185085e-17,1.66576046e-17,1.638223937e-17,1.610046485e-17,1.583353163e-17,1.523378776e-17,1.497895734e-17,1.472131927e-17],
				"b": [0,0,-8.886878371e-18,1.054741135e-16,2.034381836e-17,-3.098720732e-17,3.238143459e-17,5.978588503e-17,4.023531666e-17,-1.209707008e-17,-1.766584405e-18,1.345701563e-17,-8.718615672e-18,5.053457566e-17,2.320471522e-17,4.900442622e-17,-2.026388391e-18,-6.742808745e-18,6.341923619e-18,9.088446483e-18,1.098216566e-17],
				"g": [0,0,0,0,0,0,0,0,0,0,0,0,0,0,0,0,0,0,0,0,0],
				"qs": [0,0,0,0,0,0,0,0,0,0,0,0,0,0,0,0,0,0,0,0,0],
				"spinf": [0,6.375311975e-17,-1.567800393e-17,-2.684672084e-18,1.236569709e-17,4.715174732e-17,1.699706053e-17,1.144685996e-17,-2.184343715e-18,-1.683476532e-17,-6.410393137e-18,-2.668808905e-17,1.068221683e-17,-1.54581189e-17,2.880063236e-17,1.441196976e-17,-2.190970834e-17,1.679048014e-17,-2.698069748e-17,1.080633793e-20,-2.893285509e-18],
				"sw": [0,-1.17731022e-16,-1.434307152e-16,-2.193662164e-16,-6.459892194e-17,-7.85653858e-17,8.313853302e-18,-1.413488031e-17,-1.303408802e-17,1.848765477e-17,4.920877175e-17,7.602466265e-17,1.762450729e-17,6.612147932e-17,-1.845965245e-17,-1.353143698e-17,2.223015572e-17,-2.130988943e-17,3.178048439e-17,2.764794301e-17,3.222824227e-17],
				"kp": [0,-0.008872657904,-0.02263953338,-0.03867077537,-0.05531734725,-0.07160744426,-0.08701887331,-0.10131571,-0.1144351365,-0.1264115649,-0.1373275547,-0.1472834586,-0.1563798062,-0.1647080868,-0.1723468571,-0.1793610491,-0.1858030439,-0.1917145783,-0.1971289048,-0.2020728637,-0.206568695],
				"rr": [0,-0.749168073,0.2779060703,0.1980126568,0.1365731858,0.09062219938,0.05769176053,0.03491850266,0.01968755555,0.009871986216,0.003837195868,0.0003694831425,-0.001409659577,-0.002121829009,-0.002196591583,-0.00192281733,-0.001488220054,-0.001009244563,-0.0005532966092,-0.0001550138004,0.0001720341523],
				"er": [0,0.2792052193,0.1968345906,0.1354716692,0.08956207944,0.05664380395,0.03386935205,0.01863245472,0.008810246036,0.002769718026,-0.0007024367725,-0.00248483678,-0.003199354928,-0.003275849425,-0.00300344145,-0.002570041716,-0.002092241336,-0.001637550893,-0.001240681029,-0.0009152510795,-0.0006620367849],
				"ec": [0,0.2792052193,0.1968345906,0.1354716692,0.08956207944,0.05664380395,0.03386935205,0.01863245472,0.008810246036,0.002769718026,-0.0007024367725,-0.00248483678,-0.003199354928,-0.003275849425,-0.00300344145,-0.002570041716,-0.002092241336,-0.001637550893,-0.001240681029,-0.0009152510795,-0.0006620367849],
				"nw": [0,-2.462581784,-2.083040026,-1.791963728,-1.573507691,-1.409364128,-1.284465909,-1.187231032,-1.109142068,-1.044124193,-0.9879536271,-0.937765429,-0.8916680765,-0.848451842,-0.8073732614,-0.7679989338,-0.7300944835,-0.6935472881,-0.6583140526,-0.6243863637,-0.5917690149],
				"prem": [0,0.03226478333,0.02914376434,0.0267204622,0.02486681058,0.02339611305,0.02217531472,0.02111328905,0.02014984623,0.01924691331,0.01838177143,0.01754202359,0.01672194039,0.01591986938,0.01513644779,0.01437341002,0.01363282676,0.01291664998,0.01222646883,0.0115634056,0.01092810043],
				"pinf4": [0,-0.01346036031,-0.03235179669,-0.05234098522,-0.07141123154,-0.07522412421,-0.07151334614,-0.06462114403,-0.05672936181,-0.04895353905,-0.04184993366,-0.03566459914,-0.03046552055,-0.02621854202,-0.0228338937,-0.02019574635,-0.01818105317,-0.01667120533,-0.01555873198,-0.01475058621,-0.01416913567],
				"eg": [0,0,0,0,0,0,0,0,0,0,0,0,0,0,0,0,0,0,0,0,0],
				"interest": [0,0.9143364465,0.5908432029,0.3587359287,0.1896878335,0.07226074715,-0.00562403976,-0.0546536263,-0.08336885989,-0.098242464,-0.1040141435,-0.1040613859,-0.100729491,-0.09560143063,-0.08970922184,-0.08369516384,-0.0779324156,-0.07261357467,-0.06781456399,-0.06353976446,-0.05975311661],
				"inflation": [0,-0.01346036031,-0.03235179669,-0.05234098522,-0.07141123154,-0.07522412421,-0.07151334614,-0.06462114403,-0.05672936181,-0.04895353905,-0.04184993366,-0.03566459914,-0.03046552055,-0.02621854202,-0.0228338937,-0.02019574635,-0.01818105317,-0.01667120533,-0.01555873198,-0.01475058621,-0.01416913567],
				"inflationq": [0,-0.05384144125,-0.07556574551,-0.0799567541,-0.07628098531,-0.0690930119,-0.06072263322,-0.05238794566,-0.04471385646,-0.03798972087,-0.03230821165,-0.02764660758,-0.02391754208,-0.02100180677,-0.01876961838,-0.01709401818,-0.01585876934,-0.01496241541,-0.01431972499,-0.01386143509,-0.01353296718],
				"inflationql": [0,0,-0.05384144125,-0.07556574551,-0.0799567541,-0.07628098531,-0.0690930119,-0.06072263322,-0.05238794566,-0.04471385646,-0.03798972087,-0.03230821165,-0.02764660758,-0.02391754208,-0.02100180677,-0.01876961838,-0.01709401818,-0.01585876934,-0.01496241541,-0.01431972499,-0.01386143509],
				"inflationql2": [0,0,0,-0.05384144125,-0.07556574551,-0.0799567541,-0.07628098531,-0.0690930119,-0.06072263322,-0.05238794566,-0.04471385646,-0.03798972087,-0.03230821165,-0.02764660758,-0.02391754208,-0.02100180677,-0.01876961838,-0.01709401818,-0.01585876934,-0.01496241541,-0.01431972499],
				"inflationqls": [0,0,-0.05384144125,-0.1294071868,-0.1555224996,-0.1562377394,-0.1453739972,-0.1298156451,-0.1131105789,-0.09710180212,-0.08270357733,-0.07029793252,-0.05995481923,-0.05156414967,-0.04491934886,-0.03977142515,-0.03586363656,-0.03295278752,-0.03082118475,-0.0292821404,-0.02818116008],
				"outputgap": [0,-0.0659358552,-0.1226913717,-0.1489955808,-0.1556606017,-0.1505087287,-0.1389691602,-0.1246359721,-0.109761867,-0.09565672855,-0.08299206596,-0.07202516872,-0.06275922116,-0.05505429517,-0.04870170694,-0.04347170905,-0.03914225092,-0.03551467158,-0.03242068104,-0.02972379866,-0.02731749804],
				"output": [0,-0.0659358552,-0.1226913717,-0.1489955808,-0.1556606017,-0.1505087287,-0.1389691602,-0.1246359721,-0.109761867,-0.09565672855,-0.08299206596,-0.07202516872,-0.06275922116,-0.05505429517,-0.04870170694,-0.04347170905,-0.03914225092,-0.03551467158,-0.03242068104,-0.02972379866,-0.02731749804],
				"fispol": [0,0,0,0,0,0,0,0,0,0,0,0,0,0,0,0,0,0,0,0,0],
				"newv_long": [0,9.150438074e-19,1.28515731e-18,1.145412605e-17,4.446920442e-17,3.696437331e-17,5.506982728e-18,-2.602806726e-18,3.022970154e-18,3.575513642e-18,1.824334992e-17,-3.353837728e-18,-9.093781537e-18,5.121954063e-19,-3.905696236e-18,1.224959313e-19,-9.479639594e-18,4.345059018e-18,1.006583321e-18,6.761630446e-18,-1.762725665e-18],
				"newv_short": [0,9.150438074e-19,1.28515731e-18,1.145412605e-17,4.446920442e-17,3.696437331e-17,5.506982728e-18,-2.602806726e-18,3.022970154e-18,3.575513642e-18,1.824334992e-17,-3.353837728e-18,-9.093781537e-18,5.121954063e-19,-3.905696236e-18,1.224959313e-19,-9.479639594e-18,4.345059018e-18,1.006583321e-18,6.761630446e-18,-1.762725665e-18]
			},
			"fiscal_": {
				"ewma": [0,-5.020079481e-16,-1.292834554e-16,-4.790289332e-16,-1.325122792e-16,5.976691289e-18,4.537243745e-16,-5.888264678e-18,7.511258282e-17,-1.318394195e-18,-7.736244125e-17,-4.899320253e-16,2.387538841e-17,-1.892962515e-16,-1.253434219e-16,1.544865455e-16,7.99596244e-17,3.225764147e-16,-7.456699581e-17,-1.246069508e-16,3.890978345e-17],
				"epinfma": [0,4.878889058e-16,1.104913912e-16,5.085770886e-16,1.359388385e-16,-1.173714326e-16,-3.760829854e-16,-7.634325812e-18,-8.184632495e-17,3.412223261e-17,8.459175543e-17,4.934495559e-16,2.37414328e-17,2.007775323e-16,1.336619601e-16,-1.648665021e-16,-6.911631687e-17,-3.262295641e-16,6.643816683e-17,9.945127744e-17,-3.95133265e-17],
				"mc": [0,0.06123162595,0.07875435623,0.08224844454,0.07731628661,0.06779482907,0.05626851188,0.0444160167,0.0332633803,0.02337463018,0.01499629383,0.008165983416,0.002792478038,-0.001286753962,-0.004265642623,-0.006343071571,-0.007706476096,-0.008522708587,-0.008933973957,-0.009057139591,-0.008985147827],
				"zcap": [0,0.6065147418,0.5344718233,0.4848357549,0.4553675586,0.4437470623,0.4474980703,0.4640277466,0.4907390229,0.5251482892,0.5649790325,0.6082231628,0.6531715364,0.6984192166,0.7428521185,0.7856213529,0.8261106073,0.8639007344,0.8987345685,0.9304839945,0.9591204769],
				"rk": [0,0.09514507055,0.08384356691,0.0760570666,0.07143433704,0.06961140866,0.0701998361,0.0727928765,0.07698312298,0.08238096716,0.0886292883,0.09541307367,0.1024642068,0.1095622926,0.1165325628,0.1232418504,0.1295934733,0.1355216793,0.1409861262,0.1459667164,0.1504589735],
				"k": [0,0.6065147418,0.5059654933,0.4073632256,0.3147334949,0.2306825527,0.1566087841,0.09294082571,0.03940132717,-0.004752032015,-0.04052854206,-0.06905343911,-0.09146019894,-0.1088193456,-0.1220961641,-0.1321300903,-0.1396294877,-0.1451766578,-0.1492390606,-0.1521837483,-0.154292884],
				"pk": [0,-1.495415133,-1.176514105,-0.9350715382,-0.7450068096,-0.5901303147,-0.4618215864,-0.3551453958,-0.2668696345,-0.1945390245,-0.1360589682,-0.08952595584,-0.05317355959,-0.02536802772,-0.004620548179,0.01039947565,0.02085666817,0.02774923125,0.0319152591,0.03404429163,0.03469232644],
				"c": [0,0.1902822391,0.271646454,0.2880204352,0.2628073247,0.2140279549,0.1546225461,0.09327269859,0.03535171101,-0.01619537932,-0.06011414668,-0.09625929135,-0.1251574675,-0.147692714,-0.1648905445,-0.1777781247,-0.187300901,-0.1942794721,-0.1993938603,-0.2031853709,-0.2060688055],
				"inve": [0,-0.9778085963,-1.708118214,-2.244005057,-2.62510375,-2.88256758,-3.041784848,-3.123805262,-3.14615006,-3.123339122,-3.067289638,-2.987655682,-2.892136988,-2.786765944,-2.676173519,-2.563832026,-2.452272446,-2.343274914,-2.238032207,-2.137287178,-2.04144596],
				"y": [0,1.017384217,0.8118615027,0.6373015972,0.490641565,0.3693481215,0.2709200161,0.1927252752,0.1320461316,0.08618838886,0.0525897331,0.0289024342,0.01304483624,0.003224383075,-0.002061937156,-0.00404325444,-0.003700704477,-0.001798723946,0.001081899438,0.004511795088,0.008183255647],
				"lab": [0,0.6488747775,0.512322239,0.3996298032,0.3073865682,0.2329515754,0.1740098886,0.1283853171,0.09401004898,0.06895061222,0.05144372183,0.03992369086,0.03303608977,0.0296381196,0.02878842923,0.02972966732,0.03186682686,0.03474388667,0.03802061984,0.04145084575,0.04486290083],
				"pinf": [0,0.0181916946,0.02370067036,0.022375927,0.01801524806,0.01259508975,0.007153893794,0.00221962459,-0.001970040393,-0.005345879254,-0.007935117784,-0.009816830974,-0.01109374526,-0.01187454291,-0.01226317736,-0.01235293997,-0.01222372138,-0.01194136011,-0.01155828453,-0.01111488529,-0.01064122868],
				"w": [0,0.05278503483,0.07748682112,0.08379048896,0.07878126381,0.06734238594,0.05279873166,0.03734838512,0.02237440117,0.008678322923,-0.003342975594,-0.0135640563,-0.02203208193,-0.02889517251,-0.03435203053,-0.03861790724,-0.04190284122,-0.04439886515,-0.04627355424,-0.04766787764,-0.04869681131],
				"r": [0,0.3018926478,0.2257054112,0.1701727352,0.1302585821,0.09925868314,0.07389793788,0.05264308291,0.03474647607,0.01979421559,0.007496930713,-0.002401128564,-0.01015553894,-0.01602822661,-0.02028261565,-0.02317525869,-0.02494773786,-0.02582044243,-0.02598867168,-0.02562092751,-0.02485900182],
				"a": [0,0,-4.98054638e-19,-6.95080314e-17,-1.342940429e-16,-1.365758815e-16,-1.38610625e-16,-1.412160743e-16,-1.82698912e-16,-2.206372436e-16,-2.165593219e-16,-2.474482542e-16,-2.416500414e-16,-2.671285875e-16,-2.627775028e-16,-2.83587299e-16,-2.789324962e-16,-2.958344539e-16,-2.900879587e-16,-3.036340575e-16,-3.118119142e-16],
				"b": [0,0,2.048765538e-17,-4.343803823e-16,8.901507843e-17,1.657837718e-16,1.273988677e-16,1.337471915e-17,-1.377942993e-17,-5.223234489e-17,8.300483034e-17,-3.113297471e-16,-9.453845421e-17,-8.750666261e-17,-1.249989971e-16,-1.845227235e-17,3.090414279e-17,2.007250049e-16,5.012656296e-18,-2.510657166e-16,-7.020049373e-17],
				"g": [0,1,0.9249,0.85544001,0.7911964652,0.7317776107,0.6768211121,0.6259918466,0.5789798589,0.5354984715,0.4952825363,0.4580868178,0.4236844978,0.391865792,0.3624366711,0.3352176771,0.3100428295,0.286758613,0.2652230412,0.2453047908,0.226882401],
				"qs": [0,0,0,0,0,0,0,0,0,0,0,0,0,0,0,0,0,0,0,0,0],
				"spinf": [0,5.10024958e-17,-2.517667631e-16,-3.87762337e-16,-5.274739834e-16,-2.29676748e-16,-1.252937171e-16,7.723593025e-17,-1.064648622e-16,-5.329547115e-17,-1.259541575e-17,1.52357307e-17,-1.366712895e-16,-1.016234106e-16,-1.267430284e-16,-1.372169991e-16,5.226747416e-17,-7.93621135e-17,9.539193613e-17,7.566720996e-17,-1.264196668e-16],
				"sw": [0,-1.892675337e-16,-1.133104029e-16,4.196615311e-16,6.39608068e-16,1.751362512e-16,3.892621083e-16,4.611085406e-17,2.944146874e-16,1.911510261e-16,1.391677532e-16,9.233972238e-18,8.029924155e-17,9.686366322e-17,7.624189806e-17,1.656002467e-16,4.777308e-17,2.778620486e-16,1.07559906e-16,-9.883500133e-17,1.740487366e-16],
				"kp": [0,-0.02850633,-0.07747252933,-0.1406340636,-0.2130645096,-0.2908892861,-0.3710869209,-0.4513376957,-0.5299003212,-0.6055075746,-0.6772766019,-0.7446317353,-0.8072385621,-0.8649482826,-0.9177514432,-0.965740095,-1.009077392,-1.047973629,-1.082667743,-1.113413361,-1.140468557],
				"rr": [0,-1.443615073,0.3599473233,0.274372174,0.2166539142,0.1763624224,0.1456351657,0.1206129333,0.0994740759,0.08134911316,0.06579751921,0.05255595497,0.0414210794,0.03219983188,0.02469309471,0.01869498175,0.01399844362,0.01040240779,0.007718158402,0.005774030266,0.004418228032],
				"er": [0,0.3548018982,0.2720572743,0.2145133647,0.1742854776,0.1435943717,0.1185994536,0.09748525199,0.07938462492,0.06385779618,0.05064147624,0.03953210973,0.03033636879,0.02285490421,0.01688166162,0.01220948754,0.008637261121,0.005976263601,0.004054862189,0.002721320105,0.001844913562],
				"ec": [0,0.3548018982,0.2720572743,0.2145133647,0.1742854776,0.1435943717,0.1185994536,0.09748525199,0.07938462492,0.06385779618,0.05064147624,0.03953210973,0.03033636879,0.02285490421,0.01688166162,0.01220948754,0.008637261121,0.005976263601,0.004054862189,0.002721320105,0.001844913562],
				"nw": [0,-4.745290555,-4.163224092,-3.697129267,-3.30872539,-2.977439806,-2.691365832,-2.442885023,-2.22649274,-2.037781356,-1.872975589,-1.728731868,-1.602059916,-1.490295907,-1.391092678,-1.302411152,-1.222506827,-1.149910111,-1.083401489,-1.021983388,-0.9648506888],
				"prem": [0,0.07597088622,0.06880570697,0.06243759281,0.05670550588,0.05157444327,0.04700721468,0.04295940492,0.03938078132,0.0362182589,0.03341884515,0.03093200372,0.0287112953,0.02671533811,0.02490820653,0.02325940658,0.02174355994,0.02033990889,0.01903173045,0.01780572544,0.01665142759],
				"pinf4": [0,0.0181916946,0.04189236496,0.06426829196,0.08228354002,0.07668693517,0.06014015861,0.0399838562,0.01999856774,0.002057598737,-0.01303141284,-0.02506786841,-0.03419157327,-0.04072023693,-0.0450482965,-0.04758440549,-0.04871438161,-0.04878119882,-0.04807630599,-0.04683825131,-0.04525575862],
				"eg": [0,1,0,0,0,0,0,0,0,0,0,0,0,0,0,0,0,0,0,0,0],
				"interest": [0,1.207570591,0.9028216449,0.6806909407,0.5210343284,0.3970347325,0.2955917515,0.2105723316,0.1389859043,0.07917686236,0.02998772285,-0.009604514257,-0.04062215577,-0.06411290645,-0.08113046262,-0.09270103476,-0.09979095144,-0.1032817697,-0.1039546867,-0.10248371,-0.09943600728],
				"inflation": [0,0.0181916946,0.04189236496,0.06426829196,0.08228354002,0.07668693517,0.06014015861,0.0399838562,0.01999856774,0.002057598737,-0.01303141284,-0.02506786841,-0.03419157327,-0.04072023693,-0.0450482965,-0.04758440549,-0.04871438161,-0.04878119882,-0.04807630599,-0.04683825131,-0.04525575862],
				"inflationq": [0,0.0727667784,0.09480268143,0.089503708,0.07206099225,0.05038035901,0.02861557518,0.00887849836,-0.007880161572,-0.02138351702,-0.03174047114,-0.0392673239,-0.04437498105,-0.04749817163,-0.04905270943,-0.04941175986,-0.04889488552,-0.04776544045,-0.04623313813,-0.04445954115,-0.04256491474],
				"inflationql": [0,0,0.0727667784,0.09480268143,0.089503708,0.07206099225,0.05038035901,0.02861557518,0.00887849836,-0.007880161572,-0.02138351702,-0.03174047114,-0.0392673239,-0.04437498105,-0.04749817163,-0.04905270943,-0.04941175986,-0.04889488552,-0.04776544045,-0.04623313813,-0.04445954115],
				"inflationql2": [0,0,0,0.0727667784,0.09480268143,0.089503708,0.07206099225,0.05038035901,0.02861557518,0.00887849836,-0.007880161572,-0.02138351702,-0.03174047114,-0.0392673239,-0.04437498105,-0.04749817163,-0.04905270943,-0.04941175986,-0.04889488552,-0.04776544045,-0.04623313813],
				"inflationqls": [0,0,0.0727667784,0.1675694598,0.1843063894,0.1615647002,0.1224413513,0.07899593419,0.03749407354,0.0009983367877,-0.02926367859,-0.05312398815,-0.07100779503,-0.08364230495,-0.09187315268,-0.09655088107,-0.0984644693,-0.09830664538,-0.09666032597,-0.09399857858,-0.09069267928],
				"outputgap": [0,1.017384217,0.8118615027,0.6373015972,0.490641565,0.3693481215,0.2709200161,0.1927252752,0.1320461316,0.08618838886,0.0525897331,0.0289024342,0.01304483624,0.003224383075,-0.002061937156,-0.00404325444,-0.003700704477,-0.001798723946,0.001081899438,0.004511795088,0.008183255647],
				"output": [0,1.017384217,0.8118615027,0.6373015972,0.490641565,0.3693481215,0.2709200161,0.1927252752,0.1320461316,0.08618838886,0.0525897331,0.0289024342,0.01304483624,0.003224383075,-0.002061937156,-0.00404325444,-0.003700704477,-0.001798723946,0.001081899438,0.004511795088,0.008183255647],
				"fispol": [0,1,0,0,0,0,0,0,0,0,0,0,0,0,0,0,0,0,0,0,0],
				"newv_long": [0,-1.411904228e-17,-1.879206422e-17,2.954815542e-17,3.426559357e-18,-1.113947413e-16,7.764138912e-17,-1.352259049e-17,-6.733742135e-18,3.280383842e-17,7.229314176e-18,3.517530658e-18,4.761682121e-17,1.148128088e-17,8.318538178e-18,-1.037995667e-17,1.084330753e-17,-3.653149374e-18,-8.128828984e-18,-2.515567336e-17,-6.035430567e-19],
				"newv_short": [0,-1.411904228e-17,-1.879206422e-17,2.954815542e-17,3.426559357e-18,-1.113947413e-16,7.764138912e-17,-1.352259049e-17,-6.733742135e-18,3.280383842e-17,7.229314176e-18,3.517530658e-18,4.761682121e-17,1.148128088e-17,8.318538178e-18,-1.037995667e-17,1.084330753e-17,-3.653149374e-18,-8.128828984e-18,-2.515567336e-17,-6.035430567e-19]
			}
		}
	}
}
