{
	"model": "US_YR13",
	"rule": "SW",
	"data": {
		"AC": {
			"ewma": [1,-1.70008148e-17,2.890277038e-34,-4.913706463e-51,8.353701354e-68,-1.420197296e-84,2.41445112e-101,-4.104763633e-118,6.978432632e-135,-1.186390407e-151,2.016960359e-168,-3.428996952e-185,5.829574213e-202,-9.910751154e-219,1.684908449e-235,-2.864481648e-252,4.8698522e-269,-8.279145533e-286,1.407522199e-302,-2.392809329e-319,0],
			"epinfma": [1,3.190948424e-17,7.45434578e-34,-1.555395017e-34,-8.868862384e-35,-5.057025332e-35,-2.883515844e-35,-1.644180734e-35,-9.375118547e-36,-5.345692595e-36,-3.048113918e-36,-1.738034556e-36,-9.910273038e-37,-5.650837686e-37,-3.222107649e-37,-1.837245781e-37,-1.047597545e-37,-5.973401199e-38,-3.406033364e-38,-1.942120224e-38,-1.107396952e-38],
			"mc": [1,0.7840390962,0.5882384551,0.424389084,0.2936202571,0.1928318121,0.1174877923,0.06286931319,0.02462558457,-0.001012142051,-0.01718210858,-0.02642327786,-0.03074173495,-0.03168887962,-0.0304393158,-0.02786251669,-0.02458574587,-0.02104757341,-0.01754231232,-0.01425618886,-0.01129626426],
			"zcap": [1,0.9988049068,0.9970719715,0.9949660798,0.992556699,0.989872256,0.9869236968,0.9837151325,0.9802487726,0.9765271853,0.9725542476,0.9683354334,0.9638777684,0.9591896261,0.9542804612,0.9491605309,0.9438406346,0.9383318834,0.9326455052,0.9267926868,0.9207844493],
			"rk": [1,0.9988049068,0.9970719715,0.9949660798,0.992556699,0.989872256,0.9869236968,0.9837151325,0.9802487726,0.9765271853,0.9725542476,0.9683354334,0.9638777684,0.9591896261,0.9542804612,0.9491605309,0.9438406346,0.9383318834,0.9326455052,0.9267926868,0.9207844493],
			"k": [1,0.9853523551,0.9670720648,0.9481026254,0.9297240535,0.9124566101,0.8964589242,0.8817142595,0.8681230104,0.8555509542,0.8438551608,0.8328978854,0.8225536594,0.8127124112,0.8032802444,0.7941788617,0.7853442464,0.7767249913,0.7682805185,0.7599793394,0.7517974429],
			"pk": [1,0.5059261605,0.2925790234,0.1913014826,0.1363140503,0.1018161689,0.0775168682,0.05913925053,0.04474753836,0.03333215603,0.02426710165,0.01710230378,0.01148346045,0.007119745115,0.003769165432,0.001230322553,-0.0006634843215,-0.002049186502,-0.003038327377,-0.003720999279,-0.004169350376],
			"c": [1,0.9956553843,0.9869757768,0.975956471,0.9636410342,0.950657359,0.9374234906,0.9242302586,0.9112788279,0.8987019251,0.8865788971,0.8749479378,0.8638164564,0.8531698305,0.8429786287,0.8332043911,0.8238041035,0.8147335295,0.8059495806,0.7974119019,0.7890838385],
			"inve": [1,0.9956095318,0.9867305642,0.9753715212,0.9625605507,0.9488828285,0.9347059771,0.920278155,0.9057737178,0.891316838,0.8769954283,0.8628704137,0.8489824626,0.8353571051,0.822008699,0.8089435057,0.7961620594,0.783660969,0.7714342675,0.7594744038,0.7477729564],
			"y": [1,0.979687686,0.9520727939,0.9212892305,0.8893363341,0.8572872539,0.8257720144,0.7951778813,0.7657398757,0.7375881508,0.7107775635,0.6853088858,0.6611451523,0.6382245089,0.6164702187,0.5957982611,0.5761229072,0.5573606273,0.5394326603,0.5222665449,0.505796868],
			"lab": [1,0.9700310198,0.9389849643,0.9102370201,0.8846926712,0.8623248812,0.8427850958,0.8256446305,0.8104876408,0.796944088,0.7846983329,0.773487903,0.7630984737,0.7533576343,0.7441285556,0.7353040513,0.7268012401,0.7185568783,0.7105233625,0.7026653671,0.6949570594],
			"pinf": [1,0.6375699283,0.5053105308,0.4292482623,0.3699538963,0.3204973724,0.2799690821,0.2476909959,0.2225136463,0.2030662347,0.1880168064,0.1762084928,0.1667032865,0.1587763141,0.1518887496,0.1456544612,0.1398075665,0.1341738585,0.1286469803,0.123169262,0.1177167275],
			"w": [1,0.9889476527,0.9748172125,0.9594876071,0.9438854594,0.928466919,0.9134427794,0.898893459,0.8848310506,0.8712336417,0.8580643356,0.8452816201,0.8328448066,0.8207166684,0.8088645117,0.7972603886,0.7858808613,0.7747065541,0.7637216243,0.7529132259,0.7422710057],
			"r": [1,0.9339673061,0.8598855426,0.7881079681,0.7219006058,0.6621669812,0.6089212005,0.5617878343,0.5202073329,0.483543371,0.4511483549,0.4224046377,0.3967488675,0.3736841782,0.3527838692,0.3336894643,0.3161053597,0.2997916768,0.2845564427,0.2702478354,0.2567469485],
			"a": [1,0.9828,0.96589584,0.9492824316,0.9329547737,0.9169079516,0.9011371349,0.8856375761,0.8704046098,0.8554336505,0.8407201917,0.8262598044,0.8120481358,0.7980809079,0.7843539163,0.7708630289,0.7576041848,0.7445733928,0.7317667305,0.7191803427,0.7068104408],
			"b": [1,0.3881,0.15062161,0.05845624684,0.0226868694,0.008804774014,0.003417132795,0.001326189238,0.0005146940431,0.0001997527581,7.752404543e-05,3.008708203e-05,1.167679654e-05,4.531764736e-06,1.758777894e-06,6.825817007e-07,2.64909958e-07,1.028115547e-07,3.990116438e-08,1.54856419e-08,6.00997762e-09],
			"g": [1,0.9249,0.85544001,0.7911964652,0.7317776107,0.6768211121,0.6259918466,0.5789798589,0.5354984715,0.4952825363,0.4580868178,0.4236844978,0.391865792,0.3624366711,0.3352176771,0.3100428295,0.286758613,0.2652230412,0.2453047908,0.226882401,0.2098435327],
			"qs": [1,0.4265,0.18190225,0.07758130962,0.03308842856,0.01411221478,0.006018859603,0.002567043621,0.001094844104,0.0004669510105,0.000199154606,8.493943944e-05,3.622667092e-05,1.545067515e-05,6.589712951e-06,2.810512573e-06,1.198683613e-06,5.112385608e-07,2.180432462e-07,9.299544449e-08,3.966255708e-08],
			"spinf": [1,-0.1636401803,-0.0524630418,-0.0168196512,-0.005392380175,-0.001728797084,-0.0005542523452,-0.0001776933019,-5.696847258e-05,-1.826409231e-05,-5.855467994e-06,-1.877263039e-06,-6.018505303e-07,-1.9295328e-07,-6.186082157e-08,-1.98325794e-08,-6.358324954e-09,-2.03847898e-09,-6.535363611e-10,-2.095237574e-10,-6.717331661e-11],
			"sw": [1,0.1273675442,0.0726249737,0.04141076,0.02361241535,0.01346379924,0.007677058324,0.004377458656,0.002496026926,0.001423234553,0.0008115283422,0.0004627334607,0.0002638506193,0.0001504476231,8.57852347e-05,4.891474083e-05,2.789118522e-05,1.590355381e-05,9.068206384e-06,5.17069128e-06,2.948328168e-06],
			"kp": [1,0.999766752,0.9990932542,0.9980012711,0.9965107924,0.9946410404,0.9924107761,0.9898383335,0.9869415667,0.9837377813,0.9802436783,0.9764753176,0.9724480996,0.9681767624,0.9636753906,0.9589574322,0.9540357208,0.9489225008,0.9436294543,0.9381677282,0.9325479603],
			"rr": [1,-0.283051953,-0.1126447269,-0.04619206492,-0.02013754543,-0.009755076635,-0.005449122835,-0.003507877068,-0.002501402941,-0.001881327821,-0.001437861841,-0.001090086,-0.0008054772578,-0.0005693608741,-0.0003735292089,-0.0002121373106,-8.030649844e-05,2.630154238e-05,0.0001115883591,0.0001790330658,0.0002316949442],
			"er": [1,0.4164315757,0.1857818742,0.09265156312,0.0533638994,0.03541103874,0.02614327531,0.02061155217,0.01685225991,0.01406076529,0.01188482813,0.01015152178,0.008761648351,0.007648724336,0.006762800287,0.006063818177,0.005518641345,0.00509951856,0.004783131813,0.004549905179,0.004383450975],
			"ec": [1,0.4164315757,0.1857818742,0.09265156312,0.0533638994,0.03541103874,0.02614327531,0.02061155217,0.01685225991,0.01406076529,0.01188482813,0.01015152178,0.008761648351,0.007648724336,0.006762800287,0.006063818177,0.005518641345,0.00509951856,0.004783131813,0.004549905179,0.004383450975],
			"nw": [1,0.9043933626,0.8393956424,0.7880574005,0.7436551331,0.7034496348,0.6662581822,0.6315115232,0.5988879304,0.5681710596,0.5391943869,0.5118190368,0.4859244538,0.4614040216,0.4381626099,0.4161149127,0.3951841503,0.375300977,0.3564025349,0.3384316283,0.3213360039],
			"prem": [1,0.9430325785,0.8917066174,0.8441550993,0.7995816853,0.7575964854,0.7179645724,0.6805120465,0.6450917215,0.6115710099,0.5798278228,0.5497491889,0.5212306773,0.494175972,0.4684964115,0.4441104648,0.4209431634,0.3989255193,0.3779939516,0.3580897409,0.3391585227],
			"pinf4": [1,0.9411455589,0.8332125137,0.7042296677,0.5777469621,0.4963458746,0.4335938733,0.383302143,0.3432928168,0.3118429055,0.2872253283,0.2678224539,0.2522428272,0.2393642012,0.2283246386,0.2184888217,0.2094067379,0.200773492,0.1923939783,0.1841535367,0.1759944786],
			"eg": [1,8.045291149e-16,7.84486262e-16,7.52731164e-16,7.118785453e-16,6.689034298e-16,6.270535522e-16,5.877671088e-16,5.515791746e-16,5.185675219e-16,4.88581724e-16,4.613657308e-16,4.366252569e-16,4.140649711e-16,3.934083552e-16,3.744072922e-16,3.568454977e-16,3.40538317e-16,3.253304806e-16,3.110928362e-16,2.977187039e-16],
			"interest": [1,0.9339673061,0.8598855426,0.7881079681,0.7219006058,0.6621669812,0.6089212005,0.5617878343,0.5202073329,0.483543371,0.4511483549,0.4224046377,0.3967488675,0.3736841782,0.3527838692,0.3336894643,0.3161053597,0.2997916768,0.2845564427,0.2702478354,0.2567469485],
			"inflation": [1,0.9411455589,0.8332125137,0.7042296677,0.5777469621,0.4963458746,0.4335938733,0.383302143,0.3432928168,0.3118429055,0.2872253283,0.2678224539,0.2522428272,0.2393642012,0.2283246386,0.2184888217,0.2094067379,0.200773492,0.1923939783,0.1841535367,0.1759944786],
			"inflationq": [1,0.6375699283,0.5053105308,0.4292482623,0.3699538963,0.3204973724,0.2799690821,0.2476909959,0.2225136463,0.2030662347,0.1880168064,0.1762084928,0.1667032865,0.1587763141,0.1518887496,0.1456544612,0.1398075665,0.1341738585,0.1286469803,0.123169262,0.1177167275],
			"inflationql": [1,0.6375699283,0.5053105308,0.4292482623,0.3699538963,0.3204973724,0.2799690821,0.2476909959,0.2225136463,0.2030662347,0.1880168064,0.1762084928,0.1667032865,0.1587763141,0.1518887496,0.1456544612,0.1398075665,0.1341738585,0.1286469803,0.123169262,0.1177167275],
			"inflationql2": [1,0.6375699283,0.5053105308,0.4292482623,0.3699538963,0.3204973724,0.2799690821,0.2476909959,0.2225136463,0.2030662347,0.1880168064,0.1762084928,0.1667032865,0.1587763141,0.1518887496,0.1456544612,0.1398075665,0.1341738585,0.1286469803,0.123169262,0.1177167275],
			"inflationqls": [1,0.8489562306,0.6343055085,0.5293700506,0.4548365848,0.3941565184,0.3444514072,0.3046785066,0.2735103118,0.2493520759,0.2306186524,0.2159104983,0.2040802558,0.194234351,0.1857045199,0.178009265,0.1708151338,0.1639020889,0.1571343831,0.1504370052,0.143777177],
			"outputgap": [1,0.9373734029,0.8708543449,0.8087981856,0.753759259,0.7060103222,0.6649685604,0.6297780283,0.599548255,0.573450143,0.5507510974,0.5308234834,0.5131410937,0.4972702815,0.4828589651,0.4696251542,0.4573458787,0.4458469915,0.4349940753,0.4246845361,0.4148408723],
			"output": [1,0.979687686,0.9520727939,0.9212892305,0.8893363341,0.8572872539,0.8257720144,0.7951778813,0.7657398757,0.7375881508,0.7107775635,0.6853088858,0.6611451523,0.6382245089,0.6164702187,0.5957982611,0.5761229072,0.5573606273,0.5394326603,0.5222665449,0.505796868],
			"fispol": [1,3.816003424e-16,3.731307985e-16,3.586885857e-16,3.395898188e-16,3.19330105e-16,2.995407991e-16,2.809479243e-16,2.63825423e-16,2.482181054e-16,2.340562372e-16,2.212168609e-16,2.095575209e-16,1.989348866e-16,1.892147083e-16,1.80276636e-16,1.720159571e-16,1.643435169e-16,1.571846144e-16,1.504773872e-16,1.441710053e-16],
			"neww": [1,-0.08696309046,-0.0278803668,-0.008938445596,-0.002865665658,-0.00091873241,-0.0002945456106,-9.443132277e-05,-3.027468208e-05,-9.706063075e-06,-3.111763822e-06,-9.976314813e-07,-3.198406529e-07,-1.025409133e-07,-3.287461681e-08,-1.053960215e-08,-3.378996449e-09,-1.083306262e-09,-3.473079875e-10,-1.113469408e-10,-3.569782921e-11]
		},
		"VAR": {
			"ewma": 0.05184729,
			"epinfma": 0.03429904,
			"mc": 0.7848144216,
			"zcap": 172.8809768,
			"rk": 4.254387759,
			"k": 12.12377055,
			"pk": 16.0256299,
			"c": 42.09597378,
			"inve": 372.75413,
			"y": 13.59263951,
			"lab": 4.134926933,
			"pinf": 0.1034126298,
			"w": 11.84899983,
			"r": 0.3797257713,
			"a": 6.90578774,
			"b": 3.779878647,
			"g": 2.031717783,
			"qs": 0.1915868978,
			"spinf": 0.03555697933,
			"sw": 0.05292063572,
			"kp": 252.8232868,
			"rr": 15.33768835,
			"er": 4.516489662,
			"ec": 4.516489662,
			"nw": 656.4589567,
			"prem": 0.1914413923,
			"pinf4": 1.107048564,
			"eg": 0.21483225,
			"interest": 6.07561234,
			"inflation": 1.107048564,
			"inflationq": 1.654602077,
			"inflationql": 1.654602077,
			"inflationql2": 1.654602077,
			"inflationqls": 5.41905321,
			"outputgap": 4.747402702,
			"output": 13.59263951,
			"fispol": 0.21483225,
			"neww": 0.1384540993
		},
		"IRF": {
			"interest_": {
				"ewma": [0,-5.683712379e-18,9.662774151e-35,-1.642750338e-51,2.792809425e-68,-4.748003579e-85,8.071992951e-102,-1.372304572e-118,2.333029587e-135,-3.966340393e-152,6.743101845e-169,-1.146382256e-185,1.948943242e-202,-3.313362311e-219,5.632985901e-236,-9.576535006e-253,1.62808898e-269,-2.767883923e-286,4.705628195e-303,-7.999910937e-320,0],
				"epinfma": [0,0,-8.353193267e-35,2.868314692e-35,1.635513038e-35,9.32569534e-36,5.317511483e-36,3.032045048e-36,1.728872086e-36,9.858028635e-37,5.621047928e-37,3.205121528e-37,1.827560295e-37,1.04207488e-37,5.941910969e-38,3.388077634e-38,1.931881867e-38,1.101559041e-38,6.281089649e-39,3.581477318e-39,2.042158367e-39],
				"mc": [0,-0.02989431973,-0.04744059351,-0.05671022825,-0.0604584942,-0.06047030426,-0.05800076722,-0.0539708035,-0.04906317634,-0.04377808812,-0.03847169881,-0.03338639626,-0.02867597812,-0.02442684331,-0.02067563964,-0.01742367338,-0.01464840025,-0.01231235373,-0.0103698858,-0.008772090969,-0.007470260256],
				"zcap": [0,-0.07508314342,-0.1230956286,-0.1383059097,-0.1321116538,-0.1125407111,-0.08523025727,-0.05408836422,-0.02176404636,0.01000837258,0.04015301995,0.06806085239,0.09344666749,0.1162431863,0.1365235002,0.1544451741,0.1702107833,0.1840408013,0.1961556597,0.2067645128,0.216058808],
				"rk": [0,-0.01177842925,-0.01931023512,-0.02169629958,-0.02072459539,-0.01765446601,-0.01337022546,-0.008484940061,-0.003414165533,0.001570031608,0.006298877261,0.01067682969,0.01465914867,0.01823528003,0.02141668975,0.02422809534,0.02670127512,0.02887081519,0.03077129507,0.03243552514,0.03389353813],
				"k": [0,-0.07508314342,-0.1346631702,-0.168263445,-0.1840151091,-0.1877639611,-0.1837423829,-0.1749993551,-0.1636997742,-0.1513450589,-0.1389410612,-0.1271276724,-0.1162790884,-0.1065809859,-0.09808933809,-0.09077462811,-0.08455451543,-0.07931745638,-0.07493932416,-0.07129468808,-0.06826408643],
				"pk": [0,-0.9167139458,-0.6373352953,-0.4312565953,-0.2826887906,-0.177685684,-0.1049526681,-0.05572410381,-0.02336003103,-0.002910321301,0.009269863304,0.01583382344,0.01869006666,0.01919265375,0.01828640833,0.01661686285,0.01461298986,0.01254907202,0.01059065162,0.008828376184,0.007302679817],
				"c": [0,-0.1339015157,-0.2137508692,-0.2535282075,-0.2650178811,-0.2575794868,-0.2383584396,-0.212632872,-0.1841735261,-0.1555698978,-0.1285082236,-0.1040002738,-0.08256714559,-0.06438398506,-0.0493918125,-0.03738224268,-0.02806026833,-0.02108958203,-0.01612422873,-0.01282974602,-0.01089637804],
				"inve": [0,-0.3967835089,-0.642371083,-0.7827345215,-0.8518063472,-0.8740655669,-0.866825794,-0.8420900624,-0.8079912141,-0.7698835285,-0.731156916,-0.6938367047,-0.6590204936,-0.6271925691,-0.5984471367,-0.5726442206,-0.5495162919,-0.5287392258,-0.5099777584,-0.4929130039,-0.4772576016],
				"y": [0,-0.09049817804,-0.1692380248,-0.2116801817,-0.2292051307,-0.230264588,-0.2209930708,-0.2057451328,-0.1875354428,-0.1683867376,-0.1495992327,-0.1319561796,-0.1158787775,-0.1015415051,-0.08895684802,-0.07803657443,-0.06863520891,-0.06058012906,-0.05369173043,-0.04779632252,-0.04273379758],
				"lab": [0,-0.05245525125,-0.09952657466,-0.1245288351,-0.1343849582,-0.1342842731,-0.1279960155,-0.1181846368,-0.1066812746,-0.09470239124,-0.08301978207,-0.07208991828,-0.06215077619,-0.05329329752,-0.04551335834,-0.03874893648,-0.03290615748,-0.02787707552,-0.02355138902,-0.01982377112,-0.01659808794],
				"pinf": [0,-0.03366062323,-0.04649323989,-0.04980302638,-0.04869645494,-0.04556154055,-0.04156799758,-0.03731889572,-0.03313842464,-0.02920305974,-0.02560469735,-0.02238359023,-0.01954728357,-0.0170825578,-0.01496348873,-0.01315708544,-0.01162726222,-0.0103375929,-0.009253150322,-0.008341656662,-0.007574121103],
				"w": [0,-0.03440632142,-0.05444683067,-0.06543090946,-0.07035474628,-0.07113415406,-0.06911659288,-0.06529965833,-0.06043266517,-0.05507263605,-0.04962240187,-0.04436092443,-0.03946916358,-0.03505240838,-0.03115929,-0.02779759629,-0.02494708283,-0.02256956568,-0.02061664007,-0.01903539181,-0.01777246035],
				"r": [0,0.2150971709,0.1357385303,0.07759664466,0.03621908443,0.007588648419,-0.01158538635,-0.02387626602,-0.03124418179,-0.03515687079,-0.03669868222,-0.03666081762,-0.03561300774,-0.03395926012,-0.03198069753,-0.02986821235,-0.0277471938,-0.02569613042,-0.02376050267,-0.02196306864,-0.02031139967],
				"a": [0,0,4.88305676e-35,8.718288076e-35,1.08030727e-34,1.189150813e-34,1.241355057e-34,1.261433134e-34,1.263359519e-34,1.25509959e-34,1.241192388e-34,1.224223307e-34,1.205663815e-34,1.186350272e-34,1.166756941e-34,1.147151663e-34,1.127684624e-34,1.108438964e-34,1.089459637e-34,1.070769868e-34,1.05238053e-34],
				"b": [0,0,-4.305119012e-34,-2.636910252e-34,-1.574251419e-34,-9.250710824e-35,-5.381222488e-35,-3.109692973e-35,-1.789183191e-35,-1.026415927e-35,-5.876777685e-36,-3.36031283e-36,-1.9196885e-36,-1.096018339e-36,-6.254976372e-37,-3.568714239e-37,-2.035706235e-37,-1.161080024e-37,-6.621721493e-38,-3.77618808e-38,-2.153369695e-38],
				"g": [0,-1.116681127e-16,-2.341033408e-16,-2.869194845e-16,-2.840229502e-16,-2.338923977e-16,-1.48230837e-16,-3.819056107e-17,8.68187222e-17,2.19313807e-16,3.535627524e-16,4.853100135e-16,6.11500079e-16,7.300323292e-16,8.395543568e-16,9.392918131e-16,1.028910118e-15,1.108403042e-15,1.178003615e-15,1.238113493e-15,1.289247471e-15],
				"qs": [0,0,-7.149476857e-35,-1.152203845e-34,-9.745332301e-35,-6.911124718e-35,-4.51834772e-35,-2.822718679e-35,-1.71458537e-35,-1.022469436e-35,-6.021247562e-36,-3.514830957e-36,-2.038923014e-36,-1.177421773e-36,-6.776899816e-37,-3.891160505e-37,-2.230243376e-37,-1.276591082e-37,-7.300047761e-38,-4.17141192e-38,-2.382345456e-38],
				"spinf": [0,0,-2.92067105e-34,7.461736793e-35,8.155165203e-35,5.900570011e-35,3.765413657e-35,2.275570176e-35,1.338737252e-35,7.765589895e-36,4.470293851e-36,2.562540404e-36,1.465513918e-36,8.370317294e-37,4.777229514e-37,2.725410824e-37,1.55448917e-37,8.865171744e-38,5.055393653e-38,2.882737016e-38,1.643785235e-38],
				"sw": [0,-5.683712379e-18,-6.718148031e-19,-3.830688008e-19,-2.184258302e-19,-1.245464084e-19,-7.101636205e-20,-4.049352964e-20,-2.30894106e-20,-1.316558193e-20,-7.507014814e-21,-4.280499847e-21,-2.440741013e-21,-1.391710525e-21,-7.935533416e-22,-4.524841154e-22,-2.580064426e-22,-1.471152736e-22,-8.388512899e-23,-4.783130055e-23,-2.727340757e-23],
				"kp": [0,-0.01156754163,-0.02995753532,-0.05190345528,-0.07522325006,-0.09851212561,-0.1209109908,-0.1419357279,-0.1613534315,-0.1790940812,-0.1951885248,-0.2097257559,-0.2228241722,-0.2346128382,-0.2452198022,-0.2547652987,-0.2633582576,-0.2710949839,-0.2780592009,-0.2843228944,-0.2899475744],
				"rr": [0,-0.887242748,0.2995059838,0.2194169239,0.1570992397,0.1102148721,0.07571559772,0.05076701066,0.03301365337,0.02059562219,0.01208342797,0.006396011389,0.002724967591,0.0004714081283,-0.000804300976,-0.001421669105,-0.001610191632,-0.001532364687,-0.001301193758,-0.0009934571689,-0.0006597071001],
				"er": [0,0.2995059838,0.2194169239,0.1570992397,0.1102148721,0.07571559772,0.05076701066,0.03301365337,0.02059562219,0.01208342797,0.006396011389,0.002724967591,0.0004714081283,-0.000804300976,-0.001421669105,-0.001610191632,-0.001532364687,-0.001301193758,-0.0009934571689,-0.0006597071001,-0.0003317684832],
				"ec": [0,0.2995059838,0.2194169239,0.1570992397,0.1102148721,0.07571559772,0.05076701066,0.03301365337,0.02059562219,0.01208342797,0.006396011389,0.002724967591,0.0004714081283,-0.000804300976,-0.001421669105,-0.001610191632,-0.001532364687,-0.001301193758,-0.0009934571689,-0.0006597071001,-0.0003317684832],
				"nw": [0,-2.916445465,-2.49156025,-2.163283498,-1.910066698,-1.713619783,-1.559431157,-1.43638309,-1.336133117,-1.252509259,-1.180996243,-1.118324389,-1.062150345,-1.010813226,-0.9631502895,-0.9183587042,-0.8758926025,-0.8353869804,-0.796601913,-0.75938207,-0.7236276935],
				"prem": [0,0.037915573,0.03387536716,0.03080614013,0.02843424713,0.02655895173,0.02503350129,0.02375149474,0.02263674424,0.02163560141,0.02071110338,0.01983850164,0.01900185808,0.01819147041,0.01740194299,0.0166307585,0.01587723622,0.01514178634,0.01442538884,0.01372924044,0.01305452585],
				"pinf4": [0,-0.03366062323,-0.08015386312,-0.1299568895,-0.1786533444,-0.1905542618,-0.1856290194,-0.1731448888,-0.1575868585,-0.1412283777,-0.1252650775,-0.110329772,-0.09673863089,-0.08461812895,-0.07397692033,-0.06475041554,-0.05683039418,-0.05008542928,-0.04437509087,-0.03955966209,-0.03550652098],
				"eg": [0,-7.444540845e-17,-8.72143356e-17,-4.693153639e-17,-1.243407929e-17,1.920028596e-17,4.539749442e-17,6.593876003e-17,8.142744809e-17,9.267678058e-17,1.004796082e-16,1.055332159e-16,1.08424565e-16,1.096372708e-16,1.095649703e-16,1.085253257e-16,1.06772747e-16,1.045093821e-16,1.01894428e-16,9.905196621e-17,9.607753445e-17],
				"interest": [0,0.8603886838,0.5429541213,0.3103865787,0.1448763377,0.03035459368,-0.04634154539,-0.09550506406,-0.1249767272,-0.1406274832,-0.1467947289,-0.1466432705,-0.142452031,-0.1358370405,-0.1279227901,-0.1194728494,-0.1109887752,-0.1027845217,-0.09504201067,-0.08785227456,-0.08124559868],
				"inflation": [0,-0.03366062323,-0.08015386312,-0.1299568895,-0.1786533444,-0.1905542618,-0.1856290194,-0.1731448888,-0.1575868585,-0.1412283777,-0.1252650775,-0.110329772,-0.09673863089,-0.08461812895,-0.07397692033,-0.06475041554,-0.05683039418,-0.05008542928,-0.04437509087,-0.03955966209,-0.03550652098],
				"inflationq": [0,-0.1346424929,-0.1859729596,-0.1992121055,-0.1947858198,-0.1822461622,-0.1662719903,-0.1492755829,-0.1325536986,-0.116812239,-0.1024187894,-0.08953436093,-0.07818913429,-0.06833023118,-0.05985395494,-0.05262834175,-0.04650904886,-0.04135037158,-0.03701260129,-0.03336662665,-0.03029648441],
				"inflationql": [0,9.813077867e-17,-0.1346424929,-0.1859729596,-0.1992121055,-0.1947858198,-0.1822461622,-0.1662719903,-0.1492755829,-0.1325536986,-0.116812239,-0.1024187894,-0.08953436093,-0.07818913429,-0.06833023118,-0.05985395494,-0.05262834175,-0.04650904886,-0.04135037158,-0.03701260129,-0.03336662665],
				"inflationql2": [0,4.940885098e-18,-1.150482745e-15,-0.1346424929,-0.1859729596,-0.1992121055,-0.1947858198,-0.1822461622,-0.1662719903,-0.1492755829,-0.1325536986,-0.116812239,-0.1024187894,-0.08953436093,-0.07818913429,-0.06833023118,-0.05985395494,-0.05262834175,-0.04650904886,-0.04135037158,-0.03701260129],
				"inflationqls": [0,1.030716638e-16,-0.1346424929,-0.3206154525,-0.3851850651,-0.3939979253,-0.377031982,-0.3485181525,-0.3155475732,-0.2818292814,-0.2493659376,-0.2192310284,-0.1919531503,-0.1677234952,-0.1465193655,-0.1281841861,-0.1124822967,-0.09913739061,-0.08785942044,-0.07836297287,-0.07037922794],
				"outputgap": [0,-0.09049817804,-0.1692380248,-0.2116801817,-0.2292051307,-0.230264588,-0.2209930708,-0.2057451328,-0.1875354428,-0.1683867376,-0.1495992327,-0.1319561796,-0.1158787775,-0.1015415051,-0.08895684802,-0.07803657443,-0.06863520891,-0.06058012906,-0.05369173043,-0.04779632252,-0.04273379758],
				"output": [0,-0.09049817804,-0.1692380248,-0.2116801817,-0.2292051307,-0.230264588,-0.2209930708,-0.2057451328,-0.1875354428,-0.1683867376,-0.1495992327,-0.1319561796,-0.1158787775,-0.1015415051,-0.08895684802,-0.07803657443,-0.06863520891,-0.06058012906,-0.05369173043,-0.04779632252,-0.04273379758],
				"fispol": [0,-3.722270423e-17,-4.36071678e-17,-2.34657682e-17,-6.217039643e-18,9.600142978e-18,2.269874721e-17,3.296938002e-17,4.071372404e-17,4.633839029e-17,5.023980408e-17,5.276660796e-17,5.421228249e-17,5.481863539e-17,5.478248517e-17,5.426266283e-17,5.33863735e-17,5.225469103e-17,5.094721399e-17,4.95259831e-17,4.803876723e-17],
				"neww": [0,-1.075461923e-32,7.346101924e-32,3.48010069e-32,1.159587734e-32,-3.710769399e-33,-1.320629598e-32,-1.857303771e-32,-2.108784995e-32,-2.168732481e-32,-2.104267427e-32,-1.96258482e-32,-1.776260993e-32,-1.567325124e-32,-1.350304512e-32,-1.134465476e-32,-9.254421459e-33,-7.264073777e-33,-5.389050643e-33,-3.634343251e-33,-1.998534005e-33]
			},
			"fiscal_": {
				"ewma": [0,-7.429748821e-17,1.263117837e-33,-2.147403241e-50,3.65076048e-67,-6.206590279e-84,1.055170919e-100,-1.793876537e-117,3.049736277e-134,-5.184800162e-151,8.814582731e-168,-1.498550885e-184,2.547658606e-201,-4.331227213e-218,7.36343917e-235,-1.251844656e-251,2.128237915e-268,-3.618177864e-285,6.151197177e-302,-1.045754168e-318,0],
				"epinfma": [0,0,-1.091929424e-33,3.749460966e-34,2.137942643e-34,1.219054895e-34,6.95105101e-35,3.963489286e-35,2.259981591e-35,1.288641503e-35,7.347833851e-36,4.189734862e-36,2.388986818e-36,1.362200284e-36,7.767266018e-37,4.428895084e-37,2.525355977e-37,1.439957978e-37,8.21064039e-38,4.68170715e-38,2.669509417e-38],
				"mc": [0,0.07472185341,0.1008313077,0.1099665286,0.1084865972,0.1006443592,0.08933143963,0.07650770197,0.06347342332,0.05105565397,0.03974254682,0.02978287249,0.02126045677,0.01414972639,0.008356712593,0.003748792823,0.0001757423226,-0.002515855025,-0.004473198762,-0.005831564798,-0.006711274167],
				"zcap": [0,0.6363521269,0.5862852642,0.5477529018,0.5214706711,0.5071079719,0.5037158678,0.5099924599,0.5244617234,0.5455988702,0.5719181218,0.602031974,0.6346882598,0.6687900194,0.7034023797,0.7377499882,0.7712079436,0.8032885981,0.8336260883,0.8619599994,0.8881191755],
				"rk": [0,0.09982571542,0.09197163562,0.08592699385,0.08180405252,0.07955094978,0.07901882424,0.08000344465,0.08227326433,0.08558908699,0.08971783586,0.09444185062,0.09956470156,0.1049143066,0.1103440105,0.1157321823,0.1209807926,0.1260133432,0.1307724405,0.1352172327,0.1393208702],
				"k": [0,0.6363521269,0.5618106502,0.4809478731,0.399705114,0.3218930519,0.2498385196,0.1848142431,0.1273464714,0.07744430751,0.03477305423,-0.001215269144,-0.03118519609,-0.05584790693,-0.07591246739,-0.09205348535,-0.1048912614,-0.1149812128,-0.1228099733,-0.1287961123,-0.1332938782],
				"pk": [0,-1.23466859,-0.983062969,-0.7875768183,-0.6313609908,-0.5043570003,-0.4001211858,-0.3142326762,-0.2434620909,-0.1853201652,-0.1378040957,-0.09925078282,-0.06824961986,-0.04358907191,-0.02422253958,-0.009245167333,0.002123224905,0.01055183882,0.0166107411,0.02078163803,0.02346794065],
				"c": [0,0.2353259283,0.3620611853,0.4124346209,0.4115922368,0.3784547218,0.3268198323,0.2664316563,0.2039164181,0.1435600539,0.08793384689,0.03838598422,-0.004580030943,-0.04101976325,-0.07133672532,-0.0961299802,-0.1160872385,-0.1319125858,-0.1442800736,-0.1538062118,-0.1610359238],
				"inve": [0,-0.8395148715,-1.476469429,-1.952031122,-2.298171026,-2.540436109,-2.699600885,-2.792723193,-2.833866972,-2.834629264,-2.804545871,-2.751417462,-2.681580297,-2.600135864,-2.511148195,-2.417814424,-2.322612344,-2.227427745,-2.133663715,-2.042333831,-1.954140969],
				"y": [0,1.050788984,0.8784179239,0.7258445864,0.5925836536,0.477850312,0.3805108515,0.2991492434,0.2321680319,0.1778878386,0.1346312181,0.1007866761,0.07485332077,0.05546862718,0.04142247579,0.03166064573,0.02528064512,0.02152232979,0.01975529887,0.01946461562,0.02023600955],
				"lab": [0,0.6677084372,0.5507443599,0.4509209749,0.3663769293,0.2955460503,0.2369574112,0.1891806466,0.150828661,0.120578748,0.09719534881,0.07954788116,0.06662175469,0.05752279032,0.05147611358,0.04782084577,0.04600188167,0.04555987926,0.04612037797,0.04738275036,0.04910949967],
				"pinf": [0,0.0346684568,0.04587229087,0.04605053028,0.04118116817,0.03425025439,0.02679885353,0.01963198219,0.01315745819,0.007557582642,0.002882445885,-0.0008956385269,-0.003848469269,-0.006070354995,-0.007664077546,-0.008731881712,-0.00936991981,-0.009665100047,-0.009693598024,-0.009520494564,-0.009200147227],
				"w": [0,0.06846940514,0.103037926,0.1159538921,0.1151322372,0.1058979513,0.09189993265,0.0756370411,0.05879107471,0.04245464654,0.02729554129,0.01367870032,0.001757750785,-0.008456390637,-0.01704457045,-0.0241421488,-0.0299123504,-0.03452774877,-0.03815791081,-0.04096163002,-0.04308250772],
				"r": [0,0.2671381588,0.2102170021,0.1660586721,0.1304986573,0.1012400275,0.07692184483,0.05666640059,0.03985314599,0.02600344084,0.0147212363,0.005662733545,-0.001478751282,-0.006980003446,-0.01109116291,-0.01403717728,-0.01601861643,-0.01721243828,-0.01777296729,-0.01783316204,-0.01750615061],
				"a": [0,2.283026569e-16,2.243758512e-16,2.205165865e-16,2.167237013e-16,2.129960536e-16,2.093325215e-16,2.057320021e-16,2.021934117e-16,1.98715685e-16,1.952977752e-16,1.919386535e-16,1.886373086e-16,1.853927469e-16,1.822039917e-16,1.79070083e-16,1.759900776e-16,1.729630483e-16,1.699880838e-16,1.670642888e-16,1.64190783e-16],
				"b": [0,0,-5.627651573e-33,-3.446969082e-33,-2.057861455e-33,-1.209252919e-33,-7.034334036e-34,-4.064990655e-34,-2.338820267e-34,-1.3417309e-34,-7.682123789e-35,-4.392600931e-35,-2.509416808e-35,-1.432715173e-35,-8.176505114e-36,-4.665023253e-36,-2.661075191e-36,-1.517763808e-36,-8.655914336e-37,-4.936233058e-37,-2.814884865e-37],
				"g": [0,1,0.9249,0.85544001,0.7911964652,0.7317776107,0.6768211121,0.6259918466,0.5789798589,0.5354984715,0.4952825363,0.4580868178,0.4236844978,0.391865792,0.3624366711,0.3352176771,0.3100428295,0.286758613,0.2652230412,0.2453047908,0.226882401],
				"qs": [0,0,-9.345796147e-34,-1.506160866e-33,-1.273909838e-33,-9.034222231e-34,-5.90638414e-34,-3.689857857e-34,-2.241305996e-34,-1.336572047e-34,-7.870974813e-35,-4.594587027e-35,-2.665280163e-35,-1.539125741e-35,-8.858763439e-36,-5.086525012e-36,-2.915374141e-36,-1.668759863e-36,-9.542622433e-37,-5.452869662e-37,-3.11420198e-37],
				"spinf": [0,0,-3.817901197e-33,9.753982336e-34,1.066043195e-33,7.713225118e-34,4.922148733e-34,2.974625334e-34,1.749997336e-34,1.015117911e-34,5.843568122e-35,3.349752816e-35,1.915719793e-35,1.094167877e-35,6.244794421e-36,3.562657029e-36,2.032028243e-36,1.15885525e-36,6.608410583e-37,3.768313827e-37,2.148756059e-37],
				"sw": [0,-7.429748821e-17,-8.781963107e-18,-5.007475363e-18,-2.855262452e-18,-1.62807065e-18,-9.283258848e-19,-5.293314195e-19,-3.018247754e-19,-1.721004869e-19,-9.813169765e-20,-5.5954694e-20,-3.190536652e-20,-1.819243999e-20,-1.037332928e-20,-5.914872356e-21,-3.372660218e-21,-1.923090856e-21,-1.096546406e-21,-6.252507608e-22,-3.565179838e-22],
				"kp": [0,-0.02447461401,-0.0668050287,-0.1217655571,-0.1852149201,-0.2538773482,-0.3251782168,-0.397115252,-0.4681545626,-0.5371450676,-0.6032472432,-0.6658734559,-0.7246379264,-0.7793148471,-0.8298034735,-0.876099205,-0.9182698108,-0.9564360616,-0.9907561117,-1.021413054,-1.048605134],
				"rr": [0,-1.191207874,0.2866164668,0.2239337065,0.1794416018,0.1460202257,0.1198400534,0.09872766829,0.08137886719,0.06696467612,0.05492581712,0.04486133574,0.03646640216,0.02949688419,0.02374898538,0.01904753207,0.01523924803,0.0121888695,0.009776826885,0.007897741522,0.00645930582],
				"er": [0,0.2866164668,0.2239337065,0.1794416018,0.1460202257,0.1198400534,0.09872766829,0.08137886719,0.06696467612,0.05492581712,0.04486133574,0.03646640216,0.02949688419,0.02374898538,0.01904753207,0.01523924803,0.0121888695,0.009776826885,0.007897741522,0.00645930582,0.005381310964],
				"ec": [0,0.2866164668,0.2239337065,0.1794416018,0.1460202257,0.1198400534,0.09872766829,0.08137886719,0.06696467612,0.05492581712,0.04486133574,0.03646640216,0.02949688419,0.02374898538,0.01904753207,0.01523924803,0.0121888695,0.009776826885,0.007897741522,0.00645930582,0.005381310964],
				"nw": [0,-3.915605746,-3.455122101,-3.076380109,-2.758144346,-2.486975596,-2.253724578,-2.05174964,-1.87596906,-1.722333836,-1.587521443,-1.468750283,-1.363662251,-1.270244658,-1.186775274,-1.111781165,-1.044005899,-0.9823820207,-0.926007062,-0.8741221205,-0.8260925389],
				"prem": [0,0.06535059887,0.05976723471,0.05456409793,0.04977182284,0.04539887946,0.04143780565,0.03786992478,0.03466911277,0.03180482217,0.02924446091,0.02695519935,0.02490528048,0.02306491128,0.02140681327,0.0199065055,0.01854238588,0.01729566714,0.01615021425,0.01509232063,0.01411045205],
				"pinf4": [0,0.0346684568,0.08054074767,0.126591278,0.1677724461,0.1673542437,0.1482808064,0.1218622583,0.0938385483,0.06714587654,0.0432294689,0.02270184819,0.005695920731,-0.007932016906,-0.01847854034,-0.02631478352,-0.03183623406,-0.03543097911,-0.03746049959,-0.03824911244,-0.03807933986],
				"eg": [0,1,8.045291149e-16,7.84486262e-16,7.52731164e-16,7.118785453e-16,6.689034298e-16,6.270535522e-16,5.877671088e-16,5.515791746e-16,5.185675219e-16,4.88581724e-16,4.613657308e-16,4.366252569e-16,4.140649711e-16,3.934083552e-16,3.744072922e-16,3.568454977e-16,3.40538317e-16,3.253304806e-16,3.110928362e-16],
				"interest": [0,1.068552635,0.8408680083,0.6642346883,0.5219946292,0.4049601099,0.3076873793,0.2266656024,0.159412584,0.1040137633,0.05888494521,0.02265093418,-0.005915005127,-0.02792001379,-0.04436465162,-0.05614870912,-0.0640744657,-0.06884975312,-0.07109186915,-0.07133264815,-0.07002460244],
				"inflation": [0,0.0346684568,0.08054074767,0.126591278,0.1677724461,0.1673542437,0.1482808064,0.1218622583,0.0938385483,0.06714587654,0.0432294689,0.02270184819,0.005695920731,-0.007932016906,-0.01847854034,-0.02631478352,-0.03183623406,-0.03543097911,-0.03746049959,-0.03824911244,-0.03807933986],
				"inflationq": [0,0.1386738272,0.1834891635,0.1842021211,0.1647246727,0.1370010176,0.1071954141,0.07852792875,0.05262983274,0.03023033057,0.01152978354,-0.003582554107,-0.01539387708,-0.02428141998,-0.03065631018,-0.03492752685,-0.03747967924,-0.03866040019,-0.03877439209,-0.03808197826,-0.03680058891],
				"inflationql": [0,0,0.1386738272,0.1834891635,0.1842021211,0.1647246727,0.1370010176,0.1071954141,0.07852792875,0.05262983274,0.03023033057,0.01152978354,-0.003582554107,-0.01539387708,-0.02428141998,-0.03065631018,-0.03492752685,-0.03747967924,-0.03866040019,-0.03877439209,-0.03808197826],
				"inflationql2": [0,1.546711857e-17,-1.252288008e-15,0.1386738272,0.1834891635,0.1842021211,0.1647246727,0.1370010176,0.1071954141,0.07852792875,0.05262983274,0.03023033057,0.01152978354,-0.003582554107,-0.01539387708,-0.02428141998,-0.03065631018,-0.03492752685,-0.03747967924,-0.03866040019,-0.03877439209],
				"inflationqls": [0,1.546711857e-17,0.1386738272,0.3221629907,0.3676912846,0.3489267938,0.3017256903,0.2441964317,0.1857233429,0.1311577615,0.08286016331,0.04176011411,0.007947229433,-0.01897643118,-0.03967529706,-0.05493773016,-0.06558383703,-0.07240720609,-0.07614007943,-0.07743479228,-0.07685637035],
				"outputgap": [0,1.050788984,0.8784179239,0.7258445864,0.5925836536,0.477850312,0.3805108515,0.2991492434,0.2321680319,0.1778878386,0.1346312181,0.1007866761,0.07485332077,0.05546862718,0.04142247579,0.03166064573,0.02528064512,0.02152232979,0.01975529887,0.01946461562,0.02023600955],
				"output": [0,1.050788984,0.8784179239,0.7258445864,0.5925836536,0.477850312,0.3805108515,0.2991492434,0.2321680319,0.1778878386,0.1346312181,0.1007866761,0.07485332077,0.05546862718,0.04142247579,0.03166064573,0.02528064512,0.02152232979,0.01975529887,0.01946461562,0.02023600955],
				"fispol": [0,1,3.816003424e-16,3.731307985e-16,3.586885857e-16,3.395898188e-16,3.19330105e-16,2.995407991e-16,2.809479243e-16,2.63825423e-16,2.482181054e-16,2.340562372e-16,2.212168609e-16,2.095575209e-16,1.989348866e-16,1.892147083e-16,1.80276636e-16,1.720159571e-16,1.643435169e-16,1.571846144e-16,1.504773872e-16],
				"neww": [0,-4.890395418e-32,1.408774558e-31,9.144780708e-32,4.755855303e-32,1.63213779e-32,-5.200798386e-33,-1.932676472e-32,-2.784148547e-32,-3.211770883e-32,-3.321703732e-32,-3.196509194e-32,-2.900625181e-32,-2.484388242e-32,-1.987046057e-32,-1.439059349e-32,-8.638929819e-33,-2.794304018e-33,3.008966998e-33,8.671989565e-33,1.412393545e-32]
			}
		}
	}
}
