{
	"model": "US_YR13",
	"rule": "Taylor",
	"data": {
		"AC": {
			"ewma": [1,-2.438493116e-17,5.946248677e-34,-1.449988646e-50,3.535787333e-67,-8.62199307e-84,2.102467075e-100,-5.126851488e-117,1.250179206e-133,-3.048553388e-150,7.43387645e-167,-1.812745655e-183,4.4203678e-200,-1.077903645e-216,2.628460618e-233,-6.409483124e-250,1.562948047e-266,-3.811238054e-283,9.293677759e-300,-2.266257033e-316,0],
			"epinfma": [1,1.364549998e-17,2.833784639e-34,5.541134845e-35,3.159555089e-35,1.801578312e-35,1.027259953e-35,5.857436254e-36,3.339910152e-36,1.904416769e-36,1.085898441e-36,6.191792913e-37,3.530560319e-37,2.013125494e-37,1.147884157e-37,6.545235461e-38,3.73209326e-38,2.128039577e-38,1.213408167e-38,6.918853367e-39,3.94513019e-39],
			"mc": [1,0.7896623631,0.600704706,0.4446390123,0.3219255058,0.2286163363,0.1594326851,0.1092212958,0.07349732326,0.04858214895,0.03156913518,0.02022299161,0.01286183247,0.008244212674,0.005470263454,0.003899533032,0.003085020247,0.002721539512,0.002606121319,0.002608174413,0.002647365687],
			"zcap": [1,0.9987932494,0.9970613388,0.9949828367,0.9926275065,0.9900151676,0.9871446785,0.9840100468,0.9806072411,0.9769359311,0.97299945,0.968804184,0.9643588443,0.9596737903,0.9547604602,0.9496309164,0.944297498,0.9387725621,0.9330682987,0.9271966019,0.9211689848],
			"rk": [1,0.9987932494,0.9970613388,0.9949828367,0.9926275065,0.9900151676,0.9871446785,0.9840100468,0.9806072411,0.9769359311,0.97299945,0.968804184,0.9643588443,0.9596737903,0.9547604602,0.9496309164,0.944297498,0.9387725621,0.9330682987,0.9271966019,0.9211689848],
			"k": [1,0.9852543472,0.9671680523,0.9488802611,0.9316709815,0.9159243295,0.901602755,0.8885140483,0.8764370452,0.8651673526,0.8545318148,0.8443904426,0.8346334382,0.8251765899,0.8159564729,0.806926065,0.7980510006,0.789306497,0.7806749048,0.7721438001,0.7637045243],
			"pk": [1,0.507225706,0.2874835128,0.1808062637,0.124536359,0.09149463125,0.06923670783,0.05284238226,0.04018716157,0.03021717051,0.02231297639,0.01605108224,0.01111156768,0.007239858089,0.004228822313,0.001908749506,0.0001406070502,-0.001189129547,-0.002172724268,-0.002884769211,-0.003385238811],
			"c": [1,0.9954015117,0.9863061415,0.9749963153,0.962712032,0.9501597713,0.9377416139,0.9256800987,0.91408514,0.9029948525,0.8924025289,0.8822750551,0.8725654845,0.8632214435,0.8541905378,0.8454236195,0.8368765621,0.8285110244,0.8202945574,0.8122003084,0.8042065002],
			"inve": [1,0.9955180318,0.9865200463,0.9751013182,0.9623233472,0.9487678804,0.9347805658,0.9205826615,0.9063230169,0.8921045742,0.8779993066,0.8640574527,0.8503136443,0.8367911717,0.8235050391,0.8104641888,0.7976731349,0.7851331689,0.7728432508,0.76080067,0.7490015342],
			"y": [1,0.9790437396,0.9505603467,0.9191371568,0.8870191317,0.8553576305,0.8247350655,0.7954215654,0.7675128251,0.7410047138,0.7158374102,0.6919227547,0.6691613532,0.6474530404,0.6267029409,0.6068246246,0.5877413808,0.5693863238,0.5517018157,0.5346385336,0.5181543946],
			"lab": [1,0.9696346558,0.9378543325,0.9085776937,0.8828914169,0.8606992647,0.8414968236,0.8247169726,0.809848021,0.7964659187,0.7842339061,0.7728912059,0.7622393084,0.7521290589,0.7424495771,0.7331191775,0.7240781287,0.7152829911,0.7067022556,0.6983130324,0.6900985689],
			"pinf": [1,0.7444318688,0.6429874659,0.5791277484,0.5269515591,0.4819922831,0.4435955029,0.4111887266,0.3838933371,0.3607229907,0.3407598459,0.3232355694,0.3075475872,0.2932437343,0.2799956628,0.2675711962,0.2558099157,0.2446032702,0.2338791475,0.2235903101,0.2137059679],
			"w": [1,0.9888734968,0.9748499581,0.9598349824,0.9447284348,0.9299303738,0.9155851876,0.9017176677,0.8882997697,0.8752840386,0.8626199779,0.850261462,0.8381694783,0.8263125268,0.8146659431,0.8032108201,0.7919328686,0.780821379,0.7698683414,0.7590677365,0.7484149832],
			"r": [1,0.9631639716,0.9004654306,0.8235725055,0.7420971388,0.676850513,0.6211068415,0.5730714835,0.5316468102,0.4957385947,0.4642881678,0.4363650589,0.4112085881,0.3882269016,0.3669750446,0.3471266311,0.328446481,0.3107671874,0.2939703223,0.2779719807,0.2627119975],
			"a": [1,0.9828,0.96589584,0.9492824316,0.9329547737,0.9169079516,0.9011371349,0.8856375761,0.8704046098,0.8554336505,0.8407201917,0.8262598044,0.8120481358,0.7980809079,0.7843539163,0.7708630289,0.7576041848,0.7445733928,0.7317667305,0.7191803427,0.7068104408],
			"b": [1,0.3881,0.15062161,0.05845624684,0.0226868694,0.008804774014,0.003417132795,0.001326189238,0.0005146940431,0.0001997527581,7.752404543e-05,3.008708203e-05,1.167679654e-05,4.531764736e-06,1.758777894e-06,6.825817007e-07,2.64909958e-07,1.028115547e-07,3.990116438e-08,1.54856419e-08,6.00997762e-09],
			"g": [1,0.9249,0.85544001,0.7911964652,0.7317776107,0.6768211121,0.6259918466,0.5789798589,0.5354984715,0.4952825363,0.4580868178,0.4236844978,0.391865792,0.3624366711,0.3352176771,0.3100428295,0.286758613,0.2652230412,0.2453047908,0.226882401,0.2098435327],
			"qs": [1,0.4265,0.18190225,0.07758130962,0.03308842856,0.01411221478,0.006018859603,0.002567043621,0.001094844104,0.0004669510105,0.000199154606,8.493943944e-05,3.622667092e-05,1.545067515e-05,6.589712951e-06,2.810512573e-06,1.198683613e-06,5.112385608e-07,2.180432462e-07,9.299544449e-08,3.966255708e-08],
			"spinf": [1,-0.1636401803,-0.0524630418,-0.0168196512,-0.005392380175,-0.001728797084,-0.0005542523452,-0.0001776933019,-5.696847258e-05,-1.826409231e-05,-5.855467994e-06,-1.877263039e-06,-6.018505303e-07,-1.9295328e-07,-6.186082157e-08,-1.98325794e-08,-6.358324954e-09,-2.03847898e-09,-6.535363611e-10,-2.095237574e-10,-6.717331661e-11],
			"sw": [1,0.1273675442,0.0726249737,0.04141076,0.02361241535,0.01346379924,0.007677058324,0.004377458656,0.002496026926,0.001423234553,0.0008115283422,0.0004627334607,0.0002638506193,0.0001504476231,8.57852347e-05,4.891474083e-05,2.789118522e-05,1.590355381e-05,9.068206384e-06,5.17069128e-06,2.948328168e-06],
			"kp": [1,0.999766641,0.9990931373,0.9980015434,0.9965120079,0.9946437443,0.9924153508,0.9898448849,0.9869498551,0.9837471946,0.9802532394,0.9764837168,0.9724537434,0.968177832,0.963669903,0.9589432998,0.9540108069,0.9488846685,0.9435766078,0.9380978466,0.9324591245],
			"rr": [1,-0.2760369379,-0.1139784773,-0.05050919284,-0.02298485587,-0.01039218801,-0.005426489511,-0.003292056547,-0.002239943306,-0.001625632528,-0.001207824748,-0.0008933344139,-0.0006437768203,-0.0004413041132,-0.0002759929863,-0.0001411937217,-3.180729997e-05,5.636429803e-05,0.0001268778533,0.000182769157,0.0002266243263],
			"er": [1,0.4279654122,0.1912057676,0.08839322303,0.04604500447,0.02882825299,0.02114103105,0.01711412215,0.01454622038,0.0126201539,0.01103769724,0.009691218906,0.008539780731,0.007563358117,0.006746825195,0.006075101752,0.005532299328,0.005102132791,0.004768585552,0.004516484972,0.004331899921],
			"ec": [1,0.4279654122,0.1912057676,0.08839322303,0.04604500447,0.02882825299,0.02114103105,0.01711412215,0.01454622038,0.0126201539,0.01103769724,0.009691218906,0.008539780731,0.007563358117,0.006746825195,0.006075101752,0.005532299328,0.005102132791,0.004768585552,0.004516484972,0.004331899921],
			"nw": [1,0.9043670888,0.8390827961,0.7876869365,0.7435075099,0.7036345384,0.6667241905,0.6321809389,0.5996920818,0.5690567728,0.5401227126,0.5127623855,0.4868638398,0.4623268005,0.4390607304,0.4169836036,0.3960209514,0.3761050339,0.3571740897,0.3391716542,0.3220459445],
			"prem": [1,0.9431993309,0.8920850663,0.84474204,0.800333864,0.7584560303,0.7188791188,0.6814400928,0.646002293,0.6124419889,0.5806441919,0.5505015025,0.5219138025,0.4947880708,0.4690381214,0.44458424,0.4213527451,0.3992755106,0.3782894781,0.3583361822,0.3393613029],
			"pinf4": [1,0.9612153537,0.8873605393,0.7971578288,0.7067390861,0.6433758261,0.5915869408,0.5477145854,0.5104001705,0.4785554271,0.4511208612,0.4271356824,0.4057978203,0.3864775437,0.3687018359,0.3521270719,0.3365102223,0.3216832297,0.3075320688,0.2939805019,0.2809779278],
			"eg": [1,-5.418212095e-17,-1.870101267e-16,-2.856765174e-16,-3.418158842e-16,-3.800952826e-16,-4.033679799e-16,-4.146960881e-16,-4.168631475e-16,-4.122237366e-16,-4.026911221e-16,-3.897788903e-16,-3.746597457e-16,-3.582255543e-16,-3.411421305e-16,-3.23896543e-16,-3.06836643e-16,-2.90203361e-16,-2.741566449e-16,-2.587959942e-16,-2.441765046e-16],
			"interest": [1,0.9631639716,0.9004654306,0.8235725055,0.7420971388,0.676850513,0.6211068415,0.5730714835,0.5316468102,0.4957385947,0.4642881678,0.4363650589,0.4112085881,0.3882269016,0.3669750446,0.3471266311,0.328446481,0.3107671874,0.2939703223,0.2779719807,0.2627119975],
			"inflation": [1,0.9612153537,0.8873605393,0.7971578288,0.7067390861,0.6433758261,0.5915869408,0.5477145854,0.5104001705,0.4785554271,0.4511208612,0.4271356824,0.4057978203,0.3864775437,0.3687018359,0.3521270719,0.3365102223,0.3216832297,0.3075320688,0.2939805019,0.2809779278],
			"inflationq": [1,0.7444318688,0.6429874659,0.5791277484,0.5269515591,0.4819922831,0.4435955029,0.4111887266,0.3838933371,0.3607229907,0.3407598459,0.3232355694,0.3075475872,0.2932437343,0.2799956628,0.2675711962,0.2558099157,0.2446032702,0.2338791475,0.2235903101,0.2137059679],
			"inflationql": [1,0.7444318688,0.6429874659,0.5791277484,0.5269515591,0.4819922831,0.4435955029,0.4111887266,0.3838933371,0.3607229907,0.3407598459,0.3232355694,0.3075475872,0.2932437343,0.2799956628,0.2675711962,0.2558099157,0.2446032702,0.2338791475,0.2235903101,0.2137059679],
			"inflationql2": [1,0.7444318688,0.6429874659,0.5791277484,0.5269515591,0.4819922831,0.4435955029,0.4111887266,0.3838933371,0.3607229907,0.3407598459,0.3232355694,0.3075475872,0.2932437343,0.2799956628,0.2675711962,0.2558099157,0.2446032702,0.2338791475,0.2235903101,0.2137059679],
			"inflationqls": [1,0.897670829,0.7479611545,0.6673217118,0.6062211965,0.5544875849,0.5103013902,0.4728950218,0.441318007,0.4144900097,0.3913819383,0.3711175527,0.353001599,0.3365080459,0.3212525167,0.3069618224,0.2934463409,0.2805771957,0.268268395,0.2564633654,0.2451250893],
			"outputgap": [1,0.9373351789,0.8705145698,0.8089579566,0.7555121992,0.710181097,0.6719030309,0.6393986846,0.61149133,0.587196575,0.5657273673,0.5464705104,0.5289563237,0.5128294984,0.4978238205,0.4837413033,0.4704354557,0.4577981389,0.4457494097,0.4342297835,0.4231944231],
			"output": [1,0.9790437396,0.9505603467,0.9191371568,0.8870191317,0.8553576305,0.8247350655,0.7954215654,0.7675128251,0.7410047138,0.7158374102,0.6919227547,0.6691613532,0.6474530404,0.6267029409,0.6068246246,0.5877413808,0.5693863238,0.5517018157,0.5346385336,0.5181543946],
			"fispol": [1,-1.029165752e-17,-7.796729558e-17,-1.284673772e-16,-1.576163138e-16,-1.777542143e-16,-1.903137994e-16,-1.968317547e-16,-1.987050578e-16,-1.971158137e-16,-1.930251101e-16,-1.871938601e-16,-1.802122262e-16,-1.725296658e-16,-1.644823456e-16,-1.563168147e-16,-1.482097871e-16,-1.40284307e-16,-1.326227337e-16,-1.252770231e-16,-1.182767634e-16],
			"neww": [1,-0.08696309046,-0.0278803668,-0.008938445596,-0.002865665658,-0.00091873241,-0.0002945456106,-9.443132277e-05,-3.027468208e-05,-9.706063075e-06,-3.111763822e-06,-9.976314813e-07,-3.198406529e-07,-1.025409133e-07,-3.287461681e-08,-1.053960215e-08,-3.378996449e-09,-1.083306262e-09,-3.473079875e-10,-1.113469408e-10,-3.569782921e-11]
		},
		"VAR": {
			"ewma": 0.05184729,
			"epinfma": 0.03429904,
			"mc": 0.8071527611,
			"zcap": 171.2494909,
			"rk": 4.214238901,
			"k": 12.00773622,
			"pk": 16.76572418,
			"c": 41.26349456,
			"inve": 370.4691348,
			"y": 13.27674955,
			"lab": 4.153595776,
			"pinf": 0.151826783,
			"w": 11.72729583,
			"r": 0.4412925357,
			"a": 6.90578774,
			"b": 3.779878647,
			"g": 2.031717783,
			"qs": 0.1915868978,
			"spinf": 0.03555697933,
			"sw": 0.05292063572,
			"kp": 251.3472568,
			"rr": 16.00358002,
			"er": 4.73591823,
			"ec": 4.73591823,
			"nw": 683.5204588,
			"prem": 0.1990592668,
			"pinf4": 1.851800387,
			"eg": 0.21483225,
			"interest": 7.060680571,
			"inflation": 1.851800387,
			"inflationq": 2.429228528,
			"inflationql": 2.429228528,
			"inflationql2": 2.429228528,
			"inflationqls": 8.475247322,
			"outputgap": 4.812136675,
			"output": 13.27674955,
			"fispol": 0.21483225,
			"neww": 0.1384540993
		},
		"IRF": {
			"interest_": {
				"ewma": [0,5.122007897e-19,-1.2489981e-35,3.045673268e-52,-7.426853297e-69,1.811033064e-85,-4.416191659e-102,1.076885296e-118,-2.625977381e-135,6.403427766e-152,-1.561471453e-168,3.807637388e-185,-9.284897559e-202,2.264115878e-218,-5.521030982e-235,1.346299604e-251,-3.282942317e-268,8.005432241e-285,-1.952119141e-301,4.760228625e-318,0],
				"epinfma": [0,0,1.534259682e-37,1.893661205e-36,1.079765619e-36,6.156823561e-37,3.510620794e-37,2.001755977e-37,1.141401258e-37,6.508269974e-38,3.711015539e-38,2.11602106e-38,1.206555209e-38,6.879777799e-39,3.922849301e-39,2.236808672e-39,1.275428304e-39,7.272492192e-40,4.146775048e-40,2.364491132e-40,1.348232844e-40],
				"mc": [0,-0.002080876866,-0.001741458422,-0.001317891419,-0.001040200326,-0.0009168413634,-0.0009173690741,-0.001002754701,-0.001137638775,-0.00129412587,-0.001452075304,-0.001598076909,-0.001724066192,-0.001825978338,-0.001902590475,-0.001954589871,-0.001983857619,-0.001992938772,-0.001984665049,-0.001961897583,-0.001927361134],
				"zcap": [0,-0.01051225764,-0.01264675417,-0.009735178152,-0.006370160805,-0.002730415516,0.001091958391,0.005049523588,0.009105621446,0.01322393204,0.01736693548,0.0214972256,0.02557930206,0.02958101639,0.03347447829,0.03723646462,0.04084844524,0.04429634478,0.04757014208,0.05066338509,0.05357267749],
				"rk": [0,-0.001649076973,-0.001983919326,-0.001527175101,-0.0009992987103,-0.0004283252476,0.0001712974986,0.0007921279483,0.001428415396,0.002074462269,0.002724382752,0.003372308874,0.004012671632,0.004640427837,0.005251202286,0.005841351924,0.006407969892,0.006948848164,0.0074624147,0.007947657355,0.008404043345],
				"k": [0,-0.01051225764,-0.01508353094,-0.01547818398,-0.01603729662,-0.01674354306,-0.0175365782,-0.0183424448,-0.01910068987,-0.01977048868,-0.02032895428,-0.02076714728,-0.0210859618,-0.02129264213,-0.02139809788,-0.0214149593,-0.02135624288,-0.02123448904,-0.02106124902,-0.02084682038,-0.02060015269],
				"pk": [0,-0.3101028512,-0.04729647024,-0.03720408822,-0.02926899988,-0.02368462656,-0.0193274846,-0.01572892162,-0.01268827869,-0.01010915496,-0.00793298588,-0.006113642133,-0.004608849577,-0.003378130172,-0.002382975812,-0.001587547924,-0.0009592868993,-0.00046926232,-9.226571815e-05,0.000193297463,0.0004056517151],
				"c": [0,-0.03274947295,-0.01219787136,0.002068157875,0.0115783306,0.01739358058,0.02049234443,0.02167497371,0.0215572295,0.02059499706,0.01911617251,0.01735058882,0.01545510081,0.01353346764,0.01165159285,0.00984893628,0.008146900259,0.00655488815,0.005074606716,0.003703065042,0.0024346204],
				"inve": [0,-0.08358498873,-0.115845244,-0.1403463741,-0.1587409755,-0.1723283734,-0.1820211781,-0.1885309359,-0.1924454306,-0.1942616494,-0.1944015082,-0.1932213366,-0.1910193241,-0.1880423525,-0.1844925524,-0.1805335558,-0.1762963255,-0.17188446,-0.1673789125,-0.1628421071,-0.1583214685],
				"y": [0,-0.01601381517,-0.02434687064,-0.02492111112,-0.0254118731,-0.0258227358,-0.0261291524,-0.02628745723,-0.02626692227,-0.02605605919,-0.0256598555,-0.02509473532,-0.02438377721,-0.02355295843,-0.02262850311,-0.02163517121,-0.02059527025,-0.01952818656,-0.01845026931,-0.01737493988,-0.01631293341],
				"lab": [0,-0.009972912279,-0.01538637993,-0.01573959252,-0.01598620791,-0.01613335555,-0.01617676484,-0.01610052293,-0.01589552603,-0.01556290919,-0.0151122942,-0.0145588213,-0.01392041368,-0.01321569212,-0.01246255858,-0.01167733527,-0.01087431993,-0.01006563201,-0.009261249338,-0.008469159955,-0.007695575525],
				"pinf": [0,-0.003118516801,-0.004338962257,-0.004780509333,-0.00491532955,-0.004934363002,-0.004910471742,-0.004868484192,-0.004814899857,-0.004750155884,-0.00467342306,-0.004584261604,-0.004483008812,-0.004370698463,-0.004248845146,-0.004119224474,-0.00398369381,-0.00384406246,-0.003702006652,-0.003559020427,-0.003416393297],
				"w": [0,-0.00218842233,-0.001681070333,-0.001265766554,-0.001050387413,-0.001038512752,-0.001188515857,-0.001449793922,-0.001776748445,-0.00213311722,-0.002492277323,-0.002836017111,-0.003152876487,-0.00343652217,-0.003684337011,-0.003896272102,-0.004073953054,-0.004220008863,-0.004337584987,-0.004430003072,-0.004500533821],
				"r": [0,0.2468288293,-0.005839913477,-0.007704384537,-0.009608978365,-0.01034127853,-0.01059389666,-0.01064667534,-0.01060644733,-0.01051101178,-0.01037259306,-0.01019536957,-0.009982040661,-0.009735891781,-0.009461118149,-0.009162562737,-0.008845331991,-0.008514458029,-0.008174653937,-0.007830161241,-0.00748467274],
				"a": [0,1.481673052e-19,1.456188276e-19,1.431141838e-19,1.406526198e-19,1.382333947e-19,1.358557803e-19,1.335190609e-19,1.312225331e-19,1.289655055e-19,1.267472988e-19,1.245672453e-19,1.224246887e-19,1.20318984e-19,1.182494975e-19,1.162156061e-19,1.142166977e-19,1.122521705e-19,1.103214332e-19,1.084239045e-19,1.065590134e-19],
				"b": [0,0,5.360804e-34,4.412741561e-34,2.706948248e-34,1.474476757e-34,7.529361715e-35,3.692191528e-35,1.761019836e-35,8.231816597e-36,3.789596074e-36,1.723797888e-36,7.765701152e-37,3.470553752e-37,1.540514394e-37,6.797658692e-38,2.983593083e-38,1.303060361e-38,5.663634724e-39,2.449575848e-39,1.053885012e-39],
				"g": [0,2.292289571e-16,5.312616384e-16,4.157463912e-16,3.063288751e-16,2.014551389e-16,1.028144572e-16,1.126980877e-17,-7.278584391e-17,-1.492483863e-16,-2.182035773e-16,-2.798667515e-16,-3.345422042e-16,-3.825937726e-16,-4.244226316e-16,-4.604502622e-16,-4.911053996e-16,-5.168141497e-16,-5.379926652e-16,-5.55041883e-16,-5.683439107e-16],
				"qs": [0,-1.526197604e-17,-6.50923278e-18,-2.776187781e-18,-1.184044089e-18,-5.049948038e-19,-2.153802838e-19,-9.185969104e-20,-3.917815823e-20,-1.670948449e-20,-7.126595133e-21,-3.039492824e-21,-1.29634369e-21,-5.528905836e-22,-2.358078339e-22,-1.005720412e-22,-4.289397555e-23,-1.829428057e-23,-7.802510665e-24,-3.327770798e-24,-1.419294246e-24],
				"spinf": [0,0,-1.39176772e-35,-9.223131243e-36,-6.578429957e-36,-4.174020569e-36,-2.515640267e-36,-1.477895844e-36,-8.566351818e-37,-4.929222149e-37,-2.824969552e-37,-1.615390901e-37,-9.225684917e-38,-5.265206695e-38,-3.00373446e-38,-1.71321465e-38,-9.770305682e-39,-5.571527072e-39,-3.177044643e-39,-1.811602121e-39,-1.032991966e-39],
				"sw": [0,5.122007897e-19,6.054213334e-20,3.452112443e-20,1.968394515e-20,1.122378552e-20,6.399802506e-21,3.649167389e-21,2.080755245e-21,1.186446641e-21,6.765118746e-22,3.857470709e-22,2.199529798e-22,1.254171891e-22,7.151288122e-23,4.077664487e-23,2.325084291e-23,1.325763063e-23,7.559500982e-24,4.31042746e-24,2.457805738e-24],
				"kp": [0,-0.002436776769,-0.005743005824,-0.009667135813,-0.01401312754,-0.01862853659,-0.02339196838,-0.02820631132,-0.03299442072,-0.03769588975,-0.04226437288,-0.04666526385,-0.05087365852,-0.05487257617,-0.05865142392,-0.06220468811,-0.06553083382,-0.06863139111,-0.07151020547,-0.07417283018,-0.07662603918],
				"rr": [0,-0.3000573816,0.2642820829,0.01125427847,0.008855752781,0.00634176547,0.00499216231,0.00413660697,0.003500383848,0.002975909782,0.002523249523,0.00212827442,0.001785571189,0.001491861227,0.001243778011,0.001037366206,0.0008681918019,0.0007316115181,0.0006230312381,0.0005381008149,0.0004728393113],
				"er": [0,0.2642820829,0.01125427847,0.008855752781,0.00634176547,0.00499216231,0.00413660697,0.003500383848,0.002975909782,0.002523249523,0.00212827442,0.001785571189,0.001491861227,0.001243778011,0.001037366206,0.0008681918019,0.0007316115181,0.0006230312381,0.0005381008149,0.0004728393113,0.0004237012289],
				"ec": [0,0.2642820829,0.01125427847,0.008855752781,0.00634176547,0.00499216231,0.00413660697,0.003500383848,0.002975909782,0.002523249523,0.00212827442,0.001785571189,0.001491861227,0.001243778011,0.001037366206,0.0008681918019,0.0007316115181,0.0006230312381,0.0005381008149,0.0004728393113,0.0004237012289],
				"nw": [0,-0.986315179,-0.6874400324,-0.6437892655,-0.6045134454,-0.5695128953,-0.5374741866,-0.5077850378,-0.4801240563,-0.4542876762,-0.4301201064,-0.4074864718,-0.3862635131,-0.366336998,-0.3476013722,-0.3299599046,-0.3133247201,-0.2976165745,-0.2827643942,-0.2687046526,-0.255380657],
				"prem": [0,0.01311429138,0.01231368261,0.01164480777,0.01101638083,0.0104229691,0.009862019438,0.009332159327,0.008832201229,0.008360838241,0.007916605875,0.007497931943,0.007103203425,0.006730824646,0.006379259881,0.006047060729,0.00573288105,0.005435482615,0.005153734325,0.004886607255,0.004633167274],
				"pinf4": [0,-0.003118516801,-0.007457479058,-0.01223798839,-0.01715331794,-0.01896916414,-0.01954067363,-0.01962864849,-0.01952821879,-0.01934401168,-0.01910696299,-0.01882274041,-0.01849084936,-0.01811139194,-0.01768681403,-0.0172217769,-0.01672246189,-0.01619582589,-0.0156489874,-0.01508878335,-0.01452148284],
				"eg": [0,1.528193047e-16,2.128318507e-16,-5.041166543e-17,-5.212997479e-17,-5.457895841e-17,-5.567426721e-17,-5.588218845e-17,-5.547286003e-17,-5.461917282e-17,-5.344249658e-17,-5.203350855e-17,-5.046229714e-17,-4.878379198e-17,-4.704110085e-17,-4.526784687e-17,-4.348996802e-17,-4.172717707e-17,-3.999417213e-17,-3.830164465e-17,-3.66571154e-17],
				"interest": [0,0.9873153172,-0.02335965391,-0.03081753815,-0.03843591346,-0.04136511411,-0.04237558664,-0.04258670134,-0.04242578933,-0.04204404711,-0.04149037224,-0.04078147827,-0.03992816264,-0.03894356712,-0.0378444726,-0.03665025095,-0.03538132797,-0.03405783212,-0.03269861575,-0.03132064497,-0.02993869096],
				"inflation": [0,-0.003118516801,-0.007457479058,-0.01223798839,-0.01715331794,-0.01896916414,-0.01954067363,-0.01962864849,-0.01952821879,-0.01934401168,-0.01910696299,-0.01882274041,-0.01849084936,-0.01811139194,-0.01768681403,-0.0172217769,-0.01672246189,-0.01619582589,-0.0156489874,-0.01508878335,-0.01452148284],
				"inflationq": [0,-0.0124740672,-0.01735584903,-0.01912203733,-0.0196613182,-0.01973745201,-0.01964188697,-0.01947393677,-0.01925959943,-0.01900062354,-0.01869369224,-0.01833704642,-0.01793203525,-0.01748279385,-0.01699538058,-0.0164768979,-0.01593477524,-0.01537624984,-0.01480802661,-0.01423608171,-0.01366557319],
				"inflationql": [0,5.199243784e-17,-0.0124740672,-0.01735584903,-0.01912203733,-0.0196613182,-0.01973745201,-0.01964188697,-0.01947393677,-0.01925959943,-0.01900062354,-0.01869369224,-0.01833704642,-0.01793203525,-0.01748279385,-0.01699538058,-0.0164768979,-0.01593477524,-0.01537624984,-0.01480802661,-0.01423608171],
				"inflationql2": [0,2.539092987e-18,4.599529948e-16,-0.0124740672,-0.01735584903,-0.01912203733,-0.0196613182,-0.01973745201,-0.01964188697,-0.01947393677,-0.01925959943,-0.01900062354,-0.01869369224,-0.01833704642,-0.01793203525,-0.01748279385,-0.01699538058,-0.0164768979,-0.01593477524,-0.01537624984,-0.01480802661],
				"inflationqls": [0,5.453153083e-17,-0.0124740672,-0.02982991623,-0.03647788636,-0.03878335553,-0.03939877021,-0.03937933898,-0.03911582374,-0.0387335362,-0.03826022297,-0.03769431578,-0.03703073866,-0.03626908167,-0.0354148291,-0.03447817444,-0.03347227848,-0.03241167314,-0.03131102508,-0.03018427645,-0.02904410832],
				"outputgap": [0,-0.01601381517,-0.02434687064,-0.02492111112,-0.0254118731,-0.0258227358,-0.0261291524,-0.02628745723,-0.02626692227,-0.02605605919,-0.0256598555,-0.02509473532,-0.02438377721,-0.02355295843,-0.02262850311,-0.02163517121,-0.02059527025,-0.01952818656,-0.01845026931,-0.01737493988,-0.01631293341],
				"output": [0,-0.01601381517,-0.02434687064,-0.02492111112,-0.0254118731,-0.0258227358,-0.0261291524,-0.02628745723,-0.02626692227,-0.02605605919,-0.0256598555,-0.02509473532,-0.02438377721,-0.02355295843,-0.02262850311,-0.02163517121,-0.02059527025,-0.01952818656,-0.01845026931,-0.01737493988,-0.01631293341],
				"fispol": [0,7.640965236e-17,1.064159253e-16,-2.520583271e-17,-2.60649874e-17,-2.728947921e-17,-2.78371336e-17,-2.794109423e-17,-2.773643001e-17,-2.730958641e-17,-2.672124829e-17,-2.601675428e-17,-2.523114857e-17,-2.439189599e-17,-2.352055042e-17,-2.263392344e-17,-2.174498401e-17,-2.086358853e-17,-1.999708606e-17,-1.915082232e-17,-1.83285577e-17],
				"neww": [0,-5.328543269e-33,-2.554553851e-32,-5.078608032e-33,-5.102211726e-33,-4.925293825e-33,-4.787361983e-33,-4.685913263e-33,-4.613136992e-33,-4.560878344e-33,-4.522203205e-33,-4.491742038e-33,-4.46557434e-33,-4.440972208e-33,-4.416130208e-33,-4.389927556e-33,-4.361734746e-33,-4.33126334e-33,-4.298452937e-33,-4.263388328e-33,-4.226240276e-33]
			},
			"fiscal_": {
				"ewma": [0,-8.019442569e-17,1.95553555e-33,-4.768559976e-50,1.162810068e-66,-2.835504345e-83,6.914357825e-100,-1.686061396e-116,4.111449107e-133,-1.002574034e-149,2.444769881e-166,-5.961554525e-183,1.453720967e-199,-3.544888571e-216,8.644186377e-233,-2.107878897e-249,5.14004818e-266,-1.25339721e-282,3.056400469e-299,-7.453011492e-316,0],
				"epinfma": [0,0,-2.402164864e-35,-2.964873851e-34,-1.69057107e-34,-9.639636242e-35,-5.496520585e-35,-3.134116038e-35,-1.787072965e-35,-1.018989004e-35,-5.810275303e-36,-3.313018978e-36,-1.889083421e-36,-1.077155367e-36,-6.141939901e-37,-3.502134132e-37,-1.996916882e-37,-1.138642006e-37,-6.492536719e-38,-3.702044437e-38,-2.110905738e-38],
				"mc": [0,0.07116716694,0.09446964236,0.1011107469,0.09763018485,0.0884650219,0.07653468639,0.06372287383,0.05120110658,0.03965132124,0.02942320003,0.02064648017,0.01331092481,0.007322612315,0.002542801066,-0.001185964508,-0.0040229848,-0.006119114512,-0.007611058101,-0.008618774822,-0.009244915732],
				"zcap": [0,0.6365800405,0.5844539101,0.5399375227,0.5070768011,0.4874354483,0.4806803676,0.4853660877,0.4995792453,0.521299438,0.5485985123,0.5797439163,0.613243845,0.6478571403,0.6825824827,0.7166362742,0.7494252848,0.7805179264,0.8096165086,0.8365318118,0.8611606324],
				"rk": [0,0.09986146864,0.09168434777,0.08470098112,0.07954605996,0.07646488522,0.07540520343,0.07614026087,0.07836990475,0.08177719087,0.0860596463,0.09094548247,0.09620067722,0.1016305278,0.1070779554,0.1124200356,0.1175637073,0.1224412666,0.1270060141,0.1312282666,0.1350918345],
				"k": [0,0.6365800405,0.5612793532,0.4760135802,0.3896293924,0.3077567058,0.2334334538,0.1679193501,0.1114120085,0.06349315907,0.02341323663,-0.009726510354,-0.03685938899,-0.05888390109,-0.07662482143,-0.09081450128,-0.1020872692,-0.1109819549,-0.1179491014,-0.1233605394,-0.1275197932],
				"pk": [0,-1.031536121,-0.8969542604,-0.7713146803,-0.6498037635,-0.530581476,-0.4225337017,-0.3288812851,-0.2500746542,-0.1852265622,-0.1328512668,-0.09125753061,-0.05875963708,-0.03378781654,-0.01494082685,-0.001004574617,0.009049100894,0.01607477823,0.02077145542,0.02370274492,0.02531712613],
				"c": [0,0.2506915182,0.3689258515,0.3995734947,0.3767554302,0.3255133182,0.2616098658,0.1947503004,0.1306424936,0.07236643664,0.02130366297,-0.02222793778,-0.05854264204,-0.08829781355,-0.1123048156,-0.131409713,-0.146422058,-0.1580761654,-0.1670137538,-0.1737801106,-0.1788283469],
				"inve": [0,-0.7949210205,-1.420937774,-1.899856712,-2.252072704,-2.497365332,-2.655203014,-2.743262759,-2.776887705,-2.769003905,-2.73025949,-2.669263943,-2.592862434,-2.506410195,-2.414028565,-2.318833888,-2.223136064,-2.128606853,-2.03641987,-1.947365191,-1.86194181],
				"y": [0,1.05685482,0.8872236615,0.7301266196,0.5902368119,0.4698388858,0.3690380881,0.2864829405,0.2201494695,0.167786389,0.1271669263,0.0962254607,0.07312383533,0.05627458925,0.04433835488,0.03620657505,0.03097678328,0.02792508789,0.02647873836,0.0261904571,0.02671541791],
				"lab": [0,0.6724210369,0.5578003442,0.4555167456,0.3670411774,0.2927677767,0.2320226582,0.1834294513,0.1453475545,0.1161110327,0.09415573759,0.07808138659,0.06667515062,0.05891264584,0.05394619325,0.05108657306,0.04978219387,0.04959808646,0.05019612989,0.05131725403,0.05276593029],
				"pinf": [0,0.02408938072,0.03099247493,0.02962589035,0.02447995937,0.01789608933,0.01111490168,0.004783600611,-0.0007847551161,-0.005470443646,-0.009265921661,-0.01222675408,-0.01444106213,-0.01601034847,-0.01703763911,-0.0176204539,-0.01784698628,-0.0177943955,-0.017528454,-0.01710402425,-0.01656600393],
				"w": [0,0.06402047226,0.09516335675,0.1051978157,0.1021342749,0.09145381437,0.07681599904,0.06063015965,0.0444343587,0.02915931723,0.01531714534,0.003137585522,-0.007333862393,-0.01616601914,-0.02349305926,-0.02948103873,-0.03430575573,-0.03813877475,-0.04113921722,-0.04344952684,-0.045193889],
				"r": [0,0.1411403703,0.1315586536,0.1230312322,0.114724991,0.09735276596,0.07729857628,0.05766332419,0.03989737237,0.02458953745,0.01186929585,0.001622729649,-0.006386088652,-0.01244470872,-0.01685113206,-0.01989024198,-0.0218211875,-0.02287166706,-0.02323651634,-0.02307889037,-0.02253290189],
				"a": [0,-1.487741105e-16,-1.462151958e-16,-1.437002945e-16,-1.412286494e-16,-1.387995166e-16,-1.364121649e-16,-1.340658757e-16,-1.317599426e-16,-1.294936716e-16,-1.272663805e-16,-1.250773987e-16,-1.229260675e-16,-1.208117391e-16,-1.187337772e-16,-1.166915562e-16,-1.146844615e-16,-1.127118887e-16,-1.107732442e-16,-1.088679444e-16,-1.069954158e-16],
				"b": [0,0,6.93943298e-33,4.935299678e-33,2.876749232e-33,1.529394951e-33,7.713308027e-34,3.761192332e-34,1.792517189e-34,8.406892758e-35,3.898729652e-35,1.79435429e-35,8.22045488e-36,3.758787251e-36,1.719753597e-36,7.893070907e-37,3.643336779e-37,1.695723076e-37,7.978653236e-38,3.804281122e-38,1.842000592e-38],
				"g": [0,1,0.9249,0.85544001,0.7911964652,0.7317776107,0.6768211121,0.6259918466,0.5789798589,0.5354984715,0.4952825363,0.4580868178,0.4236844978,0.391865792,0.3624366711,0.3352176771,0.3100428295,0.286758613,0.2652230412,0.2453047908,0.226882401],
				"qs": [0,-1.442597627e-16,-6.152678878e-17,-2.624117541e-17,-1.119186131e-17,-4.773328851e-18,-2.035824755e-18,-8.682792579e-19,-3.703211035e-19,-1.579419506e-19,-6.736224195e-20,-2.872999619e-20,-1.225334338e-20,-5.22605095e-21,-2.22891073e-21,-9.506304264e-22,-4.054438768e-22,-1.729218135e-22,-7.375115345e-23,-3.145486695e-23,-1.341550075e-23],
				"spinf": [0,0,2.17906757e-33,1.444050318e-33,1.029973836e-33,6.535194577e-34,3.938696122e-34,2.313916942e-34,1.341219456e-34,7.71760113e-35,4.423007839e-35,2.529190665e-35,1.444450142e-35,8.243646546e-36,4.702897083e-36,2.682351682e-36,1.529720509e-36,8.723247265e-37,4.974245953e-37,2.836395309e-37,1.617338338e-37],
				"sw": [0,-8.019442569e-17,-9.478981116e-18,-5.404915032e-18,-3.081882551e-18,-1.757289431e-18,-1.002006433e-18,-5.713440684e-19,-3.257803878e-19,-1.857599771e-19,-1.059203389e-19,-6.039577727e-20,-3.44376722e-20,-1.963636069e-20,-1.119665286e-20,-6.384331463e-21,-3.6403458e-21,-2.075725175e-21,-1.183578495e-21,-6.748764578e-22,-3.848145563e-22],
				"kp": [0,-0.02317455688,-0.0639239425,-0.1174474087,-0.1796787425,-0.2472469138,-0.3174467377,-0.3881672368,-0.4578062789,-0.5251852757,-0.5894704266,-0.650103234,-0.7067410414,-0.7592073042,-0.8074507755,-0.851512554,-0.8914998813,-0.92756561,-0.9598923513,-0.9886804257,-1.014138861],
				"rr": [0,-0.9946896925,0.1667790323,0.1535175961,0.1452637838,0.1389920755,0.1242642403,0.1068428261,0.08950314396,0.07354365126,0.05950460648,0.04752757448,0.03754451396,0.02938201412,0.02282079733,0.01763017192,0.01358769022,0.0104897339,0.008156437175,0.006433092514,0.005189433882],
				"er": [0,0.1667790323,0.1535175961,0.1452637838,0.1389920755,0.1242642403,0.1068428261,0.08950314396,0.07354365126,0.05950460648,0.04752757448,0.03754451396,0.02938201412,0.02282079733,0.01763017192,0.01358769022,0.0104897339,0.008156437175,0.006433092514,0.005189433882,0.004317719381],
				"ec": [0,0.1667790323,0.1535175961,0.1452637838,0.1389920755,0.1242642403,0.1068428261,0.08950314396,0.07354365126,0.05950460648,0.04752757448,0.03754451396,0.02938201412,0.02282079733,0.01763017192,0.01358769022,0.0104897339,0.008156437175,0.006433092514,0.005189433882,0.004317719381],
				"nw": [0,-3.269633084,-2.954194346,-2.66649455,-2.400437001,-2.153097664,-1.931630728,-1.737361156,-1.568908089,-1.423720579,-1.29885552,-1.19137603,-1.098550716,-1.017944151,-0.9474463628,-0.8852681074,-0.8299176554,-0.78016861,-0.7350245799,-0.6936842071,-0.6555085519],
				"prem": [0,0.05663113696,0.05158483294,0.04671251096,0.04216317381,0.03802637602,0.03432785046,0.03105506465,0.02817583524,0.02564914737,0.02343152455,0.02148072218,0.01975775429,0.01822786694,0.01686085008,0.01563094592,0.0145165259,0.01349965024,0.0125655846,0.01170232033,0.01090012593],
				"pinf4": [0,0.02408938072,0.05508185565,0.084707746,0.1091877054,0.102994414,0.08311684074,0.058274551,0.03300983651,0.009643303533,-0.01073751981,-0.0277478745,-0.04140418152,-0.05194408634,-0.05971580379,-0.06510950362,-0.06851542777,-0.07029947479,-0.07079028968,-0.07027386003,-0.06899287768],
				"eg": [0,1,-5.418212095e-17,-1.870101267e-16,-2.856765174e-16,-3.418158842e-16,-3.800952826e-16,-4.033679799e-16,-4.146960881e-16,-4.168631475e-16,-4.122237366e-16,-4.026911221e-16,-3.897788903e-16,-3.746597457e-16,-3.582255543e-16,-3.411421305e-16,-3.23896543e-16,-3.06836643e-16,-2.90203361e-16,-2.741566449e-16,-2.587959942e-16],
				"interest": [0,0.5645614811,0.5262346142,0.4921249288,0.458899964,0.3894110639,0.3091943051,0.2306532968,0.1595894895,0.0983581498,0.04747718341,0.006490918595,-0.02554435461,-0.04977883489,-0.06740452825,-0.0795609679,-0.08728475001,-0.09148666825,-0.09294606534,-0.0923155615,-0.09013160756],
				"inflation": [0,0.02408938072,0.05508185565,0.084707746,0.1091877054,0.102994414,0.08311684074,0.058274551,0.03300983651,0.009643303533,-0.01073751981,-0.0277478745,-0.04140418152,-0.05194408634,-0.05971580379,-0.06510950362,-0.06851542777,-0.07029947479,-0.07079028968,-0.07027386003,-0.06899287768],
				"inflationq": [0,0.09635752288,0.1239698997,0.1185035614,0.0979198375,0.07158435731,0.04445960674,0.01913440244,-0.003139020464,-0.02188177458,-0.03706368664,-0.04890701632,-0.05776424852,-0.0640413939,-0.06815055645,-0.07048181562,-0.07138794511,-0.07117758201,-0.070113816,-0.06841609701,-0.06626401571],
				"inflationql": [0,1.951917533e-17,0.09635752288,0.1239698997,0.1185035614,0.0979198375,0.07158435731,0.04445960674,0.01913440244,-0.003139020464,-0.02188177458,-0.03706368664,-0.04890701632,-0.05776424852,-0.0640413939,-0.06815055645,-0.07048181562,-0.07138794511,-0.07117758201,-0.070113816,-0.06841609701],
				"inflationql2": [0,1.765067633e-17,-1.765345625e-16,0.09635752288,0.1239698997,0.1185035614,0.0979198375,0.07158435731,0.04445960674,0.01913440244,-0.003139020464,-0.02188177458,-0.03706368664,-0.04890701632,-0.05776424852,-0.0640413939,-0.06815055645,-0.07048181562,-0.07138794511,-0.07117758201,-0.070113816],
				"inflationqls": [0,3.716985166e-17,0.09635752288,0.2203274226,0.2424734611,0.2164233989,0.1695041948,0.116043964,0.06359400918,0.01599538198,-0.02502079505,-0.05894546123,-0.08597070296,-0.1066712648,-0.1218056424,-0.1321919503,-0.1386323721,-0.1418697607,-0.1425655271,-0.141291398,-0.138529913],
				"outputgap": [0,1.05685482,0.8872236615,0.7301266196,0.5902368119,0.4698388858,0.3690380881,0.2864829405,0.2201494695,0.167786389,0.1271669263,0.0962254607,0.07312383533,0.05627458925,0.04433835488,0.03620657505,0.03097678328,0.02792508789,0.02647873836,0.0261904571,0.02671541791],
				"output": [0,1.05685482,0.8872236615,0.7301266196,0.5902368119,0.4698388858,0.3690380881,0.2864829405,0.2201494695,0.167786389,0.1271669263,0.0962254607,0.07312383533,0.05627458925,0.04433835488,0.03620657505,0.03097678328,0.02792508789,0.02647873836,0.0261904571,0.02671541791],
				"fispol": [0,1,-1.029165752e-17,-7.796729558e-17,-1.284673772e-16,-1.576163138e-16,-1.777542143e-16,-1.903137994e-16,-1.968317547e-16,-1.987050578e-16,-1.971158137e-16,-1.930251101e-16,-1.871938601e-16,-1.802122262e-16,-1.725296658e-16,-1.644823456e-16,-1.563168147e-16,-1.482097871e-16,-1.40284307e-16,-1.326227337e-16,-1.252770231e-16],
				"neww": [0,-1.442532116e-33,-4.574779991e-32,-4.516250715e-32,-4.061343295e-32,-3.972715229e-32,-3.984149108e-32,-4.046586846e-32,-4.131000636e-32,-4.219763421e-32,-4.302361703e-32,-4.37293357e-32,-4.42868923e-32,-4.468834116e-32,-4.493818368e-32,-4.504814963e-32,-4.50336316e-32,-4.491132027e-32,-4.469770392e-32,-4.440817901e-32,-4.405658204e-32]
			}
		}
	}
}
