{
	"model": "US_YR13",
	"rule": "Model",
	"data": {
		"AC": {
			"ewma": [1,4.440965388e-17,1.972217357e-33,8.75854902e-50,3.889641304e-66,1.72737624e-82,7.671218094e-99,3.406761404e-115,1.512930948e-131,6.718873973e-148,2.983828676e-164,1.325107987e-180,5.884758705e-197,2.613400972e-213,1.160602326e-229,5.154194759e-246,2.288960053e-262,1.016519237e-278,4.514326746e-295,2.004796883e-311,0],
			"epinfma": [1,4.669417238e-17,2.124806024e-33,-3.166874286e-35,-1.805751718e-35,-1.029639629e-35,-5.871005167e-36,-3.347647146e-36,-1.908828403e-36,-1.088413955e-36,-6.206136373e-37,-3.53873896e-37,-2.017788955e-37,-1.150543262e-37,-6.560397681e-38,-3.740738757e-38,-2.132969239e-38,-1.21621906e-38,-6.934881082e-39,-3.954269193e-39,-2.254724294e-39],
			"mc": [1,0.8308866967,0.667220362,0.521532056,0.3974508472,0.2948225159,0.2119011178,0.1463401081,0.0956578782,0.05745947539,0.02953986929,0.009927574125,-0.003102658296,-0.01103361962,-0.015118402,-0.01639808241,-0.01572201204,-0.0137692669,-0.01107028285,-0.008027970512,-0.004937787713],
			"zcap": [1,0.9985113781,0.9959267023,0.9925789926,0.9886613773,0.984298839,0.9795786171,0.9745642196,0.9693027076,0.963829063,0.9581691732,0.9523420678,0.9463616804,0.94023826,0.9339795029,0.9275914441,0.9210791464,0.9144472132,0.907700155,0.9008426343,0.8938796129],
			"rk": [1,0.9985113781,0.9959267023,0.9925789926,0.9886613773,0.984298839,0.9795786171,0.9745642196,0.9693027076,0.963829063,0.9581691732,0.9523420678,0.9463616804,0.94023826,0.9339795029,0.9275914441,0.9210791464,0.9144472132,0.907700155,0.9008426343,0.8938796129],
			"k": [1,0.9841780906,0.9601525256,0.932447792,0.9035461392,0.8749217346,0.8474831112,0.8217806506,0.7981176206,0.7766192719,0.7572817278,0.7400094953,0.7246453182,0.7109940851,0.6988417407,0.68796987,0.6781665317,0.669233888,0.6609931528,0.6532873582,0.6459823968],
			"pk": [1,0.5682644544,0.3598658225,0.2446819094,0.1716038554,0.1201723402,0.08181223104,0.05256772376,0.03030037237,0.01361538642,0.001454502537,-0.007056213508,-0.01266280842,-0.01600529558,-0.01762808429,-0.0179874457,-0.01745883181,-0.01634473999,-0.01488305894,-0.01325560567,-0.01159653773],
			"c": [1,0.993545137,0.9804436004,0.9635514489,0.9444240324,0.9240876129,0.9033111757,0.8826976449,0.8627145765,0.8437079289,0.825913502,0.8094699201,0.7944333324,0.7807929346,0.7684863048,0.7574137414,0.7474510526,0.738460489,0.7302997058,0.7228287869,0.7159154652],
			"inve": [1,0.9938712327,0.9809985312,0.9642625793,0.9453383338,0.9252922255,0.9048428219,0.88448396,0.8645505835,0.8452596129,0.8267388746,0.8090493825,0.7922031877,0.7761778165,0.7609278599,0.7463941128,0.7325106016,0.7192098128,0.7064264142,0.6940997437,0.6821753118],
			"y": [1,0.9789272786,0.944861649,0.9040239551,0.8599158138,0.8147505223,0.7700311195,0.726799273,0.6857582051,0.6473473231,0.6117973798,0.5791762903,0.5494288043,0.5224108699,0.4979188596,0.4757137784,0.4555406874,0.4371437159,0.4202771347,0.4047130271,0.3902461083],
			"lab": [1,0.9713896844,0.9325424627,0.8899482513,0.8469526084,0.80541103,0.7663837794,0.7304508012,0.6978734721,0.6686917053,0.6427909239,0.6199524487,0.599892814,0.5822945173,0.5668296267,0.5531773006,0.5410361447,0.5301322754,0.5202238982,0.5111031481,0.5025958594],
			"pinf": [1,0.7873736018,0.6711013581,0.5772265034,0.4922514531,0.4157741543,0.3488389093,0.2917581234,0.2441057563,0.2050273285,0.1734831331,0.148394145,0.1287214169,0.1135068363,0.1018923425,0.09312696931,0.08656671138,0.08166998321,0.07799032223,0.07516742858,0.07291732321],
			"w": [1,0.9884477592,0.9730632997,0.9559604698,0.9382498925,0.9205447784,0.9031899595,0.8863759895,0.8702004199,0.854702682,0.8398849824,0.8257254775,0.8121870238,0.7992232767,0.7867830993,0.7748138128,0.7632635905,0.7520831826,0.7412270999,0.7306543533,0.7203288352],
			"r": [1,0.9922383267,0.9747434838,0.949969828,0.9198218568,0.8859164547,0.8496248253,0.8120806055,0.7741930563,0.7366682252,0.7000345462,0.664669636,0.6308262346,0.5986561616,0.5682317373,0.539564457,0.5126209135,0.4873360857,0.4636241869,0.4413873106,0.4205221339],
			"a": [1,0.9828,0.96589584,0.9492824316,0.9329547737,0.9169079516,0.9011371349,0.8856375761,0.8704046098,0.8554336505,0.8407201917,0.8262598044,0.8120481358,0.7980809079,0.7843539163,0.7708630289,0.7576041848,0.7445733928,0.7317667305,0.7191803427,0.7068104408],
			"b": [1,0.3881,0.15062161,0.05845624684,0.0226868694,0.008804774014,0.003417132795,0.001326189238,0.0005146940431,0.0001997527581,7.752404543e-05,3.008708203e-05,1.167679654e-05,4.531764736e-06,1.758777894e-06,6.825817007e-07,2.64909958e-07,1.028115547e-07,3.990116438e-08,1.54856419e-08,6.00997762e-09],
			"g": [1,0.9249,0.85544001,0.7911964652,0.7317776107,0.6768211121,0.6259918466,0.5789798589,0.5354984715,0.4952825363,0.4580868178,0.4236844978,0.391865792,0.3624366711,0.3352176771,0.3100428295,0.286758613,0.2652230412,0.2453047908,0.226882401,0.2098435327],
			"qs": [1,0.4265,0.18190225,0.07758130962,0.03308842856,0.01411221478,0.006018859603,0.002567043621,0.001094844104,0.0004669510105,0.000199154606,8.493943944e-05,3.622667092e-05,1.545067515e-05,6.589712951e-06,2.810512573e-06,1.198683613e-06,5.112385608e-07,2.180432462e-07,9.299544449e-08,3.966255708e-08],
			"spinf": [1,-0.1636401803,-0.0524630418,-0.0168196512,-0.005392380175,-0.001728797084,-0.0005542523452,-0.0001776933019,-5.696847258e-05,-1.826409231e-05,-5.855467994e-06,-1.877263039e-06,-6.018505303e-07,-1.9295328e-07,-6.186082157e-08,-1.98325794e-08,-6.358324954e-09,-2.03847898e-09,-6.535363611e-10,-2.095237574e-10,-6.717331661e-11],
			"sw": [1,0.1273675442,0.0726249737,0.04141076,0.02361241535,0.01346379924,0.007677058324,0.004377458656,0.002496026926,0.001423234553,0.0008115283422,0.0004627334607,0.0002638506193,0.0001504476231,8.57852347e-05,4.891474083e-05,2.789118522e-05,1.590355381e-05,9.068206384e-06,5.17069128e-06,2.948328168e-06],
			"kp": [1,0.9997176099,0.9988975133,0.9975666998,0.995753013,0.9934849534,0.9907911336,0.987699711,0.9842379181,0.9804317236,0.9763056184,0.9718825067,0.967183681,0.962228859,0.9570362623,0.9516227229,0.946003804,0.9401939256,0.9342064878,0.9280539877,0.9217481256],
			"rr": [1,-0.2577117131,-0.1072139174,-0.04811090609,-0.02446170131,-0.01456040328,-0.01000332098,-0.007548902056,-0.005954708039,-0.004749395545,-0.003756582036,-0.002910731582,-0.002186396045,-0.00157141453,-0.001057115271,-0.0006350462342,-0.0002961631243,-3.08927273e-05,0.0001705405279,0.0003177574528,0.0004199196811],
			"er": [1,0.4797522588,0.261586049,0.1625734255,0.111717691,0.08139129793,0.06075052818,0.04543673092,0.03359300948,0.02432806102,0.01712710576,0.01162846657,0.007540567645,0.004612210846,0.002622514163,0.001377642143,0.0007094959725,0.0004746391613,0.0005529283249,0.0008457666298,0.001274054316],
			"ec": [1,0.4797522588,0.261586049,0.1625734255,0.111717691,0.08139129793,0.06075052818,0.04543673092,0.03359300948,0.02432806102,0.01712710576,0.01162846657,0.007540567645,0.004612210846,0.002622514163,0.001377642143,0.0007094959725,0.0004746391613,0.0005529283249,0.0008457666298,0.001274054316],
			"nw": [1,0.9054856009,0.8378648925,0.7833399363,0.7362535083,0.6941368396,0.655786384,0.6205167283,0.5878696275,0.5574996198,0.5291278217,0.5025219507,0.4774864064,0.4538562252,0.4314925835,0.4102790046,0.3901179824,0.3709279376,0.3526404918,0.3351980569,0.3185517386],
			"prem": [1,0.9413800529,0.8896789467,0.8427919704,0.7996266999,0.7595169631,0.7219958294,0.686706125,0.6533631925,0.621737268,0.5916431576,0.5629326844,0.5354883352,0.5092176197,0.4840480331,0.4599226206,0.4367961556,0.4146319281,0.3933991157,0.3730706974,0.3536218509],
			"pinf4": [1,0.9595841357,0.8728623004,0.7604889582,0.6421201784,0.5444153151,0.459514029,0.3863062479,0.3244097196,0.2730807549,0.2312419902,0.1976627304,0.1710958165,0.1503578487,0.1343705905,0.1221792719,0.1129575735,0.1060048467,0.1007387325,0.09668507381,0.09346635383],
			"eg": [1,-5.031351194e-17,-1.034305414e-16,-1.485577008e-16,-1.895996926e-16,-2.224077384e-16,-2.457659604e-16,-2.59881369e-16,-2.656528026e-16,-2.642935751e-16,-2.571228886e-16,-2.454441256e-16,-2.304723928e-16,-2.132928128e-16,-1.948394587e-16,-1.758886784e-16,-1.570624773e-16,-1.388387195e-16,-1.215656452e-16,-1.054787545e-16,-9.071856945e-17],
			"interest": [1,0.9922383267,0.9747434838,0.949969828,0.9198218568,0.8859164547,0.8496248253,0.8120806055,0.7741930563,0.7366682252,0.7000345462,0.664669636,0.6308262346,0.5986561616,0.5682317373,0.539564457,0.5126209135,0.4873360857,0.4636241869,0.4413873106,0.4205221339],
			"inflation": [1,0.9595841357,0.8728623004,0.7604889582,0.6421201784,0.5444153151,0.459514029,0.3863062479,0.3244097196,0.2730807549,0.2312419902,0.1976627304,0.1710958165,0.1503578487,0.1343705905,0.1221792719,0.1129575735,0.1060048467,0.1007387325,0.09668507381,0.09346635383],
			"inflationq": [1,0.7873736018,0.6711013581,0.5772265034,0.4922514531,0.4157741543,0.3488389093,0.2917581234,0.2441057563,0.2050273285,0.1734831331,0.148394145,0.1287214169,0.1135068363,0.1018923425,0.09312696931,0.08656671138,0.08166998321,0.07799032223,0.07516742858,0.07291732321],
			"inflationql": [1,0.7873736018,0.6711013581,0.5772265034,0.4922514531,0.4157741543,0.3488389093,0.2917581234,0.2441057563,0.2050273285,0.1734831331,0.148394145,0.1287214169,0.1135068363,0.1018923425,0.09312696931,0.08656671138,0.08166998321,0.07799032223,0.07516742858,0.07291732321],
			"inflationql2": [1,0.7873736018,0.6711013581,0.5772265034,0.4922514531,0.4157741543,0.3488389093,0.2917581234,0.2441057563,0.2050273285,0.1734831331,0.148394145,0.1287214169,0.1135068363,0.1018923425,0.09312696931,0.08656671138,0.08166998321,0.07799032223,0.07516742858,0.07291732321],
			"inflationqls": [1,0.9079938739,0.7572011857,0.6483831404,0.5531869671,0.4679040435,0.3930935578,0.3291032471,0.2755431107,0.231525056,0.1959265089,0.1675622935,0.1452812704,0.1280167257,0.1148104935,0.1048222353,0.09733006433,0.09172592672,0.08750774207,0.08426959599,0.08169089182],
			"outputgap": [1,0.9571223672,0.8967184312,0.8295713342,0.7613555651,0.6952992657,0.6333027325,0.5764471605,0.5252587018,0.4798698363,0.4401329871,0.4057076294,0.3761293541,0.3508646414,0.329353481,0.311041463,0.2954028278,0.2819559056,0.2702723167,0.2599812125,0.2507697157],
			"output": [1,0.9789272786,0.944861649,0.9040239551,0.8599158138,0.8147505223,0.7700311195,0.726799273,0.6857582051,0.6473473231,0.6117973798,0.5791762903,0.5494288043,0.5224108699,0.4979188596,0.4757137784,0.4555406874,0.4371437159,0.4202771347,0.4047130271,0.3902461083],
			"fispol": [1,-6.825942321e-18,-3.476110113e-17,-5.859793897e-17,-8.029657136e-17,-9.77897902e-17,-1.104762985e-16,-1.184657446e-16,-1.222132294e-16,-1.223306648e-16,-1.194825124e-16,-1.143249587e-16,-1.074697148e-16,-9.946318761e-17,-9.077597025e-17,-8.179952641e-17,-7.28479013e-17,-6.416284107e-17,-5.592106844e-17,-4.824274082e-17,-4.120034571e-17],
			"neww": [1,-0.08696309046,-0.0278803668,-0.008938445596,-0.002865665658,-0.00091873241,-0.0002945456106,-9.443132277e-05,-3.027468208e-05,-9.706063075e-06,-3.111763822e-06,-9.976314813e-07,-3.198406529e-07,-1.025409133e-07,-3.287461681e-08,-1.053960215e-08,-3.378996449e-09,-1.083306262e-09,-3.473079875e-10,-1.113469408e-10,-3.569782921e-11]
		},
		"VAR": {
			"ewma": 0.05184729,
			"epinfma": 0.03429904,
			"mc": 1.063336769,
			"zcap": 200.2145815,
			"rk": 4.92703408,
			"k": 15.34428376,
			"pk": 26.7333518,
			"c": 44.58121795,
			"inve": 455.9730742,
			"y": 17.53995002,
			"lab": 5.866946644,
			"pinf": 0.196996794,
			"w": 11.95371138,
			"r": 0.2584458249,
			"a": 6.90578774,
			"b": 3.779878647,
			"g": 2.031717783,
			"qs": 0.1915868978,
			"spinf": 0.03555697933,
			"sw": 0.05292063572,
			"kp": 286.9524418,
			"rr": 22.35831339,
			"er": 5.609494514,
			"ec": 5.609494514,
			"nw": 1020.778731,
			"prem": 0.2766944143,
			"pinf4": 2.474890433,
			"eg": 0.21483225,
			"interest": 4.135133199,
			"inflation": 2.474890433,
			"inflationq": 3.151948705,
			"inflationql": 3.151948705,
			"inflationql2": 3.151948705,
			"inflationqls": 11.26741982,
			"outputgap": 9.753564181,
			"output": 17.53995002,
			"fispol": 0.21483225,
			"neww": 0.1384540993
		},
		"IRF": {
			"interest_": {
				"ewma": [0,2.858106554e-17,1.269275228e-33,5.636807355e-50,2.503286636e-66,1.11170093e-82,4.937025353e-99,2.192515871e-115,9.736887096e-132,4.324117857e-148,1.920325774e-164,8.528100293e-181,3.787299822e-197,1.681926742e-213,7.469378447e-230,3.317125115e-246,1.473123782e-262,6.542091728e-279,2.905320293e-295,1.290242686e-311,0],
				"epinfma": [0,0,-5.532853721e-34,-4.214167236e-35,-2.402918158e-35,-1.370143934e-35,-7.81256071e-36,-4.454722117e-36,-2.540082551e-36,-1.448355071e-36,-8.258520613e-37,-4.709008453e-37,-2.68507662e-37,-1.531030689e-37,-8.729936987e-38,-4.97781007e-38,-2.838347302e-38,-1.618425632e-38,-9.228262952e-39,-5.261955535e-39,-3.000367046e-39],
				"mc": [0,-0.1356815293,-0.2238219035,-0.2794690251,-0.3111429917,-0.3241673302,-0.3225854599,-0.3098411016,-0.2889768476,-0.2626642113,-0.2331905009,-0.2024485404,-0.1719425418,-0.1428106235,-0.1158600832,-0.09161062018,-0.07034114233,-0.05213667125,-0.0369328023,-0.02455602479,-0.0147589165],
				"zcap": [0,-0.2990127639,-0.5077394867,-0.6092659834,-0.6295117332,-0.589415368,-0.5063407868,-0.3946799513,-0.2661784377,-0.1301880035,0.006084049495,0.1373131048,0.2597874129,0.3711402494,0.4700940099,0.5562240915,0.6297478347,0.6913413886,0.7419853519,0.782838496,0.8151377627],
				"rk": [0,-0.04690667607,-0.07965001665,-0.09557666283,-0.09875265041,-0.09246266069,-0.07943060006,-0.06191416172,-0.04175589559,-0.02042282887,0.0009544159088,0.02154055647,0.0407533239,0.05822144588,0.07374450225,0.08725588478,0.09878968809,0.1084519809,0.1163965915,0.1228052985,0.1278721432],
				"k": [0,-0.2990127639,-0.5476804743,-0.7158571901,-0.8188898708,-0.869547547,-0.8790976074,-0.8575690599,-0.8137572132,-0.7551863688,-0.6881050182,-0.6175300198,-0.5473341678,-0.4803647088,-0.4185797498,-0.3631912604,-0.3148058358,-0.2735568513,-0.2392238187,-0.2113365667,-0.1892632872],
				"pk": [0,-2.515693567,-2.038433894,-1.599670256,-1.215959873,-0.8910959857,-0.6230689346,-0.4072229149,-0.2377600815,-0.1085101192,-0.01335719584,0.0535071454,0.09743075353,0.1232122576,0.1350583973,0.136575502,0.1307864177,0.1201658243,0.1066880227,0.09188222963,0.076891313],
				"c": [0,-0.4486784212,-0.8153439342,-1.087147022,-1.265159031,-1.358215781,-1.379129282,-1.342260883,-1.261952683,-1.151540047,-1.022774372,-0.8855394001,-0.7477755246,-0.6155468706,-0.4932008676,-0.3835817613,-0.288269059,-0.2078197464,-0.1419995023,-0.08999328246,-0.05058968193],
				"inve": [0,-1.370033989,-2.32614048,-2.946303396,-3.302373803,-3.457292159,-3.464425444,-3.367867907,-3.20318335,-2.998340132,-2.774711474,-2.548070233,-2.32953601,-2.126448932,-1.943155097,-1.781696257,-1.642402003,-1.524386899,-1.425958131,-1.344941304,-1.27893329],
				"y": [0,-0.3339839449,-0.641013742,-0.8450793255,-0.9634851526,-1.013277195,-1.010258649,-0.9684774719,-0.8999995045,-0.8148644053,-0.7211610171,-0.6251791102,-0.5316064068,-0.4437478311,-0.3637499462,-0.2928183064,-0.2314193135,-0.1794612811,-0.1364518834,-0.1016310716,-0.07407995655],
				"lab": [0,-0.1881273614,-0.3676006756,-0.4861640071,-0.5536009109,-0.5801337705,-0.5753818195,-0.5478926424,-0.5049626191,-0.4526115719,-0.3956432186,-0.3377534811,-0.2816635887,-0.2292629485,-0.1817516391,-0.1397756908,-0.1035507391,-0.0729714751,-0.04770571504,-0.02727296021,-0.01110807894],
				"pinf": [0,-0.1583916921,-0.2190047268,-0.2346485756,-0.228893254,-0.2126897979,-0.19146938,-0.1681713879,-0.1445372073,-0.1216693722,-0.1002820305,-0.08082291654,-0.06354209252,-0.04853821247,-0.03579441105,-0.02520829374,-0.01661753133,-0.009821516628,-0.004599262938,-0.0007237242238,0.002027205385],
				"w": [0,-0.1577920786,-0.2597298154,-0.3252698458,-0.3640416103,-0.3818764372,-0.383146388,-0.3715905793,-0.3505504897,-0.3229976258,-0.2915073837,-0.2582359822,-0.2249172552,-0.1928803145,-0.1630836084,-0.1361596847,-0.1124654086,-0.09213339525,-0.07512151217,-0.06125830792,-0.05028306502],
				"r": [0,0.2197978168,0.1640501992,0.1126774479,0.06795698722,0.03050043128,0.0001422351205,-0.02365220736,-0.0415881216,-0.05443690307,-0.06297620212,-0.0679531812,-0.07006142586,-0.06992694313,-0.06810074515,-0.06505639098,-0.0611912609,-0.05683055871,-0.05223319512,-0.04759884132,-0.04307556907],
				"a": [0,0,7.241051559e-33,9.89069181e-33,1.087635326e-32,1.116659205e-32,1.116918878e-32,1.105502081e-32,1.089521937e-32,1.071911163e-32,1.053861609e-32,1.035846666e-32,1.018047021e-32,1.000526364e-32,9.833029817e-33,9.663783811e-33,9.497484073e-33,9.334073633e-33,9.173494131e-33,9.01568977e-33,8.860607841e-33],
				"b": [0,0,3.706455093e-33,1.834395745e-33,9.664652796e-34,5.324974653e-34,3.016543391e-34,1.734695059e-34,1.004337098e-34,5.826393925e-35,3.378213061e-35,1.955380517e-35,1.129411999e-35,6.509443273e-36,3.744403647e-36,2.150202001e-36,1.232964886e-36,7.061668235e-37,4.040608388e-37,2.310214762e-37,1.320058919e-37],
				"g": [0,1.786610669e-16,-1.01351388e-15,-2.156750427e-15,-3.187926905e-15,-4.043879559e-15,-4.705680702e-15,-5.176986756e-15,-5.473211282e-15,-5.615666152e-15,-5.62812496e-15,-5.53467983e-15,-5.358369282e-15,-5.120315365e-15,-4.839222005e-15,-4.531138367e-15,-4.209417018e-15,-3.8848119e-15,-3.565671812e-15,-3.258193659e-15,-2.966707082e-15],
				"qs": [0,2.153123158e-16,9.183070271e-17,3.916579471e-17,1.670421144e-17,7.12434618e-18,3.038533646e-18,1.2959346e-18,5.527161069e-19,2.357334196e-19,1.005403034e-19,4.288043942e-20,1.828850741e-20,7.800048412e-21,3.326720648e-21,1.418846356e-21,6.051379709e-22,2.580913446e-22,1.100759585e-22,4.694739629e-23,2.002306452e-23],
				"spinf": [0,0,-2.275716056e-33,-6.735095012e-34,-3.211649479e-34,-1.629720769e-34,-8.64646081e-35,-4.723037985e-35,-2.626656285e-35,-1.47642517e-35,-8.350306972e-36,-4.739457883e-36,-2.695421864e-36,-1.53467989e-36,-8.743532332e-37,-4.98324984e-37,-2.840707737e-37,-1.619533884e-37,-9.233820242e-38,-5.264880017e-38,-3.001956268e-38],
				"sw": [0,2.858106554e-17,3.378281947e-18,1.926296366e-18,1.098374188e-18,6.262929619e-19,3.571122469e-19,2.036254032e-19,1.161072049e-19,6.620432823e-20,3.774970796e-20,2.152488348e-20,1.227348856e-20,6.998343176e-21,3.990455279e-21,2.2753576e-21,1.297408904e-21,7.397825568e-22,4.218240139e-22,2.405240527e-22,1.371468149e-22],
				"kp": [0,-0.03994098758,-0.1065912067,-0.1893781377,-0.280132179,-0.3727568206,-0.4628891086,-0.5475787755,-0.6249983653,-0.6941890677,-0.7548431246,-0.8071215807,-0.8515049582,-0.8886737598,-0.9194153518,-0.9445536704,-0.9648982399,-0.9812091707,-0.9941750626,-1.00440105,-1.012404566],
				"rr": [0,-2.43529214,0.5410517401,0.4877477248,0.4200946711,0.3508731225,0.2857318185,0.227091752,0.175846137,0.1321187169,0.0956190122,0.06582327959,0.04207778408,0.02366493661,0.009849319001,-8.909607165e-05,-0.006831127556,-0.01100208029,-0.01316162088,-0.01379871591,-0.01333061476],
				"er": [0,0.5410517401,0.4877477248,0.4200946711,0.3508731225,0.2857318185,0.227091752,0.175846137,0.1321187169,0.0956190122,0.06582327959,0.04207778408,0.02366493661,0.009849319001,-8.909607165e-05,-0.006831127556,-0.01100208029,-0.01316162088,-0.01379871591,-0.01333061476,-0.01210494266],
				"ec": [0,0.5410517401,0.4877477248,0.4200946711,0.3508731225,0.2857318185,0.227091752,0.175846137,0.1321187169,0.0956190122,0.06582327959,0.04207778408,0.02366493661,0.009849319001,-8.909607165e-05,-0.006831127556,-0.01100208029,-0.01316162088,-0.01379871591,-0.01333061476,-0.01210494266],
				"nw": [0,-8.005020873,-7.106365637,-6.301515729,-5.599638445,-4.997293646,-4.485827912,-4.054697409,-3.693013047,-3.390289624,-3.136820853,-2.923864131,-2.743718135,-2.589733724,-2.456280507,-2.338683377,-2.233139417,-2.136623255,-2.046787318,-1.96186205,-1.880559932],
				"prem": [0,0.1022491965,0.08904895,0.07852396919,0.0702263374,0.06376200723,0.05877812898,0.05496113705,0.05203746632,0.04977388477,0.04797656518,0.04648887276,0.04518815,0.04398185108,0.04280335534,0.04160773209,0.04036766398,0.03906967488,0.03771075499,0.03629543195,0.03483330276],
				"pinf4": [0,-0.1583916921,-0.3773964189,-0.6120449945,-0.8409382485,-0.8952363543,-0.8677010075,-0.8012238199,-0.7168677732,-0.6258473474,-0.5346599979,-0.4473115265,-0.3663164117,-0.293185252,-0.2286976326,-0.1730830098,-0.1261584486,-0.08744175275,-0.05624660464,-0.03176203512,-0.0131172984],
				"eg": [0,1.191073779e-16,-7.858383337e-16,-8.129009597e-16,-7.954322903e-16,-7.30243976e-16,-6.436643321e-16,-5.498017834e-16,-4.566774874e-16,-3.689953585e-16,-2.894635571e-16,-2.194847026e-16,-1.595626049e-16,-1.095730775e-16,-6.896154911e-17,-3.689462313e-17,-1.237809494e-17,5.651933304e-18,1.8260476e-17,2.646413329e-17,3.119748895e-17],
				"interest": [0,0.8791912672,0.6562007968,0.4507097915,0.2718279489,0.1220017251,0.0005689404821,-0.09460882946,-0.1663524864,-0.2177476123,-0.2519048085,-0.2718127248,-0.2802457034,-0.2797077725,-0.2724029806,-0.2602255639,-0.2447650436,-0.2273222348,-0.2089327805,-0.1903953653,-0.1723022763],
				"inflation": [0,-0.1583916921,-0.3773964189,-0.6120449945,-0.8409382485,-0.8952363543,-0.8677010075,-0.8012238199,-0.7168677732,-0.6258473474,-0.5346599979,-0.4473115265,-0.3663164117,-0.293185252,-0.2286976326,-0.1730830098,-0.1261584486,-0.08744175275,-0.05624660464,-0.03176203512,-0.0131172984],
				"inflationq": [0,-0.6335667684,-0.8760189072,-0.9385943025,-0.9155730161,-0.8507591916,-0.76587752,-0.6726855517,-0.5781488293,-0.4866774887,-0.401128122,-0.3232916662,-0.2541683701,-0.1941528499,-0.1431776442,-0.100833175,-0.06647012534,-0.03928606651,-0.01839705175,-0.002894896895,0.008108821542],
				"inflationql": [0,8.880662704e-18,-0.6335667684,-0.8760189072,-0.9385943025,-0.9155730161,-0.8507591916,-0.76587752,-0.6726855517,-0.5781488293,-0.4866774887,-0.401128122,-0.3232916662,-0.2541683701,-0.1941528499,-0.1431776442,-0.100833175,-0.06647012534,-0.03928606651,-0.01839705175,-0.002894896895],
				"inflationql2": [0,-2.617929688e-18,3.117288472e-15,-0.6335667684,-0.8760189072,-0.9385943025,-0.9155730161,-0.8507591916,-0.76587752,-0.6726855517,-0.5781488293,-0.4866774887,-0.401128122,-0.3232916662,-0.2541683701,-0.1941528499,-0.1431776442,-0.100833175,-0.06647012534,-0.03928606651,-0.01839705175],
				"inflationqls": [0,6.262733016e-18,-0.6335667684,-1.509585676,-1.81461321,-1.854167319,-1.766332208,-1.616636712,-1.438563072,-1.250834381,-1.064826318,-0.8878056107,-0.7244197882,-0.5774600362,-0.44832122,-0.3373304941,-0.2440108191,-0.1673033003,-0.1057561918,-0.05768311826,-0.02129194865],
				"outputgap": [0,-0.3339839449,-0.641013742,-0.8450793255,-0.9634851526,-1.013277195,-1.010258649,-0.9684774719,-0.8999995045,-0.8148644053,-0.7211610171,-0.6251791102,-0.5316064068,-0.4437478311,-0.3637499462,-0.2928183064,-0.2314193135,-0.1794612811,-0.1364518834,-0.1016310716,-0.07407995655],
				"output": [0,-0.3339839449,-0.641013742,-0.8450793255,-0.9634851526,-1.013277195,-1.010258649,-0.9684774719,-0.8999995045,-0.8148644053,-0.7211610171,-0.6251791102,-0.5316064068,-0.4437478311,-0.3637499462,-0.2928183064,-0.2314193135,-0.1794612811,-0.1364518834,-0.1016310716,-0.07407995655],
				"fispol": [0,5.955368897e-17,-3.929191668e-16,-4.064504798e-16,-3.977161451e-16,-3.65121988e-16,-3.218321661e-16,-2.749008917e-16,-2.283387437e-16,-1.844976793e-16,-1.447317786e-16,-1.097423513e-16,-7.978130244e-17,-5.478653874e-17,-3.448077455e-17,-1.844731157e-17,-6.189047471e-18,2.825966652e-18,9.130237999e-18,1.323206665e-17,1.559874447e-17],
				"neww": [0,2.913498272e-32,-1.746187533e-31,-2.010530863e-31,-2.037641918e-31,-2.01364248e-31,-1.930071246e-31,-1.796879653e-31,-1.628977452e-31,-1.440877346e-31,-1.244784973e-31,-1.050141081e-31,-8.637570506e-32,-6.901713627e-32,-5.320648215e-32,-3.906642931e-32,-2.661056655e-32,-1.577454609e-32,-6.44193808e-33,1.534963749e-33,8.318917939e-33]
			},
			"fiscal_": {
				"ewma": [0,1.084802104e-16,4.817568597e-33,2.139465539e-49,9.501292407e-66,4.219491072e-82,1.87386138e-98,8.32175353e-115,3.695661939e-131,1.641230676e-147,7.288648623e-164,3.236863626e-180,1.437479933e-196,6.383798626e-213,2.835022874e-229,1.259023846e-245,5.59128132e-262,2.483068682e-278,1.102722207e-294,4.897151153e-311,0],
				"epinfma": [0,0,-2.100009655e-33,-1.599498619e-34,-9.120341124e-35,-5.200418509e-35,-2.965278634e-35,-1.690801877e-35,-9.640952303e-36,-5.497271003e-36,-3.134543926e-36,-1.787316947e-36,-1.019128123e-36,-5.811068557e-37,-3.313471291e-37,-1.88934133e-37,-1.077302426e-37,-6.142778436e-38,-3.502612264e-38,-1.997189513e-38,-1.13879746e-38],
				"mc": [0,0.09093567163,0.126673981,0.1396470283,0.1375882369,0.1260359118,0.1090305013,0.08950711309,0.06954946714,0.05057553046,0.03348443694,0.01877731715,0.006657741828,-0.002885213478,-0.01000924387,-0.01496469402,-0.01805238108,-0.01959173271,-0.01989765853,-0.01926465531,-0.01795675995],
				"zcap": [0,0.6903611763,0.6746085843,0.6421009728,0.6028940917,0.563908411,0.5297101194,0.5030594104,0.4853370998,0.4768942125,0.4773426846,0.4857954646,0.5010611285,0.521797465,0.5466285944,0.5742303968,0.6033890893,0.6330376816,0.6622747551,0.6903696073,0.7167573274],
				"rk": [0,0.1082982132,0.1058270755,0.1007275473,0.09457709259,0.08846133796,0.08309658976,0.07891584458,0.07613571349,0.07481126239,0.07488161502,0.07620761799,0.07860237046,0.08185531727,0.08575062171,0.09008056665,0.09465474376,0.09930577235,0.1038922452,0.1082995358,0.1124390254],
				"k": [0,0.6903611763,0.6602520799,0.6011904303,0.5253433834,0.4416837412,0.3567366548,0.275089981,0.1997882364,0.1326584866,0.07458727411,0.02575636156,-0.01415885619,-0.04582541718,-0.07012044783,-0.0880272378,-0.1005563212,-0.1086880481,-0.1133331757,-0.115308176,-0.115322221],
				"pk": [0,-0.3690804497,-0.3709833981,-0.3702177915,-0.3620283241,-0.3454864604,-0.321479041,-0.2916838054,-0.2580240274,-0.2223714144,-0.1863874266,-0.1514470142,-0.1186135712,-0.0886460378,-0.06202558066,-0.03899316649,-0.01959192683,-0.003710069291,0.008878515237,0.01847773735,0.02543786747],
				"c": [0,0.3446570216,0.5326504413,0.6065404253,0.6009811266,0.5434206219,0.4550275092,0.351654436,0.2447555869,0.1422224419,0.04912387673,-0.03165266281,-0.09885651424,-0.1524200473,-0.193088262,-0.2221231118,-0.2410734384,-0.2516013587,-0.2553562314,-0.2538878693,-0.2485913714],
				"inve": [0,-0.4924489894,-0.9251986481,-1.297721543,-1.609932588,-1.862982171,-2.059415079,-2.203027793,-2.298593634,-2.351546056,-2.367669414,-2.352823635,-2.312715613,-2.252721654,-2.177759976,-2.092209,-1.999865331,-1.903934528,-1.807047624,-1.71129674,-1.618283771],
				"y": [0,1.124289898,1.01575906,0.8932236302,0.7662329949,0.6419678233,0.5255132379,0.4201826547,0.3278465034,0.2492421556,0.1842529008,0.1321503319,0.0917984781,0.06182054942,0.04073077904,0.02703483112,0.01930276673,0.01621874336,0.0166115582,0.01946990557,0.02394586438],
				"lab": [0,0.712048088,0.6342129773,0.5525775388,0.4716197457,0.3947507237,0.3243435602,0.2618608172,0.2080148744,0.1629304476,0.126294966,0.09749043706,0.07570453206,0.06002086155,0.04948967655,0.0431809319,0.04022200115,0.03982245038,0.04128823795,0.04402756106,0.0475503563],
				"pinf": [0,0.03956432778,0.05209094689,0.05165323328,0.04517677267,0.036245827,0.02679530375,0.01788642132,0.01008124681,0.003637942039,-0.001377375857,-0.005020287768,-0.007420548816,-0.008748652139,-0.009192045159,-0.008938453055,-0.008164632013,-0.007029311792,-0.005669342744,-0.00419824014,-0.002706460412],
				"w": [0,0.08661130141,0.131866178,0.1493404388,0.1483007303,0.1353943555,0.1154896844,0.09214500834,0.06790907553,0.04453930145,0.02317392319,0.0044735425,-0.01126101779,-0.02399096146,-0.03385950267,-0.04112760305,-0.04612357855,-0.04920472611,-0.05072916841,-0.05103620129,-0.05043355187],
				"r": [0,0.03649384647,0.04051670705,0.0434795966,0.04489664265,0.04475367594,0.04325431944,0.04069072604,0.03737500692,0.03360223213,0.02963110729,0.02567520599,0.0219007642,0.01842857784,0.01533837208,0.01267451036,0.01045224595,0.008663961686,0.007285026874,0.006279040889,0.005602339527],
				"a": [0,1.512640985e-16,1.48662356e-16,1.461053635e-16,1.435923512e-16,1.411225628e-16,1.386952547e-16,1.363096963e-16,1.339651696e-16,1.316609686e-16,1.293964e-16,1.271707819e-16,1.249834444e-16,1.228337292e-16,1.207209891e-16,1.18644588e-16,1.166039011e-16,1.14598314e-16,1.12627223e-16,1.106900348e-16,1.087861662e-16],
				"b": [0,0,1.600696761e-32,8.542021828e-33,4.633969567e-33,2.546337663e-33,1.412937653e-33,7.897830015e-34,4.438560945e-34,2.504371716e-34,1.417132301e-34,8.035876107e-35,4.563692126e-35,2.594642015e-35,1.476333857e-35,8.405089242e-36,4.787202058e-36,2.727426467e-36,1.5542475e-36,8.858436114e-37,5.049458225e-37],
				"g": [0,1,0.9249,0.85544001,0.7911964652,0.7317776107,0.6768211121,0.6259918466,0.5789798589,0.5354984715,0.4952825363,0.4580868178,0.4236844978,0.391865792,0.3624366711,0.3352176771,0.3100428295,0.286758613,0.2652230412,0.2453047908,0.226882401],
				"qs": [0,-7.177077195e-17,-3.061023424e-17,-1.30552649e-17,-5.568070481e-18,-2.37478206e-18,-1.012844549e-18,-4.319782e-19,-1.842387023e-19,-7.857780653e-20,-3.351343448e-20,-1.429347981e-20,-6.096169138e-21,-2.600016137e-21,-1.108906883e-21,-4.729487854e-22,-2.01712657e-22,-8.60304482e-23,-3.669198616e-23,-1.56491321e-23,-6.674354839e-24],
				"spinf": [0,0,-8.637542092e-33,-2.556323602e-33,-1.218990282e-33,-6.185649437e-34,-3.281787681e-34,-1.792641893e-34,-9.969545259e-35,-5.603811826e-35,-3.169381688e-35,-1.79887411e-35,-1.023054688e-35,-5.824919198e-36,-3.318631441e-36,-1.89140601e-36,-1.078198336e-36,-6.146984837e-37,-3.504721549e-37,-1.998299508e-37,-1.139400654e-37],
				"sw": [0,1.084802104e-16,1.282236087e-17,7.311310169e-18,4.168909058e-18,2.377111945e-18,1.355429231e-18,7.728657475e-19,4.406880492e-19,2.512803257e-19,1.432800417e-19,8.169827978e-20,4.658435913e-20,2.656240158e-20,1.514588138e-20,8.636181562e-21,4.924350727e-21,2.807864784e-21,1.6010445e-21,9.129155739e-22,5.205444603e-22],
				"kp": [0,-0.01435650439,-0.0409105425,-0.07755070835,-0.1222246698,-0.1729734646,-0.2279694294,-0.2855488634,-0.3442357258,-0.4027554104,-0.460039103,-0.5152199847,-0.5676228821,-0.6167490423,-0.6622576346,-0.7039454104,-0.7417257297,-0.7756079308,-0.8056777833,-0.8320795484,-0.854999982],
				"rr": [0,-0.3535335729,0.01362542414,0.01610296816,0.02305981817,0.03067431971,0.03718330671,0.04186462111,0.04454241841,0.0453310147,0.0444927837,0.04235448176,0.03925621002,0.0355202817,0.03143311131,0.02723598166,0.02312193154,0.01923679298,0.01568291377,0.01252446478,0.009793512488],
				"er": [0,0.01362542414,0.01610296816,0.02305981817,0.03067431971,0.03718330671,0.04186462111,0.04454241841,0.0453310147,0.0444927837,0.04235448176,0.03925621002,0.0355202817,0.03143311131,0.02723598166,0.02312193154,0.01923679298,0.01568291377,0.01252446478,0.009793512488,0.007496260674],
				"ec": [0,0.01362542414,0.01610296816,0.02305981817,0.03067431971,0.03718330671,0.04186462111,0.04454241841,0.0453310147,0.0444927837,0.04235448176,0.03925621002,0.0355202817,0.03143311131,0.02723598166,0.02312193154,0.01923679298,0.01568291377,0.01252446478,0.009793512488,0.007496260674],
				"nw": [0,-1.162096154,-1.093446769,-1.025727576,-0.9546293094,-0.8796877201,-0.8021394925,-0.72384962,-0.6467611627,-0.5726152481,-0.5028197821,-0.4384041157,-0.3800244763,-0.3279987801,-0.2823570195,-0.2428980271,-0.2092464834,-0.1809062056,-0.1573073391,-0.137846235,-0.1219176353],
				"prem": [0,0.02922252455,0.02723949438,0.02475699423,0.02202350406,0.01922493452,0.01649672299,0.01393293917,0.01159394982,0.00951317571,0.007703086704,0.006160455223,0.004870865364,0.003812488305,0.002959156523,0.002282789169,0.001755235237,0.001349609338,0.001041197769,0.0008080111873,0.0006310556514],
				"pinf4": [0,0.03956432778,0.09165527467,0.1433085079,0.1884852806,0.1851667798,0.1598711367,0.1261043247,0.09100879889,0.05840091392,0.03022823432,0.007321525227,-0.0101802704,-0.02256686458,-0.03038153388,-0.03429969917,-0.03504378236,-0.03332444202,-0.0298017396,-0.02506152669,-0.01960335509],
				"eg": [0,1,-5.031351194e-17,-1.034305414e-16,-1.485577008e-16,-1.895996926e-16,-2.224077384e-16,-2.457659604e-16,-2.59881369e-16,-2.656528026e-16,-2.642935751e-16,-2.571228886e-16,-2.454441256e-16,-2.304723928e-16,-2.132928128e-16,-1.948394587e-16,-1.758886784e-16,-1.570624773e-16,-1.388387195e-16,-1.215656452e-16,-1.054787545e-16],
				"interest": [0,0.1459753859,0.1620668282,0.1739183864,0.1795865706,0.1790147038,0.1730172778,0.1627629042,0.1495000277,0.1344089285,0.1185244292,0.1027008239,0.08760305681,0.07371431138,0.06135348833,0.05069804144,0.04180898381,0.03465584674,0.0291401075,0.02511616356,0.02240935811],
				"inflation": [0,0.03956432778,0.09165527467,0.1433085079,0.1884852806,0.1851667798,0.1598711367,0.1261043247,0.09100879889,0.05840091392,0.03022823432,0.007321525227,-0.0101802704,-0.02256686458,-0.03038153388,-0.03429969917,-0.03504378236,-0.03332444202,-0.0298017396,-0.02506152669,-0.01960335509],
				"inflationq": [0,0.1582573111,0.2083637876,0.2066129331,0.1807070907,0.144983308,0.107181215,0.07154568529,0.04032498725,0.01455176815,-0.005509503429,-0.02008115107,-0.02968219526,-0.03499460856,-0.03676818063,-0.03575381222,-0.03265852805,-0.02811724717,-0.02267737097,-0.01679296056,-0.01082584165],
				"inflationql": [0,3.568515638e-17,0.1582573111,0.2083637876,0.2066129331,0.1807070907,0.144983308,0.107181215,0.07154568529,0.04032498725,0.01455176815,-0.005509503429,-0.02008115107,-0.02968219526,-0.03499460856,-0.03676818063,-0.03575381222,-0.03265852805,-0.02811724717,-0.02267737097,-0.01679296056],
				"inflationql2": [0,6.981145834e-18,5.622307165e-16,0.1582573111,0.2083637876,0.2066129331,0.1807070907,0.144983308,0.107181215,0.07154568529,0.04032498725,0.01455176815,-0.005509503429,-0.02008115107,-0.02968219526,-0.03499460856,-0.03676818063,-0.03575381222,-0.03265852805,-0.02811724717,-0.02267737097],
				"inflationqls": [0,4.266630221e-17,0.1582573111,0.3666210987,0.4149767207,0.3873200238,0.3256903987,0.252164523,0.1787269003,0.1118706725,0.05487675541,0.009042264725,-0.0255906545,-0.04976334634,-0.06467680382,-0.07176278919,-0.07252199285,-0.06841234027,-0.06077577522,-0.05079461814,-0.03947033153],
				"outputgap": [0,1.124289898,1.01575906,0.8932236302,0.7662329949,0.6419678233,0.5255132379,0.4201826547,0.3278465034,0.2492421556,0.1842529008,0.1321503319,0.0917984781,0.06182054942,0.04073077904,0.02703483112,0.01930276673,0.01621874336,0.0166115582,0.01946990557,0.02394586438],
				"output": [0,1.124289898,1.01575906,0.8932236302,0.7662329949,0.6419678233,0.5255132379,0.4201826547,0.3278465034,0.2492421556,0.1842529008,0.1321503319,0.0917984781,0.06182054942,0.04073077904,0.02703483112,0.01930276673,0.01621874336,0.0166115582,0.01946990557,0.02394586438],
				"fispol": [0,1,-6.825942321e-18,-3.476110113e-17,-5.859793897e-17,-8.029657136e-17,-9.77897902e-17,-1.104762985e-16,-1.184657446e-16,-1.222132294e-16,-1.223306648e-16,-1.194825124e-16,-1.143249587e-16,-1.074697148e-16,-9.946318761e-17,-9.077597025e-17,-8.179952641e-17,-7.28479013e-17,-6.416284107e-17,-5.592106844e-17,-4.824274082e-17],
				"neww": [0,-4.983196342e-32,3.46217003e-32,2.297772281e-32,5.333640534e-33,-8.060238099e-33,-1.783206101e-32,-2.442745939e-32,-2.822660989e-32,-2.959406931e-32,-2.889241559e-32,-2.647972497e-32,-2.270148205e-32,-1.788193465e-32,-1.231699609e-32,-6.26937665e-33,3.403605624e-35,6.402817703e-33,1.268204606e-32,1.875013391e-32,2.45158269e-32]
			}
		}
	}
}
