{
	"model": "US_YR13",
	"rule": "Coenen",
	"data": {
		"AC": {
			"ewma": [1,-1.881488917e-17,3.540000543e-34,-6.660471786e-51,1.253160385e-67,-2.357807374e-84,4.436188442e-101,-8.346639385e-118,1.570410949e-134,-2.954710796e-151,5.559255614e-168,-1.045967782e-184,1.967976789e-201,-3.702726517e-218,6.966638902e-235,-1.310765388e-251,2.46619055e-268,-4.640110186e-285,8.730315886e-302,-1.642555824e-318,0],
			"epinfma": [1,3.138377028e-17,2.058178896e-32,1.117412268e-32,6.371484755e-33,3.633020607e-33,2.07154835e-33,1.181196869e-33,6.735184548e-34,3.84040223e-34,2.189797351e-34,1.24862245e-34,7.119645208e-35,4.059621698e-35,2.314796292e-35,1.319896846e-35,7.526051814e-36,4.291354744e-36,2.446930475e-36,1.395239757e-36,7.955657095e-37],
			"mc": [1,0.7408066619,0.5153442056,0.3358938681,0.2015023323,0.1060348244,0.04184134044,0.001462247011,-0.02162417866,-0.03274783365,-0.03604808715,-0.03459914224,-0.03058520451,-0.02548386328,-0.02023565749,-0.01538964691,-0.01122186493,-0.007827536692,-0.005190013274,-0.003230224099,-0.00184056939],
			"zcap": [1,0.9988935998,0.9972007493,0.995102305,0.9926823081,0.9899780484,0.9870044982,0.9837668179,0.9802668796,0.9765065857,0.9724893988,0.9682208635,0.9637085768,0.9589618832,0.9539914607,0.9488088934,0.9434262832,0.9378559257,0.9321100544,0.9262006532,0.9201393254],
			"rk": [1,0.9988935998,0.9972007493,0.995102305,0.9926823081,0.9899780484,0.9870044982,0.9837668179,0.9802668796,0.9765065857,0.9724893988,0.9682208635,0.9637085768,0.9589618832,0.9539914607,0.9488088934,0.9434262832,0.9378559257,0.9321100544,0.9262006532,0.9201393254],
			"k": [1,0.9862018706,0.968070815,0.9489598315,0.930479304,0.9133355893,0.8977502301,0.8836869004,0.8709815448,0.8594188678,0.848776719,0.8388503892,0.8294641917,0.8204751411,0.811771962,0.8032715943,0.7949146159,0.7866604724,0.7784830326,0.7703667342,0.7623034158],
			"pk": [1,0.5485601606,0.3323339374,0.2158059248,0.1450113968,0.09799256362,0.06524161125,0.04210022647,0.02586213716,0.01469148978,0.007223183185,0.00240868152,-0.0005552252929,-0.002271754644,-0.003181387161,-0.003595266499,-0.00372491496,-0.003707715495,-0.003627868998,-0.003532944355,-0.003446446885],
			"c": [1,0.9943240278,0.9820910225,0.9661017744,0.9482140721,0.9297256172,0.9115303339,0.8942052412,0.8780779314,0.863286933,0.8498356838,0.8376385574,0.8265579183,0.8164322173,0.8070959465,0.7983927324,0.7901829963,0.7823475657,0.7747884484,0.7674277686,0.7602056379],
			"inve": [1,0.9951734192,0.9852107454,0.9724318497,0.9581355694,0.9430999072,0.9278072325,0.9125561461,0.8975246062,0.8828100467,0.8684569226,0.8544762152,0.840859199,0.8275869051,0.8146363459,0.8019843487,0.7896096866,0.7774940499,0.7656222738,0.7539821295,0.7425638924],
			"y": [1,0.9788610757,0.9473861823,0.9109376074,0.8726730732,0.8345502763,0.7977735159,0.7630299375,0.7306422723,0.7006818017,0.6730558787,0.647575101,0.624002973,0.6020906788,0.5815997145,0.5623151044,0.5440516993,0.5266556995,0.5100031241,0.4939965433,0.4785610198],
			"lab": [1,0.9700903323,0.9367953922,0.9048442384,0.8760115812,0.8507426011,0.8288846066,0.8100328249,0.7937010827,0.7794077069,0.7667174091,0.7552589664,0.7447292162,0.7348894366,0.72555782,0.7166003586,0.707921571,0.6994559025,0.6911602276,0.6830076186,0.6749823698],
			"pinf": [1,0.4263274111,0.2630021663,0.1985590884,0.1590220421,0.1297866209,0.1084564495,0.09398848868,0.08500407837,0.07996062151,0.07745485578,0.07637346575,0.07591897702,0.0755718752,0.0750304154,0.07414981265,0.07289011397,0.07127547145,0.06936441697,0.0672294757,0.06494412279],
			"w": [1,0.9894223615,0.9757602818,0.9608724302,0.9457044186,0.9307299641,0.9161655791,0.9020864343,0.888492616,0.8753477342,0.8626011727,0.8502004243,0.8380974099,0.8262512092,0.814628723,0.8032042221,0.7919583649,0.780877035,0.7699501982,0.75917088,0.7485343078],
			"r": [1,0.897354582,0.7677486897,0.6490468443,0.5475024921,0.4632598583,0.3952483512,0.3418449733,0.3010138824,0.2705049223,0.2480793322,0.2316904028,0.2195920212,0.2103804179,0.2029871281,0.1966423589,0.1908243543,0.1852056511,0.1796029127,0.1739338161,0.1681822536],
			"a": [1,0.9828,0.96589584,0.9492824316,0.9329547737,0.9169079516,0.9011371349,0.8856375761,0.8704046098,0.8554336505,0.8407201917,0.8262598044,0.8120481358,0.7980809079,0.7843539163,0.7708630289,0.7576041848,0.7445733928,0.7317667305,0.7191803427,0.7068104408],
			"b": [1,0.3881,0.15062161,0.05845624684,0.0226868694,0.008804774014,0.003417132795,0.001326189238,0.0005146940431,0.0001997527581,7.752404543e-05,3.008708203e-05,1.167679654e-05,4.531764736e-06,1.758777894e-06,6.825817007e-07,2.64909958e-07,1.028115547e-07,3.990116438e-08,1.54856419e-08,6.00997762e-09],
			"g": [1,0.9249,0.85544001,0.7911964652,0.7317776107,0.6768211121,0.6259918466,0.5789798589,0.5354984715,0.4952825363,0.4580868178,0.4236844978,0.391865792,0.3624366711,0.3352176771,0.3100428295,0.286758613,0.2652230412,0.2453047908,0.226882401,0.2098435327],
			"qs": [1,0.4265,0.18190225,0.07758130962,0.03308842856,0.01411221478,0.006018859603,0.002567043621,0.001094844104,0.0004669510105,0.000199154606,8.493943944e-05,3.622667092e-05,1.545067515e-05,6.589712951e-06,2.810512573e-06,1.198683613e-06,5.112385608e-07,2.180432462e-07,9.299544449e-08,3.966255708e-08],
			"spinf": [1,-0.1636401803,-0.0524630418,-0.0168196512,-0.005392380175,-0.001728797084,-0.0005542523452,-0.0001776933019,-5.696847258e-05,-1.826409231e-05,-5.855467994e-06,-1.877263039e-06,-6.018505303e-07,-1.9295328e-07,-6.186082157e-08,-1.98325794e-08,-6.358324954e-09,-2.03847898e-09,-6.535363611e-10,-2.095237574e-10,-6.717331661e-11],
			"sw": [1,0.1273675442,0.0726249737,0.04141076,0.02361241535,0.01346379924,0.007677058324,0.004377458656,0.002496026926,0.001423234553,0.0008115283422,0.0004627334607,0.0002638506193,0.0001504476231,8.57852347e-05,4.891474083e-05,2.789118522e-05,1.590355381e-05,9.068206384e-06,5.17069128e-06,2.948328168e-06],
			"kp": [1,0.9997642818,0.9990827256,0.9979780297,0.9964718606,0.9945853107,0.9923388674,0.9897522671,0.9868443698,0.9836330924,0.9801353961,0.9763673153,0.9723440121,0.9680798428,0.9635884265,0.9588827117,0.9539750353,0.9488771742,0.9436003881,0.9381554557,0.9325527041],
			"rr": [1,-0.2594775058,-0.1096198861,-0.0499520741,-0.02568678381,-0.01519374716,-0.01006492244,-0.007094060144,-0.005083862327,-0.003591841288,-0.002447409106,-0.001571961588,-0.0009156714449,-0.0004376877727,-0.0001014168576,0.0001256961125,0.0002715719183,0.0003591780047,0.0004066551946,0.0004277822854,0.0004326238525],
			"er": [1,0.4429080839,0.2091141237,0.1071601268,0.06010451569,0.03676343784,0.02425622141,0.01707354563,0.01272433639,0.00999396323,0.00823788462,0.007086932031,0.006317809364,0.005791442061,0.005420506477,0.005150536572,0.004948075001,0.004792929148,0.004673051288,0.004581189295,0.004512755098],
			"ec": [1,0.4429080839,0.2091141237,0.1071601268,0.06010451569,0.03676343784,0.02425622141,0.01707354563,0.01272433639,0.00999396323,0.00823788462,0.007086932031,0.006317809364,0.005791442061,0.005420506477,0.005150536572,0.004948075001,0.004792929148,0.004673051288,0.004581189295,0.004512755098],
			"nw": [1,0.9047151668,0.8382332477,0.7853618577,0.739850122,0.6990109137,0.6615845835,0.6268962093,0.5945244471,0.5641707033,0.5356058579,0.5086467034,0.4831437756,0.4589737271,0.4360337576,0.4142372242,0.39351011,0.373788202,0.3550148763,0.3371393953,0.3201156249],
			"prem": [1,0.9421468894,0.8903040111,0.8426107747,0.7981827551,0.7565255533,0.7173119294,0.6802966385,0.645282691,0.6121065125,0.5806300251,0.5507353912,0.522320979,0.4952980877,0.4695882778,0.445121228,0.4218330553,0.3996650259,0.3785625871,0.3584746536,0.3393530875],
			"pinf4": [1,0.8949708545,0.7244611128,0.5346502653,0.3602254947,0.2815858181,0.2337581783,0.201359877,0.1798213965,0.1663923356,0.1586379012,0.1544524473,0.1521892109,0.1506823337,0.1491869892,0.1472868087,0.1448000627,0.1416992201,0.1380483802,0.1339580164,0.1295543763],
			"eg": [1,-3.621880626e-17,-1.47658493e-16,-2.229873517e-16,-2.709106145e-16,-3.013755512e-16,-3.199101145e-16,-3.29910127e-16,-3.336643438e-16,-3.328266613e-16,-3.286444373e-16,-3.220780062e-16,-3.138706268e-16,-3.045948791e-16,-2.946869346e-16,-2.844737322e-16,-2.741953066e-16,-2.640233433e-16,-2.540765513e-16,-2.444332653e-16,-2.351416301e-16],
			"interest": [1,0.897354582,0.7677486897,0.6490468443,0.5475024921,0.4632598583,0.3952483512,0.3418449733,0.3010138824,0.2705049223,0.2480793322,0.2316904028,0.2195920212,0.2103804179,0.2029871281,0.1966423589,0.1908243543,0.1852056511,0.1796029127,0.1739338161,0.1681822536],
			"inflation": [1,0.8949708545,0.7244611128,0.5346502653,0.3602254947,0.2815858181,0.2337581783,0.201359877,0.1798213965,0.1663923356,0.1586379012,0.1544524473,0.1521892109,0.1506823337,0.1491869892,0.1472868087,0.1448000627,0.1416992201,0.1380483802,0.1339580164,0.1295543763],
			"inflationq": [1,0.4263274111,0.2630021663,0.1985590884,0.1590220421,0.1297866209,0.1084564495,0.09398848868,0.08500407837,0.07996062151,0.07745485578,0.07637346575,0.07591897702,0.0755718752,0.0750304154,0.07414981265,0.07289011397,0.07127547145,0.06936441697,0.0672294757,0.06494412279],
			"inflationql": [1,0.4263274111,0.2630021663,0.1985590884,0.1590220421,0.1297866209,0.1084564495,0.09398848868,0.08500407837,0.07996062151,0.07745485578,0.07637346575,0.07591897702,0.0755718752,0.0750304154,0.07414981265,0.07289011397,0.07127547145,0.06936441697,0.0672294757,0.06494412279],
			"inflationql2": [1,0.4263274111,0.2630021663,0.1985590884,0.1590220421,0.1297866209,0.1084564495,0.09398848868,0.08500407837,0.07996062151,0.07745485578,0.07637346575,0.07591897702,0.0755718752,0.0750304154,0.07414981265,0.07289011397,0.07127547145,0.06936441697,0.0672294757,0.06494412279],
			"inflationqls": [1,0.7416449309,0.4034455284,0.287150895,0.2265923618,0.1847583273,0.1544834675,0.1337131651,0.1205744432,0.1130105804,0.1091067158,0.1073108327,0.1064914313,0.1058989473,0.1050889565,0.1038401675,0.1020822813,0.09983874376,0.09718448195,0.09421661852,0.09103551869],
			"outputgap": [1,0.9388026047,0.868855567,0.8013292281,0.7406746393,0.6882049582,0.6437537296,0.606486831,0.5753205552,0.549142428,0.5269253645,0.5077806261,0.4909747224,0.4759253885,0.4621862409,0.4494263,0.4374082976,0.4259681197,0.4149966518,0.404424564,0.394210103],
			"output": [1,0.9788610757,0.9473861823,0.9109376074,0.8726730732,0.8345502763,0.7977735159,0.7630299375,0.7306422723,0.7006818017,0.6730558787,0.647575101,0.624002973,0.6020906788,0.5815997145,0.5623151044,0.5440516993,0.5266556995,0.5100031241,0.4939965433,0.4785610198],
			"fispol": [1,-3.056574982e-17,-8.535012154e-17,-1.221493332e-16,-1.453107247e-16,-1.598030512e-16,-1.683857756e-16,-1.72752635e-16,-1.740441457e-16,-1.730836852e-16,-1.704916296e-16,-1.667450913e-16,-1.622128744e-16,-1.571786557e-16,-1.518581041e-16,-1.464124537e-16,-1.409596543e-16,-1.355836364e-16,-1.303419858e-16,-1.252722342e-16,-1.203969409e-16],
			"neww": [1,-0.08696309046,-0.0278803668,-0.008938445596,-0.002865665658,-0.00091873241,-0.0002945456106,-9.443132277e-05,-3.027468208e-05,-9.706063075e-06,-3.111763822e-06,-9.976314813e-07,-3.198406529e-07,-1.025409133e-07,-3.287461681e-08,-1.053960215e-08,-3.378996449e-09,-1.083306262e-09,-3.473079875e-10,-1.113469408e-10,-3.569782921e-11]
		},
		"VAR": {
			"ewma": 0.05184729,
			"epinfma": 0.03429904,
			"mc": 0.6158924641,
			"zcap": 185.4688973,
			"rk": 4.564160967,
			"k": 12.67608976,
			"pk": 19.13277843,
			"c": 45.03436866,
			"inve": 401.4315929,
			"y": 14.95054946,
			"lab": 4.332255122,
			"pinf": 0.06238393979,
			"w": 11.95156921,
			"r": 0.4170877646,
			"a": 6.90578774,
			"b": 3.779878647,
			"g": 2.031717783,
			"qs": 0.1915868978,
			"spinf": 0.03555697933,
			"sw": 0.05292063572,
			"kp": 270.506329,
			"rr": 16.73132608,
			"er": 4.830322864,
			"ec": 4.830322864,
			"nw": 723.6970522,
			"prem": 0.2078120956,
			"pinf4": 0.4995139021,
			"eg": 0.21483225,
			"interest": 6.673404234,
			"inflation": 0.4995139021,
			"inflationq": 0.9981430367,
			"inflationql": 0.9981430367,
			"inflationql2": 0.9981430367,
			"inflationqls": 2.847357547,
			"outputgap": 5.035491212,
			"output": 14.95054946,
			"fispol": 0.21483225,
			"neww": 0.1384540993
		},
		"IRF": {
			"interest_": {
				"ewma": [0,-1.019999631e-17,1.919118e-34,-3.610799247e-51,6.793678763e-68,-1.278223129e-84,2.404962651e-101,-4.524910573e-118,8.513569091e-135,-1.601818588e-151,3.01380392e-168,-5.670438673e-185,1.066886752e-201,-2.007335598e-218,3.77677968e-235,-7.105969108e-252,1.336980212e-268,-2.51551345e-285,4.732910676e-302,-8.904940388e-319,0],
				"epinfma": [0,5.707979551e-17,2.925393282e-33,4.180550689e-34,2.383750003e-34,1.359214252e-34,7.750239662e-35,4.419186655e-35,2.519820231e-35,1.436801496e-35,8.192642128e-36,4.671444542e-36,2.663657678e-36,1.518817608e-36,8.660298e-37,4.938101919e-37,2.815705714e-37,1.605515398e-37,9.154648801e-38,5.219980747e-38,2.976433022e-38],
				"mc": [0,-0.01397938168,-0.02133975955,-0.02405620379,-0.0238798823,-0.02202927375,-0.01934399888,-0.0163835372,-0.01349976069,-0.0108938088,-0.008661220764,-0.006827167927,-0.005373141931,-0.004256414149,-0.003423587391,-0.002819503974,-0.002392649937,-0.002098028946,-0.001898298257,-0.001763783746,-0.001671834045],
				"zcap": [0,-0.04379147935,-0.06961084372,-0.07247692622,-0.06197673791,-0.04447456082,-0.02403923094,-0.003142464099,0.01682479631,0.0351781221,0.05167439562,0.06632880188,0.07929256143,0.09077456153,0.1009939104,0.1101536195,0.118428184,0.1259598561,0.1328599734,0.1392128847,0.1450808884],
				"rk": [0,-0.006869649004,-0.01091997965,-0.01136958722,-0.009722403586,-0.006976805237,-0.003771077876,-0.0004929640581,0.002639336395,0.005518455989,0.008106256417,0.01040511978,0.01243876831,0.01423997055,0.01584309839,0.01727999862,0.0185780446,0.0197595517,0.02084198564,0.02183857839,0.02275910281],
				"k": [0,-0.04379147935,-0.07757457046,-0.09263421185,-0.09621527778,-0.09328232019,-0.0871212243,-0.07980937887,-0.07257695684,-0.06607907819,-0.06059624409,-0.05617816001,-0.0527438385,-0.05014872671,-0.0482276018,-0.04682017397,-0.04578476606,-0.04500411375,-0.04438624504,-0.04386253481,-0.04338436311],
				"pk": [0,-0.7273718709,-0.4604650359,-0.2787254259,-0.1590601705,-0.08312322305,-0.03707143564,-0.01081605101,0.002790004353,0.008674245059,0.01013565848,0.009307477634,0.007508990812,0.005506708596,0.003703957084,0.002275332091,0.001259575019,0.0006217495153,0.0002932545064,0.0001962346047,0.0002573276265],
				"c": [0,-0.09214805744,-0.1315599999,-0.1375053767,-0.1241127943,-0.1011902328,-0.07517589267,-0.05001045207,-0.02786283285,-0.009700757014,0.004279110781,0.01433877677,0.02098065786,0.02480180109,0.02640204908,0.02633098494,0.02506168668,0.02298214996,0.02039762449,0.01753904675,0.01457427253],
				"inve": [0,-0.2731674146,-0.4262205383,-0.5031647949,-0.533983967,-0.5384347543,-0.5290645641,-0.5134904006,-0.4960608399,-0.4790341973,-0.4633913847,-0.449380552,-0.4368695995,-0.4255644439,-0.4151360406,-0.4052873977,-0.3957827522,-0.3864542352,-0.377196296,-0.3679545022,-0.358712761],
				"y": [0,-0.05827262276,-0.1066821003,-0.1270047499,-0.1303570196,-0.1242759424,-0.1136616346,-0.1015414148,-0.089657184,-0.07890069976,-0.06962637911,-0.06186941275,-0.05549286123,-0.05028291051,-0.04600731119,-0.04244845855,-0.03941963402,-0.03677058249,-0.03438677387,-0.03218531032,-0.03010941294],
				"lab": [0,-0.03491097388,-0.06455960681,-0.07678782593,-0.07853169208,-0.07448083567,-0.06766966172,-0.05996104869,-0.05241820454,-0.04557912217,-0.03965260534,-0.03465394355,-0.03049563685,-0.0270455732,-0.02416229356,-0.02171462489,-0.01959104318,-0.01770261406,-0.0159821932,-0.01438169278,-0.01286857887],
				"pinf": [0,-0.01045635236,-0.01422764758,-0.01486252911,-0.01405733875,-0.01265392268,-0.01108124107,-0.009557301568,-0.008186349663,-0.007008955822,-0.00602982184,-0.005234221098,-0.004598085862,-0.004094224946,-0.003696037739,-0.003379563686,-0.003124428902,-0.002914084038,-0.00273561336,-0.002579311363,-0.002438160195],
				"w": [0,-0.01575015447,-0.0239349433,-0.02721597314,-0.02740598929,-0.02577828976,-0.02322264046,-0.02034129424,-0.0175194159,-0.01498150003,-0.01283738233,-0.01111909669,-0.009809433341,-0.008863182959,-0.008222209856,-0.00782555046,-0.007615678279,-0.007541947984,-0.007562066193,-0.007642263648,-0.007756681422],
				"r": [0,0.2369295596,0.1480661322,0.08506813115,0.04197601837,0.01356580951,-0.004355484683,-0.01499546624,-0.02072976345,-0.02327202919,-0.02382769773,-0.02322216478,-0.02200312268,-0.02051996706,-0.01898402411,-0.01751327149,-0.01616482617,-0.01495798337,-0.01389010506,-0.01294721274,-0.01211074916],
				"a": [0,2.68335502e-17,2.637201314e-17,2.591841451e-17,2.547261778e-17,2.503448876e-17,2.460389555e-17,2.418070855e-17,2.376480036e-17,2.335604579e-17,2.295432181e-17,2.255950747e-17,2.217148394e-17,2.179013442e-17,2.141534411e-17,2.104700019e-17,2.068499178e-17,2.032920993e-17,1.997954751e-17,1.96358993e-17,1.929816183e-17],
				"b": [0,-2.391019638e-18,-9.279547217e-19,-3.601392275e-19,-1.397700342e-19,-5.424475027e-20,-2.105238758e-20,-8.170431619e-21,-3.170944511e-21,-1.230643565e-21,-4.776127675e-22,-1.853615151e-22,-7.1938804e-23,-2.791944983e-23,-1.083553848e-23,-4.205272484e-24,-1.632066251e-24,-6.334049121e-25,-2.458244464e-25,-9.540446764e-26,-3.702647389e-26],
				"g": [0,1.595382815e-16,1.081674583e-16,1.679901466e-18,-1.363906795e-16,-2.907551612e-16,-4.499141934e-16,-6.060012447e-16,-7.54025071e-16,-8.910786969e-16,-1.015687996e-15,-1.127325349e-15,-1.226065495e-15,-1.312350394e-15,-1.386832823e-15,-1.450274774e-15,-1.503483006e-15,-1.54726923e-15,-1.582426329e-15,-1.609714781e-15,-1.629855478e-15],
				"qs": [0,-1.265418492e-17,-5.397009869e-18,-2.301824709e-18,-9.817282384e-19,-4.187070937e-19,-1.785785755e-19,-7.616376243e-20,-3.248384468e-20,-1.385435976e-20,-5.908884436e-21,-2.520139212e-21,-1.074839374e-21,-4.584189929e-22,-1.955157005e-22,-8.338744626e-23,-3.556474583e-23,-1.51683641e-23,-6.469307287e-24,-2.759159558e-24,-1.176781551e-24],
				"spinf": [0,8.927667274e-17,-3.195606586e-20,-1.024511472e-20,-3.284583778e-21,-1.053037559e-21,-3.376038415e-22,-1.082357916e-22,-3.470039478e-23,-1.112494657e-23,-3.566657869e-24,-1.143470513e-24,-3.665966464e-25,-1.175308848e-25,-3.768040168e-26,-1.208033678e-26,-3.87295597e-27,-1.241669684e-27,-3.980793005e-28,-1.276242237e-28,-4.091632607e-29],
				"sw": [0,1.329157549e-18,5.368283966e-18,3.060995517e-18,1.745379644e-18,9.95215473e-19,5.674718627e-19,3.235724561e-19,1.845010145e-19,1.052024784e-19,5.998645321e-20,3.420427562e-20,1.950327796e-20,1.112076909e-20,6.341062536e-21,3.615673858e-21,2.061657234e-21,1.175556955e-21,6.703025756e-22,3.822065286e-22,2.179341626e-22],
				"kp": [0,-0.007963726741,-0.02015728563,-0.03423853988,-0.04880775937,-0.06308199336,-0.07666691477,-0.08940175315,-0.1012572003,-0.1122706397,-0.1225069619,-0.1320363999,-0.1409232882,-0.1492215122,-0.1569737935,-0.1642129501,-0.1709639699,-0.1772462184,-0.1830754195,-0.1884652516,-0.1934285252],
				"rr": [0,-0.7039071454,0.2815472497,0.1904466356,0.1245287653,0.07841682158,0.04713628616,0.02659157846,0.01360114853,0.005781465555,0.001395321522,-0.0007924337399,-0.001637937871,-0.001717864504,-0.001407413913,-0.0009399653181,-0.000451743357,-1.456125718e-05,0.0003407192149,0.0006078102019,0.0007939123826],
				"er": [0,0.2815472497,0.1904466356,0.1245287653,0.07841682158,0.04713628616,0.02659157846,0.01360114853,0.005781465555,0.001395321522,-0.0007924337399,-0.001637937871,-0.001717864504,-0.001407413913,-0.0009399653181,-0.000451743357,-1.456125718e-05,0.0003407192149,0.0006078102019,0.0007939123826,0.0009124963204],
				"ec": [0,0.2815472497,0.1904466356,0.1245287653,0.07841682158,0.04713628616,0.02659157846,0.01360114853,0.005781465555,0.001395321522,-0.0007924337399,-0.001637937871,-0.001717864504,-0.001407413913,-0.0009399653181,-0.000451743357,-1.456125718e-05,0.0003407192149,0.0006078102019,0.0007939123826,0.0009124963204],
				"nw": [0,-2.313805107,-1.934891094,-1.660867018,-1.462731313,-1.317991106,-1.209967359,-1.126679496,-1.059750058,-1.003472289,-0.9540668239,-0.9091113449,-0.8671147069,-0.8272062518,-0.7889142594,-0.7520118078,-0.7164125451,-0.6821026292,-0.6490982644,-0.6174208652,-0.5870839643],
				"prem": [0,0.03039004261,0.02751797432,0.02540329539,0.02378688053,0.02248923558,0.02138976157,0.02041026511,0.01950227318,0.01863752887,0.01780104289,0.01698614105,0.01619103323,0.0154165154,0.01466449511,0.01393709923,0.01323618087,0.01256308922,0.0119186039,0.01130296493,0.0107159515],
				"pinf4": [0,-0.01045635236,-0.02468399994,-0.03954652906,-0.05360386781,-0.05580143813,-0.05265503162,-0.04734980407,-0.04147881498,-0.03583384812,-0.03078242889,-0.02645934842,-0.02287108462,-0.01995635375,-0.01762256964,-0.01576791223,-0.01429425527,-0.01311411437,-0.01215368999,-0.01135343766,-0.01066716896],
				"eg": [0,1.063588543e-16,-2.625966551e-17,-6.557612047e-17,-9.196294693e-17,-1.097382811e-16,-1.206631632e-16,-1.265837382e-16,-1.290230132e-16,-1.291206058e-16,-1.27686206e-16,-1.252770143e-16,-1.222681866e-16,-1.189082786e-16,-1.153599622e-16,-1.117287307e-16,-1.08082578e-16,-1.04465199e-16,-1.009046786e-16,-9.741911253e-17,-9.402018475e-17],
				"interest": [0,0.9477182382,0.5922645288,0.3402725246,0.1679040735,0.05426323803,-0.01742193873,-0.05998186495,-0.08291905378,-0.09308811676,-0.09531079093,-0.09288865914,-0.08801249071,-0.08207986822,-0.07593609645,-0.07005308595,-0.06465930468,-0.05983193346,-0.05556042022,-0.05178885097,-0.04844299666],
				"inflation": [0,-0.01045635236,-0.02468399994,-0.03954652906,-0.05360386781,-0.05580143813,-0.05265503162,-0.04734980407,-0.04147881498,-0.03583384812,-0.03078242889,-0.02645934842,-0.02287108462,-0.01995635375,-0.01762256964,-0.01576791223,-0.01429425527,-0.01311411437,-0.01215368999,-0.01135343766,-0.01066716896],
				"inflationq": [0,-0.04182540944,-0.05691059033,-0.05945011646,-0.056229355,-0.05061569072,-0.04432496428,-0.03822920627,-0.03274539865,-0.02803582329,-0.02411928736,-0.02093688439,-0.01839234345,-0.01637689978,-0.01478415096,-0.01351825475,-0.01249771561,-0.01165633615,-0.01094245344,-0.01031724545,-0.009752640781],
				"inflationql": [0,-4.253590924e-17,-0.04182540944,-0.05691059033,-0.05945011646,-0.056229355,-0.05061569072,-0.04432496428,-0.03822920627,-0.03274539865,-0.02803582329,-0.02411928736,-0.02093688439,-0.01839234345,-0.01637689978,-0.01478415096,-0.01351825475,-0.01249771561,-0.01165633615,-0.01094245344,-0.01031724545],
				"inflationql2": [0,1.940575125e-17,-1.449084707e-16,-0.04182540944,-0.05691059033,-0.05945011646,-0.056229355,-0.05061569072,-0.04432496428,-0.03822920627,-0.03274539865,-0.02803582329,-0.02411928736,-0.02093688439,-0.01839234345,-0.01637689978,-0.01478415096,-0.01351825475,-0.01249771561,-0.01165633615,-0.01094245344],
				"inflationqls": [0,-2.313015799e-17,-0.04182540944,-0.09873599977,-0.1163607068,-0.1156794715,-0.1068450457,-0.094940655,-0.08255417056,-0.07097460492,-0.06078122194,-0.05215511065,-0.04505617175,-0.03932922784,-0.03476924323,-0.03116105074,-0.0283024057,-0.02601597035,-0.02415405176,-0.02259878959,-0.02125969889],
				"outputgap": [0,-0.05827262276,-0.1066821003,-0.1270047499,-0.1303570196,-0.1242759424,-0.1136616346,-0.1015414148,-0.089657184,-0.07890069976,-0.06962637911,-0.06186941275,-0.05549286123,-0.05028291051,-0.04600731119,-0.04244845855,-0.03941963402,-0.03677058249,-0.03438677387,-0.03218531032,-0.03010941294],
				"output": [0,-0.05827262276,-0.1066821003,-0.1270047499,-0.1303570196,-0.1242759424,-0.1136616346,-0.1015414148,-0.089657184,-0.07890069976,-0.06962637911,-0.06186941275,-0.05549286123,-0.05028291051,-0.04600731119,-0.04244845855,-0.03941963402,-0.03677058249,-0.03438677387,-0.03218531032,-0.03010941294],
				"fispol": [0,5.317942716e-17,-1.312983275e-17,-3.278806023e-17,-4.598147346e-17,-5.486914057e-17,-6.033158159e-17,-6.329186908e-17,-6.451150659e-17,-6.456030291e-17,-6.384310302e-17,-6.263850717e-17,-6.113409329e-17,-5.945413929e-17,-5.76799811e-17,-5.586436536e-17,-5.404128902e-17,-5.223259951e-17,-5.045233929e-17,-4.870955627e-17,-4.701009237e-17],
				"neww": [0,1.463564683e-16,-3.195606586e-20,-1.024511472e-20,-3.284583778e-21,-1.053037559e-21,-3.376038415e-22,-1.082357916e-22,-3.470039478e-23,-1.112494657e-23,-3.566657878e-24,-1.143470522e-24,-3.665966558e-25,-1.175308942e-25,-3.768041083e-26,-1.208034568e-26,-3.872964588e-27,-1.241678005e-27,-3.980873185e-28,-1.276319358e-28,-4.092373229e-29]
			},
			"fiscal_": {
				"ewma": [0,5.498775026e-17,-1.034588427e-33,1.946566658e-50,-3.662443592e-67,6.890847026e-84,-1.296505231e-100,2.439360222e-117,-4.58962922e-134,8.635336509e-151,-1.624728993e-167,3.056909593e-184,-5.751541519e-201,1.082146162e-217,-2.03604601e-234,3.830798001e-251,-7.207603981e-268,1.356102701e-284,-2.551492201e-301,4.80060367e-318,0],
				"epinfma": [0,9.229979677e-17,-5.08393822e-33,-3.318412751e-33,-1.89215895e-33,-1.078909033e-33,-6.151939309e-34,-3.507835794e-34,-2.00016797e-34,-1.140495776e-34,-6.503106917e-35,-3.708071564e-35,-2.114342406e-35,-1.20559804e-35,-6.874320023e-36,-3.919737277e-36,-2.235034195e-36,-1.274416498e-36,-7.266722872e-37,-4.143485382e-37,-2.362615365e-37],
				"mc": [0,0.07109514154,0.09240300825,0.09610722207,0.08956162635,0.07773072679,0.06388041408,0.05005673463,0.0374398969,0.02661230324,0.0177608131,0.01082645006,0.005611952651,0.00185607161,-0.0007176749621,-0.002371240952,-0.003335896291,-0.003805388131,-0.003935127394,-0.003844966069,-0.003623837112],
				"zcap": [0,0.6416078262,0.5892047798,0.5382329349,0.4968152547,0.4689517701,0.4557430427,0.4564088608,0.4690806735,0.4913818186,0.5208261792,0.55507134,0.5920614691,0.6300910646,0.6678152976,0.7042270781,0.7386158133,0.770518426,0.7996696471,0.8259558679,0.8493748404],
				"rk": [0,0.1006501865,0.09242962534,0.08443357933,0.07793631251,0.07356531702,0.07149323993,0.07159768801,0.07358553832,0.07708395952,0.0817029499,0.08707505056,0.09287775938,0.09884353119,0.1047614002,0.1104733825,0.1158680059,0.1208726268,0.1254456318,0.1295691991,0.1332429759],
				"k": [0,0.6416078262,0.5676302207,0.4778931873,0.3847080417,0.2959148059,0.215988334,0.1469948743,0.08937312657,0.04254129937,0.005347239277,-0.0236139949,-0.04578882782,-0.06253518592,-0.07505195593,-0.08434977052,-0.09124883516,-0.09639302018,-0.1002724512,-0.1032492779,-0.1055832032],
				"pk": [0,-0.7894518221,-0.772756112,-0.7234513625,-0.6480394118,-0.5572833716,-0.4613243574,-0.3679864524,-0.282500791,-0.2078174792,-0.1451119211,-0.0943027801,-0.05450294164,-0.02437704736,-0.002404954167,0.01293766047,0.02306593735,0.02922368958,0.03245800829,0.0336185618,0.03337212046],
				"c": [0,0.2731339459,0.3888613705,0.4031981855,0.3582845794,0.2838786379,0.1997183058,0.1179371669,0.04519674469,-0.01557543309,-0.06384603599,-0.1004909832,-0.1271045813,-0.1455399625,-0.157623516,-0.1649946686,-0.1690318405,-0.1708343796,-0.1712381429,-0.170848903,-0.1700829048],
				"inve": [0,-0.7400387681,-1.351276929,-1.836039133,-2.202086335,-2.461552675,-2.629169291,-2.720585388,-2.751069089,-2.734635307,-2.683550256,-2.608129619,-2.516745204,-2.415965756,-2.310772875,-2.204808458,-2.100623713,-1.999910873,-1.903707207,-1.812567013,-1.726701343],
				"y": [0,1.066209337,0.9017796526,0.7406363685,0.5926792214,0.4634730907,0.3552128025,0.2677360159,0.1993991148,0.1477603813,0.1100731028,0.08361533445,0.0658903287,0.05473088192,0.04833652166,0.0452669233,0.04440941947,0.04493354259,0.04624145814,0.04791993995,0.04969714251],
				"lab": [0,0.6785239453,0.5676634672,0.4633120697,0.3701872899,0.2907119458,0.2254972346,0.1739008866,0.1345213172,0.105583588,0.08521500945,0.07162532623,0.06321168021,0.05860828094,0.05669807554,0.05660029619,0.05764437266,0.05933770039,0.06133229428,0.06339344654,0.06537209656],
				"pinf": [0,0.0274359501,0.03575435861,0.03508649836,0.03047441605,0.02449670407,0.01847542474,0.01305812187,0.008516703095,0.004911835649,0.002188930505,0.0002363312176,-0.001079106758,-0.001890784969,-0.002320516107,-0.002472828465,-0.002433204711,-0.002268709264,-0.002029933212,-0.001753533719,-0.001464900988],
				"w": [0,0.06373406739,0.09239637891,0.09901469692,0.09245706424,0.07876817709,0.0619843393,0.04469167579,0.02843734769,0.01404167088,0.001835179722,-0.008164270577,-0.01612274865,-0.02229993568,-0.02698863124,-0.03047668425,-0.03302520193,-0.03485809381,-0.03615911364,-0.03707352532,-0.03771232389],
				"r": [0,0.03429493762,0.0686994046,0.09194770617,0.1024564144,0.1023403702,0.09473254004,0.08263543037,0.06849068013,0.05408327065,0.04059445259,0.02871153083,0.01874918814,0.01076095048,0.004632020205,0.0001513785626,-0.002935540895,-0.004890765206,-0.005960952159,-0.00636458366,-0.006286334797],
				"a": [0,-3.086106618e-19,-3.033025584e-19,-2.980857544e-19,-2.929586794e-19,-2.879197901e-19,-2.829675697e-19,-2.781005275e-19,-2.733171984e-19,-2.686161426e-19,-2.63995945e-19,-2.594552147e-19,-2.54992585e-19,-2.506067126e-19,-2.462962771e-19,-2.420599811e-19,-2.378965495e-19,-2.338047288e-19,-2.297832875e-19,-2.258310149e-19,-2.219467215e-19],
				"b": [0,-1.118233421e-17,-4.339863907e-18,-1.684301182e-18,-6.536772889e-19,-2.536921558e-19,-9.845792567e-20,-3.821152095e-20,-1.482989128e-20,-5.755480807e-21,-2.233702101e-21,-8.668997854e-22,-3.364438067e-22,-1.305738414e-22,-5.067570784e-23,-1.966724221e-23,-7.632856703e-24,-2.962311687e-24,-1.149673166e-24,-4.461881555e-25,-1.731656232e-25],
				"g": [0,1,0.9249,0.85544001,0.7911964652,0.7317776107,0.6768211121,0.6259918466,0.5789798589,0.5354984715,0.4952825363,0.4580868178,0.4236844978,0.391865792,0.3624366711,0.3352176771,0.3100428295,0.286758613,0.2652230412,0.2453047908,0.226882401],
				"qs": [0,-1.125424159e-16,-4.799934039e-17,-2.047171868e-17,-8.731188015e-18,-3.723851689e-18,-1.588222745e-18,-6.773770008e-19,-2.889012908e-19,-1.232164005e-19,-5.255179483e-20,-2.24133405e-20,-9.559289722e-21,-4.077037066e-21,-1.738856309e-21,-7.416222157e-22,-3.16301875e-22,-1.349027497e-22,-5.753602274e-23,-2.45391137e-23,-1.046593199e-23],
				"spinf": [0,-3.81293598e-17,-5.855877073e-17,-1.87739419e-17,-6.018925772e-18,-1.929667602e-18,-6.186514333e-19,-1.983396495e-19,-6.358769164e-20,-2.038621394e-20,-6.535820189e-21,-2.095383953e-21,-6.717800952e-22,-2.153726985e-22,-6.904848715e-23,-2.213694498e-23,-7.09710456e-24,-2.275331722e-24,-7.294713501e-25,-2.338685148e-25,-7.497824586e-26],
				"sw": [0,-3.114272747e-17,-4.261204632e-17,-2.429738881e-17,-1.38543711e-17,-7.899762402e-18,-4.504444522e-18,-2.568434266e-18,-1.464521219e-18,-8.350699988e-19,-4.761569133e-19,-2.71504672e-19,-1.54811964e-19,-8.827378185e-20,-5.033371041e-20,-2.870028168e-20,-1.636490061e-20,-9.331266329e-21,-5.320688061e-21,-3.033856332e-21,-1.729904881e-21],
				"kp": [0,-0.02157455909,-0.06033974759,-0.112107213,-0.1730369642,-0.2397547087,-0.3094139864,-0.3797075469,-0.4488405193,-0.5154789399,-0.5786853349,-0.6378502969,-0.6926262505,-0.7428672535,-0.7885768487,-0.8298646485,-0.8669114462,-0.8999420983,-0.9292051458,-0.9549580437,-0.9774568939],
				"rr": [0,-0.7604637098,0.04487236966,0.07561528371,0.09905493272,0.1113010029,0.1133113808,0.1076539208,0.09708238897,0.08396174823,0.07009227875,0.05671610548,0.04459961227,0.03413884103,0.02546219914,0.01851907804,0.01315057854,0.009142499652,0.006262663376,0.004285395182,0.003006070771],
				"er": [0,0.04487236966,0.07561528371,0.09905493272,0.1113010029,0.1133113808,0.1076539208,0.09708238897,0.08396174823,0.07009227875,0.05671610548,0.04459961227,0.03413884103,0.02546219914,0.01851907804,0.01315057854,0.009142499652,0.006262663376,0.004285395182,0.003006070771,0.002248384845],
				"ec": [0,0.04487236966,0.07561528371,0.09905493272,0.1113010029,0.1133113808,0.1076539208,0.09708238897,0.08396174823,0.07009227875,0.05671610548,0.04459961227,0.03413884103,0.02546219914,0.01851907804,0.01315057854,0.009142499652,0.006262663376,0.004285395182,0.003006070771,0.002248384845],
				"nw": [0,-2.499711542,-2.33722627,-2.153255769,-1.955782772,-1.756111477,-1.564092502,-1.386659685,-1.227792829,-1.089029408,-0.9701192055,-0.8696413781,-0.7855134914,-0.7153758143,-0.6568594162,-0.6077570476,-0.566118496,-0.530290923,-0.4989217333,-0.4709379974,-0.4455130112],
				"prem": [0,0.04633179065,0.04200237747,0.03758164261,0.03334129261,0.02944643535,0.02597950262,0.0229636617,0.02038290375,0.0181979386,0.01635798411,0.01480897468,0.01349886792,0.01238073255,0.01141422937,0.01056599527,0.009809331284,0.009123495371,0.008492813621,0.007905753443,0.00735404799],
				"pinf4": [0,0.0274359501,0.06319030871,0.09827680706,0.1287512231,0.1258119771,0.1085330432,0.08650466674,0.06454695378,0.04496208536,0.02867559112,0.01585380047,0.006257990614,-0.0005446300039,-0.005054076616,-0.007763236299,-0.009117334252,-0.009495258546,-0.009204675651,-0.008485380906,-0.007517077183],
				"eg": [0,1,-3.621880626e-17,-1.47658493e-16,-2.229873517e-16,-2.709106145e-16,-3.013755512e-16,-3.199101145e-16,-3.29910127e-16,-3.336643438e-16,-3.328266613e-16,-3.286444373e-16,-3.220780062e-16,-3.138706268e-16,-3.045948791e-16,-2.946869346e-16,-2.844737322e-16,-2.741953066e-16,-2.640233433e-16,-2.540765513e-16,-2.444332653e-16],
				"interest": [0,0.1371797505,0.2747976184,0.3677908247,0.4098256575,0.4093614806,0.3789301601,0.3305417215,0.2739627205,0.2163330826,0.1623778103,0.1148461233,0.07499675254,0.04304380193,0.01852808082,0.0006055142503,-0.01174216358,-0.01956306082,-0.02384380863,-0.02545833464,-0.02514533919],
				"inflation": [0,0.0274359501,0.06319030871,0.09827680706,0.1287512231,0.1258119771,0.1085330432,0.08650466674,0.06454695378,0.04496208536,0.02867559112,0.01585380047,0.006257990614,-0.0005446300039,-0.005054076616,-0.007763236299,-0.009117334252,-0.009495258546,-0.009204675651,-0.008485380906,-0.007517077183],
				"inflationq": [0,0.1097438004,0.1430174344,0.1403459934,0.1218976642,0.09798681628,0.07390169897,0.0522324875,0.03406681238,0.0196473426,0.008755722022,0.0009453248703,-0.004316427033,-0.007563139875,-0.009282064428,-0.009891313858,-0.009732818845,-0.009074837054,-0.008119732846,-0.007014134877,-0.005859603953],
				"inflationql": [0,-7.953383191e-18,0.1097438004,0.1430174344,0.1403459934,0.1218976642,0.09798681628,0.07390169897,0.0522324875,0.03406681238,0.0196473426,0.008755722022,0.0009453248703,-0.004316427033,-0.007563139875,-0.009282064428,-0.009891313858,-0.009732818845,-0.009074837054,-0.008119732846,-0.007014134877],
				"inflationql2": [0,2.187826088e-18,-7.941970154e-16,0.1097438004,0.1430174344,0.1403459934,0.1218976642,0.09798681628,0.07390169897,0.0522324875,0.03406681238,0.0196473426,0.008755722022,0.0009453248703,-0.004316427033,-0.007563139875,-0.009282064428,-0.009891313858,-0.009732818845,-0.009074837054,-0.008119732846],
				"inflationqls": [0,-5.765557102e-18,0.1097438004,0.2527612348,0.2833634279,0.2622436576,0.2198844805,0.1718885152,0.1261341865,0.08629929988,0.05371415498,0.02840306462,0.009701046892,-0.003371102162,-0.01187956691,-0.0168452043,-0.01917337829,-0.0196241327,-0.0188076559,-0.0171945699,-0.01513386772],
				"outputgap": [0,1.066209337,0.9017796526,0.7406363685,0.5926792214,0.4634730907,0.3552128025,0.2677360159,0.1993991148,0.1477603813,0.1100731028,0.08361533445,0.0658903287,0.05473088192,0.04833652166,0.0452669233,0.04440941947,0.04493354259,0.04624145814,0.04791993995,0.04969714251],
				"output": [0,1.066209337,0.9017796526,0.7406363685,0.5926792214,0.4634730907,0.3552128025,0.2677360159,0.1993991148,0.1477603813,0.1100731028,0.08361533445,0.0658903287,0.05473088192,0.04833652166,0.0452669233,0.04440941947,0.04493354259,0.04624145814,0.04791993995,0.04969714251],
				"fispol": [0,1,-3.056574982e-17,-8.535012154e-17,-1.221493332e-16,-1.453107247e-16,-1.598030512e-16,-1.683857756e-16,-1.72752635e-16,-1.740441457e-16,-1.730836852e-16,-1.704916296e-16,-1.667450913e-16,-1.622128744e-16,-1.571786557e-16,-1.518581041e-16,-1.464124537e-16,-1.409596543e-16,-1.355836364e-16,-1.303419858e-16,-1.252722342e-16],
				"neww": [0,5.417043697e-17,-5.855877073e-17,-1.87739419e-17,-6.018925772e-18,-1.929667602e-18,-6.186514333e-19,-1.983396495e-19,-6.358769164e-20,-2.038621394e-20,-6.535820189e-21,-2.095383953e-21,-6.717800953e-22,-2.153726986e-22,-6.904848725e-23,-2.213694508e-23,-7.097104651e-24,-2.275331807e-24,-7.294714295e-25,-2.338685888e-25,-7.497831459e-26]
			}
		}
	}
}
