{
	"model": "US_YR13AL",
	"rule": "GR",
	"data": {
		"AC": {
			"ewma": [1,0.007009963746,-0.03608509579,0.002414592649,-0.01029918911,0.009617359913,-0.004353175731,-0.004573632183,-0.02299700846,0.0151408238,-0.008251552019,-0.007074747801,0.0007227151597,0.005507789759,-0.02868908996,0.01384628583,-0.0001409399731,-0.013880904,0.002991821711,-0.006992171758,-0.01646148905],
			"epinfma": [1,-0.01431737668,-0.01542516127,-0.01057560403,-0.01925017066,0.00160876747,0.001933305528,0.01043153415,-0.0101630177,0.006511091272,0.004731211997,-0.0006270209432,-0.005254823186,-0.02098411702,-0.006549524317,-0.001054191183,0.0003694002255,0.006416812534,0.0002288259417,0.01371750449,0.005290297117],
			"mc": [1,0.8305339872,0.7065231555,0.5974731007,0.5161508225,0.4418727746,0.389370308,0.3456696287,0.3161213252,0.2940315399,0.2730107215,0.2633327955,0.251985139,0.2498145327,0.246183869,0.2470703976,0.2548022063,0.2535412055,0.2479260767,0.2361276482,0.2222345443],
			"zcap": [1,0.9722287969,0.9445127581,0.9167710455,0.8889238813,0.8603537914,0.832745665,0.8060851053,0.780563694,0.756749652,0.7333774682,0.71105996,0.6887527488,0.6671805779,0.6465150712,0.6271566334,0.6081247321,0.5885118738,0.5694977585,0.5512417144,0.5341201154],
			"rk": [1,0.9722287969,0.9445127581,0.9167710455,0.8889238813,0.8603537914,0.832745665,0.8060851053,0.780563694,0.756749652,0.7333774682,0.71105996,0.6887527488,0.6671805779,0.6465150712,0.6271566334,0.6081247321,0.5885118738,0.5694977585,0.5512417144,0.5341201154],
			"k": [1,0.9362236618,0.8739770908,0.8119532336,0.7573718704,0.7050549861,0.6611018166,0.6211943665,0.5898705502,0.5611690795,0.535233741,0.5119475689,0.4899812414,0.4743431908,0.4595292395,0.4432482319,0.4298077833,0.4166477601,0.4056479783,0.3959082473,0.3843714796],
			"pk": [1,0.570169374,0.3792150498,0.2457578177,0.1982134418,0.1461331892,0.1186020161,0.08926787776,0.08576032423,0.08462301654,0.08767052306,0.08256514593,0.07622564084,0.07040251527,0.07949941723,0.0689459766,0.05912150385,0.05458126433,0.05400071923,0.04940448151,0.0477281666],
			"c": [1,0.9367622262,0.8890028481,0.8388594766,0.8010641478,0.7557488627,0.7199491538,0.6841927696,0.6580875347,0.6383533962,0.6198983453,0.6041812129,0.5892426712,0.580098797,0.5656642547,0.5486911767,0.5339179855,0.5208403912,0.5096303198,0.4970504796,0.4862107959],
			"inve": [1,0.9367574372,0.8848098305,0.8336617586,0.7924725172,0.7486086399,0.7094973327,0.6719408361,0.6455584854,0.6182859515,0.5906006962,0.5646599046,0.5378260815,0.5155189266,0.4940878491,0.4668995153,0.4467555832,0.4266746289,0.4128263927,0.3974606532,0.381676943],
			"y": [1,0.934284811,0.8665306063,0.7954254448,0.7291778055,0.6667774622,0.6108551217,0.5595924769,0.5169182305,0.4783628066,0.4437991752,0.4139536574,0.3854346857,0.3634481915,0.3435827999,0.3212950207,0.3037475287,0.2899790361,0.2807264558,0.2725410841,0.2609708128],
			"lab": [1,0.8947064759,0.7972657116,0.7050300238,0.6240370054,0.5508144049,0.4923067754,0.4429725575,0.4059992258,0.3752379503,0.3479906715,0.3257780783,0.3034060926,0.2862800946,0.2713837603,0.2532308414,0.2384790718,0.2246727595,0.2128791887,0.2012332105,0.1884776111],
			"pinf": [1,0.600497908,0.5375143629,0.4329315144,0.4027834433,0.3485253058,0.336089476,0.3000024441,0.2949224685,0.2839821435,0.2763451564,0.275295935,0.2563350788,0.259322236,0.2582003299,0.2461283202,0.2521456853,0.2397278062,0.2229294228,0.2187450938,0.2109156213],
			"w": [1,0.9474932473,0.8988738275,0.8495412878,0.8055465564,0.7613922517,0.7229092297,0.6869616962,0.6578888611,0.6325656113,0.6101355543,0.590997211,0.5729785315,0.5580773844,0.5415432192,0.5251789354,0.5108413295,0.4941645902,0.4790841731,0.4649239829,0.4534453492],
			"r": [1,0.9489279269,0.8790169282,0.7950640465,0.7089832971,0.6301069043,0.5622142868,0.5027019938,0.4541901186,0.4137727807,0.3841895631,0.3593010854,0.3391016934,0.3252042576,0.3151796456,0.3022013459,0.2911204308,0.2780714897,0.2656565622,0.2557890899,0.2478863366],
			"a": [1,0.9482067242,0.9049114067,0.8628417536,0.8230565536,0.7858563994,0.7527816366,0.7226907297,0.6924533467,0.6645463508,0.6364454218,0.6105246453,0.5855877749,0.5642241566,0.5434218874,0.5244466329,0.5077954549,0.4907229889,0.4739832767,0.457206216,0.4411647994],
			"b": [1,0.3721428478,0.1541365968,0.06811484417,0.02200614878,0.01188977652,-0.004708057703,-0.006970515654,-0.0306014558,-0.01971462227,-0.00791934918,-0.007460537088,-0.008537173474,-0.0140773982,0.001909858443,-0.0100065803,-0.01319666436,-0.02354640973,-0.02585133588,-0.03044365147,-0.01952364559],
			"g": [1,0.8804798956,0.7889426857,0.7052023079,0.6279415744,0.5590140212,0.500722599,0.4444260697,0.3945903528,0.3502881225,0.309615797,0.2723155763,0.2361084786,0.2064708624,0.1775920528,0.1492433307,0.1275477295,0.1105944302,0.09660912419,0.08753170989,0.0774257841],
			"qs": [1,0.3836828823,0.1340083658,0.04079115927,0.01305834033,0.006566809292,0.009462296705,0.008061299163,-0.0009723417937,-0.01700380389,-0.03064767428,-0.009933251249,-0.003604934335,-0.01034007153,-0.0008021072724,-0.02157455675,-0.02576896945,-0.01559901056,-0.01245098709,-0.01823661117,-0.007308098614],
			"spinf": [1,-0.1565134337,-0.05588029184,-0.01771048552,-0.02000513343,0.004651692813,0.002634526935,0.01342784835,-0.01226660011,0.007964093065,0.005515095167,0.001340057982,-0.000707134998,-0.01807615278,-0.003269071452,0.002059098825,-4.373226619e-05,0.007853544006,-0.00216496144,0.01268001731,0.004089267478],
			"sw": [1,0.1180872844,0.02892959808,0.03285660422,0.008242386117,0.01714583779,-0.0006730961203,-0.005161602518,-0.02204950455,0.01073030311,-0.009993900094,-0.009029997672,-0.001435116168,0.001498644847,-0.0275835596,0.008894172549,-0.002872033295,-0.01576743098,-0.0009043740255,-0.01124175616,-0.020950479],
			"kp": [1,0.9764659111,0.9526410041,0.9284893679,0.9042305534,0.8798324411,0.8553233568,0.8309967147,0.8068060742,0.7829515592,0.7586617659,0.7346989482,0.7104912398,0.6876661654,0.6656325266,0.6442510587,0.6241339105,0.6043030249,0.5859982215,0.5687316895,0.5527517464],
			"rr": [1,-0.1282890031,-0.0757472106,-0.04737075081,-0.005860725703,0.01689251384,0.007178040815,0.02488277108,0.001403600064,0.01548022414,0.02399542361,0.01998258498,0.01488143997,-0.0004569661644,0.03450794749,0.009630172874,0.01264452712,0.008389800885,0.01210898308,0.01201350192,0.004487827757],
			"er": [1,0.4415646843,0.2329696045,0.1283581054,0.07008611048,0.0443683129,0.01849183461,0.005175239504,-0.02163378048,-0.01956238286,-0.01205849375,-0.01178457322,-0.01186768492,-0.01102684259,0.00272613834,-0.005061857169,-0.008629445395,-0.02080387472,-0.0244439566,-0.03337945236,-0.02436637444],
			"ec": [1,0.4415646843,0.2329696045,0.1283581054,0.07008611048,0.0443683129,0.01849183461,0.005175239504,-0.02163378048,-0.01956238286,-0.01205849375,-0.01178457322,-0.01186768492,-0.01102684259,0.00272613834,-0.005061857169,-0.008629445395,-0.02080387472,-0.0244439566,-0.03337945236,-0.02436637444],
			"nw": [1,0.8103848522,0.7067762232,0.6174656347,0.5638505323,0.5016024688,0.454592405,0.4045411406,0.3711109849,0.3384540611,0.3118045564,0.2837968975,0.2597123611,0.2364827819,0.2195410685,0.1924547857,0.1683649477,0.1476770967,0.1299391698,0.1120329979,0.0988877339],
			"prem": [1,0.8692903654,0.7855316248,0.7069809105,0.6517477679,0.5897701779,0.5391496745,0.4857806587,0.445761267,0.4065257951,0.3727301417,0.339682768,0.3115999766,0.2842774636,0.2619637379,0.2332771569,0.2072356719,0.1844814356,0.1640470141,0.1443539352,0.128452272],
			"pinf4": [1,0.8872186781,0.7847205198,0.6673357126,0.5643950429,0.4907841379,0.4424638817,0.4013635606,0.3772494529,0.355931973,0.3450759011,0.3351791223,0.3251866231,0.3220993572,0.3219328091,0.3123889382,0.3081582088,0.2947631374,0.2817602954,0.2729945072,0.2664120741],
			"eg": [1,-0.009926043344,0.01060357106,0.009476756182,0.019664491,-0.02311583543,0.006071473799,0.003914920052,0.003701296133,0.0005868109047,-0.009555771642,0.007833461166,-0.004949519622,-0.007315525559,-0.003446817365,0.006961061352,-0.01455279658,-0.006397347648,-0.01569918878,0.003005558283,0.006717912613],
			"interest": [1,0.9489279269,0.8790169282,0.7950640465,0.7089832971,0.6301069043,0.5622142868,0.5027019938,0.4541901186,0.4137727807,0.3841895631,0.3593010854,0.3391016934,0.3252042576,0.3151796456,0.3022013459,0.2911204308,0.2780714897,0.2656565622,0.2557890899,0.2478863366],
			"inflation": [1,0.8872186781,0.7847205198,0.6673357126,0.5643950429,0.4907841379,0.4424638817,0.4013635606,0.3772494529,0.355931973,0.3450759011,0.3351791223,0.3251866231,0.3220993572,0.3219328091,0.3123889382,0.3081582088,0.2947631374,0.2817602954,0.2729945072,0.2664120741],
			"inflationq": [1,0.600497908,0.5375143629,0.4329315144,0.4027834433,0.3485253058,0.336089476,0.3000024441,0.2949224685,0.2839821435,0.2763451564,0.275295935,0.2563350788,0.259322236,0.2582003299,0.2461283202,0.2521456853,0.2397278062,0.2229294228,0.2187450938,0.2109156213],
			"inflationql": [1,0.7690425156,0.6192697137,0.5237006423,0.4444007629,0.3930433703,0.3590290815,0.3312891031,0.3038515107,0.292211473,0.2865642924,0.2754807366,0.2661374977,0.2644468216,0.266445252,0.265521995,0.2623901833,0.2480213801,0.2314841183,0.2228697196,0.2149234551],
			"inflationql2": [1,0.783888736,0.6363701206,0.5261560792,0.4448862209,0.3917275385,0.3498174395,0.3200676021,0.2939977304,0.2830819136,0.2710806887,0.2604219355,0.2507297484,0.2501264854,0.2562083853,0.2600430498,0.2528897209,0.2382221261,0.2220382347,0.2095387401,0.2074682555],
			"inflationqls": [1,0.871682084,0.6993534341,0.5810339781,0.4923618496,0.4310305452,0.3905813297,0.3566903998,0.3310705524,0.3151406495,0.3063075671,0.2952529341,0.284369618,0.2840180192,0.2868175729,0.2853787905,0.2798758204,0.2645730798,0.2490323999,0.2366802643,0.2318131997],
			"outputgap": [1,0.8854264701,0.7803066926,0.6792174706,0.5912747247,0.5108663253,0.4468700337,0.3920262688,0.3503962408,0.3161705895,0.2857811592,0.2603991981,0.2352224041,0.2175995603,0.2027831059,0.1850241758,0.1720072168,0.1608789308,0.1521773637,0.1445054295,0.1354520125],
			"output": [1,0.934284811,0.8665306063,0.7954254448,0.7291778055,0.6667774622,0.6108551217,0.5595924769,0.5169182305,0.4783628066,0.4437991752,0.4139536574,0.3854346857,0.3634481915,0.3435827999,0.3212950207,0.3037475287,0.2899790361,0.2807264558,0.2725410841,0.2609708128],
			"fispol": [1,-0.009926043344,0.01060357106,0.009476756182,0.019664491,-0.02311583543,0.006071473799,0.003914920052,0.003701296133,0.0005868109047,-0.009555771642,0.007833461166,-0.004949519622,-0.007315525559,-0.003446817365,0.006961061352,-0.01455279658,-0.006397347648,-0.01569918878,0.003005558283,0.006717912613],
			"newv_long": [1,-0.008558691917,-0.0331935003,0.006234285079,-0.02270675171,-0.004798617356,-0.002247592172,0.005015042922,-0.01967776146,0.01840737068,-0.001014845703,0.003006825039,0.0005775099923,-0.02188529719,-0.02335008411,0.009442784595,-0.001797149958,0.004704309964,0.006126994699,0.007136366096,-0.003545667889],
			"newv_short": [1,-0.008558691917,-0.0331935003,0.006234285079,-0.02270675171,-0.004798617356,-0.002247592172,0.005015042922,-0.01967776146,0.01840737068,-0.001014845703,0.003006825039,0.0005775099923,-0.02188529719,-0.02335008411,0.009442784595,-0.001797149958,0.004704309964,0.006126994699,0.007136366096,-0.003545667889]
		},
		"VAR": {
			"ewma": 0.0283665452,
			"epinfma": 0.01924054277,
			"mc": 1.39246707,
			"zcap": 52.8081787,
			"rk": 1.29954419,
			"k": 8.557954262,
			"pk": 24.36990558,
			"c": 56.69993364,
			"inve": 365.1227678,
			"y": 9.452537881,
			"lab": 2.329939958,
			"pinf": 0.174872273,
			"w": 4.982031814,
			"r": 0.2876030366,
			"a": 2.132372563,
			"b": 2.091966454,
			"g": 0.8915138611,
			"qs": 0.1046708436,
			"spinf": 0.02000770801,
			"sw": 0.02878707988,
			"kp": 87.26418917,
			"rr": 12.73624872,
			"er": 2.960604944,
			"ec": 2.960604944,
			"nw": 486.0853246,
			"prem": 0.1370500023,
			"pinf4": 1.607060719,
			"eg": 0.1166733499,
			"interest": 4.601648586,
			"inflation": 1.607060719,
			"inflationq": 2.797956368,
			"inflationql": 2.058538823,
			"inflationql2": 1.895731757,
			"inflationqls": 7.140634188,
			"outputgap": 5.713880531,
			"output": 9.452537881,
			"fispol": 0.1166733499,
			"newv_long": 0.04857885295,
			"newv_short": 0.04857885295
		},
		"IRF": {
			"interest_": {
				"ewma": [0,4.917465925e-17,-6.747776461e-17,-4.899740862e-17,2.492574927e-17,1.042567287e-17,-2.996504819e-18,-1.076921915e-18,-2.190028772e-17,-4.074012521e-17,-2.35757766e-17,1.815824088e-18,9.86594064e-18,1.452184379e-18,7.692927675e-18,-2.705168295e-19,2.785841522e-18,-3.956238236e-18,3.849972986e-18,-3.503922213e-19,-2.160831079e-18],
				"epinfma": [0,-5.006740326e-17,6.461817401e-17,4.883631088e-17,-8.450225635e-18,-1.033952005e-17,6.523174836e-18,3.437542672e-18,2.270852768e-17,4.399214446e-17,2.320287457e-17,-1.386889742e-18,-8.734730047e-18,-7.232212946e-18,-5.595814947e-18,-6.31252278e-20,3.656353237e-18,3.114811678e-18,-3.984183693e-18,2.299732755e-18,2.295181247e-18],
				"mc": [0,-0.01646682779,-0.02535885275,-0.02878554061,-0.02882037014,-0.02688279611,-0.02394193578,-0.02064067582,-0.01738368382,-0.01440434194,-0.0118166506,-0.009655109119,-0.00790462388,-0.006522200858,-0.005452037185,-0.004635476496,-0.004017108471,-0.00354808639,-0.003187527818,-0.002902668842,-0.002668271444],
				"zcap": [0,-0.04923705759,-0.07905380466,-0.08334896066,-0.07254679055,-0.05370066791,-0.03138999095,-0.008423400801,0.01360497807,0.03389946488,0.05216460026,0.0683988539,0.08275692394,0.09546156473,0.106750141,0.1168447912,0.1259380672,0.1341882536,0.1417203406,0.1486299485,0.1549884598],
				"rk": [0,-0.007723906766,-0.0124013141,-0.01307510304,-0.01138054697,-0.008424121435,-0.004924204966,-0.001321394202,0.002134237652,0.005317870705,0.00818315571,0.0107298526,0.01298222916,0.01497522927,0.01674608876,0.01832965489,0.01975613364,0.02105035538,0.02223192757,0.02331585032,0.02431332156],
				"k": [0,-0.04923705759,-0.08775657029,-0.1054291748,-0.110096461,-0.1072502812,-0.1005913499,-0.09248451596,-0.08434280289,-0.07692910351,-0.07058161743,-0.06537606123,-0.06123838896,-0.05802022379,-0.05554705138,-0.05364710258,-0.05216698678,-0.05097858697,-0.04998048496,-0.04909621682,-0.04827092168],
				"pk": [0,-0.7856097319,-0.5042726267,-0.3078450314,-0.175535535,-0.09056602229,-0.03871837829,-0.009029858318,0.006447604541,0.01323741108,0.01504172562,0.01425145714,0.01234366178,0.01017754285,0.008208163895,0.006636754587,0.005513689777,0.004806985826,0.004446219222,0.004349327424,0.004437801593],
				"c": [0,-0.1013385898,-0.1497068444,-0.1610080826,-0.1498687173,-0.1270714845,-0.09993788523,-0.07304942805,-0.04898810681,-0.02896313172,-0.01329610615,-0.001776030858,0.006092590619,0.01092422675,0.0133479324,0.01394659928,0.01322619612,0.01160471969,0.009413350939,0.006904509062,0.004263188257],
				"inve": [0,-0.2985175237,-0.4675687132,-0.5527050764,-0.5863709882,-0.5904272642,-0.5789126172,-0.5603939575,-0.5397775314,-0.5196212798,-0.5010465866,-0.4843494295,-0.4693952298,-0.4558629692,-0.443387372,-0.4316343674,-0.4203346093,-0.409292032,-0.3983787461,-0.3875235315,-0.3766983586],
				"y": [0,-0.06432898533,-0.1188257417,-0.1425271859,-0.1471943349,-0.1410543461,-0.1295878513,-0.1162302913,-0.1029808066,-0.09087886682,-0.08035426515,-0.07147286068,-0.06410244996,-0.05802011002,-0.05297810295,-0.04874137945,-0.04510630279,-0.04190749865,-0.03901765159,-0.0363435105,-0.03382022754],
				"lab": [0,-0.03831659665,-0.07157178557,-0.0858058453,-0.08831301966,-0.08419422989,-0.07683700217,-0.06835351219,-0.05996368539,-0.05229481341,-0.04560059531,-0.03991395566,-0.03514938941,-0.03116857487,-0.0278201891,-0.02496220203,-0.02247270486,-0.02025357851,-0.01822997861,-0.01634762931,-0.01456920672],
				"pinf": [0,-0.014676801,-0.02070761351,-0.02212382227,-0.02144162692,-0.01987299003,-0.01801645275,-0.01616904467,-0.01447197866,-0.01298266268,-0.01171272803,-0.01064941442,-0.009768148865,-0.009040069414,-0.008436445208,-0.007931111838,-0.007501624248,-0.007129595857,-0.006800546088,-0.006503477936,-0.006230334884],
				"w": [0,-0.01864436771,-0.02858609883,-0.0326984325,-0.03316398835,-0.03148017273,-0.02867855272,-0.02545239797,-0.02224487985,-0.01931641939,-0.01679786641,-0.01473225297,-0.01310677039,-0.01187641965,-0.01098077353,-0.01035524567,-0.009938148287,-0.009674653078,-0.009518578784,-0.009432737192,-0.009388393408],
				"r": [0,0.2460438988,0.1533497697,0.08809843633,0.04148568413,0.01008163408,-0.009880494185,-0.02172512345,-0.02805971621,-0.03080643512,-0.03132489013,-0.03054450402,-0.02907936844,-0.02731954503,-0.02550032726,-0.02375318793,-0.02214233522,-0.02069032401,-0.01939553822,-0.01824375859,-0.01721551642],
				"a": [0,0,1.770559543e-18,3.671429617e-18,5.092989126e-18,5.073638623e-18,3.416386492e-18,1.345591356e-17,1.329272076e-17,2.249492827e-17,2.327978954e-17,2.291222776e-17,2.254332418e-17,3.037745121e-17,2.980844315e-17,2.929573793e-17,3.580802042e-17,4.230500699e-17,4.121439396e-17,4.051521677e-17,3.969733156e-17],
				"b": [0,0,0,0,0,0,0,0,0,0,0,0,0,0,0,0,0,0,0,0,0],
				"g": [0,0,0,0,0,0,0,0,0,0,0,0,0,0,0,0,0,0,0,0,0],
				"qs": [0,0,0,0,0,0,0,0,0,0,0,0,0,0,0,0,0,0,0,0,0],
				"spinf": [0,-5.006740326e-17,7.370040096e-17,4.002633608e-17,-2.013361035e-17,-1.255234226e-17,7.689332973e-18,2.628109056e-18,2.182545302e-17,3.958970381e-17,1.381127709e-17,-8.606837341e-18,-1.079786345e-17,-6.309173484e-18,-3.987965067e-18,1.467432275e-18,4.158500889e-18,2.612537738e-18,-4.710239556e-18,2.789690167e-18,2.035090072e-18],
				"sw": [0,1.09745385e-16,-6.37841159e-17,-1.103263433e-16,-4.494081029e-18,-1.078179682e-17,-2.330140641e-17,-5.774693739e-18,-4.923821022e-17,-1.103432096e-16,-6.880890731e-17,-2.826908574e-17,7.010358528e-18,9.420523536e-18,2.068845011e-17,7.790715341e-18,-9.312532133e-18,-1.182314712e-17,-8.136166568e-18,-2.320038707e-17,-1.039292721e-17],
				"kp": [0,-0.008702765626,-0.02208021412,-0.0375496705,-0.05354961328,-0.06920135898,-0.08406111516,-0.09794778096,-0.1108285684,-0.1227462177,-0.1337749151,-0.1439953129,-0.1534817885,-0.1622971924,-0.1704918938,-0.178105054,-0.1851668406,-0.1917008256,-0.1977261653,-0.2032593815,-0.208315697],
				"rr": [0,-0.7602761843,0.2973559668,0.2060274206,0.1376555614,0.08764464281,0.05294822492,0.02993956291,0.01533698866,0.006531889444,0.001580950255,-0.0009049572085,-0.001886999014,-0.002009871816,-0.00169132282,-0.00119060452,-0.0006592285794,-0.0001777032115,0.000218463759,0.0005207943658,0.0007357638031],
				"er": [0,0.2989444404,0.2051763924,0.1368856151,0.08690379498,0.05220328338,0.02917861254,0.01455810794,0.005736752191,0.0007718773837,-0.001726064569,-0.002718883058,-0.002851835986,-0.0025430797,-0.002052138879,-0.00153069613,-0.001059362482,-0.0006737051945,-0.0003822351516,-0.0001784945088,-4.889954111e-05],
				"ec": [0,0.2989444404,0.2051763924,0.1368856151,0.08690379498,0.05220328338,0.02917861254,0.01455810794,0.005736752191,0.0007718773837,-0.001726064569,-0.002718883058,-0.002851835986,-0.0025430797,-0.002052138879,-0.00153069613,-0.001059362482,-0.0006737051945,-0.0003822351516,-0.0001784945088,-4.889954111e-05],
				"nw": [0,-2.499095129,-2.099961527,-1.801207372,-1.582052164,-1.42107963,-1.300843923,-1.208237708,-1.133929403,-1.071526539,-1.016794632,-0.9670236717,-0.9205470973,-0.8763906938,-0.8340236986,-0.7931869741,-0.7537776515,-0.7157742018,-0.6791897949,-0.6440449651,-0.6103530569],
				"prem": [0,0.03278569228,0.0297062669,0.02734228336,0.0255394773,0.02409828753,0.02288222365,0.02180244967,0.02080387384,0.01985434648,0.01893671839,0.01804321163,0.01717155169,0.01632239585,0.01549769078,0.01469967953,0.01393034978,0.01319117123,0.01248301392,0.01180617209,0.01116044276],
				"pinf4": [0,-0.014676801,-0.03538441451,-0.05750823678,-0.0789498637,-0.08414605273,-0.08145489197,-0.07550011436,-0.0685304661,-0.06164013876,-0.05533641404,-0.04981678379,-0.045112954,-0.04117036073,-0.03789407791,-0.03517577532,-0.03290925071,-0.03099877715,-0.02936287803,-0.02793524413,-0.02666395477],
				"eg": [0,0,0,0,0,0,0,0,0,0,0,0,0,0,0,0,0,0,0,0,0],
				"interest": [0,0.9841755953,0.6133990786,0.3523937453,0.1659427365,0.04032653632,-0.03952197674,-0.0869004938,-0.1122388649,-0.1232257405,-0.1252995605,-0.1221780161,-0.1163174738,-0.1092781801,-0.102001309,-0.09501275173,-0.08856934089,-0.08276129604,-0.07758215288,-0.07297503435,-0.06886206567],
				"inflation": [0,-0.014676801,-0.03538441451,-0.05750823678,-0.0789498637,-0.08414605273,-0.08145489197,-0.07550011436,-0.0685304661,-0.06164013876,-0.05533641404,-0.04981678379,-0.045112954,-0.04117036073,-0.03789407791,-0.03517577532,-0.03290925071,-0.03099877715,-0.02936287803,-0.02793524413,-0.02666395477],
				"inflationq": [0,-0.05870720401,-0.08283045403,-0.08849528908,-0.08576650768,-0.07949196011,-0.07206581099,-0.06467617867,-0.05788791464,-0.05193065073,-0.04685091211,-0.04259765769,-0.03907259546,-0.03616027765,-0.03374578083,-0.03172444735,-0.03000649699,-0.02851838343,-0.02720218435,-0.02601391174,-0.02492133953],
				"inflationql": [0,0,-0.05870720401,-0.08283045403,-0.08849528908,-0.08576650768,-0.07949196011,-0.07206581099,-0.06467617867,-0.05788791464,-0.05193065073,-0.04685091211,-0.04259765769,-0.03907259546,-0.03616027765,-0.03374578083,-0.03172444735,-0.03000649699,-0.02851838343,-0.02720218435,-0.02601391174],
				"inflationql2": [0,0,0,-0.05870720401,-0.08283045403,-0.08849528908,-0.08576650768,-0.07949196011,-0.07206581099,-0.06467617867,-0.05788791464,-0.05193065073,-0.04685091211,-0.04259765769,-0.03907259546,-0.03616027765,-0.03374578083,-0.03172444735,-0.03000649699,-0.02851838343,-0.02720218435],
				"inflationqls": [0,0,-0.05870720401,-0.141537658,-0.1713257431,-0.1742617968,-0.1652584678,-0.1515577711,-0.1367419897,-0.1225640933,-0.1098185654,-0.09878156284,-0.0894485698,-0.08167025315,-0.07523287311,-0.06990605848,-0.06547022818,-0.06173094434,-0.05852488042,-0.05572056778,-0.0532160961],
				"outputgap": [0,-0.06432898533,-0.1188257417,-0.1425271859,-0.1471943349,-0.1410543461,-0.1295878513,-0.1162302913,-0.1029808066,-0.09087886682,-0.08035426515,-0.07147286068,-0.06410244996,-0.05802011002,-0.05297810295,-0.04874137945,-0.04510630279,-0.04190749865,-0.03901765159,-0.0363435105,-0.03382022754],
				"output": [0,-0.06432898533,-0.1188257417,-0.1425271859,-0.1471943349,-0.1410543461,-0.1295878513,-0.1162302913,-0.1029808066,-0.09087886682,-0.08035426515,-0.07147286068,-0.06410244996,-0.05802011002,-0.05297810295,-0.04874137945,-0.04510630279,-0.04190749865,-0.03901765159,-0.0363435105,-0.03382022754],
				"fispol": [0,0,0,0,0,0,0,0,0,0,0,0,0,0,0,0,0,0,0,0,0],
				"newv_long": [0,-8.927440084e-19,-2.859590601e-18,-1.610977424e-19,1.647552363e-17,8.615281937e-20,3.526670018e-18,2.360620758e-18,8.082399568e-19,3.252019248e-18,-3.729020319e-19,4.289343458e-19,1.131210593e-18,-5.780028568e-18,2.097112728e-18,-3.336420573e-19,6.44219476e-18,-8.414265581e-19,-1.342107072e-19,1.949340533e-18,1.34350168e-19],
				"newv_short": [0,-8.927440084e-19,-2.859590601e-18,-1.610977424e-19,1.647552363e-17,8.615281937e-20,3.526670018e-18,2.360620758e-18,8.082399568e-19,3.252019248e-18,-3.729020319e-19,4.289343458e-19,1.131210593e-18,-5.780028568e-18,2.097112728e-18,-3.336420573e-19,6.44219476e-18,-8.414265581e-19,-1.342107072e-19,1.949340533e-18,1.34350168e-19]
			},
			"fiscal_": {
				"ewma": [0,2.126726523e-17,2.579573758e-18,3.383371673e-17,-9.666051122e-17,3.294197629e-17,-8.076793567e-17,2.082957179e-17,4.108041704e-17,2.76559012e-17,4.035198518e-17,-3.88670153e-19,3.082773602e-17,-1.326853569e-17,-1.984636718e-17,-3.312250374e-17,1.769431427e-17,-7.265392804e-19,-3.133020405e-17,3.852656524e-18,3.96028482e-17],
				"epinfma": [0,-6.307704347e-18,1.365569669e-17,-2.784986904e-17,8.825377303e-17,-2.429432822e-17,7.226910184e-17,-2.346262425e-17,-4.119224505e-17,-3.066842546e-17,-3.69005284e-17,3.684740899e-18,-3.170416603e-17,1.300289143e-17,2.525149619e-17,3.13536017e-17,-1.625009718e-17,1.210955157e-18,2.885817435e-17,-1.587611831e-18,-3.88199243e-17],
				"mc": [0,0.07415949191,0.0980726065,0.1030924699,0.09675890046,0.08430416598,0.06926897758,0.05394206402,0.03969879829,0.02726655756,0.0169309114,0.008692379066,0.002382100295,-0.002255897185,-0.005508805583,-0.007659300889,-0.008964666148,-0.009646432165,-0.009887105062,-0.00983136789,-0.009589841269],
				"zcap": [0,0.650645042,0.6041849278,0.5550723201,0.5118959889,0.4796582763,0.46053422,0.454644922,0.4607851541,0.4770157729,0.5011018864,0.5308112188,0.5640987987,0.5992057109,0.6346968761,0.6694584285,0.7026706316,0.7337680369,0.7623950318,0.7883620823,0.8116058319],
				"rk": [0,0.102067871,0.0947795884,0.08707520431,0.08030205472,0.07524486611,0.07224484063,0.07132097573,0.0722842051,0.0748303318,0.07860876423,0.08326932123,0.08849120442,0.09399848959,0.09956605321,0.1050191612,0.1102292199,0.1151075264,0.1195982951,0.1236717936,0.1273180828],
				"k": [0,0.650645042,0.584146738,0.4988650555,0.4070676201,0.317185147,0.234484801,0.1617682682,0.1000610434,0.04920426195,0.008321228411,-0.02383747392,-0.04865344598,-0.06748381293,-0.08156827385,-0.09198217622,-0.09962109885,-0.1052056155,-0.1092977924,-0.1123234054,-0.1145958134],
				"pk": [0,-0.6895321377,-0.6724430264,-0.6412352639,-0.5905979154,-0.5225148074,-0.4442847959,-0.363517458,-0.2861853961,-0.2162282089,-0.1557706951,-0.1055361011,-0.06527217857,-0.03411771355,-0.01088823263,0.005717376073,0.01697814155,0.02406619664,0.02800224189,0.02963940854,0.02966586512],
				"c": [0,0.2879340259,0.4099326468,0.4279120282,0.3818717353,0.3020111907,0.2093754698,0.1174918866,0.03420202006,-0.03668842255,-0.0940648524,-0.1384755726,-0.17138553,-0.1946619698,-0.2102405994,-0.2199259211,-0.2252868966,-0.2276170362,-0.227935361,-0.2270110231,-0.2253995328],
				"inve": [0,-0.6873390686,-1.26069008,-1.723981882,-2.08212753,-2.343232369,-2.518320806,-2.620143144,-2.661919555,-2.656347786,-2.614944269,-2.547685065,-2.4628794,-2.367205632,-2.265848982,-2.162693655,-2.060535026,-1.961288852,-1.866183368,-1.775926819,-1.690847662],
				"y": [0,1.077949965,0.9227442194,0.767051999,0.6205242762,0.4894887207,0.3772300109,0.28459321,0.2107221508,0.1537257023,0.1112005405,0.08060471926,0.05950205854,0.0457049336,0.03734256084,0.03287811966,0.03109332968,0.03105449781,0.03207003373,0.03364616053,0.03544501913],
				"lab": [0,0.6855043714,0.5800335502,0.4788584784,0.3865119797,0.3058695089,0.238201842,0.1834756273,0.140762276,0.1086144221,0.08536076479,0.0693138403,0.0589022674,0.05274399967,0.04967686578,0.04876034445,0.04925959814,0.05061996353,0.05243765625,0.05443048104,0.05641083679],
				"pinf": [0,0.02701704403,0.03605515372,0.03537475726,0.03037357972,0.0238348407,0.01720561382,0.01121168298,0.006172200379,0.002173204611,-0.0008301706269,-0.002950814298,-0.004330369766,-0.005115095581,-0.005441776825,-0.005430369046,-0.005181079704,-0.004774258843,-0.004271943627,-0.003720252306,-0.003152086988],
				"w": [0,0.06720854163,0.09889277613,0.1070817814,0.1008576952,0.08656050422,0.0685277996,0.04961361661,0.03158297251,0.01542017162,0.001569227843,-0.00988199299,-0.01906450895,-0.02622932302,-0.03167908643,-0.03572335951,-0.03865147713,-0.04071805262,-0.04213715352,-0.04308209284,-0.04368856731],
				"r": [0,0.03021982809,0.05235040549,0.06903044747,0.08151631538,0.08608158045,0.08329841822,0.07526982889,0.06422938957,0.05202750137,0.04000416859,0.02902179392,0.01955487992,0.01179016126,0.005717305001,0.001203027459,-0.00195247631,-0.003975152821,-0.00509005909,-0.00550477136,-0.005400537495],
				"a": [0,0,-5.030702901e-18,-4.944174811e-18,-1.233549448e-17,-1.212332397e-17,-6.66746065e-17,-1.17247836e-16,-7.024667327e-17,-6.963599864e-17,-7.68792105e-17,-3.884414253e-17,-2.544156188e-17,-5.37918489e-17,-5.28666291e-17,-8.851189874e-18,-4.228871427e-17,-7.78274616e-17,-3.824487679e-17,-5.157025579e-17,-5.024825258e-17],
				"b": [0,0,0,0,0,0,0,0,0,0,0,0,0,0,0,0,0,0,0,0,0],
				"g": [0,1,0.9249,0.85544001,0.7911964652,0.7317776107,0.6768211121,0.6259918466,0.5789798589,0.5354984715,0.4952825363,0.4580868178,0.4236844978,0.391865792,0.3624366711,0.3352176771,0.3100428295,0.286758613,0.2652230412,0.2453047908,0.226882401],
				"qs": [0,0,0,0,0,0,0,0,0,0,0,0,0,0,0,0,0,0,0,0,0],
				"spinf": [0,-6.307704347e-18,1.479991426e-17,-2.996017627e-17,9.262917478e-17,-3.890080885e-17,7.199325529e-17,-3.666067572e-17,-4.116742031e-17,-2.31881934e-17,-2.893911362e-17,1.293092633e-17,-2.940825098e-17,1.949009751e-17,2.497256996e-17,2.668355654e-17,-2.343485701e-17,1.855288786e-18,2.884508045e-17,-6.826682564e-18,-4.021157759e-17],
				"sw": [0,7.715572715e-17,8.66347191e-17,8.113312973e-17,-1.82459985e-16,3.60899802e-18,-1.862958229e-16,1.574257297e-17,1.104030253e-16,1.426697881e-16,1.549232967e-16,8.705700301e-17,9.678002799e-17,-1.349234743e-17,-3.923597239e-17,-5.662331301e-17,4.200763173e-18,-1.41624551e-17,-5.152088421e-17,-2.219593058e-17,5.750421695e-17],
				"kp": [0,-0.02003818988,-0.05620726461,-0.1048283688,-0.1624731293,-0.226049419,-0.2928766538,-0.3607241106,-0.427811511,-0.492780658,-0.5546486928,-0.6127522447,-0.6666895238,-0.7162651499,-0.7614406048,-0.8022917304,-0.8389736524,-0.8716928242,-0.9006854877,-0.9262016453,-0.9484935864],
				"rr": [0,-0.6637519578,0.04207538815,0.05492678054,0.07248666862,0.08755045478,0.09505192508,0.09492879943,0.08900640586,0.0794361431,0.06809059186,0.05638345407,0.04527156233,0.03532684846,0.02682666552,0.0198395878,0.01429769012,0.01005301446,0.006919070386,0.004699536253,0.003206713927],
				"er": [0,0.03741714371,0.0550996118,0.07277196679,0.08786402814,0.09537669274,0.09526269195,0.08935292876,0.07979884783,0.0684712736,0.05678236432,0.04568818074,0.03576051934,0.02727693227,0.02030628716,0.01478091712,0.01055304497,0.007436289248,0.005234388777,0.003759681168,0.002843797222],
				"ec": [0,0.03741714371,0.0550996118,0.07277196679,0.08786402814,0.09537669274,0.09526269195,0.08935292876,0.07979884783,0.0684712736,0.05678236432,0.04568818074,0.03576051934,0.02727693227,0.02030628716,0.01478091712,0.01055304497,0.007436289248,0.005234388777,0.003759681168,0.002843797222],
				"nw": [0,-2.18181145,-2.026342953,-1.877367934,-1.71907443,-1.55408882,-1.389891844,-1.233700183,-1.090659903,-0.963622303,-0.8535151103,-0.759872028,-0.6813363077,-0.6160713574,-0.5620649775,-0.5173367699,-0.480066493,-0.4486624055,-0.4217868373,-0.3983532641,-0.3775060063],
				"prem": [0,0.04221560979,0.0381795193,0.0341794552,0.03025021946,0.02657055545,0.02324780943,0.02032943456,0.01781935033,0.01569298761,0.01390949318,0.01242081952,0.01117799046,0.01013505567,0.009251286878,0.008492117804,0.007829243653,0.007240202837,0.006707678349,0.006218684564,0.005763748344],
				"pinf4": [0,0.02701704403,0.06307219775,0.09844695501,0.1288205347,0.1256383314,0.1067887915,0.08262571722,0.05842433788,0.03676270179,0.01872691735,0.004564420066,-0.00593815008,-0.01322645027,-0.01783805647,-0.02031761122,-0.02116832116,-0.02082748442,-0.01965765122,-0.01794753448,-0.01591854176],
				"eg": [0,1,0,0,0,0,0,0,0,0,0,0,0,0,0,0,0,0,0,0,0],
				"interest": [0,0.1208793124,0.209401622,0.2761217899,0.3260652615,0.3443263218,0.3331936729,0.3010793156,0.2569175583,0.2081100055,0.1600166744,0.1160871757,0.07821951966,0.04716064505,0.02286922,0.004812109837,-0.007809905238,-0.01590061129,-0.02036023636,-0.02201908544,-0.02160214998],
				"inflation": [0,0.02701704403,0.06307219775,0.09844695501,0.1288205347,0.1256383314,0.1067887915,0.08262571722,0.05842433788,0.03676270179,0.01872691735,0.004564420066,-0.00593815008,-0.01322645027,-0.01783805647,-0.02031761122,-0.02116832116,-0.02082748442,-0.01965765122,-0.01794753448,-0.01591854176],
				"inflationq": [0,0.1080681761,0.1442206149,0.141499029,0.1214943189,0.09533936279,0.06882245527,0.04484673194,0.02468880152,0.008692818442,-0.003320682508,-0.01180325719,-0.01732147906,-0.02046038232,-0.0217671073,-0.02172147618,-0.02072431881,-0.01909703537,-0.01708777451,-0.01488100922,-0.01260834795],
				"inflationql": [0,0,0.1080681761,0.1442206149,0.141499029,0.1214943189,0.09533936279,0.06882245527,0.04484673194,0.02468880152,0.008692818442,-0.003320682508,-0.01180325719,-0.01732147906,-0.02046038232,-0.0217671073,-0.02172147618,-0.02072431881,-0.01909703537,-0.01708777451,-0.01488100922],
				"inflationql2": [0,0,0,0.1080681761,0.1442206149,0.141499029,0.1214943189,0.09533936279,0.06882245527,0.04484673194,0.02468880152,0.008692818442,-0.003320682508,-0.01180325719,-0.01732147906,-0.02046038232,-0.0217671073,-0.02172147618,-0.02072431881,-0.01909703537,-0.01708777451],
				"inflationqls": [0,0,0.1080681761,0.252288791,0.2857196439,0.2629933479,0.2168336817,0.1641618181,0.1136691872,0.06953553345,0.03338161996,0.005372135935,-0.0151239397,-0.02912473625,-0.03778186139,-0.04222748963,-0.04348858349,-0.042445795,-0.03982135419,-0.03618480988,-0.03196878373],
				"outputgap": [0,1.077949965,0.9227442194,0.767051999,0.6205242762,0.4894887207,0.3772300109,0.28459321,0.2107221508,0.1537257023,0.1112005405,0.08060471926,0.05950205854,0.0457049336,0.03734256084,0.03287811966,0.03109332968,0.03105449781,0.03207003373,0.03364616053,0.03544501913],
				"output": [0,1.077949965,0.9227442194,0.767051999,0.6205242762,0.4894887207,0.3772300109,0.28459321,0.2107221508,0.1537257023,0.1112005405,0.08060471926,0.05950205854,0.0457049336,0.03734256084,0.03287811966,0.03109332968,0.03105449781,0.03207003373,0.03364616053,0.03544501913],
				"fispol": [0,1,0,0,0,0,0,0,0,0,0,0,0,0,0,0,0,0,0,0,0],
				"newv_long": [0,1.495956088e-17,1.623527045e-17,5.983847692e-18,-8.406738191e-18,8.64764807e-18,-8.498833829e-18,-2.633052459e-18,-1.118280039e-19,-3.012524261e-18,3.451456776e-18,3.296070746e-18,-8.764300093e-19,-2.656442642e-19,5.405129016e-18,-1.768902045e-18,1.444217093e-18,4.844158768e-19,-2.472029697e-18,2.265044693e-18,7.829238982e-19],
				"newv_short": [0,1.495956088e-17,1.623527045e-17,5.983847692e-18,-8.406738191e-18,8.64764807e-18,-8.498833829e-18,-2.633052459e-18,-1.118280039e-19,-3.012524261e-18,3.451456776e-18,3.296070746e-18,-8.764300093e-19,-2.656442642e-19,5.405129016e-18,-1.768902045e-18,1.444217093e-18,4.844158768e-19,-2.472029697e-18,2.265044693e-18,7.829238982e-19]
			}
		}
	}
}
