{
	"model": "US_YR13",
	"rule": "Model",
	"data": {
		"AC": {
			"ewma": [1,-9.942271409e-18,9.884876078e-35,-9.827812082e-52,9.771077508e-69,-9.714670454e-86,9.658589031e-103,-9.602831358e-120,9.547395566e-137,-9.492279797e-154,9.437482204e-171,-9.383000949e-188,9.328834207e-205,-9.274980162e-222,9.221437009e-239,-9.168202953e-256,9.115276209e-273,-9.062655004e-290,9.010337574e-307,0,0],
			"epinfma": [1,-1.975872516e-17,3.736501066e-34,-9.554906088e-36,-5.448207451e-36,-3.106567889e-36,-1.77136501e-36,-1.010032329e-36,-5.759204339e-37,-3.283898314e-37,-1.872478819e-37,-1.067687422e-37,-6.087953682e-38,-3.47135119e-38,-1.979364448e-38,-1.128633608e-38,-6.435468835e-39,-3.66950433e-39,-2.092351369e-39,-1.193058751e-39,-6.802820996e-40],
			"mc": [1,0.8308866967,0.667220362,0.521532056,0.3974508472,0.2948225159,0.2119011178,0.1463401081,0.0956578782,0.05745947539,0.02953986929,0.009927574125,-0.003102658296,-0.01103361962,-0.015118402,-0.01639808241,-0.01572201204,-0.0137692669,-0.01107028285,-0.008027970512,-0.004937787713],
			"zcap": [1,0.9985113781,0.9959267023,0.9925789926,0.9886613773,0.984298839,0.9795786171,0.9745642196,0.9693027076,0.963829063,0.9581691732,0.9523420678,0.9463616804,0.94023826,0.9339795029,0.9275914441,0.9210791464,0.9144472132,0.907700155,0.9008426343,0.8938796129],
			"rk": [1,0.9985113781,0.9959267023,0.9925789926,0.9886613773,0.984298839,0.9795786171,0.9745642196,0.9693027076,0.963829063,0.9581691732,0.9523420678,0.9463616804,0.94023826,0.9339795029,0.9275914441,0.9210791464,0.9144472132,0.907700155,0.9008426343,0.8938796129],
			"k": [1,0.9841780906,0.9601525256,0.932447792,0.9035461392,0.8749217346,0.8474831112,0.8217806506,0.7981176206,0.7766192719,0.7572817278,0.7400094953,0.7246453182,0.7109940851,0.6988417407,0.68796987,0.6781665317,0.669233888,0.6609931528,0.6532873582,0.6459823968],
			"pk": [1,0.5682644544,0.3598658225,0.2446819094,0.1716038554,0.1201723402,0.08181223104,0.05256772376,0.03030037237,0.01361538642,0.001454502537,-0.007056213508,-0.01266280842,-0.01600529558,-0.01762808429,-0.0179874457,-0.01745883181,-0.01634473999,-0.01488305894,-0.01325560567,-0.01159653773],
			"c": [1,0.993545137,0.9804436004,0.9635514489,0.9444240324,0.9240876129,0.9033111757,0.8826976449,0.8627145765,0.8437079289,0.825913502,0.8094699201,0.7944333324,0.7807929346,0.7684863048,0.7574137414,0.7474510526,0.738460489,0.7302997058,0.7228287869,0.7159154652],
			"inve": [1,0.9938712327,0.9809985312,0.9642625793,0.9453383338,0.9252922255,0.9048428219,0.88448396,0.8645505835,0.8452596129,0.8267388746,0.8090493825,0.7922031877,0.7761778165,0.7609278599,0.7463941128,0.7325106016,0.7192098128,0.7064264142,0.6940997437,0.6821753118],
			"y": [1,0.9789272786,0.944861649,0.9040239551,0.8599158138,0.8147505223,0.7700311195,0.726799273,0.6857582051,0.6473473231,0.6117973798,0.5791762903,0.5494288043,0.5224108699,0.4979188596,0.4757137784,0.4555406874,0.4371437159,0.4202771347,0.4047130271,0.3902461083],
			"lab": [1,0.9713896844,0.9325424627,0.8899482513,0.8469526084,0.80541103,0.7663837794,0.7304508012,0.6978734721,0.6686917053,0.6427909239,0.6199524487,0.599892814,0.5822945173,0.5668296267,0.5531773006,0.5410361447,0.5301322754,0.5202238982,0.5111031481,0.5025958594],
			"pinf": [1,0.7873736018,0.6711013581,0.5772265034,0.4922514531,0.4157741543,0.3488389093,0.2917581234,0.2441057563,0.2050273285,0.1734831331,0.148394145,0.1287214169,0.1135068363,0.1018923425,0.09312696931,0.08656671138,0.08166998321,0.07799032223,0.07516742858,0.07291732321],
			"w": [1,0.9884477592,0.9730632997,0.9559604698,0.9382498925,0.9205447784,0.9031899595,0.8863759895,0.8702004199,0.854702682,0.8398849824,0.8257254775,0.8121870238,0.7992232767,0.7867830993,0.7748138128,0.7632635905,0.7520831826,0.7412270999,0.7306543533,0.7203288352],
			"r": [1,0.9922383267,0.9747434838,0.949969828,0.9198218568,0.8859164547,0.8496248253,0.8120806055,0.7741930563,0.7366682252,0.7000345462,0.664669636,0.6308262346,0.5986561616,0.5682317373,0.539564457,0.5126209135,0.4873360857,0.4636241869,0.4413873106,0.4205221339],
			"a": [1,0.9828,0.96589584,0.9492824316,0.9329547737,0.9169079516,0.9011371349,0.8856375761,0.8704046098,0.8554336505,0.8407201917,0.8262598044,0.8120481358,0.7980809079,0.7843539163,0.7708630289,0.7576041848,0.7445733928,0.7317667305,0.7191803427,0.7068104408],
			"b": [1,0.3881,0.15062161,0.05845624684,0.0226868694,0.008804774014,0.003417132795,0.001326189238,0.0005146940431,0.0001997527581,7.752404543e-05,3.008708203e-05,1.167679654e-05,4.531764736e-06,1.758777894e-06,6.825817007e-07,2.64909958e-07,1.028115547e-07,3.990116438e-08,1.54856419e-08,6.00997762e-09],
			"g": [1,0.9249,0.85544001,0.7911964652,0.7317776107,0.6768211121,0.6259918466,0.5789798589,0.5354984715,0.4952825363,0.4580868178,0.4236844978,0.391865792,0.3624366711,0.3352176771,0.3100428295,0.286758613,0.2652230412,0.2453047908,0.226882401,0.2098435327],
			"qs": [1,0.4265,0.18190225,0.07758130963,0.03308842856,0.01411221478,0.006018859603,0.002567043621,0.001094844104,0.0004669510105,0.000199154606,8.493943944e-05,3.622667092e-05,1.545067515e-05,6.589712951e-06,2.810512573e-06,1.198683613e-06,5.112385608e-07,2.180432462e-07,9.299544449e-08,3.966255708e-08],
			"spinf": [1,-0.1636401803,-0.0524630418,-0.0168196512,-0.005392380175,-0.001728797084,-0.0005542523452,-0.0001776933019,-5.696847258e-05,-1.826409231e-05,-5.855467994e-06,-1.877263039e-06,-6.018505303e-07,-1.9295328e-07,-6.186082157e-08,-1.98325794e-08,-6.358324954e-09,-2.03847898e-09,-6.535363611e-10,-2.095237574e-10,-6.717331661e-11],
			"sw": [1,0.1273675442,0.0726249737,0.04141076,0.02361241535,0.01346379924,0.007677058324,0.004377458656,0.002496026926,0.001423234553,0.0008115283422,0.0004627334607,0.0002638506193,0.0001504476231,8.57852347e-05,4.891474083e-05,2.789118522e-05,1.590355381e-05,9.068206384e-06,5.17069128e-06,2.948328168e-06],
			"kp": [1,0.9997176099,0.9988975133,0.9975666998,0.995753013,0.9934849534,0.9907911336,0.987699711,0.9842379181,0.9804317236,0.9763056184,0.9718825067,0.967183681,0.962228859,0.9570362623,0.9516227229,0.946003804,0.9401939256,0.9342064878,0.9280539877,0.9217481256],
			"rr": [1,-0.2577117131,-0.1072139174,-0.04811090609,-0.02446170131,-0.01456040328,-0.01000332098,-0.007548902056,-0.005954708039,-0.004749395545,-0.003756582036,-0.002910731582,-0.002186396045,-0.00157141453,-0.001057115271,-0.0006350462342,-0.0002961631243,-3.08927273e-05,0.0001705405279,0.0003177574528,0.0004199196811],
			"er": [1,0.4797522588,0.261586049,0.1625734255,0.111717691,0.08139129793,0.06075052818,0.04543673092,0.03359300948,0.02432806102,0.01712710576,0.01162846657,0.007540567645,0.004612210846,0.002622514163,0.001377642143,0.0007094959725,0.0004746391613,0.0005529283249,0.0008457666298,0.001274054316],
			"ec": [1,0.4797522588,0.261586049,0.1625734255,0.111717691,0.08139129793,0.06075052818,0.04543673092,0.03359300948,0.02432806102,0.01712710576,0.01162846657,0.007540567645,0.004612210846,0.002622514163,0.001377642143,0.0007094959725,0.0004746391613,0.0005529283249,0.0008457666298,0.001274054316],
			"nw": [1,0.9054856009,0.8378648925,0.7833399363,0.7362535083,0.6941368396,0.655786384,0.6205167283,0.5878696275,0.5574996198,0.5291278217,0.5025219507,0.4774864064,0.4538562252,0.4314925835,0.4102790046,0.3901179824,0.3709279376,0.3526404918,0.3351980569,0.3185517386],
			"prem": [1,0.9413800529,0.8896789467,0.8427919704,0.7996266999,0.7595169631,0.7219958294,0.686706125,0.6533631925,0.621737268,0.5916431576,0.5629326844,0.5354883352,0.5092176197,0.4840480331,0.4599226206,0.4367961556,0.4146319281,0.3933991157,0.3730706974,0.3536218509],
			"pinf4": [1,0.9595841357,0.8728623004,0.7604889582,0.6421201784,0.5444153151,0.459514029,0.3863062479,0.3244097196,0.2730807549,0.2312419902,0.1976627304,0.1710958165,0.1503578487,0.1343705905,0.1221792719,0.1129575735,0.1060048467,0.1007387325,0.09668507381,0.09346635383],
			"eg": [1,-3.996505026e-16,-2.867476049e-16,-1.715687645e-16,-6.930534324e-17,1.650735757e-17,8.510412413e-17,1.371703606e-16,1.741633317e-16,1.979303871e-16,2.104752522e-16,2.138064385e-16,2.098370519e-16,2.003202438e-16,1.868109902e-16,1.706477881e-16,1.52949339e-16,1.346221903e-16,1.163759926e-16,9.874361551e-17,8.210389492e-17],
			"interest": [1,0.9922383267,0.9747434838,0.949969828,0.9198218568,0.8859164547,0.8496248253,0.8120806055,0.7741930563,0.7366682252,0.7000345462,0.664669636,0.6308262346,0.5986561616,0.5682317373,0.539564457,0.5126209135,0.4873360857,0.4636241869,0.4413873106,0.4205221339],
			"inflation": [1,0.9595841357,0.8728623004,0.7604889582,0.6421201784,0.5444153151,0.459514029,0.3863062479,0.3244097196,0.2730807549,0.2312419902,0.1976627304,0.1710958165,0.1503578487,0.1343705905,0.1221792719,0.1129575735,0.1060048467,0.1007387325,0.09668507381,0.09346635383],
			"inflationq": [1,0.7873736018,0.6711013581,0.5772265034,0.4922514531,0.4157741543,0.3488389093,0.2917581234,0.2441057563,0.2050273285,0.1734831331,0.148394145,0.1287214169,0.1135068363,0.1018923425,0.09312696931,0.08656671138,0.08166998321,0.07799032223,0.07516742858,0.07291732321],
			"inflationql": [1,0.7873736018,0.6711013581,0.5772265034,0.4922514531,0.4157741543,0.3488389093,0.2917581234,0.2441057563,0.2050273285,0.1734831331,0.148394145,0.1287214169,0.1135068363,0.1018923425,0.09312696931,0.08656671138,0.08166998321,0.07799032223,0.07516742858,0.07291732321],
			"inflationql2": [1,0.7873736018,0.6711013581,0.5772265034,0.4922514531,0.4157741543,0.3488389093,0.2917581234,0.2441057563,0.2050273285,0.1734831331,0.148394145,0.1287214169,0.1135068363,0.1018923425,0.09312696931,0.08656671138,0.08166998321,0.07799032223,0.07516742858,0.07291732321],
			"inflationqls": [1,0.9079938739,0.7572011857,0.6483831404,0.5531869671,0.4679040435,0.3930935578,0.3291032471,0.2755431107,0.231525056,0.1959265089,0.1675622935,0.1452812704,0.1280167257,0.1148104935,0.1048222353,0.09733006433,0.09172592672,0.08750774207,0.08426959599,0.08169089182],
			"outputgap": [1,0.9571223672,0.8967184312,0.8295713342,0.7613555651,0.6952992657,0.6333027325,0.5764471605,0.5252587018,0.4798698363,0.4401329871,0.4057076294,0.3761293541,0.3508646414,0.329353481,0.311041463,0.2954028278,0.2819559056,0.2702723167,0.2599812125,0.2507697157],
			"output": [1,0.9789272786,0.944861649,0.9040239551,0.8599158138,0.8147505223,0.7700311195,0.726799273,0.6857582051,0.6473473231,0.6117973798,0.5791762903,0.5494288043,0.5224108699,0.4979188596,0.4757137784,0.4555406874,0.4371437159,0.4202771347,0.4047130271,0.3902461083],
			"fispol": [1,-1.73871121e-16,-1.193688274e-16,-6.358218083e-17,-1.411785552e-17,2.724633019e-17,6.011836535e-17,8.483225421e-17,1.021085845e-16,1.128635906e-16,1.180922536e-16,1.187924642e-16,1.159148886e-16,1.103306577e-16,1.028122237e-16,9.402417732e-17,8.452156147e-17,7.475366551e-17,6.507162964e-17,5.573848024e-17,4.694048284e-17],
			"neww": [1,-0.08696309046,-0.0278803668,-0.008938445596,-0.002865665658,-0.00091873241,-0.0002945456106,-9.443132277e-05,-3.027468208e-05,-9.706063075e-06,-3.111763822e-06,-9.976314813e-07,-3.198406529e-07,-1.025409133e-07,-3.287461681e-08,-1.053960215e-08,-3.378996449e-09,-1.083306262e-09,-3.473079875e-10,-1.113469408e-10,-3.569782921e-11]
		},
		"VAR": {
			"ewma": 0.05184729,
			"epinfma": 0.03429904,
			"mc": 1.063336769,
			"zcap": 200.2145815,
			"rk": 4.92703408,
			"k": 15.34428376,
			"pk": 26.7333518,
			"c": 44.58121795,
			"inve": 455.9730742,
			"y": 17.53995002,
			"lab": 5.866946644,
			"pinf": 0.196996794,
			"w": 11.95371138,
			"r": 0.2584458249,
			"a": 6.90578774,
			"b": 3.779878647,
			"g": 2.031717783,
			"qs": 0.1915868978,
			"spinf": 0.03555697933,
			"sw": 0.05292063572,
			"kp": 286.9524418,
			"rr": 22.35831339,
			"er": 5.609494514,
			"ec": 5.609494514,
			"nw": 1020.778731,
			"prem": 0.2766944143,
			"pinf4": 2.474890433,
			"eg": 0.21483225,
			"interest": 4.135133199,
			"inflation": 2.474890433,
			"inflationq": 3.151948705,
			"inflationql": 3.151948705,
			"inflationql2": 3.151948705,
			"inflationqls": 11.26741982,
			"outputgap": 9.753564181,
			"output": 17.53995002,
			"fispol": 0.21483225,
			"neww": 0.1384540993
		},
		"IRF": {
			"interest_": {
				"ewma": [0,2.430125166e-17,-2.416096396e-34,2.402148612e-51,-2.388281347e-68,2.374494135e-85,-2.360786515e-102,2.347158027e-119,-2.333608215e-136,2.320136624e-153,-2.306742802e-170,2.293426301e-187,-2.280186674e-204,2.267023478e-221,-2.253936271e-238,2.240924614e-255,-2.227988072e-272,2.215126211e-289,-2.2023386e-306,1.976262583e-323,0],
				"epinfma": [0,0,3.41952677e-34,2.092328922e-35,1.193045951e-35,6.802748015e-36,3.878926918e-36,2.211764129e-36,1.261147906e-36,7.191065361e-37,4.100345469e-37,2.338016986e-37,1.333137286e-37,7.601548802e-38,4.334403127e-38,2.471476663e-38,1.409235993e-38,8.035463634e-39,4.581821364e-39,2.612554542e-39,1.4896786e-39],
				"mc": [0,-0.1356815293,-0.2238219035,-0.2794690251,-0.3111429917,-0.3241673302,-0.3225854599,-0.3098411016,-0.2889768476,-0.2626642113,-0.2331905009,-0.2024485404,-0.1719425418,-0.1428106235,-0.1158600832,-0.09161062018,-0.07034114233,-0.05213667125,-0.0369328023,-0.02455602479,-0.0147589165],
				"zcap": [0,-0.2990127639,-0.5077394867,-0.6092659834,-0.6295117332,-0.589415368,-0.5063407868,-0.3946799513,-0.2661784377,-0.1301880035,0.006084049495,0.1373131048,0.2597874129,0.3711402494,0.4700940099,0.5562240915,0.6297478347,0.6913413886,0.7419853519,0.782838496,0.8151377627],
				"rk": [0,-0.04690667607,-0.07965001665,-0.09557666283,-0.09875265041,-0.09246266069,-0.07943060006,-0.06191416172,-0.04175589559,-0.02042282887,0.0009544159088,0.02154055647,0.0407533239,0.05822144588,0.07374450225,0.08725588478,0.09878968809,0.1084519809,0.1163965915,0.1228052985,0.1278721432],
				"k": [0,-0.2990127639,-0.5476804743,-0.7158571901,-0.8188898708,-0.869547547,-0.8790976074,-0.8575690599,-0.8137572132,-0.7551863688,-0.6881050182,-0.6175300198,-0.5473341678,-0.4803647088,-0.4185797498,-0.3631912604,-0.3148058358,-0.2735568513,-0.2392238187,-0.2113365667,-0.1892632872],
				"pk": [0,-2.515693567,-2.038433894,-1.599670256,-1.215959873,-0.8910959857,-0.6230689346,-0.4072229149,-0.2377600815,-0.1085101192,-0.01335719584,0.0535071454,0.09743075353,0.1232122576,0.1350583973,0.136575502,0.1307864177,0.1201658243,0.1066880227,0.09188222963,0.076891313],
				"c": [0,-0.4486784212,-0.8153439342,-1.087147022,-1.265159031,-1.358215781,-1.379129282,-1.342260883,-1.261952683,-1.151540047,-1.022774372,-0.8855394001,-0.7477755246,-0.6155468706,-0.4932008676,-0.3835817613,-0.288269059,-0.2078197464,-0.1419995023,-0.08999328246,-0.05058968193],
				"inve": [0,-1.370033989,-2.32614048,-2.946303396,-3.302373803,-3.457292159,-3.464425444,-3.367867907,-3.20318335,-2.998340132,-2.774711474,-2.548070233,-2.32953601,-2.126448932,-1.943155097,-1.781696257,-1.642402003,-1.524386899,-1.425958131,-1.344941304,-1.27893329],
				"y": [0,-0.3339839449,-0.641013742,-0.8450793255,-0.9634851526,-1.013277195,-1.010258649,-0.9684774719,-0.8999995045,-0.8148644053,-0.7211610171,-0.6251791102,-0.5316064068,-0.4437478311,-0.3637499462,-0.2928183064,-0.2314193135,-0.1794612811,-0.1364518834,-0.1016310716,-0.07407995655],
				"lab": [0,-0.1881273614,-0.3676006756,-0.4861640071,-0.5536009109,-0.5801337705,-0.5753818195,-0.5478926424,-0.5049626191,-0.4526115719,-0.3956432186,-0.3377534811,-0.2816635887,-0.2292629485,-0.1817516391,-0.1397756908,-0.1035507391,-0.0729714751,-0.04770571504,-0.02727296021,-0.01110807894],
				"pinf": [0,-0.1583916921,-0.2190047268,-0.2346485756,-0.228893254,-0.2126897979,-0.19146938,-0.1681713879,-0.1445372073,-0.1216693722,-0.1002820305,-0.08082291654,-0.06354209252,-0.04853821247,-0.03579441105,-0.02520829374,-0.01661753133,-0.009821516628,-0.004599262938,-0.0007237242238,0.002027205385],
				"w": [0,-0.1577920786,-0.2597298154,-0.3252698458,-0.3640416103,-0.3818764372,-0.383146388,-0.3715905793,-0.3505504897,-0.3229976258,-0.2915073837,-0.2582359822,-0.2249172552,-0.1928803145,-0.1630836084,-0.1361596847,-0.1124654086,-0.09213339525,-0.07512151217,-0.06125830792,-0.05028306502],
				"r": [0,0.2197978168,0.1640501992,0.1126774479,0.06795698722,0.03050043128,0.0001422351205,-0.02365220736,-0.0415881216,-0.05443690307,-0.06297620212,-0.0679531812,-0.07006142586,-0.06992694313,-0.06810074515,-0.06505639098,-0.0611912609,-0.05683055871,-0.05223319512,-0.04759884132,-0.04307556907],
				"a": [0,-1.336368082e-17,-1.313382551e-17,-1.290792371e-17,-1.268590742e-17,-1.246770981e-17,-1.22532652e-17,-1.204250904e-17,-1.183537789e-17,-1.163180939e-17,-1.143174227e-17,-1.12351163e-17,-1.10418723e-17,-1.085195209e-17,-1.066529852e-17,-1.048185538e-17,-1.030156747e-17,-1.012438051e-17,-9.950241166e-18,-9.779097018e-18,-9.61089655e-18],
				"b": [0,0,1.316625562e-33,2.183261149e-34,-1.431257565e-34,-2.114821309e-34,-1.820837692e-34,-1.324223547e-34,-8.862409896e-35,-5.648476011e-35,-3.488437259e-35,-2.108647322e-35,-1.255421294e-35,-7.392856435e-36,-4.318540086e-36,-2.507637685e-36,-1.449608808e-36,-8.3517566e-37,-4.799600816e-37,-2.752972665e-37,-1.576778889e-37],
				"g": [0,2.42308577e-16,1.686812585e-15,3.301333229e-15,4.849382222e-15,6.22791894e-15,7.386980064e-15,8.308504456e-15,8.994446862e-15,9.459386246e-15,9.725529572e-15,9.819160786e-15,9.768073537e-15,9.599734914e-15,9.340018478e-15,9.012387244e-15,8.637430064e-15,8.232669932e-15,7.812574934e-15,7.388713381e-15,6.970004728e-15],
				"qs": [0,-5.608760017e-17,-2.392136147e-17,-1.020246067e-17,-4.351349475e-18,-1.855850551e-18,-7.915202601e-19,-3.375833909e-19,-1.439793162e-19,-6.140717837e-20,-2.619016158e-20,-1.117010391e-20,-4.764049318e-21,-2.031867034e-21,-8.665912901e-22,-3.696011852e-22,-1.576349055e-22,-6.72312872e-23,-2.867414399e-23,-1.222952241e-23,-5.215891309e-24],
				"spinf": [0,0,1.193015825e-33,6.386259456e-34,4.381745781e-34,2.735811829e-34,1.636051232e-34,9.572712923e-35,5.536570892e-35,3.182026844e-35,1.822430469e-35,1.041727081e-35,5.948190408e-36,3.394307157e-36,1.936283206e-36,1.104340959e-36,6.297825058e-37,3.591299703e-37,2.047848813e-37,1.167712158e-37,6.658386943e-38],
				"sw": [0,2.430125166e-17,2.872407947e-18,1.637847011e-18,9.339003657e-19,5.325099885e-19,3.036371955e-19,1.731339289e-19,9.872096623e-20,5.629069495e-20,3.209695426e-20,1.830168332e-20,1.043561983e-20,5.950390426e-21,3.392912621e-21,1.934638776e-21,1.10313103e-21,6.290053135e-22,3.586588297e-22,2.045072647e-22,1.166100423e-22],
				"kp": [0,-0.03994098758,-0.1065912067,-0.1893781377,-0.280132179,-0.3727568206,-0.4628891086,-0.5475787755,-0.6249983653,-0.6941890677,-0.7548431246,-0.8071215807,-0.8515049582,-0.8886737598,-0.9194153518,-0.9445536704,-0.9648982399,-0.9812091707,-0.9941750626,-1.00440105,-1.012404566],
				"rr": [0,-2.43529214,0.5410517401,0.4877477248,0.4200946711,0.3508731225,0.2857318185,0.227091752,0.175846137,0.1321187169,0.0956190122,0.06582327959,0.04207778408,0.02366493661,0.009849319001,-8.909607165e-05,-0.006831127556,-0.01100208029,-0.01316162088,-0.01379871591,-0.01333061476],
				"er": [0,0.5410517401,0.4877477248,0.4200946711,0.3508731225,0.2857318185,0.227091752,0.175846137,0.1321187169,0.0956190122,0.06582327959,0.04207778408,0.02366493661,0.009849319001,-8.909607165e-05,-0.006831127556,-0.01100208029,-0.01316162088,-0.01379871591,-0.01333061476,-0.01210494266],
				"ec": [0,0.5410517401,0.4877477248,0.4200946711,0.3508731225,0.2857318185,0.227091752,0.175846137,0.1321187169,0.0956190122,0.06582327959,0.04207778408,0.02366493661,0.009849319001,-8.909607165e-05,-0.006831127556,-0.01100208029,-0.01316162088,-0.01379871591,-0.01333061476,-0.01210494266],
				"nw": [0,-8.005020873,-7.106365637,-6.301515729,-5.599638445,-4.997293646,-4.485827912,-4.054697409,-3.693013047,-3.390289624,-3.136820853,-2.923864131,-2.743718135,-2.589733724,-2.456280507,-2.338683377,-2.233139417,-2.136623255,-2.046787318,-1.96186205,-1.880559932],
				"prem": [0,0.1022491965,0.08904895,0.07852396919,0.0702263374,0.06376200723,0.05877812898,0.05496113705,0.05203746632,0.04977388477,0.04797656518,0.04648887276,0.04518815,0.04398185108,0.04280335534,0.04160773209,0.04036766398,0.03906967488,0.03771075499,0.03629543195,0.03483330276],
				"pinf4": [0,-0.1583916921,-0.3773964189,-0.6120449945,-0.8409382485,-0.8952363543,-0.8677010075,-0.8012238199,-0.7168677732,-0.6258473474,-0.5346599979,-0.4473115265,-0.3663164117,-0.293185252,-0.2286976326,-0.1730830098,-0.1261584486,-0.08744175275,-0.05624660464,-0.03176203512,-0.0131172984],
				"eg": [0,1.615390513e-16,9.751342545e-16,1.160800179e-15,1.197319412e-15,1.161816882e-15,1.084518557e-15,9.841910629e-16,8.73274061e-16,7.602815619e-16,6.510288219e-16,5.493456567e-16,4.575544843e-16,3.768291332e-16,3.074824368e-16,2.492027695e-16,2.012487345e-16,1.626072438e-16,1.321190096e-16,1.085752164e-16,9.078914756e-17],
				"interest": [0,0.8791912672,0.6562007968,0.4507097915,0.2718279489,0.1220017251,0.0005689404821,-0.09460882946,-0.1663524864,-0.2177476123,-0.2519048085,-0.2718127248,-0.2802457034,-0.2797077725,-0.2724029806,-0.2602255639,-0.2447650436,-0.2273222348,-0.2089327805,-0.1903953653,-0.1723022763],
				"inflation": [0,-0.1583916921,-0.3773964189,-0.6120449945,-0.8409382485,-0.8952363543,-0.8677010075,-0.8012238199,-0.7168677732,-0.6258473474,-0.5346599979,-0.4473115265,-0.3663164117,-0.293185252,-0.2286976326,-0.1730830098,-0.1261584486,-0.08744175275,-0.05624660464,-0.03176203512,-0.0131172984],
				"inflationq": [0,-0.6335667684,-0.8760189072,-0.9385943025,-0.9155730161,-0.8507591916,-0.76587752,-0.6726855517,-0.5781488293,-0.4866774887,-0.401128122,-0.3232916662,-0.2541683701,-0.1941528499,-0.1431776442,-0.100833175,-0.06647012534,-0.03928606651,-0.01839705175,-0.002894896895,0.008108821542],
				"inflationql": [0,-1.073239437e-17,-0.6335667684,-0.8760189072,-0.9385943025,-0.9155730161,-0.8507591916,-0.76587752,-0.6726855517,-0.5781488293,-0.4866774887,-0.401128122,-0.3232916662,-0.2541683701,-0.1941528499,-0.1431776442,-0.100833175,-0.06647012534,-0.03928606651,-0.01839705175,-0.002894896895],
				"inflationql2": [0,5.196895419e-17,2.352881396e-15,-0.6335667684,-0.8760189072,-0.9385943025,-0.9155730161,-0.8507591916,-0.76587752,-0.6726855517,-0.5781488293,-0.4866774887,-0.401128122,-0.3232916662,-0.2541683701,-0.1941528499,-0.1431776442,-0.100833175,-0.06647012534,-0.03928606651,-0.01839705175],
				"inflationqls": [0,4.123655982e-17,-0.6335667684,-1.509585676,-1.81461321,-1.854167319,-1.766332208,-1.616636712,-1.438563072,-1.250834381,-1.064826318,-0.8878056107,-0.7244197882,-0.5774600362,-0.44832122,-0.3373304941,-0.2440108191,-0.1673033003,-0.1057561918,-0.05768311826,-0.02129194865],
				"outputgap": [0,-0.3339839449,-0.641013742,-0.8450793255,-0.9634851526,-1.013277195,-1.010258649,-0.9684774719,-0.8999995045,-0.8148644053,-0.7211610171,-0.6251791102,-0.5316064068,-0.4437478311,-0.3637499462,-0.2928183064,-0.2314193135,-0.1794612811,-0.1364518834,-0.1016310716,-0.07407995655],
				"output": [0,-0.3339839449,-0.641013742,-0.8450793255,-0.9634851526,-1.013277195,-1.010258649,-0.9684774719,-0.8999995045,-0.8148644053,-0.7211610171,-0.6251791102,-0.5316064068,-0.4437478311,-0.3637499462,-0.2928183064,-0.2314193135,-0.1794612811,-0.1364518834,-0.1016310716,-0.07407995655],
				"fispol": [0,8.076952566e-17,4.875671272e-16,5.804000897e-16,5.986597061e-16,5.809084412e-16,5.422592787e-16,4.920955314e-16,4.366370305e-16,3.801407809e-16,3.255144109e-16,2.746728283e-16,2.287772421e-16,1.884145666e-16,1.537412184e-16,1.246013848e-16,1.006243673e-16,8.130362191e-17,6.60595048e-17,5.428760818e-17,4.539457378e-17],
				"neww": [0,-5.375985973e-33,1.483813288e-31,1.062668536e-31,6.621889369e-32,3.483324689e-32,9.678820134e-33,-1.056402538e-32,-2.672820997e-32,-3.94295027e-32,-4.917949531e-32,-5.64304505e-32,-6.159126782e-32,-6.503189564e-32,-6.708376264e-32,-6.803944528e-32,-6.815283412e-32,-6.764018513e-32,-6.668205588e-32,-6.542596689e-32,-6.39895758e-32]
			},
			"fiscal_": {
				"ewma": [0,3.019462671e-17,-3.002031739e-34,2.984701433e-51,-2.967471172e-68,2.950340379e-85,-2.93330848e-102,2.916374903e-119,-2.899539082e-136,2.882800452e-153,-2.866158451e-170,2.849612522e-187,-2.833162111e-204,2.816806665e-221,-2.800545637e-238,2.784378482e-255,-2.768304658e-272,2.752323625e-289,-2.736434849e-306,2.964393875e-323,0],
				"epinfma": [0,0,4.248807254e-34,2.599746368e-35,1.482375379e-35,8.452504413e-36,4.819618016e-36,2.748146193e-36,1.566992959e-36,8.934993853e-37,5.094733495e-37,2.905017039e-37,1.656440716e-37,9.44502496e-38,5.385553232e-38,3.070842453e-38,1.750994367e-38,9.984169879e-39,5.692973665e-39,3.246133584e-39,1.850945369e-39],
				"mc": [0,0.09093567163,0.126673981,0.1396470283,0.1375882369,0.1260359118,0.1090305013,0.08950711309,0.06954946714,0.05057553046,0.03348443694,0.01877731715,0.006657741828,-0.002885213478,-0.01000924387,-0.01496469402,-0.01805238108,-0.01959173271,-0.01989765853,-0.01926465531,-0.01795675995],
				"zcap": [0,0.6903611763,0.6746085843,0.6421009728,0.6028940917,0.563908411,0.5297101194,0.5030594104,0.4853370998,0.4768942125,0.4773426846,0.4857954646,0.5010611285,0.521797465,0.5466285944,0.5742303968,0.6033890893,0.6330376816,0.6622747551,0.6903696073,0.7167573274],
				"rk": [0,0.1082982132,0.1058270755,0.1007275473,0.09457709259,0.08846133796,0.08309658976,0.07891584458,0.07613571349,0.07481126239,0.07488161502,0.07620761799,0.07860237046,0.08185531727,0.08575062171,0.09008056665,0.09465474376,0.09930577235,0.1038922452,0.1082995358,0.1124390254],
				"k": [0,0.6903611763,0.6602520799,0.6011904303,0.5253433834,0.4416837412,0.3567366548,0.275089981,0.1997882364,0.1326584866,0.07458727411,0.02575636156,-0.01415885619,-0.04582541718,-0.07012044783,-0.0880272378,-0.1005563212,-0.1086880481,-0.1133331757,-0.115308176,-0.115322221],
				"pk": [0,-0.3690804497,-0.3709833981,-0.3702177915,-0.3620283241,-0.3454864604,-0.321479041,-0.2916838054,-0.2580240274,-0.2223714144,-0.1863874266,-0.1514470142,-0.1186135712,-0.0886460378,-0.06202558066,-0.03899316649,-0.01959192683,-0.003710069291,0.008878515237,0.01847773735,0.02543786747],
				"c": [0,0.3446570216,0.5326504413,0.6065404253,0.6009811266,0.5434206219,0.4550275092,0.351654436,0.2447555869,0.1422224419,0.04912387673,-0.03165266281,-0.09885651424,-0.1524200473,-0.193088262,-0.2221231118,-0.2410734384,-0.2516013587,-0.2553562314,-0.2538878693,-0.2485913714],
				"inve": [0,-0.4924489894,-0.9251986481,-1.297721543,-1.609932588,-1.862982171,-2.059415079,-2.203027793,-2.298593634,-2.351546056,-2.367669414,-2.352823635,-2.312715613,-2.252721654,-2.177759976,-2.092209,-1.999865331,-1.903934528,-1.807047624,-1.71129674,-1.618283771],
				"y": [0,1.124289898,1.01575906,0.8932236302,0.7662329949,0.6419678233,0.5255132379,0.4201826547,0.3278465034,0.2492421556,0.1842529008,0.1321503319,0.0917984781,0.06182054942,0.04073077904,0.02703483112,0.01930276673,0.01621874336,0.0166115582,0.01946990557,0.02394586438],
				"lab": [0,0.712048088,0.6342129773,0.5525775388,0.4716197457,0.3947507237,0.3243435602,0.2618608172,0.2080148744,0.1629304476,0.126294966,0.09749043706,0.07570453206,0.06002086155,0.04948967655,0.0431809319,0.04022200115,0.03982245038,0.04128823795,0.04402756106,0.0475503563],
				"pinf": [0,0.03956432778,0.05209094689,0.05165323328,0.04517677267,0.036245827,0.02679530375,0.01788642132,0.01008124681,0.003637942039,-0.001377375857,-0.005020287768,-0.007420548816,-0.008748652139,-0.009192045159,-0.008938453055,-0.008164632013,-0.007029311792,-0.005669342744,-0.00419824014,-0.002706460412],
				"w": [0,0.08661130141,0.131866178,0.1493404388,0.1483007303,0.1353943555,0.1154896844,0.09214500834,0.06790907553,0.04453930145,0.02317392319,0.0044735425,-0.01126101779,-0.02399096146,-0.03385950267,-0.04112760305,-0.04612357855,-0.04920472611,-0.05072916841,-0.05103620129,-0.05043355187],
				"r": [0,0.03649384647,0.04051670705,0.0434795966,0.04489664265,0.04475367594,0.04325431944,0.04069072604,0.03737500692,0.03360223213,0.02963110729,0.02567520599,0.0219007642,0.01842857784,0.01533837208,0.01267451036,0.01045224595,0.008663961686,0.007285026874,0.006279040889,0.005602339527],
				"a": [0,-1.215171513e-16,-1.194270563e-16,-1.173729109e-16,-1.153540969e-16,-1.133700064e-16,-1.114200423e-16,-1.095036176e-16,-1.076201554e-16,-1.057690887e-16,-1.039498604e-16,-1.021619228e-16,-1.004047377e-16,-9.86777762e-17,-9.698051845e-17,-9.531245353e-17,-9.367307933e-17,-9.206190236e-17,-9.047843764e-17,-8.892220852e-17,-8.739274653e-17],
				"b": [0,0,9.304329976e-34,-3.034204387e-34,-5.292047276e-34,-4.538686549e-34,-3.237507454e-34,-2.12335919e-34,-1.329138146e-34,-8.084168268e-35,-4.825330867e-35,-2.843484042e-35,-1.660653302e-35,-9.636756625e-36,-5.566447373e-36,-3.204527806e-36,-1.840252851e-36,-1.054872264e-36,-6.038604457e-37,-3.453333542e-37,-1.973408871e-37],
				"g": [0,1,0.9249,0.85544001,0.7911964652,0.7317776107,0.6768211121,0.6259918466,0.5789798589,0.5354984715,0.4952825363,0.4580868178,0.4236844978,0.391865792,0.3624366711,0.3352176771,0.3100428295,0.286758613,0.2652230412,0.2453047908,0.226882401],
				"qs": [0,-2.992395809e-17,-1.276256813e-17,-5.443235305e-18,-2.321539858e-18,-9.901367493e-19,-4.222933236e-19,-1.801081025e-19,-7.681610572e-20,-3.276206909e-20,-1.397302247e-20,-5.959494082e-21,-2.541724226e-21,-1.084045382e-21,-4.623453556e-22,-1.971902942e-22,-8.410166046e-23,-3.586935819e-23,-1.529828127e-23,-6.52471696e-24,-2.782791783e-24],
				"spinf": [0,0,1.482337947e-33,7.935011869e-34,5.444377106e-34,3.399282394e-34,2.032815302e-34,1.189422246e-34,6.879262586e-35,3.953710453e-35,2.26439397e-35,1.294359681e-35,7.39070528e-36,4.217471552e-36,2.405857502e-36,1.372158252e-36,7.825130958e-37,4.462237396e-37,2.544479244e-37,1.450897805e-37,8.273133871e-38],
				"sw": [0,3.019462671e-17,3.569004877e-18,2.035046581e-18,1.16038356e-18,6.616507062e-19,3.772732327e-19,2.151211973e-19,1.226621067e-19,6.994193323e-20,3.988089033e-20,2.274008366e-20,1.296639571e-20,7.393438831e-21,4.215738822e-21,2.403814276e-21,1.3706549e-21,7.815474241e-22,4.456383412e-22,2.541029822e-22,1.448895204e-22],
				"kp": [0,-0.01435650439,-0.0409105425,-0.07755070835,-0.1222246698,-0.1729734646,-0.2279694294,-0.2855488634,-0.3442357258,-0.4027554104,-0.460039103,-0.5152199847,-0.5676228821,-0.6167490423,-0.6622576346,-0.7039454104,-0.7417257297,-0.7756079308,-0.8056777833,-0.8320795484,-0.854999982],
				"rr": [0,-0.3535335729,0.01362542414,0.01610296816,0.02305981817,0.03067431971,0.03718330671,0.04186462111,0.04454241841,0.0453310147,0.0444927837,0.04235448176,0.03925621002,0.0355202817,0.03143311131,0.02723598166,0.02312193154,0.01923679298,0.01568291377,0.01252446478,0.009793512488],
				"er": [0,0.01362542414,0.01610296816,0.02305981817,0.03067431971,0.03718330671,0.04186462111,0.04454241841,0.0453310147,0.0444927837,0.04235448176,0.03925621002,0.0355202817,0.03143311131,0.02723598166,0.02312193154,0.01923679298,0.01568291377,0.01252446478,0.009793512488,0.007496260674],
				"ec": [0,0.01362542414,0.01610296816,0.02305981817,0.03067431971,0.03718330671,0.04186462111,0.04454241841,0.0453310147,0.0444927837,0.04235448176,0.03925621002,0.0355202817,0.03143311131,0.02723598166,0.02312193154,0.01923679298,0.01568291377,0.01252446478,0.009793512488,0.007496260674],
				"nw": [0,-1.162096154,-1.093446769,-1.025727576,-0.9546293094,-0.8796877201,-0.8021394925,-0.72384962,-0.6467611627,-0.5726152481,-0.5028197821,-0.4384041157,-0.3800244763,-0.3279987801,-0.2823570195,-0.2428980271,-0.2092464834,-0.1809062056,-0.1573073391,-0.137846235,-0.1219176353],
				"prem": [0,0.02922252455,0.02723949438,0.02475699423,0.02202350406,0.01922493452,0.01649672299,0.01393293917,0.01159394982,0.00951317571,0.007703086704,0.006160455223,0.004870865364,0.003812488305,0.002959156523,0.002282789169,0.001755235237,0.001349609338,0.001041197769,0.0008080111873,0.0006310556514],
				"pinf4": [0,0.03956432778,0.09165527467,0.1433085079,0.1884852806,0.1851667798,0.1598711367,0.1261043247,0.09100879889,0.05840091392,0.03022823432,0.007321525227,-0.0101802704,-0.02256686458,-0.03038153388,-0.03429969917,-0.03504378236,-0.03332444202,-0.0298017396,-0.02506152669,-0.01960335509],
				"eg": [0,1,-3.996505026e-16,-2.867476049e-16,-1.715687645e-16,-6.930534324e-17,1.650735757e-17,8.510412413e-17,1.371703606e-16,1.741633317e-16,1.979303871e-16,2.104752522e-16,2.138064385e-16,2.098370519e-16,2.003202438e-16,1.868109902e-16,1.706477881e-16,1.52949339e-16,1.346221903e-16,1.163759926e-16,9.874361551e-17],
				"interest": [0,0.1459753859,0.1620668282,0.1739183864,0.1795865706,0.1790147038,0.1730172778,0.1627629042,0.1495000277,0.1344089285,0.1185244292,0.1027008239,0.08760305681,0.07371431138,0.06135348833,0.05069804144,0.04180898381,0.03465584674,0.0291401075,0.02511616356,0.02240935811],
				"inflation": [0,0.03956432778,0.09165527467,0.1433085079,0.1884852806,0.1851667798,0.1598711367,0.1261043247,0.09100879889,0.05840091392,0.03022823432,0.007321525227,-0.0101802704,-0.02256686458,-0.03038153388,-0.03429969917,-0.03504378236,-0.03332444202,-0.0298017396,-0.02506152669,-0.01960335509],
				"inflationq": [0,0.1582573111,0.2083637876,0.2066129331,0.1807070907,0.144983308,0.107181215,0.07154568529,0.04032498725,0.01455176815,-0.005509503429,-0.02008115107,-0.02968219526,-0.03499460856,-0.03676818063,-0.03575381222,-0.03265852805,-0.02811724717,-0.02267737097,-0.01679296056,-0.01082584165],
				"inflationql": [0,2.963524371e-17,0.1582573111,0.2083637876,0.2066129331,0.1807070907,0.144983308,0.107181215,0.07154568529,0.04032498725,0.01455176815,-0.005509503429,-0.02008115107,-0.02968219526,-0.03499460856,-0.03676818063,-0.03575381222,-0.03265852805,-0.02811724717,-0.02267737097,-0.01679296056],
				"inflationql2": [0,1.680868917e-17,4.510245535e-16,0.1582573111,0.2083637876,0.2066129331,0.1807070907,0.144983308,0.107181215,0.07154568529,0.04032498725,0.01455176815,-0.005509503429,-0.02008115107,-0.02968219526,-0.03499460856,-0.03676818063,-0.03575381222,-0.03265852805,-0.02811724717,-0.02267737097],
				"inflationqls": [0,4.644393288e-17,0.1582573111,0.3666210987,0.4149767207,0.3873200238,0.3256903987,0.252164523,0.1787269003,0.1118706725,0.05487675541,0.009042264725,-0.0255906545,-0.04976334634,-0.06467680382,-0.07176278919,-0.07252199285,-0.06841234027,-0.06077577522,-0.05079461814,-0.03947033153],
				"outputgap": [0,1.124289898,1.01575906,0.8932236302,0.7662329949,0.6419678233,0.5255132379,0.4201826547,0.3278465034,0.2492421556,0.1842529008,0.1321503319,0.0917984781,0.06182054942,0.04073077904,0.02703483112,0.01930276673,0.01621874336,0.0166115582,0.01946990557,0.02394586438],
				"output": [0,1.124289898,1.01575906,0.8932236302,0.7662329949,0.6419678233,0.5255132379,0.4201826547,0.3278465034,0.2492421556,0.1842529008,0.1321503319,0.0917984781,0.06182054942,0.04073077904,0.02703483112,0.01930276673,0.01621874336,0.0166115582,0.01946990557,0.02394586438],
				"fispol": [0,1,-1.73871121e-16,-1.193688274e-16,-6.358218083e-17,-1.411785552e-17,2.724633019e-17,6.011836535e-17,8.483225421e-17,1.021085845e-16,1.128635906e-16,1.180922536e-16,1.187924642e-16,1.159148886e-16,1.103306577e-16,1.028122237e-16,9.402417732e-17,8.452156147e-17,7.475366551e-17,6.507162964e-17,5.573848024e-17],
				"neww": [0,2.997808354e-32,-3.932771396e-32,-4.127584501e-32,-4.068091307e-32,-4.078671842e-32,-4.130198849e-32,-4.211622401e-32,-4.315982301e-32,-4.436443292e-32,-4.565750151e-32,-4.696668484e-32,-4.822550973e-32,-4.937761953e-32,-5.037911125e-32,-5.119920976e-32,-5.181971493e-32,-5.223364877e-32,-5.244345666e-32,-5.245903267e-32,-5.229576144e-32]
			}
		}
	}
}
