{
	"model": "US_YR13",
	"rule": "Taylor",
	"data": {
		"AC": {
			"ewma": [1,-8.673769613e-18,7.523427929e-35,-6.525648056e-52,5.660196781e-69,-4.909524284e-86,4.258408255e-103,-3.693645212e-120,3.20378276e-137,-2.778887355e-154,2.410342869e-171,-2.090675874e-188,1.813404086e-205,-1.572904926e-222,1.364301495e-239,-1.183363685e-256,1.026422397e-273,-8.902951399e-291,7.722214931e-308,0,0],
			"epinfma": [1,-1.5624677e-17,-2.361456154e-33,-1.485705528e-33,-8.47149292e-34,-4.830445263e-34,-2.754319889e-34,-1.570513201e-34,-8.955066271e-35,-5.106178787e-35,-2.911543145e-35,-1.660161901e-35,-9.46624316e-36,-5.39765185e-36,-3.077741085e-36,-1.754927967e-36,-1.000659927e-36,-5.705762901e-37,-3.253426006e-37,-1.855103509e-37,-1.057780021e-37],
			"mc": [1,0.7896623631,0.600704706,0.4446390123,0.3219255058,0.2286163363,0.1594326851,0.1092212958,0.07349732326,0.04858214895,0.03156913518,0.02022299161,0.01286183247,0.008244212674,0.005470263454,0.003899533032,0.003085020247,0.002721539512,0.002606121319,0.002608174413,0.002647365687],
			"zcap": [1,0.9987932494,0.9970613388,0.9949828367,0.9926275065,0.9900151676,0.9871446785,0.9840100468,0.9806072411,0.9769359311,0.97299945,0.968804184,0.9643588443,0.9596737903,0.9547604602,0.9496309164,0.944297498,0.9387725621,0.9330682987,0.9271966019,0.9211689848],
			"rk": [1,0.9987932494,0.9970613388,0.9949828367,0.9926275065,0.9900151676,0.9871446785,0.9840100468,0.9806072411,0.9769359311,0.97299945,0.968804184,0.9643588443,0.9596737903,0.9547604602,0.9496309164,0.944297498,0.9387725621,0.9330682987,0.9271966019,0.9211689848],
			"k": [1,0.9852543472,0.9671680523,0.9488802611,0.9316709815,0.9159243295,0.901602755,0.8885140483,0.8764370452,0.8651673526,0.8545318148,0.8443904426,0.8346334382,0.8251765899,0.8159564729,0.806926065,0.7980510006,0.789306497,0.7806749048,0.7721438001,0.7637045243],
			"pk": [1,0.507225706,0.2874835128,0.1808062637,0.124536359,0.09149463125,0.06923670783,0.05284238226,0.04018716157,0.03021717051,0.02231297639,0.01605108224,0.01111156768,0.007239858089,0.004228822313,0.001908749506,0.0001406070503,-0.001189129547,-0.002172724268,-0.002884769211,-0.003385238811],
			"c": [1,0.9954015117,0.9863061415,0.9749963153,0.962712032,0.9501597713,0.9377416139,0.9256800987,0.91408514,0.9029948525,0.8924025289,0.8822750551,0.8725654845,0.8632214435,0.8541905378,0.8454236195,0.8368765621,0.8285110244,0.8202945574,0.8122003084,0.8042065002],
			"inve": [1,0.9955180318,0.9865200463,0.9751013182,0.9623233472,0.9487678804,0.9347805658,0.9205826615,0.9063230169,0.8921045742,0.8779993066,0.8640574527,0.8503136443,0.8367911717,0.8235050391,0.8104641888,0.7976731349,0.7851331689,0.7728432508,0.76080067,0.7490015342],
			"y": [1,0.9790437396,0.9505603467,0.9191371568,0.8870191317,0.8553576305,0.8247350655,0.7954215654,0.7675128251,0.7410047138,0.7158374102,0.6919227547,0.6691613532,0.6474530404,0.6267029409,0.6068246246,0.5877413808,0.5693863238,0.5517018157,0.5346385336,0.5181543946],
			"lab": [1,0.9696346558,0.9378543325,0.9085776937,0.8828914169,0.8606992647,0.8414968236,0.8247169726,0.809848021,0.7964659187,0.7842339061,0.7728912059,0.7622393084,0.7521290589,0.7424495771,0.7331191775,0.7240781287,0.7152829911,0.7067022556,0.6983130324,0.6900985689],
			"pinf": [1,0.7444318688,0.6429874659,0.5791277484,0.5269515591,0.4819922831,0.4435955029,0.4111887266,0.3838933371,0.3607229907,0.3407598459,0.3232355694,0.3075475872,0.2932437343,0.2799956628,0.2675711962,0.2558099157,0.2446032702,0.2338791475,0.2235903101,0.2137059679],
			"w": [1,0.9888734968,0.9748499581,0.9598349824,0.9447284348,0.9299303738,0.9155851876,0.9017176677,0.8882997697,0.8752840386,0.8626199779,0.850261462,0.8381694783,0.8263125268,0.8146659431,0.8032108201,0.7919328686,0.780821379,0.7698683414,0.7590677365,0.7484149832],
			"r": [1,0.9631639716,0.9004654306,0.8235725055,0.7420971388,0.676850513,0.6211068415,0.5730714835,0.5316468102,0.4957385947,0.4642881678,0.4363650589,0.4112085881,0.3882269016,0.3669750446,0.3471266311,0.328446481,0.3107671874,0.2939703223,0.2779719807,0.2627119975],
			"a": [1,0.9828,0.96589584,0.9492824316,0.9329547737,0.9169079516,0.9011371349,0.8856375761,0.8704046098,0.8554336505,0.8407201917,0.8262598044,0.8120481358,0.7980809079,0.7843539163,0.7708630289,0.7576041848,0.7445733928,0.7317667305,0.7191803427,0.7068104408],
			"b": [1,0.3881,0.15062161,0.05845624684,0.0226868694,0.008804774014,0.003417132795,0.001326189238,0.0005146940431,0.0001997527581,7.752404543e-05,3.008708203e-05,1.167679654e-05,4.531764736e-06,1.758777894e-06,6.825817007e-07,2.64909958e-07,1.028115547e-07,3.990116438e-08,1.54856419e-08,6.00997762e-09],
			"g": [1,0.9249,0.85544001,0.7911964652,0.7317776107,0.6768211121,0.6259918466,0.5789798589,0.5354984715,0.4952825363,0.4580868178,0.4236844978,0.391865792,0.3624366711,0.3352176771,0.3100428295,0.286758613,0.2652230412,0.2453047908,0.226882401,0.2098435327],
			"qs": [1,0.4265,0.18190225,0.07758130962,0.03308842856,0.01411221478,0.006018859603,0.002567043621,0.001094844104,0.0004669510105,0.000199154606,8.493943944e-05,3.622667092e-05,1.545067515e-05,6.589712951e-06,2.810512573e-06,1.198683613e-06,5.112385608e-07,2.180432462e-07,9.299544449e-08,3.966255708e-08],
			"spinf": [1,-0.1636401803,-0.0524630418,-0.0168196512,-0.005392380175,-0.001728797084,-0.0005542523452,-0.0001776933019,-5.696847258e-05,-1.826409231e-05,-5.855467994e-06,-1.877263039e-06,-6.018505303e-07,-1.9295328e-07,-6.186082157e-08,-1.98325794e-08,-6.358324954e-09,-2.03847898e-09,-6.535363611e-10,-2.095237574e-10,-6.717331661e-11],
			"sw": [1,0.1273675442,0.0726249737,0.04141076,0.02361241535,0.01346379924,0.007677058324,0.004377458656,0.002496026926,0.001423234553,0.0008115283422,0.0004627334607,0.0002638506193,0.0001504476231,8.57852347e-05,4.891474083e-05,2.789118522e-05,1.590355381e-05,9.068206384e-06,5.17069128e-06,2.948328168e-06],
			"kp": [1,0.999766641,0.9990931373,0.9980015434,0.9965120079,0.9946437443,0.9924153508,0.9898448849,0.9869498551,0.9837471946,0.9802532394,0.9764837168,0.9724537434,0.968177832,0.963669903,0.9589432998,0.9540108069,0.9488846685,0.9435766078,0.9380978466,0.9324591245],
			"rr": [1,-0.2760369379,-0.1139784773,-0.05050919284,-0.02298485587,-0.01039218801,-0.005426489511,-0.003292056547,-0.002239943306,-0.001625632528,-0.001207824748,-0.0008933344139,-0.0006437768203,-0.0004413041132,-0.0002759929863,-0.0001411937217,-3.180729997e-05,5.636429803e-05,0.0001268778533,0.000182769157,0.0002266243263],
			"er": [1,0.4279654122,0.1912057676,0.08839322303,0.04604500447,0.02882825299,0.02114103105,0.01711412215,0.01454622038,0.0126201539,0.01103769724,0.009691218906,0.008539780731,0.007563358117,0.006746825195,0.006075101752,0.005532299328,0.005102132791,0.004768585552,0.004516484972,0.004331899921],
			"ec": [1,0.4279654122,0.1912057676,0.08839322303,0.04604500447,0.02882825299,0.02114103105,0.01711412215,0.01454622038,0.0126201539,0.01103769724,0.009691218906,0.008539780731,0.007563358117,0.006746825195,0.006075101752,0.005532299328,0.005102132791,0.004768585552,0.004516484972,0.004331899921],
			"nw": [1,0.9043670888,0.8390827961,0.7876869365,0.7435075099,0.7036345384,0.6667241905,0.6321809389,0.5996920818,0.5690567728,0.5401227126,0.5127623855,0.4868638398,0.4623268005,0.4390607304,0.4169836036,0.3960209514,0.3761050339,0.3571740897,0.3391716542,0.3220459445],
			"prem": [1,0.9431993309,0.8920850663,0.84474204,0.800333864,0.7584560303,0.7188791188,0.6814400928,0.646002293,0.6124419889,0.5806441919,0.5505015025,0.5219138025,0.4947880708,0.4690381214,0.44458424,0.4213527451,0.3992755106,0.3782894781,0.3583361822,0.3393613029],
			"pinf4": [1,0.9612153537,0.8873605393,0.7971578288,0.7067390861,0.6433758261,0.5915869408,0.5477145854,0.5104001705,0.4785554271,0.4511208612,0.4271356824,0.4057978203,0.3864775437,0.3687018359,0.3521270719,0.3365102223,0.3216832297,0.3075320688,0.2939805019,0.2809779278],
			"eg": [1,-4.931546182e-16,-4.61801774e-16,-4.292074191e-16,-3.922963771e-16,-3.493374666e-16,-3.0548837e-16,-2.632951628e-16,-2.239663221e-16,-1.879966681e-16,-1.554904321e-16,-1.263380122e-16,-1.003174875e-16,-7.715490787e-17,-5.656054757e-17,-3.825041496e-17,-2.195841385e-17,-7.442498326e-18,5.513009696e-18,1.709749149e-17,2.747551373e-17],
			"interest": [1,0.9631639716,0.9004654306,0.8235725055,0.7420971388,0.676850513,0.6211068415,0.5730714835,0.5316468102,0.4957385947,0.4642881678,0.4363650589,0.4112085881,0.3882269016,0.3669750446,0.3471266311,0.328446481,0.3107671874,0.2939703223,0.2779719807,0.2627119975],
			"inflation": [1,0.9612153537,0.8873605393,0.7971578288,0.7067390861,0.6433758261,0.5915869408,0.5477145854,0.5104001705,0.4785554271,0.4511208612,0.4271356824,0.4057978203,0.3864775437,0.3687018359,0.3521270719,0.3365102223,0.3216832297,0.3075320688,0.2939805019,0.2809779278],
			"inflationq": [1,0.7444318688,0.6429874659,0.5791277484,0.5269515591,0.4819922831,0.4435955029,0.4111887266,0.3838933371,0.3607229907,0.3407598459,0.3232355694,0.3075475872,0.2932437343,0.2799956628,0.2675711962,0.2558099157,0.2446032702,0.2338791475,0.2235903101,0.2137059679],
			"inflationql": [1,0.7444318688,0.6429874659,0.5791277484,0.5269515591,0.4819922831,0.4435955029,0.4111887266,0.3838933371,0.3607229907,0.3407598459,0.3232355694,0.3075475872,0.2932437343,0.2799956628,0.2675711962,0.2558099157,0.2446032702,0.2338791475,0.2235903101,0.2137059679],
			"inflationql2": [1,0.7444318688,0.6429874659,0.5791277484,0.5269515591,0.4819922831,0.4435955029,0.4111887266,0.3838933371,0.3607229907,0.3407598459,0.3232355694,0.3075475872,0.2932437343,0.2799956628,0.2675711962,0.2558099157,0.2446032702,0.2338791475,0.2235903101,0.2137059679],
			"inflationqls": [1,0.897670829,0.7479611545,0.6673217118,0.6062211965,0.5544875849,0.5103013902,0.4728950218,0.441318007,0.4144900097,0.3913819383,0.3711175527,0.353001599,0.3365080459,0.3212525167,0.3069618224,0.2934463409,0.2805771957,0.268268395,0.2564633654,0.2451250893],
			"outputgap": [1,0.9373351789,0.8705145698,0.8089579566,0.7555121992,0.710181097,0.6719030309,0.6393986846,0.61149133,0.587196575,0.5657273673,0.5464705104,0.5289563237,0.5128294984,0.4978238205,0.4837413033,0.4704354557,0.4577981389,0.4457494097,0.4342297835,0.4231944231],
			"output": [1,0.9790437396,0.9505603467,0.9191371568,0.8870191317,0.8553576305,0.8247350655,0.7954215654,0.7675128251,0.7410047138,0.7158374102,0.6919227547,0.6691613532,0.6474530404,0.6267029409,0.6068246246,0.5877413808,0.5693863238,0.5517018157,0.5346385336,0.5181543946],
			"fispol": [1,-2.352816427e-16,-2.204535252e-16,-2.049409446e-16,-1.872110973e-16,-1.664028176e-16,-1.450990395e-16,-1.245765864e-16,-1.054431977e-16,-8.794952199e-17,-7.215066978e-17,-5.799461025e-17,-4.537294503e-17,-3.415106868e-17,-2.418631007e-17,-1.533870044e-17,-7.477066561e-18,-4.821195412e-19,5.752375835e-18,1.131962682e-17,1.630054477e-17],
			"neww": [1,-0.08696309046,-0.0278803668,-0.008938445596,-0.002865665658,-0.00091873241,-0.0002945456106,-9.443132277e-05,-3.027468208e-05,-9.706063075e-06,-3.111763822e-06,-9.976314813e-07,-3.198406529e-07,-1.025409133e-07,-3.287461681e-08,-1.053960215e-08,-3.378996449e-09,-1.083306262e-09,-3.473079875e-10,-1.113469408e-10,-3.569782921e-11]
		},
		"VAR": {
			"ewma": 0.05184729,
			"epinfma": 0.03429904,
			"mc": 0.8071527611,
			"zcap": 171.2494909,
			"rk": 4.214238901,
			"k": 12.00773622,
			"pk": 16.76572418,
			"c": 41.26349456,
			"inve": 370.4691348,
			"y": 13.27674955,
			"lab": 4.153595776,
			"pinf": 0.151826783,
			"w": 11.72729583,
			"r": 0.4412925357,
			"a": 6.90578774,
			"b": 3.779878647,
			"g": 2.031717783,
			"qs": 0.1915868978,
			"spinf": 0.03555697933,
			"sw": 0.05292063572,
			"kp": 251.3472568,
			"rr": 16.00358002,
			"er": 4.73591823,
			"ec": 4.73591823,
			"nw": 683.5204588,
			"prem": 0.1990592668,
			"pinf4": 1.851800387,
			"eg": 0.21483225,
			"interest": 7.060680571,
			"inflation": 1.851800387,
			"inflationq": 2.429228528,
			"inflationql": 2.429228528,
			"inflationql2": 2.429228528,
			"inflationqls": 8.475247322,
			"outputgap": 4.812136675,
			"output": 13.27674955,
			"fispol": 0.21483225,
			"neww": 0.1384540993
		},
		"IRF": {
			"interest_": {
				"ewma": [0,-4.479582379e-18,3.885486552e-35,-3.370181519e-52,2.923217805e-69,-2.535531776e-86,2.199261847e-103,-1.907589058e-120,1.654598801e-137,-1.43516088e-154,1.244825483e-171,-1.079732945e-188,9.365354805e-206,-8.123292992e-223,7.045957191e-240,-6.111500938e-257,5.300975112e-274,-4.597943684e-291,3.988150421e-308,0,0],
				"epinfma": [0,0,5.635686606e-35,-2.918910919e-35,-1.664363006e-35,-9.490197861e-36,-5.411310821e-36,-3.08552943e-36,-1.759368881e-36,-1.003192136e-36,-5.720201559e-37,-3.261658929e-37,-1.859797921e-37,-1.060456775e-37,-6.046724529e-38,-3.447842327e-38,-1.965959695e-38,-1.120990218e-38,-6.391886222e-39,-3.644653524e-39,-2.078181439e-39],
				"mc": [0,-0.002080876866,-0.001741458422,-0.001317891419,-0.001040200326,-0.0009168413634,-0.0009173690741,-0.001002754701,-0.001137638775,-0.00129412587,-0.001452075304,-0.001598076909,-0.001724066192,-0.001825978338,-0.001902590475,-0.001954589871,-0.001983857619,-0.001992938772,-0.001984665049,-0.001961897583,-0.001927361134],
				"zcap": [0,-0.01051225764,-0.01264675417,-0.009735178152,-0.006370160805,-0.002730415516,0.001091958391,0.005049523588,0.009105621446,0.01322393204,0.01736693548,0.0214972256,0.02557930206,0.02958101639,0.03347447829,0.03723646462,0.04084844524,0.04429634478,0.04757014208,0.05066338509,0.05357267749],
				"rk": [0,-0.001649076973,-0.001983919326,-0.001527175101,-0.0009992987103,-0.0004283252476,0.0001712974986,0.0007921279483,0.001428415396,0.002074462269,0.002724382752,0.003372308874,0.004012671632,0.004640427837,0.005251202286,0.005841351924,0.006407969892,0.006948848164,0.0074624147,0.007947657355,0.008404043345],
				"k": [0,-0.01051225764,-0.01508353094,-0.01547818398,-0.01603729662,-0.01674354306,-0.0175365782,-0.0183424448,-0.01910068987,-0.01977048868,-0.02032895428,-0.02076714728,-0.0210859618,-0.02129264213,-0.02139809788,-0.0214149593,-0.02135624288,-0.02123448904,-0.02106124902,-0.02084682038,-0.02060015269],
				"pk": [0,-0.3101028512,-0.04729647024,-0.03720408822,-0.02926899988,-0.02368462656,-0.0193274846,-0.01572892162,-0.01268827869,-0.01010915496,-0.00793298588,-0.006113642133,-0.004608849577,-0.003378130172,-0.002382975812,-0.001587547924,-0.0009592868993,-0.00046926232,-9.226571816e-05,0.000193297463,0.0004056517151],
				"c": [0,-0.03274947295,-0.01219787136,0.002068157875,0.0115783306,0.01739358058,0.02049234443,0.02167497371,0.0215572295,0.02059499706,0.01911617251,0.01735058882,0.01545510081,0.01353346764,0.01165159285,0.00984893628,0.008146900259,0.00655488815,0.005074606716,0.003703065042,0.0024346204],
				"inve": [0,-0.08358498873,-0.115845244,-0.1403463741,-0.1587409755,-0.1723283734,-0.1820211781,-0.1885309359,-0.1924454306,-0.1942616494,-0.1944015082,-0.1932213366,-0.1910193241,-0.1880423525,-0.1844925524,-0.1805335558,-0.1762963255,-0.17188446,-0.1673789125,-0.1628421071,-0.1583214685],
				"y": [0,-0.01601381517,-0.02434687064,-0.02492111112,-0.0254118731,-0.0258227358,-0.0261291524,-0.02628745723,-0.02626692227,-0.02605605919,-0.0256598555,-0.02509473532,-0.02438377721,-0.02355295843,-0.02262850311,-0.02163517121,-0.02059527025,-0.01952818656,-0.01845026931,-0.01737493988,-0.01631293341],
				"lab": [0,-0.009972912279,-0.01538637993,-0.01573959252,-0.01598620791,-0.01613335555,-0.01617676484,-0.01610052293,-0.01589552603,-0.01556290919,-0.0151122942,-0.0145588213,-0.01392041368,-0.01321569212,-0.01246255858,-0.01167733527,-0.01087431993,-0.01006563201,-0.009261249338,-0.008469159955,-0.007695575525],
				"pinf": [0,-0.003118516801,-0.004338962257,-0.004780509333,-0.00491532955,-0.004934363002,-0.004910471742,-0.004868484192,-0.004814899857,-0.004750155884,-0.00467342306,-0.004584261604,-0.004483008812,-0.004370698463,-0.004248845146,-0.004119224474,-0.00398369381,-0.00384406246,-0.003702006652,-0.003559020427,-0.003416393297],
				"w": [0,-0.00218842233,-0.001681070333,-0.001265766554,-0.001050387413,-0.001038512752,-0.001188515857,-0.001449793922,-0.001776748445,-0.00213311722,-0.002492277323,-0.002836017111,-0.003152876487,-0.00343652217,-0.003684337011,-0.003896272102,-0.004073953054,-0.004220008863,-0.004337584987,-0.004430003072,-0.004500533821],
				"r": [0,0.2468288293,-0.005839913477,-0.007704384537,-0.009608978365,-0.01034127853,-0.01059389666,-0.01064667534,-0.01060644733,-0.01051101178,-0.01037259306,-0.01019536957,-0.009982040661,-0.009735891781,-0.009461118149,-0.009162562737,-0.008845331991,-0.008514458029,-0.008174653937,-0.007830161241,-0.00748467274],
				"a": [0,-9.988207407e-18,-9.81641024e-18,-9.647567984e-18,-9.481629814e-18,-9.318545782e-18,-9.158266794e-18,-9.000744605e-18,-8.845931798e-18,-8.693781771e-18,-8.544248725e-18,-8.397287647e-18,-8.252854299e-18,-8.110905205e-18,-7.971397636e-18,-7.834289596e-18,-7.699539815e-18,-7.56710773e-18,-7.436953477e-18,-7.309037878e-18,-7.183322426e-18],
				"b": [0,0,-4.625444176e-34,-3.715274507e-34,-2.312726169e-34,-1.298564096e-34,-6.91867557e-35,-3.582704658e-35,-1.828110373e-35,-9.274285368e-36,-4.707193956e-36,-2.401043627e-36,-1.234715017e-36,-6.414280049e-37,-3.369828967e-37,-1.790831986e-37,-9.623132114e-38,-5.224217673e-38,-2.862057137e-38,-1.580321544e-38,-8.783788128e-39],
				"g": [0,-1.423710781e-16,-4.141029032e-16,-4.53418358e-16,-4.827121735e-16,-5.036029158e-16,-5.180807266e-16,-5.272343553e-16,-5.317819695e-16,-5.322880903e-16,-5.292470501e-16,-5.231120194e-16,-5.143030885e-16,-5.032082652e-16,-4.901828464e-16,-4.755490985e-16,-4.595967465e-16,-4.425842374e-16,-4.247405768e-16,-4.062675206e-16,-3.873419349e-16],
				"qs": [0,-9.322241095e-18,-3.975935827e-18,-1.69573663e-18,-7.232316728e-19,-3.084583085e-19,-1.315574686e-19,-5.610926034e-20,-2.393059953e-20,-1.02064007e-20,-4.353029899e-21,-1.856567252e-21,-7.91825933e-22,-3.377137604e-22,-1.440349188e-22,-6.143089288e-23,-2.620027581e-23,-1.117441763e-23,-4.765889121e-24,-2.03265171e-24,-8.669259543e-25],
				"spinf": [0,0,-9.199093883e-35,-2.051450254e-34,-1.351421374e-34,-8.288284983e-35,-4.912723285e-35,-2.861104683e-35,-1.650596169e-35,-9.473236215e-36,-5.421368006e-36,-3.097589064e-36,-1.768273088e-36,-1.008919428e-36,-5.754942846e-37,-3.282136626e-37,-1.871688534e-37,-1.067305484e-37,-6.085996066e-38,-3.470305551e-38,-1.978790858e-38],
				"sw": [0,-4.479582379e-18,-5.294866373e-19,-3.019132806e-19,-1.721509526e-19,-9.816047316e-20,-5.59711018e-20,-3.191472224e-20,-1.819777462e-20,-1.037637109e-20,-5.916606796e-21,-3.373649195e-21,-1.923654771e-21,-1.09686795e-21,-6.254341053e-22,-3.566225268e-22,-2.033461648e-22,-1.159479832e-22,-6.611354001e-23,-3.769794051e-23,-2.149536568e-23],
				"kp": [0,-0.002436776769,-0.005743005824,-0.009667135813,-0.01401312754,-0.01862853659,-0.02339196838,-0.02820631131,-0.03299442072,-0.03769588975,-0.04226437288,-0.04666526385,-0.05087365852,-0.05487257617,-0.05865142392,-0.06220468811,-0.06553083382,-0.06863139111,-0.07151020547,-0.07417283018,-0.07662603918],
				"rr": [0,-0.3000573816,0.2642820829,0.01125427847,0.008855752781,0.00634176547,0.00499216231,0.00413660697,0.003500383848,0.002975909782,0.002523249523,0.00212827442,0.001785571189,0.001491861227,0.001243778011,0.001037366206,0.0008681918019,0.0007316115181,0.0006230312381,0.0005381008149,0.0004728393113],
				"er": [0,0.2642820829,0.01125427847,0.008855752781,0.00634176547,0.00499216231,0.00413660697,0.003500383848,0.002975909782,0.002523249523,0.00212827442,0.001785571189,0.001491861227,0.001243778011,0.001037366206,0.0008681918019,0.0007316115181,0.0006230312381,0.0005381008149,0.0004728393113,0.0004237012289],
				"ec": [0,0.2642820829,0.01125427847,0.008855752781,0.00634176547,0.00499216231,0.00413660697,0.003500383848,0.002975909782,0.002523249523,0.00212827442,0.001785571189,0.001491861227,0.001243778011,0.001037366206,0.0008681918019,0.0007316115181,0.0006230312381,0.0005381008149,0.0004728393113,0.0004237012289],
				"nw": [0,-0.986315179,-0.6874400324,-0.6437892655,-0.6045134454,-0.5695128953,-0.5374741866,-0.5077850378,-0.4801240563,-0.4542876762,-0.4301201064,-0.4074864718,-0.3862635131,-0.366336998,-0.3476013722,-0.3299599046,-0.3133247201,-0.2976165745,-0.2827643942,-0.2687046526,-0.255380657],
				"prem": [0,0.01311429138,0.01231368261,0.01164480777,0.01101638083,0.0104229691,0.009862019438,0.009332159327,0.008832201229,0.008360838241,0.007916605875,0.007497931943,0.007103203425,0.006730824646,0.006379259881,0.006047060729,0.00573288105,0.005435482615,0.005153734325,0.004886607255,0.004633167274],
				"pinf4": [0,-0.003118516801,-0.007457479058,-0.01223798839,-0.01715331794,-0.01896916414,-0.01954067363,-0.01962864849,-0.01952821879,-0.01934401168,-0.01910696299,-0.01882274041,-0.01849084936,-0.01811139194,-0.01768681403,-0.0172217769,-0.01672246189,-0.01619582589,-0.0156489874,-0.01508878335,-0.01452148284],
				"eg": [0,-9.491405209e-17,-1.882825954e-16,-4.694305521e-17,-4.223035614e-17,-3.809495102e-17,-3.486559315e-17,-3.20409942e-17,-2.942860954e-17,-2.696196443e-17,-2.46225303e-17,-2.240761514e-17,-2.031785452e-17,-1.835289241e-17,-1.651034796e-17,-1.478598925e-17,-1.317425687e-17,-1.166880436e-17,-1.026294378e-17,-8.949974028e-18,-7.723403412e-18],
				"interest": [0,0.9873153172,-0.02335965391,-0.03081753815,-0.03843591346,-0.04136511411,-0.04237558664,-0.04258670134,-0.04242578933,-0.04204404711,-0.04149037224,-0.04078147827,-0.03992816264,-0.03894356712,-0.0378444726,-0.03665025095,-0.03538132797,-0.03405783212,-0.03269861575,-0.03132064497,-0.02993869096],
				"inflation": [0,-0.003118516801,-0.007457479058,-0.01223798839,-0.01715331794,-0.01896916414,-0.01954067363,-0.01962864849,-0.01952821879,-0.01934401168,-0.01910696299,-0.01882274041,-0.01849084936,-0.01811139194,-0.01768681403,-0.0172217769,-0.01672246189,-0.01619582589,-0.0156489874,-0.01508878335,-0.01452148284],
				"inflationq": [0,-0.0124740672,-0.01735584903,-0.01912203733,-0.0196613182,-0.01973745201,-0.01964188697,-0.01947393677,-0.01925959943,-0.01900062354,-0.01869369224,-0.01833704642,-0.01793203525,-0.01748279385,-0.01699538058,-0.0164768979,-0.01593477524,-0.01537624984,-0.01480802661,-0.01423608171,-0.01366557319],
				"inflationql": [0,-3.174574215e-17,-0.0124740672,-0.01735584903,-0.01912203733,-0.0196613182,-0.01973745201,-0.01964188697,-0.01947393677,-0.01925959943,-0.01900062354,-0.01869369224,-0.01833704642,-0.01793203525,-0.01748279385,-0.01699538058,-0.0164768979,-0.01593477524,-0.01537624984,-0.01480802661,-0.01423608171],
				"inflationql2": [0,1.847519299e-17,-5.327721954e-16,-0.0124740672,-0.01735584903,-0.01912203733,-0.0196613182,-0.01973745201,-0.01964188697,-0.01947393677,-0.01925959943,-0.01900062354,-0.01869369224,-0.01833704642,-0.01793203525,-0.01748279385,-0.01699538058,-0.0164768979,-0.01593477524,-0.01537624984,-0.01480802661],
				"inflationqls": [0,-1.327054916e-17,-0.0124740672,-0.02982991623,-0.03647788636,-0.03878335553,-0.03939877021,-0.03937933898,-0.03911582374,-0.0387335362,-0.03826022297,-0.03769431578,-0.03703073866,-0.03626908167,-0.0354148291,-0.03447817444,-0.03347227848,-0.03241167314,-0.03131102508,-0.03018427645,-0.02904410832],
				"outputgap": [0,-0.01601381517,-0.02434687064,-0.02492111112,-0.0254118731,-0.0258227358,-0.0261291524,-0.02628745723,-0.02626692227,-0.02605605919,-0.0256598555,-0.02509473532,-0.02438377721,-0.02355295843,-0.02262850311,-0.02163517121,-0.02059527025,-0.01952818656,-0.01845026931,-0.01737493988,-0.01631293341],
				"output": [0,-0.01601381517,-0.02434687064,-0.02492111112,-0.0254118731,-0.0258227358,-0.0261291524,-0.02628745723,-0.02626692227,-0.02605605919,-0.0256598555,-0.02509473532,-0.02438377721,-0.02355295843,-0.02262850311,-0.02163517121,-0.02059527025,-0.01952818656,-0.01845026931,-0.01737493988,-0.01631293341],
				"fispol": [0,-4.745702605e-17,-9.414129769e-17,-2.347152761e-17,-2.111517807e-17,-1.904747551e-17,-1.743279657e-17,-1.60204971e-17,-1.471430477e-17,-1.348098221e-17,-1.231126515e-17,-1.120380757e-17,-1.015892726e-17,-9.176446206e-18,-8.255173979e-18,-7.392994625e-18,-6.587128433e-18,-5.834402181e-18,-5.13147189e-18,-4.474987014e-18,-3.861701706e-18],
				"neww": [0,2.964036742e-32,-3.15010982e-32,2.275786247e-32,2.071057362e-32,1.880004053e-32,1.685770049e-32,1.506317233e-32,1.346362771e-32,1.20537745e-32,1.081060064e-32,9.707742184e-33,8.720967093e-33,7.829859961e-33,7.017950285e-33,6.272263992e-33,5.582717728e-33,4.94152718e-33,4.342691529e-33,3.781568984e-33,3.254538925e-33]
			},
			"fiscal_": {
				"ewma": [0,7.882485784e-17,-6.837086566e-34,5.93033137e-51,-5.143832803e-68,4.461642066e-85,-3.869925537e-102,3.356684253e-119,-2.911510587e-136,2.525377206e-153,-2.190454007e-170,1.89994934e-187,-1.647972285e-204,1.429413193e-221,-1.239840072e-238,1.075408714e-255,-9.327847424e-273,8.090759954e-290,-7.017738783e-307,4.940656458e-324,0],
				"epinfma": [0,0,-9.916821657e-34,5.136254203e-34,2.928692147e-34,1.669940262e-34,9.521999374e-35,5.429444043e-35,3.095868993e-35,1.7652645e-35,1.006553818e-35,5.73936987e-36,3.2725887e-36,1.866030077e-36,1.06401035e-36,6.066987014e-37,3.459395995e-37,1.972547597e-37,1.12474664e-37,6.413305339e-38,3.656866704e-38],
				"mc": [0,0.07116716694,0.09446964236,0.1011107469,0.09763018485,0.0884650219,0.07653468639,0.06372287383,0.05120110658,0.03965132124,0.02942320003,0.02064648017,0.01331092481,0.007322612315,0.002542801066,-0.001185964508,-0.0040229848,-0.006119114512,-0.007611058101,-0.008618774822,-0.009244915732],
				"zcap": [0,0.6365800405,0.5844539101,0.5399375227,0.5070768011,0.4874354483,0.4806803676,0.4853660877,0.4995792453,0.521299438,0.5485985123,0.5797439163,0.613243845,0.6478571403,0.6825824827,0.7166362742,0.7494252848,0.7805179264,0.8096165086,0.8365318118,0.8611606324],
				"rk": [0,0.09986146864,0.09168434777,0.08470098112,0.07954605996,0.07646488522,0.07540520343,0.07614026087,0.07836990475,0.08177719087,0.0860596463,0.09094548247,0.09620067722,0.1016305278,0.1070779554,0.1124200356,0.1175637073,0.1224412666,0.1270060141,0.1312282666,0.1350918345],
				"k": [0,0.6365800405,0.5612793532,0.4760135802,0.3896293924,0.3077567058,0.2334334538,0.1679193501,0.1114120085,0.06349315907,0.02341323663,-0.009726510354,-0.03685938899,-0.05888390109,-0.07662482143,-0.09081450128,-0.1020872692,-0.1109819549,-0.1179491014,-0.1233605394,-0.1275197932],
				"pk": [0,-1.031536121,-0.8969542604,-0.7713146803,-0.6498037635,-0.530581476,-0.4225337017,-0.3288812851,-0.2500746542,-0.1852265622,-0.1328512668,-0.09125753061,-0.05875963708,-0.03378781654,-0.01494082685,-0.001004574617,0.009049100894,0.01607477823,0.02077145542,0.02370274492,0.02531712613],
				"c": [0,0.2506915182,0.3689258515,0.3995734947,0.3767554302,0.3255133182,0.2616098658,0.1947503004,0.1306424936,0.07236643664,0.02130366297,-0.02222793778,-0.05854264204,-0.08829781355,-0.1123048156,-0.131409713,-0.146422058,-0.1580761654,-0.1670137538,-0.1737801106,-0.1788283469],
				"inve": [0,-0.7949210205,-1.420937774,-1.899856712,-2.252072704,-2.497365332,-2.655203014,-2.743262759,-2.776887705,-2.769003905,-2.73025949,-2.669263943,-2.592862434,-2.506410195,-2.414028565,-2.318833888,-2.223136064,-2.128606853,-2.03641987,-1.947365191,-1.86194181],
				"y": [0,1.05685482,0.8872236615,0.7301266196,0.5902368119,0.4698388858,0.3690380881,0.2864829405,0.2201494695,0.167786389,0.1271669263,0.0962254607,0.07312383533,0.05627458925,0.04433835488,0.03620657505,0.03097678328,0.02792508789,0.02647873836,0.0261904571,0.02671541791],
				"lab": [0,0.6724210369,0.5578003442,0.4555167456,0.3670411774,0.2927677767,0.2320226582,0.1834294513,0.1453475545,0.1161110327,0.09415573759,0.07808138659,0.06667515062,0.05891264584,0.05394619325,0.05108657306,0.04978219387,0.04959808646,0.05019612989,0.05131725403,0.05276593029],
				"pinf": [0,0.02408938072,0.03099247493,0.02962589035,0.02447995937,0.01789608933,0.01111490168,0.004783600611,-0.0007847551161,-0.005470443646,-0.009265921661,-0.01222675408,-0.01444106213,-0.01601034847,-0.01703763911,-0.0176204539,-0.01784698628,-0.0177943955,-0.017528454,-0.01710402425,-0.01656600393],
				"w": [0,0.06402047226,0.09516335675,0.1051978157,0.1021342749,0.09145381437,0.07681599904,0.06063015965,0.0444343587,0.02915931723,0.01531714534,0.003137585522,-0.007333862393,-0.01616601914,-0.02349305926,-0.02948103873,-0.03430575573,-0.03813877475,-0.04113921722,-0.04344952684,-0.045193889],
				"r": [0,0.1411403703,0.1315586536,0.1230312322,0.114724991,0.09735276596,0.07729857628,0.05766332419,0.03989737237,0.02458953745,0.01186929585,0.001622729649,-0.006386088652,-0.01244470872,-0.01685113206,-0.01989024198,-0.0218211875,-0.02287166706,-0.02323651634,-0.02307889037,-0.02253290189],
				"a": [0,-2.967924487e-16,-2.916876186e-16,-2.866705915e-16,-2.817398573e-16,-2.768939318e-16,-2.721313562e-16,-2.674506968e-16,-2.628505449e-16,-2.583295155e-16,-2.538862478e-16,-2.495194044e-16,-2.452276706e-16,-2.410097547e-16,-2.368643869e-16,-2.327903194e-16,-2.287863259e-16,-2.248512011e-16,-2.209837605e-16,-2.171828398e-16,-2.134472949e-16],
				"b": [0,0,-1.217515398e-33,-1.084367178e-33,-5.904910763e-34,-2.494620704e-34,-7.578495762e-35,-3.515338122e-36,1.933244042e-35,2.183351251e-35,1.772364045e-35,1.261301287e-35,8.361131093e-36,5.304970911e-36,3.269174454e-36,1.974111916e-36,1.174833578e-36,6.917518711e-37,4.041025314e-37,2.346742121e-37,1.356774194e-37],
				"g": [0,1,0.9249,0.85544001,0.7911964652,0.7317776107,0.6768211121,0.6259918466,0.5789798589,0.5354984715,0.4952825363,0.4580868178,0.4236844978,0.391865792,0.3624366711,0.3352176771,0.3100428295,0.286758613,0.2652230412,0.2453047908,0.226882401],
				"qs": [0,-7.457792876e-17,-3.180748662e-17,-1.356589304e-17,-5.785853383e-18,-2.467666468e-18,-1.052459748e-18,-4.488740827e-19,-1.914447963e-19,-8.165120561e-20,-3.482423919e-20,-1.485253802e-20,-6.334607464e-21,-2.701710083e-21,-1.152279351e-21,-4.91447143e-22,-2.096022065e-22,-8.939534107e-23,-3.812711297e-23,-1.626121368e-23,-6.935407634e-24],
				"spinf": [0,0,1.618716224e-33,3.609829242e-33,2.378025196e-33,1.458445967e-33,8.64466108e-34,5.034535605e-34,2.904467367e-34,1.66695561e-34,9.539696476e-35,5.450664747e-35,3.111537258e-35,1.775342516e-35,1.01266706e-35,5.775403398e-36,3.293511986e-36,1.878081391e-36,1.070920756e-36,6.10651437e-37,3.481974319e-37],
				"sw": [0,7.882485784e-17,9.317098196e-18,5.312609391e-18,3.029249875e-18,1.727278279e-18,9.848940745e-19,5.615866013e-19,3.202166801e-19,1.82587551e-19,1.041114216e-19,5.936433258e-20,3.384954243e-20,1.93010091e-20,1.100543539e-20,6.275299257e-21,3.578175637e-21,2.040275748e-21,1.163365231e-21,6.63350855e-22,3.782426575e-22],
				"kp": [0,-0.02317455688,-0.0639239425,-0.1174474087,-0.1796787425,-0.2472469138,-0.3174467377,-0.3881672368,-0.4578062789,-0.5251852757,-0.5894704266,-0.650103234,-0.7067410414,-0.7592073042,-0.8074507755,-0.851512554,-0.8914998813,-0.92756561,-0.9598923513,-0.9886804257,-1.014138861],
				"rr": [0,-0.9946896925,0.1667790323,0.1535175961,0.1452637838,0.1389920755,0.1242642403,0.1068428261,0.08950314396,0.07354365126,0.05950460648,0.04752757448,0.03754451396,0.02938201412,0.02282079733,0.01763017192,0.01358769022,0.0104897339,0.008156437175,0.006433092514,0.005189433882],
				"er": [0,0.1667790323,0.1535175961,0.1452637838,0.1389920755,0.1242642403,0.1068428261,0.08950314396,0.07354365126,0.05950460648,0.04752757448,0.03754451396,0.02938201412,0.02282079733,0.01763017192,0.01358769022,0.0104897339,0.008156437175,0.006433092514,0.005189433882,0.004317719381],
				"ec": [0,0.1667790323,0.1535175961,0.1452637838,0.1389920755,0.1242642403,0.1068428261,0.08950314396,0.07354365126,0.05950460648,0.04752757448,0.03754451396,0.02938201412,0.02282079733,0.01763017192,0.01358769022,0.0104897339,0.008156437175,0.006433092514,0.005189433882,0.004317719381],
				"nw": [0,-3.269633084,-2.954194346,-2.66649455,-2.400437001,-2.153097664,-1.931630728,-1.737361156,-1.568908089,-1.423720579,-1.29885552,-1.19137603,-1.098550716,-1.017944151,-0.9474463628,-0.8852681074,-0.8299176554,-0.78016861,-0.7350245799,-0.6936842071,-0.6555085519],
				"prem": [0,0.05663113696,0.05158483294,0.04671251096,0.04216317381,0.03802637602,0.03432785046,0.03105506465,0.02817583524,0.02564914737,0.02343152455,0.02148072218,0.01975775429,0.01822786694,0.01686085008,0.01563094592,0.0145165259,0.01349965024,0.0125655846,0.01170232033,0.01090012593],
				"pinf4": [0,0.02408938072,0.05508185565,0.084707746,0.1091877054,0.102994414,0.08311684074,0.058274551,0.03300983651,0.009643303534,-0.01073751981,-0.0277478745,-0.04140418152,-0.05194408634,-0.05971580379,-0.06510950362,-0.06851542777,-0.07029947479,-0.07079028968,-0.07027386003,-0.06899287768],
				"eg": [0,1,-4.931546182e-16,-4.61801774e-16,-4.292074191e-16,-3.922963771e-16,-3.493374666e-16,-3.0548837e-16,-2.632951628e-16,-2.239663221e-16,-1.879966681e-16,-1.554904321e-16,-1.263380122e-16,-1.003174875e-16,-7.715490787e-17,-5.656054757e-17,-3.825041496e-17,-2.195841385e-17,-7.442498326e-18,5.513009696e-18,1.709749149e-17],
				"interest": [0,0.5645614811,0.5262346142,0.4921249288,0.458899964,0.3894110639,0.3091943051,0.2306532968,0.1595894895,0.0983581498,0.04747718341,0.006490918595,-0.02554435461,-0.04977883489,-0.06740452825,-0.0795609679,-0.08728475001,-0.09148666825,-0.09294606534,-0.0923155615,-0.09013160756],
				"inflation": [0,0.02408938072,0.05508185565,0.084707746,0.1091877054,0.102994414,0.08311684074,0.058274551,0.03300983651,0.009643303534,-0.01073751981,-0.0277478745,-0.04140418152,-0.05194408634,-0.05971580379,-0.06510950362,-0.06851542777,-0.07029947479,-0.07079028968,-0.07027386003,-0.06899287768],
				"inflationq": [0,0.09635752288,0.1239698997,0.1185035614,0.0979198375,0.07158435731,0.04445960674,0.01913440244,-0.003139020464,-0.02188177458,-0.03706368664,-0.04890701632,-0.05776424852,-0.0640413939,-0.06815055645,-0.07048181562,-0.07138794511,-0.07117758201,-0.070113816,-0.06841609701,-0.06626401571],
				"inflationql": [0,-1.354484998e-16,0.09635752288,0.1239698997,0.1185035614,0.0979198375,0.07158435731,0.04445960674,0.01913440244,-0.003139020464,-0.02188177458,-0.03706368664,-0.04890701632,-0.05776424852,-0.0640413939,-0.06815055645,-0.07048181562,-0.07138794511,-0.07117758201,-0.070113816,-0.06841609701],
				"inflationql2": [0,-1.203035823e-17,7.591183344e-17,0.09635752288,0.1239698997,0.1185035614,0.0979198375,0.07158435731,0.04445960674,0.01913440244,-0.003139020464,-0.02188177458,-0.03706368664,-0.04890701632,-0.05776424852,-0.0640413939,-0.06815055645,-0.07048181562,-0.07138794511,-0.07117758201,-0.070113816],
				"inflationqls": [0,-1.474788581e-16,0.09635752288,0.2203274226,0.2424734611,0.2164233989,0.1695041948,0.116043964,0.06359400918,0.01599538198,-0.02502079505,-0.05894546123,-0.08597070296,-0.1066712648,-0.1218056424,-0.1321919503,-0.1386323721,-0.1418697607,-0.1425655271,-0.141291398,-0.138529913],
				"outputgap": [0,1.05685482,0.8872236615,0.7301266196,0.5902368119,0.4698388858,0.3690380881,0.2864829405,0.2201494695,0.167786389,0.1271669263,0.0962254607,0.07312383533,0.05627458925,0.04433835488,0.03620657505,0.03097678328,0.02792508789,0.02647873836,0.0261904571,0.02671541791],
				"output": [0,1.05685482,0.8872236615,0.7301266196,0.5902368119,0.4698388858,0.3690380881,0.2864829405,0.2201494695,0.167786389,0.1271669263,0.0962254607,0.07312383533,0.05627458925,0.04433835488,0.03620657505,0.03097678328,0.02792508789,0.02647873836,0.0261904571,0.02671541791],
				"fispol": [0,1,-2.352816427e-16,-2.204535252e-16,-2.049409446e-16,-1.872110973e-16,-1.664028176e-16,-1.450990395e-16,-1.245765864e-16,-1.054431977e-16,-8.794952199e-17,-7.215066978e-17,-5.799461025e-17,-4.537294503e-17,-3.415106868e-17,-2.418631007e-17,-1.533870044e-17,-7.477066561e-18,-4.821195412e-19,5.752375835e-18,1.131962682e-17],
				"neww": [0,2.413818259e-32,1.087704549e-31,6.260474811e-32,1.835807083e-32,-1.347711384e-32,-3.411512434e-32,-4.742324986e-32,-5.586305737e-32,-6.10612311e-32,-6.411810005e-32,-6.578572333e-32,-6.657785424e-32,-6.684205162e-32,-6.680915699e-32,-6.662822867e-32,-6.639156809e-32,-6.615271867e-32,-6.593936362e-32,-6.57624827e-32,-6.562276214e-32]
			}
		}
	}
}
