{
	"model": "US_YR13AL",
	"rule": "Model",
	"data": {
		"AC": {
			"ewma": [1,0.01260469554,-0.03442576279,-0.002442681721,-0.00310967788,0.008276450255,-0.009260805235,0.001098190148,-0.03253438659,0.01234575899,-0.00240564709,-0.007360327598,-0.004447037576,-0.002275155309,-0.0281629201,0.01530382223,-0.002764337201,-0.01411496714,0.003607066369,-0.007517277569,-0.02002137571],
			"epinfma": [1,-0.01651756561,-0.01666070625,-0.02790447782,-0.02073380248,-0.009835504614,0.01453179476,0.01620899033,-0.01163018016,-0.00480232796,0.004263001576,0.002196978519,-0.009045431653,-0.0216515781,0.0004480862972,-0.003960615907,0.007595661132,0.007027628934,-0.0001111782472,0.00705527224,-0.003893858178],
			"mc": [1,0.8356833506,0.7085683307,0.5920743052,0.5137743577,0.4408700845,0.3876645183,0.3379349493,0.2974457846,0.2571512382,0.2219756752,0.190934314,0.1681176417,0.1569188719,0.1591446947,0.1652513493,0.1701937808,0.1660243388,0.1598894717,0.148295129,0.1393347456],
			"zcap": [1,0.9499418829,0.9068281937,0.8659536825,0.8318782591,0.7955453738,0.7583216621,0.7210221184,0.6874449067,0.6540866465,0.6249651712,0.596893183,0.5695917247,0.5481653306,0.5304444086,0.5134866596,0.4954239186,0.4775518293,0.4604025252,0.4432153982,0.4269970137],
			"rk": [1,0.9499418829,0.9068281937,0.8659536825,0.8318782591,0.7955453738,0.7583216621,0.7210221184,0.6874449067,0.6540866465,0.6249651712,0.596893183,0.5695917247,0.5481653306,0.5304444086,0.5134866596,0.4954239186,0.4775518293,0.4604025252,0.4432153982,0.4269970137],
			"k": [1,0.8967860628,0.8099475429,0.7223982086,0.6559352976,0.593535437,0.5400917133,0.4916000428,0.4547655946,0.4221557886,0.3925770815,0.3642790962,0.3384669784,0.3260970544,0.3169752088,0.3065337121,0.2923390061,0.2798583744,0.2686176053,0.2563511118,0.2444349607],
			"pk": [1,0.5772448679,0.4101399753,0.2537896049,0.2039643226,0.147210045,0.1220378604,0.09416956314,0.08205592109,0.06630326693,0.05647164953,0.04900283852,0.0365707427,0.04867093919,0.05616690967,0.06461330346,0.06603089207,0.06303228945,0.04660023397,0.04185161837,0.04225869093],
			"c": [1,0.8643346924,0.8008841813,0.7117529315,0.6655753849,0.6101689761,0.5775432602,0.5419122404,0.5240852409,0.4905752257,0.4678382643,0.4510940878,0.424672423,0.4171453225,0.4026415137,0.3983218621,0.3908446296,0.3791363619,0.3643018928,0.3521216858,0.3382645049],
			"inve": [1,0.883981857,0.8109631576,0.7318949132,0.6768993387,0.626148487,0.5887571243,0.5573944113,0.5389715218,0.505495775,0.4736669373,0.4439487206,0.4147220435,0.4052517153,0.3895811212,0.3782830559,0.3599920092,0.3406296458,0.3226104486,0.304522088,0.2877613803],
			"y": [1,0.8860642411,0.7908683191,0.6911738304,0.6123791777,0.5424452921,0.4833152246,0.4304011955,0.3912424996,0.355202602,0.3187479077,0.2846229239,0.2492961292,0.231655464,0.2134350945,0.1996644995,0.1829331968,0.1708832107,0.1563542435,0.1414235491,0.1249433332],
			"lab": [1,0.8670120907,0.7641042101,0.6548965346,0.5691187968,0.4896018361,0.4241955523,0.3694657576,0.329095448,0.2895601262,0.2528577255,0.2198050928,0.1895442335,0.1797636939,0.1685197076,0.1669783081,0.1588252697,0.1529311035,0.1449876381,0.1331690493,0.1205385095],
			"pinf": [1,0.5806410562,0.5544867834,0.3978778547,0.3899147987,0.3132943332,0.3081159123,0.253539914,0.2481338144,0.2067452203,0.187484217,0.17455137,0.1556394181,0.1537570162,0.1632803113,0.1709749763,0.1783122811,0.1613056275,0.1510747405,0.1421751189,0.1418038301],
			"w": [1,0.9120672153,0.8388186806,0.7712092685,0.7250534487,0.6794182452,0.6429740203,0.6082377913,0.5822912791,0.5520808989,0.5231866571,0.4907291601,0.4634500464,0.4442839075,0.4346074104,0.4221598103,0.4097900565,0.3915902106,0.376248297,0.3613264937,0.3493833571],
			"r": [1,0.9367271816,0.8876550634,0.8320203532,0.7819996709,0.7299076604,0.6791199986,0.6283415349,0.5832813423,0.5405658503,0.5017563338,0.4670632909,0.4372418211,0.4116942429,0.3915815688,0.3699630653,0.350345192,0.3338474286,0.3184771609,0.3041160104,0.2909795362],
			"a": [1,0.9390548617,0.8890444114,0.844127033,0.8024963437,0.7637607872,0.7287023911,0.6939161941,0.6613905439,0.6321357832,0.6042745399,0.5770849917,0.5522999818,0.5289585421,0.5096674883,0.4923928794,0.4789079294,0.4660693726,0.4497965339,0.4317992789,0.4162302694],
			"b": [1,0.3583908421,0.1517156242,0.07353873014,0.03260330023,0.03065990358,0.00358946351,0.004146323591,-0.02765406079,-0.0231401424,-0.008908325473,-0.005182769301,-0.02245021163,-0.02464099241,-0.003438423035,-0.008617178538,-0.007576641834,-0.0208814115,-0.02188388482,-0.02937114765,-0.01583933058],
			"g": [1,0.8628763743,0.7605989903,0.6683759134,0.5833126695,0.5111081689,0.4532592376,0.3999674394,0.3510620634,0.3059809461,0.2671828381,0.2311535154,0.2006289443,0.177313975,0.1539504463,0.1310113455,0.1124863682,0.09741241603,0.08286290042,0.07108538739,0.05591491508],
			"qs": [1,0.3787936522,0.1310170753,0.04404068158,0.01796430921,0.02265165498,0.0213581384,0.006587780831,-0.006917614867,-0.01175124781,-0.01205507703,-0.001284174653,-0.004185741322,-0.01490437284,-0.01378459097,-0.018637977,-0.01708226953,-0.01011315356,-0.01006317097,-0.01525715285,-0.00693636303],
			"spinf": [1,-0.1553993226,-0.0531333736,-0.0330553816,-0.01795498321,-0.00736461854,0.01563649609,0.0198303136,-0.01367448411,-0.003832173495,0.006841402681,0.00503220818,-0.00486086015,-0.01792232491,0.004622138562,-0.001882337315,0.007744588686,0.006428291071,-0.001133485953,0.007894522252,-0.003784734515],
			"sw": [1,0.122549327,0.02916638369,0.0282607153,0.01537484547,0.01605819624,-0.004816388609,0.001407915839,-0.03026798355,0.008308204158,-0.005099345071,-0.009543589119,-0.0071675095,-0.005943085989,-0.02780277725,0.009151069125,-0.005880924201,-0.01630049802,-0.001014919001,-0.01229771974,-0.02498107306],
			"kp": [1,0.9680082322,0.9373756723,0.9078693117,0.8799148829,0.8532356183,0.8268444195,0.8015871337,0.777763744,0.7547055424,0.7312507719,0.7088756865,0.687568633,0.6672748971,0.6485870721,0.6263266136,0.6037005204,0.5824787038,0.5617656887,0.5416722664,0.5205645424],
			"rr": [1,-0.1095666358,-0.04319512706,-0.06241047459,0.007321783167,0.01208119162,0.02158857556,0.04211032137,0.005127622466,0.02151721156,0.03040915996,0.02657051424,0.007953492013,0.01218711389,0.03805331005,0.0110429516,0.03505710386,0.02382159415,0.0212585288,0.01501924428,0.01986007776],
			"er": [1,0.4469725785,0.2753227391,0.1669506359,0.126503025,0.09113734486,0.06190339379,0.03688096633,0.004635222005,-0.003207289539,-0.0001102739634,-1.37817406e-05,-0.01146501382,-0.0185346487,0.001452048127,-0.0005281710998,-0.003222352146,-0.01107608877,-0.01809435398,-0.0251708629,-0.0134581186],
			"ec": [1,0.4469725785,0.2753227391,0.1669506359,0.126503025,0.09113734486,0.06190339379,0.03688096633,0.004635222005,-0.003207289539,-0.0001102739634,-1.37817406e-05,-0.01146501382,-0.0185346487,0.001452048127,-0.0005281710998,-0.003222352146,-0.01107608877,-0.01809435398,-0.0251708629,-0.0134581186],
			"nw": [1,0.7651635396,0.6595339961,0.5436837642,0.4919736083,0.4329246511,0.3971177207,0.3637001272,0.342626775,0.3113324468,0.2807719868,0.2558443896,0.2246362121,0.2186895286,0.2050033642,0.204915328,0.1903777722,0.1781676955,0.1557755832,0.1428505183,0.1356654442],
			"prem": [1,0.810279948,0.7185574054,0.6130424693,0.5614728133,0.5031793004,0.4664075038,0.4316350498,0.4075141695,0.3724911389,0.3374726459,0.3088400262,0.2742429223,0.2644477966,0.2463612023,0.2435228956,0.2264698222,0.2119690209,0.1900564613,0.175953418,0.1673130803],
			"pinf4": [1,0.8516169816,0.7397822355,0.6062942267,0.5076035036,0.4275033111,0.3687817581,0.3154222694,0.2762990356,0.2323298112,0.2004436808,0.1783007279,0.1632587514,0.159488547,0.1647288272,0.1693289364,0.1728680777,0.1696030466,0.1662771222,0.1618925978,0.1604798812],
			"eg": [1,-0.01313780192,0.006214933673,0.02071774,0.01646361206,-0.02693205825,0.01009961399,-0.003056031093,0.01228502585,0.000145477578,0.0007959604023,-0.005321623772,-0.009539681631,-0.0006494708938,-0.01253842275,-0.001750951063,-0.01951382508,-0.008813469322,-0.003827784465,0.01789068372,-0.007873228176],
			"interest": [1,0.9367271816,0.8876550634,0.8320203532,0.7819996709,0.7299076604,0.6791199986,0.6283415349,0.5832813423,0.5405658503,0.5017563338,0.4670632909,0.4372418211,0.4116942429,0.3915815688,0.3699630653,0.350345192,0.3338474286,0.3184771609,0.3041160104,0.2909795362],
			"inflation": [1,0.8516169816,0.7397822355,0.6062942267,0.5076035036,0.4275033111,0.3687817581,0.3154222694,0.2762990356,0.2323298112,0.2004436808,0.1783007279,0.1632587514,0.159488547,0.1647288272,0.1693289364,0.1728680777,0.1696030466,0.1662771222,0.1618925978,0.1604798812],
			"inflationq": [1,0.5806410562,0.5544867834,0.3978778547,0.3899147987,0.3132943332,0.3081159123,0.253539914,0.2481338144,0.2067452203,0.187484217,0.17455137,0.1556394181,0.1537570162,0.1632803113,0.1709749763,0.1783122811,0.1613056275,0.1510747405,0.1421751189,0.1418038301],
			"inflationql": [1,0.7972658812,0.6182646684,0.4989415164,0.418105727,0.3683515561,0.3231619807,0.278570433,0.2400003266,0.2075791601,0.1821392686,0.1618410481,0.1404286459,0.1376028458,0.1500225795,0.1563738814,0.1565785866,0.1586985304,0.1528025759,0.1394780012,0.1386311306],
			"inflationql2": [1,0.8131972062,0.6393991952,0.4944554808,0.4112183283,0.3589045293,0.3076193198,0.2582956668,0.2141109798,0.1817385445,0.1546260923,0.1364245809,0.1219404234,0.1150635655,0.1228761203,0.1327065081,0.1392299761,0.1395354868,0.1328612109,0.1274005248,0.1241500701],
			"inflationqls": [1,0.8654377792,0.6783511292,0.5387455773,0.4483637399,0.3892269584,0.3366162485,0.2881981717,0.2456171354,0.2101381857,0.1811814125,0.1589304815,0.1413144097,0.1384068231,0.1460754706,0.1533312252,0.1575301584,0.1577052429,0.1527350356,0.1442800537,0.1418288626],
			"outputgap": [1,0.8641582201,0.7561246696,0.6404264875,0.5492523186,0.464480376,0.3933285583,0.3316097688,0.2854693858,0.243257468,0.205105376,0.1705495694,0.1387555797,0.128216045,0.1169852055,0.1132858793,0.1042232792,0.09901230125,0.09197229083,0.08148027152,0.07021015856],
			"output": [1,0.8860642411,0.7908683191,0.6911738304,0.6123791777,0.5424452921,0.4833152246,0.4304011955,0.3912424996,0.355202602,0.3187479077,0.2846229239,0.2492961292,0.231655464,0.2134350945,0.1996644995,0.1829331968,0.1708832107,0.1563542435,0.1414235491,0.1249433332],
			"fispol": [1,-0.01313780192,0.006214933673,0.02071774,0.01646361206,-0.02693205825,0.01009961399,-0.003056031093,0.01228502585,0.000145477578,0.0007959604023,-0.005321623772,-0.009539681631,-0.0006494708938,-0.01253842275,-0.001750951063,-0.01951382508,-0.008813469322,-0.003827784465,0.01789068372,-0.007873228176],
			"newv_long": [1,-0.0003622496405,-0.04037329084,-0.00395261201,-0.01631371092,-0.007748717325,0.0007290108412,0.008802987576,-0.02798952152,0.009661040562,-0.002019102867,0.006634143005,-0.005905289216,-0.02702663508,-0.01610214538,0.00598074121,0.003621082077,0.01268678556,0.0007213495761,0.002854655586,-0.01057752099],
			"newv_short": [1,-0.0003622496405,-0.04037329084,-0.00395261201,-0.01631371092,-0.007748717325,0.0007290108412,0.008802987576,-0.02798952152,0.009661040562,-0.002019102867,0.006634143005,-0.005905289216,-0.02702663508,-0.01610214538,0.00598074121,0.003621082077,0.01268678556,0.0007213495761,0.002854655586,-0.01057752099]
		},
		"VAR": {
			"ewma": 0.02900435188,
			"epinfma": 0.01975098692,
			"mc": 2.715036274,
			"zcap": 56.23526778,
			"rk": 1.383880628,
			"k": 10.96967139,
			"pk": 63.00662712,
			"c": 77.03463831,
			"inve": 568.2955975,
			"y": 12.64103028,
			"lab": 4.220672435,
			"pinf": 0.380331075,
			"w": 5.656130779,
			"r": 0.1982795427,
			"a": 2.054345388,
			"b": 2.136905338,
			"g": 0.8270459033,
			"qs": 0.1081343697,
			"spinf": 0.02053903538,
			"sw": 0.02949026662,
			"kp": 85.81571851,
			"rr": 35.62269886,
			"er": 3.534627974,
			"ec": 3.534627974,
			"nw": 982.9293844,
			"prem": 0.2328984674,
			"pinf4": 3.41629806,
			"eg": 0.1187728182,
			"interest": 3.172472684,
			"inflation": 3.41629806,
			"inflationq": 6.0852972,
			"inflationql": 4.315902906,
			"inflationql2": 3.904638546,
			"inflationqls": 15.21591205,
			"outputgap": 10.88588172,
			"output": 12.64103028,
			"fispol": 0.1187728182,
			"newv_long": 0.04922496288,
			"newv_short": 0.04922496288
		},
		"IRF": {
			"interest_": {
				"ewma": [0,-1.853983327e-17,9.495131833e-17,2.933181234e-16,-6.159101528e-17,2.326481042e-16,-7.371719586e-17,-1.212535492e-16,1.712511485e-16,2.597812471e-17,-5.273173613e-17,1.45690531e-17,3.62983727e-17,8.848881616e-17,1.101103578e-16,-7.729713255e-17,7.518956941e-17,1.440406025e-16,6.894146543e-17,-8.479274468e-17,2.804520097e-17],
				"epinfma": [0,0,-1.269218196e-16,-2.880896912e-16,-8.572912752e-17,-3.639206291e-16,8.532623355e-17,1.767172293e-16,-1.712511485e-16,-2.16549758e-17,1.143381012e-16,-1.45690531e-17,-2.399490862e-17,-8.072227306e-17,-7.551781082e-17,6.418728069e-17,-7.74600451e-17,-1.536421154e-16,-4.110521837e-17,9.262701296e-17,-3.504318334e-17],
				"mc": [0,-0.1356815293,-0.228043983,-0.286151179,-0.3188487194,-0.3319348558,-0.3297395473,-0.3159032973,-0.2936246665,-0.2657046759,-0.2345366386,-0.202096597,-0.1699503849,-0.1392782579,-0.1109129527,-0.0853859959,-0.06297757451,-0.04376626403,-0.02767594812,-0.01451818713,-0.004029049852],
				"zcap": [0,-0.2990127639,-0.5176632976,-0.6262550828,-0.6495789644,-0.6095039203,-0.5243068027,-0.4091319534,-0.2763360481,-0.1357524079,0.005049833029,0.1404912508,0.266696734,0.3812106706,0.4827242182,0.5708236768,0.6457659641,0.7082843796,0.7594255324,0.8004165588,0.8325605278],
				"rk": [0,-0.04690667607,-0.08120678292,-0.09824177376,-0.1019006335,-0.09561398842,-0.08224896164,-0.06418127357,-0.04334933841,-0.0212957271,0.0007921764909,0.02203911801,0.04183720167,0.05980121118,0.075725826,0.08954614828,0.1013024812,0.1111098587,0.1191324644,0.1255628012,0.1306052841],
				"k": [0,-0.2990127639,-0.5576042852,-0.7338110299,-0.8415761115,-0.8942218476,-0.9036375299,-0.8804011933,-0.8337893992,-0.7717364817,-0.7008253828,-0.6263320823,-0.5523182811,-0.4817584427,-0.4166864904,-0.3583494957,-0.3073585589,-0.2638299253,-0.2275118707,-0.1978949185,-0.1743045217],
				"pk": [0,-2.515693567,-2.102053413,-1.65519805,-1.254442825,-0.9140247153,-0.6330429615,-0.4069068796,-0.229626592,-0.0947241602,0.004272540425,0.07353439334,0.1187504987,0.1450230359,0.1568161304,0.1579449411,0.1515945376,0.1403599468,0.1263001179,0.1109998183,0.09563470007],
				"c": [0,-0.4486784212,-0.8388439034,-1.130482724,-1.322902013,-1.425018662,-1.450235221,-1.41374464,-1.330805339,-1.215641189,-1.080793034,-0.9367987714,-0.7921071999,-0.6531516468,-0.5245259356,-0.4092188429,-0.3088744037,-0.224054643,-0.1544887378,-0.09929848606,-0.05719446649],
				"inve": [0,-1.370033989,-2.359232479,-3.00401197,-3.372454819,-3.530074628,-3.532955486,-3.427509652,-3.251171403,-3.033351937,-2.796484321,-2.557073961,-2.326704541,-2.112968856,-1.920306523,-1.750739345,-1.604501674,-1.480568141,-1.377084697,-1.29171145,-1.221887179],
				"y": [0,-0.3339839449,-0.6525445913,-0.8672193209,-0.9922840815,-1.045141497,-1.042355036,-0.9987197288,-0.9269704534,-0.8377125187,-0.7394878474,-0.6389291492,-0.5409670613,-0.4490638175,-0.3654537949,-0.2913768046,-0.2272945101,-0.1730840108,-0.1282055137,-0.09184320948,-0.06302006033],
				"lab": [0,-0.1881273614,-0.3741953417,-0.4991003064,-0.5705942405,-0.5990421482,-0.5945061464,-0.5659844762,-0.5211796964,-0.4664542573,-0.4068848193,-0.3463724084,-0.2877821999,-0.2330956035,-0.1835628598,-0.1398481914,-0.1021623864,-0.07037985947,-0.04413888483,-0.0229249106,-0.006137729404],
				"pinf": [0,-0.1583916921,-0.2287774685,-0.249012242,-0.244767013,-0.2285942987,-0.2067148295,-0.182464994,-0.1578028906,-0.1339552243,-0.1117058639,-0.09153712903,-0.07371031376,-0.05832015696,-0.04533675844,-0.03463996321,-0.02604802415,-0.01934126036,-0.0142811407,-0.01062520254,-0.008138258056],
				"w": [0,-0.1577920786,-0.2646157264,-0.3329524973,-0.3728825044,-0.3907936878,-0.3913803452,-0.3785979907,-0.3559590413,-0.3265779515,-0.293148387,-0.2579205559,-0.2226988795,-0.188861628,-0.1573978046,-0.128955156,-0.1038936913,-0.08234020716,-0.0642405215,-0.04940720671,-0.03756150824],
				"r": [0,0.2197978168,0.1624391587,0.1089709942,0.06220256807,0.02293786342,-0.008927954028,-0.03392769505,-0.05279340157,-0.06633649889,-0.07537911,-0.08071208458,-0.08306887117,-0.08310994783,-0.08141484391,-0.07847978366,-0.07471946426,-0.07047176908,-0.06600443223,-0.06152285539,-0.05717844258],
				"a": [0,0,3.107819761e-17,8.471717889e-17,8.51591781e-17,1.392291689e-16,2.167136851e-16,2.222894595e-16,2.193002982e-16,2.938070161e-16,2.843667912e-16,2.674548658e-16,2.685116556e-16,2.688085091e-16,2.4847075e-16,2.321369656e-16,2.358572342e-16,2.14177798e-16,2.107854881e-16,1.907360251e-16,2.013531936e-16],
				"b": [0,-2.807764858e-17,1.210912295e-16,8.196360358e-17,5.967380788e-17,-4.570229758e-17,4.605824431e-17,-3.563972832e-17,1.017917041e-16,6.196314998e-17,-1.605119974e-17,-5.015476243e-17,5.867301881e-18,-1.67890568e-17,6.653265732e-18,-4.633114489e-17,-2.785046979e-17,2.677158276e-17,-2.629499583e-17,-2.961272753e-17,-1.77925539e-17],
				"g": [0,0,0,0,0,0,0,0,0,0,0,0,0,0,0,0,0,0,0,0,0],
				"qs": [0,0,0,0,0,0,0,0,0,0,0,0,0,0,0,0,0,0,0,0,0],
				"spinf": [0,-3.609799987e-17,2.917521343e-16,7.458083647e-17,3.29899439e-16,-1.33670193e-16,2.59147196e-16,1.904634119e-16,-8.792436326e-17,7.449395539e-17,1.231331868e-16,-5.3330155e-17,1.820310326e-17,-7.230478861e-17,-3.060717956e-17,4.41191476e-17,-1.209694637e-16,-3.213733675e-17,8.502796849e-17,9.280522159e-17,-2.222342324e-17],
				"sw": [0,4.950546222e-17,-7.125736668e-16,-2.392446691e-17,-6.470016928e-16,1.180837726e-16,-1.935390067e-16,-5.767995838e-17,1.317041957e-16,-5.936664533e-17,-2.001750136e-16,4.314799536e-17,-4.500699944e-17,1.202531106e-16,1.313610352e-16,-1.647059345e-17,2.255126541e-16,1.445549873e-16,2.493667825e-17,-1.060234889e-16,1.905829194e-17],
				"kp": [0,-0.03994098758,-0.1075559471,-0.1919971471,-0.2847179273,-0.3793307272,-0.47126924,-0.5574533511,-0.6359840738,-0.7058752158,-0.7668233331,-0.819015015,-0.8629691133,-0.8994107086,-0.9291731725,-0.953124523,-0.972114305,-0.9869374031,-0.9983114773,-1.00686505,-1.01313365],
				"rr": [0,-2.43529214,0.4794534299,0.497561038,0.4382902737,0.3670714392,0.298919561,0.2372976884,0.1833468124,0.1372937888,0.09888335499,0.06758479702,0.0427112562,0.02349710268,0.00915221193,-0.001098745048,-0.007988273993,-0.01218718361,-0.01429325922,-0.01482602433,-0.01422622489],
				"er": [0,0.5410517401,0.5023794046,0.4347905299,0.363250275,0.29534443,0.2340001894,0.180320657,0.1345213841,0.09633751495,0.06523091385,0.04051017893,0.0214083714,0.007137121833,-0.003074760552,-0.009954208364,-0.01416595697,-0.01630195274,-0.01687658229,-0.01632637731,-0.01501302045],
				"ec": [0,0.5410517401,0.5023794046,0.4347905299,0.363250275,0.29534443,0.2340001894,0.180320657,0.1345213841,0.09633751495,0.06523091385,0.04051017893,0.0214083714,0.007137121833,-0.003074760552,-0.009954208364,-0.01416595697,-0.01630195274,-0.01687658229,-0.01632637731,-0.01501302045],
				"nw": [0,-8.005020873,-7.308844736,-6.496201657,-5.759501108,-5.125152527,-4.586657156,-4.133279239,-3.753622588,-3.436594629,-3.171854876,-2.950046215,-2.762903183,-2.603282211,-2.465138352,-2.343464119,-2.234202362,-2.134143163,-2.040813173,-1.952364168,-1.867465946],
				"prem": [0,0.1022491965,0.09158898465,0.08091169378,0.07217059877,0.0653430475,0.06008454028,0.05606563197,0.05299706995,0.05063163956,0.04876345006,0.04722579596,0.04588790739,0.04465097205,0.04344377944,0.04221827341,0.04094523531,0.03961026174,0.03821014797,0.03674974064,0.03523928364],
				"pinf4": [0,-0.1583916921,-0.3871691606,-0.6361814027,-0.8809484157,-0.9511510223,-0.9290883833,-0.8625411352,-0.7755770128,-0.6809379384,-0.5859289728,-0.4950011078,-0.410908531,-0.3352734636,-0.2689043582,-0.2120071924,-0.1643449028,-0.1253660061,-0.09431038841,-0.07029562774,-0.05238586165],
				"eg": [0,0,0,0,0,0,0,0,0,0,0,0,0,0,0,0,0,0,0,0,0],
				"interest": [0,0.8791912672,0.6497566349,0.4358839767,0.2488102723,0.09175145368,-0.03571181611,-0.1357107802,-0.2111736063,-0.2653459956,-0.30151644,-0.3228483383,-0.3322754847,-0.3324397913,-0.3256593757,-0.3139191346,-0.298877857,-0.2818870763,-0.2640177289,-0.2460914215,-0.2287137703],
				"inflation": [0,-0.1583916921,-0.3871691606,-0.6361814027,-0.8809484157,-0.9511510223,-0.9290883833,-0.8625411352,-0.7755770128,-0.6809379384,-0.5859289728,-0.4950011078,-0.410908531,-0.3352734636,-0.2689043582,-0.2120071924,-0.1643449028,-0.1253660061,-0.09431038841,-0.07029562774,-0.05238586165],
				"inflationq": [0,-0.6335667684,-0.9151098741,-0.9960489681,-0.979068052,-0.9143771949,-0.826859318,-0.729859976,-0.6312115622,-0.5358208973,-0.4468234556,-0.3661485161,-0.294841255,-0.2332806278,-0.1813470338,-0.1385598528,-0.1041920966,-0.07736504142,-0.05712456279,-0.04250081016,-0.03255303222],
				"inflationql": [0,0,-0.6335667684,-0.9151098741,-0.9960489681,-0.979068052,-0.9143771949,-0.826859318,-0.729859976,-0.6312115622,-0.5358208973,-0.4468234556,-0.3661485161,-0.294841255,-0.2332806278,-0.1813470338,-0.1385598528,-0.1041920966,-0.07736504142,-0.05712456279,-0.04250081016],
				"inflationql2": [0,0,0,-0.6335667684,-0.9151098741,-0.9960489681,-0.979068052,-0.9143771949,-0.826859318,-0.729859976,-0.6312115622,-0.5358208973,-0.4468234556,-0.3661485161,-0.294841255,-0.2332806278,-0.1813470338,-0.1385598528,-0.1041920966,-0.07736504142,-0.05712456279],
				"inflationqls": [0,0,-0.6335667684,-1.548676643,-1.911158842,-1.97511702,-1.893445247,-1.741236513,-1.556719294,-1.361071538,-1.167032459,-0.9826443528,-0.8129719717,-0.6609897711,-0.5281218829,-0.4146276616,-0.3199068866,-0.2427519494,-0.181557138,-0.1344896042,-0.09962537295],
				"outputgap": [0,-0.3339839449,-0.6525445913,-0.8672193209,-0.9922840815,-1.045141497,-1.042355036,-0.9987197288,-0.9269704534,-0.8377125187,-0.7394878474,-0.6389291492,-0.5409670613,-0.4490638175,-0.3654537949,-0.2913768046,-0.2272945101,-0.1730840108,-0.1282055137,-0.09184320948,-0.06302006033],
				"output": [0,-0.3339839449,-0.6525445913,-0.8672193209,-0.9922840815,-1.045141497,-1.042355036,-0.9987197288,-0.9269704534,-0.8377125187,-0.7394878474,-0.6389291492,-0.5409670613,-0.4490638175,-0.3654537949,-0.2913768046,-0.2272945101,-0.1730840108,-0.1282055137,-0.09184320948,-0.06302006033],
				"fispol": [0,0,0,0,0,0,0,0,0,0,0,0,0,0,0,0,0,0,0,0,0],
				"newv_long": [0,-1.853983327e-17,-3.197050127e-17,5.228432202e-18,-1.473201428e-16,-1.31272525e-16,1.160903769e-17,5.546368006e-17,0,4.323148913e-18,6.160636507e-17,0,1.230346408e-17,7.7665431e-18,3.459254701e-17,-1.310985186e-17,-2.270475697e-18,-9.601512896e-18,2.783624706e-17,7.834268282e-18,-6.997982375e-18],
				"newv_short": [0,-1.853983327e-17,-3.197050127e-17,5.228432202e-18,-1.473201428e-16,-1.31272525e-16,1.160903769e-17,5.546368006e-17,0,4.323148913e-18,6.160636507e-17,0,1.230346408e-17,7.7665431e-18,3.459254701e-17,-1.310985186e-17,-2.270475697e-18,-9.601512896e-18,2.783624706e-17,7.834268282e-18,-6.997982375e-18]
			},
			"fiscal_": {
				"ewma": [0,2.021067685e-17,6.972707805e-17,-1.61604479e-16,3.682040804e-17,8.440888714e-17,-3.982582893e-17,-8.329510898e-17,3.403101011e-17,6.176504798e-17,-7.084654406e-17,5.220240195e-17,6.238968954e-17,1.513353735e-17,-5.937245721e-17,3.729801623e-17,2.435043104e-17,-4.443541329e-18,1.499277642e-17,-5.666308223e-17,-2.468125924e-17],
				"epinfma": [0,4.219994972e-17,-7.643485945e-17,1.119588327e-16,-3.682031511e-17,-4.871399022e-17,8.36237644e-17,7.164158072e-17,7.621938842e-17,-7.547469746e-17,4.007744038e-18,-2.006206634e-17,-3.733116625e-17,-1.049188875e-17,5.744317098e-17,-3.729792875e-17,-3.275029065e-17,4.00245439e-18,-1.499277642e-17,5.610543643e-17,2.468125924e-17],
				"mc": [0,0.09093567163,0.127840862,0.1413347963,0.1393977781,0.127733336,0.1104726315,0.09060540356,0.07025179784,0.05085587905,0.03333611817,0.01820796974,0.005685311041,-0.004235801309,-0.01170883921,-0.01698217379,-0.02035643219,-0.02215221141,-0.02268657233,-0.0222568182,-0.02113017327],
				"zcap": [0,0.6903611763,0.6758479729,0.6439183281,0.6044988517,0.5647611472,0.5294641458,0.5015112957,0.4823907555,0.4725331476,0.4716078684,0.4787675441,0.4928462459,0.5125161147,0.5364070518,0.5631943103,0.5916588743,0.6207253974,0.649482181,0.6771872711,0.703264268],
				"rk": [0,0.1082982132,0.1060215006,0.1010126392,0.09482883421,0.08859510823,0.08305800344,0.07867298901,0.0756735151,0.07412713422,0.07398198398,0.07510513533,0.07731368689,0.08039933497,0.08414714973,0.08834931569,0.09281460361,0.09737432195,0.1018854509,0.1062315987,0.1103223447],
				"k": [0,0.6903611763,0.6614914685,0.6032936148,0.527720661,0.4439120454,0.3585204678,0.2762296601,0.2001589017,0.1321939428,0.07326671106,0.02359303066,-0.01712727711,-0.04954490694,-0.07452728363,-0.09305331471,-0.1061332816,-0.1147503622,-0.1198203164,-0.1221660303,-0.1225038739],
				"pk": [0,-0.3690804497,-0.3515414568,-0.3537159869,-0.3493209831,-0.3361635837,-0.3149901173,-0.2874867351,-0.2556360565,-0.2213844642,-0.1864673332,-0.1523261281,-0.1200813708,-0.09053988408,-0.06422243143,-0.04140243536,-0.0221494091,-0.006372779126,0.006136746885,0.01567002131,0.02256745476],
				"c": [0,0.3446570216,0.528579966,0.5993495335,0.5910677307,0.530985321,0.4401830842,0.334486267,0.2253546932,0.1207010131,0.02561974201,-0.0569781748,-0.1258242484,-0.1808401586,-0.2227674887,-0.2528713909,-0.2727094438,-0.283956792,-0.2882788584,-0.2872433932,-0.2822642885],
				"inve": [0,-0.4924489894,-0.9153942915,-1.280741592,-1.588474565,-1.839165954,-2.034814686,-2.178756985,-2.275398539,-2.329890571,-2.347807964,-2.334860277,-2.296650512,-2.238486798,-2.165246099,-2.081285483,-1.990394592,-1.895782085,-1.800088799,-1.705420764,-1.613395904],
				"y": [0,1.124289898,1.016183109,0.8943364577,0.7675348178,0.6430236867,0.5259947371,0.4198626043,0.3265853713,0.2469720135,0.1809615196,0.1278667258,0.08658044545,0.05574433834,0.03388278126,0.01950510844,0.01118017634,0.007587425506,0.007548561485,0.01004374338,0.01421581596],
				"lab": [0,0.712048088,0.6342377071,0.5529286921,0.4720512332,0.3950259253,0.3242778647,0.2613253202,0.2069309692,0.1612612113,0.1240359664,0.09466118653,0.07234109142,0.05616972744,0.04520290491,0.03851237287,0.03522449483,0.03454583235,0.0357780139,0.03832412324,0.04168862917],
				"pinf": [0,0.03956432778,0.05456496553,0.05514870783,0.04896738048,0.04001447123,0.03041270184,0.02130920806,0.01330558332,0.006678074423,0.001500785859,-0.002278743765,-0.004789578159,-0.006202794279,-0.006707139043,-0.00649206271,-0.005736301278,-0.004600700285,-0.003224267604,-0.001722638847,-0.000188288244],
				"w": [0,0.08661130141,0.133275262,0.1513775619,0.150498262,0.1374812283,0.1173006065,0.09357732894,0.06890144758,0.04505986571,0.02321272866,0.004036979454,-0.01215468164,-0.0253152994,-0.03558303881,-0.04321637189,-0.0485431728,-0.0519218726,-0.05371287939,-0.05425855482,-0.05387015838],
				"r": [0,0.03649384647,0.04085515508,0.04427310148,0.04613614513,0.04638941301,0.04522517806,0.04293662578,0.03984193436,0.03624394026,0.03240930766,0.02855910013,0.02486630786,0.02145766025,0.01841799411,0.0157959999,0.01361052858,0.01185689583,0.01051280806,0.009543677576,0.008907200661],
				"a": [0,0,2.365471612e-18,2.091673773e-18,6.325340218e-18,1.481255466e-18,-7.821449389e-18,-1.220358806e-17,-1.180753208e-17,2.438056009e-17,1.700150898e-17,1.776132624e-17,1.854325193e-17,4.873847656e-17,3.722610064e-17,2.527546068e-17,1.725595748e-17,1.866802963e-17,-2.179008556e-17,-2.135916369e-17,-1.598819844e-17],
				"b": [0,-3.916873242e-17,4.16803568e-17,-3.014343282e-17,2.362096042e-17,-5.036118305e-18,-5.270376363e-17,1.919344777e-17,2.005686882e-18,4.723566843e-17,2.22878994e-17,4.031338482e-17,3.980947705e-17,9.391323603e-18,1.16093946e-17,1.533283328e-17,1.734773614e-17,-1.168041697e-18,-2.484720721e-18,-1.612586389e-17,-1.97472115e-17],
				"g": [0,1,0.9249,0.85544001,0.7911964652,0.7317776107,0.6768211121,0.6259918466,0.5789798589,0.5354984715,0.4952825363,0.4580868178,0.4236844978,0.391865792,0.3624366711,0.3352176771,0.3100428295,0.286758613,0.2652230412,0.2453047908,0.226882401],
				"qs": [0,0,0,0,0,0,0,0,0,0,0,0,0,0,0,0,0,0,0,0,0],
				"spinf": [0,7.081099977e-18,-3.24143791e-17,4.708136166e-17,-5.779017741e-17,-3.183783798e-19,2.229370119e-17,-1.635085784e-17,-2.473747393e-18,-1.12481407e-16,3.324669876e-17,-1.715017832e-17,-1.978987952e-17,-5.536424003e-18,2.74053106e-17,-5.882079246e-17,-2.444231489e-17,6.218306578e-18,-5.512125557e-18,3.535982988e-17,1.034838418e-17],
				"sw": [0,3.615506202e-17,-4.691310149e-17,-1.296980499e-16,-1.907622831e-17,-5.819101602e-17,2.932193642e-17,5.826134713e-18,8.628869805e-17,9.582420107e-17,-1.197031193e-16,6.065776784e-17,9.894975303e-17,5.754574535e-17,9.593610808e-18,7.925088584e-17,5.091677901e-17,2.059856397e-17,3.59451037e-17,-2.815073464e-17,-2.755933313e-17],
				"kp": [0,-0.01435650439,-0.04062471332,-0.07677819071,-0.1208491018,-0.170943678,-0.2252816356,-0.2822318538,-0.3403392048,-0.3983411573,-0.4551745134,-0.5099735231,-0.5620610216,-0.6109343355,-0.656247625,-0.6977921559,-0.7354757596,-0.7693024974,-0.7993533014,-0.8257681419,-0.8487300764],
				"rr": [0,-0.3535335729,0.03244052805,0.01263469894,0.0188597108,0.02699059207,0.03413677116,0.03942817188,0.04264049699,0.04387557169,0.0433992308,0.04154799995,0.03867335766,0.03510849501,0.0311494315,0.0270456447,0.02299707994,0.01915538048,0.01562779128,0.01248260962,0.009755362737],
				"er": [0,0.01362542414,0.01216604278,0.01924912461,0.02740526273,0.03452535337,0.03978621678,0.04297520027,0.04419715815,0.04371686706,0.04186822575,0.03899995437,0.03544302364,0.03149195928,0.02739540768,0.02335298207,0.01951631643,0.01599282163,0.01285102988,0.01012670607,0.007829132141],
				"ec": [0,0.01362542414,0.01216604278,0.01924912461,0.02740526273,0.03452535337,0.03978621678,0.04297520027,0.04419715815,0.04371686706,0.04186822575,0.03899995437,0.03544302364,0.03149195928,0.02739540768,0.02335298207,0.01951631643,0.01599282163,0.01285102988,0.01012670607,0.007829132141],
				"nw": [0,-1.162096154,-1.031599857,-0.9690515788,-0.9055768538,-0.8374608923,-0.765743692,-0.6923533174,-0.6193661989,-0.5486694103,-0.4818040451,-0.4199108257,-0.3637347422,-0.3136626793,-0.269777661,-0.2319192677,-0.1997436244,-0.1727789317,-0.1504742752,-0.1322406583,-0.1174840338],
				"prem": [0,0.02922252455,0.0264285324,0.02400699537,0.02135433767,0.01862062427,0.01594269864,0.01341759598,0.01110861417,0.009051734112,0.007261487432,0.005736201247,0.004462564057,0.003419484399,0.002581250535,0.001920031297,0.001407780394,0.001017619071,0.0007247769019,0.0005071695917,0.0003456880085],
				"pinf4": [0,0.03956432778,0.09412929331,0.1492780011,0.1982453816,0.1986955251,0.1745432614,0.1407037616,0.1050419644,0.07170556764,0.04279365166,0.01920569984,0.001110538358,-0.01177033034,-0.01997825525,-0.02419157419,-0.02513829731,-0.02353620332,-0.02005333188,-0.01528390801,-0.00973589498],
				"eg": [0,1,0,0,0,0,0,0,0,0,0,0,0,0,0,0,0,0,0,0,0],
				"interest": [0,0.1459753859,0.1634206203,0.1770924059,0.1845445805,0.185557652,0.1809007122,0.1717465031,0.1593677375,0.1449757611,0.1296372306,0.1142364005,0.09946523143,0.085830641,0.07367197646,0.06318399959,0.05444211434,0.0474275833,0.04205123225,0.0381747103,0.03562880264],
				"inflation": [0,0.03956432778,0.09412929331,0.1492780011,0.1982453816,0.1986955251,0.1745432614,0.1407037616,0.1050419644,0.07170556764,0.04279365166,0.01920569984,0.001110538358,-0.01177033034,-0.01997825525,-0.02419157419,-0.02513829731,-0.02353620332,-0.02005333188,-0.01528390801,-0.00973589498],
				"inflationq": [0,0.1582573111,0.2182598621,0.2205948313,0.1958695219,0.1600578849,0.1216508073,0.08523683224,0.05322233328,0.02671229769,0.006003143435,-0.00911497506,-0.01915831264,-0.02481117712,-0.02682855617,-0.02596825084,-0.02294520511,-0.01840280114,-0.01289707042,-0.006890555387,-0.000753152976],
				"inflationql": [0,0,0.1582573111,0.2182598621,0.2205948313,0.1958695219,0.1600578849,0.1216508073,0.08523683224,0.05322233328,0.02671229769,0.006003143435,-0.00911497506,-0.01915831264,-0.02481117712,-0.02682855617,-0.02596825084,-0.02294520511,-0.01840280114,-0.01289707042,-0.006890555387],
				"inflationql2": [0,0,0,0.1582573111,0.2182598621,0.2205948313,0.1958695219,0.1600578849,0.1216508073,0.08523683224,0.05322233328,0.02671229769,0.006003143435,-0.00911497506,-0.01915831264,-0.02481117712,-0.02682855617,-0.02596825084,-0.02294520511,-0.01840280114,-0.01289707042],
				"inflationqls": [0,0,0.1582573111,0.3765171733,0.4388546934,0.4164643532,0.3559274068,0.2817086923,0.2068876396,0.1384591655,0.07993463097,0.03271544113,-0.003111831625,-0.0282732877,-0.04396948975,-0.05163973329,-0.05279680701,-0.04891345595,-0.04134800625,-0.03129987156,-0.0197876258],
				"outputgap": [0,1.124289898,1.016183109,0.8943364577,0.7675348178,0.6430236867,0.5259947371,0.4198626043,0.3265853713,0.2469720135,0.1809615196,0.1278667258,0.08658044545,0.05574433834,0.03388278126,0.01950510844,0.01118017634,0.007587425506,0.007548561485,0.01004374338,0.01421581596],
				"output": [0,1.124289898,1.016183109,0.8943364577,0.7675348178,0.6430236867,0.5259947371,0.4198626043,0.3265853713,0.2469720135,0.1809615196,0.1278667258,0.08658044545,0.05574433834,0.03388278126,0.01950510844,0.01118017634,0.007587425506,0.007548561485,0.01004374338,0.01421581596],
				"fispol": [0,1,0,0,0,0,0,0,0,0,0,0,0,0,0,0,0,0,0,0,0],
				"newv_long": [0,6.241062656e-17,-6.707781405e-18,-4.964564636e-17,9.29310961e-23,3.569489693e-17,4.379793547e-17,-1.165352826e-17,1.102503985e-16,-1.370964948e-17,-6.683880002e-17,3.214033561e-17,2.50585233e-17,4.641648593e-18,-1.92928623e-18,8.748111097e-23,-8.399859613e-18,-4.410869394e-19,0,-5.576458058e-19,0],
				"newv_short": [0,6.241062656e-17,-6.707781405e-18,-4.964564636e-17,9.29310961e-23,3.569489693e-17,4.379793547e-17,-1.165352826e-17,1.102503985e-16,-1.370964948e-17,-6.683880002e-17,3.214033561e-17,2.50585233e-17,4.641648593e-18,-1.92928623e-18,8.748111097e-23,-8.399859613e-18,-4.410869394e-19,0,-5.576458058e-19,0]
			}
		}
	}
}
