{
	"model": "US_YR13AL",
	"rule": "CEE",
	"data": {
		"AC": {
			"ewma": [1,0.005704649756,-0.03976575068,0.01307726342,-0.01069073728,-0.006122664447,-0.01045447171,-0.00484378626,-0.03171239673,0.01644880987,-0.006911032142,0.004727630637,-0.0127352954,0.0003723091397,-0.02863167946,0.02482662932,-0.0006540142097,-0.0231404642,-0.003403515677,-0.007090676436,-0.01503183004],
			"epinfma": [1,-0.01067184285,-0.01245807725,-0.01716534767,-0.01335979585,-0.001415255124,0.00867933271,0.02206122578,-0.008017752993,0.01504004698,0.00834040767,-0.002721702295,-0.01111387446,-0.01802822244,-0.009028944969,-0.001868595645,0.0008370220233,0.008840123602,0.002354005356,0.009308558959,0.009960249894],
			"mc": [1,0.7845190594,0.6924626796,0.5650909221,0.4974255583,0.4160192777,0.3753526056,0.3162339112,0.2822338836,0.246613162,0.2210207415,0.1893351744,0.1748085994,0.1665849625,0.1682186948,0.1629558652,0.1658645434,0.1514406735,0.1458674032,0.1364047395,0.1308134484],
			"zcap": [1,0.963593701,0.9359572602,0.9033891735,0.8744983729,0.8430355423,0.8144132599,0.7854016346,0.756668715,0.7277267109,0.700097633,0.6722228116,0.6444217725,0.6176302397,0.5901527273,0.5635651453,0.5388339775,0.5147123325,0.4921559371,0.4704916617,0.4509125226],
			"rk": [1,0.963593701,0.9359572602,0.9033891735,0.8744983729,0.8430355423,0.8144132599,0.7854016346,0.756668715,0.7277267109,0.700097633,0.6722228116,0.6444217725,0.6176302397,0.5901527273,0.5635651453,0.5388339775,0.5147123325,0.4921559371,0.4704916617,0.4509125226],
			"k": [1,0.9130907846,0.8685109592,0.8040476586,0.7576620564,0.7043460017,0.6669545277,0.6252719107,0.5901185997,0.5576811893,0.5284213775,0.496745294,0.4699987765,0.4473032061,0.4282276692,0.4091619378,0.3931193189,0.3752517751,0.3671125706,0.3558419341,0.3496570119],
			"pk": [1,0.5393347062,0.3915081368,0.2363860224,0.2103659051,0.1613954106,0.1392728174,0.1129780202,0.09805744075,0.08259583693,0.07624755007,0.0539881887,0.04691792473,0.03111259336,0.04874090843,0.03953617114,0.04191030916,0.02598022397,0.04001333896,0.02285920461,0.03780110395],
			"c": [1,0.8819843815,0.8615993307,0.7951246833,0.7693594215,0.7220344197,0.6947652576,0.6518746249,0.6200574337,0.5919080472,0.5663935463,0.5378031092,0.5172245819,0.4909215177,0.466715303,0.4482708222,0.4347895253,0.4179511298,0.409634252,0.3997747582,0.3871887716],
			"inve": [1,0.928973213,0.8900303331,0.8347741917,0.7952399351,0.7493727784,0.7107164042,0.6667049676,0.6268849356,0.5892631627,0.5524798751,0.5136965297,0.4852456303,0.4556129104,0.4325654501,0.4064833543,0.3877076598,0.3651095996,0.3501942034,0.3289783913,0.3112087271],
			"y": [1,0.9256725798,0.8662500488,0.8016438065,0.7448281381,0.6906588171,0.6440975188,0.5971998113,0.5525565753,0.5113419571,0.4731331934,0.4366060769,0.4040318697,0.3758197785,0.3539128525,0.3299178116,0.3120903659,0.2922831489,0.2776086821,0.2609217518,0.2487173892],
			"lab": [1,0.8928165892,0.8070273154,0.7178676109,0.6432956865,0.5752810103,0.5247914778,0.4723306279,0.4322366777,0.3931924437,0.3579683538,0.3250629076,0.3026052764,0.2827925311,0.267426978,0.2517130564,0.2363011555,0.2207222879,0.2094472417,0.1882907742,0.1747134693],
			"pinf": [1,0.5516172549,0.582967155,0.4296552243,0.4424936151,0.3696496635,0.388761636,0.3392565993,0.3272764009,0.3043322757,0.2886772511,0.2713034359,0.2704411801,0.2643395612,0.2593991941,0.2544109179,0.2622659216,0.24416267,0.2467809811,0.2209795851,0.2098721019],
			"w": [1,0.9119815937,0.8711653684,0.8147205981,0.779390582,0.7338632198,0.7005535264,0.6588082308,0.6250040335,0.5936226233,0.5706636986,0.5394099871,0.5147859234,0.4908223356,0.4733342429,0.4547300083,0.43730463,0.4161527051,0.4101266287,0.4022750318,0.3908367711],
			"r": [1,0.8911961231,0.8404314757,0.7554717577,0.697814326,0.6301534934,0.5820742376,0.5269996608,0.476407694,0.4282267791,0.3868459707,0.3474957238,0.3211499005,0.2959295847,0.2731322979,0.2544230492,0.2399088547,0.2203334704,0.2031464617,0.1854904379,0.1698657146],
			"a": [1,0.9349713466,0.887111497,0.8440192147,0.8048310771,0.7664468475,0.7278311359,0.6917102812,0.6593480141,0.6286621737,0.6038223529,0.5793094156,0.5572708039,0.5374109348,0.520791966,0.504368639,0.4905270958,0.4771223464,0.4584413073,0.4409613955,0.4256449352],
			"b": [1,0.3706957405,0.15816031,0.06776201373,0.03017798761,0.03094033889,0.0079372141,0.0009066480609,-0.01616164874,-0.01373074749,-0.007574045204,-0.01712072766,-0.02113349531,-0.02505635238,-0.01245879333,-0.0150203567,-0.02715584303,-0.04293524927,-0.03094582646,-0.04105697407,-0.02525379931],
			"g": [1,0.8656432831,0.7681818981,0.6814954629,0.6024512627,0.5290211888,0.4700136876,0.4109974371,0.3621024443,0.3184542165,0.2741502375,0.238850022,0.2029988662,0.1756348985,0.1471739958,0.1246394915,0.1065244331,0.0943481081,0.07779451045,0.06630385853,0.05267820665],
			"qs": [1,0.3713434176,0.1321333353,0.04173815437,0.01615585313,0.01590360617,0.01861112804,0.003719037856,0.003076825162,-0.01373094346,-0.02221700406,-0.01735234364,-0.013714634,-0.01188382375,0.004639375585,-0.02340553648,-0.02211518931,-0.01335349217,-0.03147312265,-0.02459934445,-0.02040305044],
			"spinf": [1,-0.150096722,-0.05113806915,-0.02462093518,-0.01384478114,0.0003070709814,0.007084444299,0.0237815957,-0.01251825467,0.01663880507,0.009527262694,-0.002353825348,-0.005478621808,-0.01111189182,-0.003638080461,0.0009892442431,0.001729865578,0.01100502442,-2.1155685e-05,0.006398908072,0.01079163258],
			"sw": [1,0.1137564852,0.02265098303,0.04096561739,0.006299052609,0.001245322109,-0.008114674666,-0.006644099156,-0.03005785145,0.01263437141,-0.007170712797,0.002236702447,-0.01333168824,-0.002462297665,-0.02622938193,0.01946613259,-0.003391376953,-0.02588012046,-0.009231821585,-0.01223116388,-0.02164700089],
			"kp": [1,0.9833569656,0.9648834108,0.9447109135,0.9229540318,0.8999584067,0.8756888293,0.850388191,0.8242886615,0.7982910412,0.7714647013,0.7442551117,0.7170571161,0.6900083319,0.6633155103,0.6370393951,0.6119976512,0.5872282854,0.5632417879,0.5395765677,0.5165979447],
			"rr": [1,-0.1305164292,-0.04448785585,-0.05029224094,0.00877339394,0.02878155458,0.01287786969,0.03289716954,0.02555056159,0.03063087316,0.03238865818,0.02274570683,0.01728942306,0.001147142667,0.03894386727,0.01729299012,0.03524132761,0.001132144558,0.03390313921,-0.0002092302343,0.03364467931],
			"er": [1,0.4330942331,0.2503191203,0.1296521698,0.09484034725,0.07123603408,0.04657708325,0.02919935684,0.002585676584,0.0006383187107,-0.009422142429,-0.01227639689,-0.02523806088,-0.02634361752,-0.0151795441,-0.01892972069,-0.02815363971,-0.04259543229,-0.02987629554,-0.04518076282,-0.0250809046],
			"ec": [1,0.4330942331,0.2503191203,0.1296521698,0.09484034725,0.07123603408,0.04657708325,0.02919935684,0.002585676584,0.0006383187107,-0.009422142429,-0.01227639689,-0.02523806088,-0.02634361752,-0.0151795441,-0.01892972069,-0.02815363971,-0.04259543229,-0.02987629554,-0.04518076282,-0.0250809046],
			"nw": [1,0.784787683,0.6993753493,0.5887377174,0.5448089416,0.4786057426,0.4364963035,0.3860256288,0.3504978479,0.309302998,0.279380169,0.2408953107,0.2150713502,0.1829372372,0.1727323465,0.1485702473,0.13307062,0.1064652847,0.09945875577,0.08000753483,0.07933472455],
			"prem": [1,0.8432303706,0.7702247638,0.6715557355,0.621741985,0.5547764484,0.5073585298,0.4522128554,0.4118913421,0.3664605231,0.3316879651,0.2905573175,0.26129338,0.2263350248,0.2086559107,0.1814193388,0.1623233997,0.1350970045,0.1243180656,0.1068040608,0.1029500298],
			"pinf4": [1,0.8560209249,0.7783529831,0.6646715128,0.5898017065,0.5212760326,0.4763572652,0.4315171906,0.3954770913,0.3659893001,0.3355255447,0.3115780042,0.2985791247,0.2913979604,0.2827463364,0.2795764324,0.2767343624,0.2668644365,0.2577052597,0.2423278312,0.232432036],
			"eg": [1,-0.00499475655,0.005229888002,0.007773742702,0.02806388063,-0.02470173248,0.00497545298,0.002550433576,0.001503119699,0.002148334501,-0.02269259819,0.007150840643,-0.01882168375,0.005344366409,-0.01701261335,0.005583645605,-0.02943416383,0.002031778121,-0.02029408904,0.01083953158,-0.0025543179],
			"interest": [1,0.8911961231,0.8404314757,0.7554717577,0.697814326,0.6301534934,0.5820742376,0.5269996608,0.476407694,0.4282267791,0.3868459707,0.3474957238,0.3211499005,0.2959295847,0.2731322979,0.2544230492,0.2399088547,0.2203334704,0.2031464617,0.1854904379,0.1698657146],
			"inflation": [1,0.8560209249,0.7783529831,0.6646715128,0.5898017065,0.5212760326,0.4763572652,0.4315171906,0.3954770913,0.3659893001,0.3355255447,0.3115780042,0.2985791247,0.2913979604,0.2827463364,0.2795764324,0.2767343624,0.2668644365,0.2577052597,0.2423278312,0.232432036],
			"inflationq": [1,0.5516172549,0.582967155,0.4296552243,0.4424936151,0.3696496635,0.388761636,0.3392565993,0.3272764009,0.3043322757,0.2886772511,0.2713034359,0.2704411801,0.2643395612,0.2593991941,0.2544109179,0.2622659216,0.24416267,0.2467809811,0.2209795851,0.2098721019],
			"inflationql": [1,0.7846931841,0.6453437733,0.5584163038,0.4864187443,0.4450932772,0.4105015133,0.377079328,0.3365817386,0.316337716,0.2932554344,0.2645172662,0.2573101784,0.2526879733,0.2475954922,0.2488628191,0.2473084029,0.243689923,0.2290385963,0.2088800785,0.1898973996],
			"inflationql2": [1,0.8211665581,0.6877482622,0.5776833314,0.5065289349,0.4519859136,0.4080414447,0.3747272773,0.3345702507,0.3090769137,0.2797723936,0.2555548167,0.2417874941,0.2325706626,0.2309077025,0.2302195685,0.2271968762,0.2227216683,0.2136711324,0.1937838362,0.188587479],
			"inflationqls": [1,0.8739960377,0.7215529146,0.6147725865,0.5382005507,0.4840171849,0.4412729117,0.4037369174,0.3643374764,0.3364458565,0.3085533495,0.2813461265,0.2689039332,0.2622230598,0.2567079885,0.2559244863,0.255266335,0.2486252238,0.2352159232,0.2165786257,0.2029805091],
			"outputgap": [1,0.8826949757,0.7901621165,0.6929689504,0.6112586761,0.5354141873,0.4793648145,0.422184567,0.3782160172,0.3362345773,0.2981639457,0.2632524172,0.2387458666,0.2185793406,0.2027960904,0.1878260781,0.1735542581,0.1607606105,0.1536047796,0.1370154531,0.1290410318],
			"output": [1,0.9256725798,0.8662500488,0.8016438065,0.7448281381,0.6906588171,0.6440975188,0.5971998113,0.5525565753,0.5113419571,0.4731331934,0.4366060769,0.4040318697,0.3758197785,0.3539128525,0.3299178116,0.3120903659,0.2922831489,0.2776086821,0.2609217518,0.2487173892],
			"fispol": [1,-0.00499475655,0.005229888002,0.007773742702,0.02806388063,-0.02470173248,0.00497545298,0.002550433576,0.001503119699,0.002148334501,-0.02269259819,0.007150840643,-0.01882168375,0.005344366409,-0.01701261335,0.005583645605,-0.02943416383,0.002031778121,-0.02029408904,0.01083953158,-0.0025543179],
			"newv_long": [1,-0.001161919103,-0.04313070307,0.01502211851,-0.01665128339,-0.01681115853,-0.002499615997,0.00998142447,-0.02935160177,0.02551681737,0.005455027095,0.0003741372537,-0.009948972191,-0.01778514669,-0.02508669044,0.01168289691,0.004307007979,0.01299684882,0.003794421994,-0.0002416460601,0.005537205215],
			"newv_short": [1,-0.001161919103,-0.04313070307,0.01502211851,-0.01665128339,-0.01681115853,-0.002499615997,0.00998142447,-0.02935160177,0.02551681737,0.005455027095,0.0003741372537,-0.009948972191,-0.01778514669,-0.02508669044,0.01168289691,0.004307007979,0.01299684882,0.003794421994,-0.0002416460601,0.005537205215]
		},
		"VAR": {
			"ewma": 0.02352298865,
			"epinfma": 0.01603182988,
			"mc": 2.098931361,
			"zcap": 45.77688762,
			"rk": 1.126512783,
			"k": 7.237922619,
			"pk": 20.44780592,
			"c": 43.08837005,
			"inve": 246.8837679,
			"y": 7.280021012,
			"lab": 1.767018606,
			"pinf": 0.2481749134,
			"w": 5.490802197,
			"r": 0.2317350647,
			"a": 1.698537919,
			"b": 1.777888807,
			"g": 0.6743595242,
			"qs": 0.08868201443,
			"spinf": 0.01665173616,
			"sw": 0.02386313967,
			"kp": 67.14877219,
			"rr": 11.64459121,
			"er": 2.559716693,
			"ec": 2.559716693,
			"nw": 408.5468114,
			"prem": 0.1150007992,
			"pinf4": 2.16746107,
			"eg": 0.09646746579,
			"interest": 3.707761035,
			"inflation": 2.16746107,
			"inflationq": 3.970798614,
			"inflationql": 2.712579188,
			"inflationql2": 2.448482113,
			"inflationqls": 9.496645595,
			"outputgap": 4.346690647,
			"output": 7.280021012,
			"fispol": 0.09646746579,
			"newv_long": 0.03988710186,
			"newv_short": 0.03988710186
		},
		"IRF": {
			"interest_": {
				"ewma": [0,0,3.97849094e-16,1.067405169e-16,6.285448331e-17,4.921435024e-17,1.732252749e-16,7.344387688e-17,-8.069922325e-17,6.330380973e-17,-3.199792257e-17,-5.959034909e-17,4.241726139e-17,-8.991244381e-17,5.399156737e-17,-3.143204911e-17,5.030063437e-17,-2.943385588e-17,4.549102683e-17,6.217685977e-17,4.542079642e-17],
				"epinfma": [0,0,-1.425233045e-16,-1.044119529e-16,-6.063452678e-17,-1.418482319e-16,-1.726387639e-16,-7.344387688e-17,9.412242782e-17,-4.461088316e-17,1.659942788e-17,5.270542718e-17,-4.34742831e-17,9.014002195e-17,-6.294646788e-17,3.07520661e-17,-5.102048165e-17,3.665361271e-17,-7.57448581e-17,-7.354214675e-17,-4.573468666e-17],
				"mc": [0,-0.0407612509,-0.06620043603,-0.08014230803,-0.08606617645,-0.08632818157,-0.08268480224,-0.07650734721,-0.06887021301,-0.06059685728,-0.05229438711,-0.04438625098,-0.03714460058,-0.03072142542,-0.02517718596,-0.0205059896,-0.0166568171,-0.01355071458,-0.01109416267,-0.009189021035,-0.007739541971],
				"zcap": [0,-0.1008247601,-0.1689637454,-0.1936624903,-0.1883124877,-0.1632009284,-0.1260649968,-0.08261653414,-0.03695073846,0.008116616757,0.05076377495,0.08992202936,0.1250754557,0.1560980665,0.1831246886,0.2064514148,0.2264612625,0.2435707189,0.258193111,0.2707151374,0.2814833797],
				"rk": [0,-0.01581656347,-0.02650565002,-0.03038018704,-0.02954092241,-0.02560162644,-0.01977604531,-0.01296020596,-0.005796529541,0.001273268432,0.007963405695,0.01410623228,0.0196208142,0.02448738757,0.02872710293,0.03238640889,0.03552539009,0.03820938164,0.04050322288,0.04246757593,0.04415680969],
				"k": [0,-0.1008247601,-0.1842411272,-0.2336052396,-0.2579160719,-0.2643905769,-0.2587203516,-0.2453366158,-0.2276082058,-0.2080127492,-0.1882944711,-0.1696095468,-0.1526566916,-0.1377908751,-0.1251192196,-0.1145793434,-0.1060013312,-0.09915510392,-0.09378525352,-0.0896354833,-0.08646470473],
				"pk": [0,-1.158904225,-0.8578111827,-0.6076660926,-0.4133907114,-0.2670481642,-0.1599223691,-0.08397827786,-0.03221629743,0.001250685121,0.02124301646,0.03161538886,0.03538018021,0.03483558305,0.03168891658,0.02716980703,0.02213050781,0.01713229935,0.01251801477,0.008471460767,0.005064945466],
				"c": [0,-0.173960993,-0.2953076507,-0.3655789448,-0.3952361527,-0.3946190688,-0.3729941662,-0.3381518743,-0.2963049712,-0.2521616806,-0.2090932422,-0.169344004,-0.1342508202,-0.1044513719,-0.08006991344,-0.06087505677,-0.04640828841,-0.03608451483,-0.0292674512,-0.0253234214,-0.02365736172],
				"inve": [0,-0.5240364236,-0.8613353776,-1.057352542,-1.153051546,-1.18050916,-1.163919232,-1.121013057,-1.064380653,-1.002623315,-0.9413232575,-0.8838376488,-0.8319337005,-0.7862851839,-0.7468514669,-0.7131593498,-0.6845062868,-0.6601014656,-0.6391589333,-0.6209546816,-0.604857461],
				"y": [0,-0.1205430834,-0.2296263175,-0.2920531782,-0.3199294533,-0.3235406649,-0.3110662993,-0.2887907593,-0.2613795421,-0.2321621717,-0.2033990671,-0.1765205671,-0.1523328824,-0.1311898639,-0.113132039,-0.09799588069,-0.08549706046,-0.07529170923,-0.06701964707,-0.06033325884,-0.05491528569],
				"lab": [0,-0.06966726888,-0.1346598306,-0.1714492054,-0.1873124571,-0.1885392714,-0.1801433382,-0.1659622201,-0.1488251887,-0.1307330518,-0.1130286794,-0.0965487383,-0.08175310082,-0.06883157836,-0.05778935593,-0.04851339476,-0.0408224564,-0.03450347236,-0.02933685789,-0.02511312886,-0.02164288153],
				"pinf": [0,-0.04422978404,-0.06311778128,-0.06831046934,-0.06706365505,-0.0628208291,-0.0572914475,-0.05137635921,-0.04557310478,-0.04015956142,-0.03528285399,-0.03100693174,-0.02734120209,-0.02425962886,-0.02171432457,-0.01964547046,-0.01798851548,-0.01667924989,-0.01565719802,-0.0148676965,-0.01426297035],
				"w": [0,-0.04697405464,-0.07608694656,-0.09253622125,-0.1001445373,-0.1014529319,-0.09835305871,-0.09233460173,-0.08457954662,-0.07600642893,-0.06730238596,-0.05895457618,-0.05128277658,-0.0444719092,-0.03860276079,-0.03367953976,-0.02965348474,-0.02644224992,-0.02394517276,-0.02205477851,-0.02066501352],
				"r": [0,0.2292819663,0.1588681691,0.1016626456,0.0566235628,0.02219214514,-0.00331316621,-0.02151322815,-0.03388194078,-0.04170952683,-0.04609278752,-0.04794071629,-0.04798887369,-0.0468184278,-0.04487716243,-0.04250064113,-0.0399323329,-0.03734195963,-0.034841664,-0.03249984454,-0.0303526814],
				"a": [0,0,6.968997897e-18,1.240098961e-17,3.146984446e-17,5.122082246e-17,7.8106061e-17,9.916685521e-17,1.001564852e-16,1.001960393e-16,1.159909534e-16,1.176655029e-16,1.18611071e-16,1.129167291e-16,1.075131323e-16,1.014599338e-16,1.023700284e-16,1.006092639e-16,9.95092431e-17,9.04937086e-17,8.250879103e-17],
				"b": [0,1.481699816e-16,1.534182671e-16,5.202673701e-17,6.948611057e-17,7.583483835e-17,1.218068866e-16,6.710326734e-17,1.330114747e-17,2.860412427e-17,5.293649225e-18,-1.407618628e-17,-9.927269536e-18,-3.456811682e-17,-4.338698667e-18,-3.453811506e-17,7.273785377e-18,-2.677407189e-17,1.264487453e-17,1.847818125e-17,8.020570528e-19],
				"g": [0,0,0,0,0,0,0,0,0,0,0,0,0,0,0,0,0,0,0,0,0],
				"qs": [0,0,0,0,0,0,0,0,0,0,0,0,0,0,0,0,0,0,0,0,0],
				"spinf": [0,-2.270231754e-16,5.661669245e-18,1.325711238e-16,5.959130666e-18,3.153651983e-17,6.203149415e-17,7.817744666e-17,4.747251785e-17,-6.492420046e-17,-4.399756422e-17,2.065618006e-17,-1.318136553e-17,4.471795157e-17,-2.604848801e-17,1.301875067e-18,-2.800706459e-17,2.581415754e-17,-6.061183042e-17,1.689792727e-17,-5.209959142e-18],
				"sw": [0,4.705452958e-16,3.71988611e-16,-1.669645328e-17,9.867771083e-17,-5.18072691e-17,-7.513513253e-18,-3.042224975e-17,-2.375707918e-17,1.123356017e-16,7.354448927e-17,-1.932554233e-17,3.530181777e-18,-6.541839358e-17,-6.402057962e-18,1.427382779e-17,2.951398963e-17,3.139512135e-18,4.453847627e-17,1.133626071e-17,5.729722322e-17],
				"kp": [0,-0.01527738177,-0.03994274933,-0.06960358418,-0.1011896484,-0.1326553548,-0.1627200817,-0.1906574673,-0.2161293659,-0.239058246,-0.2595315761,-0.2777321473,-0.2938889416,-0.3082439082,-0.3210307582,-0.3324625937,-0.3427258228,-0.3519783645,-0.3603506207,-0.3679480845,-0.3748547704],
				"rr": [0,-1.121677083,0.3281663187,0.2689456641,0.2067762863,0.15420578,0.1116899656,0.07825694959,0.05262239776,0.03346771803,0.01955985187,0.009802148548,0.003251553239,-0.0008816087003,-0.003243124386,-0.004349219546,-0.004603065672,-0.004311787332,-0.003702885273,-0.002939396404,-0.002133403526],
				"er": [0,0.3381241342,0.2699422048,0.2074673979,0.1550503162,0.1126556862,0.07931335946,0.05375165982,0.03466135776,0.02081514875,0.0111195163,0.004632917678,0.0005662941437,-0.001725966288,-0.002760098623,-0.002939338613,-0.002570873182,-0.001882243887,-0.001036504007,-0.0001457314228,0.0007172816083],
				"ec": [0,0.3381241342,0.2699422048,0.2074673979,0.1550503162,0.1126556862,0.07931335946,0.05375165982,0.03466135776,0.02081514875,0.0111195163,0.004632917678,0.0005662941437,-0.001725966288,-0.002760098623,-0.002939338613,-0.002570873182,-0.001882243887,-0.001036504007,-0.0001457314228,0.0007172816083],
				"nw": [0,-3.687051879,-3.221210714,-2.81314708,-2.483111661,-2.219298514,-2.008886643,-1.840598716,-1.704950065,-1.594187715,-1.50211756,-1.423893686,-1.355803752,-1.295066557,-1.239649404,-1.188108456,-1.139452757,-1.093031093,-1.048439954,-1.005450351,-0.9639509902],
				"prem": [0,0.04781826103,0.04292942056,0.03884595224,0.03569255609,0.03325083753,0.03132780526,0.0297722913,0.02846897356,0.02733228532,0.02630080228,0.02533222071,0.02439898665,0.02348459191,0.02258051628,0.02168376872,0.0207949641,0.01991686328,0.01905330249,0.01820844067,0.01738625925],
				"pinf4": [0,-0.04422978404,-0.1073475653,-0.1756580347,-0.2427216897,-0.2613127348,-0.255486401,-0.2385522909,-0.2170617406,-0.1944004729,-0.1723918794,-0.1520224519,-0.1337905492,-0.1178906167,-0.1043220873,-0.09296062597,-0.08360793937,-0.0760275604,-0.06997043385,-0.06519265989,-0.06146711476],
				"eg": [0,0,0,0,0,0,0,0,0,0,0,0,0,0,0,0,0,0,0,0,0],
				"interest": [0,0.9171278651,0.6354726763,0.4066505824,0.2264942512,0.08876858058,-0.01325266484,-0.08605291258,-0.1355277631,-0.1668381073,-0.1843711501,-0.1917628651,-0.1919554948,-0.1872737112,-0.1795086497,-0.1700025645,-0.1597293316,-0.1493678385,-0.139366656,-0.1299993782,-0.1214107256],
				"inflation": [0,-0.04422978404,-0.1073475653,-0.1756580347,-0.2427216897,-0.2613127348,-0.255486401,-0.2385522909,-0.2170617406,-0.1944004729,-0.1723918794,-0.1520224519,-0.1337905492,-0.1178906167,-0.1043220873,-0.09296062597,-0.08360793937,-0.0760275604,-0.06997043385,-0.06519265989,-0.06146711476],
				"inflationq": [0,-0.1769191362,-0.2524711251,-0.2732418774,-0.2682546202,-0.2512833164,-0.22916579,-0.2055054368,-0.1822924191,-0.1606382457,-0.141131416,-0.124027727,-0.1093648084,-0.09703851544,-0.08685729826,-0.07858188184,-0.07195406192,-0.06671699957,-0.06262879208,-0.059470786,-0.05705188138],
				"inflationql": [0,0,-0.1769191362,-0.2524711251,-0.2732418774,-0.2682546202,-0.2512833164,-0.22916579,-0.2055054368,-0.1822924191,-0.1606382457,-0.141131416,-0.124027727,-0.1093648084,-0.09703851544,-0.08685729826,-0.07858188184,-0.07195406192,-0.06671699957,-0.06262879208,-0.059470786],
				"inflationql2": [0,0,0,-0.1769191362,-0.2524711251,-0.2732418774,-0.2682546202,-0.2512833164,-0.22916579,-0.2055054368,-0.1822924191,-0.1606382457,-0.141131416,-0.124027727,-0.1093648084,-0.09703851544,-0.08685729826,-0.07858188184,-0.07195406192,-0.06671699957,-0.06262879208],
				"inflationqls": [0,0,-0.1769191362,-0.4293902613,-0.5257130025,-0.5414964976,-0.5195379366,-0.4804491064,-0.4346712268,-0.387797856,-0.3429306648,-0.3017696617,-0.2651591429,-0.2333925353,-0.2064033238,-0.1838958137,-0.1654391801,-0.1505359438,-0.1386710615,-0.1293457917,-0.1220995781],
				"outputgap": [0,-0.1205430834,-0.2296263175,-0.2920531782,-0.3199294533,-0.3235406649,-0.3110662993,-0.2887907593,-0.2613795421,-0.2321621717,-0.2033990671,-0.1765205671,-0.1523328824,-0.1311898639,-0.113132039,-0.09799588069,-0.08549706046,-0.07529170923,-0.06701964707,-0.06033325884,-0.05491528569],
				"output": [0,-0.1205430834,-0.2296263175,-0.2920531782,-0.3199294533,-0.3235406649,-0.3110662993,-0.2887907593,-0.2613795421,-0.2321621717,-0.2033990671,-0.1765205671,-0.1523328824,-0.1311898639,-0.113132039,-0.09799588069,-0.08549706046,-0.07529170923,-0.06701964707,-0.06033325884,-0.05491528569],
				"fispol": [0,0,0,0,0,0,0,0,0,0,0,0,0,0,0,0,0,0,0,0,0],
				"newv_long": [0,0,2.553257894e-16,2.328564016e-18,2.219956533e-18,-9.26338817e-17,5.865109148e-19,0,1.342320457e-17,1.869292657e-17,-1.539849469e-17,-6.884921909e-18,-1.057021709e-18,2.275781367e-19,-8.954900518e-18,-6.799830192e-19,-7.198472839e-19,7.219756826e-18,-3.025383128e-17,-1.136528698e-17,-3.138902387e-19],
				"newv_short": [0,0,2.553257894e-16,2.328564016e-18,2.219956533e-18,-9.26338817e-17,5.865109148e-19,0,1.342320457e-17,1.869292657e-17,-1.539849469e-17,-6.884921909e-18,-1.057021709e-18,2.275781367e-19,-8.954900518e-18,-6.799830192e-19,-7.198472839e-19,7.219756826e-18,-3.025383128e-17,-1.136528698e-17,-3.138902387e-19]
			},
			"fiscal_": {
				"ewma": [0,7.508137043e-18,2.803099999e-16,-5.794136099e-17,2.533143119e-16,-2.227986956e-16,5.801154318e-18,8.390896609e-17,-2.355843142e-16,1.718956052e-16,-8.068026446e-17,1.010008402e-16,5.89866669e-17,1.228066154e-16,-1.819082659e-17,2.842585737e-17,9.858719317e-18,-7.449016595e-17,-7.000520361e-17,-7.180952482e-17,-1.623851434e-16],
				"epinfma": [0,0,-1.250723973e-16,3.844534221e-17,-5.077331742e-18,2.204293264e-16,-5.399785136e-17,-8.450201615e-17,1.996994521e-16,-1.263536034e-16,8.068026446e-17,-1.008734773e-16,-5.207078717e-17,-1.226426327e-16,2.816818843e-17,-3.695553991e-17,-5.058583852e-17,7.888747967e-17,4.385226936e-17,7.777117554e-17,1.597888787e-16],
				"mc": [0,0.07414418359,0.09898887664,0.1049838228,0.0992521901,0.08683641972,0.07125697163,0.05489792932,0.03929241236,0.02534440727,0.01350413482,0.003906250451,-0.003522868848,-0.008983714669,-0.01274367006,-0.01509445094,-0.01632337469,-0.01669531271,-0.01644264659,-0.01576100325,-0.01480897315],
				"zcap": [0,0.6528554479,0.609324261,0.5623869869,0.5200385957,0.4869799825,0.4654345451,0.4558902022,0.4576795309,0.4694273554,0.4893877034,0.5156885213,0.5465008552,0.58014779,0.6151668395,0.6503376883,0.6846852877,0.7174664496,0.7481463459,0.7763697776,0.8019307506],
				"rk": [0,0.1024146214,0.09558580493,0.08822266939,0.08157940025,0.07639343547,0.07301356353,0.0715163251,0.07179702035,0.07363992295,0.07677113904,0.08089699616,0.08573058303,0.09100883887,0.09650234085,0.1020196559,0.1074078263,0.1125502667,0.1173630779,0.1217905389,0.1258003352],
				"k": [0,0.6528554479,0.5898800383,0.5078650764,0.4183186712,0.3291730966,0.2455374359,0.1704008893,0.1052002203,0.05027602372,0.00523422176,-0.03077413395,-0.05884267325,-0.08015757064,-0.09589258244,-0.107141337,-0.1148781292,-0.1199397525,-0.1230221887,-0.1246871993,-0.1253749665],
				"pk": [0,-0.6671515353,-0.6411480999,-0.602748117,-0.5488825853,-0.4850257418,-0.4164466958,-0.3475284764,-0.2815991633,-0.220961372,-0.1670175358,-0.1204338251,-0.0813100775,-0.04933769289,-0.02393644532,-0.004366765319,0.01018253566,0.02052914604,0.02745176476,0.03166087349,0.03378241265],
				"c": [0,0.2908415016,0.418884224,0.4443605264,0.4054700432,0.3302597752,0.2385689615,0.1438006188,0.05444941833,-0.02462220467,-0.09114694307,-0.1446314452,-0.1857233778,-0.2157377602,-0.2363144362,-0.2491806851,-0.2559958541,-0.2582581176,-0.2572567439,-0.2540563658,-0.2495025918],
				"inve": [0,-0.6669651281,-1.222659955,-1.673482466,-2.025584306,-2.287591888,-2.469805135,-2.583343703,-2.639426645,-2.648819654,-2.621448795,-2.566162282,-2.49061434,-2.401243511,-2.303319359,-2.201034893,-2.097626009,-1.995503332,-1.896385594,-1.801426956,-1.711333374],
				"y": [0,1.082036582,0.9316773092,0.780167692,0.636466047,0.5063346565,0.3928512926,0.2970988362,0.2187578903,0.1565907475,0.1088210476,0.07341970944,0.04831056292,0.03150985384,0.02121325646,0.01584274216,0.01406398977,0.01478323666,0.01713072492,0.02043629501,0.02420127559],
				"lab": [0,0.6881670115,0.5856293867,0.4869293364,0.3962442397,0.3161291492,0.2477315302,0.1911583159,0.1458005301,0.1106001752,0.08425870867,0.06539217345,0.05264052919,0.04473944852,0.04056258981,0.03914158435,0.03966996091,0.04149614486,0.04410961803,0.04712337044,0.05025494659],
				"pinf": [0,0.02120818125,0.02769919741,0.02590646536,0.02034255387,0.01344658601,0.006547907523,0.0003498135027,-0.004815584822,-0.008841657937,-0.01175752455,-0.01366982455,-0.01472400471,-0.01507865316,-0.01488898371,-0.01429686113,-0.01342548735,-0.01237733894,-0.01123428553,-0.01005908124,-0.00889763015],
				"w": [0,0.06710305781,0.09983645658,0.1091584093,0.1036538317,0.08943738283,0.07081946922,0.05075889845,0.03119671059,0.01331577146,-0.002253347869,-0.01526931125,-0.02575261942,-0.03388818029,-0.03995283141,-0.04426326545,-0.04714026385,-0.04888563064,-0.04976872885,-0.05002003087,-0.04982957781],
				"r": [0,0.0296684935,0.05041369568,0.06230034149,0.0668539947,0.0658112537,0.06083431119,0.05337436715,0.04461801377,0.03548100438,0.02662837132,0.01850787554,0.01138858766,0.005399498756,0.0005651391955,-0.003163398197,-0.005882675676,-0.007716385334,-0.008799708719,-0.009267972961,-0.009248920678],
				"a": [0,0,-2.866939557e-18,-2.620636298e-18,-3.665651795e-18,-3.466104766e-18,3.669817675e-17,2.945657885e-17,3.043111807e-17,3.006282737e-17,3.058784584e-17,2.062568131e-17,2.289662495e-17,2.23895273e-17,2.580666859e-17,2.541417966e-17,1.158931538e-17,1.118440344e-17,1.590427179e-17,1.560618303e-17,1.977655856e-17],
				"b": [0,5.967986845e-17,9.808682129e-17,3.244088199e-17,1.265416362e-16,3.040357913e-17,5.051219078e-17,1.063430845e-16,-5.185960145e-17,3.452339729e-17,9.014683922e-17,6.871340775e-17,4.514114777e-17,6.439158325e-17,6.016684305e-17,3.786927924e-17,3.300776076e-17,1.400767244e-17,6.064395202e-18,-3.387251858e-17,-6.570585286e-18],
				"g": [0,1,0.9249,0.85544001,0.7911964652,0.7317776107,0.6768211121,0.6259918466,0.5789798589,0.5354984715,0.4952825363,0.4580868178,0.4236844978,0.391865792,0.3624366711,0.3352176771,0.3100428295,0.286758613,0.2652230412,0.2453047908,0.226882401],
				"qs": [0,0,0,0,0,0,0,0,0,0,0,0,0,0,0,0,0,0,0,0,0],
				"spinf": [0,-9.395186416e-17,-4.64195323e-17,1.37433447e-16,-8.338322956e-17,1.671720382e-17,-5.450620462e-17,-6.700210281e-17,5.83689862e-17,-9.90937032e-17,5.080423195e-17,-5.947938083e-18,2.89507524e-17,2.550212802e-17,9.136614138e-17,-2.088352554e-17,9.423089425e-18,2.198595477e-17,-8.74564836e-17,-4.679943407e-17,-4.852748187e-17],
				"sw": [0,4.0851255e-17,8.138068081e-17,-1.379069449e-16,3.547506077e-16,5.702663874e-18,-3.797215453e-17,1.03302707e-16,-8.898560463e-17,1.599975831e-16,-4.850467161e-17,-2.015344774e-17,6.499924886e-17,5.190469806e-17,-6.237187816e-17,1.585741574e-17,-6.012299987e-17,7.014500214e-18,7.593404897e-17,8.337721571e-17,6.703881973e-17],
				"kp": [0,-0.01944422264,-0.05452191051,-0.1017199246,-0.1578068859,-0.2198971092,-0.2854893129,-0.3524793106,-0.4191513317,-0.4841534817,-0.5464626552,-0.6053435285,-0.6603053606,-0.7110594219,-0.7574790253,-0.799563417,-0.8374062021,-0.8711685346,-0.9010569769,-0.927305717,-0.9501626966],
				"rr": [0,-0.6420889358,0.04999678095,0.06090295287,0.07439790062,0.08214068287,0.08451938631,0.08256532679,0.07743843017,0.07023212469,0.06188334585,0.05314048781,0.04456379083,0.03654307536,0.02932359918,0.02303438572,0.01771565451,0.01334347878,0.009850776625,0.007144377757,0.005118303407],
				"er": [0,0.04420653702,0.06184067226,0.07547924497,0.08318226807,0.08549679108,0.08347660315,0.07828927661,0.07102884953,0.06263012572,0.05383897195,0.0452136952,0.03714298811,0.02987164636,0.02352865979,0.01815442914,0.01372527388,0.01017433806,0.007408620269,0.005322247581,0.003806345518],
				"ec": [0,0.04420653702,0.06184067226,0.07547924497,0.08318226807,0.08549679108,0.08347660315,0.07828927661,0.07102884953,0.06263012572,0.05383897195,0.0452136952,0.03714298811,0.02987164636,0.02352865979,0.01815442914,0.01372527388,0.01017433806,0.007408620269,0.005322247581,0.003806345518],
				"nw": [0,-2.110603179,-1.948361224,-1.799218522,-1.644708309,-1.490136121,-1.340554985,-1.199846405,-1.070619422,-0.9543184595,-0.8514217116,-0.7616660239,-0.6842629364,-0.6180879873,-0.5618360025,-0.5141414191,-0.4736662297,-0.4391598872,-0.4094961544,-0.3836918539,-0.360912061],
				"prem": [0,0.04129724971,0.0373727353,0.03357540898,0.02982864459,0.02628538447,0.02304202078,0.02014756071,0.01761614344,0.01543757229,0.01358587643,0.01202602388,0.01071897066,0.009625276659,0.008707537403,0.007931876342,0.007268721533,0.00669306083,0.006184336891,0.005726110902,0.005305594292],
				"pinf4": [0,0.02120818125,0.04890737865,0.07481384401,0.09515639788,0.08739480264,0.06624351276,0.0406868609,0.01552872221,-0.006759521734,-0.02506495381,-0.03908459186,-0.04899301175,-0.05523000697,-0.05836146613,-0.05898850272,-0.05768998536,-0.05498867113,-0.05133397295,-0.04709619306,-0.04256833586],
				"eg": [0,1,0,0,0,0,0,0,0,0,0,0,0,0,0,0,0,0,0,0,0],
				"interest": [0,0.118673974,0.2016547827,0.249201366,0.2674159788,0.2632450148,0.2433372448,0.2134974686,0.1784720551,0.1419240175,0.1065134853,0.07403150215,0.04555435063,0.02159799503,0.002260556782,-0.01265359279,-0.0235307027,-0.03086554133,-0.03519883488,-0.03707189185,-0.03699568271],
				"inflation": [0,0.02120818125,0.04890737865,0.07481384401,0.09515639788,0.08739480264,0.06624351276,0.0406868609,0.01552872221,-0.006759521734,-0.02506495381,-0.03908459186,-0.04899301175,-0.05523000697,-0.05836146613,-0.05898850272,-0.05768998536,-0.05498867113,-0.05133397295,-0.04709619306,-0.04256833586],
				"inflationq": [0,0.08483272499,0.1107967896,0.1036258614,0.08137021547,0.05378634404,0.02619163009,0.001399254011,-0.01926233929,-0.03536663175,-0.04703009822,-0.05467929819,-0.05889601884,-0.06031461265,-0.05955593485,-0.05718744453,-0.0537019494,-0.04950935574,-0.04493714213,-0.04023632495,-0.0355905206],
				"inflationql": [0,0,0.08483272499,0.1107967896,0.1036258614,0.08137021547,0.05378634404,0.02619163009,0.001399254011,-0.01926233929,-0.03536663175,-0.04703009822,-0.05467929819,-0.05889601884,-0.06031461265,-0.05955593485,-0.05718744453,-0.0537019494,-0.04950935574,-0.04493714213,-0.04023632495],
				"inflationql2": [0,0,0,0.08483272499,0.1107967896,0.1036258614,0.08137021547,0.05378634404,0.02619163009,0.001399254011,-0.01926233929,-0.03536663175,-0.04703009822,-0.05467929819,-0.05889601884,-0.06031461265,-0.05955593485,-0.05718744453,-0.0537019494,-0.04950935574,-0.04493714213],
				"inflationqls": [0,0,0.08483272499,0.1956295146,0.2144226511,0.1849960769,0.1351565595,0.07997797413,0.0275908841,-0.01786308528,-0.05462897104,-0.08239672996,-0.1017093964,-0.113575317,-0.1192106315,-0.1198705475,-0.1167433794,-0.1108893939,-0.1032113051,-0.09444649788,-0.08517346709],
				"outputgap": [0,1.082036582,0.9316773092,0.780167692,0.636466047,0.5063346565,0.3928512926,0.2970988362,0.2187578903,0.1565907475,0.1088210476,0.07341970944,0.04831056292,0.03150985384,0.02121325646,0.01584274216,0.01406398977,0.01478323666,0.01713072492,0.02043629501,0.02420127559],
				"output": [0,1.082036582,0.9316773092,0.780167692,0.636466047,0.5063346565,0.3928512926,0.2970988362,0.2187578903,0.1565907475,0.1088210476,0.07341970944,0.04831056292,0.03150985384,0.02121325646,0.01584274216,0.01406398977,0.01478323666,0.01713072492,0.02043629501,0.02420127559],
				"fispol": [0,1,0,0,0,0,0,0,0,0,0,0,0,0,0,0,0,0,0,0,0],
				"newv_long": [0,7.508137043e-18,1.552376025e-16,-1.949601877e-17,2.482369801e-16,-2.369369192e-18,-4.819669705e-17,-5.930500589e-19,-3.588486208e-17,4.55420018e-17,0,1.273628936e-19,6.915879737e-18,1.639826495e-19,9.977361842e-18,-8.529682534e-18,-4.07271192e-17,4.397313714e-18,-2.615293425e-17,5.961650717e-18,-2.596264762e-18],
				"newv_short": [0,7.508137043e-18,1.552376025e-16,-1.949601877e-17,2.482369801e-16,-2.369369192e-18,-4.819669705e-17,-5.930500589e-19,-3.588486208e-17,4.55420018e-17,0,1.273628936e-19,6.915879737e-18,1.639826495e-19,9.977361842e-18,-8.529682534e-18,-4.07271192e-17,4.397313714e-18,-2.615293425e-17,5.961650717e-18,-2.596264762e-18]
			}
		}
	}
}
