{
	"model": "US_YR13",
	"rule": "SW",
	"data": {
		"AC": {
			"ewma": [1,-1.029021441e-17,1.058885126e-34,-1.089615499e-51,1.121237711e-68,-1.153777645e-85,1.187261935e-102,-1.221717988e-119,1.257174005e-136,-1.293659006e-153,1.331202855e-170,-1.36983628e-187,1.409590903e-204,-1.450499263e-221,1.492594842e-238,-1.535912095e-255,1.580486478e-272,-1.626354473e-289,1.673553624e-306,0,0],
			"epinfma": [1,6.009544496e-18,1.954118768e-34,9.083129294e-35,5.179200324e-35,2.953180025e-35,1.68390325e-35,9.601616331e-36,5.474841632e-36,3.121754699e-36,1.780024529e-36,1.014969987e-36,5.787358863e-37,3.299952024e-37,1.881632644e-37,1.072906934e-37,6.117715335e-38,3.488321284e-38,1.989040796e-38,1.134151062e-38,6.466929356e-39],
			"mc": [1,0.7840390962,0.5882384551,0.424389084,0.2936202571,0.1928318121,0.1174877923,0.06286931319,0.02462558457,-0.001012142051,-0.01718210858,-0.02642327786,-0.03074173495,-0.03168887962,-0.0304393158,-0.02786251669,-0.02458574587,-0.02104757341,-0.01754231232,-0.01425618886,-0.01129626426],
			"zcap": [1,0.9988049068,0.9970719715,0.9949660798,0.992556699,0.989872256,0.9869236968,0.9837151325,0.9802487726,0.9765271853,0.9725542476,0.9683354334,0.9638777684,0.9591896261,0.9542804612,0.9491605309,0.9438406346,0.9383318834,0.9326455052,0.9267926868,0.9207844493],
			"rk": [1,0.9988049068,0.9970719715,0.9949660798,0.992556699,0.989872256,0.9869236968,0.9837151325,0.9802487726,0.9765271853,0.9725542476,0.9683354334,0.9638777684,0.9591896261,0.9542804612,0.9491605309,0.9438406346,0.9383318834,0.9326455052,0.9267926868,0.9207844493],
			"k": [1,0.9853523551,0.9670720648,0.9481026254,0.9297240535,0.9124566101,0.8964589242,0.8817142595,0.8681230104,0.8555509542,0.8438551608,0.8328978854,0.8225536594,0.8127124112,0.8032802444,0.7941788617,0.7853442464,0.7767249913,0.7682805185,0.7599793394,0.7517974429],
			"pk": [1,0.5059261605,0.2925790234,0.1913014826,0.1363140503,0.1018161689,0.0775168682,0.05913925053,0.04474753836,0.03333215603,0.02426710165,0.01710230378,0.01148346045,0.007119745115,0.003769165432,0.001230322553,-0.0006634843216,-0.002049186502,-0.003038327377,-0.003720999279,-0.004169350376],
			"c": [1,0.9956553843,0.9869757768,0.975956471,0.9636410342,0.950657359,0.9374234906,0.9242302586,0.9112788279,0.8987019251,0.8865788971,0.8749479378,0.8638164564,0.8531698305,0.8429786287,0.8332043911,0.8238041035,0.8147335295,0.8059495806,0.7974119019,0.7890838385],
			"inve": [1,0.9956095318,0.9867305642,0.9753715212,0.9625605507,0.9488828285,0.9347059771,0.920278155,0.9057737178,0.891316838,0.8769954283,0.8628704137,0.8489824626,0.8353571051,0.822008699,0.8089435057,0.7961620594,0.783660969,0.7714342675,0.7594744038,0.7477729564],
			"y": [1,0.979687686,0.9520727939,0.9212892305,0.8893363341,0.8572872539,0.8257720144,0.7951778813,0.7657398757,0.7375881508,0.7107775635,0.6853088858,0.6611451523,0.6382245089,0.6164702187,0.5957982611,0.5761229072,0.5573606273,0.5394326603,0.5222665449,0.505796868],
			"lab": [1,0.9700310198,0.9389849643,0.9102370201,0.8846926712,0.8623248812,0.8427850958,0.8256446305,0.8104876408,0.796944088,0.7846983329,0.773487903,0.7630984737,0.7533576343,0.7441285556,0.7353040513,0.7268012401,0.7185568783,0.7105233625,0.7026653671,0.6949570594],
			"pinf": [1,0.6375699283,0.5053105308,0.4292482623,0.3699538963,0.3204973724,0.2799690821,0.2476909959,0.2225136463,0.2030662347,0.1880168064,0.1762084928,0.1667032865,0.1587763141,0.1518887496,0.1456544612,0.1398075665,0.1341738585,0.1286469803,0.123169262,0.1177167275],
			"w": [1,0.9889476527,0.9748172125,0.9594876071,0.9438854594,0.928466919,0.9134427794,0.898893459,0.8848310506,0.8712336417,0.8580643356,0.8452816201,0.8328448066,0.8207166684,0.8088645117,0.7972603886,0.7858808613,0.7747065541,0.7637216243,0.7529132259,0.7422710057],
			"r": [1,0.9339673061,0.8598855426,0.7881079681,0.7219006058,0.6621669812,0.6089212005,0.5617878343,0.5202073329,0.483543371,0.4511483549,0.4224046377,0.3967488675,0.3736841782,0.3527838692,0.3336894643,0.3161053597,0.2997916768,0.2845564427,0.2702478354,0.2567469485],
			"a": [1,0.9828,0.96589584,0.9492824316,0.9329547737,0.9169079516,0.9011371349,0.8856375761,0.8704046098,0.8554336505,0.8407201917,0.8262598044,0.8120481358,0.7980809079,0.7843539163,0.7708630289,0.7576041848,0.7445733928,0.7317667305,0.7191803427,0.7068104408],
			"b": [1,0.3881,0.15062161,0.05845624684,0.0226868694,0.008804774014,0.003417132795,0.001326189238,0.0005146940431,0.0001997527581,7.752404543e-05,3.008708203e-05,1.167679654e-05,4.531764736e-06,1.758777894e-06,6.825817007e-07,2.64909958e-07,1.028115547e-07,3.990116438e-08,1.54856419e-08,6.00997762e-09],
			"g": [1,0.9249,0.85544001,0.7911964652,0.7317776107,0.6768211121,0.6259918466,0.5789798589,0.5354984715,0.4952825363,0.4580868178,0.4236844978,0.391865792,0.3624366711,0.3352176771,0.3100428295,0.286758613,0.2652230412,0.2453047908,0.226882401,0.2098435327],
			"qs": [1,0.4265,0.18190225,0.07758130962,0.03308842856,0.01411221478,0.006018859603,0.002567043621,0.001094844104,0.0004669510105,0.000199154606,8.493943944e-05,3.622667092e-05,1.545067515e-05,6.589712951e-06,2.810512573e-06,1.198683613e-06,5.112385608e-07,2.180432462e-07,9.299544449e-08,3.966255708e-08],
			"spinf": [1,-0.1636401803,-0.0524630418,-0.0168196512,-0.005392380175,-0.001728797084,-0.0005542523452,-0.0001776933019,-5.696847258e-05,-1.826409231e-05,-5.855467994e-06,-1.877263039e-06,-6.018505303e-07,-1.9295328e-07,-6.186082157e-08,-1.98325794e-08,-6.358324954e-09,-2.03847898e-09,-6.535363611e-10,-2.095237574e-10,-6.717331661e-11],
			"sw": [1,0.1273675442,0.0726249737,0.04141076,0.02361241535,0.01346379924,0.007677058324,0.004377458656,0.002496026926,0.001423234553,0.0008115283422,0.0004627334607,0.0002638506193,0.0001504476231,8.57852347e-05,4.891474083e-05,2.789118522e-05,1.590355381e-05,9.068206384e-06,5.17069128e-06,2.948328168e-06],
			"kp": [1,0.999766752,0.9990932542,0.9980012711,0.9965107924,0.9946410404,0.9924107761,0.9898383335,0.9869415667,0.9837377813,0.9802436783,0.9764753176,0.9724480996,0.9681767624,0.9636753906,0.9589574322,0.9540357208,0.9489225008,0.9436294543,0.9381677282,0.9325479603],
			"rr": [1,-0.283051953,-0.1126447269,-0.04619206492,-0.02013754543,-0.009755076635,-0.005449122835,-0.003507877068,-0.002501402941,-0.001881327821,-0.001437861841,-0.001090086,-0.0008054772578,-0.0005693608741,-0.0003735292089,-0.0002121373106,-8.030649844e-05,2.630154238e-05,0.0001115883591,0.0001790330658,0.0002316949442],
			"er": [1,0.4164315757,0.1857818742,0.09265156312,0.0533638994,0.03541103874,0.02614327531,0.02061155217,0.01685225991,0.01406076529,0.01188482813,0.01015152178,0.008761648351,0.007648724336,0.006762800287,0.006063818177,0.005518641345,0.00509951856,0.004783131813,0.004549905179,0.004383450975],
			"ec": [1,0.4164315757,0.1857818742,0.09265156312,0.0533638994,0.03541103874,0.02614327531,0.02061155217,0.01685225991,0.01406076529,0.01188482813,0.01015152178,0.008761648351,0.007648724336,0.006762800287,0.006063818177,0.005518641345,0.00509951856,0.004783131813,0.004549905179,0.004383450975],
			"nw": [1,0.9043933626,0.8393956424,0.7880574005,0.7436551331,0.7034496348,0.6662581822,0.6315115232,0.5988879304,0.5681710596,0.5391943869,0.5118190368,0.4859244538,0.4614040216,0.4381626099,0.4161149127,0.3951841503,0.375300977,0.3564025349,0.3384316283,0.3213360039],
			"prem": [1,0.9430325785,0.8917066174,0.8441550993,0.7995816853,0.7575964854,0.7179645724,0.6805120465,0.6450917215,0.6115710099,0.5798278228,0.5497491889,0.5212306773,0.494175972,0.4684964115,0.4441104648,0.4209431634,0.3989255193,0.3779939516,0.3580897409,0.3391585227],
			"pinf4": [1,0.9411455589,0.8332125137,0.7042296677,0.5777469621,0.4963458746,0.4335938733,0.383302143,0.3432928168,0.3118429055,0.2872253283,0.2678224539,0.2522428272,0.2393642012,0.2283246386,0.2184888217,0.2094067379,0.200773492,0.1923939783,0.1841535367,0.1759944786],
			"eg": [1,-3.832307781e-16,-4.283987106e-16,-4.665559414e-16,-4.919555419e-16,-5.075886969e-16,-5.157827026e-16,-5.183227237e-16,-5.165759978e-16,-5.11595054e-16,-5.041967564e-16,-4.950205902e-16,-4.8457096e-16,-4.732478159e-16,-4.613689962e-16,-4.491867788e-16,-4.369004025e-16,-4.246657703e-16,-4.126031576e-16,-4.008034734e-16,-3.89333443e-16],
			"interest": [1,0.9339673061,0.8598855426,0.7881079681,0.7219006058,0.6621669812,0.6089212005,0.5617878343,0.5202073329,0.483543371,0.4511483549,0.4224046377,0.3967488675,0.3736841782,0.3527838692,0.3336894643,0.3161053597,0.2997916768,0.2845564427,0.2702478354,0.2567469485],
			"inflation": [1,0.9411455589,0.8332125137,0.7042296677,0.5777469621,0.4963458746,0.4335938733,0.383302143,0.3432928168,0.3118429055,0.2872253283,0.2678224539,0.2522428272,0.2393642012,0.2283246386,0.2184888217,0.2094067379,0.200773492,0.1923939783,0.1841535367,0.1759944786],
			"inflationq": [1,0.6375699283,0.5053105308,0.4292482623,0.3699538963,0.3204973724,0.2799690821,0.2476909959,0.2225136463,0.2030662347,0.1880168064,0.1762084928,0.1667032865,0.1587763141,0.1518887496,0.1456544612,0.1398075665,0.1341738585,0.1286469803,0.123169262,0.1177167275],
			"inflationql": [1,0.6375699283,0.5053105308,0.4292482623,0.3699538963,0.3204973724,0.2799690821,0.2476909959,0.2225136463,0.2030662347,0.1880168064,0.1762084928,0.1667032865,0.1587763141,0.1518887496,0.1456544612,0.1398075665,0.1341738585,0.1286469803,0.123169262,0.1177167275],
			"inflationql2": [1,0.6375699283,0.5053105308,0.4292482623,0.3699538963,0.3204973724,0.2799690821,0.2476909959,0.2225136463,0.2030662347,0.1880168064,0.1762084928,0.1667032865,0.1587763141,0.1518887496,0.1456544612,0.1398075665,0.1341738585,0.1286469803,0.123169262,0.1177167275],
			"inflationqls": [1,0.8489562306,0.6343055085,0.5293700506,0.4548365848,0.3941565184,0.3444514072,0.3046785066,0.2735103118,0.2493520759,0.2306186524,0.2159104983,0.2040802558,0.194234351,0.1857045199,0.178009265,0.1708151338,0.1639020889,0.1571343831,0.1504370052,0.143777177],
			"outputgap": [1,0.9373734029,0.8708543449,0.8087981856,0.753759259,0.7060103222,0.6649685604,0.6297780283,0.599548255,0.573450143,0.5507510974,0.5308234834,0.5131410937,0.4972702815,0.4828589651,0.4696251542,0.4573458787,0.4458469915,0.4349940753,0.4246845361,0.4148408723],
			"output": [1,0.979687686,0.9520727939,0.9212892305,0.8893363341,0.8572872539,0.8257720144,0.7951778813,0.7657398757,0.7375881508,0.7107775635,0.6853088858,0.6611451523,0.6382245089,0.6164702187,0.5957982611,0.5761229072,0.5573606273,0.5394326603,0.5222665449,0.505796868],
			"fispol": [1,-2.404338352e-16,-2.593515361e-16,-2.750392228e-16,-2.84602753e-16,-2.895185943e-16,-2.909327063e-16,-2.897213111e-16,-2.86552896e-16,-2.819397303e-16,-2.76277302e-16,-2.698733817e-16,-2.629690988e-16,-2.55754187e-16,-2.483780932e-16,-2.409581955e-16,-2.335860104e-16,-2.263319951e-16,-2.192493555e-16,-2.123771354e-16,-2.057427678e-16],
			"neww": [1,-0.08696309046,-0.0278803668,-0.008938445596,-0.002865665658,-0.00091873241,-0.0002945456106,-9.443132277e-05,-3.027468208e-05,-9.706063075e-06,-3.111763822e-06,-9.976314813e-07,-3.198406529e-07,-1.025409133e-07,-3.287461681e-08,-1.053960215e-08,-3.378996449e-09,-1.083306262e-09,-3.473079875e-10,-1.113469408e-10,-3.569782921e-11]
		},
		"VAR": {
			"ewma": 0.05184729,
			"epinfma": 0.03429904,
			"mc": 0.7848144216,
			"zcap": 172.8809768,
			"rk": 4.254387759,
			"k": 12.12377055,
			"pk": 16.0256299,
			"c": 42.09597378,
			"inve": 372.75413,
			"y": 13.59263951,
			"lab": 4.134926933,
			"pinf": 0.1034126298,
			"w": 11.84899983,
			"r": 0.3797257713,
			"a": 6.90578774,
			"b": 3.779878647,
			"g": 2.031717783,
			"qs": 0.1915868978,
			"spinf": 0.03555697933,
			"sw": 0.05292063572,
			"kp": 252.8232868,
			"rr": 15.33768835,
			"er": 4.516489662,
			"ec": 4.516489662,
			"nw": 656.4589567,
			"prem": 0.1914413923,
			"pinf4": 1.107048564,
			"eg": 0.21483225,
			"interest": 6.07561234,
			"inflation": 1.107048564,
			"inflationq": 1.654602077,
			"inflationql": 1.654602077,
			"inflationql2": 1.654602077,
			"inflationqls": 5.41905321,
			"outputgap": 4.747402702,
			"output": 13.59263951,
			"fispol": 0.21483225,
			"neww": 0.1384540993
		},
		"IRF": {
			"interest_": {
				"ewma": [0,-1.633629275e-17,1.681039551e-34,-1.729825742e-51,1.780027778e-68,-1.831686749e-85,1.884844939e-102,-1.939545855e-119,1.995834271e-136,-2.053756258e-153,2.113359224e-170,-2.174691955e-187,2.23780465e-204,-2.302748966e-221,2.369578059e-238,-2.43834663e-255,2.509110963e-272,-2.581928979e-289,2.656860279e-306,-2.964393875e-323,0],
				"epinfma": [0,0,-2.692215953e-34,-1.931721843e-34,-1.101467795e-34,-6.280569368e-35,-3.581180653e-35,-2.041989209e-35,-1.164342247e-35,-6.639079491e-36,-3.785603126e-36,-2.158550902e-36,-1.230805724e-36,-7.018054241e-37,-4.001694528e-37,-2.28176622e-37,-1.301063099e-37,-7.418661788e-38,-4.230120952e-38,-2.412014967e-38,-1.375330934e-38],
				"mc": [0,-0.02989431973,-0.04744059351,-0.05671022825,-0.0604584942,-0.06047030426,-0.05800076722,-0.0539708035,-0.04906317634,-0.04377808812,-0.03847169881,-0.03338639626,-0.02867597812,-0.02442684331,-0.02067563964,-0.01742367338,-0.01464840025,-0.01231235373,-0.0103698858,-0.008772090969,-0.007470260256],
				"zcap": [0,-0.07508314342,-0.1230956286,-0.1383059097,-0.1321116538,-0.1125407111,-0.08523025727,-0.05408836422,-0.02176404636,0.01000837258,0.04015301995,0.06806085239,0.09344666749,0.1162431863,0.1365235002,0.1544451741,0.1702107833,0.1840408013,0.1961556597,0.2067645128,0.216058808],
				"rk": [0,-0.01177842925,-0.01931023512,-0.02169629958,-0.02072459539,-0.01765446601,-0.01337022546,-0.008484940061,-0.003414165533,0.001570031608,0.006298877261,0.01067682969,0.01465914867,0.01823528003,0.02141668975,0.02422809534,0.02670127512,0.02887081519,0.03077129507,0.03243552514,0.03389353813],
				"k": [0,-0.07508314342,-0.1346631702,-0.168263445,-0.1840151091,-0.1877639611,-0.1837423829,-0.1749993551,-0.1636997742,-0.1513450589,-0.1389410612,-0.1271276724,-0.1162790884,-0.1065809859,-0.09808933809,-0.09077462811,-0.08455451543,-0.07931745638,-0.07493932416,-0.07129468808,-0.06826408643],
				"pk": [0,-0.9167139458,-0.6373352953,-0.4312565953,-0.2826887906,-0.177685684,-0.1049526681,-0.05572410381,-0.02336003103,-0.002910321301,0.009269863304,0.01583382344,0.01869006666,0.01919265375,0.01828640833,0.01661686285,0.01461298986,0.01254907202,0.01059065162,0.008828376184,0.007302679817],
				"c": [0,-0.1339015157,-0.2137508692,-0.2535282075,-0.2650178811,-0.2575794868,-0.2383584396,-0.212632872,-0.1841735261,-0.1555698978,-0.1285082236,-0.1040002738,-0.08256714559,-0.06438398506,-0.0493918125,-0.03738224268,-0.02806026833,-0.02108958203,-0.01612422873,-0.01282974602,-0.01089637804],
				"inve": [0,-0.3967835089,-0.642371083,-0.7827345215,-0.8518063472,-0.8740655669,-0.866825794,-0.8420900624,-0.8079912141,-0.7698835285,-0.731156916,-0.6938367047,-0.6590204936,-0.6271925691,-0.5984471367,-0.5726442206,-0.5495162919,-0.5287392258,-0.5099777584,-0.4929130039,-0.4772576016],
				"y": [0,-0.09049817804,-0.1692380248,-0.2116801817,-0.2292051307,-0.230264588,-0.2209930708,-0.2057451328,-0.1875354428,-0.1683867376,-0.1495992327,-0.1319561796,-0.1158787775,-0.1015415051,-0.08895684802,-0.07803657443,-0.06863520891,-0.06058012906,-0.05369173043,-0.04779632252,-0.04273379758],
				"lab": [0,-0.05245525125,-0.09952657466,-0.1245288351,-0.1343849582,-0.1342842731,-0.1279960155,-0.1181846368,-0.1066812746,-0.09470239124,-0.08301978207,-0.07208991828,-0.06215077619,-0.05329329752,-0.04551335834,-0.03874893648,-0.03290615748,-0.02787707552,-0.02355138902,-0.01982377112,-0.01659808794],
				"pinf": [0,-0.03366062323,-0.04649323989,-0.04980302638,-0.04869645494,-0.04556154055,-0.04156799758,-0.03731889572,-0.03313842464,-0.02920305974,-0.02560469735,-0.02238359023,-0.01954728357,-0.0170825578,-0.01496348873,-0.01315708544,-0.01162726222,-0.0103375929,-0.009253150322,-0.008341656662,-0.007574121103],
				"w": [0,-0.03440632142,-0.05444683067,-0.06543090946,-0.07035474628,-0.07113415406,-0.06911659288,-0.06529965833,-0.06043266517,-0.05507263605,-0.04962240187,-0.04436092443,-0.03946916358,-0.03505240838,-0.03115929,-0.02779759629,-0.02494708283,-0.02256956568,-0.02061664007,-0.01903539181,-0.01777246035],
				"r": [0,0.2150971709,0.1357385303,0.07759664466,0.03621908443,0.007588648419,-0.01158538635,-0.02387626602,-0.03124418179,-0.03515687079,-0.03669868222,-0.03666081762,-0.03561300774,-0.03395926012,-0.03198069753,-0.02986821235,-0.0277471938,-0.02569613042,-0.02376050267,-0.02196306864,-0.02031139967],
				"a": [0,1.438941443e-17,1.41419165e-17,1.389867554e-17,1.365961832e-17,1.342467289e-17,1.319376851e-17,1.296683569e-17,1.274380612e-17,1.252461265e-17,1.230918932e-17,1.209747126e-17,1.188939475e-17,1.168489716e-17,1.148391693e-17,1.128639356e-17,1.109226759e-17,1.090148059e-17,1.071397512e-17,1.052969475e-17,1.0348584e-17],
				"b": [0,0,-6.690764702e-34,-2.90459727e-34,-1.120843938e-34,-3.53709402e-35,-5.781652351e-36,3.698831972e-36,5.426253251e-36,4.638291151e-36,3.353617843e-36,2.234063653e-36,1.418691928e-36,8.736447806e-37,5.268895438e-37,3.131312698e-37,1.841352049e-37,1.074437059e-37,6.233510689e-38,3.601017058e-38,2.073593888e-38],
				"g": [0,1.349843062e-16,6.701058936e-16,9.919437983e-16,1.174476323e-15,1.260004768e-15,1.278748189e-15,1.252303846e-15,1.196056612e-15,1.120896892e-15,1.034463258e-15,9.420483175e-16,8.47261215e-16,7.525121076e-16,6.593655578e-16,5.6879711e-16,4.813783468e-16,3.974092166e-16,3.1701163e-16,2.401947675e-16,1.668998754e-16],
				"qs": [0,2.643106904e-17,1.127285095e-17,4.807870929e-18,2.050556951e-18,8.745625397e-19,3.730009232e-19,1.590848937e-19,6.784970718e-20,2.893790011e-20,1.23420144e-20,5.263869141e-21,2.245040189e-21,9.575096404e-22,4.083778616e-22,1.74173158e-22,7.428485188e-23,3.168248933e-23,1.35125817e-23,5.763116094e-24,2.457969014e-24],
				"spinf": [0,0,8.242737627e-34,5.643431839e-34,3.719449592e-34,2.281631819e-34,1.352539476e-34,7.877459049e-35,4.544715584e-35,2.608384918e-35,1.492747462e-35,8.529107133e-36,4.868894916e-36,2.778038609e-36,1.584613005e-36,9.037308054e-37,5.153664463e-37,2.938809083e-37,1.675769727e-37,9.555433869e-38,5.448570872e-38],
				"sw": [0,-1.633629275e-17,-1.930949803e-18,-1.101027578e-18,-6.278059249e-19,-3.579749384e-19,-2.041173099e-19,-1.163876901e-19,-6.636426089e-20,-3.784090156e-20,-2.157688207e-20,-1.230313816e-20,-7.015249376e-21,-4.000095194e-21,-2.28085428e-21,-1.30054311e-21,-7.415696815e-22,-4.228430324e-22,-2.411050971e-22,-1.374781263e-22,-7.839002764e-23],
				"kp": [0,-0.01156754163,-0.02995753532,-0.05190345528,-0.07522325006,-0.09851212561,-0.1209109908,-0.1419357279,-0.1613534315,-0.1790940812,-0.1951885248,-0.2097257559,-0.2228241722,-0.2346128382,-0.2452198022,-0.2547652987,-0.2633582576,-0.2710949839,-0.2780592009,-0.2843228944,-0.2899475744],
				"rr": [0,-0.887242748,0.2995059838,0.2194169239,0.1570992397,0.1102148721,0.07571559772,0.05076701066,0.03301365337,0.02059562219,0.01208342797,0.006396011389,0.002724967591,0.0004714081283,-0.000804300976,-0.001421669105,-0.001610191632,-0.001532364687,-0.001301193758,-0.0009934571689,-0.0006597071001],
				"er": [0,0.2995059838,0.2194169239,0.1570992397,0.1102148721,0.07571559772,0.05076701066,0.03301365337,0.02059562219,0.01208342797,0.006396011389,0.002724967591,0.0004714081283,-0.000804300976,-0.001421669105,-0.001610191632,-0.001532364687,-0.001301193758,-0.0009934571689,-0.0006597071001,-0.0003317684832],
				"ec": [0,0.2995059838,0.2194169239,0.1570992397,0.1102148721,0.07571559772,0.05076701066,0.03301365337,0.02059562219,0.01208342797,0.006396011389,0.002724967591,0.0004714081283,-0.000804300976,-0.001421669105,-0.001610191632,-0.001532364687,-0.001301193758,-0.0009934571689,-0.0006597071001,-0.0003317684832],
				"nw": [0,-2.916445465,-2.49156025,-2.163283498,-1.910066698,-1.713619783,-1.559431157,-1.43638309,-1.336133117,-1.252509259,-1.180996243,-1.118324389,-1.062150345,-1.010813226,-0.9631502895,-0.9183587042,-0.8758926025,-0.8353869804,-0.796601913,-0.75938207,-0.7236276935],
				"prem": [0,0.037915573,0.03387536716,0.03080614013,0.02843424713,0.02655895173,0.02503350129,0.02375149474,0.02263674424,0.02163560141,0.02071110338,0.01983850164,0.01900185808,0.01819147041,0.01740194299,0.0166307585,0.01587723622,0.01514178634,0.01442538884,0.01372924044,0.01305452585],
				"pinf4": [0,-0.03366062323,-0.08015386312,-0.1299568895,-0.1786533444,-0.1905542618,-0.1856290194,-0.1731448888,-0.1575868585,-0.1412283777,-0.1252650775,-0.110329772,-0.09673863089,-0.08461812895,-0.07397692033,-0.06475041554,-0.05683039418,-0.05008542928,-0.04437509087,-0.03955966209,-0.03550652098],
				"eg": [0,8.998953746e-17,3.635059392e-16,2.481085715e-16,1.713516696e-16,1.158210777e-16,7.557985271e-17,4.639309745e-17,2.520052325e-17,9.776087726e-18,-1.502851971e-18,-9.817833037e-18,-1.602618254e-17,-2.074652681e-17,-2.442192699e-17,-2.736672963e-17,-2.980140012e-17,-3.187841092e-17,-3.370143631e-17,-3.533952601e-17,-3.68375101e-17],
				"interest": [0,0.8603886838,0.5429541213,0.3103865787,0.1448763377,0.03035459368,-0.04634154539,-0.09550506406,-0.1249767272,-0.1406274832,-0.1467947289,-0.1466432705,-0.142452031,-0.1358370405,-0.1279227901,-0.1194728494,-0.1109887752,-0.1027845217,-0.09504201067,-0.08785227456,-0.08124559868],
				"inflation": [0,-0.03366062323,-0.08015386312,-0.1299568895,-0.1786533444,-0.1905542618,-0.1856290194,-0.1731448888,-0.1575868585,-0.1412283777,-0.1252650775,-0.110329772,-0.09673863089,-0.08461812895,-0.07397692033,-0.06475041554,-0.05683039418,-0.05008542928,-0.04437509087,-0.03955966209,-0.03550652098],
				"inflationq": [0,-0.1346424929,-0.1859729596,-0.1992121055,-0.1947858198,-0.1822461622,-0.1662719903,-0.1492755829,-0.1325536986,-0.116812239,-0.1024187894,-0.08953436093,-0.07818913429,-0.06833023118,-0.05985395494,-0.05262834175,-0.04650904886,-0.04135037158,-0.03701260129,-0.03336662665,-0.03029648441],
				"inflationql": [0,1.430003082e-17,-0.1346424929,-0.1859729596,-0.1992121055,-0.1947858198,-0.1822461622,-0.1662719903,-0.1492755829,-0.1325536986,-0.116812239,-0.1024187894,-0.08953436093,-0.07818913429,-0.06833023118,-0.05985395494,-0.05262834175,-0.04650904886,-0.04135037158,-0.03701260129,-0.03336662665],
				"inflationql2": [0,7.117659233e-19,-6.279132899e-16,-0.1346424929,-0.1859729596,-0.1992121055,-0.1947858198,-0.1822461622,-0.1662719903,-0.1492755829,-0.1325536986,-0.116812239,-0.1024187894,-0.08953436093,-0.07818913429,-0.06833023118,-0.05985395494,-0.05262834175,-0.04650904886,-0.04135037158,-0.03701260129],
				"inflationqls": [0,1.501179675e-17,-0.1346424929,-0.3206154525,-0.3851850651,-0.3939979253,-0.377031982,-0.3485181525,-0.3155475732,-0.2818292814,-0.2493659376,-0.2192310284,-0.1919531503,-0.1677234952,-0.1465193655,-0.1281841861,-0.1124822967,-0.09913739061,-0.08785942044,-0.07836297287,-0.07037922794],
				"outputgap": [0,-0.09049817804,-0.1692380248,-0.2116801817,-0.2292051307,-0.230264588,-0.2209930708,-0.2057451328,-0.1875354428,-0.1683867376,-0.1495992327,-0.1319561796,-0.1158787775,-0.1015415051,-0.08895684802,-0.07803657443,-0.06863520891,-0.06058012906,-0.05369173043,-0.04779632252,-0.04273379758],
				"output": [0,-0.09049817804,-0.1692380248,-0.2116801817,-0.2292051307,-0.230264588,-0.2209930708,-0.2057451328,-0.1875354428,-0.1683867376,-0.1495992327,-0.1319561796,-0.1158787775,-0.1015415051,-0.08895684802,-0.07803657443,-0.06863520891,-0.06058012906,-0.05369173043,-0.04779632252,-0.04273379758],
				"fispol": [0,4.499476873e-17,1.817529696e-16,1.240542857e-16,8.567583478e-17,5.791053886e-17,3.778992636e-17,2.319654872e-17,1.260026163e-17,4.888043863e-18,-7.514259855e-19,-4.908916519e-18,-8.013091272e-18,-1.037326341e-17,-1.22109635e-17,-1.368336481e-17,-1.490070006e-17,-1.593920546e-17,-1.685071816e-17,-1.766976301e-17,-1.841875505e-17],
				"neww": [0,-2.792901961e-32,8.332020073e-32,7.608923202e-33,-4.632944661e-32,-8.164510054e-32,-1.03738568e-31,-1.165930194e-31,-1.23105188e-31,-1.253574074e-31,-1.248293853e-31,-1.225590432e-31,-1.192631248e-31,-1.154269271e-31,-1.113706512e-31,-1.072981716e-31,-1.033326447e-31,-9.954229771e-32,-9.595892638e-32,-9.259099966e-32,-8.943280411e-32]
			},
			"fiscal_": {
				"ewma": [0,8.81332932e-17,-9.069104838e-34,9.332303331e-51,-9.603140224e-68,9.881837193e-85,-1.016862235e-101,1.046373043e-118,-1.076740296e-135,1.107988851e-152,-1.140144285e-169,1.173232915e-186,-1.207281825e-203,1.242318884e-220,-1.278372768e-237,1.315472988e-254,-1.35364991e-271,1.392934781e-288,-1.433359756e-305,1.482196938e-322,0],
				"epinfma": [0,0,1.452433925e-33,1.042152036e-33,5.942350912e-34,3.38832849e-34,1.932024905e-34,1.101640601e-34,6.281554706e-35,3.581742493e-35,2.04230957e-35,1.164524917e-35,6.640121074e-36,3.786197037e-36,2.15888955e-36,1.230998822e-36,7.019155281e-37,4.002322341e-37,2.282124199e-37,1.301267218e-37,7.419825678e-38],
				"mc": [0,0.07472185341,0.1008313077,0.1099665286,0.1084865972,0.1006443592,0.08933143963,0.07650770197,0.06347342332,0.05105565397,0.03974254682,0.02978287249,0.02126045677,0.01414972639,0.008356712593,0.003748792823,0.0001757423226,-0.002515855025,-0.004473198762,-0.005831564798,-0.006711274167],
				"zcap": [0,0.6363521269,0.5862852642,0.5477529018,0.5214706711,0.5071079719,0.5037158678,0.5099924599,0.5244617234,0.5455988702,0.5719181218,0.602031974,0.6346882598,0.6687900194,0.7034023797,0.7377499882,0.7712079436,0.8032885981,0.8336260883,0.8619599994,0.8881191755],
				"rk": [0,0.09982571542,0.09197163562,0.08592699385,0.08180405252,0.07955094978,0.07901882424,0.08000344465,0.08227326433,0.08558908699,0.08971783586,0.09444185062,0.09956470156,0.1049143066,0.1103440105,0.1157321823,0.1209807926,0.1260133432,0.1307724405,0.1352172327,0.1393208702],
				"k": [0,0.6363521269,0.5618106502,0.4809478731,0.399705114,0.3218930519,0.2498385196,0.1848142431,0.1273464714,0.07744430751,0.03477305423,-0.001215269144,-0.03118519609,-0.05584790693,-0.07591246739,-0.09205348535,-0.1048912614,-0.1149812128,-0.1228099733,-0.1287961123,-0.1332938782],
				"pk": [0,-1.23466859,-0.983062969,-0.7875768183,-0.6313609908,-0.5043570003,-0.4001211858,-0.3142326762,-0.2434620909,-0.1853201652,-0.1378040957,-0.09925078282,-0.06824961986,-0.04358907191,-0.02422253958,-0.009245167333,0.002123224905,0.01055183882,0.0166107411,0.02078163803,0.02346794065],
				"c": [0,0.2353259283,0.3620611853,0.4124346209,0.4115922368,0.3784547218,0.3268198323,0.2664316563,0.2039164181,0.1435600539,0.08793384689,0.03838598422,-0.004580030944,-0.04101976325,-0.07133672532,-0.0961299802,-0.1160872385,-0.1319125858,-0.1442800736,-0.1538062118,-0.1610359238],
				"inve": [0,-0.8395148715,-1.476469429,-1.952031122,-2.298171026,-2.540436109,-2.699600885,-2.792723193,-2.833866972,-2.834629264,-2.804545871,-2.751417462,-2.681580297,-2.600135864,-2.511148195,-2.417814424,-2.322612344,-2.227427745,-2.133663715,-2.042333831,-1.954140969],
				"y": [0,1.050788984,0.8784179239,0.7258445864,0.5925836536,0.477850312,0.3805108515,0.2991492434,0.2321680319,0.1778878386,0.1346312181,0.1007866761,0.07485332077,0.05546862718,0.04142247579,0.03166064573,0.02528064512,0.02152232979,0.01975529887,0.01946461562,0.02023600955],
				"lab": [0,0.6677084372,0.5507443599,0.4509209749,0.3663769293,0.2955460503,0.2369574112,0.1891806466,0.150828661,0.120578748,0.09719534881,0.07954788116,0.06662175469,0.05752279032,0.05147611358,0.04782084577,0.04600188167,0.04555987926,0.04612037797,0.04738275036,0.04910949967],
				"pinf": [0,0.0346684568,0.04587229087,0.04605053028,0.04118116817,0.03425025439,0.02679885353,0.01963198219,0.01315745819,0.007557582642,0.002882445885,-0.0008956385269,-0.003848469269,-0.006070354995,-0.007664077546,-0.008731881712,-0.00936991981,-0.009665100047,-0.009693598024,-0.009520494564,-0.009200147227],
				"w": [0,0.06846940514,0.103037926,0.1159538921,0.1151322372,0.1058979513,0.09189993265,0.0756370411,0.05879107471,0.04245464654,0.02729554129,0.01367870032,0.001757750785,-0.008456390637,-0.01704457045,-0.0241421488,-0.0299123504,-0.03452774877,-0.03815791081,-0.04096163002,-0.04308250772],
				"r": [0,0.2671381588,0.2102170021,0.1660586721,0.1304986573,0.1012400275,0.07692184483,0.05666640059,0.03985314599,0.02600344084,0.0147212363,0.005662733545,-0.001478751282,-0.006980003446,-0.01109116291,-0.01403717728,-0.01601861643,-0.01721243828,-0.01777296729,-0.01783316204,-0.01750615061],
				"a": [0,0,1.798238883e-33,2.103129123e-33,2.252439749e-33,2.316901979e-33,2.334806867e-33,2.327114938e-33,2.305402568e-33,2.276107616e-33,2.242828567e-33,2.207583589e-33,2.171506301e-33,2.135233066e-33,2.099119781e-33,2.063363786e-33,2.028072635e-33,1.993302995e-33,1.959082696e-33,1.925423241e-33,1.89232692e-33],
				"b": [0,0,2.697034535e-33,8.236150473e-34,1.501734089e-34,-5.637329255e-35,-9.494185686e-35,-8.178607956e-35,-5.876371742e-35,-3.881080016e-35,-2.444263819e-35,-1.494323616e-35,-8.957344428e-36,-5.296697654e-36,-3.102029038e-36,-1.804133074e-36,-1.043969242e-36,-6.018436911e-37,-3.460004983e-37,-1.985062722e-37,-1.137111655e-37],
				"g": [0,1,0.9249,0.85544001,0.7911964652,0.7317776107,0.6768211121,0.6259918466,0.5789798589,0.5354984715,0.4952825363,0.4580868178,0.4236844978,0.391865792,0.3624366711,0.3352176771,0.3100428295,0.286758613,0.2652230412,0.2453047908,0.226882401],
				"qs": [0,-6.13684909e-17,-2.617366137e-17,-1.116306657e-17,-4.761047893e-18,-2.030586927e-18,-8.660453242e-19,-3.693683308e-19,-1.575355931e-19,-6.718893044e-20,-2.865607883e-20,-1.222181762e-20,-5.212605216e-21,-2.223176125e-21,-9.481846172e-22,-4.044007392e-22,-1.724769153e-22,-7.356140437e-23,-3.137393896e-23,-1.338098497e-23,-5.706990089e-24],
				"spinf": [0,0,-4.44690618e-33,-3.044596717e-33,-2.006620146e-33,-1.230926313e-33,-7.296867165e-34,-4.249840637e-34,-2.451846065e-34,-1.407207597e-34,-8.053280617e-35,-4.601400765e-35,-2.626738818e-35,-1.498734719e-35,-8.54888956e-36,-4.875572031e-36,-2.780370235e-36,-1.585469399e-36,-9.040674461e-37,-5.155097717e-37,-2.939470426e-37],
				"sw": [0,8.81332932e-17,1.041735526e-17,5.939975967e-18,3.386974296e-18,1.931252744e-18,1.101200315e-18,6.279044193e-19,3.580310999e-19,2.041493332e-19,1.164059498e-19,6.637467256e-20,3.784683829e-20,2.158026719e-20,1.230506835e-20,7.016349976e-21,4.000722756e-21,2.281212116e-21,1.300747148e-21,7.41686024e-22,4.229093709e-22],
				"kp": [0,-0.02447461401,-0.0668050287,-0.1217655571,-0.1852149201,-0.2538773482,-0.3251782168,-0.397115252,-0.4681545626,-0.5371450676,-0.6032472432,-0.6658734559,-0.7246379264,-0.7793148471,-0.8298034735,-0.876099205,-0.9182698108,-0.9564360616,-0.9907561117,-1.021413054,-1.048605134],
				"rr": [0,-1.191207874,0.2866164668,0.2239337065,0.1794416018,0.1460202257,0.1198400534,0.09872766829,0.08137886719,0.06696467612,0.05492581712,0.04486133574,0.03646640216,0.02949688419,0.02374898538,0.01904753207,0.01523924803,0.0121888695,0.009776826885,0.007897741522,0.00645930582],
				"er": [0,0.2866164668,0.2239337065,0.1794416018,0.1460202257,0.1198400534,0.09872766829,0.08137886719,0.06696467612,0.05492581712,0.04486133574,0.03646640216,0.02949688419,0.02374898538,0.01904753207,0.01523924803,0.0121888695,0.009776826885,0.007897741522,0.00645930582,0.005381310964],
				"ec": [0,0.2866164668,0.2239337065,0.1794416018,0.1460202257,0.1198400534,0.09872766829,0.08137886719,0.06696467612,0.05492581712,0.04486133574,0.03646640216,0.02949688419,0.02374898538,0.01904753207,0.01523924803,0.0121888695,0.009776826885,0.007897741522,0.00645930582,0.005381310964],
				"nw": [0,-3.915605746,-3.455122101,-3.076380109,-2.758144346,-2.486975596,-2.253724578,-2.05174964,-1.87596906,-1.722333836,-1.587521443,-1.468750283,-1.363662251,-1.270244658,-1.186775274,-1.111781165,-1.044005899,-0.9823820207,-0.926007062,-0.8741221205,-0.8260925389],
				"prem": [0,0.06535059887,0.05976723471,0.05456409793,0.04977182284,0.04539887946,0.04143780565,0.03786992478,0.03466911277,0.03180482217,0.02924446091,0.02695519935,0.02490528048,0.02306491128,0.02140681327,0.0199065055,0.01854238588,0.01729566714,0.01615021425,0.01509232063,0.01411045205],
				"pinf4": [0,0.0346684568,0.08054074767,0.126591278,0.1677724461,0.1673542437,0.1482808064,0.1218622583,0.0938385483,0.06714587654,0.0432294689,0.02270184819,0.005695920731,-0.007932016906,-0.01847854034,-0.02631478352,-0.03183623406,-0.03543097911,-0.03746049959,-0.03824911244,-0.03807933986],
				"eg": [0,1,-3.832307781e-16,-4.283987106e-16,-4.665559414e-16,-4.919555419e-16,-5.075886969e-16,-5.157827026e-16,-5.183227237e-16,-5.165759978e-16,-5.11595054e-16,-5.041967564e-16,-4.950205902e-16,-4.8457096e-16,-4.732478159e-16,-4.613689962e-16,-4.491867788e-16,-4.369004025e-16,-4.246657703e-16,-4.126031576e-16,-4.008034734e-16],
				"interest": [0,1.068552635,0.8408680083,0.6642346883,0.5219946292,0.4049601099,0.3076873793,0.2266656024,0.159412584,0.1040137633,0.05888494521,0.02265093418,-0.005915005127,-0.02792001379,-0.04436465162,-0.05614870912,-0.0640744657,-0.06884975312,-0.07109186915,-0.07133264815,-0.07002460244],
				"inflation": [0,0.0346684568,0.08054074767,0.126591278,0.1677724461,0.1673542437,0.1482808064,0.1218622583,0.0938385483,0.06714587654,0.0432294689,0.02270184819,0.005695920731,-0.007932016906,-0.01847854034,-0.02631478352,-0.03183623406,-0.03543097911,-0.03746049959,-0.03824911244,-0.03807933986],
				"inflationq": [0,0.1386738272,0.1834891635,0.1842021211,0.1647246727,0.1370010176,0.1071954141,0.07852792875,0.05262983274,0.03023033057,0.01152978354,-0.003582554107,-0.01539387708,-0.02428141998,-0.03065631018,-0.03492752685,-0.03747967924,-0.03866040019,-0.03877439209,-0.03808197826,-0.03680058891],
				"inflationql": [0,2.076014391e-16,0.1386738272,0.1834891635,0.1842021211,0.1647246727,0.1370010176,0.1071954141,0.07852792875,0.05262983274,0.03023033057,0.01152978354,-0.003582554107,-0.01539387708,-0.02428141998,-0.03065631018,-0.03492752685,-0.03747967924,-0.03866040019,-0.03877439209,-0.03808197826],
				"inflationql2": [0,-7.470131496e-18,-6.022343951e-16,0.1386738272,0.1834891635,0.1842021211,0.1647246727,0.1370010176,0.1071954141,0.07852792875,0.05262983274,0.03023033057,0.01152978354,-0.003582554107,-0.01539387708,-0.02428141998,-0.03065631018,-0.03492752685,-0.03747967924,-0.03866040019,-0.03877439209],
				"inflationqls": [0,2.001313076e-16,0.1386738272,0.3221629907,0.3676912846,0.3489267938,0.3017256903,0.2441964317,0.1857233429,0.1311577615,0.08286016331,0.04176011411,0.007947229433,-0.01897643118,-0.03967529706,-0.05493773016,-0.06558383703,-0.07240720609,-0.07614007943,-0.07743479228,-0.07685637035],
				"outputgap": [0,1.050788984,0.8784179239,0.7258445864,0.5925836536,0.477850312,0.3805108515,0.2991492434,0.2321680319,0.1778878386,0.1346312181,0.1007866761,0.07485332077,0.05546862718,0.04142247579,0.03166064573,0.02528064512,0.02152232979,0.01975529887,0.01946461562,0.02023600955],
				"output": [0,1.050788984,0.8784179239,0.7258445864,0.5925836536,0.477850312,0.3805108515,0.2991492434,0.2321680319,0.1778878386,0.1346312181,0.1007866761,0.07485332077,0.05546862718,0.04142247579,0.03166064573,0.02528064512,0.02152232979,0.01975529887,0.01946461562,0.02023600955],
				"fispol": [0,1,-2.404338352e-16,-2.593515361e-16,-2.750392228e-16,-2.84602753e-16,-2.895185943e-16,-2.909327063e-16,-2.897213111e-16,-2.86552896e-16,-2.819397303e-16,-2.76277302e-16,-2.698733817e-16,-2.629690988e-16,-2.55754187e-16,-2.483780932e-16,-2.409581955e-16,-2.335860104e-16,-2.263319951e-16,-2.192493555e-16,-2.123771354e-16],
				"neww": [0,-6.798159439e-32,1.709863078e-31,4.203370979e-32,-5.399193681e-32,-1.274862189e-31,-1.832806665e-31,-2.250034513e-31,-2.554876511e-31,-2.769932695e-31,-2.9134489e-31,-3.000253901e-31,-3.042437906e-31,-3.049864662e-31,-3.030569995e-31,-2.991079539e-31,-2.936667006e-31,-2.871567303e-31,-2.799154366e-31,-2.722090616e-31,-2.642453051e-31]
			}
		}
	}
}
