{
	"model": "US_YR13",
	"rule": "Coenen",
	"data": {
		"AC": {
			"ewma": [1,-3.390221725e-18,1.149360335e-35,-3.896586377e-53,1.321029179e-70,-4.478581822e-88,1.518338539e-105,-5.147504302e-123,1.745118092e-140,-5.916337267e-158,2.005769514e-175,-6.800003382e-193,2.30535192e-210,-7.815654163e-228,2.649680054e-245,-8.983002884e-263,3.045437154e-280,-1.03247072e-297,3.500304638e-315,0,0],
			"epinfma": [1,-5.5698116e-18,-3.880886054e-32,-2.214650148e-32,-1.262793515e-32,-7.20044862e-33,-4.105695803e-33,-2.341067747e-33,-1.334876829e-33,-7.611467681e-34,-4.340058872e-34,-2.474701569e-34,-1.411074834e-34,-8.045948706e-35,-4.587799952e-35,-2.615963533e-35,-1.491622406e-35,-8.505230961e-36,-4.849682694e-36,-2.765289072e-36,-1.576767829e-36],
			"mc": [1,0.7408066619,0.5153442056,0.3358938681,0.2015023323,0.1060348244,0.04184134044,0.001462247011,-0.02162417866,-0.03274783365,-0.03604808715,-0.03459914224,-0.03058520451,-0.02548386328,-0.02023565749,-0.01538964691,-0.01122186493,-0.007827536692,-0.005190013274,-0.003230224099,-0.00184056939],
			"zcap": [1,0.9988935998,0.9972007493,0.995102305,0.9926823081,0.9899780484,0.9870044982,0.9837668179,0.9802668796,0.9765065857,0.9724893988,0.9682208635,0.9637085768,0.9589618832,0.9539914607,0.9488088934,0.9434262832,0.9378559257,0.9321100544,0.9262006532,0.9201393254],
			"rk": [1,0.9988935998,0.9972007493,0.995102305,0.9926823081,0.9899780484,0.9870044982,0.9837668179,0.9802668796,0.9765065857,0.9724893988,0.9682208635,0.9637085768,0.9589618832,0.9539914607,0.9488088934,0.9434262832,0.9378559257,0.9321100544,0.9262006532,0.9201393254],
			"k": [1,0.9862018706,0.968070815,0.9489598315,0.930479304,0.9133355893,0.8977502301,0.8836869004,0.8709815448,0.8594188678,0.848776719,0.8388503892,0.8294641917,0.8204751411,0.811771962,0.8032715943,0.7949146159,0.7866604724,0.7784830326,0.7703667342,0.7623034158],
			"pk": [1,0.5485601606,0.3323339374,0.2158059248,0.1450113968,0.09799256362,0.06524161125,0.04210022647,0.02586213716,0.01469148978,0.007223183185,0.00240868152,-0.0005552252929,-0.002271754644,-0.003181387161,-0.003595266499,-0.00372491496,-0.003707715495,-0.003627868998,-0.003532944355,-0.003446446885],
			"c": [1,0.9943240278,0.9820910225,0.9661017744,0.9482140721,0.9297256172,0.9115303339,0.8942052412,0.8780779314,0.863286933,0.8498356838,0.8376385574,0.8265579183,0.8164322173,0.8070959465,0.7983927324,0.7901829963,0.7823475657,0.7747884484,0.7674277686,0.7602056379],
			"inve": [1,0.9951734192,0.9852107454,0.9724318497,0.9581355694,0.9430999072,0.9278072325,0.9125561461,0.8975246062,0.8828100467,0.8684569226,0.8544762152,0.840859199,0.8275869051,0.8146363459,0.8019843487,0.7896096866,0.7774940499,0.7656222738,0.7539821295,0.7425638924],
			"y": [1,0.9788610757,0.9473861823,0.9109376074,0.8726730732,0.8345502763,0.7977735159,0.7630299375,0.7306422723,0.7006818017,0.6730558787,0.647575101,0.624002973,0.6020906788,0.5815997145,0.5623151044,0.5440516993,0.5266556995,0.5100031241,0.4939965433,0.4785610198],
			"lab": [1,0.9700903323,0.9367953922,0.9048442384,0.8760115812,0.8507426011,0.8288846066,0.8100328249,0.7937010827,0.7794077069,0.7667174091,0.7552589664,0.7447292162,0.7348894366,0.72555782,0.7166003586,0.707921571,0.6994559025,0.6911602276,0.6830076186,0.6749823698],
			"pinf": [1,0.4263274111,0.2630021663,0.1985590884,0.1590220421,0.1297866209,0.1084564495,0.09398848868,0.08500407837,0.07996062151,0.07745485578,0.07637346575,0.07591897702,0.0755718752,0.0750304154,0.07414981265,0.07289011397,0.07127547145,0.06936441697,0.0672294757,0.06494412279],
			"w": [1,0.9894223615,0.9757602818,0.9608724302,0.9457044186,0.9307299641,0.9161655791,0.9020864343,0.888492616,0.8753477342,0.8626011727,0.8502004243,0.8380974099,0.8262512092,0.814628723,0.8032042221,0.7919583649,0.780877035,0.7699501982,0.75917088,0.7485343078],
			"r": [1,0.897354582,0.7677486897,0.6490468443,0.5475024921,0.4632598583,0.3952483512,0.3418449733,0.3010138824,0.2705049223,0.2480793322,0.2316904028,0.2195920212,0.2103804179,0.2029871281,0.1966423589,0.1908243543,0.1852056511,0.1796029127,0.1739338161,0.1681822536],
			"a": [1,0.9828,0.96589584,0.9492824316,0.9329547737,0.9169079516,0.9011371349,0.8856375761,0.8704046098,0.8554336505,0.8407201917,0.8262598044,0.8120481358,0.7980809079,0.7843539163,0.7708630289,0.7576041848,0.7445733928,0.7317667305,0.7191803427,0.7068104408],
			"b": [1,0.3881,0.15062161,0.05845624684,0.0226868694,0.008804774014,0.003417132795,0.001326189238,0.0005146940431,0.0001997527581,7.752404543e-05,3.008708203e-05,1.167679654e-05,4.531764736e-06,1.758777894e-06,6.825817007e-07,2.64909958e-07,1.028115547e-07,3.990116438e-08,1.54856419e-08,6.00997762e-09],
			"g": [1,0.9249,0.85544001,0.7911964652,0.7317776107,0.6768211121,0.6259918466,0.5789798589,0.5354984715,0.4952825363,0.4580868178,0.4236844978,0.391865792,0.3624366711,0.3352176771,0.3100428295,0.286758613,0.2652230412,0.2453047908,0.226882401,0.2098435327],
			"qs": [1,0.4265,0.18190225,0.07758130962,0.03308842856,0.01411221478,0.006018859603,0.002567043621,0.001094844104,0.0004669510105,0.000199154606,8.493943944e-05,3.622667092e-05,1.545067515e-05,6.589712951e-06,2.810512573e-06,1.198683613e-06,5.112385608e-07,2.180432462e-07,9.299544449e-08,3.966255708e-08],
			"spinf": [1,-0.1636401803,-0.0524630418,-0.0168196512,-0.005392380175,-0.001728797084,-0.0005542523452,-0.0001776933019,-5.696847258e-05,-1.826409231e-05,-5.855467994e-06,-1.877263039e-06,-6.018505303e-07,-1.9295328e-07,-6.186082157e-08,-1.98325794e-08,-6.358324954e-09,-2.03847898e-09,-6.535363611e-10,-2.095237574e-10,-6.717331661e-11],
			"sw": [1,0.1273675442,0.0726249737,0.04141076,0.02361241535,0.01346379924,0.007677058324,0.004377458656,0.002496026926,0.001423234553,0.0008115283422,0.0004627334607,0.0002638506193,0.0001504476231,8.57852347e-05,4.891474083e-05,2.789118522e-05,1.590355381e-05,9.068206384e-06,5.17069128e-06,2.948328168e-06],
			"kp": [1,0.9997642818,0.9990827256,0.9979780297,0.9964718606,0.9945853107,0.9923388674,0.9897522671,0.9868443698,0.9836330924,0.9801353961,0.9763673153,0.9723440121,0.9680798428,0.9635884265,0.9588827117,0.9539750353,0.9488771742,0.9436003881,0.9381554557,0.9325527041],
			"rr": [1,-0.2594775058,-0.1096198861,-0.0499520741,-0.02568678381,-0.01519374716,-0.01006492244,-0.007094060144,-0.005083862327,-0.003591841288,-0.002447409106,-0.001571961588,-0.0009156714449,-0.0004376877727,-0.0001014168576,0.0001256961125,0.0002715719183,0.0003591780047,0.0004066551946,0.0004277822854,0.0004326238525],
			"er": [1,0.4429080839,0.2091141237,0.1071601268,0.06010451569,0.03676343784,0.02425622141,0.01707354563,0.01272433639,0.00999396323,0.00823788462,0.007086932031,0.006317809364,0.005791442061,0.005420506477,0.005150536572,0.004948075001,0.004792929148,0.004673051288,0.004581189295,0.004512755098],
			"ec": [1,0.4429080839,0.2091141237,0.1071601268,0.06010451569,0.03676343784,0.02425622141,0.01707354563,0.01272433639,0.00999396323,0.00823788462,0.007086932031,0.006317809364,0.005791442061,0.005420506477,0.005150536572,0.004948075001,0.004792929148,0.004673051288,0.004581189295,0.004512755098],
			"nw": [1,0.9047151668,0.8382332477,0.7853618577,0.739850122,0.6990109137,0.6615845835,0.6268962093,0.5945244471,0.5641707033,0.5356058579,0.5086467034,0.4831437756,0.4589737271,0.4360337576,0.4142372242,0.39351011,0.373788202,0.3550148763,0.3371393953,0.3201156249],
			"prem": [1,0.9421468894,0.8903040111,0.8426107747,0.7981827551,0.7565255533,0.7173119294,0.6802966385,0.645282691,0.6121065125,0.5806300251,0.5507353912,0.522320979,0.4952980877,0.4695882778,0.445121228,0.4218330553,0.3996650259,0.3785625871,0.3584746536,0.3393530875],
			"pinf4": [1,0.8949708545,0.7244611128,0.5346502653,0.3602254947,0.2815858181,0.2337581783,0.201359877,0.1798213965,0.1663923356,0.1586379012,0.1544524473,0.1521892109,0.1506823337,0.1491869892,0.1472868087,0.1448000627,0.1416992201,0.1380483802,0.1339580164,0.1295543763],
			"eg": [1,-1.895113101e-16,-2.74188992e-16,-3.411109156e-16,-3.952034162e-16,-4.351049986e-16,-4.614364281e-16,-4.757900045e-16,-4.80153849e-16,-4.765765992e-16,-4.66976323e-16,-4.530408239e-16,-4.36186952e-16,-4.175573557e-16,-3.980396845e-16,-3.782977661e-16,-3.588075935e-16,-3.398934377e-16,-3.217612529e-16,-3.045278705e-16,-2.882454049e-16],
			"interest": [1,0.897354582,0.7677486897,0.6490468443,0.5475024921,0.4632598583,0.3952483512,0.3418449733,0.3010138824,0.2705049223,0.2480793322,0.2316904028,0.2195920212,0.2103804179,0.2029871281,0.1966423589,0.1908243543,0.1852056511,0.1796029127,0.1739338161,0.1681822536],
			"inflation": [1,0.8949708545,0.7244611128,0.5346502653,0.3602254947,0.2815858181,0.2337581783,0.201359877,0.1798213965,0.1663923356,0.1586379012,0.1544524473,0.1521892109,0.1506823337,0.1491869892,0.1472868087,0.1448000627,0.1416992201,0.1380483802,0.1339580164,0.1295543763],
			"inflationq": [1,0.4263274111,0.2630021663,0.1985590884,0.1590220421,0.1297866209,0.1084564495,0.09398848868,0.08500407837,0.07996062151,0.07745485578,0.07637346575,0.07591897702,0.0755718752,0.0750304154,0.07414981265,0.07289011397,0.07127547145,0.06936441697,0.0672294757,0.06494412279],
			"inflationql": [1,0.4263274111,0.2630021663,0.1985590884,0.1590220421,0.1297866209,0.1084564495,0.09398848868,0.08500407837,0.07996062151,0.07745485578,0.07637346575,0.07591897702,0.0755718752,0.0750304154,0.07414981265,0.07289011397,0.07127547145,0.06936441697,0.0672294757,0.06494412279],
			"inflationql2": [1,0.4263274111,0.2630021663,0.1985590884,0.1590220421,0.1297866209,0.1084564495,0.09398848868,0.08500407837,0.07996062151,0.07745485578,0.07637346575,0.07591897702,0.0755718752,0.0750304154,0.07414981265,0.07289011397,0.07127547145,0.06936441697,0.0672294757,0.06494412279],
			"inflationqls": [1,0.7416449309,0.4034455284,0.287150895,0.2265923618,0.1847583273,0.1544834675,0.1337131651,0.1205744432,0.1130105804,0.1091067158,0.1073108327,0.1064914313,0.1058989473,0.1050889565,0.1038401675,0.1020822813,0.09983874376,0.09718448195,0.09421661852,0.09103551869],
			"outputgap": [1,0.9388026047,0.868855567,0.8013292281,0.7406746393,0.6882049582,0.6437537296,0.606486831,0.5753205552,0.549142428,0.5269253645,0.5077806261,0.4909747224,0.4759253885,0.4621862409,0.4494263,0.4374082976,0.4259681197,0.4149966518,0.404424564,0.394210103],
			"output": [1,0.9788610757,0.9473861823,0.9109376074,0.8726730732,0.8345502763,0.7977735159,0.7630299375,0.7306422723,0.7006818017,0.6730558787,0.647575101,0.624002973,0.6020906788,0.5815997145,0.5623151044,0.5440516993,0.5266556995,0.5100031241,0.4939965433,0.4785610198],
			"fispol": [1,-1.053314379e-16,-1.468760376e-16,-1.796024056e-16,-2.059692301e-16,-2.252916204e-16,-2.378761272e-16,-2.445153561e-16,-2.462000898e-16,-2.439516151e-16,-2.387261621e-16,-2.313650386e-16,-2.225742713e-16,-2.129229654e-16,-2.028528938e-16,-1.926940724e-16,-1.826827424e-16,-1.729794157e-16,-1.636855678e-16,-1.548582254e-16,-1.465221615e-16],
			"neww": [1,-0.08696309046,-0.0278803668,-0.008938445596,-0.002865665658,-0.00091873241,-0.0002945456106,-9.443132277e-05,-3.027468208e-05,-9.706063075e-06,-3.111763822e-06,-9.976314813e-07,-3.198406529e-07,-1.025409133e-07,-3.287461681e-08,-1.053960215e-08,-3.378996449e-09,-1.083306262e-09,-3.473079875e-10,-1.113469408e-10,-3.569782921e-11]
		},
		"VAR": {
			"ewma": 0.05184729,
			"epinfma": 0.03429904,
			"mc": 0.6158924641,
			"zcap": 185.4688973,
			"rk": 4.564160967,
			"k": 12.67608976,
			"pk": 19.13277843,
			"c": 45.03436866,
			"inve": 401.4315929,
			"y": 14.95054946,
			"lab": 4.332255122,
			"pinf": 0.06238393979,
			"w": 11.95156921,
			"r": 0.4170877646,
			"a": 6.90578774,
			"b": 3.779878647,
			"g": 2.031717783,
			"qs": 0.1915868978,
			"spinf": 0.03555697933,
			"sw": 0.05292063572,
			"kp": 270.506329,
			"rr": 16.73132608,
			"er": 4.830322864,
			"ec": 4.830322864,
			"nw": 723.6970522,
			"prem": 0.2078120956,
			"pinf4": 0.4995139021,
			"eg": 0.21483225,
			"interest": 6.673404234,
			"inflation": 0.4995139021,
			"inflationq": 0.9981430367,
			"inflationql": 0.9981430367,
			"inflationql2": 0.9981430367,
			"inflationqls": 2.847357547,
			"outputgap": 5.035491212,
			"output": 14.95054946,
			"fispol": 0.21483225,
			"neww": 0.1384540993
		},
		"IRF": {
			"interest_": {
				"ewma": [0,3.371467215e-17,-1.14300214e-34,3.875030686e-52,-1.313721322e-69,4.453806567e-87,-1.509939178e-104,5.119028606e-122,-1.735464199e-139,5.883608432e-157,-1.994673713e-174,6.762386156e-192,-2.292598846e-209,7.772418416e-227,-2.635022177e-244,8.933309432e-262,-3.028589971e-279,1.026759152e-296,-3.480941183e-314,0,0],
				"epinfma": [0,1.119303575e-17,-6.733563225e-33,-3.127397106e-33,-1.78324183e-33,-1.016804491e-33,-5.79781921e-34,-3.305916513e-34,-1.885033596e-34,-1.074846156e-34,-6.128772784e-35,-3.494626241e-35,-1.992635883e-35,-1.13620098e-35,-6.47861799e-36,-3.694107978e-36,-2.106380369e-36,-1.201058086e-36,-6.848433209e-37,-3.904976616e-37,-2.226617666e-37],
				"mc": [0,-0.01397938168,-0.02133975955,-0.02405620379,-0.0238798823,-0.02202927375,-0.01934399888,-0.0163835372,-0.01349976069,-0.0108938088,-0.008661220764,-0.006827167927,-0.005373141931,-0.004256414149,-0.003423587391,-0.002819503974,-0.002392649937,-0.002098028946,-0.001898298257,-0.001763783746,-0.001671834045],
				"zcap": [0,-0.04379147935,-0.06961084372,-0.07247692622,-0.06197673791,-0.04447456082,-0.02403923094,-0.003142464099,0.01682479631,0.0351781221,0.05167439562,0.06632880188,0.07929256143,0.09077456153,0.1009939104,0.1101536195,0.118428184,0.1259598561,0.1328599734,0.1392128847,0.1450808884],
				"rk": [0,-0.006869649004,-0.01091997965,-0.01136958722,-0.009722403586,-0.006976805237,-0.003771077876,-0.0004929640581,0.002639336395,0.005518455989,0.008106256417,0.01040511978,0.01243876831,0.01423997055,0.01584309839,0.01727999862,0.0185780446,0.0197595517,0.02084198564,0.02183857839,0.02275910281],
				"k": [0,-0.04379147935,-0.07757457046,-0.09263421185,-0.09621527778,-0.09328232019,-0.0871212243,-0.07980937887,-0.07257695684,-0.06607907819,-0.06059624409,-0.05617816001,-0.0527438385,-0.05014872671,-0.0482276018,-0.04682017397,-0.04578476606,-0.04500411375,-0.04438624504,-0.04386253481,-0.04338436311],
				"pk": [0,-0.7273718709,-0.4604650359,-0.2787254259,-0.1590601705,-0.08312322305,-0.03707143564,-0.01081605101,0.002790004353,0.008674245059,0.01013565848,0.009307477634,0.007508990812,0.005506708596,0.003703957084,0.002275332091,0.001259575019,0.0006217495153,0.0002932545064,0.0001962346047,0.0002573276265],
				"c": [0,-0.09214805744,-0.1315599999,-0.1375053767,-0.1241127943,-0.1011902328,-0.07517589267,-0.05001045207,-0.02786283285,-0.009700757014,0.004279110781,0.01433877677,0.02098065786,0.02480180109,0.02640204908,0.02633098494,0.02506168668,0.02298214996,0.02039762449,0.01753904675,0.01457427253],
				"inve": [0,-0.2731674146,-0.4262205383,-0.5031647949,-0.533983967,-0.5384347543,-0.5290645641,-0.5134904006,-0.4960608399,-0.4790341973,-0.4633913847,-0.449380552,-0.4368695995,-0.4255644439,-0.4151360406,-0.4052873977,-0.3957827522,-0.3864542352,-0.377196296,-0.3679545022,-0.358712761],
				"y": [0,-0.05827262276,-0.1066821003,-0.1270047499,-0.1303570196,-0.1242759424,-0.1136616346,-0.1015414148,-0.089657184,-0.07890069976,-0.06962637911,-0.06186941275,-0.05549286123,-0.05028291051,-0.04600731119,-0.04244845855,-0.03941963402,-0.03677058249,-0.03438677387,-0.03218531032,-0.03010941294],
				"lab": [0,-0.03491097388,-0.06455960681,-0.07678782593,-0.07853169208,-0.07448083567,-0.06766966172,-0.05996104869,-0.05241820454,-0.04557912217,-0.03965260534,-0.03465394355,-0.03049563685,-0.0270455732,-0.02416229356,-0.02171462489,-0.01959104318,-0.01770261406,-0.0159821932,-0.01438169278,-0.01286857887],
				"pinf": [0,-0.01045635236,-0.01422764758,-0.01486252911,-0.01405733875,-0.01265392268,-0.01108124107,-0.009557301568,-0.008186349663,-0.007008955822,-0.00602982184,-0.005234221098,-0.004598085862,-0.004094224946,-0.003696037739,-0.003379563686,-0.003124428902,-0.002914084038,-0.00273561336,-0.002579311363,-0.002438160195],
				"w": [0,-0.01575015447,-0.0239349433,-0.02721597314,-0.02740598929,-0.02577828976,-0.02322264046,-0.02034129424,-0.0175194159,-0.01498150003,-0.01283738233,-0.01111909669,-0.009809433341,-0.008863182959,-0.008222209856,-0.00782555046,-0.007615678279,-0.007541947984,-0.007562066193,-0.007642263648,-0.007756681422],
				"r": [0,0.2369295596,0.1480661322,0.08506813115,0.04197601837,0.01356580951,-0.004355484683,-0.01499546624,-0.02072976345,-0.02327202919,-0.02382769773,-0.02322216478,-0.02200312268,-0.02051996706,-0.01898402411,-0.01751327149,-0.01616482617,-0.01495798337,-0.01389010506,-0.01294721274,-0.01211074916],
				"a": [0,-4.824315334e-18,-4.74133711e-18,-4.659786112e-18,-4.579637791e-18,-4.500868021e-18,-4.423453091e-18,-4.347369698e-18,-4.272594939e-18,-4.199106306e-18,-4.126881678e-18,-4.055899313e-18,-3.986137845e-18,-3.917576274e-18,-3.850193962e-18,-3.783970626e-18,-3.718886331e-18,-3.654921486e-18,-3.592056836e-18,-3.530273459e-18,-3.469552755e-18],
				"b": [0,1.666730594e-16,6.468581433e-17,2.510456454e-17,9.743081499e-18,3.78128993e-18,1.467518622e-18,5.695439771e-19,2.210400175e-19,8.57856308e-20,3.329340331e-20,1.292116983e-20,5.014706009e-21,1.946207402e-21,7.553230928e-22,2.931408923e-22,1.137679803e-22,4.415335316e-23,1.713591636e-23,6.65044914e-24,2.581039311e-24],
				"g": [0,-1.162288384e-16,-4.011792885e-16,-7.008177449e-16,-9.92559777e-16,-1.261592742e-15,-1.501299903e-15,-1.709841206e-15,-1.888037783e-15,-2.038065867e-15,-2.162666391e-15,-2.264685846e-15,-2.346828389e-15,-2.411539651e-15,-2.460969447e-15,-2.496978756e-15,-2.521168766e-15,-2.53491834e-15,-2.539421977e-15,-2.535724098e-15,-2.524747901e-15],
				"qs": [0,-2.380525823e-17,-1.015294263e-17,-4.330230033e-18,-1.846843109e-18,-7.876785861e-19,-3.35944917e-19,-1.432805071e-19,-6.110913627e-20,-2.606304662e-20,-1.111588938e-20,-4.740926822e-21,-2.02200529e-21,-8.62385256e-22,-3.678073117e-22,-1.568698184e-22,-6.690497756e-23,-2.853497293e-23,-1.217016595e-23,-5.19057578e-24,-2.21378057e-24],
				"spinf": [0,-6.159199547e-18,-7.593543321e-18,-2.434489989e-18,-7.804974904e-19,-2.502274954e-19,-8.022293503e-20,-2.571947297e-20,-8.245663034e-21,-2.643559569e-21,-8.475251977e-22,-2.717165784e-22,-8.711233503e-23,-2.792821461e-23,-8.953785605e-24,-2.870583665e-24,-9.203091229e-25,-2.950511048e-25,-9.45933842e-26,-3.032663898e-26,-9.722720456e-27],
				"sw": [0,-3.009304599e-18,-1.695493729e-17,-9.667705245e-18,-5.512525531e-18,-3.143242058e-18,-1.792276621e-18,-1.021956129e-18,-5.82719385e-19,-3.322665933e-19,-1.894584115e-19,-1.080291862e-19,-6.1598242e-20,-3.512331759e-20,-2.002731569e-20,-1.141957541e-20,-6.511441896e-21,-3.712824169e-21,-2.117052341e-21,-1.207143245e-21,-6.883130783e-22],
				"kp": [0,-0.007963726741,-0.02015728563,-0.03423853988,-0.04880775937,-0.06308199336,-0.07666691477,-0.08940175315,-0.1012572003,-0.1122706397,-0.1225069619,-0.1320363999,-0.1409232882,-0.1492215122,-0.1569737935,-0.1642129501,-0.1709639699,-0.1772462184,-0.1830754195,-0.1884652516,-0.1934285252],
				"rr": [0,-0.7039071454,0.2815472497,0.1904466356,0.1245287653,0.07841682158,0.04713628616,0.02659157846,0.01360114853,0.005781465555,0.001395321522,-0.0007924337399,-0.001637937871,-0.001717864504,-0.001407413913,-0.0009399653181,-0.000451743357,-1.456125718e-05,0.0003407192149,0.0006078102019,0.0007939123826],
				"er": [0,0.2815472497,0.1904466356,0.1245287653,0.07841682158,0.04713628616,0.02659157846,0.01360114853,0.005781465555,0.001395321522,-0.0007924337399,-0.001637937871,-0.001717864504,-0.001407413913,-0.0009399653181,-0.000451743357,-1.456125718e-05,0.0003407192149,0.0006078102019,0.0007939123826,0.0009124963204],
				"ec": [0,0.2815472497,0.1904466356,0.1245287653,0.07841682158,0.04713628616,0.02659157846,0.01360114853,0.005781465555,0.001395321522,-0.0007924337399,-0.001637937871,-0.001717864504,-0.001407413913,-0.0009399653181,-0.000451743357,-1.456125718e-05,0.0003407192149,0.0006078102019,0.0007939123826,0.0009124963204],
				"nw": [0,-2.313805107,-1.934891094,-1.660867018,-1.462731313,-1.317991106,-1.209967359,-1.126679496,-1.059750058,-1.003472289,-0.9540668239,-0.9091113449,-0.8671147069,-0.8272062518,-0.7889142594,-0.7520118078,-0.7164125451,-0.6821026292,-0.6490982644,-0.6174208652,-0.5870839643],
				"prem": [0,0.03039004261,0.02751797432,0.02540329539,0.02378688053,0.02248923558,0.02138976157,0.02041026511,0.01950227318,0.01863752887,0.01780104289,0.01698614105,0.01619103323,0.0154165154,0.01466449511,0.01393709923,0.01323618087,0.01256308922,0.0119186039,0.01130296493,0.0107159515],
				"pinf4": [0,-0.01045635236,-0.02468399994,-0.03954652906,-0.05360386781,-0.05580143813,-0.05265503162,-0.04734980407,-0.04147881498,-0.03583384812,-0.03078242889,-0.02645934842,-0.02287108462,-0.01995635375,-0.01762256964,-0.01576791223,-0.01429425527,-0.01311411437,-0.01215368999,-0.01135343766,-0.01066716896],
				"eg": [0,-7.748589226e-17,-1.957861572e-16,-2.198446806e-16,-2.295822965e-16,-2.290494695e-16,-2.229685171e-16,-2.141926177e-16,-2.044037672e-16,-1.945464811e-16,-1.851061805e-16,-1.762904676e-16,-1.681469667e-16,-1.606387155e-16,-1.536909496e-16,-1.472187431e-16,-1.41142076e-16,-1.353928991e-16,-1.299173363e-16,-1.246751411e-16,-1.196377883e-16],
				"interest": [0,0.9477182382,0.5922645288,0.3402725246,0.1679040735,0.05426323803,-0.01742193873,-0.05998186495,-0.08291905378,-0.09308811676,-0.09531079093,-0.09288865914,-0.08801249071,-0.08207986822,-0.07593609645,-0.07005308595,-0.06465930468,-0.05983193346,-0.05556042022,-0.05178885097,-0.04844299666],
				"inflation": [0,-0.01045635236,-0.02468399994,-0.03954652906,-0.05360386781,-0.05580143813,-0.05265503162,-0.04734980407,-0.04147881498,-0.03583384812,-0.03078242889,-0.02645934842,-0.02287108462,-0.01995635375,-0.01762256964,-0.01576791223,-0.01429425527,-0.01311411437,-0.01215368999,-0.01135343766,-0.01066716896],
				"inflationq": [0,-0.04182540944,-0.05691059033,-0.05945011646,-0.056229355,-0.05061569072,-0.04432496428,-0.03822920627,-0.03274539865,-0.02803582329,-0.02411928736,-0.02093688439,-0.01839234345,-0.01637689978,-0.01478415096,-0.01351825475,-0.01249771561,-0.01165633615,-0.01094245344,-0.01031724545,-0.009752640781],
				"inflationql": [0,2.288664924e-17,-0.04182540944,-0.05691059033,-0.05945011646,-0.056229355,-0.05061569072,-0.04432496428,-0.03822920627,-0.03274539865,-0.02803582329,-0.02411928736,-0.02093688439,-0.01839234345,-0.01637689978,-0.01478415096,-0.01351825475,-0.01249771561,-0.01165633615,-0.01094245344,-0.01031724545],
				"inflationql2": [0,-2.598951941e-17,3.866229029e-16,-0.04182540944,-0.05691059033,-0.05945011646,-0.056229355,-0.05061569072,-0.04432496428,-0.03822920627,-0.03274539865,-0.02803582329,-0.02411928736,-0.02093688439,-0.01839234345,-0.01637689978,-0.01478415096,-0.01351825475,-0.01249771561,-0.01165633615,-0.01094245344],
				"inflationqls": [0,-3.102870168e-18,-0.04182540944,-0.09873599977,-0.1163607068,-0.1156794715,-0.1068450457,-0.094940655,-0.08255417056,-0.07097460492,-0.06078122194,-0.05215511065,-0.04505617175,-0.03932922784,-0.03476924323,-0.03116105074,-0.0283024057,-0.02601597035,-0.02415405176,-0.02259878959,-0.02125969889],
				"outputgap": [0,-0.05827262276,-0.1066821003,-0.1270047499,-0.1303570196,-0.1242759424,-0.1136616346,-0.1015414148,-0.089657184,-0.07890069976,-0.06962637911,-0.06186941275,-0.05549286123,-0.05028291051,-0.04600731119,-0.04244845855,-0.03941963402,-0.03677058249,-0.03438677387,-0.03218531032,-0.03010941294],
				"output": [0,-0.05827262276,-0.1066821003,-0.1270047499,-0.1303570196,-0.1242759424,-0.1136616346,-0.1015414148,-0.089657184,-0.07890069976,-0.06962637911,-0.06186941275,-0.05549286123,-0.05028291051,-0.04600731119,-0.04244845855,-0.03941963402,-0.03677058249,-0.03438677387,-0.03218531032,-0.03010941294],
				"fispol": [0,-3.874294613e-17,-9.789307862e-17,-1.099223403e-16,-1.147911483e-16,-1.145247347e-16,-1.114842585e-16,-1.070963088e-16,-1.022018836e-16,-9.727324053e-17,-9.255309024e-17,-8.814523382e-17,-8.407348336e-17,-8.031935773e-17,-7.68454748e-17,-7.360937155e-17,-7.0571038e-17,-6.769644955e-17,-6.495866817e-17,-6.233757054e-17,-5.981889413e-17],
				"neww": [0,5.033836202e-18,-7.593543321e-18,-2.434489989e-18,-7.804974904e-19,-2.502274954e-19,-8.022293503e-20,-2.571947297e-20,-8.245663034e-21,-2.643559569e-21,-8.475251977e-22,-2.717165783e-22,-8.711233498e-23,-2.792821456e-23,-8.95378556e-24,-2.870583622e-24,-9.203090828e-25,-2.95051067e-25,-9.459334859e-26,-3.032660544e-26,-9.722688864e-27]
			},
			"fiscal_": {
				"ewma": [0,-1.110223025e-16,3.763902218e-34,-1.276046307e-51,4.326079913e-69,-1.466637011e-86,4.972224657e-104,-1.685694405e-121,5.714877795e-139,-1.937470286e-156,6.568453856e-174,-2.226851496e-191,7.549520322e-209,-2.559454781e-226,8.677119204e-244,-2.941735804e-261,9.973136632e-279,-3.381114448e-296,1.146272766e-313,0,0],
				"epinfma": [0,1.153634066e-16,-4.972729761e-33,-4.696886726e-33,-2.678164811e-33,-1.527089575e-33,-8.707464758e-34,-4.964996405e-34,-2.83104095e-34,-1.61425955e-34,-9.204507952e-35,-5.248410434e-35,-2.99264363e-35,-1.706405398e-35,-9.729923577e-36,-5.548002424e-36,-3.163470982e-36,-1.803811154e-36,-1.02853312e-36,-5.86469585e-37,-3.344049574e-37],
				"mc": [0,0.07109514154,0.09240300825,0.09610722207,0.08956162635,0.07773072679,0.06388041408,0.05005673463,0.0374398969,0.02661230324,0.0177608131,0.01082645006,0.005611952651,0.00185607161,-0.0007176749621,-0.002371240952,-0.003335896291,-0.003805388131,-0.003935127394,-0.003844966069,-0.003623837112],
				"zcap": [0,0.6416078262,0.5892047798,0.5382329349,0.4968152547,0.4689517701,0.4557430427,0.4564088608,0.4690806735,0.4913818186,0.5208261792,0.55507134,0.5920614691,0.6300910646,0.6678152976,0.7042270781,0.7386158133,0.770518426,0.7996696471,0.8259558679,0.8493748404],
				"rk": [0,0.1006501865,0.09242962534,0.08443357933,0.07793631251,0.07356531702,0.07149323993,0.07159768801,0.07358553832,0.07708395952,0.0817029499,0.08707505056,0.09287775938,0.09884353119,0.1047614002,0.1104733825,0.1158680059,0.1208726268,0.1254456318,0.1295691991,0.1332429759],
				"k": [0,0.6416078262,0.5676302207,0.4778931873,0.3847080417,0.2959148059,0.215988334,0.1469948743,0.08937312657,0.04254129937,0.005347239277,-0.0236139949,-0.04578882782,-0.06253518592,-0.07505195593,-0.08434977052,-0.09124883516,-0.09639302018,-0.1002724512,-0.1032492779,-0.1055832032],
				"pk": [0,-0.7894518221,-0.772756112,-0.7234513625,-0.6480394118,-0.5572833716,-0.4613243574,-0.3679864524,-0.282500791,-0.2078174792,-0.1451119211,-0.0943027801,-0.05450294164,-0.02437704736,-0.002404954167,0.01293766047,0.02306593735,0.02922368958,0.03245800829,0.0336185618,0.03337212046],
				"c": [0,0.2731339459,0.3888613705,0.4031981855,0.3582845794,0.2838786379,0.1997183058,0.1179371669,0.04519674469,-0.01557543309,-0.06384603599,-0.1004909832,-0.1271045813,-0.1455399625,-0.157623516,-0.1649946686,-0.1690318405,-0.1708343796,-0.1712381429,-0.170848903,-0.1700829048],
				"inve": [0,-0.7400387681,-1.351276929,-1.836039133,-2.202086335,-2.461552675,-2.629169291,-2.720585388,-2.751069089,-2.734635307,-2.683550256,-2.608129619,-2.516745204,-2.415965756,-2.310772875,-2.204808458,-2.100623713,-1.999910873,-1.903707207,-1.812567013,-1.726701343],
				"y": [0,1.066209337,0.9017796526,0.7406363685,0.5926792214,0.4634730907,0.3552128025,0.2677360159,0.1993991148,0.1477603813,0.1100731028,0.08361533445,0.0658903287,0.05473088192,0.04833652166,0.0452669233,0.04440941947,0.04493354259,0.04624145814,0.04791993995,0.04969714251],
				"lab": [0,0.6785239453,0.5676634672,0.4633120697,0.3701872899,0.2907119458,0.2254972346,0.1739008866,0.1345213172,0.105583588,0.08521500945,0.07162532623,0.06321168021,0.05860828094,0.05669807554,0.05660029619,0.05764437266,0.05933770039,0.06133229428,0.06339344654,0.06537209656],
				"pinf": [0,0.0274359501,0.03575435861,0.03508649836,0.03047441605,0.02449670407,0.01847542474,0.01305812187,0.008516703095,0.004911835649,0.002188930505,0.0002363312176,-0.001079106758,-0.001890784969,-0.002320516107,-0.002472828465,-0.002433204711,-0.002268709264,-0.002029933212,-0.001753533719,-0.001464900988],
				"w": [0,0.06373406739,0.09239637891,0.09901469692,0.09245706424,0.07876817709,0.0619843393,0.04469167579,0.02843734769,0.01404167088,0.001835179722,-0.008164270577,-0.01612274865,-0.02229993568,-0.02698863124,-0.03047668425,-0.03302520193,-0.03485809381,-0.03615911364,-0.03707352532,-0.03771232389],
				"r": [0,0.03429493762,0.0686994046,0.09194770617,0.1024564144,0.1023403702,0.09473254004,0.08263543037,0.06849068013,0.05408327065,0.04059445259,0.02871153083,0.01874918814,0.01076095048,0.004632020205,0.0001513785626,-0.002935540895,-0.004890765206,-0.005960952159,-0.00636458366,-0.006286334797],
				"a": [0,9.353191557e-17,9.192316662e-17,9.034208816e-17,8.878820424e-17,8.726104713e-17,8.576015712e-17,8.428508241e-17,8.2835379e-17,8.141061048e-17,8.001034798e-17,7.863416999e-17,7.728166227e-17,7.595241768e-17,7.464603609e-17,7.336212427e-17,7.210029574e-17,7.086017065e-17,6.964137571e-17,6.844354405e-17,6.726631509e-17],
				"b": [0,3.893925344e-17,1.511232426e-17,5.865093045e-18,2.276242611e-18,8.834097573e-19,3.428513268e-19,1.330605999e-19,5.164081883e-20,2.004180179e-20,7.778223275e-21,3.018728453e-21,1.171568513e-21,4.546857397e-22,1.764635356e-22,6.848549816e-23,2.657922184e-23,1.031539599e-23,4.003405186e-24,1.553721553e-24,6.029993345e-25],
				"g": [0,1,0.9249,0.85544001,0.7911964652,0.7317776107,0.6768211121,0.6259918466,0.5789798589,0.5354984715,0.4952825363,0.4580868178,0.4236844978,0.391865792,0.3624366711,0.3352176771,0.3100428295,0.286758613,0.2652230412,0.2453047908,0.226882401],
				"qs": [0,2.655522087e-17,1.13258017e-17,4.830454425e-18,2.060188812e-18,8.786705285e-19,3.747529804e-19,1.598321461e-19,6.816841033e-20,2.9073827e-20,1.239998722e-20,5.288594548e-21,2.255585575e-21,9.620072477e-22,4.102960911e-22,1.749912829e-22,7.463378214e-23,3.183130808e-23,1.35760529e-23,5.790186561e-24,2.469514568e-24],
				"spinf": [0,-1.011933561e-16,-9.035502005e-17,-2.896781943e-17,-9.287082908e-18,-2.97743878e-18,-9.54566873e-19,-3.060341395e-19,-9.811454512e-20,-3.145552317e-20,-1.008464073e-20,-3.233135817e-21,-1.036543343e-21,-3.323157957e-22,-1.065404441e-22,-3.415686638e-23,-1.095069136e-23,-3.510791651e-24,-1.125559803e-24,-3.608544729e-25,-1.15689944e-25],
				"sw": [0,-1.326655252e-16,-2.546380175e-17,-1.451945976e-17,-8.278995955e-18,-4.720683493e-18,-2.691733728e-18,-1.534826572e-18,-8.751581112e-19,-4.99015155e-19,-2.845384414e-19,-1.622438193e-19,-9.251142575e-20,-5.275001496e-20,-3.007805853e-20,-1.715050897e-20,-9.779220217e-21,-5.576111368e-21,-3.179498702e-21,-1.81295016e-21,-1.033744181e-21],
				"kp": [0,-0.02157455909,-0.06033974759,-0.112107213,-0.1730369642,-0.2397547087,-0.3094139864,-0.3797075469,-0.4488405193,-0.5154789399,-0.5786853349,-0.6378502969,-0.6926262505,-0.7428672535,-0.7885768487,-0.8298646485,-0.8669114462,-0.8999420983,-0.9292051458,-0.9549580437,-0.9774568939],
				"rr": [0,-0.7604637098,0.04487236966,0.07561528371,0.09905493272,0.1113010029,0.1133113808,0.1076539208,0.09708238897,0.08396174823,0.07009227875,0.05671610548,0.04459961227,0.03413884103,0.02546219914,0.01851907804,0.01315057854,0.009142499652,0.006262663376,0.004285395182,0.003006070771],
				"er": [0,0.04487236966,0.07561528371,0.09905493272,0.1113010029,0.1133113808,0.1076539208,0.09708238897,0.08396174823,0.07009227875,0.05671610548,0.04459961227,0.03413884103,0.02546219914,0.01851907804,0.01315057854,0.009142499652,0.006262663376,0.004285395182,0.003006070771,0.002248384845],
				"ec": [0,0.04487236966,0.07561528371,0.09905493272,0.1113010029,0.1133113808,0.1076539208,0.09708238897,0.08396174823,0.07009227875,0.05671610548,0.04459961227,0.03413884103,0.02546219914,0.01851907804,0.01315057854,0.009142499652,0.006262663376,0.004285395182,0.003006070771,0.002248384845],
				"nw": [0,-2.499711542,-2.33722627,-2.153255769,-1.955782772,-1.756111477,-1.564092502,-1.386659685,-1.227792829,-1.089029408,-0.9701192055,-0.8696413781,-0.7855134914,-0.7153758143,-0.6568594162,-0.6077570476,-0.566118496,-0.530290923,-0.4989217333,-0.4709379974,-0.4455130112],
				"prem": [0,0.04633179065,0.04200237747,0.03758164261,0.03334129261,0.02944643535,0.02597950262,0.0229636617,0.02038290375,0.0181979386,0.01635798411,0.01480897468,0.01349886792,0.01238073255,0.01141422937,0.01056599527,0.009809331284,0.009123495371,0.008492813621,0.007905753443,0.00735404799],
				"pinf4": [0,0.0274359501,0.06319030871,0.09827680706,0.1287512231,0.1258119771,0.1085330432,0.08650466674,0.06454695378,0.04496208536,0.02867559112,0.01585380047,0.006257990614,-0.0005446300039,-0.005054076616,-0.007763236299,-0.009117334252,-0.009495258546,-0.009204675651,-0.008485380906,-0.007517077183],
				"eg": [0,1,-1.895113101e-16,-2.74188992e-16,-3.411109156e-16,-3.952034162e-16,-4.351049986e-16,-4.614364281e-16,-4.757900045e-16,-4.80153849e-16,-4.765765992e-16,-4.66976323e-16,-4.530408239e-16,-4.36186952e-16,-4.175573557e-16,-3.980396845e-16,-3.782977661e-16,-3.588075935e-16,-3.398934377e-16,-3.217612529e-16,-3.045278705e-16],
				"interest": [0,0.1371797505,0.2747976184,0.3677908247,0.4098256575,0.4093614806,0.3789301601,0.3305417215,0.2739627205,0.2163330826,0.1623778103,0.1148461233,0.07499675254,0.04304380193,0.01852808082,0.0006055142503,-0.01174216358,-0.01956306082,-0.02384380863,-0.02545833464,-0.02514533919],
				"inflation": [0,0.0274359501,0.06319030871,0.09827680706,0.1287512231,0.1258119771,0.1085330432,0.08650466674,0.06454695378,0.04496208536,0.02867559112,0.01585380047,0.006257990614,-0.0005446300039,-0.005054076616,-0.007763236299,-0.009117334252,-0.009495258546,-0.009204675651,-0.008485380906,-0.007517077183],
				"inflationq": [0,0.1097438004,0.1430174344,0.1403459934,0.1218976642,0.09798681628,0.07390169897,0.0522324875,0.03406681238,0.0196473426,0.008755722022,0.0009453248703,-0.004316427033,-0.007563139875,-0.009282064428,-0.009891313858,-0.009732818845,-0.009074837054,-0.008119732846,-0.007014134877,-0.005859603953],
				"inflationql": [0,6.200869058e-17,0.1097438004,0.1430174344,0.1403459934,0.1218976642,0.09798681628,0.07390169897,0.0522324875,0.03406681238,0.0196473426,0.008755722022,0.0009453248703,-0.004316427033,-0.007563139875,-0.009282064428,-0.009891313858,-0.009732818845,-0.009074837054,-0.008119732846,-0.007014134877],
				"inflationql2": [0,5.164125453e-18,1.275369317e-15,0.1097438004,0.1430174344,0.1403459934,0.1218976642,0.09798681628,0.07390169897,0.0522324875,0.03406681238,0.0196473426,0.008755722022,0.0009453248703,-0.004316427033,-0.007563139875,-0.009282064428,-0.009891313858,-0.009732818845,-0.009074837054,-0.008119732846],
				"inflationqls": [0,6.717281603e-17,0.1097438004,0.2527612348,0.2833634279,0.2622436576,0.2198844805,0.1718885152,0.1261341865,0.08629929988,0.05371415498,0.02840306462,0.009701046892,-0.003371102162,-0.01187956691,-0.0168452043,-0.01917337829,-0.0196241327,-0.0188076559,-0.0171945699,-0.01513386772],
				"outputgap": [0,1.066209337,0.9017796526,0.7406363685,0.5926792214,0.4634730907,0.3552128025,0.2677360159,0.1993991148,0.1477603813,0.1100731028,0.08361533445,0.0658903287,0.05473088192,0.04833652166,0.0452669233,0.04440941947,0.04493354259,0.04624145814,0.04791993995,0.04969714251],
				"output": [0,1.066209337,0.9017796526,0.7406363685,0.5926792214,0.4634730907,0.3552128025,0.2677360159,0.1993991148,0.1477603813,0.1100731028,0.08361533445,0.0658903287,0.05473088192,0.04833652166,0.0452669233,0.04440941947,0.04493354259,0.04624145814,0.04791993995,0.04969714251],
				"fispol": [0,1,-1.053314379e-16,-1.468760376e-16,-1.796024056e-16,-2.059692301e-16,-2.252916204e-16,-2.378761272e-16,-2.445153561e-16,-2.462000898e-16,-2.439516151e-16,-2.387261621e-16,-2.313650386e-16,-2.225742713e-16,-2.129229654e-16,-2.028528938e-16,-1.926940724e-16,-1.826827424e-16,-1.729794157e-16,-1.636855678e-16,-1.548582254e-16],
				"neww": [0,1.417005049e-17,-9.035502005e-17,-2.896781943e-17,-9.287082908e-18,-2.97743878e-18,-9.54566873e-19,-3.060341395e-19,-9.811454512e-20,-3.145552317e-20,-1.008464073e-20,-3.233135817e-21,-1.036543343e-21,-3.323157958e-22,-1.065404442e-22,-3.415686644e-23,-1.095069142e-23,-3.510791701e-24,-1.12555985e-24,-3.608545154e-25,-1.156899831e-25]
			}
		}
	}
}
