{
	"model": "US_YR13",
	"rule": "Model",
	"data": {
		"AC": {
			"ewma": [1,-1.392773304e-18,1.939817477e-36,-2.701725997e-54,3.762891843e-72,-5.240855306e-90,7.299323361e-108,-1.016630272e-125,1.415935503e-143,-1.972077168e-161,2.746656434e-179,-3.825469757e-197,5.328012153e-215,-7.420713092e-233,1.033537109e-250,-1.439482895e-268,2.004873347e-286,-2.792334077e-304,3.804305473e-322,0,0],
			"epinfma": [1,3.22205413e-17,1.131738993e-33,5.335687077e-35,3.042408771e-35,1.734781481e-35,9.891724006e-36,5.640261028e-36,3.216076838e-36,1.833807013e-36,1.045636759e-36,5.9622208e-37,3.3996583e-37,1.938485163e-37,1.10532424e-37,6.302558815e-38,3.593719036e-38,2.049138594e-38,1.168418827e-38,6.662324149e-39,3.79885723e-39],
			"mc": [1,0.8308866967,0.667220362,0.521532056,0.3974508472,0.2948225159,0.2119011178,0.1463401081,0.0956578782,0.05745947539,0.02953986929,0.009927574125,-0.003102658296,-0.01103361962,-0.015118402,-0.01639808241,-0.01572201204,-0.0137692669,-0.01107028285,-0.008027970512,-0.004937787713],
			"zcap": [1,0.9985113781,0.9959267023,0.9925789926,0.9886613773,0.984298839,0.9795786171,0.9745642196,0.9693027076,0.963829063,0.9581691732,0.9523420678,0.9463616804,0.94023826,0.9339795029,0.9275914441,0.9210791464,0.9144472132,0.907700155,0.9008426343,0.8938796129],
			"rk": [1,0.9985113781,0.9959267023,0.9925789926,0.9886613773,0.984298839,0.9795786171,0.9745642196,0.9693027076,0.963829063,0.9581691732,0.9523420678,0.9463616804,0.94023826,0.9339795029,0.9275914441,0.9210791464,0.9144472132,0.907700155,0.9008426343,0.8938796129],
			"k": [1,0.9841780906,0.9601525256,0.932447792,0.9035461392,0.8749217346,0.8474831112,0.8217806506,0.7981176206,0.7766192719,0.7572817278,0.7400094953,0.7246453182,0.7109940851,0.6988417407,0.68796987,0.6781665317,0.669233888,0.6609931528,0.6532873582,0.6459823968],
			"pk": [1,0.5682644544,0.3598658225,0.2446819094,0.1716038554,0.1201723402,0.08181223104,0.05256772376,0.03030037237,0.01361538642,0.001454502537,-0.007056213508,-0.01266280842,-0.01600529558,-0.01762808429,-0.0179874457,-0.01745883181,-0.01634473999,-0.01488305894,-0.01325560567,-0.01159653773],
			"c": [1,0.993545137,0.9804436004,0.9635514489,0.9444240324,0.9240876129,0.9033111757,0.8826976449,0.8627145765,0.8437079289,0.825913502,0.8094699201,0.7944333324,0.7807929346,0.7684863048,0.7574137414,0.7474510526,0.738460489,0.7302997058,0.7228287869,0.7159154652],
			"inve": [1,0.9938712327,0.9809985312,0.9642625793,0.9453383338,0.9252922255,0.9048428219,0.88448396,0.8645505835,0.8452596129,0.8267388746,0.8090493825,0.7922031877,0.7761778165,0.7609278599,0.7463941128,0.7325106016,0.7192098128,0.7064264142,0.6940997437,0.6821753118],
			"y": [1,0.9789272786,0.944861649,0.9040239551,0.8599158138,0.8147505223,0.7700311195,0.726799273,0.6857582051,0.6473473231,0.6117973798,0.5791762903,0.5494288043,0.5224108699,0.4979188596,0.4757137784,0.4555406874,0.4371437159,0.4202771347,0.4047130271,0.3902461083],
			"lab": [1,0.9713896844,0.9325424627,0.8899482513,0.8469526084,0.80541103,0.7663837794,0.7304508012,0.6978734721,0.6686917053,0.6427909239,0.6199524487,0.599892814,0.5822945173,0.5668296267,0.5531773006,0.5410361447,0.5301322754,0.5202238982,0.5111031481,0.5025958594],
			"pinf": [1,0.7873736018,0.6711013581,0.5772265034,0.4922514531,0.4157741543,0.3488389093,0.2917581234,0.2441057563,0.2050273285,0.1734831331,0.148394145,0.1287214169,0.1135068363,0.1018923425,0.09312696931,0.08656671138,0.08166998321,0.07799032223,0.07516742858,0.07291732321],
			"w": [1,0.9884477592,0.9730632997,0.9559604698,0.9382498925,0.9205447784,0.9031899595,0.8863759895,0.8702004199,0.854702682,0.8398849824,0.8257254775,0.8121870238,0.7992232767,0.7867830993,0.7748138128,0.7632635905,0.7520831826,0.7412270999,0.7306543533,0.7203288352],
			"r": [1,0.9922383267,0.9747434838,0.949969828,0.9198218568,0.8859164547,0.8496248253,0.8120806055,0.7741930563,0.7366682252,0.7000345462,0.664669636,0.6308262346,0.5986561616,0.5682317373,0.539564457,0.5126209135,0.4873360857,0.4636241869,0.4413873106,0.4205221339],
			"a": [1,0.9828,0.96589584,0.9492824316,0.9329547737,0.9169079516,0.9011371349,0.8856375761,0.8704046098,0.8554336505,0.8407201917,0.8262598044,0.8120481358,0.7980809079,0.7843539163,0.7708630289,0.7576041848,0.7445733928,0.7317667305,0.7191803427,0.7068104408],
			"b": [1,0.3881,0.15062161,0.05845624684,0.0226868694,0.008804774014,0.003417132795,0.001326189238,0.0005146940431,0.0001997527581,7.752404543e-05,3.008708203e-05,1.167679654e-05,4.531764736e-06,1.758777894e-06,6.825817007e-07,2.64909958e-07,1.028115547e-07,3.990116438e-08,1.54856419e-08,6.00997762e-09],
			"g": [1,0.9249,0.85544001,0.7911964652,0.7317776107,0.6768211121,0.6259918466,0.5789798589,0.5354984715,0.4952825363,0.4580868178,0.4236844978,0.391865792,0.3624366711,0.3352176771,0.3100428295,0.286758613,0.2652230412,0.2453047908,0.226882401,0.2098435327],
			"qs": [1,0.4265,0.18190225,0.07758130962,0.03308842856,0.01411221478,0.006018859603,0.002567043621,0.001094844104,0.0004669510105,0.000199154606,8.493943944e-05,3.622667092e-05,1.545067515e-05,6.589712951e-06,2.810512573e-06,1.198683613e-06,5.112385608e-07,2.180432462e-07,9.299544449e-08,3.966255708e-08],
			"spinf": [1,-0.1636401803,-0.0524630418,-0.0168196512,-0.005392380175,-0.001728797084,-0.0005542523452,-0.0001776933019,-5.696847258e-05,-1.826409231e-05,-5.855467994e-06,-1.877263039e-06,-6.018505303e-07,-1.9295328e-07,-6.186082157e-08,-1.98325794e-08,-6.358324954e-09,-2.03847898e-09,-6.535363611e-10,-2.095237574e-10,-6.717331661e-11],
			"sw": [1,0.1273675442,0.0726249737,0.04141076,0.02361241535,0.01346379924,0.007677058324,0.004377458656,0.002496026926,0.001423234553,0.0008115283422,0.0004627334607,0.0002638506193,0.0001504476231,8.57852347e-05,4.891474083e-05,2.789118522e-05,1.590355381e-05,9.068206384e-06,5.17069128e-06,2.948328168e-06],
			"kp": [1,0.9997176099,0.9988975133,0.9975666998,0.995753013,0.9934849534,0.9907911336,0.987699711,0.9842379181,0.9804317236,0.9763056184,0.9718825067,0.967183681,0.962228859,0.9570362623,0.9516227229,0.946003804,0.9401939256,0.9342064878,0.9280539877,0.9217481256],
			"rr": [1,-0.2577117131,-0.1072139174,-0.04811090609,-0.02446170131,-0.01456040328,-0.01000332098,-0.007548902056,-0.005954708039,-0.004749395545,-0.003756582036,-0.002910731582,-0.002186396045,-0.00157141453,-0.001057115271,-0.0006350462342,-0.0002961631243,-3.08927273e-05,0.0001705405279,0.0003177574528,0.0004199196811],
			"er": [1,0.4797522588,0.261586049,0.1625734255,0.111717691,0.08139129793,0.06075052818,0.04543673092,0.03359300948,0.02432806102,0.01712710576,0.01162846657,0.007540567645,0.004612210846,0.002622514163,0.001377642143,0.0007094959725,0.0004746391613,0.0005529283249,0.0008457666298,0.001274054316],
			"ec": [1,0.4797522588,0.261586049,0.1625734255,0.111717691,0.08139129793,0.06075052818,0.04543673092,0.03359300948,0.02432806102,0.01712710576,0.01162846657,0.007540567645,0.004612210846,0.002622514163,0.001377642143,0.0007094959725,0.0004746391613,0.0005529283249,0.0008457666298,0.001274054316],
			"nw": [1,0.9054856009,0.8378648925,0.7833399363,0.7362535083,0.6941368396,0.655786384,0.6205167283,0.5878696275,0.5574996198,0.5291278217,0.5025219507,0.4774864064,0.4538562252,0.4314925835,0.4102790046,0.3901179824,0.3709279376,0.3526404918,0.3351980569,0.3185517386],
			"prem": [1,0.9413800529,0.8896789467,0.8427919704,0.7996266999,0.7595169631,0.7219958294,0.686706125,0.6533631925,0.621737268,0.5916431576,0.5629326844,0.5354883352,0.5092176197,0.4840480331,0.4599226206,0.4367961556,0.4146319281,0.3933991157,0.3730706974,0.3536218509],
			"pinf4": [1,0.9595841357,0.8728623004,0.7604889582,0.6421201784,0.5444153151,0.459514029,0.3863062479,0.3244097196,0.2730807549,0.2312419902,0.1976627304,0.1710958165,0.1503578487,0.1343705905,0.1221792719,0.1129575735,0.1060048467,0.1007387325,0.09668507381,0.09346635383],
			"eg": [1,-1.009679644e-16,-1.285358203e-16,-1.565214774e-16,-1.818486211e-16,-2.040539372e-16,-2.231209598e-16,-2.391833729e-16,-2.524205623e-16,-2.630262591e-16,-2.712019454e-16,-2.771564587e-16,-2.811054735e-16,-2.832693553e-16,-2.838695986e-16,-2.831245213e-16,-2.812448768e-16,-2.784298789e-16,-2.748639513e-16,-2.707143522e-16,-2.661297051e-16],
			"interest": [1,0.9922383267,0.9747434838,0.949969828,0.9198218568,0.8859164547,0.8496248253,0.8120806055,0.7741930563,0.7366682252,0.7000345462,0.664669636,0.6308262346,0.5986561616,0.5682317373,0.539564457,0.5126209135,0.4873360857,0.4636241869,0.4413873106,0.4205221339],
			"inflation": [1,0.9595841357,0.8728623004,0.7604889582,0.6421201784,0.5444153151,0.459514029,0.3863062479,0.3244097196,0.2730807549,0.2312419902,0.1976627304,0.1710958165,0.1503578487,0.1343705905,0.1221792719,0.1129575735,0.1060048467,0.1007387325,0.09668507381,0.09346635383],
			"inflationq": [1,0.7873736018,0.6711013581,0.5772265034,0.4922514531,0.4157741543,0.3488389093,0.2917581234,0.2441057563,0.2050273285,0.1734831331,0.148394145,0.1287214169,0.1135068363,0.1018923425,0.09312696931,0.08656671138,0.08166998321,0.07799032223,0.07516742858,0.07291732321],
			"inflationql": [1,0.7873736018,0.6711013581,0.5772265034,0.4922514531,0.4157741543,0.3488389093,0.2917581234,0.2441057563,0.2050273285,0.1734831331,0.148394145,0.1287214169,0.1135068363,0.1018923425,0.09312696931,0.08656671138,0.08166998321,0.07799032223,0.07516742858,0.07291732321],
			"inflationql2": [1,0.7873736018,0.6711013581,0.5772265034,0.4922514531,0.4157741543,0.3488389093,0.2917581234,0.2441057563,0.2050273285,0.1734831331,0.148394145,0.1287214169,0.1135068363,0.1018923425,0.09312696931,0.08656671138,0.08166998321,0.07799032223,0.07516742858,0.07291732321],
			"inflationqls": [1,0.9079938739,0.7572011857,0.6483831404,0.5531869671,0.4679040435,0.3930935578,0.3291032471,0.2755431107,0.231525056,0.1959265089,0.1675622935,0.1452812704,0.1280167257,0.1148104935,0.1048222353,0.09733006433,0.09172592672,0.08750774207,0.08426959599,0.08169089182],
			"outputgap": [1,0.9571223672,0.8967184312,0.8295713342,0.7613555651,0.6952992657,0.6333027325,0.5764471605,0.5252587018,0.4798698363,0.4401329871,0.4057076294,0.3761293541,0.3508646414,0.329353481,0.311041463,0.2954028278,0.2819559056,0.2702723167,0.2599812125,0.2507697157],
			"output": [1,0.9789272786,0.944861649,0.9040239551,0.8599158138,0.8147505223,0.7700311195,0.726799273,0.6857582051,0.6473473231,0.6117973798,0.5791762903,0.5494288043,0.5224108699,0.4979188596,0.4757137784,0.4555406874,0.4371437159,0.4202771347,0.4047130271,0.3902461083],
			"fispol": [1,-8.759056249e-17,-9.858778627e-17,-1.100031921e-16,-1.202829057e-16,-1.291807333e-16,-1.366749969e-16,-1.428201032e-16,-1.476942438e-16,-1.513836466e-16,-1.539792139e-16,-1.555762646e-16,-1.562742196e-16,-1.561754771e-16,-1.553835847e-16,-1.540010423e-16,-1.521270676e-16,-1.49855571e-16,-1.472734957e-16,-1.44459598e-16,-1.414836826e-16],
			"neww": [1,-0.08696309046,-0.0278803668,-0.008938445596,-0.002865665658,-0.00091873241,-0.0002945456106,-9.443132277e-05,-3.027468208e-05,-9.706063075e-06,-3.111763822e-06,-9.976314813e-07,-3.198406529e-07,-1.025409133e-07,-3.287461681e-08,-1.053960215e-08,-3.378996449e-09,-1.083306262e-09,-3.473079875e-10,-1.113469408e-10,-3.569782921e-11]
		},
		"VAR": {
			"ewma": 0.05184729,
			"epinfma": 0.03429904,
			"mc": 1.063336769,
			"zcap": 200.2145815,
			"rk": 4.92703408,
			"k": 15.34428376,
			"pk": 26.7333518,
			"c": 44.58121795,
			"inve": 455.9730742,
			"y": 17.53995002,
			"lab": 5.866946644,
			"pinf": 0.196996794,
			"w": 11.95371138,
			"r": 0.2584458249,
			"a": 6.90578774,
			"b": 3.779878647,
			"g": 2.031717783,
			"qs": 0.1915868978,
			"spinf": 0.03555697933,
			"sw": 0.05292063572,
			"kp": 286.9524418,
			"rr": 22.35831339,
			"er": 5.609494514,
			"ec": 5.609494514,
			"nw": 1020.778731,
			"prem": 0.2766944143,
			"pinf4": 2.474890433,
			"eg": 0.21483225,
			"interest": 4.135133199,
			"inflation": 2.474890433,
			"inflationq": 3.151948705,
			"inflationql": 3.151948705,
			"inflationql2": 3.151948705,
			"inflationqls": 11.26741982,
			"outputgap": 9.753564181,
			"output": 17.53995002,
			"fispol": 0.21483225,
			"neww": 0.1384540993
		},
		"IRF": {
			"interest_": {
				"ewma": [0,-3.19060051e-18,4.443783215e-36,-6.189182631e-54,8.620128344e-72,-1.200588464e-89,1.672147561e-107,-2.328922484e-125,3.243661063e-143,-4.517684537e-161,6.29211042e-179,-8.76348342e-197,1.220554576e-214,-1.69995583e-232,2.367653098e-250,-3.297604028e-268,4.592814858e-286,-6.396749925e-304,8.893181625e-322,0,0],
				"epinfma": [0,0,1.13203863e-34,-1.051894119e-35,-5.997900268e-36,-3.420002733e-36,-1.950085558e-36,-1.111938785e-36,-6.340274954e-37,-3.615224779e-37,-2.061401169e-37,-1.175410947e-37,-6.702193217e-38,-3.821590572e-38,-2.179070944e-38,-1.242506252e-38,-7.084770652e-39,-4.039736226e-39,-2.303457596e-39,-1.313431521e-39,-7.489186533e-40],
				"mc": [0,-0.1356815293,-0.2238219035,-0.2794690251,-0.3111429917,-0.3241673302,-0.3225854599,-0.3098411016,-0.2889768476,-0.2626642113,-0.2331905009,-0.2024485404,-0.1719425418,-0.1428106235,-0.1158600832,-0.09161062018,-0.07034114233,-0.05213667125,-0.0369328023,-0.02455602479,-0.0147589165],
				"zcap": [0,-0.2990127639,-0.5077394867,-0.6092659834,-0.6295117332,-0.589415368,-0.5063407868,-0.3946799513,-0.2661784377,-0.1301880035,0.006084049495,0.1373131048,0.2597874129,0.3711402494,0.4700940099,0.5562240915,0.6297478347,0.6913413886,0.7419853519,0.782838496,0.8151377627],
				"rk": [0,-0.04690667607,-0.07965001665,-0.09557666283,-0.09875265041,-0.09246266069,-0.07943060006,-0.06191416172,-0.04175589559,-0.02042282887,0.0009544159088,0.02154055647,0.0407533239,0.05822144588,0.07374450225,0.08725588478,0.09878968809,0.1084519809,0.1163965915,0.1228052985,0.1278721432],
				"k": [0,-0.2990127639,-0.5476804743,-0.7158571901,-0.8188898708,-0.869547547,-0.8790976074,-0.8575690599,-0.8137572132,-0.7551863688,-0.6881050182,-0.6175300198,-0.5473341678,-0.4803647088,-0.4185797498,-0.3631912604,-0.3148058358,-0.2735568513,-0.2392238187,-0.2113365667,-0.1892632872],
				"pk": [0,-2.515693567,-2.038433894,-1.599670256,-1.215959873,-0.8910959857,-0.6230689346,-0.4072229149,-0.2377600815,-0.1085101192,-0.01335719584,0.0535071454,0.09743075353,0.1232122576,0.1350583973,0.136575502,0.1307864177,0.1201658243,0.1066880227,0.09188222963,0.076891313],
				"c": [0,-0.4486784212,-0.8153439342,-1.087147022,-1.265159031,-1.358215781,-1.379129282,-1.342260883,-1.261952683,-1.151540047,-1.022774372,-0.8855394001,-0.7477755246,-0.6155468706,-0.4932008676,-0.3835817613,-0.288269059,-0.2078197464,-0.1419995023,-0.08999328246,-0.05058968193],
				"inve": [0,-1.370033989,-2.32614048,-2.946303396,-3.302373803,-3.457292159,-3.464425444,-3.367867907,-3.20318335,-2.998340132,-2.774711474,-2.548070233,-2.32953601,-2.126448932,-1.943155097,-1.781696257,-1.642402003,-1.524386899,-1.425958131,-1.344941304,-1.27893329],
				"y": [0,-0.3339839449,-0.641013742,-0.8450793255,-0.9634851526,-1.013277195,-1.010258649,-0.9684774719,-0.8999995045,-0.8148644053,-0.7211610171,-0.6251791102,-0.5316064068,-0.4437478311,-0.3637499462,-0.2928183064,-0.2314193135,-0.1794612811,-0.1364518834,-0.1016310716,-0.07407995655],
				"lab": [0,-0.1881273614,-0.3676006756,-0.4861640071,-0.5536009109,-0.5801337705,-0.5753818195,-0.5478926424,-0.5049626191,-0.4526115719,-0.3956432186,-0.3377534811,-0.2816635887,-0.2292629485,-0.1817516391,-0.1397756908,-0.1035507391,-0.0729714751,-0.04770571504,-0.02727296021,-0.01110807894],
				"pinf": [0,-0.1583916921,-0.2190047268,-0.2346485756,-0.228893254,-0.2126897979,-0.19146938,-0.1681713879,-0.1445372073,-0.1216693722,-0.1002820305,-0.08082291654,-0.06354209252,-0.04853821247,-0.03579441105,-0.02520829374,-0.01661753133,-0.009821516628,-0.004599262938,-0.0007237242238,0.002027205385],
				"w": [0,-0.1577920786,-0.2597298154,-0.3252698458,-0.3640416103,-0.3818764372,-0.383146388,-0.3715905793,-0.3505504897,-0.3229976258,-0.2915073837,-0.2582359822,-0.2249172552,-0.1928803145,-0.1630836084,-0.1361596847,-0.1124654086,-0.09213339525,-0.07512151217,-0.06125830792,-0.05028306502],
				"r": [0,0.2197978168,0.1640501992,0.1126774479,0.06795698722,0.03050043128,0.0001422351205,-0.02365220736,-0.0415881216,-0.05443690307,-0.06297620212,-0.0679531812,-0.07006142586,-0.06992694313,-0.06810074515,-0.06505639098,-0.0611912609,-0.05683055871,-0.05223319512,-0.04759884132,-0.04307556907],
				"a": [0,-5.400272781e-18,-5.307388089e-18,-5.216101014e-18,-5.126384076e-18,-5.03821027e-18,-4.951553054e-18,-4.866386341e-18,-4.782684496e-18,-4.700422323e-18,-4.619575059e-18,-4.540118368e-18,-4.462028332e-18,-4.385281445e-18,-4.309854604e-18,-4.235725105e-18,-4.162870633e-18,-4.091269258e-18,-4.020899427e-18,-3.951739956e-18,-3.883770029e-18],
				"b": [0,0,-5.198699793e-33,-4.206536919e-33,-2.559576511e-33,-1.385007528e-33,-7.024227492e-34,-3.417253741e-34,-1.614082396e-34,-7.452404729e-35,-3.376494245e-35,-1.504088687e-35,-6.590123477e-36,-2.836908369e-36,-1.196301174e-36,-4.913485018e-37,-1.94491744e-37,-7.268739201e-38,-2.450037114e-38,-6.490911374e-39,-4.13538517e-40],
				"g": [0,2.709729627e-16,7.286271376e-16,8.459312847e-16,7.409463826e-16,4.873107408e-16,1.376868954e-16,-2.69046406e-16,-7.039093902e-16,-1.145454523e-15,-1.57813981e-15,-1.99110048e-15,-2.377165828e-15,-2.732049385e-15,-3.05367559e-15,-3.341621185e-15,-3.596655999e-15,-3.820370571e-15,-4.014879444e-15,-4.182589751e-15,-4.326025444e-15],
				"qs": [0,1.74755634e-16,7.453327792e-17,3.178844303e-17,1.355777095e-17,5.782389312e-18,2.466189041e-18,1.051829626e-18,4.486053356e-19,1.913301756e-19,8.16023199e-20,3.480338944e-20,1.48436456e-20,6.330814846e-21,2.700092532e-21,1.151589465e-21,4.911529068e-22,2.094767147e-22,8.934181884e-23,3.810428573e-23,1.625147787e-23],
				"spinf": [0,0,3.579977167e-34,2.326702014e-35,-7.033884522e-36,-1.051913801e-35,-8.084611e-36,-5.278808673e-36,-3.224446398e-36,-1.907338319e-36,-1.10960844e-36,-6.397660804e-37,-3.670604109e-37,-2.100242591e-37,-1.199887205e-37,-6.849223232e-38,-3.907820811e-38,-2.229006854e-38,-1.271225746e-38,-7.249317997e-39,-4.13381401e-39],
				"sw": [0,-3.19060051e-18,-3.771289803e-19,-2.150389446e-19,-1.226152062e-19,-6.991519057e-20,-3.986564166e-20,-2.273138888e-20,-1.296143794e-20,-7.390611912e-21,-4.214126912e-21,-2.402895165e-21,-1.370130823e-21,-7.812485955e-22,-4.454679491e-22,-2.540058246e-22,-1.448341212e-22,-8.25844159e-23,-4.708963395e-23,-2.685050928e-23,-1.531016039e-23],
				"kp": [0,-0.03994098758,-0.1065912067,-0.1893781377,-0.280132179,-0.3727568206,-0.4628891086,-0.5475787755,-0.6249983653,-0.6941890677,-0.7548431246,-0.8071215807,-0.8515049582,-0.8886737598,-0.9194153518,-0.9445536704,-0.9648982399,-0.9812091707,-0.9941750626,-1.00440105,-1.012404566],
				"rr": [0,-2.43529214,0.5410517401,0.4877477248,0.4200946711,0.3508731225,0.2857318185,0.227091752,0.175846137,0.1321187169,0.0956190122,0.06582327959,0.04207778408,0.02366493661,0.009849319001,-8.909607165e-05,-0.006831127556,-0.01100208029,-0.01316162088,-0.01379871591,-0.01333061476],
				"er": [0,0.5410517401,0.4877477248,0.4200946711,0.3508731225,0.2857318185,0.227091752,0.175846137,0.1321187169,0.0956190122,0.06582327959,0.04207778408,0.02366493661,0.009849319001,-8.909607165e-05,-0.006831127556,-0.01100208029,-0.01316162088,-0.01379871591,-0.01333061476,-0.01210494266],
				"ec": [0,0.5410517401,0.4877477248,0.4200946711,0.3508731225,0.2857318185,0.227091752,0.175846137,0.1321187169,0.0956190122,0.06582327959,0.04207778408,0.02366493661,0.009849319001,-8.909607165e-05,-0.006831127556,-0.01100208029,-0.01316162088,-0.01379871591,-0.01333061476,-0.01210494266],
				"nw": [0,-8.005020873,-7.106365637,-6.301515729,-5.599638445,-4.997293646,-4.485827912,-4.054697409,-3.693013047,-3.390289624,-3.136820853,-2.923864131,-2.743718135,-2.589733724,-2.456280507,-2.338683377,-2.233139417,-2.136623255,-2.046787318,-1.96186205,-1.880559932],
				"prem": [0,0.1022491965,0.08904895,0.07852396919,0.0702263374,0.06376200723,0.05877812898,0.05496113705,0.05203746632,0.04977388477,0.04797656518,0.04648887276,0.04518815,0.04398185108,0.04280335534,0.04160773209,0.04036766398,0.03906967488,0.03771075499,0.03629543195,0.03483330276],
				"pinf4": [0,-0.1583916921,-0.3773964189,-0.6120449945,-0.8409382485,-0.8952363543,-0.8677010075,-0.8012238199,-0.7168677732,-0.6258473474,-0.5346599979,-0.4473115265,-0.3663164117,-0.293185252,-0.2286976326,-0.1730830098,-0.1261584486,-0.08744175275,-0.05624660464,-0.03176203512,-0.0131172984],
				"eg": [0,1.806486418e-16,3.186694963e-16,1.146826967e-16,-2.763697507e-17,-1.319937123e-16,-2.086845392e-16,-2.642620104e-16,-3.033789129e-16,-3.296058184e-16,-3.45805948e-16,-3.543193129e-16,-3.570646627e-16,-3.556058074e-16,-3.512020757e-16,-3.448510881e-16,-3.373270433e-16,-3.292156253e-16,-3.209458014e-16,-3.128185024e-16,-3.05032122e-16],
				"interest": [0,0.8791912672,0.6562007968,0.4507097915,0.2718279489,0.1220017251,0.0005689404821,-0.09460882946,-0.1663524864,-0.2177476123,-0.2519048085,-0.2718127248,-0.2802457034,-0.2797077725,-0.2724029806,-0.2602255639,-0.2447650436,-0.2273222348,-0.2089327805,-0.1903953653,-0.1723022763],
				"inflation": [0,-0.1583916921,-0.3773964189,-0.6120449945,-0.8409382485,-0.8952363543,-0.8677010075,-0.8012238199,-0.7168677732,-0.6258473474,-0.5346599979,-0.4473115265,-0.3663164117,-0.293185252,-0.2286976326,-0.1730830098,-0.1261584486,-0.08744175275,-0.05624660464,-0.03176203512,-0.0131172984],
				"inflationq": [0,-0.6335667684,-0.8760189072,-0.9385943025,-0.9155730161,-0.8507591916,-0.76587752,-0.6726855517,-0.5781488293,-0.4866774887,-0.401128122,-0.3232916662,-0.2541683701,-0.1941528499,-0.1431776442,-0.100833175,-0.06647012534,-0.03928606651,-0.01839705175,-0.002894896895,0.008108821542],
				"inflationql": [0,-1.952282189e-16,-0.6335667684,-0.8760189072,-0.9385943025,-0.9155730161,-0.8507591916,-0.76587752,-0.6726855517,-0.5781488293,-0.4866774887,-0.401128122,-0.3232916662,-0.2541683701,-0.1941528499,-0.1431776442,-0.100833175,-0.06647012534,-0.03928606651,-0.01839705175,-0.002894896895],
				"inflationql2": [0,-2.141464441e-17,1.05654987e-15,-0.6335667684,-0.8760189072,-0.9385943025,-0.9155730161,-0.8507591916,-0.76587752,-0.6726855517,-0.5781488293,-0.4866774887,-0.401128122,-0.3232916662,-0.2541683701,-0.1941528499,-0.1431776442,-0.100833175,-0.06647012534,-0.03928606651,-0.01839705175],
				"inflationqls": [0,-2.166428633e-16,-0.6335667684,-1.509585676,-1.81461321,-1.854167319,-1.766332208,-1.616636712,-1.438563072,-1.250834381,-1.064826318,-0.8878056107,-0.7244197882,-0.5774600362,-0.44832122,-0.3373304941,-0.2440108191,-0.1673033003,-0.1057561918,-0.05768311826,-0.02129194865],
				"outputgap": [0,-0.3339839449,-0.641013742,-0.8450793255,-0.9634851526,-1.013277195,-1.010258649,-0.9684774719,-0.8999995045,-0.8148644053,-0.7211610171,-0.6251791102,-0.5316064068,-0.4437478311,-0.3637499462,-0.2928183064,-0.2314193135,-0.1794612811,-0.1364518834,-0.1016310716,-0.07407995655],
				"output": [0,-0.3339839449,-0.641013742,-0.8450793255,-0.9634851526,-1.013277195,-1.010258649,-0.9684774719,-0.8999995045,-0.8148644053,-0.7211610171,-0.6251791102,-0.5316064068,-0.4437478311,-0.3637499462,-0.2928183064,-0.2314193135,-0.1794612811,-0.1364518834,-0.1016310716,-0.07407995655],
				"fispol": [0,9.03243209e-17,1.593347481e-16,5.734134837e-17,-1.381848753e-17,-6.599685616e-17,-1.043422696e-16,-1.321310052e-16,-1.516894564e-16,-1.648029092e-16,-1.72902974e-16,-1.771596565e-16,-1.785323314e-16,-1.778029037e-16,-1.756010378e-16,-1.72425544e-16,-1.686635217e-16,-1.646078126e-16,-1.604729007e-16,-1.564092512e-16,-1.52516061e-16],
				"neww": [0,-6.071047273e-32,-4.836959479e-31,-5.508249665e-31,-5.91936206e-31,-5.853829113e-31,-5.5196069e-31,-5.033398501e-31,-4.467762332e-31,-3.871466866e-31,-3.278590963e-31,-2.712934295e-31,-2.1904867e-31,-1.721084381e-31,-1.309699399e-31,-9.575285236e-32,-6.629368517e-32,-4.222718819e-32,-2.305524589e-32,-8.203646782e-33,2.932619646e-33]
			},
			"fiscal_": {
				"ewma": [0,-1.347305392e-17,1.876490982e-35,-2.613526546e-53,3.640050003e-71,-5.069764469e-89,7.061032612e-107,-9.834417721e-125,1.369711446e-142,-1.907697537e-160,2.656990202e-178,-3.700585023e-196,5.15407603e-214,-7.178459502e-232,9.99796676e-250,-1.39249012e-267,1.939423065e-285,-2.701176671e-303,3.759839565e-321,0,0],
				"epinfma": [0,0,4.780296827e-34,-4.441867962e-35,-2.532753112e-35,-1.444175824e-35,-8.234690551e-36,-4.695420552e-36,-2.677328799e-36,-1.526612881e-36,-8.704746648e-37,-4.963446538e-37,-2.830157216e-37,-1.613755645e-37,-9.201634686e-38,-5.246772098e-38,-2.99170945e-38,-1.705872729e-38,-9.726886298e-39,-5.546270567e-39,-3.162483477e-39],
				"mc": [0,0.09093567163,0.126673981,0.1396470283,0.1375882369,0.1260359118,0.1090305013,0.08950711309,0.06954946714,0.05057553046,0.03348443694,0.01877731715,0.006657741828,-0.002885213478,-0.01000924387,-0.01496469402,-0.01805238108,-0.01959173271,-0.01989765853,-0.01926465531,-0.01795675995],
				"zcap": [0,0.6903611763,0.6746085843,0.6421009728,0.6028940917,0.563908411,0.5297101194,0.5030594104,0.4853370998,0.4768942125,0.4773426846,0.4857954646,0.5010611285,0.521797465,0.5466285944,0.5742303968,0.6033890893,0.6330376816,0.6622747551,0.6903696073,0.7167573274],
				"rk": [0,0.1082982132,0.1058270755,0.1007275473,0.09457709259,0.08846133796,0.08309658976,0.07891584458,0.07613571349,0.07481126239,0.07488161502,0.07620761799,0.07860237046,0.08185531727,0.08575062171,0.09008056665,0.09465474376,0.09930577235,0.1038922452,0.1082995358,0.1124390254],
				"k": [0,0.6903611763,0.6602520799,0.6011904303,0.5253433834,0.4416837412,0.3567366548,0.275089981,0.1997882364,0.1326584866,0.07458727411,0.02575636156,-0.01415885619,-0.04582541718,-0.07012044783,-0.0880272378,-0.1005563212,-0.1086880481,-0.1133331757,-0.115308176,-0.115322221],
				"pk": [0,-0.3690804497,-0.3709833981,-0.3702177915,-0.3620283241,-0.3454864604,-0.321479041,-0.2916838054,-0.2580240274,-0.2223714144,-0.1863874266,-0.1514470142,-0.1186135712,-0.0886460378,-0.06202558066,-0.03899316649,-0.01959192683,-0.003710069291,0.008878515237,0.01847773735,0.02543786747],
				"c": [0,0.3446570216,0.5326504413,0.6065404253,0.6009811266,0.5434206219,0.4550275092,0.351654436,0.2447555869,0.1422224419,0.04912387673,-0.03165266281,-0.09885651424,-0.1524200473,-0.193088262,-0.2221231118,-0.2410734384,-0.2516013587,-0.2553562314,-0.2538878693,-0.2485913714],
				"inve": [0,-0.4924489894,-0.9251986481,-1.297721543,-1.609932588,-1.862982171,-2.059415079,-2.203027793,-2.298593634,-2.351546056,-2.367669414,-2.352823635,-2.312715613,-2.252721654,-2.177759976,-2.092209,-1.999865331,-1.903934528,-1.807047624,-1.71129674,-1.618283771],
				"y": [0,1.124289898,1.01575906,0.8932236302,0.7662329949,0.6419678233,0.5255132379,0.4201826547,0.3278465034,0.2492421556,0.1842529008,0.1321503319,0.0917984781,0.06182054942,0.04073077904,0.02703483112,0.01930276673,0.01621874336,0.0166115582,0.01946990557,0.02394586438],
				"lab": [0,0.712048088,0.6342129773,0.5525775388,0.4716197457,0.3947507237,0.3243435602,0.2618608172,0.2080148744,0.1629304476,0.126294966,0.09749043706,0.07570453206,0.06002086155,0.04948967655,0.0431809319,0.04022200115,0.03982245038,0.04128823795,0.04402756106,0.0475503563],
				"pinf": [0,0.03956432778,0.05209094689,0.05165323328,0.04517677267,0.036245827,0.02679530375,0.01788642132,0.01008124681,0.003637942039,-0.001377375857,-0.005020287768,-0.007420548816,-0.008748652139,-0.009192045159,-0.008938453055,-0.008164632013,-0.007029311792,-0.005669342744,-0.00419824014,-0.002706460412],
				"w": [0,0.08661130141,0.131866178,0.1493404388,0.1483007303,0.1353943555,0.1154896844,0.09214500834,0.06790907553,0.04453930145,0.02317392319,0.0044735425,-0.01126101779,-0.02399096146,-0.03385950267,-0.04112760305,-0.04612357855,-0.04920472611,-0.05072916841,-0.05103620129,-0.05043355187],
				"r": [0,0.03649384647,0.04051670705,0.0434795966,0.04489664265,0.04475367594,0.04325431944,0.04069072604,0.03737500692,0.03360223213,0.02963110729,0.02567520599,0.0219007642,0.01842857784,0.01533837208,0.01267451036,0.01045224595,0.008663961686,0.007285026874,0.006279040889,0.005602339527],
				"a": [0,-2.431355884e-17,-2.389536562e-17,-2.348436534e-17,-2.308043425e-17,-2.268345078e-17,-2.229329543e-17,-2.190985075e-17,-2.153300132e-17,-2.116263369e-17,-2.079863639e-17,-2.044089985e-17,-2.008931637e-17,-1.974378013e-17,-1.940418711e-17,-1.907043509e-17,-1.874242361e-17,-1.842005392e-17,-1.810322899e-17,-1.779185346e-17,-1.748583358e-17],
				"b": [0,0,-2.393299639e-33,-1.829977486e-33,-1.066867447e-33,-5.503794909e-34,-2.627460367e-34,-1.177996145e-34,-4.954239117e-35,-1.918995611e-35,-6.480252184e-36,-1.559914892e-36,1.112613294e-37,5.252158305e-37,5.099950499e-37,3.858512297e-37,2.62596023e-37,1.686874373e-37,1.045778265e-37,6.332905287e-38,3.773412487e-38],
				"g": [0,1,0.9249,0.85544001,0.7911964652,0.7317776107,0.6768211121,0.6259918466,0.5789798589,0.5354984715,0.4952825363,0.4580868178,0.4236844978,0.391865792,0.3624366711,0.3352176771,0.3100428295,0.286758613,0.2652230412,0.2453047908,0.226882401],
				"qs": [0,8.554041624e-17,3.648298753e-17,1.555999418e-17,6.636337518e-18,2.830397951e-18,1.207164726e-18,5.148557558e-19,2.195859798e-19,9.36534204e-20,3.99431838e-20,1.703576789e-20,7.265755005e-21,3.09884451e-21,1.321657183e-21,5.636867887e-22,2.404124154e-22,1.025358952e-22,4.373155929e-23,1.865151004e-23,7.954869031e-24],
				"spinf": [0,0,1.511728756e-33,9.82504127e-35,-2.970221596e-35,-4.441951072e-35,-3.413915329e-35,-2.229099934e-35,-1.361597606e-35,-8.054180376e-36,-4.685580125e-36,-2.701561311e-36,-1.549998093e-36,-8.868763602e-37,-5.066803242e-37,-2.892244065e-37,-1.650168372e-37,-9.412500698e-38,-5.368046848e-38,-3.0611934e-38,-1.745599265e-38],
				"sw": [0,-1.347305392e-17,-1.592514973e-18,-9.080520377e-19,-5.177712719e-19,-2.952331792e-19,-1.683419588e-19,-9.59885849e-20,-5.473269111e-20,-3.120858047e-20,-1.779513259e-20,-1.01467846e-20,-5.785696579e-21,-3.299004189e-21,-1.881092189e-21,-1.072598766e-21,-6.115958164e-22,-3.487319345e-22,-1.988469491e-22,-1.133825304e-22,-6.465071881e-23],
				"kp": [0,-0.01435650439,-0.0409105425,-0.07755070835,-0.1222246698,-0.1729734646,-0.2279694294,-0.2855488634,-0.3442357258,-0.4027554104,-0.460039103,-0.5152199847,-0.5676228821,-0.6167490423,-0.6622576346,-0.7039454104,-0.7417257297,-0.7756079308,-0.8056777833,-0.8320795484,-0.854999982],
				"rr": [0,-0.3535335729,0.01362542414,0.01610296816,0.02305981817,0.03067431971,0.03718330671,0.04186462111,0.04454241841,0.0453310147,0.0444927837,0.04235448176,0.03925621002,0.0355202817,0.03143311131,0.02723598166,0.02312193154,0.01923679298,0.01568291377,0.01252446478,0.009793512488],
				"er": [0,0.01362542414,0.01610296816,0.02305981817,0.03067431971,0.03718330671,0.04186462111,0.04454241841,0.0453310147,0.0444927837,0.04235448176,0.03925621002,0.0355202817,0.03143311131,0.02723598166,0.02312193154,0.01923679298,0.01568291377,0.01252446478,0.009793512488,0.007496260674],
				"ec": [0,0.01362542414,0.01610296816,0.02305981817,0.03067431971,0.03718330671,0.04186462111,0.04454241841,0.0453310147,0.0444927837,0.04235448176,0.03925621002,0.0355202817,0.03143311131,0.02723598166,0.02312193154,0.01923679298,0.01568291377,0.01252446478,0.009793512488,0.007496260674],
				"nw": [0,-1.162096154,-1.093446769,-1.025727576,-0.9546293094,-0.8796877201,-0.8021394925,-0.72384962,-0.6467611627,-0.5726152481,-0.5028197821,-0.4384041157,-0.3800244763,-0.3279987801,-0.2823570195,-0.2428980271,-0.2092464834,-0.1809062056,-0.1573073391,-0.137846235,-0.1219176353],
				"prem": [0,0.02922252455,0.02723949438,0.02475699423,0.02202350406,0.01922493452,0.01649672299,0.01393293917,0.01159394982,0.00951317571,0.007703086704,0.006160455223,0.004870865364,0.003812488305,0.002959156523,0.002282789169,0.001755235237,0.001349609338,0.001041197769,0.0008080111873,0.0006310556514],
				"pinf4": [0,0.03956432778,0.09165527467,0.1433085079,0.1884852806,0.1851667798,0.1598711367,0.1261043247,0.09100879889,0.05840091392,0.03022823432,0.007321525227,-0.0101802704,-0.02256686458,-0.03038153388,-0.03429969917,-0.03504378236,-0.03332444202,-0.0298017396,-0.02506152669,-0.01960335509],
				"eg": [0,1,-1.009679644e-16,-1.285358203e-16,-1.565214774e-16,-1.818486211e-16,-2.040539372e-16,-2.231209598e-16,-2.391833729e-16,-2.524205623e-16,-2.630262591e-16,-2.712019454e-16,-2.771564587e-16,-2.811054735e-16,-2.832693553e-16,-2.838695986e-16,-2.831245213e-16,-2.812448768e-16,-2.784298789e-16,-2.748639513e-16,-2.707143522e-16],
				"interest": [0,0.1459753859,0.1620668282,0.1739183864,0.1795865706,0.1790147038,0.1730172778,0.1627629042,0.1495000277,0.1344089285,0.1185244292,0.1027008239,0.08760305681,0.07371431138,0.06135348833,0.05069804144,0.04180898381,0.03465584674,0.0291401075,0.02511616356,0.02240935811],
				"inflation": [0,0.03956432778,0.09165527467,0.1433085079,0.1884852806,0.1851667798,0.1598711367,0.1261043247,0.09100879889,0.05840091392,0.03022823432,0.007321525227,-0.0101802704,-0.02256686458,-0.03038153388,-0.03429969917,-0.03504378236,-0.03332444202,-0.0298017396,-0.02506152669,-0.01960335509],
				"inflationq": [0,0.1582573111,0.2083637876,0.2066129331,0.1807070907,0.144983308,0.107181215,0.07154568529,0.04032498725,0.01455176815,-0.005509503429,-0.02008115107,-0.02968219526,-0.03499460856,-0.03676818063,-0.03575381222,-0.03265852805,-0.02811724717,-0.02267737097,-0.01679296056,-0.01082584165],
				"inflationql": [0,-8.900206794e-18,0.1582573111,0.2083637876,0.2066129331,0.1807070907,0.144983308,0.107181215,0.07154568529,0.04032498725,0.01455176815,-0.005509503429,-0.02008115107,-0.02968219526,-0.03499460856,-0.03676818063,-0.03575381222,-0.03265852805,-0.02811724717,-0.02267737097,-0.01679296056],
				"inflationql2": [0,-6.119635275e-18,3.319961958e-16,0.1582573111,0.2083637876,0.2066129331,0.1807070907,0.144983308,0.107181215,0.07154568529,0.04032498725,0.01455176815,-0.005509503429,-0.02008115107,-0.02968219526,-0.03499460856,-0.03676818063,-0.03575381222,-0.03265852805,-0.02811724717,-0.02267737097],
				"inflationqls": [0,-1.501984207e-17,0.1582573111,0.3666210987,0.4149767207,0.3873200238,0.3256903987,0.252164523,0.1787269003,0.1118706725,0.05487675541,0.009042264725,-0.0255906545,-0.04976334634,-0.06467680382,-0.07176278919,-0.07252199285,-0.06841234027,-0.06077577522,-0.05079461814,-0.03947033153],
				"outputgap": [0,1.124289898,1.01575906,0.8932236302,0.7662329949,0.6419678233,0.5255132379,0.4201826547,0.3278465034,0.2492421556,0.1842529008,0.1321503319,0.0917984781,0.06182054942,0.04073077904,0.02703483112,0.01930276673,0.01621874336,0.0166115582,0.01946990557,0.02394586438],
				"output": [0,1.124289898,1.01575906,0.8932236302,0.7662329949,0.6419678233,0.5255132379,0.4201826547,0.3278465034,0.2492421556,0.1842529008,0.1321503319,0.0917984781,0.06182054942,0.04073077904,0.02703483112,0.01930276673,0.01621874336,0.0166115582,0.01946990557,0.02394586438],
				"fispol": [0,1,-8.759056249e-17,-9.858778627e-17,-1.100031921e-16,-1.202829057e-16,-1.291807333e-16,-1.366749969e-16,-1.428201032e-16,-1.476942438e-16,-1.513836466e-16,-1.539792139e-16,-1.555762646e-16,-1.562742196e-16,-1.561754771e-16,-1.553835847e-16,-1.540010423e-16,-1.521270676e-16,-1.49855571e-16,-1.472734957e-16,-1.44459598e-16],
				"neww": [0,-2.624314917e-32,6.26422621e-32,5.078497799e-32,3.576349128e-32,1.200657078e-32,-1.398944804e-32,-3.862372272e-32,-5.994633991e-32,-7.701453234e-32,-8.952793068e-32,-9.760086157e-32,-1.016083646e-31,-1.020767809e-31,-9.9604561e-32,-9.480537249e-32,-8.826844925e-32,-8.053248731e-32,-7.207013624e-32,-6.328062584e-32,-5.448845589e-32]
			}
		}
	}
}
